881 128
125 0.04203366 -0.09375846 0.05927835 0.27566046 0.09271605 -0.02225592 0.33954674 -0.1392411 -0.08341611 0.035157952 0.271533 -0.064841285 -0.13895306 -0.20999168 -0.20120512 -0.08331921 -0.08029316 -0.035694074 -0.25292826 0.0659708 0.21603437 0.0361478 0.20162435 0.019142454 -0.100268625 -0.079295084 -0.31819442 -0.0032797807 0.17673147 -0.022018801 -0.65986717 -0.124119796 0.0073040333 -0.10012455 0.006612525 0.56981736 0.14220472 0.28594702 0.11382222 -0.17349777 -0.11078376 0.19898741 -0.10072706 0.029062763 -0.13339703 -0.24254353 0.11429358 -0.019900275 -0.12464646 0.089482866 0.37926555 -0.0442639 -0.027912036 0.18300395 -0.23831998 -0.33640793 0.18772066 -0.48929086 -0.19791086 0.46838266 -0.02873493 -0.20450234 -0.07120403 -0.016708722 0.3183023 0.014226644 0.052801356 -0.19975065 0.042894557 -0.3939439 -0.0042986874 -0.32518983 -0.6271912 -0.3332716 0.009944403 0.299129 0.354954 -0.298785 -0.23486519 -0.16810393 -0.05422899 -0.20838575 0.72169495 0.73014164 0.44570935 -0.011486345 0.7612259 0.2140727 0.39304787 0.32993263 -0.68261796 0.07736905 0.005399606 0.15015288 0.45140883 0.10931854 -0.7599328 -0.6188087 -0.19588457 0.14317915 0.01789634 0.1143236 -0.251994 0.13731445 0.43530628 -0.16457653 0.058547683 -0.20759234 0.15288325 -0.2264826 -0.027868835 0.35825327 0.54590225 0.36203375 -0.32089683 0.27625975 0.016619813 0.3183592 0.08631107 0.24743368 -0.28663334 -0.022263873 -0.009404228 0.28136414 -0.15266557 -0.27807853 0.21769673 0.3126911
119 -0.033897676 -0.14005777 -0.0067571374 0.34527308 0.36693332 0.0043102545 0.32879218 -0.07629351 -0.19523138 0.07454385 0.24274918 -0.11922986 -0.045913327 -0.18499947 -0.11513363 -0.1824098 -0.08823143 -0.01115709 -0.13268273 0.37556514 0.33817178 -0.025889348 0.20082502 -0.0650742 -0.14043972 -0.1602344 -0.32155582 0.0031900425 0.2691042 0.019616023 -0.7419897 -0.12908605 -0.009307787 -0.017313156 -0.04383519 0.5839279 0.2043297 0.35564083 0.0010909657 -0.14956926 -0.16146332 0.18586242 -0.20644589 -0.1364755 0.009961435 -0.12291473 -0.002301307 0.033786695 -0.12106281 0.05726425 0.4692124 -0.14962195 -0.017392823 0.25080904 -0.0265065 -0.22678854 0.09865522 -0.4873905 -0.1052226 0.2625887 0.054022573 -0.17649275 -0.12265357 0.1363399 0.4037023 0.092522375 0.024493422 -0.021571897 0.15557286 -0.3595212 -0.0048702187 -0.478106 -0.7018015 -0.1546496 -0.18368289 0.26139304 0.4820102 -0.275055 -0.079646744 0.057179328 -0.23821372 -0.15087554 0.47526756 0.64367753 0.4980729 0.14691883 0.77159244 0.38108224 0.5097332 0.30596498 -0.75465494 0.18887365 0.010389421 0.20647408 0.6160769 0.018976564 -0.6737224 -0.36193094 -0.157593 0.15040232 -0.04771276 0.029650234 -0.23238419 -0.18101741 0.37369627 -0.010583057 -0.07481313 -0.15093142 0.124739096 -0.17320153 0.0001108642 0.24769415 0.66301686 0.39164594 -0.22171056 0.17673628 0.11859746 0.35734758 0.2579373 0.33357662 -0.31875825 -0.00791656 -0.04150485 0.116477594 -0.26676828 -0.42753536 0.11505127 0.39934292
130 -0.021936392 -0.22636357 -0.07058559 0.50622296 0.36678442 0.011982711 0.39403692 -0.047115996 -0.2121395 0.019643528 0.40237734 -0.13907476 -0.105073445 -0.08374381 -0.02335035 -0.17895764 -0.098210275 -0.06955118 -0.3155729 0.19737732 0.35108277 0.078038186 0.09911585 0.00850843 -0.26880834 -0.12153211 -0.47799575 0.06289597 0.21954337 0.045785815 -0.57438153 -0.11695591 0.048274465 -0.101615794 0.12910876 0.61830753 0.27782428 0.20920017 0.1693332 -0.15689641 -0.21541767 0.278369 -0.051645357 -0.087151304 0.07011441 -0.11748267 0.15560722 0.13684276 -0.16546485 0.004970347 0.41742086 -0.026164176 0.157885 0.11293965 -0.07982854 -0.24494946 0.20308678 -0.5734019 0.019328374 0.21749695 0.0022375863 -0.08709871 -0.06563107 0.14788501 0.43791878 0.06406792 0.23285194 -0.036112968 0.076870315 -0.2450028 0.073449165 -0.40438172 -0.6713715 -0.02259005 0.037932776 0.29257807 0.21015748 -0.13010083 -0.12404253 0.13090734 -0.11661785 -0.29062477 0.38763976 0.695365 0.43022543 0.13565026 0.7159476 0.36601722 0.50964814 0.2571347 -0.6033786 0.097009845 0.024301706 0.08838999 0.60841453 0.08062412 -0.54217 -0.38654417 -0.10380426 0.14235345 -0.018697673 0.15373223 -0.18741298 -0.087695986 0.31587422 0.05843936 0.110340245 -0.19309956 0.038723126 -0.16992441 0.041893706 0.4005578 0.6910023 0.27895123 -0.20473857 0.17001736 0.052264612 0.3016019 0.11444961 0.14707989 -0.40829533 -0.024559623 0.06623063 0.1589211 -0.2719434 -0.17103018 0.29389775 0.43617752
120 -0.057646804 -0.11120782 0.057032183 0.4830122 0.30812368 -0.015855683 0.31921276 -0.09221587 -0.21765245 -0.082249805 0.4600242 -0.18898179 0.07127457 -0.25185966 -0.05895934 -0.19646114 -0.2314891 0.14270018 -0.288939 0.1694124 0.2590802 -0.01834922 -0.053060442 0.016356034 -0.37554786 0.014320492 -0.46489623 0.050031498 0.15901086 -0.017741645 -0.6151536 -0.07805236 -0.2035599 -0.0091640875 0.12923834 0.5495645 0.11825763 0.33188355 0.2368464 -0.04015517 -0.08282971 0.18002701 -0.14155829 -0.20671268 -0.04739126 -0.18296468 0.049023036 -0.04102973 0.05420365 -0.08052272 0.5213671 -0.07111606 0.053470723 0.06174207 -0.04505304 -0.25342324 0.09877015 -0.43294382 -0.15261763 0.4018088 -0.016562672 -0.27645695 -0.092273004 0.24717948 0.27805904 -0.0065794727 0.11709028 0.011173918 0.111878246 -0.24501193 -0.020749805 -0.33825907 -0.5679996 -0.25137034 -0.08276811 0.19593497 0.28163773 -0.46337053 0.039865438 0.041831493 -0.37361875 -0.22814202 0.4722818 0.6057308 0.4612289 0.08827585 0.623384 0.46078858 0.3879703 0.15243448 -0.7386233 0.16826466 0.05306084 0.03218713 0.5211187 0.091923796 -0.7215135 -0.48029897 0.007209841 -0.070831396 -0.061778083 -0.0338677 -0.16797188 0.03623069 0.27052042 0.04886049 0.04654705 -0.16001637 0.12829971 -0.45050362 -0.06364065 0.30178267 0.64848536 0.44990486 -0.38835448 0.2860271 -0.08255407 0.37899533 0.20673224 -0.01250657 -0.5287022 0.0052653668 0.02921526 0.23856078 -0.10959062 -0.43409657 0.21763793 0.41319928
124 0.015625011 0.04845393 0.23632444 0.37849233 0.22869371 0.022249104 0.32170787 -0.005579083 -0.24496266 0.03926235 0.33585006 -0.03700943 -0.15016495 -0.1866368 -0.11002783 -0.21019836 0.044008516 0.018497363 -0.14561653 0.14950539 0.32328016 -0.19606736 0.14764677 0.007899795 -0.13437979 0.098476 -0.43341252 0.02255543 0.22492604 -0.022437915 -0.52702886 -0.1313163 -0.08146614 -0.07252842 0.15042175 0.5924015 0.10318588 0.23004134 0.20834272 -0.10756618 -0.03607036 0.28343564 -0.11124848 -0.18209478 -0.006944821 -0.17427738 0.17204587 -0.06615115 -0.18452206 -0.05821131 0.3747993 -0.13229172 -0.01861378 -0.018774267 -0.19736494 -0.34387973 0.10471525 -0.6849522 0.05914366 0.18509534 0.054910503 -0.11205241 -0.08742782 0.3818563 0.2557142 0.11792957 0.042629786 -0.2321475 0.1476551 -0.23436305 -0.026085071 -0.2053187 -0.79411036 -0.15685523 -0.1103427 0.2185266 0.18450744 -0.30065784 -0.00020858458 0.08776517 -0.10543602 -0.2528403 0.5532015 0.42983723 0.37982658 0.046968933 0.68823785 0.31274277 0.5016443 0.23726365 -0.8060704 0.2102515 -0.022209303 -0.012543131 0.31016994 0.18764485 -0.8050782 -0.35245037 -0.23723704 0.09291515 0.08029596 0.056004986 -0.22312951 0.034576714 0.3088138 0.021847488 0.18665516 -0.22204143 0.3131305 -0.22177994 0.03818372 0.5362485 0.6703402 0.317552 -0.19287486 0.17027172 -0.074993946 0.28843147 0.34750623 0.32352293 -0.26165575 -0.1476501 -0.06258177 0.23321708 -0.20977458 -0.27205092 0.16121016 0.32840398
128 0.144434 -0.0033013949 0.056385823 0.36453587 0.33735827 0.15181623 0.4675309 -0.045656927 -0.25356382 0.034486204 0.26528633 -0.17414956 -0.09070202 -0.30701178 -0.11194668 0.02092029 -0.20856372 -0.079205655 -0.35747567 0.28788155 0.36027333 0.09724338 0.1695465 -0.13101791 -0.2658231 0.03292231 -0.45699152 0.020242563 0.23194917 -0.031060904 -0.46225148 0.024222938 0.005911402 -0.064962536 0.02266056 0.6383007 0.16031219 0.29624015 0.063575685 0.016277961 -0.1968211 0.31462556 -0.07595393 0.009893971 -0.012494393 -0.32647076 0.21373653 -0.073069714 -0.17037177 -0.079669304 0.3520896 -0.113339044 0.07479394 0.0793214 -0.230727 -0.38514093 0.14770786 -0.5285683 -0.16623548 0.20508184 0.0541881 -0.14718515 -0.1428479 0.34335053 0.47212467 0.09119618 0.029186144 -0.0894934 -0.008833441 -0.2852944 0.05222199 -0.32276872 -0.57689947 -0.13468486 -0.029808836 0.34043014 0.23205642 -0.34505597 -0.17942345 -0.059450503 -0.24832436 -0.29050896 0.6110623 0.6217172 0.43418768 0.13473836 0.6023795 0.4584326 0.3772578 0.19401555 -0.6465566 0.19856675 0.022165066 0.020254929 0.5259771 0.11536282 -0.7438617 -0.5949109 -0.090663075 0.038333863 0.039518617 0.080845125 -0.38008478 -0.050221115 0.3889193 -0.07076939 0.010656071 -0.20090044 0.27270764 -0.28207335 0.07213402 0.3573644 0.5371645 0.38836884 -0.3377256 0.21564604 0.14214464 0.2772066 0.2940111 0.12858473 -0.5367349 -0.05130346 -0.09207973 0.29624963 -0.31267118 -0.31900534 0.1183507 0.4353777
131 -0.14776877 -0.0033179217 0.11104317 0.45359603 0.29679492 0.13521707 0.3472675 -0.12286281 -0.14249264 -0.02452988 0.2652517 -0.19816047 -0.064301826 -0.077294946 -0.1573692 -0.17959511 -0.06897186 -0.021459322 -0.31483722 0.28069833 0.36098737 -0.021628326 0.24466434 0.089216925 -0.19584776 -0.1566878 -0.5528098 -0.12344155 0.08481785 -0.11188372 -0.5550706 -0.08554075 -0.20863862 -0.024518184 0.07942543 0.563072 0.15687492 0.19719936 0.2382218 -0.035504278 -0.09430648 0.3340437 -0.033879973 -0.14569329 0.106977716 -0.040586375 0.21608579 -0.077772535 -0.05225367 -0.096328534 0.3606594 -0.1485098 0.00026863394 -0.01069751 -0.06450925 -0.33341345 0.02880465 -0.51989716 -0.03169131 0.16355427 0.096465364 -0.30082893 -0.075541586 0.29510444 0.50786847 0.07407835 0.022740353 -0.09967272 0.0021570025 -0.36376226 0.030619206 -0.29216307 -0.5588154 -0.2090431 0.068970665 0.28550547 0.19513114 -0.3065776 -0.019972466 0.113456346 -0.15829548 -0.31744656 0.48494616 0.5167492 0.2920606 0.14861754 0.6592746 0.34690642 0.48710704 0.15481699 -0.5885031 0.2641731 0.066839606 -0.07457467 0.7397487 0.13701035 -0.5986792 -0.385268 -0.18308304 0.17753541 -0.022862941 0.25373846 -0.39427802 -0.06466468 0.30024564 -0.062281672 0.007151083 -0.22364365 0.15676834 -0.26591757 0.08825901 0.33776656 0.75547326 0.42464766 -0.34588447 0.27451846 -0.022473263 0.33197713 0.3312873 0.11899875 -0.37243223 0.019089164 0.0138856005 0.16775097 -0.24612509 -0.2799693 0.2145833 0.43091127
129 -0.09321172 -0.041855205 -0.036891118 0.2994679 0.17645983 -0.09923721 0.26543653 -0.039321184 -0.17344242 0.024031298 0.32913426 -0.29246107 -0.1436049 -0.19500263 -0.052240428 -0.1960302 0.0289533 -0.069605455 -0.102527045 0.25465053 0.3379164 -0.078337975 -0.0020329282 -0.18661018 -0.3213997 0.08946652 -0.43436936 -0.07024139 0.23342027 -0.14772801 -0.4716544 -0.27153257 0.11462527 -0.063872166 0.13326605 0.56246096 0.23410279 0.31494442 0.13427679 -0.1110592 0.009443594 0.2976959 -0.016065937 -0.056372657 0.02814417 -0.17791943 0.007918946 0.00024481822 -0.1543296 -0.03280654 0.4023042 -0.08571312 0.20594141 0.16923624 -0.009663742 -0.25952876 0.12860103 -0.49665004 -0.022041412 0.20404482 -0.0025263606 -0.22358806 -0.1849079 0.18016414 0.47796673 0.065377355 0.16176791 -0.2853521 0.046311814 -0.4137704 0.08421588 -0.37978908 -0.72760624 -0.22265978 -0.007734452 0.38262054 0.42108497 -0.4244996 -0.12085389 0.0009218364 -0.1806941 -0.22578825 0.5242496 0.49393395 0.42653257 -0.053722143 0.67873013 0.4795483 0.5476415 0.11123463 -0.8164897 0.018775184 0.04437651 0.15244614 0.37890834 0.18318996 -0.55731803 -0.49988535 -0.1947848 -0.013196545 -0.09714827 0.13384381 -0.16989091 -0.12971324 0.44376338 0.0074935793 0.19646613 -0.4979313 0.00048499258 -0.2643763 -0.20820345 0.37273297 0.6268835 0.3355675 -0.20419137 0.28767487 0.11352842 0.2508112 0.24166492 0.28714433 -0.35689342 -0.11556466 0.03154103 0.25377166 -0.1453556 -0.22718163 0.2758986 0.38299885
126 -0.13790789 -0.10372572 -0.11733015 0.2905973 0.526312 0.017241903 0.4795104 -0.08661178 -0.13657035 0.020948106 0.4351077 -0.15626979 -0.12420364 -0.19425091 -0.093594044 -0.18461797 -0.04513248 0.02486893 -0.30928224 0.31765088 0.25307208 -0.05771573 0.15419523 0.09697707 -0.32184297 -0.02149818 -0.4315689 -0.2237964 0.106850825 0.06163879 -0.58392435 -0.15707795 -0.09524695 0.047649156 0.09164601 0.7707512 0.18464348 0.16738735 0.14138407 -0.114158966 -0.044870455 0.10718294 0.0043661315 -0.15141375 -0.029178312 -0.14517067 0.24971935 -0.075825036 -0.050384503 0.0029934347 0.59052956 -0.037843063 0.18891713 -0.031190041 -0.007251395 -0.3016983 0.12325138 -0.4927628 -0.026097653 0.19720925 -0.060625523 -0.18334243 -0.09329176 0.2888003 0.33594412 0.16947444 -0.0005012042 -0.13161801 0.12489716 -0.2999683 0.09504745 -0.3149614 -0.47641134 -0.20419858 0.04852564 0.28769124 0.3086454 -0.36239728 0.06297844 0.019175591 0.11105878 -0.2151393 0.44075125 0.55182606 0.50605357 0.009233836 0.8497589 0.30719438 0.40401965 0.23977269 -0.5260283 0.11891881 0.043771792 0.05120056 0.58910227 0.13737789 -0.612204 -0.47046217 -0.17604646 0.046346713 -0.06320284 -0.11603633 -0.17741607 -0.046338204 0.42100805 -0.16924667 -0.080162436 -0.22484784 0.1585457 -0.21471815 0.15698871 0.23805834 0.68329024 0.44708925 -0.3456791 0.19269888 -0.014773163 0.172662 0.3132752 0.242112 -0.37167203 0.05512842 -0.021950476 0.16481008 -0.17552389 -0.39988902 0.14611238 0.22739008
121 -0.07890258 0.09958556 0.010744294 0.31007978 0.38004893 -0.035918463 0.14010337 -0.05378097 0.013769113 -0.0008702399 0.2535854 -0.22284843 -0.041154984 -0.12107023 0.11573694 0.006990903 0.03063239 -0.059693776 -0.3663657 0.1415601 0.3177849 -0.091366194 0.044958502 0.24798915 -0.37867832 -0.03198626 -0.44162172 -0.08928755 -0.001044125 -0.010856762 -0.53149337 -0.13823815 -0.059314944 -0.09364731 0.054570463 0.52977663 0.2503619 0.33906966 0.15554622 -0.08497362 -0.14900135 0.39965498 0.0039019666 -0.040024534 -0.120818034 -0.11152749 0.10035349 0.097044885 -0.10610813 -0.08190743 0.53104013 -0.20119436 -0.05341024 0.0764546 -0.099089414 -0.39451933 0.053962417 -0.5714072 -0.062065773 0.16574202 -0.10205303 -0.13720231 -0.21754907 0.10976233 0.392818 0.21104503 0.20344079 -0.14305443 0.12848382 -0.09056275 -0.031368274 -0.19025777 -0.6976145 -0.11993445 -0.066351876 0.40093166 0.2902234 -0.37454268 -0.07605824 -0.06723933 -0.24615729 -0.34239003 0.61028886 0.53189605 0.3887521 0.042089984 0.7865616 0.46266747 0.38901755 0.28958932 -0.75009847 0.23098327 -0.011130652 0.072713986 0.59794706 0.1060307 -0.7285679 -0.40042296 -0.07003977 0.09403778 -0.020019446 0.22768174 -0.24700981 0.019733086 0.38830927 -0.08519176 -0.024392562 -0.13363144 0.09499125 -0.3257692 0.047472715 0.3163657 0.64257383 0.440953 -0.42879418 0.062377945 -0.17098898 0.2821897 0.301467 0.09266218 -0.34170738 0.11777935 0.06017164 0.19514325 -0.12678252 -0.26379436 0.23543258 0.55466336
116 0.026558118 0.058957446 -0.04394173 0.57519716 0.31298357 0.060297333 0.355093 -0.018929781 -0.16513103 -0.1441677 0.16052759 -0.23936239 0.014203356 -0.21430652 0.044841822 -0.14451176 -0.12299772 -0.16801669 -0.22853571 0.16865478 0.24883305 -0.11161064 0.06861114 0.2290652 -0.09825078 -0.23172759 -0.37101027 0.09971137 0.10261192 0.012210321 -0.55964327 -0.16559598 -0.12571561 -0.22992525 0.32356727 0.5453247 0.20213109 0.108013004 0.28907052 -0.14421475 0.03458753 0.21926601 -0.031245325 0.006447866 0.11741446 -0.04655423 0.20731136 -0.121718906 -0.019784136 -0.0014676435 0.4379164 -0.076661095 0.107022986 0.09134948 0.060419384 -0.15881859 0.0072575635 -0.47410023 0.12413921 0.23353693 -0.119351596 -0.13674173 -0.08933938 0.26957157 0.4101951 0.16656853 0.16862889 -0.2946468 -0.048984367 -0.16335669 0.055192973 -0.40624526 -0.58666253 -0.32294133 -0.250433 0.22185324 0.131455 -0.16277017 -0.046436884 -0.066870034 0.20536965 -0.34255025 0.64091194 0.59824437 0.37795833 0.16420926 0.64728266 0.29962873 0.518781 0.20904267 -0.7848964 0.04288567 -0.13660409 -0.013470103 0.59108794 0.16925384 -0.6946514 -0.26105767 -0.16050327 -0.09532232 -0.07334309 0.33364537 -0.2421881 0.13910224 0.43012625 0.1521456 0.10138965 -0.23922381 0.0773634 -0.27796793 -0.06317805 0.4339891 0.86862344 0.38245365 -0.18517862 0.1461292 -0.03898523 0.4010104 0.19992422 0.056468725 -0.12986583 -0.037905574 0.10296581 0.100791864 -0.37905133 -0.13736992 0.48006445 0.32084954
127 -0.051844127 -0.013705932 0.15615761 0.3588108 0.061118495 -0.015604275 0.41019464 -0.02299888 -0.03325938 0.14583294 0.29176968 -0.32242256 0.117659464 -0.35309488 -0.11222907 -0.078977905 0.10359391 0.05594346 -0.34608486 0.22487964 0.40442905 0.18135697 0.05598967 -0.0080011785 -0.151774 -0.18496136 -0.49555764 -0.06660934 0.20156872 -0.050121 -0.6184928 -0.13615036 -0.017135037 0.06775874 0.06796171 0.6907484 0.18708406 0.30710474 0.007705505 -0.081592426 -0.19882277 0.10122301 -0.069136284 -0.07384138 -0.14913823 -0.39395395 0.042053573 -0.07146146 -0.10419084 -0.05826629 0.47055876 -0.070686534 -0.010130046 0.047816955 -0.1267725 -0.35532936 0.114743896 -0.3739723 -0.046515718 0.050471127 -0.0066346624 -0.26140395 -0.15705335 0.10728889 0.31362408 0.10654593 0.056876365 -0.19613051 0.11341877 -0.3143437 -0.10752032 -0.2854109 -0.8449404 -0.24847645 -0.030473886 0.23370805 0.33798668 -0.25036672 -0.087212354 -0.08345152 -0.059125733 -0.38051784 0.52765584 0.407252 0.44397458 0.17087334 0.82909834 0.26020005 0.37105015 0.37645996 -0.6777745 0.13255444 -0.034265295 0.14624764 0.61291414 0.103762984 -0.69393796 -0.4694494 -0.23738688 0.1276893 0.07518035 0.14330778 -0.1970386 0.110701606 0.23324917 0.11870128 0.09377914 -0.25505817 0.0050264704 -0.24299935 -0.01496139 0.3409891 0.6190566 0.43740612 -0.44361377 0.12553637 -0.053103387 0.4906786 0.31475392 0.067376785 -0.36824602 -0.04917366 -0.20336345 0.31198964 -0.3261455 -0.2411329 0.34279147 0.32676014
122 0.08825265 0.0652043 -0.088076755 0.42709377 0.2849596 0.22593114 0.29622594 0.045576576 -0.11873311 0.07044299 0.3634991 -0.18806913 -0.04859077 -0.20659034 -0.18834288 -0.20333242 0.061103597 -0.01051426 -0.3379382 0.16014828 0.19665404 -0.09305947 0.02965399 -0.026552817 -0.26050538 -0.1143556 -0.37899294 -0.05044928 0.19208057 0.049611125 -0.55489296 -0.010935799 -0.17718178 0.045799743 0.091014735 0.6365112 0.21696143 0.25300553 0.13738932 -0.03127903 -0.078666456 0.12911604 0.019863613 -0.0414117 0.007126021 -0.1449374 0.15512167 0.075764574 -0.1731584 -0.046583913 0.63085544 -0.15920612 0.08535292 0.13363232 -0.08567315 -0.34057865 0.13289131 -0.5689107 -0.09102476 0.27464646 -0.018523902 -0.13154447 -0.120371126 0.20792098 0.40291858 -0.017893828 0.29709715 -0.22952558 -0.029275289 -0.2432134 -0.01818654 -0.21790358 -0.6046897 -0.1401195 -0.24573882 0.2367875 0.18224508 -0.2887132 -0.20739914 -0.09314971 -0.26931244 -0.24921176 0.56389993 0.51674676 0.42705646 0.08737798 0.74776345 0.3457999 0.25463384 0.29653758 -0.7788066 -0.0067172428 -0.076601714 0.1083171 0.61049336 0.18870987 -0.7127148 -0.47507107 -0.23377258 0.055361945 -0.09824085 -0.006953359 -0.30049482 0.0064477846 0.12639472 0.055274896 -0.065470055 -0.20693594 0.28927064 -0.20227395 -0.14327264 0.46793926 0.7345055 0.305017 -0.28451827 0.16239971 -0.072035424 0.31034836 0.11598287 0.24503565 -0.22149716 -0.12075962 -0.09043093 0.21787947 -0.22475855 -0.17472051 0.19577104 0.37902218
123 -0.035208974 -0.0049715643 -0.0393826 0.3487048 0.2970245 -0.077125266 0.44143313 0.019971462 -0.24240482 0.1430033 0.41408268 -0.25765982 0.04662435 -0.21614656 0.024333486 -0.07268532 -0.11944965 -0.055800464 -0.34090707 0.3391789 0.28648314 0.021257369 0.13367535 0.07982585 -0.17799112 -0.11469558 -0.4778875 -0.02309287 0.20589617 -0.0049893972 -0.42393807 -0.10259312 -0.16998807 -0.09461452 0.09698879 0.48705897 0.24367414 0.3634175 0.29409826 0.002089809 -0.07896022 0.29272684 -0.09882111 -0.08746814 -0.25978 -0.2638166 0.08903198 0.015808132 -0.055395808 -0.014690486 0.6510407 -0.20207623 0.096115015 0.22959442 -0.10624206 -0.47774446 0.14935163 -0.53958327 -0.14484832 0.116960496 0.0025632533 -0.0587001 -0.097535565 0.0826791 0.43491274 0.0062139877 -0.0053615123 -0.100561164 0.110742 -0.2557523 0.15674543 -0.1688292 -0.7507883 -0.2452826 -0.015401343 0.15940042 0.42954126 -0.377305 -0.01603045 0.0452574 -0.03821518 -0.19882102 0.5439793 0.38108727 0.42494804 0.0837648 0.7718786 0.3280444 0.47722337 0.23794955 -0.47905675 0.33932823 0.12113669 0.06742208 0.5002413 0.16586336 -0.70012575 -0.5390529 -0.030350596 0.19125055 0.14421497 0.10281481 -0.30047086 -0.088357195 0.3167081 -0.023874873 0.000771553 -0.13569939 0.23313905 -0.34390205 -0.07743323 0.35330272 0.66934323 0.38848335 -0.35021517 0.18142492 -0.022125416 0.28796828 0.3265616 0.16141413 -0.17897007 0.02570722 -0.07256625 0.1923751 -0.1319663 -0.22354718 0.2572404 0.4803463
157 0.07660762 -0.12376403 0.10371568 0.3006023 0.16934496 0.083232805 0.44650027 -0.20271243 -0.11040483 0.13529429 0.030130124 0.075597286 -0.23366423 -0.16038553 -0.21569736 0.13460226 -0.27135742 -0.11398517 -0.37737522 0.12653275 0.28860304 0.15383711 0.26317695 -0.16655822 -0.21892123 0.124801554 -0.31333554 0.03449839 0.2106717 -0.022288095 -0.43019852 -0.18561545 0.16388725 -0.18473351 -0.10163923 0.48953345 0.004012802 0.19327392 0.018244494 -0.054906715 -0.21863075 0.18454719 0.09627856 0.05702847 -0.13485602 -0.25132808 0.16437183 0.05484868 -0.24335076 -0.08968129 0.17611669 -0.0807504 -0.012275156 0.055428054 -0.54467845 -0.29384124 0.3021063 -0.39787984 -0.21207635 0.35479054 0.0033361427 -0.2671556 -0.035945702 0.2633355 0.3774901 0.030017542 -0.16152 -0.14580834 0.02211148 -0.41001087 -0.007920333 -0.320582 -0.59567547 -0.108898126 0.13597065 0.45855725 0.17831166 -0.5171368 -0.30930433 -0.16805427 -0.16555907 -0.30372 0.58044654 0.64722484 0.43253982 -0.08363968 0.5730974 0.38091582 0.2918962 0.17811058 -0.5200684 0.19403562 0.18929012 0.08913664 0.20688702 0.04555289 -0.57593274 -0.7792277 -0.08430627 0.18257694 0.06861631 0.21158843 -0.38043126 0.14572011 0.3918238 -0.30882627 0.070331305 -0.067112796 0.2955524 -0.25081497 0.045100257 0.30523416 0.23289345 0.3374368 -0.44534048 0.42498463 0.23059408 0.27662793 0.2920991 0.06416209 -0.5701506 0.009923805 -0.13160136 0.3015805 -0.20593688 -0.37485757 -0.027556337 0.3173979
740 -0.036666982 -0.22403672 0.08343508 0.37808195 0.23231879 0.039995663 0.44606933 -0.21624108 -0.09076063 0.25265995 0.042172488 0.12243198 -0.18683602 -0.080503374 -0.22919431 -0.03127352 -0.18490337 -0.020374676 -0.31896043 0.19450356 0.26268688 0.09770918 0.29739854 -0.13004872 -0.16077481 -0.06150653 -0.30972993 0.078397185 0.22112511 -0.045697123 -0.701714 -0.29817444 0.07674608 -0.043813452 -0.08915113 0.5083915 0.019384181 0.2363444 0.04854755 -0.117786154 -0.20383054 0.0060587134 0.012247248 -0.098445326 -0.1715247 -0.1305191 -0.08745487 0.20538878 -0.18040459 -0.011928671 0.31569976 -0.11399376 0.012678827 0.2019126 -0.46266806 -0.1937634 0.26423946 -0.33848247 -0.20736828 0.47613856 0.03579764 -0.28500536 0.05676871 0.04951951 0.27841827 0.019983467 -0.16301808 -0.06398338 0.12230738 -0.43705928 -0.08252632 -0.38835597 -0.75810635 -0.14350481 0.00024366798 0.3021634 0.34354776 -0.45483312 -0.26874784 -0.03975441 -0.18350494 -0.27218178 0.48628137 0.6416144 0.49980816 -0.07343089 0.79229504 0.33640793 0.33263138 0.2753911 -0.61741465 0.159801 0.23486757 0.22762181 0.31114858 -0.015408636 -0.55201924 -0.5959122 -0.1709871 0.32992858 0.04818477 0.13329579 -0.3530773 0.105497286 0.32252112 -0.19509913 0.00060171244 0.014170475 0.18130359 -0.24145025 -0.008790735 0.15846775 0.38110557 0.300291 -0.37185812 0.33119136 0.23429745 0.38799584 0.19368592 0.09551431 -0.44527376 0.039942563 -0.14607157 0.14773138 -0.17913999 -0.4879372 -0.0120147215 0.2755264
56 0.12905288 -0.10935565 -0.014994991 0.13729051 0.09540762 0.083598524 0.43737388 0.0988293 -0.18879984 -0.32364735 -0.18980923 -0.23164508 0.20179483 -0.54109645 0.31816858 0.48344776 -0.69003916 -0.28723475 0.1516108 0.4740096 0.02584224 0.11586945 0.021755343 0.12151085 -0.02005337 -0.08557825 -0.2605893 0.28150967 -0.10782649 0.049684495 -0.087531425 -0.13055398 0.108809866 -0.47797203 0.19735102 0.024223862 -0.011904848 0.035560988 -0.060045872 -0.17914896 -0.07762401 0.014424948 -0.08902397 -0.09886515 0.20193586 -0.27388713 0.41765454 -0.037936606 0.052646104 0.3685674 0.07960389 -0.19205876 -0.03631589 0.2882371 0.047790766 -0.08811553 0.05756925 -0.07082229 0.08735597 -0.107060865 -0.5176548 0.06404029 -0.11543906 0.331491 0.52612704 0.19098409 0.10284781 -0.38025925 -0.12048756 0.16124277 -0.051614445 -0.5630491 -0.0666076 -0.47598258 -0.6028776 -0.011381633 0.011734821 -0.26759493 0.2234304 -0.15712994 0.14773507 -0.0572199 0.622463 0.6255473 0.47949868 0.36045834 0.13856797 0.34863594 0.56528383 0.001577556 -0.30620474 -0.082410246 0.080864556 -0.08334372 0.5761193 0.061689645 -0.48307905 -0.057992987 -0.24310884 -0.6054731 0.12036378 -0.04682057 -0.20673853 -0.05648728 0.39688358 0.1367492 -0.26016462 -0.017394213 0.04713818 -0.23710665 -0.11312272 0.100247495 0.5443105 0.63076276 -0.21766621 0.45236608 0.2679457 0.18344797 -0.09864345 -0.08369809 0.007572577 -0.2852262 -0.07573671 0.41491178 -0.73356026 0.118694395 0.42445228 0.19359018
767 -0.0021102808 -0.04938425 0.28236276 0.4085092 0.1801843 0.039761838 0.45110872 -0.1490621 -0.12948212 0.29458 0.12685223 0.15179883 -0.3064417 -0.08593702 -0.19692877 -0.04552411 -0.029958352 -0.03276429 -0.36305648 0.048809014 0.26046622 -0.053163864 0.28604046 -0.085327275 -0.14496377 0.11943304 -0.3750841 0.08090706 0.21206848 -0.07079021 -0.55269295 -0.31043097 0.03356378 -0.09383987 0.035605628 0.48201516 0.025871363 0.17751367 0.1694823 -0.053335678 -0.081549436 0.12582228 0.12990834 -0.09626845 -0.26800323 -0.14961556 0.080555364 0.13906641 -0.28723454 -0.10832173 0.31737906 -0.11316968 0.013009845 0.02378992 -0.5957451 -0.3497561 0.26867458 -0.56330717 -0.1090815 0.41431993 0.068009384 -0.25611383 0.041853234 0.22513947 0.22033346 0.03773957 -0.16532964 -0.2496046 0.11022759 -0.36076668 -0.09261984 -0.13785146 -0.9174849 -0.19324006 0.06925365 0.28780165 0.1324309 -0.51316404 -0.22301684 -0.024162598 -0.029566107 -0.38504016 0.6221347 0.49447805 0.42438486 -0.15316755 0.84466636 0.3157591 0.34610596 0.27080324 -0.6877869 0.1874865 0.19536684 0.08136362 0.071629204 0.12604104 -0.6953939 -0.66445965 -0.2507928 0.3259411 0.15416306 0.20074695 -0.41301784 0.27007818 0.32806885 -0.23735766 0.18093476 -0.10138904 0.38199615 -0.29008755 0.026205156 0.43997034 0.4307236 0.26893473 -0.38112402 0.3474224 0.067168996 0.35336748 0.29327145 0.14146866 -0.37824196 -0.019122979 -0.13402103 0.29893747 -0.13541807 -0.3664701 0.07116001 0.26140478
114 -0.14057481 -0.04521823 -0.036681525 0.12748127 0.16024446 -0.11770147 0.13809882 -0.06392103 -0.13513823 -0.11653965 0.526613 -0.23552124 -0.0073136403 -0.23380645 -0.062162515 -0.14895241 -0.043067258 0.030311545 -0.17949478 0.20197733 0.3957779 -0.042164024 0.041837316 0.18265739 -0.31137154 -0.09027269 -0.34302855 -0.087861806 0.11498011 0.04704819 -0.52169806 0.05364848 -0.001398804 0.022170393 -0.037038043 0.5531833 0.30157104 0.3851819 0.07745205 -0.18036051 -0.20469528 0.31936172 -0.22929128 -0.033298936 0.021217119 -0.3055997 0.27165207 -0.17939976 -0.12643047 0.08867215 0.43970463 -0.11474339 -0.15896401 0.03868258 0.026172368 -0.4387389 0.033939105 -0.53912956 -0.07887612 0.13504685 -0.17880966 -0.0891838 -0.12538192 0.22178459 0.4735084 0.036273606 0.14673252 -0.14897415 0.15737833 -0.28453153 0.042933892 -0.3481006 -0.49374238 -0.19250487 0.001667705 0.3795599 0.33238444 -0.33884975 0.0140360845 -0.023686398 -0.2599763 -0.035870507 0.56944865 0.64350706 0.41144148 0.24108349 0.6276379 0.2660758 0.5064232 0.28442618 -0.58745646 0.3677124 -0.07864926 0.08547222 0.5557938 0.17842615 -0.7929438 -0.47455633 -0.05246563 -0.024630575 0.04894816 0.049361028 0.0014195748 -0.094205335 0.26614612 -0.092015974 0.02933912 -0.088174455 0.15450886 -0.26091886 -0.0547191 0.5033415 0.7495011 0.5269368 -0.46749914 0.2398976 -0.18457694 0.3747316 0.35615143 0.46048597 -0.26364252 -0.0035747509 0.023014242 0.34101987 -0.16721265 -0.30116183 0.29724547 0.46128964
4 -0.3472785 -0.7918382 0.23711169 -0.029721987 0.04122864 0.11119269 0.38147995 -0.17672424 0.028714815 0.050636638 0.18623027 -0.04693589 -0.21179423 -0.32755107 0.58789945 0.7313747 -0.15473036 0.108320296 0.08663951 0.18470329 0.09822872 -0.04070886 0.054745957 0.07710671 -0.0757239 -0.09993219 0.1599772 0.20378155 0.28112972 0.027507367 0.30959097 -0.19207598 0.48611298 0.13136184 -0.07388265 0.2487584 0.29609933 0.1821246 -0.20249538 -0.014784639 0.059723593 -0.064452596 -0.04458807 -0.26280355 0.18334883 -0.21099593 0.13258314 0.3069846 -0.13837022 0.2601082 0.020422807 -0.032942466 0.31807703 0.13319021 -0.53258765 -0.12301482 0.0008215135 -0.068490475 0.029081685 0.022827242 -0.45761576 0.04458219 0.27982658 0.13740115 0.19416064 0.104997836 0.013661972 -0.6858756 0.18255273 0.5320139 0.31757313 -0.2965846 -0.3168256 -0.4700958 0.073162235 -0.13601866 -0.07946606 -0.053558517 0.15878645 0.09409906 -0.105512604 -0.17312852 0.30962986 0.41955143 0.26468557 -0.015114536 -0.16201879 -0.20915395 -0.047281444 0.07820233 -0.06598571 -0.15558122 0.7279324 -0.1281107 0.29290015 0.13274607 -0.099332884 0.09634851 -0.4711002 -0.8994465 0.2944444 -0.011192405 -0.7431275 -0.29309687 0.41956916 -0.017610466 -0.004735748 -0.33090642 0.3871496 -0.30838966 -0.05471615 -0.15986651 0.42948663 0.20151567 -0.16036302 -0.10200782 0.24983378 -0.011526281 -0.21319741 -0.31588072 -0.38520372 -0.06397205 -0.22018886 0.6061728 -0.3013431 0.04248263 0.15824237 0.0656956
623 -0.3551992 -0.6509774 0.3629462 0.23219632 -0.07906285 0.14311989 0.27233613 -0.27400514 0.13659604 0.0008744411 0.010851041 -0.076779746 -0.3298181 -0.46543366 0.36013725 0.64450115 -0.19125406 0.0839369 0.14303036 0.23014547 0.04908688 0.19027057 -0.2350667 -0.068540335 -0.10793131 -0.0319848 0.112426534 0.33247975 0.14236987 -0.06472442 0.29096568 -0.1743405 0.43009025 0.1840866 0.0050865593 0.021536693 0.14187366 -0.030106882 -0.22102734 0.090524375 -0.08416445 -0.036773726 -0.2747142 -0.33548263 0.19767922 -0.25215292 0.27292508 0.20879374 -0.13035282 0.10911853 -0.12066121 -0.03841705 0.3226739 0.009020865 -0.422717 -0.20086512 0.20661333 -0.117137425 -0.19200686 -0.073995925 -0.48569068 0.031258643 0.26580173 0.2087632 0.09031513 -0.06309497 0.4027362 -0.5003051 0.14662267 0.48201632 0.11030656 -0.39045948 -0.41563132 -0.47830668 -0.13468361 -0.20533384 -0.045981973 -0.30625015 -0.053892203 0.028444687 -0.12781493 -0.1896041 0.30524915 0.3703611 0.18199542 0.09467699 -0.17998432 -0.36287174 0.018631887 -0.0040697358 -0.15270826 -0.3287043 0.47905663 -0.12947327 0.4542974 0.22755693 0.06574134 0.092623495 -0.6593665 -0.78664154 0.35437804 0.1141781 -0.74433494 -0.23038776 0.1682082 -0.09723152 -0.01773653 -0.40115264 0.22480339 -0.18726054 0.12755692 -0.07799911 0.41152453 0.15220563 -0.28113973 -0.044409785 0.2781096 -0.20700155 -0.20316759 -0.14961705 -0.4335517 -0.021639632 -0.30663958 0.62269545 -0.21118434 0.006902029 0.15199499 0.02701725
772 -0.06224451 -0.17752282 0.16324225 0.36549413 0.030261986 -0.024857512 0.5504372 -0.17801887 -0.009665463 0.33219752 0.12836963 -0.085109815 -0.053338658 -0.26155412 -0.17116497 0.0660966 -0.0044526826 0.04196768 -0.4242976 0.1171726 0.3284203 0.29572073 0.13087012 -0.16013595 -0.15008618 -0.0974049 -0.39831907 -0.0012119391 0.21921875 -0.10828719 -0.62639594 -0.31219357 0.12623078 0.085417636 -0.0351908 0.593577 0.0938778 0.21504273 -0.0074378764 -0.031981148 -0.21139468 -0.071897484 0.0972167 -0.07016025 -0.33351573 -0.4038521 -0.06014237 0.10782206 -0.17484264 -0.058490984 0.3560718 -0.027292773 0.07552955 0.09994992 -0.49702498 -0.2596095 0.21250649 -0.2714492 -0.17888777 0.32386813 0.024365658 -0.33021852 -0.0010123968 0.027841303 0.20814084 0.08936898 -0.107772246 -0.16744708 0.12695006 -0.4008515 -0.14860411 -0.30341864 -0.8705032 -0.25896758 0.09444042 0.26769477 0.287295 -0.45336863 -0.26224998 -0.12897186 -0.003587123 -0.44503853 0.5530383 0.4874103 0.4842065 -0.088709965 0.85381836 0.27064067 0.21027496 0.3349555 -0.54927653 0.021067215 0.12378402 0.19367859 0.32248276 0.042863417 -0.5826929 -0.65765935 -0.23529175 0.22798471 0.12996511 0.1832352 -0.3236251 0.2827937 0.24337257 -0.061762027 0.1503356 -0.15018778 0.043301396 -0.28277254 -0.021289568 0.18257138 0.33216268 0.32019752 -0.50917804 0.25723773 0.15544984 0.47794628 0.2009816 -0.13902786 -0.47792798 0.047802217 -0.25171164 0.30254066 -0.23051417 -0.31768626 0.20276856 0.17939949
625 -0.18960333 -0.7157749 0.3173927 0.07886925 0.023376672 0.20432948 0.4491301 -0.14521019 -0.035391197 -0.082943626 0.08895018 -0.24164994 -0.3339556 -0.56942636 0.61430573 0.80356073 -0.634975 -0.026202125 0.14901102 0.31610298 -0.1427682 0.03698264 -0.061355487 0.013394471 -0.2165466 0.10285462 0.001553657 0.29445767 -0.064280145 -0.045034304 0.47091177 -0.31341204 0.26293162 -0.05857947 -0.16152288 0.23156925 0.15301916 -0.1507616 -0.08431093 -0.035595097 0.044318296 -0.1363528 -0.11650403 -0.35580558 0.3014154 -0.29974702 0.24056907 0.3116798 0.05330677 0.17101689 0.020826014 -0.16893041 0.17014727 0.08254424 -0.5008945 -0.20644991 0.16766769 -0.009496828 -0.05324325 -0.11365444 -0.5667762 0.13499941 0.21692422 0.17887957 0.11414996 0.034524515 0.21507967 -0.5618684 0.049819257 0.4519795 0.10320346 -0.263279 -0.15526566 -0.5134773 -0.15606657 -0.19780847 0.036057193 -0.13104403 0.16428095 -0.005736296 -0.19403277 -0.26043928 0.360348 0.36704674 0.18919055 0.1483993 -0.17017712 -0.28880233 0.22047536 -0.067747906 -0.1925565 -0.16985299 0.49602562 -0.17325419 0.42672262 0.22039048 0.046739027 0.23563643 -0.49927282 -0.808181 0.24108794 -0.079316884 -0.6768072 -0.30154258 0.22630064 -0.018990032 -0.12554741 -0.1806878 0.2448572 -0.071543254 0.03159158 -0.077848844 0.35617727 0.20408231 -0.24445151 0.12704055 0.33252567 -0.058176324 -0.40193543 -0.2853967 -0.29816535 -0.2790241 -0.35187474 0.5724101 -0.4026079 0.065529585 0.32570636 0.05061418
782 -0.102488674 -0.09425641 -0.07717909 0.269463 0.16264218 -0.07730952 0.36971292 -0.15889865 -0.076944135 0.341314 0.16294634 -0.10004119 -0.29583618 -0.10606728 -0.16197836 -0.03125537 0.010858829 -0.07451517 -0.2694286 0.1255753 0.2201087 0.013893857 0.04692985 -0.26198405 -0.34962857 0.14488132 -0.28229627 -0.07729696 0.22720926 -0.16972281 -0.4416623 -0.47576016 0.21218483 -0.041272473 0.00013517386 0.49631572 0.12328807 0.21155033 0.12769078 -0.052266207 0.04067585 0.1223711 0.18157217 0.036718562 -0.24768768 -0.20430069 -0.10598979 0.20146905 -0.25396562 -0.061258912 0.41948324 -0.100582756 0.26740643 0.19339882 -0.47346115 -0.30656996 0.30181006 -0.441208 -0.19837816 0.4911654 -0.019894877 -0.27023938 -0.06426023 0.027045976 0.3854251 -0.033898383 -0.022293964 -0.3602736 0.05603251 -0.47291118 0.09934422 -0.2492184 -0.8176191 -0.24126248 0.14613028 0.40076315 0.44009602 -0.6744525 -0.38452247 -0.09390882 -0.14411302 -0.27019605 0.5548318 0.49365836 0.43349248 -0.34025928 0.8165712 0.4003029 0.37822977 0.18210855 -0.6812871 -0.012485731 0.24689674 0.2322729 0.07656398 0.17269933 -0.48783204 -0.86149937 -0.22833331 0.22254169 -0.06511679 0.19510333 -0.3606371 0.068161845 0.4065319 -0.25698525 0.15761875 -0.36683157 0.16685976 -0.26788628 -0.24059837 0.25984743 0.37003008 0.24090916 -0.3807732 0.41975084 0.25174025 0.24519025 0.1752701 0.1951527 -0.4561668 -0.006479162 -0.08067805 0.33060187 -0.007033192 -0.3072904 0.10406544 0.31488693
784 -0.18159804 -0.18010436 0.14011396 0.384005 0.1056498 0.17394562 0.45782098 -0.32607836 -0.06644281 0.1967016 0.020704053 -0.02487353 -0.24276902 -0.022381706 -0.2766721 0.009460611 -0.14826095 -0.0792002 -0.43934292 0.15656506 0.30358598 0.14397599 0.35755476 -0.0730517 -0.1195609 -0.13204746 -0.45952705 -0.13448963 0.11677751 -0.19922079 -0.5308026 -0.25639555 -0.03269856 -0.03800982 -0.10952685 0.4368198 0.058953177 0.13391541 0.18417369 0.044983603 -0.065166906 0.15574846 0.115784205 -0.06036865 -0.13700253 -0.07037398 0.13459823 0.060167227 -0.1412591 -0.10263657 0.25064135 -0.13822348 0.043051243 0.08461676 -0.5027298 -0.27377647 0.17692456 -0.39743194 -0.24487971 0.45275778 0.14772499 -0.46080047 0.052547123 0.15932867 0.4378572 -0.023553513 -0.18470503 -0.17558159 -0.05319563 -0.5836016 -0.010764081 -0.29236317 -0.5961357 -0.245107 0.22056797 0.37418193 0.22461595 -0.5324523 -0.2761323 -0.031248527 -0.09157864 -0.37197462 0.56848496 0.55436957 0.31984666 -0.0914073 0.7183077 0.33922014 0.32264188 0.15702936 -0.48792 0.22053383 0.2825038 0.041313585 0.46483535 0.077318616 -0.50747734 -0.68806374 -0.26052716 0.36067906 0.0353359 0.36157003 -0.6083044 0.114152774 0.29857305 -0.3060035 0.042525444 -0.16417354 0.22716552 -0.27149987 0.03704229 0.17240702 0.41305903 0.33260456 -0.48367667 0.4303348 0.19415176 0.34226498 0.22022392 0.005700649 -0.43967405 0.082169175 -0.08874311 0.19903496 -0.14418732 -0.33062464 0.048643623 0.25720868
685 -0.27015167 -0.75484025 0.26622608 -0.06706341 0.16687432 0.24852538 0.22918865 -0.03307909 -0.1426409 -0.20077369 0.16619761 -0.27721596 -0.30894592 -0.60332423 0.4908931 0.7152554 -0.73451644 -0.13619378 0.19442308 0.15301025 -0.051128235 0.09083387 0.03510508 0.10068982 -0.030565582 0.10812817 -0.07572933 -0.10982234 -0.021935439 -0.19271632 0.47061905 -0.46160707 0.20619938 -0.19672616 0.14298943 0.068823874 0.0908882 -0.1548783 -0.087006345 0.15756513 -0.0111525515 -0.2767671 -0.005986287 -0.35636514 0.018875018 -0.2901803 0.23715466 0.4085742 -0.077339426 0.32884437 0.058821466 -0.10995923 0.13278353 -0.027779577 -0.25473696 -0.21674109 0.17889614 -0.2545957 -0.045266736 -0.124787934 -0.34246385 -0.09188845 0.3252235 0.21192697 0.10629727 0.045167293 0.23644018 -0.33008468 0.118233025 0.45582503 -0.027260281 -0.02484607 -0.24515615 -0.36683735 -0.29488105 -0.44033659 0.005079213 -0.07801527 0.018388309 0.0013244669 -0.03938604 -0.05225089 0.51388586 0.48968714 0.18002214 0.080486394 0.018531958 -0.03429801 0.34417787 -0.06632928 -0.064732045 -0.16663556 0.4917527 -0.10145462 0.58620274 0.07261175 0.020068966 0.2972663 -0.42734012 -0.5181806 0.26662818 -0.09172964 -0.7364433 -0.26813453 0.15379098 -0.03645607 -0.074303806 -0.10847915 0.3035259 -0.16102752 0.058030017 -0.13991436 0.3283415 0.38929346 -0.23544848 0.32529023 0.33376 -0.01579651 -0.24952713 -0.10460284 -0.19223069 -0.2517219 -0.13858745 0.33292133 -0.41226733 0.11657865 0.28146744 0.019010974
780 -0.07114565 -0.105674624 0.05249384 0.333566 0.16924876 -0.068590336 0.52389634 -0.13491815 -0.11927435 0.3441934 0.29500625 -0.025257522 -0.13689943 -0.1109164 -0.07571577 0.03989718 -0.16228531 -0.048788417 -0.49126396 0.18261568 0.20379515 0.11350856 0.22392836 0.016279595 -0.20569924 -0.031967927 -0.42718554 0.01217459 0.18047887 -0.042382315 -0.39685363 -0.27625376 -0.05579063 -0.08219572 0.0015261667 0.3982533 0.11632372 0.2713815 0.29756415 0.032894462 -0.11398526 0.10944547 0.11427194 -0.06924792 -0.4672532 -0.27996144 0.04895746 0.24047188 -0.17357264 -0.038290188 0.5463931 -0.17661217 0.064929515 0.18940426 -0.53880376 -0.4648121 0.33450285 -0.42582527 -0.23266236 0.33460712 0.0065270327 -0.1729453 0.07077505 -0.03402818 0.34334105 -0.084056206 -0.16481118 -0.14345542 0.12181086 -0.386246 0.065169 -0.10128116 -0.84793705 -0.2574452 0.1321574 0.22311778 0.3228539 -0.5877901 -0.22676799 -0.07256991 0.01753459 -0.28266174 0.60355514 0.4162469 0.45655414 -0.13188586 0.897239 0.24393715 0.29283327 0.27749094 -0.35516527 0.28638268 0.32118842 0.11653064 0.20244935 0.1016113 -0.5669933 -0.7777455 -0.038540754 0.33754343 0.21207342 0.14326434 -0.3937261 0.15791191 0.24132079 -0.22480719 0.026142513 0.0058498196 0.29799342 -0.4128008 -0.13519847 0.29389676 0.4161055 0.28637126 -0.49392208 0.3253988 0.09108484 0.330562 0.21804501 0.017390246 -0.29240295 0.061389983 -0.19124897 0.23773609 -0.04915544 -0.26007628 0.16706078 0.37690398
634 -0.40424213 -0.79205674 0.3772777 0.062596045 -0.0411207 0.004516934 0.3585097 -0.33371958 0.015378301 -0.046280906 -0.005551577 -0.08891887 -0.36449906 -0.502683 0.6895702 0.82582104 -0.22994794 -0.040216457 0.011029794 0.3298255 -0.052378725 -0.06712342 0.005661541 -0.057458464 -0.18799582 -0.16507165 0.015123729 0.1787081 0.27770746 0.048443004 0.5379923 -0.25201112 0.32099134 0.17480372 -0.111794114 0.42542973 0.31887498 -0.051757954 -0.16763991 0.07106197 0.042121533 -0.07921062 -0.16811262 -0.30854723 0.20752393 -0.21888264 0.30524215 0.27571753 -0.067575134 0.034507714 0.019865155 -0.13832532 0.20372099 -0.05897811 -0.55761766 -0.056453682 0.013463954 -0.03791767 -0.102781266 0.052453183 -0.5592701 0.0011757368 0.3936729 0.22228302 0.08799008 0.117340475 0.176699 -0.6919138 0.3286455 0.41710973 0.0990008 -0.3042572 -0.36520043 -0.44607538 0.20834024 -0.26775295 -0.21017186 -0.18082233 0.06345877 -0.07553336 -0.19554149 -0.28779215 0.35943946 0.33884424 -0.035908412 0.046744864 -0.13907716 -0.29568475 0.23129497 0.071978666 -0.04843924 -0.26846737 0.5209511 -0.1926763 0.22437117 0.20915918 -0.02032004 0.22322264 -0.484389 -0.56374717 0.2621324 -0.05984619 -0.6708871 -0.4230789 -0.03289188 -0.0102293715 0.073605016 -0.20727669 0.3001823 -0.0065674647 0.044378404 -0.11601035 0.5611915 0.1912356 -0.29287463 -0.22560552 0.16132294 0.04726206 -0.25620988 -0.03542495 -0.3469975 -0.104173206 -0.37266588 0.79939365 -0.4466128 0.10501984 0.28496274 -0.037830357
781 -0.09301822 -0.13838097 -0.046048105 0.32850057 0.4225382 0.06630946 0.53379875 -0.24781863 0.007834144 0.17777699 0.17367071 0.057697408 -0.25563025 -0.13106966 -0.16977198 -0.027784195 -0.11991584 -0.0013791014 -0.50447774 0.10336034 0.17803477 0.032912824 0.20814155 0.021562664 -0.32780787 0.12102332 -0.32134655 -0.17873096 0.10572315 0.01983609 -0.59185684 -0.31151453 -0.0076937415 0.0129169505 0.029305158 0.69541866 0.005467361 0.05999951 0.131813 -0.033199508 -0.07432186 -0.036935035 0.16272594 -0.038855396 -0.19886868 -0.1955202 0.14568208 0.04147043 -0.1287484 -0.09037631 0.48620743 -0.027673196 0.15246892 -0.05999261 -0.44337085 -0.29058415 0.27582082 -0.3991971 -0.13166589 0.50258136 -0.08194213 -0.3142743 0.039138164 0.19641843 0.23909488 0.08227087 -0.17244346 -0.17404498 0.07956795 -0.37697968 0.026003648 -0.2850499 -0.5975104 -0.24505061 0.18555701 0.33384112 0.18686458 -0.5868303 -0.2325962 -0.17013507 0.12257152 -0.36055216 0.5207232 0.6318889 0.501707 -0.22050704 0.8707873 0.24126838 0.21439402 0.27639985 -0.52282405 0.09097579 0.2225858 0.05293319 0.2489183 0.09392347 -0.53794146 -0.7543533 -0.1870391 0.17320755 -0.047644805 0.06035908 -0.34584692 0.2706832 0.42963836 -0.3466417 -0.07157018 -0.08526429 0.30575007 -0.31147745 0.1536444 0.19863054 0.40251154 0.3630294 -0.50703824 0.3575614 0.09058875 0.24387233 0.25258544 0.032566186 -0.59443516 0.13067624 -0.09768427 0.20954505 -0.0913791 -0.48245537 0.019452186 0.19120073
778 -0.104837134 -0.25418365 0.172723 0.47186285 0.1658312 -0.019791378 0.42985445 -0.27031854 -0.18127318 0.17776704 0.25982285 0.024994912 -0.12153611 -0.15339775 -0.1665532 -0.051901717 -0.31025752 0.08984851 -0.3746214 0.047533643 0.27010116 0.035838313 0.09865113 -0.0829474 -0.22397204 0.066414 -0.3757876 0.102350265 0.22006021 -0.10224153 -0.60250276 -0.26219893 -0.04541243 -0.019087702 0.022071643 0.4575997 -0.0028004167 0.28590715 0.26378158 -0.0060474495 -0.08727364 0.06516761 -0.086637355 -0.1730427 -0.30567676 -0.23280232 -0.064128816 0.11766797 -0.056882672 -0.062186766 0.35600853 -0.04199381 0.009963709 0.12048565 -0.5474711 -0.283432 0.25285733 -0.36471784 -0.2671894 0.6315543 0.06792422 -0.34133464 0.11252808 0.06016639 0.117174715 -0.03958758 -0.14694382 -0.0104680825 0.18574148 -0.3459965 -0.07428508 -0.28512412 -0.75354946 -0.26984844 0.115156695 0.19304095 0.29896367 -0.6014748 -0.2026129 -0.036560316 -0.24462625 -0.30192313 0.56009287 0.5791721 0.4426198 -0.17585994 0.69047856 0.31072202 0.27212703 0.16685006 -0.6518184 0.1847258 0.2447055 0.08366198 0.12771216 0.070430815 -0.6303412 -0.62181413 -0.0285766 0.16653402 0.07426716 0.15355697 -0.3833899 0.21675186 0.27081433 -0.11482553 0.16061978 -0.057695862 0.2139654 -0.4730246 -0.08432771 0.24366671 0.35659015 0.28828907 -0.42717263 0.36973527 0.102657534 0.41087538 0.13992901 -0.12299334 -0.58937013 0.073989436 -0.0469208 0.22794756 0.0005222148 -0.49824107 0.12193829 0.30900586
627 -0.34247917 -0.89026535 0.46034765 -0.054038666 0.041085593 0.08905338 0.28653648 -0.03546351 0.1266861 -0.10965256 0.11511194 -0.21230496 -0.38820997 -0.44493985 0.63994545 0.7662323 -0.31419647 0.009331415 0.14140967 0.09114204 0.10447231 0.19850591 0.0223893 0.09402477 -0.11111845 -0.21859844 0.18226762 -0.038343675 0.15907368 -0.031896226 0.5332391 -0.39428848 0.42287835 0.066906415 -0.09261261 0.19207478 0.19704859 0.048509818 -0.097339414 0.080826685 0.02086224 -0.046818353 -0.043127716 -0.27851176 0.03690885 -0.36996993 0.27072275 0.37459293 -0.01719121 0.113678396 0.0873282 -0.16772039 0.16878675 -0.014288626 -0.38104242 -0.07108138 0.026400214 -0.2568893 0.005267487 0.0096081905 -0.39626122 -0.03950211 0.303732 0.20031337 0.052527186 0.026927536 0.19409214 -0.49077836 0.05080314 0.53869396 0.01446981 -0.16970737 -0.42438942 -0.3684581 -0.08775543 -0.3814712 -0.15901439 -0.24438518 -0.16488642 0.00037996264 -0.0013272776 -0.093928166 0.3480778 0.37124446 0.1879921 -0.071538545 -0.14914085 -0.29988334 0.06948785 0.04932702 -0.054500677 -0.20588328 0.52413577 -0.18599714 0.4733418 0.07999869 -0.00544733 0.11112907 -0.6052722 -0.7271557 0.2062335 -0.05827392 -0.7991596 -0.3083252 0.06544906 -0.14135776 -0.010971416 -0.1984647 0.2567132 -0.16954789 0.16949908 -0.13165215 0.39796108 0.37231156 -0.23744686 0.043628108 0.29824412 -0.07676727 -0.07843292 -0.24956764 -0.45241678 -0.038531456 -0.35412467 0.56585807 -0.4271299 0.07513637 0.42290395 0.087535314
779 -0.08554719 -0.03178035 0.059297167 0.28905022 0.31924802 -0.044176344 0.2806648 -0.17967024 0.055999488 0.29034168 0.06970983 -0.050380986 -0.21423744 -0.07761565 0.039918568 0.13183503 -0.0011124671 -0.110515684 -0.51416576 0.021982659 0.2973306 0.03816423 0.120797895 0.043114394 -0.34190294 0.06467764 -0.28518328 -0.051157497 0.10139829 -0.07482475 -0.48785064 -0.32306367 0.11307463 -0.10750364 -0.052052014 0.46590737 0.13133265 0.23849149 0.085908785 0.014674313 -0.17144556 0.21694222 0.1261419 0.05898926 -0.3510889 -0.19761632 -0.029712364 0.2346749 -0.27362475 -0.14546262 0.45841298 -0.15723008 0.030769486 0.11645438 -0.51177984 -0.35810822 0.22036122 -0.46590903 -0.2018422 0.41022637 -0.06762287 -0.22831537 -0.065942235 -0.0036659876 0.30207422 0.12510763 -0.035568327 -0.117402464 0.11248936 -0.21373887 -0.031149639 -0.17053404 -0.8827922 -0.123627625 0.09053104 0.4057268 0.24728423 -0.5620726 -0.35568708 -0.17437461 -0.13798696 -0.4573334 0.6577544 0.56762016 0.43610182 -0.1311705 0.8537754 0.42731237 0.25022775 0.30489635 -0.6555747 0.1740292 0.19819872 0.1809432 0.25138366 0.026665214 -0.61760914 -0.688382 -0.119773366 0.27778277 0.05189679 0.32114762 -0.44253907 0.24599753 0.41886953 -0.26050055 0.03529216 -0.100669876 0.23018102 -0.38008 0.030287076 0.22913313 0.3530656 0.29852566 -0.5657767 0.15844049 0.07262997 0.311833 0.23403466 -0.004797812 -0.49983886 0.15530093 -0.07026038 0.21585844 -0.07636633 -0.32445022 0.105591774 0.44594434
113 0.007792997 0.037610646 0.028419614 0.20539978 0.087150685 -0.032667782 0.24887459 0.009189856 -0.14869407 -0.112851486 0.43418214 -0.08346619 0.049120437 -0.20680603 -0.1399112 -0.122592844 -0.012427583 0.036968768 -0.15528819 0.21685682 0.16508803 -0.0001268085 0.11515002 0.05301127 -0.24552675 0.02445787 -0.57035756 0.010089771 0.08290036 0.06946686 -0.4908515 0.044563945 -0.09033473 -0.23819725 0.10544608 0.51360875 0.111134 0.38380402 0.052928958 -0.23784824 -0.14953211 0.35205308 -0.07318117 -0.11657558 -0.015187301 -0.20907053 0.26395455 -0.05976724 -0.056137603 0.10453643 0.4423191 -0.1472293 -0.08502621 0.13430151 0.07207813 -0.44810358 0.20505796 -0.52064264 -0.022564014 0.11067688 -0.10651883 -0.12125749 -0.20010927 0.13030186 0.48461825 0.009965272 0.13086218 -0.2517375 0.048263524 -0.3641033 -0.023213087 -0.37238318 -0.55692935 -0.22222868 -0.0029647902 0.34296876 0.30262098 -0.35346672 0.026135249 -0.04893067 -0.22176376 -0.06432937 0.56077874 0.6297353 0.5202352 0.13618176 0.6532 0.34889442 0.57169986 0.24201661 -0.61200076 0.20403816 0.05627508 0.0647829 0.6099491 0.14022921 -0.6612238 -0.5152527 -0.17360997 0.022202285 0.120482884 -0.107361525 -0.014728033 -0.10616163 0.39271584 -0.11102489 -0.048720382 -0.19054073 0.14773215 -0.20583768 -0.04438709 0.50021446 0.74240714 0.5268134 -0.3281883 0.3902642 -0.12702556 0.14622009 0.18653604 0.3755482 -0.25801748 -0.14375114 -0.05108602 0.4777605 -0.200798 -0.1749504 0.25177646 0.5189218
631 -0.104390115 -0.87056094 0.48636326 -0.007109755 0.09609026 0.08034526 0.2096905 -0.2151556 0.08437849 0.09644 -0.025170213 -0.026151985 -0.397437 -0.39994633 0.6703313 0.8528638 -0.3422703 0.08403272 0.10364761 0.1957372 -0.035442077 0.11362361 -0.055095226 -0.017865825 -0.23102923 -0.082737245 0.18452331 0.3677792 0.045310307 -0.012097598 0.54074717 -0.293178 0.24858302 0.090454414 -0.0057833544 0.32781398 0.22919066 -0.029863464 -0.22293425 0.06843634 0.08527543 -0.01987752 -0.107014135 -0.30956963 0.24556866 -0.34398052 0.15972352 0.4574849 -0.033946082 0.021772493 -0.18404852 -0.118953526 0.35657337 0.010351533 -0.6061218 -0.19402792 0.08056852 0.028884433 -0.27434534 0.11623688 -0.57487106 0.12480527 0.2161333 0.1683488 0.21007365 -0.010443904 0.19488654 -0.51559764 0.23076789 0.37403664 0.07233244 -0.25890958 -0.38172206 -0.5762388 0.03740417 -0.25564164 -0.21828027 -0.29173028 -0.021611888 -0.06247553 -0.044271495 -0.16425689 0.2961867 0.36647743 0.14838284 0.054730806 -0.068553045 -0.3845012 0.010584145 -0.008518444 -0.046768766 -0.1817944 0.61590374 -0.08415511 0.33278206 0.20849971 0.0050911894 -0.008704234 -0.5824528 -0.7575797 0.1546807 -0.14029764 -0.861774 -0.30551618 0.26733938 -0.15009193 0.027401017 -0.14382434 0.39218405 -0.03647778 -0.027633065 -0.32970297 0.5406713 0.14270113 -0.19251992 0.116313614 0.4296747 0.16033642 -0.38609356 -0.07567297 -0.2494678 0.021307291 -0.5112926 0.549112 -0.43074423 0.011764503 0.26116484 0.020414574
702 -0.3855219 -1.0308232 0.29148403 -0.0014383734 0.06902117 0.19889039 0.24288768 -0.0493763 0.15077497 -0.0956952 0.10044696 -0.16170296 -0.42262587 -0.4096191 0.60835403 0.7876588 -0.53727424 -0.21893722 0.22192681 0.009858228 0.07502816 0.1653749 0.02364183 -0.0007966208 0.053575367 0.012422098 0.101544395 -0.13073851 0.08963336 -0.12080778 0.68327796 -0.41456467 0.27445176 -0.023029668 -0.0012173819 0.26331973 0.25914735 -0.0063735046 -0.015308248 0.31489995 -0.17889197 -0.038122978 -0.18800364 -0.16387227 0.13322023 -0.29792824 0.1714623 0.40375254 -0.08462384 0.081383295 0.18844521 -0.10909495 0.07171356 -0.052590568 -0.28441298 -0.27068764 0.16750829 -0.27478984 -0.074106 -0.046971053 -0.38393673 -0.22286963 0.046438098 0.31233063 0.027092166 0.13250245 0.37139675 -0.14392571 0.005051159 0.6554227 -0.037532628 -0.1369724 -0.5737421 -0.2772894 -0.08644612 -0.3669612 -0.19022144 -0.3148986 -0.20642051 -0.07921203 -0.007217165 -0.14616849 0.5433141 0.4668686 0.2519917 0.10860054 0.05173139 -0.26094398 0.08421481 0.0786893 -0.027420307 -0.04468753 0.5326817 -0.2199048 0.4898891 -0.08255771 -0.3395173 0.14295413 -0.64178103 -0.5166694 0.20788264 0.22756149 -0.61331916 -0.33823556 0.1458213 -0.25048944 0.09933036 -0.105889045 0.3580426 -0.2836713 0.1906235 -0.1373577 0.4025744 0.29993472 -0.27060407 0.1601202 0.24897002 -0.16414535 0.08039832 -0.09439024 -0.41586336 0.07031497 -0.106785 0.24395633 -0.26708922 0.05023179 0.40555322 0.10955456
783 -0.01635648 -0.4183552 -0.0014933925 0.573402 0.26205805 -0.020395689 0.49059916 -0.2567315 -0.12120486 0.23432645 0.23746431 0.028360363 -0.26253143 0.002732173 -0.07706428 -0.0069764075 -0.21458508 -0.12127008 -0.5353724 -0.0050896774 0.33000374 0.22875655 0.14629345 -0.08959357 -0.25517628 -0.046586286 -0.3332879 0.11192964 0.25343814 -0.015763542 -0.50969917 -0.3275613 0.18795116 -0.090190254 0.08119067 0.5185181 0.21204036 0.11597306 0.19940709 -0.058755342 -0.24758191 0.13169773 0.111646734 0.030886233 -0.11100878 -0.18322939 0.06187026 0.3610009 -0.2652308 -0.05265566 0.30059907 -0.02335129 0.17284505 0.12671684 -0.5768085 -0.20081355 0.3693682 -0.4998664 -0.1524765 0.5158967 0.008909784 -0.20690559 0.12246359 0.011999968 0.37313935 -0.024255725 0.05206532 -0.05234461 0.072539695 -0.36030445 0.054923832 -0.34865832 -0.83139074 -0.102433085 0.2735798 0.330018 0.1126255 -0.32532808 -0.40947038 0.018247858 -0.02551068 -0.45577827 0.49072778 0.7891596 0.44212744 -0.08845469 0.7680412 0.2802747 0.3191746 0.27781767 -0.48111174 0.08070079 0.24660194 0.12944266 0.29903018 0.023042437 -0.4511262 -0.6877516 -0.08750925 0.3419249 0.0151962405 0.34494904 -0.43829983 0.18682058 0.3102088 -0.13805693 0.19382541 -0.074561186 0.13235943 -0.2804012 0.0019887036 0.30095053 0.4179081 0.14835198 -0.40724123 0.3297334 0.1768807 0.41228446 0.04204019 -0.029933713 -0.5581868 0.08849609 -0.023064304 0.17832026 -0.16278788 -0.22229542 0.20897873 0.33798152
15 -0.5289702 -0.903796 0.12848352 -0.15888177 0.085075 0.10830176 0.32805774 -0.36620602 -0.0886081 -0.07982503 0.26876527 -0.030494466 -0.29288867 -0.3885702 0.5446712 0.7585634 -0.26259807 -0.15907148 -0.06463002 0.30286536 0.056458477 -0.28833416 0.033570644 0.044533852 -0.08362047 -0.026575688 -0.10534052 0.034413297 0.3472362 -0.116918266 0.42266607 -0.20694995 0.22768492 0.13178632 0.120204456 0.38106102 0.34919405 0.049600333 -0.0982145 0.31193823 -0.04552725 -0.13986893 -0.0992951 -0.24653481 0.19564527 -0.03140675 0.18171613 0.32564238 -0.3364115 0.28859308 0.09640381 0.09596459 0.22205573 -0.035026 -0.5148288 -0.25228685 0.15785776 -0.21243876 -0.1565567 5.138484e-05 -0.43109772 -0.119497605 0.2956567 0.03525207 0.17946853 0.20881948 -0.0020395983 -0.61093146 0.39764503 0.5255816 0.30518147 -0.1384357 -0.41184118 -0.3461513 0.23001632 -0.19900523 -0.08100782 0.0077279774 0.14298156 0.091769464 -0.19600497 -0.15178597 0.44496083 0.47082338 0.16419736 0.12305211 0.03568339 0.059806302 0.21327859 0.050074 0.0015594225 -0.1584175 0.71412015 -0.12419818 0.22032867 0.10962806 -0.13818474 0.3409899 -0.38883483 -0.55904764 0.36751246 0.077804066 -0.6445725 -0.43286493 0.34718165 -0.04986888 0.110079885 -0.2031266 0.6177157 -0.1948189 -0.15208317 -0.19673915 0.50187725 0.2551431 -0.35017914 -0.07562456 0.04146528 0.06058654 -0.20896561 0.06950022 -0.28436863 -0.14118278 -0.09360228 0.4802741 -0.27746648 0.12519404 -0.005044636 -0.055214565
633 -0.39657772 -0.68007547 0.37123895 0.17388435 -0.11318715 0.18198435 0.36180988 -0.20932572 0.064744994 0.22962889 0.06269241 -0.23554502 -0.35742068 -0.47171324 0.544442 0.72278476 -0.2604535 0.054490022 0.1985988 0.21085954 0.13611002 0.2443023 -0.049797013 0.032393653 -0.10869159 0.009484929 0.256663 0.06969816 0.15002106 0.004332345 0.425212 -0.19065794 0.44357163 0.10832344 -0.16784994 0.052068677 0.3317035 0.0090995645 -0.23784524 -0.12011472 -0.0101897195 -0.040068153 -0.19050948 -0.3020856 0.1757779 -0.40378448 0.41014862 0.444486 -0.11744788 0.18079974 -0.011623939 -0.09548127 0.23581551 0.04281589 -0.6072411 -0.17165788 0.029312348 0.050645206 0.04634271 0.071902215 -0.47895166 0.11719941 0.3978377 0.2977064 0.179514 -0.00077699724 0.2766081 -0.53115016 0.16406621 0.4650336 0.1298647 -0.26602975 -0.4403155 -0.41831633 -0.13336603 -0.30716032 -0.019159032 -0.2583888 0.011996579 0.20084363 -0.058347832 -0.13001879 0.3052625 0.29039097 0.079563364 -0.13192955 -0.13712405 -0.37690607 0.00572354 0.01064651 -0.124337114 -0.23439835 0.48173487 -0.3332703 0.29733592 0.3587947 0.05450229 0.18530817 -0.659361 -0.79690284 0.36080235 -0.05462128 -0.8345691 -0.22216797 0.14224266 -0.051523417 -0.08483326 -0.27956235 0.2427888 -0.15215503 0.07946741 -0.003236543 0.38411808 0.22418007 -0.057003498 0.10258713 0.25091138 0.040027842 -0.27303135 -0.20882045 -0.39053646 -0.043190718 -0.22056773 0.60982406 -0.2253627 0.06755951 0.35189512 0.010724254
757 0.002374364 -0.1522527 0.024595892 0.38531342 0.18961991 0.2457971 0.38929924 -0.18153699 -0.032475173 0.27103424 0.20748019 0.034919634 -0.21929064 -0.0754696 -0.31113186 -0.04033187 -0.052186273 -0.013912632 -0.5464998 0.06662368 0.151899 0.08715128 0.14967442 -0.19881357 -0.30318135 -0.029891951 -0.32307604 -0.06392042 0.15419902 -0.014723463 -0.53334093 -0.1680778 -0.092212684 0.047979046 -0.07319539 0.5207143 0.10612233 0.17071654 0.07821297 0.083940215 -0.16049336 0.018338626 0.21837837 -0.00016051909 -0.1333366 -0.11307142 0.068211034 0.23250933 -0.24549556 -0.12124915 0.49840316 -0.12401304 0.027213125 0.10819916 -0.47407675 -0.27951267 0.3022276 -0.4503009 -0.26749 0.48835534 0.027740734 -0.34974858 -0.0029786325 0.085069396 0.37495497 -0.09930283 0.052979562 -0.1726645 -0.074288234 -0.44373044 -0.06746659 -0.19328454 -0.6047568 -0.19874133 0.022067754 0.33321172 0.11831686 -0.5213654 -0.35846102 -0.17657487 -0.25577018 -0.35369137 0.5962296 0.6265381 0.44520277 -0.07874698 0.7773023 0.32656586 0.07253823 0.23235013 -0.56189275 -0.025977533 0.15471886 0.13025112 0.42918336 0.06706689 -0.531677 -0.7609732 -0.21188909 0.25094968 -0.027525384 0.05813694 -0.45265347 0.18634363 0.13242698 -0.20454718 -0.06255352 -0.09575921 0.33879495 -0.26647004 -0.08797556 0.3137903 0.43301576 0.25583676 -0.4891027 0.37782 0.081286326 0.31325838 0.034792967 0.098097 -0.39016283 -0.03289242 -0.16558708 0.29766586 -0.13405626 -0.23265217 0.015663015 0.2928961
674 -0.61413145 -0.68128806 0.24471435 0.12843291 -0.12161406 0.087781124 0.25254 -0.50968367 0.016286472 -0.091561995 0.036508117 0.025596611 -0.38966924 -0.47854978 0.38314867 0.6819397 -0.19845259 -0.16871741 0.01291061 0.3617464 0.023154255 -0.11614925 -0.2503274 -0.108326554 -0.07502295 -0.035206065 -0.2082675 0.15815553 0.36218372 -0.19825612 0.37591153 -0.19040094 0.24302895 0.1986177 0.17383464 0.1271831 0.14748521 -0.07514216 -0.16798209 0.32423872 -0.151484 -0.17710324 -0.3036734 -0.31827667 0.16503327 -0.020467212 0.35243565 0.2088508 -0.3251439 0.13224229 -0.015155005 0.14803928 0.24668062 -0.13805956 -0.42779285 -0.2719353 0.29960576 -0.24224931 -0.34949344 -0.036987744 -0.4615675 -0.08917745 0.34841043 0.11346648 0.1134395 0.08673665 0.38790578 -0.5107064 0.37822115 0.4589426 0.102055624 -0.29319832 -0.53865415 -0.28715828 0.046779804 -0.26243654 -0.033694513 -0.27999768 -0.028232042 0.029042162 -0.274824 -0.15841287 0.4036271 0.4157581 0.032631 0.1898129 0.04280566 -0.055696614 0.3371267 0.03460713 -0.1661835 -0.428911 0.56736064 -0.16268153 0.34468505 0.24698372 0.04654455 0.35979968 -0.57025146 -0.4346901 0.47664487 0.136821 -0.6518759 -0.4171645 0.06036256 -0.027454669 0.11536614 -0.3842038 0.43129697 -0.103776455 0.08659032 -0.12170849 0.5438058 0.25025433 -0.45276567 -0.09371759 0.09009798 -0.1926525 -0.25451896 0.16252026 -0.37198547 -0.09521482 -0.12838283 0.57618415 -0.25795224 0.0568087 -0.009353946 -0.13016875
632 -0.23199494 -0.87464136 0.3249365 0.18997169 -0.017843554 0.19568501 0.34069365 -0.19919407 0.22046988 0.098363005 0.07512381 -0.116492614 -0.40130192 -0.42437458 0.60826236 0.7355987 -0.43882218 0.005832386 0.18201214 0.13357413 -0.10502792 0.107085414 0.0024267512 -0.056016617 -0.061432634 0.062093407 0.16207418 0.19132088 0.070773534 0.015360127 0.55711585 -0.16337942 0.28586155 0.09295493 -0.1683014 0.37079218 0.34324995 -0.013605578 -0.00440566 0.095541075 -0.059894342 0.034002934 -0.21100867 -0.15685618 0.30143434 -0.31488356 0.17860809 0.29934984 0.03319984 -0.01846867 0.06356066 -0.12765831 0.15978922 0.070748664 -0.5599242 -0.26579216 0.13940184 0.0066705905 -0.07796496 -0.0104013225 -0.5282691 0.020699546 0.008455362 0.30294514 0.06306547 0.049989775 0.34249964 -0.37762538 -0.014032451 0.51220065 0.10954603 -0.32305896 -0.44492388 -0.4077164 0.0632647 -0.13294575 -0.15540302 -0.3287063 -0.02381276 -0.06881463 -0.13414203 -0.28438565 0.40199232 0.36877817 0.18478352 0.143084 -0.031088404 -0.46467614 -0.01061253 0.029501667 -0.13149907 -0.02466672 0.6024376 -0.28785235 0.33488482 0.09859946 -0.22636372 0.03804115 -0.59320575 -0.7286722 0.17635736 0.21154739 -0.53379947 -0.30607277 0.24388833 -0.15351349 0.07447333 -0.192468 0.2742915 -0.23689944 0.1035971 -0.071034335 0.42520157 0.11152843 -0.14807117 0.007941655 0.28946465 -0.13809122 -0.14196357 -0.27463743 -0.4677504 0.00940898 -0.23598859 0.4725965 -0.18723398 0.022836016 0.34505972 0.106571645
668 -0.46772805 -0.73369664 0.31950113 -0.0100515075 0.09685321 0.119462244 0.083442375 -0.15117095 0.06740839 -0.18549126 0.10568544 -0.058102597 -0.35116756 -0.43970272 0.25615042 0.6020611 -0.25802004 -0.054525584 0.10755058 0.11307568 0.17490882 0.16659983 -0.20924905 0.05350136 0.009656763 -0.092933565 -0.022166586 -0.0038410148 0.20196365 -0.26195258 0.3048437 -0.39921752 0.35118136 0.07817746 0.27447784 -0.09276945 0.024548518 -0.05255968 -0.20347297 0.30329594 -0.14217351 -0.14494018 -0.15147202 -0.3859946 -0.036640152 -0.16530919 0.23290598 0.30550122 -0.26490894 0.2060116 0.018633604 0.04496638 0.27593058 -0.081258625 -0.18524572 -0.19954666 0.27611837 -0.47918525 -0.23930666 -0.09936402 -0.35596916 -0.1771608 0.29365593 0.13380907 0.07989324 -0.03174199 0.42424646 -0.35793588 0.21014307 0.54691744 -0.015722262 -0.17318307 -0.5469798 -0.36302143 -0.2681847 -0.47155955 -0.021793855 -0.2714172 -0.2151602 0.026479833 -0.09634703 -0.029205933 0.48101658 0.52672595 0.2744119 0.091846004 -0.043607708 -0.08648906 0.1388292 0.005484989 -0.09527154 -0.38327357 0.5041506 -0.011125282 0.6553653 0.08170452 0.059671134 0.22539485 -0.6456866 -0.5060267 0.40168068 0.12816212 -0.83972555 -0.27790788 0.15033533 -0.14884019 -0.017072164 -0.31490076 0.31963694 -0.2178189 0.17151985 -0.20437118 0.4084957 0.3632398 -0.41110328 0.12476288 0.29168406 -0.23096676 -0.06823118 -0.006745322 -0.36289454 -0.036270533 -0.20721751 0.3911855 -0.3136636 0.027830416 0.12109756 0.004996849
628 -0.16299847 -0.66691506 0.2947462 0.044769704 0.13682064 0.20158145 0.18265978 -0.15134823 0.10346641 0.071876325 0.110119075 -0.13023774 -0.2811668 -0.53021276 0.40216136 0.6934615 -0.3362127 0.085751414 0.10443786 0.22871801 -0.025237132 0.11732207 -0.022413243 0.026503708 -0.22778693 0.09150668 0.35675442 0.13264042 0.024102772 -0.08542625 0.40297174 -0.081847444 0.38641337 0.16182873 -0.101042055 0.37494156 0.35488018 -0.18783428 -0.13168935 0.06071743 -0.01776179 -0.039329592 -0.25989434 -0.33521613 0.2957137 -0.3029648 0.22587718 0.24755193 -0.09721087 0.054934714 0.05348843 -0.2320075 0.26741466 -0.01498522 -0.453009 -0.19647029 0.14574695 -0.20877746 -0.021081915 -0.07017718 -0.5582445 -0.040017396 0.28037432 0.29462755 0.12173075 -0.08579757 0.22848268 -0.5010772 0.3390076 0.51481676 0.3224341 -0.32727188 -0.4187604 -0.6620173 -0.006658041 -0.26751378 -0.07117964 -0.070067674 0.024163015 0.03937422 -0.10153521 -0.25268832 0.43501014 0.38311878 0.17929304 0.17136857 -0.19850269 -0.36939576 0.12775122 -0.1183426 -0.15839756 -0.1798832 0.3721948 -0.0639305 0.49234655 0.23512757 0.056770332 0.20155655 -0.6165353 -0.75417787 0.3416533 0.09339772 -0.87208784 -0.3125521 0.23681879 -0.09152699 0.047774058 -0.14698431 0.35399747 -0.22212106 -0.030377785 -0.04798533 0.5189223 0.053309876 -0.15950984 -0.04377162 0.31037948 -0.0346747 -0.1378602 -0.0128707625 -0.46860427 -0.09950354 -0.4147254 0.71156 -0.329565 -0.028028766 0.24557087 0.046453957
626 -0.3263851 -0.81034195 0.2249069 0.05773412 -0.07608673 0.17185494 0.2643108 -0.18952326 0.122448474 0.0037423237 0.1480927 -0.13053842 -0.42284912 -0.37972093 0.5165861 0.6417729 -0.3494953 0.03615162 0.094254896 0.30878887 0.03183073 -0.019737504 -0.1282289 -0.08534171 -0.050171647 -0.13835825 0.13940825 0.19293588 0.09322895 -0.15769702 0.34905317 -0.38964573 0.3184367 0.23514977 -0.2100346 0.10897409 0.21667026 -0.14922647 -0.11231261 0.0028813449 0.042043276 0.0114586055 -0.19485216 -0.20144285 0.28363243 -0.11624171 0.20623033 0.5243182 -0.11607664 0.0686531 0.2128878 -0.1866744 0.11369758 0.14690681 -0.5557885 -0.03249738 0.15171966 -0.09400371 -0.086119376 -0.043352347 -0.5205623 0.052442584 0.23320268 0.07991176 0.0057280245 -0.042383634 0.23440409 -0.5817818 0.14818934 0.38086367 0.041298 -0.2578702 -0.30181763 -0.40239483 -0.048513886 -0.3287841 0.020108776 -0.3097493 -0.061227594 -0.055912163 -0.34469417 -0.22195022 0.403353 0.29693317 0.21987306 0.02473908 -0.073227786 -0.2994933 -0.008490052 -0.06577624 -0.07431325 -0.33769342 0.50318795 -0.17289107 0.35977748 0.339003 0.18671198 0.32174018 -0.6628922 -0.59400535 0.2331225 0.020071043 -0.65560156 -0.26392776 0.088629775 -0.2304582 -0.09665749 -0.20270379 0.22184077 -0.12772655 0.021116672 -0.075980335 0.2528651 0.17356549 -0.24902694 -0.024672331 0.4554255 -0.06002751 -0.3047695 -0.34677476 -0.4066159 -0.06064583 -0.39495432 0.6180794 -0.36799842 0.03734663 0.3085284 0.0824132
7 -0.3856994 -0.946199 0.06915825 -0.1841769 0.06492818 0.22217783 0.23502184 -0.15499252 0.008060276 0.018198282 0.4250772 -0.051060367 -0.37398654 -0.24135627 0.46641886 0.6094385 -0.33758536 -0.030100027 0.004199739 0.27454045 0.18533805 -0.25765535 -0.029983295 -0.023163207 0.015048676 -0.05219052 0.13276637 0.06633268 0.18533553 -0.28823048 0.31138253 -0.3836258 0.27713722 0.22628057 -0.044132102 0.16718845 0.3063337 -0.053862337 -0.086825885 0.19050449 -0.012062865 -0.022551311 -0.12661746 -0.17419562 0.33825392 0.011685646 0.0037306212 0.65442353 -0.36391428 0.3065231 0.2643087 -0.012127806 0.18629344 0.18191577 -0.5849225 -0.18836105 0.18974307 -0.28111276 -0.07259519 -0.025266776 -0.4512292 -0.013638381 0.1536319 -0.08646513 0.13655117 0.042718027 0.050001167 -0.57986164 0.26911005 0.47320035 0.31671387 -0.11828578 -0.37447238 -0.3617493 0.07178142 -0.2665781 0.106174916 -0.12868726 0.037822016 0.06730448 -0.3138486 -0.13633448 0.48257032 0.45542166 0.38100725 0.037759993 0.045525063 -0.053237874 -0.06958435 -0.07584432 -0.0031131734 -0.15219921 0.71797913 -0.11657422 0.31779888 0.3164824 0.026351776 0.3678418 -0.58713293 -0.64179856 0.2988945 0.09999262 -0.7255897 -0.29626495 0.4755819 -0.24944504 -0.0152141545 -0.19890894 0.56818926 -0.27792332 -0.19304556 -0.16975951 0.27779353 0.16837439 -0.26924574 0.07195328 0.37653494 0.05523808 -0.3325066 -0.22603762 -0.3507283 -0.07620328 -0.23181528 0.37423027 -0.2817829 0.062955804 0.06297819 0.10130868
697 -0.48383975 -0.82258433 0.087896444 -0.005770237 -0.079890534 0.16737802 0.25591254 -0.39779058 -0.0054177265 -0.04706634 0.1974238 -0.11653701 -0.463484 -0.39480805 0.5611427 0.6407511 -0.3735172 -0.21771985 -0.01319652 0.40160987 0.020428456 -0.2868066 -0.07829036 -0.17346397 -0.010231331 -0.014235805 -0.07256636 0.0011954794 0.19762157 -0.23415685 0.4589981 -0.3717186 0.105309606 0.26144627 -0.077563986 0.24359527 0.3417423 -0.25736737 -0.037809722 0.22975312 -0.04215961 -0.041654114 -0.30541256 -0.12960279 0.36059576 0.06331834 0.25333354 0.61098236 -0.3147942 0.100477226 0.25462547 -0.0558321 0.01035382 0.0045579625 -0.6130304 -0.1471952 0.22492224 -0.10995676 -0.24088423 -0.015425967 -0.54155654 -0.0883186 0.33064005 0.05877169 0.038237885 0.08403309 0.23977518 -0.54790115 0.39043805 0.34633335 0.043352615 -0.1272091 -0.4261019 -0.2735973 0.14460216 -0.37706432 -0.014483181 -0.25330994 -0.029738879 -0.019484216 -0.42406 -0.26290795 0.54813397 0.33775696 0.075695455 0.12775917 0.13694838 -0.08436722 0.2267102 -0.028265838 0.00038506743 -0.32911694 0.52320844 -0.22207992 0.15586744 0.3740614 0.056735754 0.56397814 -0.6223221 -0.23820588 0.3410819 0.062311694 -0.5373831 -0.3526506 0.02124508 -0.22786957 0.10612244 -0.11467853 0.4559547 -0.09892229 -0.09436274 -0.05899925 0.41098502 0.15291047 -0.36208355 -0.1126434 0.2576485 0.09942283 -0.36652294 0.012569212 -0.33910367 -0.11331722 -0.2267595 0.52223825 -0.255526 0.1382372 0.20042764 -0.006886297
203 -0.35239267 -0.77168924 0.02545985 0.08675423 -0.11525954 0.39849427 0.12388342 -0.2649415 0.026362605 0.028387493 0.33595026 -0.03870068 -0.36150977 -0.21002153 0.6292977 0.50456506 -0.4353452 -0.08924297 0.06607837 0.26120472 0.15136361 -0.25777262 -0.071713716 -0.26891214 0.08273925 0.044432376 0.20984448 0.068199955 0.08938934 -0.2930915 0.44342744 -0.466736 0.22028051 0.19311462 -0.15126233 0.06447039 0.31770396 -0.17893071 -0.30523896 -0.009972434 -0.068766266 -0.040600576 -0.41715422 -0.1689131 0.44071195 -0.03845384 0.079262316 0.6480034 -0.3692453 0.20951033 0.2769907 -0.15729052 0.06404957 0.045412097 -0.451625 -0.11753344 0.1678205 -0.17300458 -0.14531052 0.054983854 -0.64434004 0.10742064 0.23433945 0.18348221 0.07880012 -0.0015075721 0.29226717 -0.40250707 0.30349296 0.3692275 0.08993887 -0.1726379 -0.5720955 -0.49792275 0.064298384 -0.38528106 -0.01792019 -0.20970263 0.108220875 -0.13325585 -0.25866935 -0.16723596 0.6059619 0.3820571 0.20075655 0.22693038 0.1627456 -0.2597727 -0.057870522 0.021690024 -0.056613363 -0.30209512 0.56494653 -0.011807925 0.2932389 0.499961 0.026594602 0.3875373 -0.74254584 -0.36963293 0.25768253 -0.01084122 -0.6677643 -0.26423383 0.18148312 -0.15576833 0.065608844 -0.13657793 0.46725202 -0.31303662 -0.10169086 0.051042963 0.49588114 -0.03494838 -0.08934135 0.04180082 0.42913383 0.06775292 -0.41722703 0.0022725419 -0.2714732 -0.057582363 -0.16163188 0.41840434 -0.19318764 0.058289267 0.1959427 0.13318747
13 -0.20906389 -0.819154 0.21513145 -0.20280558 0.1103931 0.21239688 0.14874622 -0.21156521 -0.0073077087 0.09010806 0.18151191 0.11817768 -0.25244474 -0.18267533 0.5532803 0.67319995 -0.32029146 -0.04427674 0.02394965 0.20568466 0.07523788 -0.09156311 -0.0045571816 0.014797406 -0.039357476 -0.0053860885 0.056240946 0.19861867 0.13702269 -0.19182715 0.3772649 -0.3067827 0.16618396 0.040288817 0.19298302 0.21240398 0.17480658 0.068109244 -0.20920618 0.23935014 0.049037676 -0.088258386 -0.01868714 -0.25880587 0.2259192 -0.15463841 -0.0014395079 0.52468175 -0.29221904 0.29814637 -0.079009846 0.10987939 0.38638783 0.03737926 -0.5486962 -0.31137583 0.1574855 -0.1319006 -0.22926 0.11429375 -0.47808146 0.08982527 0.076615855 -0.0055731214 0.30864435 0.07148467 0.0467725 -0.41673586 0.28953895 0.43943295 0.22478943 -0.12879717 -0.41566584 -0.43320963 0.06625888 -0.18216363 -0.08509257 -0.17228469 0.08239567 0.05237651 -0.06855778 0.011387165 0.31040293 0.44516206 0.30453372 0.059278443 0.105902575 -0.055142533 -0.048422858 -0.043375023 -0.027088504 -0.12618099 0.80125725 -0.00024728195 0.28019288 0.20594838 -0.09228692 0.09090008 -0.5305905 -0.68712825 0.22669733 -0.07889579 -0.8111967 -0.31434456 0.5576758 -0.14088604 0.04328708 -0.16255513 0.6367883 -0.19792885 -0.21095863 -0.39334676 0.4718511 0.20441625 -0.14263065 0.3128117 0.40261796 0.13800554 -0.37731642 -0.015824068 -0.15690343 -0.012267726 -0.24043468 0.25005338 -0.30250922 -0.00039352223 -0.0036090696 0.0019366594
31 -0.13950895 -0.33425334 0.12987016 0.33938843 0.5156076 -0.06717755 0.42698166 -0.10485258 -0.25559244 0.21878701 -0.08023635 0.11919515 -0.1389999 -0.014463481 -0.06716841 -0.06040262 -0.21306796 0.021424945 -0.023095787 0.53732973 0.4371858 -0.0034213376 0.34409428 -0.2773252 -0.15774968 -0.19087039 -0.2723993 0.23841807 0.2092483 -0.048459083 -0.6918142 -0.3646711 0.1986634 -0.01716771 -0.21760662 0.38998568 0.033859547 0.30169323 -0.18982928 -0.18072201 -0.18866758 0.02698605 -0.057522725 -0.3656656 -0.06760688 0.030529823 -0.19855826 0.32581246 -0.130595 -0.0054320646 0.3074545 -0.21561582 0.02191849 0.38486466 -0.2501304 0.04871361 0.08111625 -0.19594723 -0.15733333 0.16686451 0.10535349 -0.15606794 -0.004705567 0.11938584 0.21945629 0.23324926 -0.20343275 0.10368481 0.27353683 -0.30901074 -0.18913668 -0.5490404 -0.7550702 0.05588231 -0.2727098 0.28582403 0.5489026 -0.43822753 0.02304311 0.09802961 -0.37653258 -0.12772152 0.34471253 0.5048076 0.63676286 0.13986532 0.78525835 0.572811 0.3864256 0.19881447 -0.6090717 0.21669628 0.16543101 0.42189607 0.49252555 -0.1300832 -0.54373777 -0.24063136 -0.10590947 0.29093936 0.15061109 -0.14143652 -0.22164272 -0.31344575 0.27073753 0.0025876109 -0.13307676 0.13294384 -0.048340246 -0.096046835 -0.04338439 -0.04862185 0.43201727 0.34886917 -0.19524215 0.083132215 0.38384598 0.26966262 0.27753258 0.14283566 -0.1275356 0.028384738 -0.1615605 -0.07760562 -0.39326245 -0.5837639 -0.16984886 0.22969861
684 -0.22425427 -0.7217527 0.04687489 0.0069282684 -0.0049000946 0.30805832 0.25888047 -0.21458419 -0.04253037 -0.03886711 0.16691786 -0.14926605 -0.32434443 -0.40866598 0.50333494 0.60740685 -0.7412868 -0.18384089 0.12204209 0.36618865 -0.088828035 -0.15289375 -0.06404919 -0.07903594 0.006429876 0.16360028 -0.044398848 0.12851594 -0.08493625 -0.28627926 0.37113726 -0.43114033 0.10601732 0.0017718179 -0.07898516 0.08520343 0.15727472 -0.30266818 -0.028514192 0.11105109 -0.012643277 -0.122698545 -0.17785771 -0.19528884 0.35132524 -0.01593697 0.17282365 0.5653095 -0.15500136 0.24293505 0.20878176 -0.10133276 0.022381492 0.11698492 -0.4928189 -0.19955969 0.27029458 -0.033861432 -0.14850987 -0.14991038 -0.5303125 0.02181378 0.14784987 0.07644655 0.0714479 0.036714543 0.25985342 -0.40252194 0.14019927 0.34958318 0.03161891 -0.1254649 -0.2127254 -0.36111757 -0.17478715 -0.3082935 0.10282345 -0.20922486 0.1154253 -0.02537457 -0.3519718 -0.18457985 0.5268277 0.3693864 0.24003524 0.1947093 0.12275233 -0.0647551 0.2027851 -0.15196133 -0.106456116 -0.23580861 0.5258394 -0.14875093 0.380371 0.33120084 0.0658276 0.45038375 -0.56368107 -0.43941242 0.29399514 0.019572873 -0.522016 -0.24603282 0.25868484 -0.16980693 -0.060109917 -0.071260124 0.35122874 -0.18175171 -0.10837084 -0.09753495 0.2224051 0.1616184 -0.21945247 0.19673108 0.46336353 -0.0082258 -0.48119605 -0.25585246 -0.22394022 -0.24813086 -0.20741414 0.3332744 -0.27928445 0.050577383 0.21857439 0.06001865
54 -0.041131973 -0.44821036 -0.010911568 0.087938435 0.018923692 0.20063135 0.43203413 -0.038742274 -0.1461831 -0.10648449 -0.16012727 -0.15909861 -0.057937156 -0.52997416 0.47708797 0.7173147 -0.7808185 -0.2633419 0.30325267 0.4308395 -0.09106286 0.045047276 -0.00804653 0.059780594 0.017421113 0.0696826 -0.1829899 0.26077375 -0.13242763 -0.14494307 0.21689206 -0.21987459 0.13031557 -0.2568733 0.09876054 0.0064134994 0.020236151 -0.13213143 -0.10954745 -0.02953222 -0.06757683 -0.20207706 -0.0849766 -0.19204678 0.26653758 -0.16724989 0.2633701 0.23953217 -0.065813564 0.39347288 0.0462799 -0.07148792 0.08243358 0.2140056 -0.20191063 -0.14425428 0.12732302 0.13777114 -0.014956187 -0.16484423 -0.49547026 0.10981785 0.049669776 0.2109275 0.29684642 0.18578319 0.1799467 -0.33840242 -0.035299238 0.34692603 -0.02339671 -0.36904818 -0.052012414 -0.35309392 -0.5232873 -0.1664864 0.09976893 -0.11244483 0.25357363 -0.0156333 -0.052154403 -0.07111673 0.54011905 0.51390386 0.28538376 0.3004505 0.12208345 0.18713892 0.44227034 -0.08677856 -0.2055417 -0.14339145 0.35681581 -0.13495898 0.48874006 0.22010623 -0.19887413 0.28444654 -0.37214646 -0.6313942 0.2628562 -0.05445318 -0.3812206 -0.18807179 0.41337812 0.093317375 -0.19025312 -0.056515906 0.15590031 -0.15062784 -0.09769272 -0.14336611 0.32860005 0.4475026 -0.094852895 0.36869192 0.38684446 0.06348754 -0.38733932 -0.2324908 0.027293354 -0.29321474 -0.021114215 0.1899735 -0.4965984 0.07274116 0.29829276 -0.0022514055
691 -0.32073602 -0.8715431 0.13555779 -0.15913925 0.077466786 0.24798216 0.082669 -0.021091273 0.056358863 -0.063640796 0.29111478 -0.18301508 -0.43703625 -0.32786933 0.47976062 0.60273385 -0.49025077 -0.13863198 0.079732805 0.15447184 0.20152813 -0.007644274 -0.010831391 -0.01132681 0.040239505 -0.05693924 0.17970966 -0.22724727 0.0886038 -0.3430362 0.47772375 -0.532633 0.24013983 0.116492964 -0.049206827 0.09367166 0.22923866 -0.20692547 -0.07785753 0.1486712 -0.041718308 -0.013089833 -0.14798766 -0.15960246 0.18433844 -0.116354525 0.17361519 0.72317624 -0.2613669 0.19008398 0.33967865 -0.19766381 0.049053866 0.03951533 -0.35086244 -0.10573856 0.15642154 -0.33812016 -0.015530236 -0.046118926 -0.43453556 -0.1208649 0.2687979 0.113462366 0.05823143 -0.011989534 0.23694037 -0.32896823 0.23075701 0.42925346 0.0036720382 0.010078113 -0.4575776 -0.32940587 -0.11070001 -0.5396239 -0.0050066896 -0.24389666 -0.16876432 -0.03812886 -0.19898921 -0.09684578 0.58793175 0.4330914 0.24956603 -0.0036041152 0.08754288 -0.09717301 0.06603324 -0.08855039 0.042768262 -0.2403493 0.45443252 -0.11281417 0.452714 0.2703755 0.082707554 0.41885614 -0.7143965 -0.38582337 0.2652177 0.019479174 -0.7734341 -0.2651498 0.111724325 -0.28498268 -0.010578288 0.0017966541 0.40567827 -0.21618275 0.0032064843 -0.108731 0.29209056 0.2746345 -0.22797556 0.21831767 0.43747437 0.052991904 -0.17800906 -0.09925651 -0.33838576 -0.049140852 -0.22960675 0.36577687 -0.39374107 0.09392831 0.353668 0.09116764
629 -0.40880406 -0.7970509 0.3977474 0.04807865 -0.08339607 0.1659933 0.42409277 -0.25148687 0.15394267 -0.11486858 0.14268212 -0.28907034 -0.18726861 -0.33269617 0.6375731 0.61130977 -0.31326166 -0.02928212 0.0010269453 0.2587288 -0.1285458 0.06865158 -0.022339094 -0.11101478 -0.17146249 0.017405521 0.043688715 0.27169517 -0.017944612 0.048035502 0.4046354 -0.28371325 0.34397864 0.1069353 -0.13298494 0.18396442 0.37308648 -0.06841372 -0.09743424 0.04287308 0.046775825 -0.038840715 -0.10574257 -0.3880321 0.21166608 -0.35174167 0.11446806 0.22811142 0.049319 0.15974796 0.0023808973 -0.2958404 0.19357064 -0.059889745 -0.45827988 -0.112293385 0.04895969 -0.0044915043 -0.13669536 0.040210564 -0.5974699 0.008922467 0.31055784 0.21314615 0.037456054 0.08618872 0.17646822 -0.44305152 0.12878759 0.58777493 0.12895022 -0.2359248 -0.37521717 -0.6677817 0.05374041 -0.19714093 -0.16981083 -0.22050172 0.068068825 0.015461066 -0.07453322 -0.22355404 0.113905646 0.074654385 0.28505805 0.021240933 -0.29266998 -0.42896944 -0.038415454 0.067570806 -0.15152307 -0.23413232 0.458147 -0.02960042 0.23852293 0.15291838 -0.03927892 0.07438479 -0.7135856 -0.7686451 0.26219106 -0.07209426 -0.78193307 -0.21630262 0.07104461 -0.16496806 -0.01706444 -0.26805738 0.4260635 -0.19698414 -0.04464381 -0.09893138 0.5206731 0.1669282 -0.3632732 -0.022606254 0.27587143 -0.059415486 -0.23905562 -0.24975711 -0.5132078 -0.220635 -0.4405882 0.7509421 -0.22168896 0.0552989 0.3186792 0.16336434
198 -0.29364836 -0.8416253 0.19061609 -0.0060910997 0.051526785 0.33705753 0.00928455 -0.029415704 0.003976743 -0.076903895 0.2138659 -0.036041573 -0.35034645 -0.27297938 0.6671828 0.64937305 -0.4612461 -0.12694661 0.19780001 -0.026356658 0.24201506 0.010335815 0.04976662 -0.1063255 0.089867234 -0.0056214556 0.1420182 -0.17586043 0.13171352 -0.23699959 0.5344802 -0.58861226 0.2881465 -0.030816594 0.05283639 0.042992547 0.12885335 -0.022825124 -0.33949855 0.056366164 -0.10991818 -0.10963148 -0.22227302 -0.24433146 0.095111124 -0.21019769 0.103588164 0.5405789 -0.2740766 0.21557115 0.21649104 -0.15372263 0.10573525 -0.03769051 -0.18327612 -0.12806085 0.07339733 -0.4007942 -0.0792409 0.06887069 -0.47918555 -0.054090343 0.27190885 0.34564024 0.0906905 0.015421278 0.33012965 -0.2130136 0.18891485 0.37091166 -0.12072415 -0.071094036 -0.6014981 -0.40715393 -0.08090351 -0.5629706 -0.20583536 -0.17721343 -0.025025018 -0.21607532 0.011170538 -0.017709443 0.6452812 0.54806864 0.15153626 0.12565237 0.17097701 -0.14583902 0.034302395 0.080275364 0.045020103 -0.19828546 0.57397664 0.030518726 0.50670487 0.16832392 -0.13073504 0.14006904 -0.6425206 -0.33616394 0.16204256 -0.08720876 -0.73466164 -0.266055 0.12963213 -0.095512286 0.08394664 -0.0884262 0.38089463 -0.31979558 0.14184673 -0.062139373 0.50360054 0.1873006 -0.07685617 0.16973342 0.41109213 0.014458419 -0.13592468 0.029720724 -0.19299065 0.026477756 -0.08629705 0.293241 -0.32959613 0.078914605 0.32035476 0.12650046
689 -0.3389673 -0.71381545 0.18754022 0.06926438 -0.0109393755 0.15281233 0.35563138 -0.3558786 -0.11946128 -0.100738935 -0.049674682 -0.1359207 -0.30837974 -0.6353067 0.5370655 0.8624243 -0.64231133 -0.19932172 0.07978621 0.45453244 -0.2358257 -0.12674358 -0.07081881 -0.09515959 -0.08132749 0.062640324 -0.26592854 0.12433047 0.08649382 -0.14427546 0.51542825 -0.25896084 0.1041293 -0.044641312 0.10182778 0.26720303 0.18338151 -0.19465587 -0.10055193 0.20729281 -0.04416877 -0.24819922 -0.13719283 -0.24214795 0.21263054 -0.096964575 0.2952111 0.3432099 -0.11570984 0.1771841 -0.030061685 -0.0052147955 0.16526547 -0.031304512 -0.4530315 -0.23485214 0.23177853 -0.0028590695 -0.18644875 -0.098492056 -0.5337334 -0.040061124 0.25326657 0.19295949 0.14209396 0.140829 0.2640254 -0.5320605 0.24423331 0.41249132 0.02311624 -0.19807288 -0.21707955 -0.37082073 -0.01633683 -0.2655281 -0.07046848 -0.17875816 0.18460667 -0.053280704 -0.26348385 -0.2090344 0.51132005 0.44352674 0.035875466 0.19439045 0.07599454 0.04371571 0.4516191 -0.053159047 -0.05072735 -0.23651758 0.50753516 -0.17971048 0.3325905 0.17031014 -0.051739205 0.36560178 -0.37744132 -0.43209514 0.27187002 0.018660555 -0.47834122 -0.3652071 0.13031058 0.05643475 0.0072685136 -0.116570555 0.33541313 -0.03912398 -0.04211407 -0.15653628 0.43772164 0.280527 -0.31701487 0.09106463 0.2060525 0.022860989 -0.3804629 -0.042389575 -0.15022504 -0.24524899 -0.10926937 0.48084515 -0.4203646 0.1798514 0.19973232 -0.09447784
191 -0.36349127 -0.61831427 0.15212181 0.18522015 -0.1630876 0.64752644 -0.015487788 -0.2567994 -0.0876419 -0.045343775 0.22892264 0.25716752 -0.25732383 -0.23302656 0.6869289 0.36319315 -0.46283263 0.038575105 0.12268495 -0.022000154 -0.041709933 -0.21264374 0.10587272 -0.1900439 0.23822108 0.18023157 0.08039021 -0.030873442 0.07919226 -0.026376767 0.5030086 -0.3689371 0.34062666 -0.040629033 -0.056128513 0.1248088 0.076567754 -0.0315367 -0.5687522 -0.17087741 0.040531296 -0.18355843 -0.30054665 -0.36262694 0.14912695 -0.31544864 0.06454838 0.44934225 -0.2392755 0.27695745 0.06692999 -0.04545799 0.11637921 -0.10814354 -0.42872587 -0.3611523 0.1436752 -0.23893659 -0.05202065 0.1338026 -0.5622513 0.24997273 0.2582832 0.4460541 0.017502358 -0.08596993 0.30463234 -0.2838979 0.24727374 0.35543835 -0.055778015 -0.23719369 -0.51269186 -0.35304135 0.11085514 -0.30270794 -0.09360043 -0.10631155 0.25209567 -0.35268083 -0.15585107 0.07640493 0.46756577 0.31079787 -0.08664389 0.19085027 0.23349234 -0.51198864 0.009398417 0.21314742 -0.20773827 -0.23581979 0.79142374 0.103504986 0.48143137 0.39147857 -0.020535868 0.034158226 -0.5187075 -0.21504645 0.033357337 -0.14432661 -0.56226295 -0.32739004 0.02327285 0.06726469 0.11458503 -0.3141653 0.3182682 -0.2483068 0.07756042 0.22822094 0.67351353 -0.06221015 0.19679512 0.02469353 0.44120303 -0.14307868 -0.31617853 0.052785397 -0.16544127 -0.09126919 -0.0034904822 0.4780346 -0.0671166 -0.023495989 0.1368265 0.17142597
647 -0.038991608 -0.68339515 0.3277335 -0.087652735 0.10947705 0.24164765 0.16537406 -0.25337353 -0.12144564 -0.000560464 0.11009406 -0.024825528 -0.3246254 -0.40776253 0.60327756 0.69550776 -0.6706404 -0.082129724 0.08506838 0.26663977 -0.1724659 -0.05285077 -0.051296216 -0.011294628 -0.17952949 0.216309 -0.057269916 0.2816951 -0.0827204 -0.20742685 0.5187167 -0.33214453 -0.009951507 -0.08392497 0.07035827 0.17400756 0.018195966 -0.16370232 -0.12627678 0.20101485 0.026456237 -0.20698296 -0.054958057 -0.32808065 0.22506392 -0.24759528 0.124655634 0.43235794 -0.09902024 0.16959614 -0.14864749 0.025912236 0.28288278 -0.0810362 -0.48321447 -0.38448867 0.3238839 -0.07696046 -0.33144084 0.009964625 -0.48586112 0.15557459 0.17011991 0.08962434 0.22771534 -0.0048111724 0.1933259 -0.3398204 0.24211836 0.26816678 0.018223107 -0.09459851 -0.27777666 -0.43486506 -0.1079534 -0.1757395 0.030238315 -0.18447815 0.12220239 -0.0022780295 -0.09618045 -0.03766022 0.32535222 0.35914585 0.12836227 0.24354267 0.1618059 -0.14956813 0.2650374 -0.14011571 -0.18497822 -0.16333914 0.6280573 -0.0032574437 0.45724544 0.24588053 0.08779801 0.1198118 -0.42990613 -0.54000175 0.15388288 -0.20163718 -0.75463766 -0.30110282 0.32674077 -0.07491259 -0.002877122 -0.068221726 0.44716614 -0.031104516 -0.052957486 -0.27923128 0.467541 0.19131684 -0.2190022 0.40406385 0.4382616 0.11071475 -0.52561766 0.052108258 -0.10006047 -0.20709687 -0.35141146 0.23416394 -0.3372262 -0.051261213 0.075088926 -0.033957515
686 -0.40718284 -0.68651587 0.20994459 -0.027866976 -0.054737695 0.321303 0.42067283 -0.28302488 -0.056004453 -0.255473 0.19386168 -0.33806258 -0.115164235 -0.3509489 0.61517996 0.53059995 -0.66057134 -0.29812172 0.102190234 0.3587662 -0.16974425 -0.050371587 -0.026799489 -0.100951225 -0.038270038 0.25784853 -0.2443836 0.22375743 -0.18527602 -0.12759645 0.34720078 -0.3833548 0.12518631 -0.13131936 0.05435333 -0.00583566 0.17758438 -0.18977338 -0.06361301 0.17385694 -0.041719403 -0.20550928 -0.102540456 -0.3968036 0.21189937 -0.23228256 0.124827474 0.2741564 -0.068157926 0.3903148 -0.004606069 -0.16775683 0.07739691 -0.09717471 -0.34402835 -0.25442296 0.21174017 0.024488041 -0.23755637 -0.088059105 -0.5542607 0.010995922 0.23092356 0.173881 0.12754041 0.15660147 0.20603149 -0.26172885 0.075543806 0.5697178 0.042174954 -0.10663435 -0.28221697 -0.55180866 -0.22476852 -0.20455147 -0.011616202 -0.11079771 0.18276703 0.044233494 -0.09164414 -0.082664795 0.21298665 0.1602825 0.31989148 0.19012327 -0.058158677 -0.11226231 0.18941054 -0.002452773 -0.22899532 -0.24495608 0.48984566 0.028585406 0.3517254 0.17048606 -0.12633283 0.25450903 -0.63804543 -0.5987232 0.32012418 -0.13123435 -0.64933467 -0.15255763 0.23311985 -0.10596571 -0.091412604 -0.18779132 0.53166324 -0.22860208 -0.11708586 -0.09842577 0.44137084 0.2639655 -0.3704875 0.3173766 0.28124443 -0.051610935 -0.39216733 -0.1425866 -0.27554578 -0.45105478 -0.22899355 0.34808615 -0.1415799 0.060157575 0.20766029 0.14345403
3 -0.49371967 -0.70959425 0.15406607 0.028052028 -0.034149766 0.23545437 0.19352987 -0.30760685 -0.009055873 0.07051298 0.13233042 0.12117457 -0.2634188 -0.33686602 0.2465147 0.6376832 -0.1639202 0.01780246 0.12688184 0.21597101 0.16851112 -0.01649404 -0.19729207 0.041515548 0.04960969 0.07166558 -0.017577233 0.16359822 0.26631016 -0.21308771 0.18764833 -0.16862209 0.3944584 0.13759807 0.24382225 -0.047745116 0.10041767 0.1297076 -0.29672772 0.23628654 -0.14818491 -0.1582485 -0.18845862 -0.33358592 0.13396409 -0.09494718 0.17715546 0.32193592 -0.42846084 0.34275755 -0.0914812 0.2439261 0.40364054 0.012838265 -0.4337711 -0.3909 0.30913085 -0.26675183 -0.21425593 -0.059257716 -0.3519583 -0.013790642 0.20058247 0.087087065 0.19320437 0.026792573 0.23736122 -0.49378031 0.27829403 0.52747196 0.26085755 -0.26314658 -0.49131405 -0.29912367 -0.12655595 -0.18945329 0.09995557 -0.15584542 0.053127944 0.16378272 -0.15816873 -0.006214525 0.37525672 0.5125501 0.28448194 0.06000798 0.032764878 -0.027992537 0.030723609 0.0022882288 -0.1259897 -0.29762435 0.73042285 -0.070363276 0.47600165 0.22664315 -0.031398583 0.19398344 -0.5437674 -0.6753503 0.46986994 0.1891249 -0.7762379 -0.27463728 0.48199803 -0.0833876 -0.014938659 -0.46428216 0.46840826 -0.2719741 -0.04079247 -0.20484604 0.37200192 0.2342254 -0.25869986 0.12553129 0.24934645 -0.20013155 -0.21342088 -0.06192676 -0.3125862 -0.006830084 -0.021144412 0.33435795 -0.1261045 -0.020569224 -0.15887424 -0.022107389
694 -0.48796389 -0.8634309 0.11384249 -0.10193235 -0.104100235 0.25729808 0.29847327 -0.25855064 0.12300833 -0.1046833 0.3073639 -0.27855104 -0.26811093 -0.16024007 0.5272224 0.4607793 -0.39346218 -0.21461795 0.00030081996 0.35874176 0.04935547 -0.1421881 -0.06593877 -0.20613573 0.009892713 0.021120586 -0.005893602 0.14136066 -0.054678913 -0.24987057 0.29544237 -0.44790745 0.16784158 0.2016933 -0.07465341 -0.010294435 0.39917788 -0.22022104 -0.059205893 0.15218313 -0.037806313 -0.0052098995 -0.2186611 -0.23620547 0.35477456 -0.05757762 0.054834712 0.5871713 -0.24623281 0.29778925 0.22595242 -0.22414961 0.044912357 0.028439716 -0.4891008 -0.07882024 0.1805219 -0.028615393 -0.2409867 -0.0075100316 -0.57271093 -0.03788534 0.22861373 0.013537353 0.049875982 0.11781322 0.18147355 -0.3402499 0.22470625 0.5050643 0.08789636 -0.08666035 -0.44826698 -0.504602 -0.02666191 -0.31928095 0.006826005 -0.2478885 -0.038 0.044218812 -0.2684159 -0.15203515 0.28618708 0.14030546 0.40994918 0.069971226 -0.003019659 -0.16842711 -0.059344534 -0.008461501 -0.069313124 -0.30503178 0.46071008 -0.010164827 0.15849262 0.34819746 -0.040225107 0.4325334 -0.8376322 -0.4799481 0.38313016 -0.014307824 -0.69844395 -0.15782191 0.19634996 -0.37883678 -0.012848775 -0.14415894 0.59482235 -0.22841318 -0.23873834 -0.14217798 0.3611767 0.1884008 -0.4056866 0.14140767 0.39327013 0.09088345 -0.35453388 -0.17585896 -0.4227376 -0.21314849 -0.3153554 0.44193235 -0.14410281 0.068016246 0.21076886 0.19335492
687 -0.23580295 -0.81933516 0.19640592 0.12099025 0.0310615 0.3138919 0.39966553 -0.1979176 0.0056431596 -0.011808674 0.08695145 -0.18903233 -0.36243513 -0.50356907 0.55739856 0.7446834 -0.8165359 -0.19461042 0.25378522 0.22253194 -0.20818308 0.011636694 -0.015303976 -0.0014907392 -0.012625808 0.30893832 -0.08511212 0.16096018 -0.09213025 -0.1156657 0.57872945 -0.22939062 0.0806289 -0.15845104 -0.011115065 0.27426654 0.2357677 -0.11546882 0.0667009 0.21723145 -0.14108385 -0.15883127 -0.18550673 -0.18943654 0.3334172 -0.25919747 0.1594946 0.33652234 0.00024389602 0.18398026 0.064572774 0.013343134 0.03960095 0.053629633 -0.52677697 -0.4497454 0.33634135 0.0016785564 -0.15351981 -0.12019903 -0.4260567 0.005943209 -0.060531456 0.23837282 0.10695966 0.16015182 0.3074197 -0.1973894 -0.06587116 0.55014193 0.06860122 -0.17679003 -0.32922122 -0.24462815 -0.14884567 -0.113086656 0.055383194 -0.24265108 0.107756846 0.023504172 -0.16914429 -0.21502225 0.47545174 0.39624864 0.25800288 0.2795887 0.13599169 -0.21355197 0.247029 -0.017153874 -0.19733796 0.03952629 0.61706084 -0.28320968 0.38801715 0.075711675 -0.30707732 0.23183693 -0.49546844 -0.6125683 0.25338104 0.19965991 -0.44577804 -0.3361073 0.36287963 -0.09905625 -0.023465674 -0.13151117 0.37010166 -0.21493167 0.044793878 -0.14344068 0.32284385 0.2122217 -0.20005402 0.28112853 0.2654961 -0.15374885 -0.32124117 -0.18264724 -0.2765325 -0.16907606 -0.038336255 0.15567626 -0.14942692 0.032209042 0.22266366 0.066167355
688 -0.3467055 -0.6369998 0.22908601 0.084655225 -0.0623671 0.34669095 0.43431738 -0.21173851 -0.15335828 0.1978396 0.03565708 -0.25264764 -0.27290833 -0.5325174 0.5459311 0.8124715 -0.63767236 -0.15483335 0.24913006 0.2822589 0.0040196097 0.16343603 -0.0054393797 0.044771504 -0.098737985 0.29700002 -0.056816265 0.06006371 -0.07168655 -0.120893635 0.4799981 -0.22930177 0.27109775 -0.09376467 -0.027023174 0.08297021 0.24116762 -0.0875273 -0.17203788 0.020271724 -0.084651515 -0.2241979 -0.12035639 -0.34557438 0.20845062 -0.35742968 0.3699315 0.41095674 -0.15642841 0.34652886 -0.01766169 -0.0066087926 0.17961028 -0.07427991 -0.51154983 -0.39311346 0.1958379 0.057106238 -0.0352615 -0.04784109 -0.4462942 0.09784801 0.292799 0.3084204 0.24733718 0.09158143 0.22282489 -0.33928183 0.109524705 0.5255876 0.091539554 -0.14566234 -0.34115928 -0.32616952 -0.2583934 -0.23102966 0.085330844 -0.10900673 0.17740132 0.24670966 -0.061027978 -0.051049873 0.34378147 0.37327307 0.11952417 0.046858545 0.07208463 -0.08416895 0.25574926 -0.008914118 -0.19390403 -0.16049558 0.5222918 -0.26817456 0.3611662 0.3115882 -0.11141288 0.27851495 -0.55390334 -0.6891485 0.4033087 -0.06537839 -0.73906875 -0.2425692 0.3187764 0.02855636 -0.082812086 -0.1650807 0.35859877 -0.17772467 0.019947974 -0.07001747 0.31154168 0.3213369 -0.07774783 0.36327526 0.1856458 0.031821355 -0.35916004 -0.1257257 -0.24049288 -0.22094434 -0.00016007909 0.29759535 -0.16145438 0.05393174 0.27232438 -0.040656276
704 -0.5125417 -0.9052177 0.27836335 -0.12515573 0.06446971 0.06817298 0.21889916 -0.23844166 -0.06573357 -0.20018901 0.10723559 -0.16336371 -0.3697132 -0.5184174 0.6157496 0.77551454 -0.41788432 -0.23795918 -0.0030980797 0.23305032 0.033941887 -0.05720283 0.027010316 0.032501474 0.0072140233 -0.14124683 -0.1439739 -0.2346739 0.2823931 -0.1265582 0.61067367 -0.45033342 0.22596413 -0.0013931342 0.11534851 0.24288395 0.20237608 -0.0716384 -0.09178083 0.29171407 -0.051007565 -0.1719834 -0.05861352 -0.2389317 -0.007402547 -0.1612532 0.33295855 0.43355787 -0.18369941 0.17737955 0.17472443 -0.032991394 0.085015066 -0.12645689 -0.34856704 -0.11320264 0.09832861 -0.29528368 -0.10374581 -0.0020735306 -0.4181992 -0.20534214 0.39901763 0.18803602 0.08362125 0.15481095 0.19841921 -0.4545319 0.28623986 0.50101304 -0.10170789 -0.045868102 -0.41887993 -0.24246036 0.04315568 -0.48852855 -0.19114812 -0.21320963 -0.08795791 -0.07010313 -0.15125236 -0.094759606 0.52820706 0.45382705 0.044352032 0.00946093 0.055753715 0.013283701 0.35256648 0.07215918 0.052487582 -0.27842185 0.4998807 -0.17893088 0.38182184 0.070655584 -0.060352597 0.36587822 -0.4539571 -0.29902992 0.26532167 -0.02921029 -0.63158435 -0.4062271 -0.09511776 -0.06939134 0.05677593 -0.084369786 0.35398805 -0.06342842 0.098680615 -0.15984072 0.463295 0.42963505 -0.36390373 0.014110163 0.1366709 0.014902932 -0.09775862 0.03324751 -0.27059528 -0.116948165 -0.13059899 0.49616116 -0.4542805 0.20161377 0.33686402 -0.04256003
737 -0.06352031 -0.11714652 0.009553419 0.49548668 0.4366909 0.27592576 0.40957642 -0.046201445 -0.18667151 0.34057805 0.020844884 0.0995502 -0.13495794 0.019054698 -0.300922 -0.20015195 -0.033433355 0.052335244 -0.33541748 0.4295855 0.29956895 -0.0029662892 0.18753716 -0.34061968 -0.32272238 -0.099759586 -0.33634245 0.07326175 0.22951217 0.01104065 -0.67056125 -0.20421222 -0.02882211 0.11790375 -0.1060152 0.5156362 0.08262239 0.21938033 -0.07048221 -0.0084416745 -0.2037137 -0.082246326 0.14855081 -0.2205423 0.05979994 0.028800428 -0.15747027 0.3354781 -0.22519638 -0.17609487 0.5210276 -0.24257605 0.08018581 0.1578182 -0.30662414 -0.115887046 0.20453717 -0.38875195 -0.10158722 0.3477708 0.103141055 -0.29130477 -0.032464985 0.34345174 0.40847823 0.0025411795 -0.05666473 -0.013808111 0.07472755 -0.395725 -0.11918323 -0.4024577 -0.75894374 0.05382694 -0.24925601 0.3315712 0.26690736 -0.5506666 -0.20499331 0.10154315 -0.53025043 -0.299618 0.25765055 0.4988246 0.5448819 0.059219055 0.80053353 0.5580453 0.25484833 0.22450957 -0.7823226 0.1486994 0.19267884 0.24465847 0.5283219 0.015466241 -0.4844104 -0.45758843 -0.22857277 0.32977232 -0.107532 0.009128991 -0.40606284 -0.10410012 0.038049445 -0.009372174 -0.17785975 0.07643414 0.3074009 -0.12624045 -0.11877401 0.18458207 0.5459689 0.31352755 -0.36488882 0.32511267 0.2598497 0.45106226 0.33611733 0.18061186 -0.4006938 -0.013756253 -0.24795522 0.06112655 -0.33113155 -0.49445087 -0.15345399 0.31431475
311 -0.5888364 -0.5977133 0.45269135 0.44304693 0.34757513 -0.14995955 -0.12935482 -0.280595 -0.08527283 0.04058467 0.13808656 -0.06574912 -0.19067766 0.07935244 0.06521413 -0.03010372 -0.13335663 0.25587854 -0.4282384 0.02962442 0.3558436 -0.17486851 -0.114962116 0.40120864 -0.30616978 -0.1701966 0.20159622 0.27768344 -0.378468 0.09448595 0.038839743 -0.37521294 0.13457541 -0.6798119 0.06722185 0.15290841 -0.119876176 0.3731396 -0.44808003 -0.4020641 0.0626891 0.18931668 0.17977493 -0.29848388 0.14151543 0.33359995 0.42196155 0.52583414 0.006909348 -0.24877697 0.47819626 0.2609628 -0.08009119 -0.3213382 -0.47890013 0.01964762 0.076688044 0.22718614 0.037797175 0.26831615 -0.21193986 -0.24741624 0.13179311 0.08293309 -0.096747525 -0.023089888 0.055310182 -0.50450104 0.24265206 0.31222785 -0.3245823 0.051320106 -0.6392097 -0.27349386 0.28490204 0.34561074 0.3233633 -0.31839487 0.15914932 0.21784529 -0.36782643 -0.07877003 0.20432499 0.06396448 0.3861705 -0.39284283 0.044767927 -0.16306356 -0.43299568 -0.18816587 -0.23365569 -0.090849034 0.20615089 0.041198093 0.33515128 0.3359275 -0.15401411 0.17033224 0.00096191745 0.21672213 0.36334163 0.2674563 -0.27901742 -0.15288498 0.026085252 -0.24745046 -0.21130478 0.405421 0.0959091 0.43673107 -0.5039371 -0.07890758 0.5246026 0.11168834 -0.45140472 0.4853099 -0.37016812 -0.02248561 0.4427314 0.122320965 0.29126617 0.42206827 -0.07762653 0.44286913 -0.15080257 -0.3639211 0.10660873 0.10670899
201 -0.4129964 -0.67457366 0.18612856 0.19358882 -0.12627904 0.3980015 0.24818705 -0.23555897 -0.029618131 0.2177978 0.22916959 -0.09421923 -0.34628353 -0.32994348 0.64399827 0.65696025 -0.41285884 -0.069644414 0.23855932 0.06904672 0.24334255 0.05744954 0.07746952 -0.14223658 0.027031401 0.16695008 0.14586042 -0.06334784 0.17830062 -0.11651722 0.53712094 -0.32352465 0.34193265 0.043944415 -0.063286714 0.016614426 0.32068706 0.06547395 -0.42153963 -0.13070706 -0.17933449 -0.11018039 -0.31540146 -0.28094965 0.22525097 -0.37322602 0.24189125 0.5475599 -0.30518153 0.29381868 0.06444874 -0.033605386 0.16291733 -0.044700593 -0.47017264 -0.30788538 0.058690198 -0.064874634 -0.025288768 0.13710377 -0.54146564 0.15161552 0.309486 0.41150847 0.21479456 0.046475116 0.34320846 -0.28128427 0.19491741 0.41500896 0.090135664 -0.13706885 -0.63247323 -0.37594253 -0.021853026 -0.36715338 -0.06691301 -0.17430314 0.16396315 0.059883058 0.012668643 -0.044922844 0.5033546 0.4318762 0.036885634 0.0468862 0.16225092 -0.26200193 -0.0047187135 0.14247793 -0.07998337 -0.14275211 0.62789106 -0.1607777 0.27955306 0.37861893 -0.15285926 0.1485435 -0.67485696 -0.5455866 0.30170202 -0.106329486 -0.73950005 -0.2225638 0.21494459 0.039065104 0.04654618 -0.19438592 0.4001536 -0.27818334 0.07639554 0.096298076 0.5308856 0.09842436 0.10189806 0.21677946 0.25918445 0.09606567 -0.3041085 0.07782252 -0.22075294 -0.012204848 0.08971828 0.3124335 -0.09004875 0.08568271 0.25066906 0.03196532
59 0.025021024 -0.2178051 -0.04877908 0.18745846 -0.08542875 0.1409923 0.42204687 0.023151938 -0.059418008 -0.22221224 -0.35685313 -0.08603969 0.2154849 -0.53182817 0.26785278 0.58929986 -0.6754686 -0.1438372 0.23117502 0.48105866 -0.025828179 0.19461618 0.04984155 0.13366951 0.009364484 -0.23094773 -0.28661942 0.34679413 -0.23183905 -0.0385536 0.040679887 -0.20965922 0.15030739 -0.470465 0.24307767 0.020903954 0.015111252 0.072306566 -0.27273735 -0.28830576 0.0014393295 -0.09116272 0.09697292 -0.15628812 0.23157018 -0.17447972 0.45246756 0.19897756 0.08643268 0.3176416 0.042897634 -0.06593017 0.017287673 0.17280562 -0.056757823 -0.019542772 -0.05060117 0.2844325 0.09751875 -0.11732793 -0.60085636 0.053487275 -0.05385477 0.35585424 0.41634047 0.22568506 0.16056988 -0.4682562 -0.07357606 0.26607198 -0.14087076 -0.5202257 0.061959602 -0.44346586 -0.5165106 0.13973688 0.046391323 -0.28414828 0.3913716 -0.1292736 0.029095793 -0.089150794 0.5813214 0.5264785 0.40225497 0.1115701 0.10772721 0.35704643 0.3723097 -0.07524704 -0.24459586 -0.10689246 0.09709395 -0.051700793 0.43742922 0.1672554 -0.2911599 0.10805677 -0.2601306 -0.524769 0.26367387 -0.038474113 -0.2211212 -0.0754957 0.3915566 0.05234768 -0.2949843 0.114075 -0.10264159 -0.024835484 -0.274976 -0.10991091 0.42788237 0.6374533 -0.09621314 0.50443584 0.30527684 0.14808777 -0.104709014 -0.30038115 0.15144406 -0.16633232 -0.027860736 0.41413137 -0.68203896 0.03250557 0.48009887 0.038090535
