219 128
2 -0.025040817 -0.12754823 0.105394356 -0.014407895 -0.15149622 -0.12823562 -0.0062395907 0.03832959 -0.028034154 0.084001556 0.06493594 0.077944756 -0.06641124 0.11327446 0.1275352 0.13076073 -0.05411485 0.040382974 -0.34768784 -0.12829225 0.30893388 0.13063274 0.036539387 -0.06278722 0.056696255 0.25955704 0.073977634 0.10829904 0.096535444 -0.119399235 -0.052254945 -0.0023440048 0.03359459 0.07233578 -0.1442522 0.12189009 0.17739195 -0.04229253 0.0060301134 -0.09769904 -0.21976672 0.2548117 -0.13614754 -0.023744367 0.1059236 -0.025824541 -0.087236315 0.0512256 0.030083356 0.06857381 0.02055151 0.10907757 0.08207496 0.050569765 0.0364851 0.12342214 0.2071204 -0.032293033 -0.12523377 0.14149022 -0.055428103 0.048348576 0.19926499 -0.1288237 -0.027196812 0.027321858 -0.02522238 -0.081550315 -0.053484596 -0.26992953 -0.06044073 -0.1192672 -0.14848813 -0.20999286 0.021553008 -0.12373113 0.17723098 0.20183976 -0.022595726 0.119916536 0.06775523 -0.11536947 0.16910803 0.23945396 0.028487625 -0.051797345 0.20469245 0.018212153 0.14398389 0.020779096 -0.14772825 -0.18896723 0.25228304 -0.12962708 0.3516326 0.110828586 -0.09812738 -0.022593 -0.05476075 -0.059445515 -0.13113098 -0.04883414 -0.075164154 0.28815806 0.25174966 -0.044491805 -0.13461316 0.03409971 0.08177718 -0.06043259 0.045443222 -0.28903773 0.021943344 0.10917161 -0.14287962 0.09828997 -0.16480404 -0.103157565 -0.10105976 -0.10918041 -0.0072834212 -0.08702216 0.11096793 -0.06606129 0.09188665 0.008665761 0.027108854 -0.034687966
0 0.004019285 0.037228517 0.15780877 -0.02831381 0.009117102 0.031342182 0.04098635 0.05154684 -0.19790864 0.20002154 0.46312085 0.024702681 0.008243661 0.029831434 -0.025517385 0.083231375 -0.38786513 0.030246723 -0.089231156 0.076659836 0.15123641 -0.062373143 0.055499632 -0.2729694 -0.00877899 0.25786167 0.03563937 0.09423319 0.2641787 0.06278324 -0.089172855 0.16127655 -0.055439286 0.2496736 -0.06750313 -0.007464172 0.21974306 0.07016054 0.07333851 -0.17122741 0.17522247 0.35043037 0.0032935508 -0.044295616 0.13818464 0.20472364 -0.13347289 -0.14652362 -0.053426355 0.14400719 0.17113164 0.027473258 -0.011785123 0.0012130581 0.031996034 0.040978223 0.23484744 -0.10817746 -0.070048854 -0.092384 -0.15816556 -0.15002806 0.1529924 -0.23671079 0.021114256 -0.24286751 0.13905787 0.07811631 0.06475075 -0.16513276 -0.13336076 0.079301484 -0.3302 -0.033947367 -0.15396148 -0.3224737 0.15408856 0.0870572 -0.08131462 0.10970522 -0.18178956 -0.12903854 0.025215631 0.14692643 0.105639175 0.0067197387 0.1495073 -0.18468364 0.0451927 0.09930791 -0.06315147 -0.027495738 -0.02688649 -0.05472746 0.24679305 0.01685844 0.0581984 -0.11042369 -0.025737848 0.010867671 -0.18881111 0.19944812 -0.13809635 0.102944724 0.026998969 -0.09318678 -0.041991245 0.030072873 0.06906424 -0.07473369 0.005638837 -0.08899226 -0.11603834 -0.08183255 -0.061866317 0.26726514 0.04831079 0.056270726 0.17349003 -0.07775581 -0.17530924 -0.07611514 -0.015168309 0.08460468 -0.101117946 -0.19346106 -0.18967406 -0.002469022
5 -0.08661413 -0.15776235 0.021969507 -0.04797719 -0.040159672 -0.024160173 0.19237097 0.029763289 -0.20216927 0.057623487 0.01268871 0.019545196 -0.12481308 -0.041364808 0.20397905 0.093902275 -0.031728245 -0.028061219 -0.23788194 0.0838171 0.17093849 0.118212424 -0.23301335 0.09973829 -0.056430988 -0.0273288 -0.14172736 0.112205744 0.20668623 -0.11657692 -0.13113312 0.011708692 -0.01686943 -0.0160113 -0.1374169 0.13214302 0.0560883 0.02695878 0.08552421 0.01932779 -0.093071245 0.26124096 0.03319349 0.13385029 -0.12868185 0.11857484 0.115018 -0.15795787 -0.10956417 -0.062568955 0.19172508 0.23554 0.089209855 -0.21111147 0.065215446 0.16876297 0.22828749 -0.07925956 -0.011907291 -0.043168522 -0.0040597813 -0.09296494 -0.023415027 -0.1235788 0.004860618 -0.117973626 0.008045608 0.014731006 -0.18331248 -0.19860783 -0.110878095 0.00232494 -0.20774072 0.017689072 -0.16507204 -0.11967306 0.036499932 -0.07491329 0.20279728 0.40844917 0.032477025 -0.18524392 0.06071117 0.18237363 0.023333184 0.029631292 0.117373936 -0.09423806 0.119321465 0.0027400383 -0.10901524 -0.016385727 0.22398911 -0.09376416 0.44243887 0.20961115 -0.013492713 -0.0763917 -0.15815191 -0.13136797 0.02032506 0.06640043 0.114119746 0.1268854 0.12757745 -0.114341505 0.17397587 -0.049473878 -0.06641195 -0.089582205 0.17685503 -0.0446893 -0.042444512 -0.04697155 0.005220008 0.024284856 -0.02858084 -0.028726742 -0.011052866 -0.095947646 -0.1659454 -0.09675775 -0.10520672 0.2392878 -0.1614013 -0.14365758 -0.06331082 0.018941637
4 -0.099585004 -0.082676105 0.1927791 0.10779214 -0.10035527 -0.009662139 -0.0008928479 -0.09993223 -0.20707254 0.019946076 0.19250764 0.06481995 0.0068762326 -0.289712 0.24342465 0.16097252 -0.16326496 0.12255003 -0.13578217 0.060829192 0.13565917 0.10964613 -0.20127125 -0.06722164 -0.119763106 0.016424403 -0.09211104 0.093090005 0.1325062 -0.12216563 -0.17308664 0.020994404 0.042623162 0.011961406 0.025064334 0.19215196 0.17701274 -0.04005384 0.12478153 0.042735357 -0.033901427 0.21821147 -0.070064105 0.09856059 -0.0057077724 0.113258414 -0.0625417 -0.06521152 -0.11705661 -0.06275719 0.09323723 0.042810585 0.17270938 0.010910554 -0.04118114 0.14004077 0.22422601 -0.06340285 -0.04651996 0.07392951 -0.023722725 -0.14885229 0.1631877 0.041508876 -0.009698512 -0.02191288 0.20948273 0.09803931 -0.04392729 -0.13481878 -0.121069655 -0.13494274 -0.16356766 -0.022149134 -0.0855928 -0.14442433 0.0059387307 0.011100068 -0.0026041623 0.11239004 -0.105815984 -0.13741624 0.118542776 0.2766525 0.009177714 0.0105943885 0.15734905 -0.085822076 0.1592496 -0.011881485 -0.061259262 0.09000289 0.09223244 0.036398422 0.16881396 0.07660349 -0.25162783 -0.12237487 -0.06541064 -0.06682718 -0.09682848 0.08345179 -0.04864765 0.08070245 0.0629662 0.087190785 0.10257954 -0.05514346 0.10289953 -0.2538093 0.19891141 -0.14247613 0.0983348 -0.0057572974 0.08176477 -0.06745738 0.012514472 0.0018876335 0.04429118 -0.17530982 -0.1434617 -0.14508305 0.13671796 0.15210606 -0.100163616 -0.26528966 -0.064274095 0.03893748
34 -0.011237547 -0.102747306 0.09977237 0.015900519 0.09725107 0.073463045 0.12480475 0.04765458 -0.012580331 0.0852334 0.21554959 0.032025706 -0.11480904 -0.115327835 0.10051437 0.0007578385 -0.1589387 0.031005614 -0.016772807 -0.10554117 0.18778154 0.08142303 -0.07850756 -0.0045582494 -0.16624354 0.082318254 -0.0072919335 0.0058701774 0.1077547 -0.10880327 -0.186132 0.0027398472 -0.07703161 0.044828158 -0.04539151 0.11569694 0.27017793 0.086145744 0.14227912 -0.17629862 -0.0076061347 0.20769878 -0.19821261 0.14275421 0.08529787 -0.009165202 -0.009191976 -0.15370956 -0.09959817 0.075853005 -0.014831401 0.249363 0.1158494 0.08934882 -0.11193093 0.07059049 0.050514136 -0.014870564 -0.038868494 0.03187848 -1.6173755e-05 -0.108015284 0.17461894 0.21106039 -0.050988972 -0.12340512 0.010007882 -0.011167504 -0.14686033 -0.2791514 -0.16838837 -0.10712724 -0.31570935 -0.05893719 -0.1635818 -0.1537241 -0.0025284127 0.0041406467 0.10112806 0.07880554 -0.025839627 -0.15595272 0.11029147 0.2446056 0.12051933 -0.1501523 0.36406448 -0.07828634 0.14042325 -0.043387156 -0.06589285 -0.117647454 0.029897451 -0.10284062 0.25158352 0.029408056 -0.020742781 -0.14967848 -0.06566281 0.004773116 -0.0017808103 0.19494864 -0.009366347 -0.005463864 0.14016281 0.041054588 -0.08541139 -0.06255024 0.043295994 -0.09944207 0.22825712 0.04751508 0.13606435 -0.056800924 -0.09407731 -0.06623156 -0.06828788 0.011521806 0.13024044 -0.14154041 -0.13315657 -0.07126002 0.11524404 0.11161538 -0.09081378 -0.15815717 -0.081700146 -0.04867974
1 -0.08614309 -0.20148577 0.13374692 0.052994467 -0.083829135 0.009805948 -0.05114714 -0.026266675 -0.12768772 0.15624413 0.29024035 0.0034460947 -0.14414856 -0.050800182 -0.010303126 0.0023904042 -0.22839287 0.09603599 -0.12037437 -0.119813696 0.08231249 0.10587237 0.012948163 -0.24041814 -0.17413144 0.21236823 -0.11390978 0.08025511 0.09500355 0.040623948 -0.16740705 0.047938652 -0.23415592 0.25784448 0.021437801 -0.042520877 0.19620034 0.15980808 0.2241305 -0.0047392193 -0.03535878 0.34495285 -0.049995117 -0.026469447 0.04031275 0.055800304 -0.12358863 -0.01837329 -0.052955527 0.04579431 -0.007644698 -0.013038422 0.06617573 0.21032958 0.09002122 0.11609461 0.28890526 -0.062424585 -0.07058151 0.05248012 -0.02429957 -0.11855256 0.3440545 -0.123105794 -0.06584558 -0.095037274 -0.092572704 0.00033534825 -0.013864708 -0.2561174 0.021727359 0.04619125 -0.20828295 -0.14611244 -0.123689584 -0.2184693 0.21201932 0.011818549 -0.15365934 -0.059786066 -0.10668819 -0.0784459 -0.07630115 0.23065592 -0.04318414 -0.004876249 0.3854413 0.038527522 -0.10383878 0.23879646 -0.09882389 -0.111022495 0.03941328 -0.016555896 0.3402092 0.012913538 0.01869403 -0.13239367 0.03328497 -0.03592171 -0.16115989 -0.02639961 -0.05548698 0.23617856 0.17237125 0.070399046 -0.10304914 -0.18209077 0.17526546 -0.2256685 -0.07149283 -0.016166843 0.12968053 -0.11324281 0.017209304 0.060941417 0.10054912 -0.1317432 0.039679106 -0.026198043 -0.12828772 -0.081572816 -0.017283196 0.02062124 -0.016804429 -0.029097784 -0.0080454135 -0.12988369
3 -0.08991147 -0.48167568 0.060239613 0.16838157 0.13975725 0.10759829 0.14100753 -0.12326207 0.050048463 -0.13359252 0.17436624 -0.04705465 -0.16150695 -0.09453024 -0.19152108 0.0058607613 -0.10281918 0.17446151 -0.04381 -0.1348796 0.08239167 0.15413187 0.08680715 -0.1615879 0.03495791 0.1862026 -0.049385384 0.08833575 0.078127325 0.019054582 -0.06799257 0.03718898 -0.08781187 0.22251496 0.18554783 0.018624876 0.20970264 0.0022649807 0.09736476 -0.026541414 -0.088818215 0.0761253 -0.08678364 -0.012538249 0.24255753 -0.08906999 0.004414734 0.02810424 -0.044320736 0.08984961 -0.026964549 0.17676446 0.00390536 0.2201966 -0.19770801 -0.027061312 0.21361288 -0.11622457 -0.09013192 -0.11279714 0.016744927 -0.31086725 0.39280736 -0.09497316 -0.037816077 0.0019098314 -0.0036627925 0.13380305 -0.12282157 -0.16756034 0.048806336 -0.12638086 -0.18860601 0.055679664 0.1140171 -0.20980667 -0.060232144 -0.058029912 0.07945591 0.025078977 -0.06665983 -0.25969982 0.22721705 0.27026987 0.05512854 -0.06847504 0.38123465 -0.08254675 0.16651951 0.1458875 0.02263849 -0.12420337 0.14752062 -0.25236017 0.5558715 -0.015832633 -0.027798392 -0.19045216 -0.066350274 -0.17163718 -0.091889076 0.06460477 -0.2701882 0.027355317 0.21565749 0.19372076 -0.21273226 -0.075640775 -0.0015111945 -0.12741686 0.08661452 -0.02255994 0.044217944 -0.08723169 0.023957305 -0.08100919 0.074186 -0.21029478 0.16819908 -0.12739092 -0.13216338 -0.08193419 0.014779204 0.20277275 0.2059105 -0.0678019 0.048514467 0.077575915
48 -0.13209574 -0.10054992 0.1076559 0.1108719 -0.007146037 -0.084176056 0.0435104 -0.01957549 -0.071094684 -0.0013336192 0.23687306 0.025028473 -0.099774726 -0.09205639 0.2520048 0.10650666 -0.11599473 0.026329042 -0.20040172 -0.008673147 0.33156812 0.0957491 -0.17695597 -0.16609935 -0.158734 0.1597649 -0.14227685 -0.0401702 0.20134301 -0.15264156 -0.28475493 0.037823357 0.07332873 0.0060159094 0.010323568 0.15865289 0.24893318 0.052425012 -0.026937062 -0.05007449 -0.14413871 0.28347346 -0.00634076 0.052501354 0.09236417 -0.05294733 -0.103624545 -0.18452105 -0.08065421 -0.004002728 0.09041401 0.10953425 0.18670301 0.1578837 0.038225457 0.2845848 0.13728306 -0.13492109 -0.07513978 0.14308298 -0.06685178 0.0023392423 0.20581912 0.10731738 -0.06255358 -0.018408747 0.11401259 -0.08835573 -0.19616565 -0.16684207 -0.13060704 -0.18903519 -0.2818324 -0.10690573 -0.056155518 -0.060904585 0.089544125 0.07021769 0.0809711 0.12735511 -0.06269119 -0.111982554 0.033457246 0.114317164 0.06555714 -0.09005657 0.23228642 0.012886889 0.046931077 -0.0032142801 -0.1901695 -0.06429814 0.121527314 -0.103161335 0.17454575 0.050776083 -0.057466354 -0.12712087 -0.04842832 -0.09356134 -0.1617726 0.052652087 -0.015593839 -0.008512613 0.0901227 0.092657894 0.037256416 -0.11552754 0.01179552 -0.18099844 0.20618948 -0.083276875 0.14737411 -0.009935337 -0.1349753 -0.10586803 -0.08378263 -0.07335535 -0.014498656 -0.05644632 -0.0427636 -0.13123184 0.12643771 -0.038940698 -0.0031756926 -0.051197905 0.10242438 -0.115473725
33 -0.1153529 -0.05510542 0.1886365 0.02404636 -0.18505344 0.033528723 -0.1940683 0.10625377 -0.16372228 0.14157784 0.16733783 0.09027547 -0.015250723 -0.08232144 0.07003021 0.15967108 -0.102406785 0.14407295 -0.3136178 0.061608963 0.11702774 -0.048562147 -0.011748598 -0.06236463 -0.16269255 0.07842231 0.0860924 0.0011815176 0.027341906 -0.0371798 0.011258853 -0.01851106 -0.14262402 0.09886212 -0.047733005 0.08597119 0.19498727 0.102687 0.11472514 -0.19134083 -0.14954908 0.2005846 -0.19017537 0.17710423 0.04646304 0.13613626 -0.036969014 0.10777126 -0.16276368 0.15856928 0.028985519 -0.06417659 0.15350524 0.04443584 0.059251938 0.15814818 0.10737739 -0.036244754 0.11885015 0.27165017 -0.059606127 0.034197357 0.14068228 0.09081235 -0.08890968 -0.032966938 0.123146385 0.04377192 -0.066512935 -0.28191808 -0.09032403 -0.026588084 -0.14959225 -0.054045595 -0.08649507 -0.258072 0.20670538 0.0492605 -0.08960045 0.05631128 0.031394012 -0.14111567 0.19613129 0.35686883 -0.07398037 0.08544537 0.4619883 -0.033085182 0.23362315 -0.06948398 0.17773718 -0.19509484 0.10322991 -0.11455913 0.22798376 0.089732215 -0.20751955 -0.05940372 -0.12788366 0.09475878 -0.22320655 0.19958691 -0.0883935 0.33682522 0.32007807 0.03539088 -0.020505724 -0.100224435 0.05999634 -0.21886158 0.0017387337 -0.12416387 0.060397647 -0.029933214 -0.045500454 -0.01334508 -0.03234409 0.017475776 -0.042421244 -0.28213394 -0.016254196 -0.066473015 0.23429248 0.11796418 0.05652572 0.13172927 0.005607665 0.09866008
62 -0.12384048 -0.009983948 -0.1818322 0.054780025 0.060173422 -0.12653634 0.26025376 0.11425965 -0.10743276 0.08252082 0.29286766 -0.10582561 -0.07436231 -0.008252628 0.12142351 0.0277104 -0.12401176 0.16468723 -0.10488563 -0.14113347 0.28818637 0.08599603 -0.14579052 -0.069939345 -0.26704374 0.07326445 -0.3009393 -0.029644674 0.16526186 0.1435814 -0.31494558 0.015972335 0.06282669 0.05288799 -0.07394666 0.002123414 0.22567825 0.06674074 0.16984136 -0.07828675 -0.02461576 0.21031497 0.097653285 0.043706663 -0.18483707 -0.103641644 -0.06821904 -0.15137042 -0.004316771 -0.16790934 0.24204409 -0.020855676 0.072324656 0.09993711 0.05118654 0.21890445 0.072978556 -0.0732533 -0.17264935 0.06614053 -0.07101083 -0.021637525 0.00366842 -0.021121891 0.058185097 -0.13648552 0.013675781 -0.058762662 -0.20291415 -0.33239508 -0.2416093 -0.09273942 -0.45926592 -0.09090936 -0.1770114 -0.21994439 0.20815767 0.17792854 0.1314138 0.1118658 -0.10758598 -0.2401734 -0.0070710187 0.16307738 0.2946311 -0.096866414 0.4300966 -0.08013536 0.05133409 -0.02029462 -0.10170079 0.0760433 -0.0007225591 -0.13938487 0.46538916 0.024897095 -0.020153083 -0.17116532 0.1731089 -0.12929311 -0.04202663 -0.1375031 -0.11602109 -0.020001553 0.13804424 -0.050535973 0.12073026 -0.07666501 0.037996892 -0.10664281 0.2167056 0.15619718 0.08477415 0.06581765 -0.089677885 -0.009288484 -0.18789673 -0.070917584 0.09427236 -0.04434039 -0.13521537 -0.05865143 0.18486291 0.015350056 0.004598548 -0.13632253 0.10784492 -0.047992904
59 -0.1252651 -0.03244775 0.33785424 0.02467382 -0.072044946 -0.018209359 0.0067188456 0.052374154 -0.27594036 0.20303811 0.21670264 0.09886854 -0.11214732 -0.28763118 0.21345764 0.22884683 -0.09447469 0.11771524 -0.1427507 0.09121441 -0.00094455 0.0993633 -0.10279054 0.10794864 -0.18731889 -0.030241989 -0.06324832 0.021691432 -0.017652316 -0.24853395 -0.0961527 -0.07098613 -0.03374757 0.04249867 -0.140522 0.21265471 0.3626523 0.11842361 0.24652743 -0.15326118 -0.113433175 0.21311598 -0.13501391 0.119720854 0.06306371 0.21643755 -0.022790292 -0.08518913 -0.13998032 0.098116644 0.068681344 0.13908182 0.09993113 -0.015903927 0.021055369 0.10953723 0.031361863 -0.051356923 -0.020337963 0.14114937 0.014411575 -0.056588065 0.06874941 0.11755431 -0.03885188 -0.13249354 0.031675495 -0.05780686 -0.1597296 -0.27927548 -0.098845065 -0.06302458 -0.26319382 -0.046246566 -0.18234748 -0.19488895 -0.042243425 -0.057170942 0.1577247 0.124617256 0.048131604 -0.16775493 0.15742537 0.40195903 -0.020136332 -0.022006633 0.3721516 -0.02649443 0.2999517 -0.016204702 0.07317838 -0.074427865 0.09339749 -0.030031169 0.2017382 0.10158396 -0.13562502 -0.07074912 -0.009680982 0.037229903 0.003927016 0.20655423 0.059308898 0.10329328 0.1733267 0.025365459 0.17195064 0.043556478 -0.033623755 -0.25831896 0.20229056 -0.052587792 0.1515917 -0.20115483 0.04287894 -0.17041093 -0.07576918 0.049981322 -0.10969649 -0.17414042 -0.08875952 0.0016495188 0.18602382 0.075905286 -0.113007635 -0.051468845 -0.056564014 0.015083304
91 -0.12951119 -0.4229664 0.063013785 -0.08271961 0.023515692 -0.096938305 0.025042415 0.062143937 -0.06798105 -0.062295485 0.17189646 -0.06594624 -0.13895953 0.091906644 0.37372124 0.045242343 -0.11001191 -0.0846279 -0.12880981 -0.071935214 0.26990783 0.20714281 -0.19037367 -0.020437017 -0.018616946 0.1543416 -0.097090386 -0.069842555 0.25198025 0.14177462 -0.15579948 -0.055605132 0.108904935 0.17577708 0.007298191 0.05036596 0.21991779 -0.10257108 -0.1408711 -0.22259614 -0.051474497 0.1329979 -0.06895887 0.15753736 0.20433581 0.08297356 0.0029155826 0.040057268 -0.058490023 0.19813736 0.11464954 0.27816585 0.022414928 0.025559124 0.2254347 0.15728495 0.08143703 0.030905288 -0.07398499 0.10333304 -0.07946547 -0.12215315 0.23387806 -0.11669577 -0.077170625 0.019222507 0.054855067 0.10704231 0.07949943 -0.108434156 0.15176357 -0.13102958 -0.28917548 0.015675377 0.0055020773 -0.10944626 -0.071605094 0.026534379 -0.11074435 0.23783337 -0.21764518 -0.0041313637 0.1733646 0.19578238 0.06375085 -0.05524737 0.18671599 -0.11898812 0.23916633 0.23345669 -0.15638125 -0.12890328 0.058372807 -0.1108628 0.35906753 0.25680712 -0.11478957 -0.23792824 -0.21905747 0.005374381 -0.3847317 0.26344094 0.045110695 0.09598807 0.1141265 0.040534228 -0.15740056 -0.1646814 -0.24217188 -0.021230359 0.03208703 -0.1811616 -0.05017643 0.30535337 -0.13645491 -0.053512316 -0.04536893 -0.2716106 0.0598502 -0.09056867 -0.13666412 -0.16181721 0.06227013 -0.05633159 0.034374002 -0.0068896776 -0.0040258192 0.10950212
47 -0.0021613352 -0.121184185 -0.08138234 -0.018245261 0.004299847 -0.03549114 0.0062286383 -0.020316778 -0.16166979 -0.10283502 0.021071129 -0.13509744 -0.06639495 0.13173813 0.0020416148 -0.14161216 -0.16355035 0.20438711 -0.25230545 0.03195212 0.38622886 0.021646462 -0.068003766 -0.19629428 0.11089233 0.04297755 -0.058374308 -0.028489381 0.24334301 -0.12187168 -0.24254295 0.19959679 0.11240187 0.27287078 -0.12974247 0.1110882 0.12712568 0.09782574 -0.009969693 -0.03749821 0.06455496 0.42427805 0.13494207 0.0069901864 -0.0647188 -0.09928715 -0.16759866 -0.18762057 -0.05329307 0.057841532 0.16837315 -0.0027235972 0.2902449 0.118308984 -0.04022812 0.44672754 0.21973448 -0.12562738 0.031227328 0.15847239 0.06912661 0.011748937 0.37929028 0.005415881 -0.19912039 -0.14468117 0.22170258 0.054529723 0.079032704 -0.3610466 -0.23424824 -0.058775086 -0.20054203 -0.043398213 -0.016306316 -0.25386065 0.20942937 0.06106139 -0.108296886 0.1289102 -0.107591785 -0.19271888 0.111509256 0.03689758 0.06394104 -0.052071087 0.12447761 -0.13355777 -0.049356576 -0.077335015 -0.073444225 -0.123655155 -0.049828444 -0.04913678 0.39666516 0.014448622 0.041742384 -0.12240844 -0.33613408 -0.18514514 -0.0032553866 -0.071279675 -0.17427897 0.10337794 0.29245645 0.20106925 0.007674734 0.013295658 0.0058996323 -0.15088952 0.20750844 -0.09137783 0.19414693 -0.0531338 -0.10772193 0.052390654 -0.12856671 -0.068569496 0.19851595 -0.057541784 -0.27398622 -0.2047545 -0.1081322 0.15549308 0.13209161 0.03675702 0.049617585 -0.04855581
17 -0.009526163 0.10131717 -0.15849093 0.22721057 -0.027308969 0.0147608975 0.34804583 0.1392607 -0.23745711 0.1367899 0.2667629 -0.14418224 -0.0481214 -0.0422717 0.040296637 -0.038567588 -0.20272806 0.0742661 -0.03224674 -0.14539342 0.2205943 0.025781991 -0.19568281 -0.11089891 -0.15228415 -0.07952901 -0.15729707 0.117171064 0.13161199 0.20796034 -0.0878087 0.22931752 -0.045277994 0.035637427 -0.030922988 -0.016997773 0.24217303 0.078513876 0.3144835 -0.13748665 0.07526869 0.38445136 -0.027209045 0.15742947 -0.110862315 0.04383547 0.005964593 -0.11347829 0.06739343 -0.06682133 0.20148884 0.027348254 0.099082835 -0.022806937 0.023558844 -0.057947204 0.17160882 -0.019492704 -0.14625892 0.0035529733 0.05766189 -0.26002693 -0.0815533 -0.23752843 0.053346522 -0.18330236 0.1254655 0.018089693 -0.20867766 -0.30892864 -0.15929548 0.09336413 -0.33223325 0.04538326 -0.26958352 -0.21882036 0.17297821 -0.11342448 0.095810525 0.121377565 0.014466735 -0.31398657 0.12480442 0.14800456 0.23624061 -0.06278368 0.5204319 -0.08291031 0.24324998 -0.0746815 -0.03957916 0.040876113 0.04476766 -0.12525515 0.32448602 -0.012796814 -0.020612653 -0.13656664 0.06792257 -0.06115446 -0.011817104 0.03806832 -0.022641562 0.075279735 0.1847164 -0.09468959 0.03692839 -0.17758638 0.11730708 -0.11774644 0.23612668 0.22958867 0.00957086 -0.05558115 -0.061483204 0.114687346 -0.0490242 0.11835943 -0.003881933 -0.11581839 -0.102295816 0.032462854 0.2269603 0.06555453 0.085708134 -0.20844363 -0.0133881895 0.050798286
61 0.061382648 -0.21005915 0.04843055 0.1582619 0.09172509 0.0608945 -0.019803898 -0.18188654 0.12725413 -0.14568742 0.2261102 0.060673185 0.007868703 -0.17264715 0.27054644 0.06689311 0.05392681 -0.07346769 -0.27238593 -0.10160143 0.24124931 0.26696977 -0.11042352 -0.110901445 -0.28195843 0.21122156 0.14148672 0.17595601 0.2143769 -0.10754339 -0.11007942 0.03308865 -0.1114176 -0.08347813 -0.18626103 0.40561718 0.33656818 -0.02235588 0.036844824 -0.0062307864 -0.06381837 0.19290891 -0.0023977156 0.15392011 0.21956682 0.035951104 -0.14226049 -0.11915273 -0.20766234 -0.027388947 -0.05845931 0.28000203 0.30214685 0.14241837 -0.19414712 -0.032186616 0.4060021 -0.051105432 -0.056464616 -0.052988805 -0.16176751 -0.043498665 0.13601622 0.3077358 0.1035615 -0.0975326 0.13123989 0.09399976 -0.19591412 0.036833692 0.005753861 -0.08814287 -0.34588253 -0.065544814 0.16782305 -0.13809735 -0.14084941 0.3097638 0.033189382 0.16329665 0.024600588 -0.13433848 0.12987354 0.17357558 0.28026056 0.14857545 -0.003527593 -0.14086999 -0.13307695 -0.08504257 0.01647946 0.10139225 0.2686915 0.029712072 0.099827796 0.09590187 -0.16007596 -0.28004438 -0.17210855 -0.17260605 -0.13683452 -0.025339631 -0.1574505 0.10363174 0.18826278 0.018805848 -0.101091936 0.020776872 0.119543225 0.041253675 0.28674123 -0.034659352 0.16536559 0.20350733 -0.010896845 -0.119381666 -0.013679244 -0.0471931 0.19868334 -0.19483915 0.10968049 -0.2259695 0.01091247 0.195578 -0.16751407 -0.49438292 0.13392052 -0.09571863
166 -0.07493767 -0.13852555 0.2631731 0.004921661 -0.046924558 0.09188736 -0.021060927 -0.071692675 -0.20524673 0.17278254 0.16821682 0.07408137 -0.15950179 -0.30111647 0.25732598 0.31852904 -0.0811389 0.045292854 -0.14490011 -0.011834854 0.073449425 0.17028373 -0.14514266 0.14276007 -0.08972791 -0.031237384 -0.07526334 -0.031287033 0.0885895 -0.21384393 -0.17218103 -0.09046118 -0.10246848 0.057550576 -0.2661463 0.36018386 0.42224568 0.064649016 0.3867912 1.20657205e-05 -0.141461 0.2359593 -0.11424518 0.17656206 -0.051456515 0.14438091 -0.04670535 -0.13902088 -0.20652553 -0.116915196 -0.024096478 0.12148652 0.15892634 -0.013581866 -0.087500855 0.056748822 0.1725119 0.036832698 0.021624908 0.019228788 0.07125972 -0.12811723 0.14910895 0.2572288 -0.021074273 -0.14187764 0.12166257 0.026453624 -0.12933326 -0.33230984 -0.071004406 -0.08292765 -0.19850457 0.004441591 -0.12848702 -0.2034459 -0.051634647 -0.049331274 0.10082728 0.09820279 -0.04648012 -0.20120902 0.13041416 0.3452008 -0.0860669 0.062713206 0.16191876 -0.05128161 0.26458356 -0.028349444 0.012601388 0.09053848 0.010216996 0.05737168 0.14534904 0.021947075 -0.16836123 -0.047730945 -0.12887494 -0.050673515 0.020360632 0.17152384 0.037846934 0.114716105 0.0870224 0.16854407 0.0784095 0.0023990737 0.10231232 -0.15901463 0.22253188 -0.06134708 0.11229986 -0.09926488 0.12706622 -0.21032916 -0.013775725 -0.010769805 0.014502746 -0.21791759 -0.049320772 -0.11186087 0.057651132 0.19815359 -0.22714493 -0.31304798 -0.082255945 0.026730904
23 0.03403853 -0.07066487 -0.008671984 -0.0037760462 -0.050928403 -0.023334766 0.04942821 0.24328284 0.014036531 -0.096624546 0.15752684 0.19387493 -0.057430882 0.054680288 0.3120543 -0.10276444 -0.34320045 -0.036991853 -0.2771066 0.023390403 0.23560804 0.13628423 0.12400619 -0.17815244 -0.26259738 0.05895262 0.022133514 0.115787454 0.24636649 0.10140244 0.056559697 0.049322255 -0.33066568 0.13192478 -0.20291716 0.093161836 0.06881096 0.22658274 0.22384797 -0.024297038 0.034347154 0.4156496 -0.049182028 0.18161942 -0.09634732 0.32692948 0.028838433 0.028417412 0.022910776 0.07084603 -0.12791829 0.0892281 0.035927705 0.030701032 0.1761553 0.07902997 0.2935906 0.038447488 -0.09756377 -0.33069044 -0.022981292 -0.03270246 0.12165423 -0.09039109 0.13154684 -0.14781915 -0.15819544 0.1923254 0.19963925 -0.3520135 0.043821387 0.2209799 -0.36907068 -0.2674799 -0.14711113 -0.24186586 0.19056518 0.010567329 -0.023269542 0.16059957 0.26637465 -0.17920326 0.0686668 0.112728864 0.28973177 0.0045837983 0.10814897 -0.06596875 -0.082983814 -0.012436434 0.058803644 -0.00500761 0.10246846 -0.06807495 0.5589146 0.018682618 -0.10020502 -0.06253455 -0.022735769 -0.0050723627 -0.3757186 -0.061241418 -0.021708494 0.35781366 -0.0042807013 -0.22717816 -0.14063224 -0.01650252 0.013072062 0.1308895 0.022639813 0.05358464 -0.0060325824 0.1730429 -0.11046913 0.23272198 -0.009264786 0.0029051446 0.252242 -0.10606004 -0.2675883 0.010095252 0.04105811 0.13444702 -0.21185417 -0.23615816 0.17000365 0.013541329
31 0.073385544 -0.18215087 0.13462658 -0.0135010965 -0.1469924 -0.17628165 0.01517014 0.0071276017 -0.051182482 0.14923 0.25027096 0.119856246 -0.24694727 -0.08776105 0.09142677 0.12768973 -0.018329654 -0.026104467 -0.23080266 -0.27665892 0.07001048 0.255293 0.009821866 0.054881327 0.010000764 0.17027895 -0.06584655 0.15286799 0.089171775 -0.15740326 -0.10664133 0.061124362 -0.14185545 0.037196893 -0.27137357 0.17468588 0.34859723 0.076313436 0.3375268 0.020959437 -0.1347953 0.31576228 0.12687494 0.005141814 0.0097690495 -0.0023397598 -0.1167421 0.02429117 -0.08189645 -0.003637294 0.028997999 0.081110075 -0.0067683225 0.04908466 -0.11068122 -0.065534055 0.14276823 -0.0627038 -0.11281603 0.078666545 0.08400355 -0.06526403 -0.051979408 -0.10566107 0.006396224 -0.22953913 0.005409932 -0.016429136 -0.11527246 -0.28255457 0.08186041 0.041644983 -0.3589141 -0.24072005 0.012258894 -0.20756045 0.035722155 0.112247415 0.119561754 0.09873411 -0.008443786 -0.38548768 0.120067514 0.3561301 0.032499358 0.056729894 0.20312434 -0.034644913 0.074711114 0.09981078 -0.011659841 -0.049453408 0.07435552 -0.04184722 0.34971043 -0.041898567 0.09593598 -0.17369501 -0.18251593 -0.13444859 -0.025235392 -0.05918441 0.0020138985 0.2712348 0.21532841 -0.12118818 0.085085206 -0.00600518 0.04819745 0.0017184819 0.10364365 0.031486385 0.21456432 -0.047469664 -0.066996574 -0.099244125 -0.10640117 -0.02280313 -0.111297734 -0.15881656 0.034316827 -0.17913821 -0.16951075 0.099945225 -0.16508594 -0.15142055 -0.022732351 -0.24531248
165 -0.22803496 -0.11748357 0.2681975 -0.013247063 -0.07099831 -0.04225956 0.03748687 -0.06709683 -0.315295 0.3223019 0.2924593 0.122883745 -0.048562583 -0.25621802 0.32450408 0.27035803 -0.059580646 0.11097512 -0.16100793 0.12583275 -0.007832389 0.11179662 -0.27121335 0.097666934 -0.096981324 0.018790253 -0.106107876 0.11490172 0.027672054 -0.3353411 -0.19417916 -0.07952548 0.04916929 -0.013424948 -0.10319928 0.24844953 0.28760958 -0.024807196 0.27810326 -0.020786915 -0.15229712 0.08878899 -0.124463655 0.0760907 0.0386353 0.05595122 0.027000712 -0.039635614 -0.16517341 0.017907083 0.1248618 0.12062074 0.08388261 -0.041349627 0.13427748 0.192002 0.078237124 0.007825764 -0.08651468 0.16327387 -0.09503584 0.021184688 0.21555957 0.18392387 0.018011829 -0.020807507 -0.08051492 0.06653782 -0.215883 -0.20315419 -0.14586678 -0.10906094 -0.26539364 -0.08586288 -0.18404765 -0.20903412 0.09127741 0.07777292 0.27501127 0.2931362 -0.1353512 -0.16656761 0.04896876 0.26420292 0.067503445 -0.052541025 0.2824443 -0.09222675 0.18961486 0.011869103 -0.039509997 0.0385926 0.117734104 -0.076684356 0.27450544 0.32186586 -0.17294346 -0.037708584 0.2080545 -0.1491567 0.024839252 0.05015789 0.012871966 0.013296073 0.04237673 0.098639905 0.13278346 0.015165777 -0.011170339 -0.17191695 0.0890895 -0.04345959 0.20919879 0.017859159 -0.0727557 -0.21036845 -0.044100683 -0.05088396 0.0019512197 -0.2023133 -0.15400583 0.02963533 0.25263745 0.034156565 -0.11658487 -0.15071198 0.08126921 -0.054944113
60 -0.07986114 -0.2274055 0.10496057 0.13595414 0.06453691 -0.068735816 0.046964727 -0.080818 0.021845616 -0.06893841 0.032477636 0.03785541 -0.06114645 -0.11007997 0.14516374 -0.15902925 -0.073063426 -0.044536825 -0.033894084 0.07173644 0.18008585 0.18718688 -0.11809648 -0.17494908 -0.08488697 0.21320748 0.17337777 0.22560236 0.06445566 0.07547084 0.054359924 0.0798196 -0.083614886 0.02072166 -0.12647144 -0.024503509 0.071693584 -0.11891759 0.0058869226 0.047241464 -0.067964844 0.3384211 -0.045818884 0.0055532893 0.08915058 0.14211813 -0.20221953 -0.0892434 0.11614047 -0.06879008 -0.095671594 0.2860498 0.24692652 -0.053637963 -0.101278655 0.022302894 0.42133883 0.0009919209 -0.0064658094 -0.32433048 -0.020547796 -0.12054 0.17590077 -0.14185606 0.17497163 0.03521489 -0.0043079653 0.0040054554 0.09960475 -0.21023944 -0.0985054 -0.13183762 -0.11423801 -0.045829467 -0.08217501 -0.105598465 -0.047407907 0.05959344 -0.19828494 0.21808769 0.083302885 0.05642069 -0.03204999 0.25278667 -0.01278808 0.06684043 0.2147435 0.07389006 0.019081429 0.07470132 -0.09695382 -0.0013581163 0.17561422 -0.0024195744 0.2708749 0.12486909 -0.20213585 -0.06787923 0.02034137 -0.06956125 -0.2408628 -0.045177434 -0.10547918 0.20383088 0.19537742 -0.13199265 -0.18218403 -0.16807657 0.18049683 -0.033037335 0.22054146 -0.22001898 -0.058605302 0.23152983 -0.021675585 0.1242364 -0.042160306 -0.103545904 0.042624276 -0.1049118 -0.11359302 -0.10768891 0.0928373 -0.0067580533 -0.16191886 -0.45347872 0.102386616 0.021322854
108 -0.033490393 -0.355369 0.3145126 0.06278712 0.07532432 0.15216662 0.16492356 -0.17392243 -0.32950267 0.037195925 -0.08449513 -0.1530171 -0.1451583 -0.22716129 -0.046231713 -0.039103627 -0.29551026 0.1483542 0.104791805 0.15847997 0.107895255 0.083748825 -0.15090726 0.091597624 -0.19146676 -0.03170263 0.0715597 0.22602905 0.07855192 -0.20469055 -0.23121755 0.029662723 0.03668068 0.024697818 0.054801892 0.062479235 -0.08600551 0.30808064 0.105017126 -0.05819133 -0.10206255 0.21927376 -0.24847358 0.15852752 0.10208387 0.11089191 0.1951162 -0.1595537 -0.10991256 0.19471526 0.011591403 0.18130459 0.110103756 -0.031823598 -0.20202617 0.114438534 0.13167317 -0.21835981 0.08983222 -0.06699399 0.1429173 -0.14472987 0.31716964 0.012744957 -0.17193463 -0.2421762 -0.058582053 0.087743275 -0.23533233 -0.18927476 -0.32135057 -0.012594012 -0.24248613 0.07362923 -0.2728218 -0.055856854 -0.12575072 0.044394426 0.1224274 0.13378753 -0.09079494 -0.06517228 0.16628249 0.25414807 0.11884391 -0.21316177 0.47068056 -0.18175966 0.18476161 -0.053410325 -0.021487638 -0.1906822 0.15994982 0.0011825459 0.40138164 0.2646959 -0.053945053 -0.10120797 -0.116313666 -0.09139307 0.23287025 0.1345403 0.0062623457 -0.091546446 0.3680386 0.119322136 0.13879491 -0.09312468 -0.041386075 -0.38533932 0.14445542 0.011686925 0.2912119 -0.33948162 -0.034038372 -0.06495293 -0.06456892 -0.099245265 -0.013768613 -0.12776446 -0.2646235 0.0020005999 0.09297766 0.27172855 0.073574945 -0.058191355 -0.2224804 0.21268944
29 -0.09906135 -0.24819364 0.3616465 0.2417329 0.10604579 0.24749193 0.17824936 0.05739694 -0.06336327 0.04354672 0.37042207 0.06566907 0.010362077 -0.13301972 0.03826008 0.057718724 -0.10998148 0.041976426 -0.033055056 -0.098233186 0.14413768 -0.071593896 0.22091915 -0.20317705 -0.12018067 0.34203613 0.09379856 0.04286356 0.11393717 -0.053307943 -0.1859991 0.07987647 0.006598314 0.06375788 0.16549857 -0.06725721 0.11978715 -0.19240026 -0.19840653 -0.2167122 -0.07795973 -0.015291013 -0.121141724 -0.08169854 0.24659565 0.026675172 -0.028586138 -0.15359542 -0.11929477 0.23519845 0.1412023 0.25683942 -0.145456 -0.07778387 -0.2334363 -0.15943715 0.1042079 -0.1296119 -0.262965 0.047438446 -0.15520655 -0.20733643 0.096656755 -0.2638961 0.12381554 -0.15311365 0.0016409229 0.12959269 -0.08541617 -0.06963558 -0.21801071 0.062341947 -0.36684605 -0.16058639 -0.14937143 -0.36968234 -0.032422952 -0.07480681 0.25519884 0.032133456 0.033090334 -0.18652433 0.0492799 0.32441914 0.25418425 -0.11536938 0.3470193 -0.15572539 0.23330499 -0.049647205 -0.03626515 -0.11633744 0.26375788 -0.27164084 0.18750633 -0.0002625088 0.13157095 -0.16534166 -0.06383697 -0.093221284 0.09911369 0.20965628 -0.19589001 0.07493036 0.13719359 -0.15703245 -0.13417909 0.23064695 0.17325495 -0.16668126 0.20164756 -0.25299802 -0.1349443 -0.146274 -0.11641638 0.26809445 -0.04309856 0.086062714 0.25504598 0.0026887665 -0.160179 -0.107494764 0.004586181 0.19145338 0.08048766 0.0065557165 -0.3002014 0.07402008
83 0.08138314 -0.26257733 0.25848928 0.07561473 -0.074377246 -0.024355033 0.022433205 -0.17166 -0.009109135 0.10930274 0.09361273 0.013719955 -0.15507919 -0.19632141 0.33777457 0.28681025 0.07839262 -0.11475935 -0.26345965 -0.15247403 0.2592218 0.24940963 -0.19850726 0.12096005 -0.08434236 0.21782662 0.03648303 0.1393674 0.1934017 -0.2527102 -0.26260895 -0.014253177 -0.09142406 -0.115809806 -0.3702281 0.39389467 0.3501426 0.023206206 0.3105605 -0.011740739 -0.19505681 0.2729229 -0.081905626 0.09769704 0.099052824 -0.0811731 -0.07637226 -0.16919078 -0.14223991 -0.21444878 0.029339982 0.15599053 0.15326345 0.04834006 -0.21761233 -0.09353037 0.24313657 -0.034832507 -0.13494533 0.032749593 0.018492429 -0.066104546 0.05908154 0.19900303 0.06793987 -0.17730258 0.054039 -0.09008187 -0.246007 -0.18794739 -0.13542096 -0.10756857 -0.29720142 -0.12301941 -0.037035037 -0.07490729 -0.05532296 0.21875814 0.1193835 0.11040575 -0.09192158 -0.17211905 0.19156821 0.23849444 0.05871279 0.0051589427 0.02596286 -0.025207916 0.08806021 -0.040377475 -0.12535076 0.045926947 0.068665154 0.05554962 0.11730529 -0.051238105 0.0526676 -0.08265044 -0.1881567 -0.18660928 0.16255865 0.024500323 -0.031238068 0.046074934 0.20056917 -0.0009039445 -0.03705409 -8.370252e-05 0.21561968 -0.05265219 0.28328815 -0.043525267 0.1994722 -0.021500537 -0.09627158 -0.09572283 -0.16655669 -0.07460909 -0.044118524 -0.13644528 0.1478355 -0.19803675 -0.14989983 0.14037983 -0.22933123 -0.34494036 -0.14277542 -0.14447147
183 -0.08071767 -0.029107869 -0.053180803 0.13931663 0.013300657 0.038558852 0.08605594 -0.0039003277 -0.1829395 -0.009320268 -0.027504006 -0.04182361 0.086273685 -0.1775699 0.12434046 0.09394501 -0.11917847 0.034397647 -0.082387716 0.086006634 0.21222743 0.1147447 -0.07798676 -0.06603232 -0.39704135 0.066092886 -0.03571824 0.10160705 0.15131317 -0.04895986 -0.19195196 -0.0696972 -0.13277408 -0.053142957 -0.09143514 0.21516348 -0.067508936 0.0897966 0.058590986 -0.09472453 0.029415403 0.28702345 -0.090503104 0.20745616 0.0070213294 0.09642529 -0.044475526 -0.06367252 -0.10630022 -0.0648128 0.05804494 0.057198845 0.10756059 -0.032079156 -0.06804588 0.14334378 0.18751389 -0.097248934 0.015047739 -0.0024873165 -0.12500554 -0.047187172 0.107318275 0.24401554 0.11731923 -0.15080154 -0.0043119807 -0.0251436 -0.18764836 -0.07343865 -0.25582382 -0.075292155 -0.33137956 -0.0705026 -0.18483195 -0.10683439 0.14603396 0.21594247 0.007507642 0.2051529 -0.11263822 0.018049885 0.019242384 0.15202507 0.24623713 -0.036348887 0.27605855 -0.100339144 0.061704792 -0.11303715 -0.039568856 -0.05856715 0.25425678 0.022313789 0.24690773 0.13240719 -0.16679381 -0.20095125 -0.09633031 0.0014653814 0.00052137685 0.080706015 -0.1102865 0.08410157 0.22308116 -0.07486437 0.025479922 -0.096546054 0.11986821 -0.25247955 0.124259844 0.02609478 0.16684414 -0.047680903 -0.12599118 0.032660924 -0.0017660911 -0.06930091 0.107706554 -0.21842416 -0.14160861 -0.13161121 0.14696243 0.23160347 -0.048068862 -0.24074467 -0.0067529986 0.078897625
113 -0.12703082 0.053825255 0.16398747 0.05634609 -0.039661262 0.08025589 0.104356706 0.09773636 -0.26289275 0.15125577 0.13763507 0.13922504 -0.10676996 -0.29333535 0.33033046 0.21021244 0.0049702125 -0.033326186 -0.20431559 0.009767795 0.15706332 0.10166187 -0.1317619 0.16807128 -0.34384966 -0.06281454 -0.13503598 -0.13726011 -0.010286025 -0.1799388 0.008883798 -0.069297425 -0.02757425 -0.06924886 -0.14805238 0.28998908 0.39248294 0.089298904 0.21272503 -0.16631119 -0.15349427 0.21442015 -0.11607575 0.23204055 -0.0397187 0.17987578 0.080573976 -0.010087851 -0.10752512 0.11722517 0.045851324 0.26467267 0.19847769 0.06777317 0.040290777 0.049487226 0.12032206 -0.018988695 0.031562805 0.18785092 -0.0022695435 -0.04259033 -0.07254296 0.21394332 -0.04030586 -0.10474919 0.094915085 -0.02484965 -0.14394753 -0.4033411 -0.04987853 -0.14834474 -0.2578341 -0.07701996 -0.20883247 -0.08871806 -0.083781905 -0.08816733 0.14311174 0.25133765 0.16684961 -0.23609921 0.18858892 0.42034864 -0.025996797 -0.022090906 0.42359278 -0.020260692 0.37399375 -0.065981224 0.08281696 -0.120303474 0.13477579 -0.07144961 0.13318999 0.060508147 -0.19742924 -0.08432664 -0.18344931 0.08019468 -0.12527595 0.33695135 0.13928445 0.11487275 0.13019401 0.012449981 0.0974962 -0.015751101 -0.0701421 -0.14036162 0.22613509 -0.07260854 0.10803599 -0.046560425 0.055109203 -0.3377526 0.050953146 0.10749885 -0.07628962 -0.19862895 -0.08211944 -0.059882935 0.25350285 -0.022284972 -0.10818965 -0.035546523 -0.046830736 0.058036387
58 -0.12604587 -0.40599635 0.25054178 0.31290302 0.06891205 0.26938438 0.03733532 -0.049091775 0.019332709 -0.14114708 0.22401361 0.0019873807 -0.09884959 -0.1917823 0.0847444 -0.019874077 -0.024161095 -0.08389062 -0.08491881 -0.09786088 -0.015434811 0.06818052 0.026389364 -0.24354514 -0.12337998 0.24630427 0.09632854 0.13397753 0.021744728 0.099705905 -0.14904691 0.06719843 -0.13166797 0.051604036 0.13063435 -0.055211805 0.11816676 -0.19958314 -0.086250454 -0.044746954 -0.13685355 0.13248825 -0.06413908 -0.008857019 0.26533923 0.07303698 -0.09442674 -0.14828928 -0.19386652 0.109633215 0.013784551 0.26479936 0.12238492 -0.019194309 -0.11826996 -0.11615402 0.32454857 -0.09038066 -0.12790237 0.05600809 -0.14101416 -0.27979463 0.15717871 -0.14346322 0.109202005 0.009438862 0.05373691 0.12848392 -0.09001417 0.073299915 0.007555206 0.059389234 -0.16850935 -0.0071199806 -0.01384854 -0.3220339 -0.18183224 -0.20318681 0.025900794 0.009187719 0.003004387 -0.032155626 -0.019000364 0.319636 0.021130716 0.13936073 0.27402556 -0.069227256 0.086773746 0.03347341 -0.02044803 0.03793068 0.3044722 -0.10192303 0.1609856 0.09341706 -0.009776907 -0.18106669 -0.0957959 -0.14787272 -0.14355506 0.16987875 -0.090099625 0.2053015 0.08489851 -0.03783384 -0.14684838 0.035354562 0.19715746 -0.20189302 0.27096123 -0.23249067 -0.21999481 0.05288616 0.0033796725 0.17293283 0.16121246 -0.016351808 0.23385747 -0.029910838 -0.102424756 -0.24078915 -0.06744157 0.33709863 -0.1330705 -0.30920097 -0.10490875 0.013745741
87 -0.16132033 0.020936554 0.24070232 -0.1717368 0.06470167 -0.08911677 0.04855963 -0.08060227 -0.14878802 0.18318693 0.42249325 0.04758399 -0.1825984 -0.2338778 0.13423076 0.070181176 0.046426564 0.10314647 -0.1316671 0.0599579 0.06703829 0.05575349 -0.409774 0.063133866 -0.122809514 -0.08649913 -0.06347938 0.020177275 0.022246467 -0.18071082 0.028918343 -0.020076133 0.08424959 0.061313808 -0.04553724 0.25380993 0.46762562 -0.020464038 0.07167638 -0.05733239 -0.111167915 0.21385375 0.0029817962 0.09270457 -0.040455505 0.17243694 -0.14488621 -0.27583548 -0.09752596 0.08626869 -0.027643511 0.23378232 0.36677867 0.09214945 -0.008690796 0.13728608 0.19542296 0.02016811 -0.008724623 -0.03358335 0.07407466 -0.044185232 0.07366483 0.06519434 -0.05490293 -0.0008266742 0.14346395 -0.022632923 -0.16933541 -0.38272393 0.011865718 -0.26142192 -0.20283979 0.15740624 -0.0017541846 -0.18392497 -0.24286617 -0.09998195 0.07366005 0.23890273 0.120042354 -0.31108496 0.16436966 0.40103474 -0.049375035 0.14427339 0.2820095 -0.08500884 0.217604 0.11782644 0.070343174 0.12791203 0.1436728 0.06488636 0.12648581 0.2575895 -0.38138095 -0.21385574 0.0039245556 -0.016056782 -0.11197915 0.14201951 0.061461322 -0.030448776 0.2164616 0.1595981 0.19136718 -0.05987086 -0.047396604 -0.25590602 0.35683995 -0.19985531 0.18007593 -0.038439907 0.2916172 -0.32636073 -0.04575285 0.07903892 -0.14892863 -0.21911761 -0.06514713 -0.07400777 0.31353316 0.030036775 -0.15953517 -0.36633623 0.13403478 0.061884284
177 -0.24671774 -0.029117523 0.32435232 0.043457206 -0.09609173 0.10927721 0.051430758 -0.006078248 -0.34475213 0.0833438 0.12414319 0.07859908 -0.1258206 -0.2491136 0.22705764 0.053479962 0.07913512 0.11212431 -0.21578817 0.1888747 -0.0584853 0.009930893 -0.21474081 0.063887194 -0.16608602 -0.14937969 -0.1343248 0.021648547 -0.04236087 -0.1770981 0.008329848 -0.03836181 -0.035586007 -0.0066107856 -0.014747859 0.1640266 0.22220443 0.03282055 0.00752249 0.029259201 -0.23693746 0.2072867 -0.021847576 0.054144885 -0.014361252 0.16907687 0.015617546 -0.18908282 -0.14786842 0.08302626 0.08471804 0.14139889 0.25711408 -0.028755536 0.19654866 0.26241258 0.22806737 -0.075451314 -0.04349982 0.16709578 0.010084501 -0.02503954 0.10313898 -0.028724631 -0.026822407 0.07929268 0.041847114 -0.08448783 -0.16944374 -0.295946 -0.017051626 -0.050798364 -0.14325207 0.032930177 -0.14586855 -0.19061862 -0.043960746 -0.23025961 0.2097493 0.23164995 0.20179357 -0.11406272 0.11074705 0.31382868 -0.121951826 0.09254308 0.2925848 -0.025044248 0.21528944 -0.014261579 0.007870268 0.02066029 0.286582 0.03833974 0.21297231 0.19556147 -0.2433089 -0.11319886 -0.030990198 -0.06424471 -0.16748928 0.10628092 0.05216444 0.15917088 0.17328095 0.12921008 0.16634293 -0.016708633 -0.052194998 -0.3048182 0.31796032 -0.27749282 0.061429422 -0.08228598 0.08370182 -0.11448258 0.017638113 0.012254386 -0.10478404 -0.16006003 -0.17380859 -0.098032884 0.18979746 0.15646257 -0.119295254 -0.120695196 0.057727687 0.05255205
66 -0.3548454 -0.46517026 0.13841674 0.26529726 0.23639302 0.41578683 0.14472345 -0.14218542 0.022399347 0.10757008 0.11353526 -0.041842315 -0.14427431 -0.17966 -0.1649044 -0.15828969 0.027293874 -0.025684059 -0.08238701 -0.3293154 0.04073286 0.20881863 0.07876599 -0.2454067 -0.13360383 0.46196705 0.096539244 -0.039837584 -0.20751107 0.076205455 -0.12381834 0.04692688 -0.21044683 0.2657202 0.08010645 -0.065543205 0.12174754 -0.31683725 -0.0810442 0.044358548 -0.30789208 0.22015956 0.012939194 -0.094593756 0.21819209 -0.20743313 -0.2718523 0.005822948 0.018103546 -0.071351 -0.1874981 0.40084532 0.060320877 0.21577848 -0.20511635 -0.057556063 0.4097517 0.0648549 0.032345034 0.014843211 -0.060985494 -0.22930692 0.40723786 -0.09910616 0.05195943 0.15877335 -0.15233015 0.13203996 0.026891302 -0.34996924 0.05449406 -0.08751839 -0.060760044 -0.17416279 0.05310015 -0.34574404 0.013881812 -0.24956658 -0.018270373 0.12395192 0.09586537 -0.1817733 -0.039421845 0.4904247 -0.10950047 -0.22130966 0.47510123 0.13168202 0.019655602 0.18511754 -0.1699718 -0.08940558 0.17984165 -0.011896886 0.3833914 0.049267203 0.052575156 -0.19583201 -0.20654939 -0.24579532 -0.05482649 0.012688795 -0.16265225 0.257943 0.15136898 0.3297296 -0.37415013 0.0043633343 0.23195672 -0.06572674 0.16287103 -0.24555095 -0.041543506 0.09776531 0.18078119 -0.114409104 0.31053904 -0.38945326 0.25197318 -0.014470631 -0.12369203 -0.34276503 -0.016865585 0.09070704 0.046834875 -0.23920143 0.07821492 -0.12311516
45 -0.043901455 -0.017187716 -0.07401452 -0.05161876 0.099502295 0.010730331 -0.019248422 -0.09089694 -0.17980225 0.022638448 0.2337487 -0.04707923 -0.044629656 -0.07799096 0.042499058 -0.011029171 -0.08281371 -0.016532186 -0.23258542 -0.025823763 0.27304924 0.08392084 -0.16398239 -0.04672619 -0.1740106 0.030825987 -0.016444838 0.00038657317 0.17766544 -0.040638633 -0.026178129 0.07808026 -0.017130993 0.017197903 -0.15202208 0.27757865 0.12984832 0.067684054 0.15946731 -0.10906746 0.13185006 0.3025308 0.050625723 0.16130741 -0.0021303354 0.04241962 -0.13595466 -0.07005685 -0.13131097 -0.0227911 0.16620888 0.07095262 0.20626378 0.11524285 -0.11715904 0.11495877 0.24761708 0.0011179141 0.056621913 -0.038644284 -0.10466505 -0.02441534 0.032818355 0.16156399 0.0759037 -0.14840984 0.13414031 0.07807581 -0.09203903 -0.20289032 -0.09191586 -0.07198944 -0.3081995 -0.0024735206 0.005547284 -0.20181571 0.0064172014 0.18832931 -0.07090184 0.22295725 -0.07873091 -0.18729629 0.114427224 0.18501528 0.17928264 0.09101683 0.15203203 -0.15887995 -0.031919822 -0.09680612 0.02129246 0.011810323 0.15587328 0.014977937 0.24801853 0.052454855 -0.08979256 -0.15317555 -0.27655762 -0.13456212 0.0009374777 -0.029991074 -0.11136801 0.15589496 0.2388183 0.03221155 0.009254732 -0.058539793 0.024610993 -0.12927684 0.16641103 -0.010527363 0.13415255 0.043674886 0.010477588 -0.11025542 0.025976496 -0.041139342 0.119950816 -0.085797764 0.043954447 -0.2118493 0.06711545 0.1314467 -0.09486058 -0.24710602 0.11263559 -0.016174989
116 -0.20045666 -0.1386897 0.24628967 0.114779435 -0.018837672 0.25315 0.0013446638 0.013654056 -0.3365424 0.076070026 0.21027753 0.004721288 -0.05149503 -0.2276883 0.16894002 0.22276638 -0.19749612 0.09245511 -0.15647128 0.06256472 -0.0705376 0.037079994 0.037795942 -0.04117779 -0.16853312 0.030761428 -0.056507703 -0.102267936 -0.008154966 0.037505206 -0.1327991 -0.08112754 -0.15701331 0.22177407 -0.11026514 0.092782974 0.24370627 0.060641177 0.13047798 -0.09109966 -0.09830696 0.18256946 -0.020734183 0.16854821 0.006492967 0.17085189 0.049528107 -0.060049918 -0.17141005 -0.00673014 0.033472918 0.0266685 0.023155931 -0.030718701 0.13370275 0.12139646 0.15089215 -0.00864314 0.058195125 0.11113401 -0.041567482 -0.14207423 0.13370074 0.021656685 -0.08484316 -0.0547199 0.09316639 0.06557928 -0.0026691938 -0.23720369 0.07108499 0.08490554 -0.18781199 -0.005707113 -0.15220268 -0.3713634 0.0672636 -0.25026736 0.060549386 0.07744392 0.021306986 -0.07955592 0.14598374 0.3154137 -0.13202944 0.02640518 0.18057849 -0.06801711 0.22164287 -0.012366529 -0.0004522417 0.04899219 0.028765367 0.06388734 0.3020604 0.055995267 -0.07466223 -0.008037699 -0.18298155 0.02938261 -0.15688044 0.26406106 -0.013679265 0.22503336 0.030605493 0.20298788 0.05329169 0.031160476 -0.009614236 -0.20072371 0.10430632 -0.060676176 -0.11244615 -0.076084666 0.15541747 -0.0701839 0.14359272 -0.16719663 0.120168984 -0.16552894 -0.15640393 -0.1349393 0.014548421 0.26247945 -0.097025745 -0.11997868 -0.12500562 0.10933108
88 -0.28230488 -0.19852968 -0.059803024 0.041867662 0.027030572 0.17145038 0.014333006 0.17307398 -0.2529861 -0.003488915 0.0068357014 -0.19437294 -0.002385199 -0.071956754 0.1877208 0.13118947 -0.005212947 0.059339933 -0.11564561 0.005000595 0.1942738 0.028867604 -0.06895738 0.018800862 -0.30171615 0.008624566 -0.05324231 -0.05552649 0.19570269 0.23299852 -0.052029874 -0.11181656 -0.10830859 0.08828495 -0.07457057 -0.038771518 0.09496147 -0.011345792 0.014585004 -0.40135768 -0.0006717188 0.18158904 -0.16446964 0.3417072 0.06917994 0.12667279 0.13112435 -0.030913763 -0.25098953 -0.05539339 0.22103344 0.11785427 0.068363324 -0.006348733 0.13046302 0.1327187 0.12680472 0.090204746 0.14475363 0.17049168 -0.2082695 -0.11485767 0.09300051 0.098195136 0.016400918 -0.03623702 0.09112371 0.0043060216 -0.11236364 -0.078795515 -0.056567986 0.01679773 -0.33681715 0.14134435 -0.3347141 -0.25336295 0.109428905 -0.08772569 -0.068775065 0.2537053 -0.049371287 0.1285039 0.14827932 0.1486928 0.14087114 0.0254641 0.24658589 -0.09061776 0.16669835 -0.09516995 -0.022205137 -0.07096647 0.15521027 -0.05755309 0.27335384 0.07056991 0.032465935 -0.09626903 -0.2861586 0.116913386 -0.19172738 0.36870745 -0.025291795 0.24904427 0.23364764 -0.03696013 -0.099364094 -0.23296149 -0.1327417 -0.16021116 0.06765337 -0.02040687 -0.21844815 0.18831304 -0.12768753 0.14645119 0.09817943 -0.26815012 0.11566958 -0.177431 -0.12952438 -0.22174555 0.15384625 0.23629563 -0.050630584 -0.1143162 -0.059981097 0.20078038
149 -0.08461811 -0.11267097 0.07376073 -0.100161694 -0.033862364 -0.13854402 0.064224936 -0.073794015 -0.26398718 0.16984305 0.25232357 0.07438963 -0.09482437 -0.14039612 0.31672475 0.16371529 0.07754258 -0.0007904042 -0.27312362 0.00853503 0.17776467 0.14472994 -0.24910432 0.093830235 -0.017534496 0.10562395 -0.12304255 0.029371912 0.15833162 -0.16244577 -0.13910408 -0.061907526 -0.00051515736 -0.018831221 -0.29474914 0.36145824 0.17985529 -0.07865335 0.26522738 0.045253765 -0.022885358 0.14354731 0.080862276 0.06812949 -0.108178936 0.0013227272 -0.09169124 -0.0059119994 -0.1072907 -0.13025373 0.21576254 0.0069847386 0.08427556 -0.035769418 0.049511768 0.042868398 0.13227046 0.043204058 -0.14403102 -0.004728797 -0.019220453 -0.009229661 0.020179333 0.088907644 0.13091463 -0.10243666 0.027880559 0.0777995 -0.092598945 -0.30455637 -0.094441056 -0.13694213 -0.27199534 -0.07284819 -0.023239063 -0.16201311 0.06738148 0.24752991 0.08831655 0.21210726 -0.16147858 -0.19781199 0.0734497 0.22219712 0.12120199 0.11552629 0.12065013 -0.13136436 0.17422497 0.049799025 -0.042218883 0.16185597 0.11576774 0.008432303 0.3099881 0.17639334 -0.14876318 -0.099058144 -0.06350115 -0.18394166 0.046652734 -0.11261945 -0.021803105 0.1270216 0.18235274 -0.041821998 0.029445985 0.032608192 0.12750469 -0.12318602 0.15088952 -0.115654774 0.15105353 0.12330799 0.009009683 -0.12090622 -0.12236239 -0.11500781 -0.0076243076 -0.12262441 0.027797505 -0.056189157 0.11677022 0.060222838 -0.15080751 -0.29349706 0.089265145 -0.03884579
63 -0.06204595 0.05379768 -0.007300018 0.0022661346 0.048024435 -0.12127092 0.25387937 -0.0029636915 -0.09059899 0.07705006 0.22922792 -0.009601717 -0.0711375 -0.03183401 0.11167861 -0.02744873 -0.08162127 0.03013468 -0.07899519 -0.056847505 0.2922007 0.039164446 -0.2778275 -0.006727225 -0.13257885 0.04370605 -0.0659438 0.12549883 0.0680316 -0.009293098 -0.04011237 0.11666494 0.09184068 -0.003537371 -0.09691012 0.0932656 0.15393098 0.040775865 0.07952492 0.09221283 -0.05230374 0.3194 0.019423854 0.08573175 -0.20415647 0.05781832 -0.0555744 -0.12699164 0.07262794 -0.120552495 0.022726586 0.11899116 0.2019161 -0.017596196 -0.027996821 0.06343642 0.19478565 -0.057538196 -0.08385554 -0.11500489 0.053239323 -0.06310694 0.033070378 -0.107678175 0.04320383 -0.099770166 -0.031742737 -0.010181111 -0.13233554 -0.34373832 -0.16745904 -0.15801458 -0.23917976 -0.02890264 -0.10078111 -0.114141256 0.05797716 0.051684126 0.07819004 0.17632939 0.07271168 -0.3246349 0.06545824 0.17503734 0.21098529 -0.017806996 0.34931132 -0.09654845 0.15525326 0.06584814 -0.10435271 0.1407379 0.1558331 -0.045253083 0.3541754 0.18373057 -0.1934625 -0.07052825 0.12415864 -0.114702195 -0.13317801 -0.12143568 0.01411644 0.04372852 0.13908887 -0.09452643 0.07815751 -0.09163409 0.1452222 -0.10459711 0.22173248 -0.05412343 0.107285075 -0.019940611 0.033086266 -0.032985985 -0.08268245 0.080387995 -0.11021749 -0.17159922 -0.15759698 -0.031678427 0.21575262 0.0364533 -0.092117675 -0.35649472 0.109562315 0.05936442
84 -0.16234599 -0.21826677 -0.08387176 0.16805653 -0.032651294 -0.051326487 0.26903427 0.079927444 -0.21628855 -0.1450728 0.103034236 0.10649206 -0.11189838 -0.013650631 0.42530024 0.17046833 -0.062695436 -0.12058331 -0.20049517 -0.09617836 0.30299044 0.27978313 -0.09017093 -0.11998246 -0.27164435 -0.046382844 -0.35897642 -0.18563616 0.19583222 0.10905322 -0.17239296 -0.009225186 0.061547343 0.028954173 0.027687311 0.18466513 0.21159944 0.09029304 -0.06330421 -0.090711355 -0.09871819 0.27952865 -0.040006343 0.2724273 -0.038820695 0.11462002 0.078273594 -0.0103989905 -0.071873724 0.08750148 0.19385839 0.37620506 0.10645184 0.03088515 0.22038612 0.28304106 0.09844783 -0.06678408 -0.04734612 0.21497832 -0.009878358 -0.120820865 0.050004784 0.039873745 -0.016083896 -0.014604539 0.09956127 0.052398283 -0.10031073 -0.111964844 0.04692302 -0.19360042 -0.20421095 -0.023792952 -0.059134603 0.08315438 -0.029458052 -0.13011572 -0.036623992 0.20134377 -0.072378114 0.035558075 0.071972966 0.14349091 -0.0034229474 0.030843066 0.29252988 -0.13781755 0.27240884 0.0055616703 -0.16640157 -0.20407835 0.33967394 -0.20132251 0.2974837 0.118605025 -0.15820009 -0.184415 -0.25893766 0.04317945 -0.42166454 0.2837251 0.13677418 0.13766894 -0.09228075 -0.062543996 -0.02286402 -0.21488579 -0.11541028 -0.08170115 0.18682602 -0.09951321 -0.1269568 0.2899801 -0.25290167 -0.12253058 0.0139572825 -0.08436487 0.058815435 -0.039737985 -0.14133143 -0.09636136 0.1517615 0.03235063 -0.044526335 0.052290406 0.042987425 0.07602701
130 -0.0763839 0.05370921 0.007144533 0.07452658 -0.06724965 -0.0008142714 0.09515016 -0.024631977 -0.12644072 -0.04072479 0.027909786 0.014046583 0.0365595 0.004559558 0.20181976 0.056061473 -0.054170076 0.011731977 -0.31258687 0.03604407 0.32211742 -0.05235798 -0.18601993 -0.1313617 -0.14094537 0.043464493 -0.077365614 -0.044241965 0.1494383 -0.124379806 -0.16451493 0.07840293 -0.0028616337 -0.028054943 -0.087548815 0.12439126 0.05447023 0.12334347 -0.03265339 0.05865424 -0.1218544 0.288072 0.08085585 0.16964702 -0.118477024 -0.051689047 -0.0070091425 -0.11903339 -0.046585277 -0.053635575 0.17542566 -0.010321097 0.25619042 0.014240983 0.03705382 0.28726435 0.16670202 -0.19924636 -0.04294581 0.13991807 -0.04304055 0.08383367 0.1041482 0.077147044 -0.054187633 -0.023756193 0.07197337 -0.077949084 -0.14454938 -0.33815575 -0.26430792 -0.13893507 -0.29192194 -0.093831785 -0.07069487 -0.10709004 0.1851857 0.13586661 0.10214269 0.1842341 0.012837313 -0.17925307 0.119945705 0.121541254 0.10947113 -0.041622326 0.28030682 -0.04298391 0.094683595 -0.10583525 -0.053762637 -0.0061382554 0.14238326 -0.06515003 0.29299593 0.11936255 -0.07995599 -0.06402466 -0.19037499 -0.08591959 -0.05573128 0.01842587 -0.08894782 0.080305964 0.25152677 0.040478673 0.09656598 -0.034870915 0.11232959 -0.20156868 0.32448146 -0.12300372 0.14517663 -0.09967368 -0.09701634 -0.05539283 -0.08688747 0.022595454 -0.020853529 -0.19040312 -0.11777486 -0.099082135 0.08724187 0.17788948 0.04031197 -0.08736821 -0.049566098 0.06737746
67 -0.22004731 -0.26036254 0.23691079 -0.013658259 0.30046105 -0.0033459957 0.08987649 -0.02872533 0.15121895 0.057406735 0.53493947 0.108021215 -0.1767606 -0.034264047 -0.07873119 0.016219558 -0.14934477 0.03399927 -0.22948363 -0.03250328 0.03551688 0.08527524 0.203033 -0.15419038 -0.15590718 0.32473668 -0.06494584 -0.04406274 0.145635 -0.07990757 0.012954012 -0.061641477 -0.17447902 0.21806738 -0.009234238 -0.012652065 0.39714622 0.125441 0.059284203 -0.14389704 0.026241524 0.042061895 0.0875476 -0.1367816 0.25264663 0.15801102 -0.021367613 -0.07156063 0.022552144 0.19932961 0.0609685 0.23427711 -0.14978832 0.31173277 -0.07767785 0.12543254 0.1542544 -0.24107516 -0.29829976 -0.2886603 -0.050751634 -0.12637122 0.27989364 -0.042426307 0.08653391 -0.059524354 -0.24326205 -0.08138154 -0.111468785 -0.26892564 0.1693911 -0.13990138 -0.61873764 -0.03203149 0.13158196 -0.32056355 -0.16363977 0.13777192 0.29314345 0.1150768 0.108502105 -0.1810419 0.19364479 0.23068036 0.10827046 0.0035073115 0.15843669 0.032806657 0.06514798 0.32419136 0.10987916 -0.008600546 0.15179661 -0.2775791 0.5459225 -0.0772946 0.1293373 -0.22678411 0.082711875 -0.06953269 -0.13989721 0.16811198 -0.31315577 -0.15014803 0.15699033 -0.049810976 -0.08411269 0.12973057 -0.10461647 -0.08366233 0.28808206 -0.08143876 0.09257436 -0.138414 0.009998466 -0.22470635 -0.11465209 -0.20141216 0.13484353 0.022835791 -0.02154538 0.08092258 0.0915598 0.09196636 0.038311847 -0.047625553 -0.01714389 -0.046360735
154 0.0024680244 -0.19909492 -0.056602545 0.010435529 0.022085207 -0.1296924 0.079528466 0.054353457 -0.2633807 0.06089799 0.035056747 -0.18363674 -0.16139299 -0.02718625 0.23393373 0.046663254 -0.11777894 0.09242506 -0.0044080657 -0.039526727 0.30509478 0.23549053 -0.18066548 0.08886213 -0.08619657 0.0007561361 -0.08944938 0.10157962 0.15362701 -0.029368998 -0.25000447 -0.056069285 0.09582878 -0.010620823 -0.2299667 0.26368204 0.13043678 0.037038155 0.24310681 -0.20637731 0.07539201 0.17770442 -0.11417585 0.07871986 0.008003032 -0.03581437 -0.053506218 -0.024509663 -0.11670017 -0.038701322 0.23914304 0.120248504 0.10067479 0.038754474 -0.014253246 0.16156697 0.09216047 0.07431183 -0.05389916 0.15527172 -0.045204133 -0.087358266 0.1581432 0.08094108 -0.0053722374 -0.19604242 0.109175645 0.10069725 -0.16269661 -0.21689087 -0.23601457 -0.12470695 -0.33719298 -0.079000756 -0.251295 -0.17003436 0.098287135 0.23302001 -0.045353424 0.12772946 -0.24447134 -0.016087081 0.11241529 0.138388 0.22757353 -0.090610154 0.3024742 -0.25352862 0.12295172 -0.0104618 -0.13134678 -0.048370462 0.00946841 -0.08079236 0.3597328 0.10106854 -0.042166207 -0.17325692 -0.043887652 -0.14431638 -0.03097455 -0.006557649 -0.0768015 0.014162293 0.27150977 -0.0115984045 -0.07936543 -0.08355134 -0.07497657 -0.20259899 0.034219056 0.053662896 0.10996165 0.11457581 -0.15644003 -0.022745747 -0.21545361 -0.13002661 0.03247546 -0.11923949 -0.099612094 -0.056417577 0.06640166 -0.038308963 0.047603574 -0.07144321 0.12923843 0.027978437
158 -0.16447873 0.0045060962 0.22143525 0.020466713 -0.027310682 -0.056194954 -0.021904802 0.039041027 -0.22530457 0.093870446 0.09783889 0.12727824 -0.14353152 -0.26220468 0.22805244 0.10544474 0.0048628277 0.04407248 -0.121418335 0.11415876 0.024599262 0.100356236 -0.041186795 0.068846814 -0.28303036 -0.07123615 -0.0593599 -0.0665066 -0.07716878 -0.17784989 0.07289659 -0.09195144 -0.078565285 0.010579808 -0.18406251 0.20462611 0.29131606 0.12813427 0.080304116 -0.07216752 -0.13547252 0.238108 -0.002910973 0.07661673 0.04559388 0.20100555 -0.010899224 -0.028954841 -0.045378216 0.13080433 0.009738434 0.16269188 0.1444233 0.11278337 0.12119119 0.21041901 0.16692321 -0.09441295 -0.005791324 0.10159731 0.038299866 0.055454664 0.045578476 0.0600014 -0.05480552 -0.011513847 -0.016665662 -0.08452444 -0.11832843 -0.37052903 0.034752037 -0.14563106 -0.3226151 -0.10941735 -0.1680089 -0.13358857 -0.07778935 0.027594583 0.12910737 0.19029115 0.21944952 -0.11391245 0.14969642 0.39652392 -0.02193273 -0.0069192736 0.36776826 -9.213395e-05 0.21603611 0.05305275 0.022088662 -0.10194213 0.18982156 -0.0380335 0.25221068 0.11175445 -0.17759351 -0.15597242 -0.09810348 0.042104103 -0.15108667 0.17091842 -0.024768503 0.11949097 0.23538406 0.029525582 0.10575366 -0.015358262 -0.100509286 -0.22704181 0.2321119 -0.17775917 0.18666758 -0.056687377 0.045102734 -0.26318175 -0.06104157 -0.07251271 -0.1826943 -0.14996532 -0.09952841 -0.07121197 0.27138832 -0.04125353 -0.070570186 -0.024106843 0.08848932 -0.017450856
99 -0.21549721 -0.42157558 0.15551025 0.31782344 -0.08391605 -0.035761334 0.19965003 -0.1788782 -0.21518083 -0.10156311 -0.1654842 -0.01412707 -0.1451532 -0.20857254 0.1285549 -0.001416066 -0.20247656 0.20856707 0.09634274 0.14487211 0.066019356 0.32218644 -0.17194672 -0.16497289 0.050815605 -0.09144748 -0.09394368 0.29739383 0.19036116 0.05731436 0.015596589 0.17117025 0.014659437 0.06942449 0.11626441 -0.0071982695 0.067415416 -0.043516956 0.16637237 0.035738174 0.033883974 0.3186719 -0.14828722 -0.052195996 0.169115 0.25133803 0.051099528 -0.02017449 0.15994838 0.04639649 0.09712601 0.2658127 0.06683783 -0.019093473 -0.034285612 0.11102192 0.35220358 -0.04590108 -0.06907816 -0.2235211 0.13940948 -0.33280236 0.30186483 -0.2986488 -0.009776829 0.14219263 0.11750914 0.11807114 -0.0010866489 -0.051429253 0.04869114 -0.10542402 0.006882261 0.1349922 -0.14616185 0.11872005 -0.121023886 -0.17248219 -0.09975465 0.09303945 -0.0094459355 0.01984175 0.18790014 0.16489176 -0.10050926 -0.04475076 0.24755861 0.0007110527 0.3186045 0.16179645 -0.20064685 -0.109104246 0.2065996 -0.17700516 0.39962015 0.060972124 -0.15990399 -0.08586987 0.06451395 -0.093163915 -0.13267007 0.19151056 -0.1332313 0.1385487 0.12920542 0.07768021 -0.11516326 -0.2881953 0.061607312 -0.18841884 0.20725186 -0.1716738 -0.09273662 0.13662398 -0.1285319 0.09639378 -0.12585235 -0.24940097 -0.0119113205 -0.061746076 -0.2716109 -0.0026075863 0.23301516 0.09114672 0.021804135 -0.1978147 -0.008041094 0.09239007
190 -0.1036752 -0.22750972 0.15615834 -0.11526555 -0.12248939 -0.047869623 -0.051999934 0.09711879 -0.06967968 0.14784363 0.038440526 0.060786415 -0.18745531 -0.12000631 0.27967736 0.25586456 0.037635423 0.01733686 -0.24163261 -0.08162526 0.13654536 0.05131974 -0.067203775 0.21996312 -0.015976034 -0.040890463 -0.09755155 -0.128625 0.0870391 -0.15809698 -0.09098469 -0.11411628 -0.05407487 0.07568212 -0.18318783 0.13288166 0.4389009 0.03761125 0.26728022 -0.23979324 -0.16046138 0.12813602 -0.1519686 0.21404578 0.0030764907 0.09097853 0.09065467 -0.0014720123 -0.18974487 0.11407838 0.08976374 0.18840308 0.09137161 0.009548585 0.064184226 0.11938487 -0.008505293 0.004712425 0.018657492 0.21776418 0.028875787 -0.023126254 0.061355673 0.14426598 -0.15055805 -0.08662827 0.0053181504 -0.01605016 -0.13600129 -0.33557338 -0.026225604 -0.12638824 -0.31508 -0.041181967 -0.14876868 -0.1730797 -0.0035064525 -0.054499265 0.15853809 0.17235063 0.028201785 -0.23134471 0.18560947 0.40514612 -0.04268616 -0.0074053505 0.37458724 -0.008649323 0.33785573 0.014970186 0.023268037 -0.21569267 0.0494979 -0.19504483 0.28091115 0.09926674 -0.035448357 -0.08169591 -0.20581861 -0.010567657 -0.019919023 0.33286068 0.11151467 0.1990805 0.21950795 0.015232557 0.03231881 -0.05622917 -0.11947013 -0.058073886 0.12959573 -0.11196601 0.09056708 0.03719187 -0.092577316 -0.226549 -0.11188877 -0.09434902 -0.064500645 -0.22832415 -0.077961124 -0.14628367 0.13084386 0.08291583 -0.11708557 0.076927155 -0.11401636 -0.047292273
105 -0.099760614 -0.04350588 0.2126205 0.09833164 -0.041600224 -0.10011847 -0.015279448 0.007049497 -0.23167935 0.14563161 0.118376054 0.04610056 -0.033790383 -0.18059516 0.14021358 0.16265483 -0.2153382 0.14363225 -0.069893874 0.14395493 0.16434789 0.07285554 -0.04539203 -0.105384 -0.20678502 0.11722142 -0.0056410087 0.058573306 0.052551474 -0.15554418 -0.1686666 -0.049743906 -0.032045048 0.0556946 -0.11210761 0.09923968 0.09113 0.071899086 0.057263028 -0.0707703 -0.037372105 0.26805103 -0.06531282 -0.0020816228 0.065630935 0.09975256 -0.11699064 -0.06983355 0.017628932 0.0014504036 0.035716053 -0.078755274 0.030451147 0.049138397 0.057881303 0.2174017 0.1004814 -0.106765985 -0.06080265 0.11524761 -0.015507911 0.030513233 0.18043138 0.111773126 -0.04123677 -0.10147432 0.039011925 -0.050317753 -0.11256364 -0.21966727 -0.19860491 -0.10255265 -0.2678484 -0.11841055 -0.19079088 -0.14698087 0.14774682 0.19465598 -0.009358619 0.08374152 -0.058811475 -0.040409893 0.025443206 0.25484493 0.08439958 -0.056511354 0.34026092 -0.0136601655 0.14870441 0.05278752 -0.06570286 -0.07374237 0.09909497 -0.013962815 0.2269092 0.07190413 -0.15858252 -0.12603718 -0.001178082 0.031053122 -0.06767269 0.077235825 -0.17533459 0.06901189 0.2542192 0.0059653013 0.10622962 0.033924654 0.10984261 -0.31427756 0.11628416 -0.13822645 0.20742135 -0.106264934 -0.09323927 -0.0420261 -0.103275836 -0.07435927 -0.06769349 -0.17396103 -0.16272183 -0.036208294 0.21244931 -0.026019953 0.04186613 -0.053364735 0.029320445 0.00054679706
106 -0.14083634 -0.08788149 0.1858562 -0.17824306 -0.0435986 -0.0051439893 0.0054174773 0.039235618 -0.24367486 0.16156551 0.17478186 0.23902056 -0.031709354 -0.2829644 0.21432486 0.36492348 -0.12963149 0.15960073 -0.40171713 0.10527179 0.099762425 0.031174993 -0.18641165 0.029691098 0.08911412 0.05814175 -0.017711742 3.3032476e-05 0.2541503 -0.2647902 -0.022253463 -0.025115987 -0.050458215 0.10048942 -0.22479618 0.35094297 0.19217172 -0.13303605 0.45980862 -0.036981855 -0.046706073 0.18238595 -0.14891021 0.26196712 -0.12161488 0.09338294 -0.03533008 0.094625294 -0.15815191 -0.14623699 0.20389931 -0.1127822 -0.055166554 -0.031353723 -0.09525413 0.15813486 0.21781015 0.076568194 0.043279152 -0.19084662 -0.14673847 -0.111543395 0.28647706 0.25513577 0.15204778 0.044103753 -0.07287905 0.14127925 0.00045370834 -0.2766726 -0.15083428 -0.052236203 -0.023991238 0.0041460083 -0.091513745 -0.19449759 0.30642107 -0.009908244 0.1321839 0.21659194 -0.18014936 -0.31574386 0.22044286 0.13366458 -0.0915312 0.07346692 0.15287554 -0.027789965 0.31386802 -0.022963997 0.015474984 0.10113151 0.10138464 -0.18143287 0.39352298 0.1801732 -0.12765653 0.174984 0.05968465 -0.20900859 0.23603404 0.08928366 -0.09563441 0.20783341 0.060575016 0.032809082 -0.07590984 0.030208262 0.18464789 -0.13692942 0.0665738 -0.08353838 0.007835632 0.028379658 0.044970367 -0.06327042 -0.051945202 -0.14632009 0.23254935 -0.2718518 -0.09086957 -0.069339775 0.27946204 0.28953242 -0.13085234 -0.14517161 0.030997802 0.14853515
20 -0.008048052 -0.5309862 0.058892563 0.1854792 -0.21797532 -0.09683233 0.038819958 -0.047983088 0.015035559 0.14530924 0.10525404 -0.15050003 -0.2965989 0.031343013 -0.062134992 0.05919922 -0.037121836 0.1067812 -0.044098448 -0.44854277 0.06386078 0.26576853 -0.0066008857 -0.22860426 -0.057073545 0.19371918 -0.06723333 0.23221731 -0.028981201 0.1773292 -0.12321983 0.15768954 -0.18998297 0.23096251 -0.06603471 -0.23441425 0.29512066 0.13439977 0.28697473 0.029171236 -0.25187048 0.3032892 0.06821841 -0.09354952 0.06584317 -0.13916276 -0.19904226 -0.043662652 0.07171017 -0.124596514 0.029883686 0.02577209 0.1478379 0.18947744 -0.12716945 -0.0037021688 0.23920393 -0.049863536 -0.032459687 0.26128727 0.12080205 -0.10336593 0.20196353 -0.3883793 -0.04903788 -0.13573772 -0.11932294 -0.07189473 -0.11997552 -0.3842892 -0.066583276 0.06295056 -0.22414361 -0.08355916 -0.05626961 -0.28954446 0.104814805 -0.0093979705 -0.22535394 -0.06279508 -0.09476166 -0.18210447 0.07292986 0.39580283 0.00908122 0.026018085 0.5983412 0.048286334 -0.04005717 0.15975371 0.033460967 -0.20379779 0.06306674 -0.06841489 0.45071784 -0.068285175 0.21631606 -0.1382866 -0.100789756 -0.06995767 -0.14246354 -0.09626691 -0.071976304 0.28561294 0.40533966 -0.08577852 -0.12593485 -0.23846711 0.16247937 -0.17761791 0.07131036 0.092761666 0.12107161 0.010375125 -0.03540652 0.12491982 0.032468818 -0.032458406 -0.17623366 -0.14712732 -0.07761764 -0.06982843 -0.27150655 0.038404807 0.042869546 -0.018296883 0.030741932 -0.17147
71 -0.027334085 -0.43648356 0.013936809 0.23888133 -0.1328605 -0.014579034 0.024717482 -0.011311118 -0.022225816 -0.0879973 0.11411176 -0.017823549 -0.17939046 -0.02140271 0.075546175 -0.04222369 -0.20560238 -0.08001336 -0.09313277 -0.16083147 0.041629583 0.22776784 0.02599775 -0.22566356 -0.067267336 0.12452805 -0.18309219 0.13049127 0.114886515 0.25545424 -0.19468842 0.10242658 -0.20733674 0.17113034 0.07974697 -0.136229 0.11858614 0.029280405 0.087988384 0.028426073 -0.11811352 0.31753817 0.06774348 -0.016866561 0.056602377 0.10616849 -0.07603267 0.011563142 -0.062456716 0.12524594 -0.018346842 0.17365551 0.06361506 0.023593884 0.0692919 -0.026298638 0.28553438 -0.09414895 -0.0781778 0.029222801 0.03071557 -0.24732736 0.16282564 -0.3406663 -0.07717059 -0.14194043 0.08515693 0.1794343 0.03280593 -0.07392342 0.2140436 0.1433608 -0.23469947 -0.06852318 -0.07095149 -0.1748334 -0.04705788 -0.17516427 -0.1427355 0.057643242 -0.103122786 -0.092973 0.017844535 0.30898342 -0.07041309 0.12644905 0.29015914 -0.053294104 -0.012976865 0.1741802 -0.049777098 -0.09470697 0.12428461 -0.08366438 0.48788023 0.047480475 0.0052967235 -0.23217387 -0.18879181 -0.065303415 -0.3741556 0.09772676 0.05904603 0.2837849 0.07860876 -0.095322244 -0.032116268 -0.22848454 0.012359411 -0.052469015 0.04094092 0.022865983 -0.07246283 0.09508489 -0.10500738 0.11374367 0.16377564 -0.05954578 0.04070627 -0.1168318 -0.18290679 -0.22793877 -0.26449013 0.13109669 -0.11161499 -0.097204804 -0.04030679 -0.09749951
57 -0.1740262 -0.22712494 0.077640384 0.0031978206 0.0031674076 -0.038034268 0.06334808 0.06812301 -0.14600952 0.14344418 -0.028005803 -0.046365034 -0.11802495 -0.18994915 0.3463424 0.100446194 0.1175051 -0.087631 -0.14157908 -0.041804552 0.23705736 0.13414404 -0.23696975 0.21750358 -0.15588501 0.06783457 -0.080008894 0.025854647 0.039575823 -0.12948388 -0.19364297 -0.09731245 -0.046592675 -0.07279022 -0.25346538 0.21170488 0.19709823 -0.060449235 0.1781869 -0.19703592 -0.17216074 0.21794118 -0.14478508 0.17617725 0.11376716 -0.09646142 0.039367504 -0.04183391 -0.13099976 -0.07653576 0.16926537 0.2032942 0.056253344 0.04535664 0.060438786 0.12834601 0.096376084 0.08406241 -0.090954676 0.23477316 -0.110461615 0.01657234 0.15487707 0.24084815 -0.047573 -0.022730056 -0.027740007 -0.11199947 -0.17772968 -0.23370579 -0.17799711 -0.1816261 -0.3490741 -0.110158816 -0.25531155 -0.10510082 0.10895099 0.1490638 0.14930424 0.28273788 -0.0633748 0.022857387 0.15025178 0.19479884 0.079681866 -0.14300452 0.22625487 0.0015820971 0.108424 -0.0291244 -0.12048762 -0.11660024 0.036489427 -0.08843825 0.23174183 0.11941527 0.055728283 -0.13816062 -0.18429041 -0.08404904 0.035114817 0.16175757 0.012617782 0.08206278 0.30282772 -0.00430165 -0.0935959 -0.06407745 -0.06668988 -0.104798116 0.15064317 -0.0645065 0.1983118 0.13782308 -0.19851321 -0.16476808 -0.14843865 -0.2236247 -0.051037908 -0.15966035 -0.014346366 -0.18764189 0.08333592 0.000690854 -0.07304823 -0.054562863 0.0550563 -0.11881699
35 -0.16871423 -0.060682096 0.33213162 0.09104235 0.0270097 0.028296577 0.028247595 0.058703188 -0.29667157 0.20330131 0.09227434 -0.012322845 -0.09955286 -0.29545534 0.17316735 0.05547602 -0.13446732 0.06785837 0.0018505987 0.1677378 0.048328727 0.074269295 -0.17041399 0.019698806 -0.38808975 0.054973703 0.027061561 0.10116212 -0.08716791 -0.21531408 -0.12782831 -0.10267594 -0.10094784 -0.004077222 -0.10356353 0.15788308 0.06736835 0.104621254 0.048912268 -0.11307394 -0.17742725 0.26951075 -0.11692978 0.046757422 0.10780026 0.10256231 0.011924101 -0.12853439 -0.07783658 0.0704982 -0.019750196 0.13741407 0.13516788 0.051790196 0.10553397 0.19078727 0.16909525 -0.054717395 -0.011168695 0.12614682 -0.07792542 0.03868368 0.15730207 0.09244006 -0.02104338 -0.048571687 -0.08860933 -0.14100966 -0.2097494 -0.19531377 -0.17343007 -0.029201677 -0.2694005 -0.100611955 -0.31253204 -0.15319075 -0.010192349 0.0287988 0.10046342 0.22486258 0.07891524 0.073916554 0.06264725 0.3298978 0.019175228 -0.13667898 0.37667853 -0.012875092 0.07164117 0.02232832 -0.087291405 -0.14714347 0.18007231 0.090942934 0.23279594 0.22423162 -0.12854315 -0.0904903 0.0061863344 0.106332086 -0.043797534 0.11769608 0.0037307837 -0.009483569 0.27631587 0.025308112 0.09148848 -0.024090307 -0.020171199 -0.38286695 0.11057908 -0.114336826 0.23747109 -0.1665547 0.016518742 -0.06301919 0.0028182566 -0.08225948 -0.15440078 -0.12399023 -0.16668701 -0.024570862 0.19203937 0.006461396 -0.060594555 -0.084163114 0.073517784 -0.010568045
97 -0.043296415 -0.20707954 0.058378506 -0.20079659 0.009366699 -0.17841429 -0.03378439 -0.10607064 -0.14149003 0.111539245 0.2567651 0.011176616 -0.12081635 -0.12308859 0.20823486 0.035388097 0.11033562 0.14577068 -0.14368185 0.020133471 0.16554242 0.24643753 -0.3775787 0.11221124 -0.05230529 -0.015479568 0.00385724 0.18457846 0.15675485 -0.13920167 -0.069769256 -0.076624945 0.088696934 -0.007119079 -0.099017195 0.38146788 0.22190148 -0.105416015 0.13678935 -0.054296844 0.017273232 0.08485531 -0.07911201 0.096223444 0.06941557 0.039677255 -0.18382758 0.0035296082 -0.21469933 0.10849793 -0.005459079 0.18986754 0.26566124 0.09040261 -0.067767754 0.08268157 0.16595869 0.08752834 -0.0052069155 0.062957495 -0.07290276 0.015604713 0.12978765 0.16060877 0.040518567 -0.076081544 0.08369078 0.17494361 -0.16954352 -0.14226118 -0.0008773222 -0.21886232 -0.2394385 0.018904643 0.09396197 -0.12618093 -0.1411481 0.3158679 -0.02113516 0.29497153 -0.17153773 -0.20715012 0.09370625 0.34765482 0.19760042 0.12637304 0.20485197 -0.23586214 0.08460277 0.06442697 0.03848854 0.01229015 0.21774618 0.03624129 0.26427293 0.3265454 -0.40905935 -0.3554771 -0.05631621 -0.17737165 -0.09514873 -0.109036535 -0.048601974 0.020400487 0.3760897 0.11212097 0.072311886 -0.088387184 -0.038606964 -0.13507974 0.07441828 -0.15955575 0.2976275 0.19567156 0.06239158 -0.15982987 -0.06379085 -0.07906043 -0.025028648 -0.2331445 0.0017050412 -0.10494488 0.20515905 0.04624609 -0.087860346 -0.32903722 0.22566716 0.007941626
109 -0.07458447 -0.2732195 0.16939941 -0.06606416 0.15869138 -0.06194053 -0.07716022 0.032128256 -0.01351539 0.14780053 0.09404737 -0.006001796 -0.017097289 -0.17755987 0.2569657 0.05655156 -0.08410075 -0.041691914 0.041054994 0.1261374 0.3229709 0.18960786 -0.22257961 0.13020375 -0.35718736 0.26296127 0.23751372 0.21987861 0.11445684 -0.12935896 -0.184023 -0.22045958 0.014818088 -0.12521906 -0.08133202 0.23916213 -0.006891239 -0.12113623 -0.04201355 -0.2823458 0.008217103 0.122014254 -0.28231665 0.1225067 0.20569964 0.19138776 -0.110593155 -0.013724153 -0.15790246 0.10955969 -0.15652896 0.25604552 0.15613773 0.0052641956 -0.086748905 -0.0011409342 0.14165302 0.056216393 0.03913799 -0.03551767 -0.15194817 -0.018308565 0.16979557 0.28954992 0.09854264 -0.16667803 -0.122973286 0.12189147 -0.15866095 -0.0067516174 -0.1580128 -0.20295878 -0.37523636 -0.11903268 -0.197493 -0.10781726 -0.10506242 0.3808039 -0.13402355 0.32350388 -0.16509448 0.1043812 -0.07761554 0.33246475 0.28373012 -0.047261126 0.3251007 -0.14522365 0.12704717 0.114001356 -0.08389087 -0.15772924 0.2841731 0.03895664 0.17780255 0.33724776 -0.35395288 -0.28155205 -0.05244857 0.082222655 -0.15515274 0.17883694 0.030900553 -0.015918348 0.2771741 -0.18540749 -0.124174826 -0.056323465 0.045866795 -0.26156265 -0.08729776 -0.20750494 0.17571013 0.15348472 -0.08033841 -0.04124592 0.00011859073 -0.018500954 -0.026945084 -0.2715313 -0.08199271 -0.1324814 0.21473014 -0.023914024 -0.13261656 -0.3110112 0.08921691 0.07903015
73 -0.027005672 -0.2508977 0.17182985 -0.02061982 0.01941748 -0.087613255 -0.0972866 0.016294286 -0.0062297415 0.1379259 0.23456916 0.051727097 -0.02838718 -0.01511778 0.29599106 0.026673198 -0.30139518 -0.15566592 -0.1117044 0.1714302 0.29588586 0.044058077 -0.19127959 -0.082879476 -0.064884275 0.28076535 0.1307421 0.110252686 0.19258374 0.024724292 -0.23568505 -0.13502192 0.004581756 0.059156306 0.03510757 -0.011210633 0.023645503 -0.10682969 0.024143947 -0.16571027 -0.020287814 0.11972219 -0.24385285 0.044426102 0.15583114 0.1782852 -0.1262484 -0.0028930074 -0.055922214 0.260131 -0.045698106 0.13277318 0.049829345 -0.06755297 0.06917311 -0.04355084 0.07857725 -0.02372874 -0.065532446 -0.0994754 -0.12314011 -0.023672441 0.18052268 0.008786502 -0.028915863 -0.13044617 0.060307562 0.20396835 0.06537336 -0.123947926 -0.06714062 -0.09984183 -0.27751136 -0.08897635 -0.117203735 -0.15113446 -0.017088499 0.2195673 -0.16801704 0.20377386 -0.21134745 0.054150905 -0.06659225 0.31851014 0.0424454 -0.009838809 0.3404029 -0.07065657 0.15853171 0.16566066 -0.014700867 -0.11005433 0.060413685 -0.0926554 0.2825135 0.25669336 -0.31643736 -0.17700943 -0.057190925 0.015670557 -0.25485122 0.19339176 0.072029546 0.05372086 0.1526642 -0.15181082 -0.060034145 -0.06868101 0.0828071 -0.14086862 -0.04100512 -0.20172203 -0.013619411 0.09674251 -0.13277276 0.07858847 0.05632534 0.020935738 0.039183773 -0.19424222 -0.13492876 -0.081049375 0.08227869 -0.051868327 -0.08218838 -0.16190597 -0.10022569 0.13265453
85 -0.19133191 -0.30608386 0.020233817 0.33406016 -0.1934988 0.08080938 0.13426392 -0.00027751763 -0.21350712 -0.30780616 -0.08431622 -0.019219331 -0.066696495 -0.13440748 0.25514013 -0.002096777 0.022352487 0.015402499 -0.18015344 0.036229227 -0.004079948 0.17457244 -0.046453346 -0.1676635 -0.16802976 -0.083812684 -0.25988442 0.059218936 0.12734176 0.18144217 -0.10015039 0.08985826 -0.15168454 -0.051564366 0.09423974 0.05517322 0.018200358 -0.03134746 -0.09641455 0.033190414 -0.14385782 0.28495276 0.03797524 0.090868056 0.032466922 0.18597436 0.09052675 -0.041848723 -0.12338886 0.057306755 0.1921026 0.18322726 0.22419205 -0.08496069 0.14907764 0.17319934 0.3189864 -0.122762986 -0.0735419 0.17249203 -0.020122249 -0.211638 0.050083496 -0.3013337 0.06288365 0.09084766 0.09917078 0.027513208 -0.03924769 0.009189511 0.11067702 0.01939021 -0.14806558 0.032584377 -0.0881086 -0.0887472 -0.07431178 -0.22268018 -0.05818621 0.17729965 -0.021836217 0.069305845 0.124747604 0.21078777 -0.09092549 0.22245154 0.21997517 -0.102142535 0.2067527 -0.02077719 -0.06570272 -0.050099347 0.40352052 -0.06182183 0.32699105 0.112209514 -0.13923107 -0.19906998 -0.20411187 -0.069150485 -0.43380448 0.18987161 0.009974336 0.33731467 0.04461753 -0.059580892 -0.09277826 -0.23025759 -0.013047978 -0.23849796 0.26680344 -0.25471148 -0.18871674 0.20018338 -0.13242228 0.116995536 0.110729046 -0.10305143 0.04475061 -0.08695816 -0.22088672 -0.22518551 -0.06519119 0.27622214 -0.0806235 -0.109307736 -0.03111615 0.09572799
107 -0.123540506 -0.07426491 0.26817372 0.009715606 -0.015201419 0.041302357 0.026428374 0.00029686792 -0.25153705 0.15028079 0.2858454 0.1565947 -0.069509596 -0.19878778 0.26628458 0.22090095 -0.17539087 0.058522232 -0.28731313 0.104884066 0.23037522 -0.015555303 -0.12444017 -0.08258144 -0.051992927 0.12728164 0.014581566 -0.025852103 0.11871402 -0.22269227 -0.1477793 -0.01199141 0.0006584042 0.06616396 -0.121703066 0.23835933 0.24747927 -0.021394247 0.28569266 -0.07217818 -0.0134381065 0.19182359 -0.1203993 0.1362841 0.031129582 0.10341797 -0.07364202 0.010661867 -0.10741444 0.03561325 0.14830457 -0.039103754 0.04853157 0.03315354 -0.02481756 0.05461719 0.06568607 -0.043801144 -0.032437693 0.027833655 -0.048781797 -0.032793544 0.14252226 0.21624495 0.047837038 -0.06614893 0.067559205 0.084901735 -0.06031977 -0.28844056 -0.19098699 -0.103681765 -0.16266192 -0.036772527 -0.08665169 -0.21878484 0.11579552 0.02825634 0.05720977 0.051169373 -0.119070515 -0.20471245 0.120175205 0.1982584 -0.012252612 -0.001334563 0.31783193 -0.051747482 0.30675185 -0.057584703 0.060153052 0.015095158 -0.017057775 -0.12395869 0.08988505 0.056859635 -0.15024702 0.057176005 -0.04803145 -0.104691625 0.065996215 0.13822299 -0.106793396 0.15335096 0.089528896 0.036630895 -0.0017606243 0.08071179 0.15164848 -0.17406267 0.15795729 -0.12776142 0.0908259 -0.057706703 -0.053316567 -0.124594696 -0.06260041 0.058578484 0.1091429 -0.17359838 -0.06346286 -0.023299947 0.2401289 0.09605805 -0.06721346 -0.041636035 -0.008413502 0.087372296
49 -0.29811162 -0.14436845 0.09972403 0.0055342778 0.021173557 -0.122965656 0.13957793 -0.007826816 -0.1835469 0.18932536 0.3075995 0.1543442 -0.012455784 -0.1932163 0.2648161 0.2620214 0.01655615 0.10542731 -0.27553624 0.075330526 0.08225829 0.029284362 -0.17778982 -0.021099402 -0.055532716 0.14818695 -0.20791394 0.012509231 0.14509287 -0.23674469 -0.19000837 -0.046046183 0.0077404813 -0.007634138 -0.12108461 0.15852137 0.2739464 -0.1432762 0.26344708 -0.011934189 -0.10509423 0.084001355 0.021808926 0.06999796 -0.0065375804 -0.0711217 -0.052888967 -0.030428948 -0.03208991 -0.1100757 0.23374902 -0.010293088 -0.060160886 0.041705932 0.09673158 0.1947807 0.056656595 -0.030251786 -0.16383056 0.054699656 -0.13420103 0.02804559 0.17352928 0.21877846 0.087720394 0.07159123 -0.14409783 -0.0063863792 -0.1598562 -0.23159663 -0.13970242 -0.18118054 -0.30575627 -0.10610452 -0.062440686 -0.22081669 0.22942455 0.12357881 0.35633436 0.2683794 -0.113287434 -0.20853613 0.06566458 0.10698661 0.12406999 -0.037567332 0.1946384 0.033714868 0.1782139 0.0014256133 -0.071636744 0.14155017 0.11362667 -0.2228023 0.35159087 0.18198799 -0.035578962 -0.0008185506 0.18924235 -0.21213266 0.12675339 -0.00094825367 -0.20936286 0.01759047 0.06331879 0.045631602 0.036432635 0.06750084 0.13404314 -0.04541461 0.24063206 -0.07103608 0.14701931 0.11268442 -0.18310939 -0.17011264 -0.13825771 -0.19826922 0.12859422 -0.16805466 -0.10982611 -0.0135862995 0.32745135 0.08299793 -0.08388558 -0.12987381 0.12748304 -0.10871322
216 -0.14457363 0.23671332 0.278344 0.14091161 -0.018017212 0.25425503 -0.03032768 0.0075254063 -0.4500982 0.259204 0.26350343 0.076313846 -0.022271087 -0.43579867 0.24962354 0.41438758 -0.24353646 0.012710737 -0.03248685 0.03365221 -0.029049909 0.10514884 0.030373696 0.11741929 -0.36767158 0.0734903 -0.092299886 -0.1369335 -0.021747358 -0.09460949 -0.1029977 -0.08251739 -0.09958623 0.04972236 -0.27945787 0.34710988 0.3980509 0.080716364 0.26497996 -0.11460687 -0.111222096 0.34926963 0.0072607207 0.11402635 -0.005947038 0.22937031 0.059261218 -0.053844746 -0.12459046 -0.053452913 -3.7264177e-05 0.017560411 -0.019002993 0.038591743 0.11588301 -0.11330051 0.22035256 0.0032079439 0.0041106245 0.14895372 -0.04966638 -0.1466184 -0.066917084 0.09973085 -0.053964943 -0.15486999 0.32338455 -0.00017699786 -0.0144656645 -0.3005966 0.082500845 0.096102595 -0.333574 -0.14058197 -0.308081 -0.30789053 -0.05560796 -0.06420739 0.09090869 0.10845213 0.060771815 -0.23608913 0.23005207 0.50266945 -0.10115827 -0.01464417 0.190246 -0.08545733 0.3519613 -0.02090747 0.005115694 0.15852714 -0.050980803 0.17016312 0.19969375 -0.08344903 -0.15132903 -0.072807394 -0.24748544 0.10551085 -0.07448526 0.42765662 -0.058840323 0.15613598 0.038661417 0.21551692 0.22942066 0.110060275 0.03520711 -0.2750825 0.22188702 -0.06992888 -0.059083182 -0.19183038 0.24646974 -0.25873917 0.20523795 -0.056549467 -0.0057884813 -0.1698093 -0.10544947 -0.2033649 0.10583378 0.110535644 -0.19228998 -0.31327692 -0.26282653 0.12391363
98 -0.16757527 -0.017501827 0.27725574 -0.08193715 -0.06519374 -0.15431795 -0.052873004 0.011863671 -0.094722845 0.1405695 0.27585918 0.24589184 -0.14398523 -0.21002406 0.19168207 0.11831931 0.04278093 0.051605698 -0.28354588 0.07653656 0.029907418 0.051395647 -0.11337926 0.03626422 -0.062112555 0.0022256542 -0.0683723 -0.029318955 0.024389818 -0.3192891 0.07005726 -0.03618619 0.014101879 0.017728409 -0.123254776 0.23181963 0.34965712 -0.0067758765 0.07143924 -0.055764977 -0.1510257 0.22602019 -0.018193318 -0.004298365 0.032517873 0.19176793 -0.14418763 -0.11840723 -0.07756792 0.14577742 -0.011039906 0.20038323 0.16363531 0.07174394 0.044220913 0.23099396 0.14088963 -0.06034391 -0.08313814 0.035255145 0.027041577 0.050584514 0.08412369 0.036445074 -0.034427583 0.03165198 -0.013802211 -0.055002086 -0.099454716 -0.28222203 0.05356484 -0.16277221 -0.2382549 -0.107663155 0.005031289 -0.12644778 -0.07285577 -0.038797162 0.23335283 0.21724963 0.21157537 -0.27447215 0.09479386 0.3937586 -0.0511505 0.07873518 0.2248365 0.029317746 0.1967245 0.09577281 0.018043874 -0.038009226 0.2645595 -0.09707463 0.2451702 0.14676487 -0.2313161 -0.13921683 -0.026098674 -0.040185444 -0.14419429 0.102350816 0.048102897 0.12535794 0.13222483 -0.007813126 0.13085033 0.06292772 -0.03243035 -0.15803975 0.24531807 -0.28498212 0.16692051 -0.035287008 0.01763067 -0.22178033 -0.14242746 0.005093591 -0.14185737 -0.1773773 -0.075145304 -0.09907637 0.2628559 0.012143209 -0.1676943 -0.09813107 0.106262185 -0.121400975
15 -0.2213133 -0.55288476 0.15066187 0.22751714 0.1678047 0.050052334 0.16943231 -0.03467651 0.11827322 0.09389499 0.059094217 -0.094340675 -0.24119796 0.00029465262 -0.18316713 -0.16499667 0.09678217 0.111707516 0.03558262 -0.34119236 0.07992782 0.2814079 0.07300744 -0.16036332 -0.102551244 0.35441864 0.049263086 0.17155968 -0.16353731 0.09537842 -0.04161801 0.09263397 -0.07888089 0.16199957 0.015666185 -0.26112553 0.2849677 -0.06094413 -0.07804752 -0.05461033 -0.29090023 0.17156261 0.09236785 -0.2026683 0.21548498 -0.1304526 -0.22487116 -0.046001073 0.21934767 -0.021651229 -0.10445552 0.39448053 0.057721507 0.25561747 -0.19033356 -0.004069367 0.33216044 -0.09874357 -0.1044967 -0.032646865 0.080944 -0.1442733 0.36366108 -0.24565531 0.005502295 0.026835296 -0.19277997 -0.1000308 -0.057394918 -0.4404367 -0.05109841 -0.19956493 -0.32072565 -0.14799365 0.008453308 -0.21706936 -0.06559501 -0.020477913 -0.022357881 0.07222035 0.1483213 -0.081744775 0.08422795 0.43735614 -0.016957952 -0.114369676 0.55156624 0.15444751 0.028879605 0.28679937 -0.056224484 -0.18259436 0.14179099 -0.13609862 0.47484848 -0.009623 0.23344249 -0.24006134 -0.005410889 -0.076609306 -0.1773064 0.022046125 -0.25088456 0.1027808 0.3794808 0.10411686 -0.21809392 -0.1026966 0.08693496 -0.055042535 0.21562119 -0.11448071 0.042560775 0.022877423 0.017344734 -0.0758873 -0.04115779 -0.22467028 -0.0073029166 -0.02736949 -0.11079883 -0.06687704 -0.1258784 -0.042553384 0.10113599 -0.11652586 0.057407655 -0.14695705
46 0.022727873 -0.10721206 -0.022827387 -0.012557601 -0.14387314 0.04018266 -0.067245916 0.14044318 -0.06879729 -0.14287841 0.090215035 0.19285432 0.06290148 0.11340965 0.11181783 -0.00460537 -0.28557506 0.18252163 -0.32900628 0.10914944 0.27774167 -0.041757092 0.2318902 -0.29538828 0.038245033 0.06628398 0.12929289 -0.044826727 0.24893458 -0.06251899 0.08655282 0.028716901 -0.21294083 0.26292074 -0.12435383 0.091067955 0.11844488 0.1740229 0.19893275 -0.06062845 0.12184611 0.2590711 -0.089487396 0.20996341 -0.059892666 0.14969584 -0.12044821 0.09174679 -0.021837914 0.114697866 -0.0031051005 -0.074873686 0.056513716 0.04503674 -0.010539129 0.20270939 0.22891355 -0.056039207 0.07137123 -0.21733052 -0.027868593 -0.06480762 0.32611775 0.124441005 -0.040255073 -0.11864125 0.0096281385 0.23979309 0.21843033 -0.41178876 -0.11964687 0.037581515 -0.1544164 -0.16276322 0.013517376 -0.23867968 0.42165148 0.02797968 -0.054406926 -0.0060000457 0.13689086 -0.22030602 0.18314078 0.06699865 0.10165049 0.026036702 0.1737923 -0.076472506 0.0914325 -0.100718535 0.1306959 -0.15872578 0.055405352 -0.22317629 0.48523512 -0.12062543 -0.09655219 0.020587707 -0.20378695 -0.063268915 -0.2280355 0.02120917 -0.2898997 0.4105811 0.19927353 -0.015981877 -0.17235057 0.042170513 0.090715945 0.012704819 0.0028509519 -0.05634162 0.05080717 0.047168467 -0.20136586 0.20314382 -0.09604976 -0.03275656 0.33327278 -0.27388683 -0.2519224 -0.010685394 0.0921764 0.22593054 0.0008655666 0.088669226 0.119075164 0.088211924
184 -0.09972122 -0.19962579 0.2342307 0.11591945 0.076347 -0.018030638 -0.013899105 0.008907952 -0.16937163 0.07990273 -0.13283338 -0.06859599 -0.019520994 -0.18887389 0.11615331 0.051432125 -0.24330755 0.024623655 0.11611639 0.22790621 0.28248543 0.18696569 -0.1593274 0.038493015 -0.4761002 0.13966125 0.13602236 0.22631024 0.050814502 -0.21390983 -0.24150969 -0.15309153 0.01911148 -0.08619864 -0.020914255 0.1418338 -0.16244173 0.17147917 -0.09380731 -0.15660445 -0.10508237 0.32293755 -0.27653012 0.08808764 0.16393852 0.19133984 -0.041447833 -0.14792249 -0.07541436 0.09534436 -0.13127844 0.21027303 0.13286234 -0.025800943 -0.07859971 0.21741082 0.13120206 -0.15556422 0.041261278 0.053018965 -0.042703353 -0.010467098 0.2691442 0.22290611 0.009429895 -0.16663137 -0.12214322 -0.056140978 -0.24550882 -0.07444765 -0.32541156 -0.14113061 -0.3259899 -0.12014918 -0.3068736 0.03657023 -0.022598082 0.27201638 -0.074420765 0.24749325 -0.0767873 0.18055543 -0.04618551 0.2786195 0.21647067 -0.1761006 0.4397498 -0.07026558 0.09411443 0.02581407 -0.12124091 -0.28433013 0.31209818 0.0283668 0.29318306 0.2665416 -0.26120353 -0.22430065 -0.034753747 0.118509844 -0.06479157 0.16591302 -0.0033948787 -0.08890887 0.34897617 -0.13143843 0.09174931 -0.07635872 0.059155993 -0.47030962 0.027793698 -0.11701855 0.32357344 -0.1605939 -0.14912388 0.018418508 -0.10908848 -0.034179673 -0.12140724 -0.2502568 -0.24795432 -0.049823955 0.22396865 0.064570025 0.018552901 -0.101250164 0.0059393845 0.11512196
211 -0.10937736 0.016501743 0.11339873 -0.054230567 -0.047715504 -0.03266581 -0.062086828 0.10100907 -0.116364814 0.18505612 0.004682711 0.1640641 -0.13825081 -0.16954917 0.16313426 0.2695285 0.03213348 0.04240008 -0.2102334 -0.03753002 0.1130282 0.048122052 0.0050823656 0.27069688 -0.10232277 -0.036739986 -0.12932596 -0.09406706 -0.0060115084 -0.256894 -0.013887717 -0.08853284 0.040368218 -0.02770476 -0.16399531 0.20882803 0.41002545 0.04948484 0.19247894 -0.22314264 -0.14407463 0.21012305 -0.092679456 0.10644813 0.030301742 0.11145996 0.021633165 -0.0077795647 -0.17456856 0.13165882 0.056954425 0.25670046 0.10246206 0.012949857 0.013497487 0.14810087 0.07808568 -0.039751865 0.024825841 0.20354843 -0.012442736 0.02325081 0.006225388 0.25145218 -0.15739116 -0.10368595 0.05309363 -0.06603235 -0.1883337 -0.3311335 -0.02593761 -0.14035581 -0.36146352 -0.09950894 -0.18984576 -0.16348225 -0.032988794 -0.00088921946 0.20134716 0.24590115 0.14000325 -0.33225268 0.17703669 0.4602328 0.012204243 -0.04668422 0.37414306 -0.008347892 0.35701516 -0.02413114 0.017252462 -0.22918485 0.13962486 -0.18088008 0.2854705 0.03977941 -0.0661881 -0.12060175 -0.17742217 -0.008011452 -0.023090655 0.351581 0.050284125 0.23600721 0.17199054 -0.0030618706 0.12307463 0.036420245 -0.17736346 -0.08343587 0.20689055 -0.15124512 0.10500086 -0.080424495 -0.03215805 -0.34406403 -0.08304202 0.025203053 -0.09884974 -0.26770684 -0.08641567 -0.17034338 0.15539163 -0.0023800358 -0.15043665 0.044868924 -0.06645067 -0.101095416
26 0.0052882642 -0.1471471 0.18422903 0.18892467 -0.03996227 0.031530906 0.0020917712 -0.05678817 -0.1629179 -0.09354906 0.3017173 -0.053891353 -0.053371824 -0.033511546 0.20476167 0.10104279 -0.26390034 0.17413789 -0.10414598 -0.048609726 0.33660218 0.034109518 -0.11705647 -0.26930228 0.08033232 0.11275007 0.014185838 0.115001544 0.29063 -0.122258104 -0.2483772 0.19675398 0.1913752 0.122496255 0.043776926 0.13039556 0.32375222 -0.027417803 -0.007823958 -0.16601172 0.08490692 0.30871886 -0.060008235 -0.01814917 0.19338061 -0.008382506 -0.1524832 -0.21875547 -0.06070507 0.069195606 0.16758697 -0.015941521 0.16207902 0.07093363 -0.0706885 0.13375348 0.18471001 -0.06069286 -0.13001755 0.16235168 -0.025193369 -0.17899485 0.23319812 -0.040405735 -0.09425465 -0.092487566 0.3137546 0.042176444 -0.09939486 -0.030076342 -0.1305235 -0.013489068 -0.1709185 -0.031417258 -0.06505323 -0.20026065 0.0747842 -0.04698 -0.033258628 -0.02755385 -0.10666016 -0.18864733 0.09312885 0.026997665 0.14008507 0.041897405 0.14373843 -0.13359496 0.121697016 -0.10142616 -0.17003226 -0.024656083 0.05870997 -0.10749784 0.06515159 -0.047319207 -0.017295673 -0.059377227 -0.20814215 -0.13350584 -0.057632875 0.051146466 -0.13319007 0.1291668 0.17143473 0.12232943 0.017782278 0.0015056841 0.11910568 -0.21942356 0.25405994 -0.113084994 0.031720363 -0.07932863 -0.15764931 0.17883809 -0.13470745 0.1290424 0.13941114 -0.129249 -0.18738717 -0.18711413 0.0007843373 0.08759109 0.08527204 -0.11887891 -0.069381304 -0.04252735
157 -0.0051973956 -0.09464302 0.21586107 -0.00041103846 -0.06695245 -0.15697208 -0.0982012 0.10009294 0.1214513 -0.039545637 0.3672472 0.2830839 -0.12430223 -0.07091063 0.27195293 -0.016592681 0.03287073 -0.0037114448 -0.3666632 -0.021080757 0.104344636 0.13358158 0.10754989 -0.09012765 -0.17533188 0.06867274 0.10322734 0.021654574 0.15160863 -0.14681984 0.26517072 0.024895137 -0.25376207 0.040323112 -0.24490874 0.18605138 0.41738045 0.18536562 0.078350835 -0.036567908 -0.078223385 0.23233496 0.105185024 0.033876937 0.046457797 0.24052733 -0.121953495 -0.07811964 -0.008758609 0.118798204 -0.063553415 0.1461247 0.15888615 0.16233972 0.02202008 0.09218797 0.2748775 -0.12726493 -0.15997441 -0.17505717 0.050277952 0.08636529 0.033442564 -0.07401717 0.06581461 -0.08541003 -0.1104377 -0.047471106 0.0017831392 -0.34285957 0.12706909 -0.011238336 -0.41580582 -0.19407918 0.078557834 -0.18766741 -0.041634217 0.12128047 0.15551057 0.13356914 0.4052456 -0.27946436 0.13204226 0.27511305 0.18287182 0.14566083 0.047280747 0.036119655 -0.0548134 0.079728566 0.15850414 -0.020898448 0.23394114 -0.1026392 0.29734147 -0.03179173 -0.062426772 -0.16469194 -0.08933087 0.024780525 -0.2579932 -0.08092081 -0.11349699 0.19206147 0.18008658 -0.21859086 -0.042620182 0.108084 -0.017023796 0.050060567 0.277199 -0.13587277 0.18600422 0.06602733 0.016875295 -0.03218967 -0.1878627 0.004697381 -0.033150706 -0.093424834 0.012391452 -0.01731979 0.05911051 -0.007856229 -0.16437796 -0.18790817 0.15191755 -0.16598949
89 -0.09889163 -0.024291772 0.13463794 -0.009577332 -0.09156594 0.006432803 -0.03943549 0.062501244 -0.3094251 0.13968347 0.11179664 0.16376168 -0.078698196 -0.25630334 0.19793293 0.23930408 -0.032299645 0.07308921 -0.32247424 0.022472212 0.10782458 0.04527183 -0.04473598 -0.022639612 -0.072244935 0.03030872 -0.04113678 -0.0904911 0.041334677 -0.18120354 -0.028465688 -0.014961471 -0.06135594 0.037896927 -0.20244959 0.28950617 0.19164899 -0.06455621 0.30825782 -0.04452014 -0.041134506 0.14908078 -0.048865367 0.17625853 -0.057013217 0.077397875 -0.096629746 0.103083104 -0.18010315 -0.005757849 0.22499925 -0.04597837 0.06934449 -0.00427079 -0.025747987 0.13292228 0.17094229 -0.039165832 0.042636238 0.1012339 -0.10627674 -0.012724753 0.09738713 0.16055006 0.094271176 -0.053613063 -0.038092136 0.090497166 -0.071066186 -0.32384408 -0.13272673 -0.074058585 -0.080923006 -0.09559856 -0.09827154 -0.18403524 0.16884933 0.0032559065 0.06584716 0.15452772 -0.10762164 -0.19903895 0.12021948 0.30403432 -0.075359136 0.08237973 0.4340096 -0.060182203 0.30615744 -0.06667178 0.04450348 -0.05674933 0.16523954 -0.12707992 0.2104328 0.15332292 -0.112533875 0.025901021 -0.0972446 -0.17970072 0.13642019 0.08516156 -0.030827992 0.23740491 0.15973586 0.010924975 -0.03864389 0.059441004 0.13659091 -0.19307098 0.11048301 -0.15326439 0.06560332 0.0091010835 0.017554138 -0.13712625 -0.052032437 -0.043126285 0.11268354 -0.18358083 -0.03259405 -0.116042264 0.2365813 0.13620524 -0.040064182 0.028539665 -0.0004478044 0.053388573
213 -0.2112758 -0.18441106 0.18476848 -0.10069915 0.011849705 -0.09007326 0.07585199 -0.042910658 -0.39378658 0.24366625 0.14180157 0.15450776 -0.12689947 -0.2668195 0.35601607 0.31330484 -0.03840396 0.053942066 -0.28886896 0.16680121 0.014396586 0.16198047 -0.2390107 0.13967001 0.08465388 0.016318042 -0.1349111 0.020512894 0.14764678 -0.33083338 -0.13301887 -0.086272344 -0.027632838 0.031809457 -0.30740926 0.37774807 0.26342764 -0.1255708 0.53189015 -0.046485398 -0.023305885 0.114200816 -0.109742545 0.18067314 -0.0132677285 0.06901583 -0.0021677255 0.076718904 -0.17975004 -0.105561286 0.34053862 0.075150445 -0.03653722 -0.09541821 0.07045708 0.23182881 0.11735721 0.10686306 -0.037024017 -0.0549817 -0.13322182 -0.05362239 0.26385742 0.30098307 0.10654428 -0.009025392 -0.10228357 0.1155462 -0.111823596 -0.25604972 -0.17068076 -0.12763634 -0.19234022 -0.008246771 -0.18517794 -0.20062022 0.19844554 0.07022798 0.22906652 0.25454304 -0.27410355 -0.13179782 0.1751442 0.12496765 -0.032111555 -0.032909904 0.16659641 -0.08896522 0.30801138 0.012353567 -0.0591843 0.098648824 0.035082266 -0.18140055 0.35489094 0.25925836 -0.074521996 0.10138003 0.16677849 -0.26051864 0.20333137 0.07314861 -0.06705246 0.12600538 0.024331644 0.08061257 -0.09902864 0.023349361 0.009554784 -0.07873003 0.07927626 -0.057063203 0.07461821 0.16456968 -0.10257019 -0.24493401 -0.16432296 -0.29599378 0.1615516 -0.1981614 -0.05821008 0.014247308 0.35083377 0.110450365 -0.15634018 -0.13160323 0.14328769 -0.010813936
79 -0.27381095 -0.4194098 0.15097749 0.36021212 -0.33333042 0.19624269 0.15927155 -0.12856522 -0.31038022 -0.23676197 -0.136929 -0.013283792 -0.0579456 -0.037589174 0.40502542 -0.09935496 0.3356304 -0.13736731 -0.60998833 0.06964104 -0.014936607 0.13472381 -0.108486354 -0.21983597 -0.036595214 0.18067321 -0.18257707 0.1595446 0.09218093 0.11372441 -0.093959026 0.08315144 -0.26035818 -0.2459396 0.034585726 0.056238934 -0.10827707 -0.22434448 -0.27145785 0.15457338 -0.31534246 0.1316667 0.25055492 -0.06349952 0.1598607 -0.020263413 0.027828049 0.03714182 -0.08148799 0.0396032 0.49217007 0.067203745 0.2494603 -0.21628653 0.3342641 -0.0077903694 0.4806446 -0.21093605 -0.28581324 0.3770979 -0.22497292 -0.06611177 -0.084631406 -0.5002874 0.24943568 0.18038294 0.036002405 -0.06880609 -0.098276444 -0.07068727 0.1023854 0.05608003 -0.1536038 -0.09115449 0.022186406 -0.24639349 -0.016082374 -0.0069059064 0.03780293 0.52357394 -0.0133175375 0.10354198 0.15043229 0.29536754 -0.11698278 0.32044235 0.16604084 -0.05635403 0.15689234 -0.09734427 -0.091582984 0.049835812 0.58358955 -0.025418995 0.4276583 0.15776281 -0.049332827 -0.20513138 -0.41006514 -0.3845247 -0.3577046 -0.0293314 -0.13986827 0.5468624 0.27836433 -0.12807249 -0.10328994 0.028341824 0.05979238 -0.16404532 0.46170303 -0.5361347 -0.23255686 0.29816195 -0.2801903 0.25983536 0.16458008 -0.06554948 0.1287882 -0.07424339 -0.049344905 -0.28021106 -0.33364418 0.34064117 -0.06402547 -0.14048947 -0.06028872 0.010014021
125 -0.09544054 -0.29387096 0.32101747 0.28579378 -0.14851347 0.11070173 0.027327195 -0.08131482 -0.045455415 0.13151616 0.06295977 0.13873294 0.14343236 0.013346652 0.27435693 0.25297168 -0.04165502 -0.054328393 -0.34932458 -0.05514203 0.30530632 0.13437621 -0.059358202 0.03356728 -0.39213127 0.3835385 0.2502061 0.43120086 0.16240734 -0.35114822 -0.1425994 0.15799141 0.043560084 -0.3057569 0.08371411 0.21273446 -0.13364422 0.18607676 -0.3807628 0.12582073 -0.46048245 0.1407534 -0.07738644 0.11246199 0.20440276 0.010753106 0.10306559 -0.001695445 -0.05308711 0.027933847 -0.11462514 0.24107899 0.08212584 -0.10850117 -0.1507974 0.010280398 0.29979786 -0.26590058 -0.018374298 0.21602666 -0.101642646 0.16630213 0.16083464 -0.080901615 0.028248426 -0.102012545 -0.20762043 0.06564175 -0.26280305 0.004881655 -0.3255398 -0.045206945 -0.3032383 -0.3222801 0.06259964 0.051463697 0.13633485 0.34573215 0.18767874 0.45168367 0.1253345 -0.2500238 0.22983304 0.15796223 0.42386904 -0.054666497 0.16577782 -0.099038206 0.023059 -0.06423192 0.015802441 -0.2353165 0.5787601 -0.14234638 0.33200225 0.3707842 -0.06634524 -0.005408607 -0.05138058 0.033568427 -0.09905795 0.05432188 -0.07439565 0.16856861 0.24220993 -0.12236719 0.13783436 0.09114703 0.015347091 -0.10160107 0.012951652 -0.23509617 0.2901698 -0.12867133 -0.09131997 0.080439486 0.0563989 0.14496538 -0.04467115 -0.3758219 -0.16977192 0.030902008 -0.1870861 0.2353994 0.070150755 -0.10600941 -0.16648845 0.07954664
112 0.014124226 0.09125781 -0.01236013 0.13814795 -0.031589817 -0.14930172 0.045246556 -0.067332216 -0.4316791 0.14355572 0.2018357 0.05464454 -0.010344079 -0.16746022 -0.101867974 0.31637046 -0.42066896 0.26430953 0.018552063 -0.018671934 0.11423236 0.21337996 0.3128832 -0.013440495 -0.109729975 0.3236361 -0.19353251 0.10794756 0.20099743 0.10630898 -0.1112263 0.014735241 0.01206535 0.18617867 -0.16083902 0.14595017 0.09133877 0.058669414 0.17406936 -0.12451185 0.1533956 0.51820076 0.17749415 -0.28838992 0.098164245 0.01900452 -0.06786375 0.14551814 0.21979211 -0.08381272 0.1665947 -0.28841817 -0.33692697 0.13454668 0.18504404 -0.09516717 0.3292952 -0.047004867 -0.3232035 -0.101392105 -0.07721083 -0.18642263 -0.0062476126 -0.35330245 -0.017794736 -0.22517101 0.35739967 -0.044952456 0.02078255 -0.11253483 0.25634173 0.11026239 -0.4635825 -0.28858992 -0.2701563 -0.19845168 0.16067144 0.31538576 -0.010339979 0.14992912 -0.032062136 -0.30150193 0.22163174 0.37435976 0.14990239 -0.03850679 0.055668455 -0.15813823 0.12729374 0.2614062 -0.24765046 -0.059556432 0.12670869 -0.011526274 0.70030385 -0.28749838 -0.015186965 -0.20763679 -0.1497418 -0.03894525 -0.15843137 0.014369158 -0.4513808 0.3152589 0.16388994 -0.050025154 0.19134134 0.04854392 -0.044078488 -0.19154951 -0.08418777 -0.04625241 -0.036148693 -0.14882678 -0.11447531 -0.019735983 0.042839833 -0.25138614 -0.05578792 -0.016698098 -0.17646872 -0.26810995 -0.14951229 -0.14861965 0.15679152 -0.13960114 -0.14362258 -0.11277611
