70 128
44 0.14821076 -0.30099866 -0.07181032 0.21777903 0.010038017 0.11530151 0.2307938 -0.11166932 -0.29142505 -0.24787076 0.22550325 0.2304171 -0.3726548 0.043471497 0.21526799 0.28179437 0.18535927 0.057020936 0.027651839 -0.07234248 0.11097061 0.27023727 0.080170766 -0.3284732 -0.019553065 0.14605176 -0.041615356 0.17506735 0.046960875 -0.22194017 0.061071064 -0.11595099 0.2537979 0.0020811853 -0.030192984 -0.038491193 0.11099614 0.0013679063 -0.008641044 -0.052836373 -0.026473414 0.07143312 -0.061536502 -0.12068787 0.41519755 -0.13374522 -0.24879521 0.09539554 -0.009019079 0.18835637 0.001970868 0.008861156 0.31687683 0.2326689 0.121070325 0.1633886 0.47506133 -0.20759568 0.014231134 0.13546322 0.022569723 -0.0527746 -0.020311702 0.047558554 -0.2995668 -0.006177194 0.2635317 0.12890196 -0.3171947 0.22965172 0.13936296 -0.0055306316 0.11878798 -0.1253535 0.022579126 0.08592392 -0.09515261 0.13107269 0.040304024 -0.00886858 0.095271654 -0.3087695 0.0064107757 0.51538014 0.13875839 -0.14419584 0.3199717 -0.27158558 0.25630686 0.2934958 -0.028855208 -0.116967484 0.06341984 -0.108059146 0.10389143 0.05409197 0.023230828 0.12695466 -0.21628906 -0.02092034 -0.022233434 -0.13815275 -0.15234774 -0.08985424 0.25014094 -0.01875178 -0.0040176595 0.055864822 -0.15909961 -0.23744263 0.22904325 -0.043727804 -0.13923419 -0.13505355 0.061447904 -0.16701916 0.17229104 0.059059095 0.054694336 -0.06452684 0.10791037 0.0463557 0.041695725 -0.12746117 -0.040413428 -0.10748693 -0.015652549 -0.113138214
45 -0.20868763 -0.22629142 -0.09049641 0.2089111 0.052346583 0.2643892 0.22693123 -0.12901193 -0.108398825 -0.15054402 0.05941926 0.29494962 -0.16236503 0.0037869555 0.19909172 0.11986408 0.2761904 -0.053098176 -0.10099508 -0.072093815 -0.08226751 0.26594582 -0.003111102 -0.46771246 -0.020364422 0.2989984 0.078443184 0.18861502 0.27983454 -0.3687424 0.111456506 -0.011480631 0.090083696 0.03652104 -0.14476523 0.16210882 0.263156 0.06865058 0.01814419 0.03315131 -0.0074654245 -0.016679065 0.16191421 -0.1745918 0.3787973 0.00411343 -0.31246945 -0.020667344 0.0135200955 -0.18225805 0.21127139 0.113406174 0.22064309 0.35416803 0.14910881 0.16311148 0.3069475 -0.22666705 0.048993487 -0.09648733 0.011895402 -0.21421479 0.042185202 0.08380351 -0.12763055 0.16369033 0.16711244 0.08116496 -0.43484524 0.1609751 0.10435048 0.010801445 -0.0069015785 0.080758326 0.21690448 0.09430007 -0.05713463 0.18930368 0.28490716 0.006917287 -0.05023274 -0.13601159 -0.042423695 0.17935707 0.14484179 -0.17516284 0.19318534 -0.023294792 0.19245557 0.16261388 -0.02289407 0.14482434 0.039267752 -0.115529306 0.13303716 0.13366131 0.061577626 0.006824843 -0.18478802 0.086913794 -0.051638223 -0.044313148 0.038620867 -0.11873071 0.25740865 -0.022546334 -0.0077960994 -0.15386592 0.008442313 0.026852082 0.23538302 0.21267146 -0.054999035 0.028078962 0.18674448 -0.07051222 0.025738543 0.08732473 0.014206289 -0.15347616 0.2661804 0.11388695 0.19927122 -0.0011478891 -0.05894437 -0.21582928 0.15634318 -0.17275651
47 0.09196713 -0.47400108 -0.2848624 0.06850876 0.025398476 -0.016834874 0.30811703 -0.12810571 -0.38947266 0.071699746 0.28338438 0.36951864 -0.31422532 0.00713261 0.29505244 0.29075822 0.26686108 0.24243246 -0.26624274 0.033133846 -0.11800308 0.16418597 -0.10227986 -0.15003453 0.09964596 -0.19154853 0.082709625 -0.005677418 -0.049576953 -0.21843268 -0.017971775 -0.120292746 0.4701757 0.25402328 -0.15776826 0.2957109 0.1848355 -0.20140532 0.23841126 0.10359268 0.17939293 0.1095711 -0.19289741 -0.015897052 0.27543327 -0.072171256 -0.22972462 0.1827975 -0.0032058186 -0.015426043 0.15292591 -0.21348092 0.44269893 0.019598747 0.15009306 0.3594384 0.29342213 -0.22339274 0.098688096 0.256406 -0.01577716 0.02806151 -0.14067934 0.09870399 -0.3224038 0.03190419 0.15016367 0.10022402 -0.3343859 0.16496556 0.20788561 -0.09730598 0.11274167 -0.17908837 0.055314515 -0.027027862 -0.23886223 0.083811216 0.14031766 0.21027614 0.18192728 -0.35904714 -0.03433835 0.5811978 0.051307168 0.046375766 0.22632053 -0.26086035 0.3304745 0.33771497 0.16457573 -0.016206045 0.03249165 -0.12583451 0.18627752 0.038400207 -0.16526324 0.07005815 -0.124206044 0.088234946 -0.0072120484 -0.06995508 -0.22182283 -0.23619159 0.23775923 0.072993375 0.07335492 0.11698746 -0.13030626 -0.3698604 0.10002214 0.019452 0.05415775 -0.2586159 0.05609336 -0.4046013 -0.0053465874 0.21053205 -0.22577576 -0.110739194 0.04400414 0.07851449 -0.18114752 0.24443163 -0.074579716 0.19105594 0.23773828 0.013374747
46 0.08635897 -0.6082835 0.25413892 0.21081817 0.11704131 -0.38426813 -0.16118027 -0.018273072 -0.025927285 0.0125382235 -0.13672471 -0.3388023 0.12228872 -0.41128623 0.5768218 0.010784074 0.06260181 0.42877793 -0.4257401 -0.07887226 0.41460472 0.5424564 0.11377255 0.023761481 -0.07116844 -0.021920184 -0.15187171 0.32250267 0.22942106 -0.0815036 -0.4815187 0.06097064 -0.1713488 0.12529817 -0.32751322 0.3353516 0.5864087 -0.07121283 0.7187236 0.16089249 -0.0026075004 0.07042243 0.2488347 -0.14800476 -0.32837135 0.31711516 0.049853925 -0.33062997 -0.019962557 -0.3639266 0.4021497 -0.29827195 0.50978947 0.24500892 0.28409544 -0.04229251 0.31529856 -0.1553768 -0.23972426 0.02725507 0.37493527 -0.3237661 -0.0027110933 0.083982825 0.31940377 0.08434906 -0.10925354 0.059198607 -0.029822906 -0.32527432 -0.009097121 -0.17095423 -0.65540075 -0.18104002 0.1420145 -0.50703967 -0.26467153 0.12701528 0.0130833145 0.5629688 0.028381247 -0.057063412 0.32550693 0.61780643 0.30351087 0.27287024 0.5905828 -0.2568279 0.23035066 0.51162964 -0.13018529 0.026327819 0.23658158 0.11404504 0.53300667 0.021569483 -0.50056946 -0.402625 -0.28820634 -0.4254795 -0.050153412 0.03586605 0.13244818 -0.13536905 -0.11933676 -0.30177182 -0.2478587 -0.07112387 0.211435 -0.33580652 0.25432009 -0.10746496 0.4732818 0.36088568 0.04452874 -0.33357805 -0.019766157 0.2801488 0.08944526 -0.3557955 -0.1856305 -0.16626301 0.15337785 0.3159818 -0.0058752256 -0.13960122 -0.23924065 0.026482387
49 0.0356956 -0.44042024 -0.22182757 0.028186977 0.002104188 0.050750315 0.23344116 -0.12248421 -0.35642576 -0.018121744 0.36611566 0.3449205 -0.38028967 0.029067175 0.2602479 0.25015455 0.18407731 0.18219888 -0.0989372 -0.057423614 -0.14196521 0.18266709 -0.09900662 -0.17684588 0.039904606 -0.0866014 0.07058402 0.006664718 -0.029556945 -0.2799801 -0.06966887 -0.20975225 0.40498826 0.17900963 -0.06958472 0.24564281 0.1285563 -0.1750361 0.13513654 -0.005247122 0.11707793 0.11466127 -0.22898082 -0.06367935 0.43234318 -0.18465005 -0.23886651 0.15264435 -0.021801317 0.08157379 0.190872 -0.19078447 0.40900633 0.06494662 0.16288923 0.34753978 0.3431097 -0.22996745 0.081147246 0.2994436 -0.07762117 0.07089989 -0.095902294 0.06452184 -0.28889272 0.0690415 0.19607641 0.14081123 -0.3318911 0.16063164 0.1499431 -0.09817092 0.11069135 -0.23522414 -0.016254507 0.05280259 -0.13406038 0.1493784 0.094225734 0.2245532 -0.0151605625 -0.32412738 0.037570238 0.52091295 0.071923055 -0.14512344 0.27803415 -0.27331594 0.31784928 0.27298468 0.077236556 -0.13283019 0.031250417 -0.10968253 0.15469292 0.06439356 -0.10603432 0.12859176 -0.12380376 0.054129023 0.0015830881 -0.14586742 -0.2639732 -0.16322157 0.26600936 0.07680818 0.064894855 0.111424595 -0.20991665 -0.33116663 0.15613714 -0.016657304 0.020415548 -0.12272946 -0.019749355 -0.29863513 0.012752377 0.1470359 -0.03569842 0.01604357 -0.0018786443 0.041783024 -0.18362886 0.08004187 -0.02693081 0.10138939 0.16443437 -0.08486207
60 -0.12869793 -0.25297529 0.053883072 0.038890433 0.14064272 0.19487146 0.22089592 -0.27596277 -0.24388534 -0.12757628 -0.00084327883 0.03927664 -0.40449455 -0.07983453 0.12956646 0.02055972 0.2570631 -0.19085717 -0.06888079 -0.37910005 0.06482003 0.47140828 0.0126084285 -0.5730599 -0.034239847 0.3454105 -0.19340032 0.1773915 0.30437744 -0.27951992 0.19868626 -0.033518516 0.02438708 0.23864815 -0.21692084 0.16317071 0.5159348 0.2548104 0.22714145 0.1303875 -0.05171139 -0.05475618 0.25296614 -0.16117294 0.20316133 -0.10814768 -0.38610685 -0.15600874 -0.09107032 -0.5663147 0.53142613 0.21679346 0.15272348 0.39647126 0.28248268 0.31963134 0.50757986 -0.26020265 0.07875208 -0.09289557 0.15145051 -0.3386429 0.08531369 0.09042882 -0.094285645 0.16933635 0.25633648 0.0082835425 -0.4633029 -0.060460422 -0.03625863 0.033613767 -0.1309063 0.08315594 0.116489954 -0.015208728 0.15519229 0.35328534 0.3162387 0.0051557682 -0.18078454 0.053709347 0.062271565 0.06881365 0.16756564 -0.21193969 0.23286381 -0.06328116 -0.01538014 0.24530454 -0.2658445 0.15609862 -0.02586145 -0.2757762 0.32878506 -0.057191364 0.06215667 -0.053862806 -0.4758155 -0.02786133 -0.005195417 -0.06670913 0.08372928 0.0078753475 0.29707596 -0.14370215 -0.23598304 -0.25180092 0.11592788 0.01999058 0.35270882 0.3358861 -0.091547325 0.023003757 0.16206428 -0.049202666 0.067853354 0.09727716 0.11421281 -0.098028235 0.28653064 0.12058621 0.22548315 0.017276302 -0.09771788 -0.2581378 0.011937858 -0.13048638
50 -0.28889918 -0.24703917 -0.012053298 0.19710638 0.058724895 0.22832803 0.14692058 -0.109500304 -0.1170819 -0.17827018 0.08816027 0.18562742 -0.29421887 6.285857e-05 0.17634635 0.10920428 0.18145348 -0.034368385 0.010441117 0.032332 -0.038227152 0.27335748 -0.0067346217 -0.4641065 -0.091895156 0.3034781 -0.004793245 0.26962084 0.29491824 -0.40526882 0.061116222 -0.028388059 -0.014911741 -0.024173021 -0.032690074 0.13189664 0.28397468 0.12622674 0.19740161 -0.009330202 -0.0052244244 -0.016575247 0.13581812 -0.20596302 0.518355 -0.044092476 -0.28693706 0.005349022 0.06350316 -0.030225368 0.16637975 0.17023423 0.20703436 0.44584063 0.14918871 0.1433717 0.39026415 -0.25596976 0.056538526 -0.033616368 0.07291018 -0.24985114 0.14444041 -0.013177647 -0.11467463 0.22586872 0.1925708 0.22577833 -0.34349862 0.19717498 0.14784934 -0.03366193 0.04968744 0.025392195 0.21902011 0.13112023 -0.05535362 0.16865554 0.26876116 0.123222284 -0.14659747 -0.122564696 -0.04595481 0.19554399 0.13843042 -0.27780184 0.28970182 -0.081850074 0.24790946 0.21607651 -0.0078036143 0.00338356 0.024483865 -0.20201723 0.13389564 0.094762 -0.05069798 0.11887033 -0.24902979 0.05787338 -0.11846388 -0.08054818 -0.054465476 -0.11182972 0.29838917 0.11297242 -0.049734708 -0.20948778 -0.032909468 -0.010188285 0.2461308 0.11649521 -0.05155839 0.05672169 0.13324389 -0.0379757 0.121435195 0.04938647 0.17438084 -0.061032142 0.22925128 0.22590484 0.19928944 -0.08202018 -0.10163481 -0.31799433 0.12014566 -0.25739715
58 -0.086829714 -0.19904235 -0.034680195 0.22851127 0.034113515 0.23232915 0.19277765 -0.10312386 -0.24495539 -0.21290654 0.07206995 0.29938912 -0.31337652 -0.013606629 0.2304196 0.19715351 0.2753105 -0.10181582 0.029105773 -0.12323675 0.024890946 0.23808454 0.08105128 -0.50129366 -0.059687044 0.3449732 -0.030854166 0.16998287 0.23055668 -0.33603662 0.12514955 -0.034588803 0.13044378 0.00899912 -0.09994769 0.08639269 0.30647624 0.1327035 -0.09204658 0.04444006 -0.011910926 -0.008708519 0.1994772 -0.09591027 0.36460534 -0.025453985 -0.34246033 -0.0068109874 0.011024994 -0.15044196 0.10913435 0.11088217 0.29354092 0.39453194 0.22365874 0.20317489 0.3109922 -0.17233755 0.04108245 -0.056276046 0.036234792 -0.23806463 0.1070293 0.094245516 -0.20371553 0.12743852 0.25581247 -0.005511804 -0.4332189 0.11338111 0.06500632 -0.013549508 0.02941398 -0.021480922 0.14234217 0.067725144 -0.03732615 0.1739642 0.27568582 -0.10956371 -0.011192003 -0.13012263 -0.012824698 0.23872934 0.14477304 -0.23103155 0.22289093 -0.0037589339 0.19772251 0.19797517 -0.14067706 0.1373154 0.0984249 -0.060240187 0.12570083 0.13081926 0.15485604 0.088188 -0.21195158 0.04508206 -0.06172293 -0.040082388 0.04957455 -0.1287252 0.3063804 -0.03435849 -0.00764317 -0.1016963 -0.0063832104 -0.09227469 0.28574133 0.19984837 -0.16206737 -0.0816534 0.19786803 -0.08840876 0.15103701 0.079043634 0.08057378 -0.1593455 0.27657375 0.041304994 0.23742688 -0.098572984 -0.11344253 -0.29611456 0.100109875 -0.20981245
48 -0.23860627 -0.30707273 -0.1883238 0.37674674 0.13607258 0.28140858 0.058919486 -0.07038724 0.14817579 -0.24644229 0.28748024 0.2061418 -0.01336954 0.14475867 0.3087126 0.17558308 0.031379215 0.020661702 -0.16884178 0.030391984 0.0014806652 0.34800845 -0.1416956 -0.25320736 -0.15760002 0.11705483 0.09949949 0.28382435 0.13625051 -0.40960658 -0.20284449 -0.14538348 0.27267012 -0.07687393 0.14429331 0.22089694 0.028299712 -0.091340415 -0.046674803 0.028989248 -0.094150454 0.12148293 -0.008603781 -0.22989596 0.58612067 -0.006035524 -0.11049724 0.15471342 -0.1167258 0.29540762 0.24005793 0.1120717 0.48609114 0.15800464 0.006570448 0.22950965 0.42611545 -0.13562234 0.031227969 0.2230366 -0.21474205 0.046707135 0.12953885 -0.020588128 -0.08544162 0.1589273 0.13607785 0.24111402 -0.38624763 0.2893631 0.006442862 -0.0508137 -0.08409063 -0.14404947 0.18969753 -0.017252881 0.06368053 0.2473061 -0.00023099163 0.20535609 -0.10398846 -0.40239465 -0.02984918 0.35721058 0.21230112 -0.2888729 0.44251508 -0.11376272 0.3715244 0.12578335 0.11202263 -0.30025038 0.060331464 -0.05780754 0.035553996 0.17683429 -0.049543586 -0.01683522 -0.21578301 -0.0114326775 -0.17879386 -0.25991285 -0.08503707 0.046228163 0.15159303 -0.11082806 0.13114768 -0.026829388 -0.27103826 0.010765109 0.20142367 -0.036605686 0.09506007 0.12308275 -0.036888212 -0.19648525 0.021119794 0.13715068 0.06312068 -0.09059022 -0.0256227 -0.054378327 0.08075138 -0.131386 0.13807857 -0.05520975 0.0654158 -0.27893597
57 -0.18930909 -0.2579431 -0.1448667 0.22459927 0.031362575 0.35576412 0.23663437 -0.08563348 -0.2078132 -0.18207487 0.0068661524 0.23576574 -0.23229 0.15446688 0.23235476 0.13321334 0.21169978 -0.027826859 -0.12076969 0.049546473 -0.1349723 0.28870726 0.041096643 -0.45460677 -0.056776438 0.3622663 0.13181858 0.24168977 0.19364055 -0.26235583 0.105435476 -0.07062767 0.11909875 -0.0019056526 -0.18731329 0.012747624 0.24245457 0.15881976 0.0047516134 -0.072874926 -0.10040191 -0.016615165 0.15434702 -0.15440324 0.47312415 0.010109979 -0.33834407 0.046743233 0.026156865 -0.072899826 0.21095993 0.04066243 0.28179002 0.4006147 0.1455756 0.121916234 0.41467825 -0.25764725 0.045876026 -0.122353286 -0.041451633 -0.19774318 -0.013705813 -0.028403746 -0.07230709 0.1309083 0.06011701 0.108501025 -0.5160047 0.1852415 0.15128964 0.038204633 0.11956601 0.13232705 0.11545779 0.1983145 -0.13079152 0.15819095 0.17027515 0.068421885 -0.10628886 -0.078485236 -0.07624122 0.16403092 0.080241255 -0.24712744 0.26794383 -0.04056845 0.22601762 0.15271035 0.006721207 0.08981897 -0.009736854 -0.12340835 0.11367004 0.1243007 -0.06225593 0.088738665 -0.16080908 0.004664229 -0.05121725 -0.083057076 -0.06127874 -0.15921362 0.16149394 0.021398943 -0.03646509 0.0039408077 -0.07430902 0.036771107 0.3318885 0.1259231 -0.09628206 0.12849717 0.16991769 -0.020627169 -0.0026808726 0.16392368 0.1354386 -0.07645592 0.33129007 0.122188576 0.22067626 -0.053872377 -0.029027117 -0.32817093 0.112834744 -0.14752717
66 0.05777276 -0.64576465 0.29703224 0.24628742 0.10479948 -0.3435461 -0.095562 -0.06788342 -0.096059844 0.07594782 -0.099893585 -0.38440207 0.14248255 -0.39702615 0.6311777 0.002770181 0.13381553 0.51932925 -0.4147248 -0.028698236 0.40992975 0.61341923 -0.021407627 0.009541873 -0.16119292 -0.055118665 -0.2261238 0.310124 0.26656976 -0.09849101 -0.4611279 0.1963053 -0.15689152 0.1222069 -0.23442058 0.32517958 0.6445601 -0.022470182 0.65676516 0.17358366 -0.0031654655 0.08707898 0.27068916 -0.11971944 -0.32599184 0.35436764 -0.00215722 -0.40428275 -0.008695831 -0.37890217 0.4456294 -0.27723432 0.51277614 0.2609951 0.29416054 -0.02604407 0.20110506 -0.10971543 -0.2803803 0.043785993 0.3556179 -0.3713893 0.027987672 0.18316588 0.34482267 0.07629536 -0.16546635 0.050772473 0.011093756 -0.36899605 -0.019294247 -0.13496254 -0.71007305 -0.1535773 0.21154416 -0.4590918 -0.23648778 0.040476844 0.032095 0.5468362 0.012484873 -0.04145979 0.34089157 0.55094165 0.3082108 0.32757917 0.49385628 -0.22060639 0.17774266 0.47432262 -0.14494036 0.055933714 0.21645065 0.1980097 0.583718 0.07839721 -0.519282 -0.44252965 -0.20320772 -0.43186542 -0.06512678 0.035626784 0.15758161 -0.17441453 -0.18513381 -0.2191969 -0.18244474 -0.051052198 0.2654429 -0.32951495 0.27236593 -0.07620755 0.53045183 0.3635865 0.0779121 -0.35476726 0.0045156414 0.2677765 0.03577165 -0.25642365 -0.054860372 -0.16510732 0.15158308 0.30099097 -0.0027001542 -0.0905739 -0.19902672 0.064471826
65 0.110925235 -0.6515897 0.26761937 0.2004534 0.108060695 -0.39444807 -0.14641355 -0.019935995 -0.030057063 0.018362368 -0.12296158 -0.33485723 0.12849575 -0.3918417 0.60124177 0.017244032 0.0647816 0.45934808 -0.42232952 -0.07406546 0.41965353 0.54200226 0.07442812 0.0061388966 -0.070547506 -0.04701782 -0.16179302 0.29821408 0.24958605 -0.06817096 -0.4586409 0.09788371 -0.12409382 0.13673289 -0.30634797 0.3392064 0.5962406 -0.047090042 0.6937798 0.15866728 -0.00078861986 0.08622443 0.24644013 -0.13333593 -0.3141338 0.3052316 0.031999536 -0.3456863 0.003370972 -0.35323554 0.39504158 -0.3001413 0.48900995 0.22947761 0.28983307 -0.018532708 0.2835632 -0.13822062 -0.24138954 0.030196121 0.3663111 -0.32837552 -0.017548596 0.096632145 0.3203591 0.09016704 -0.124037504 0.03717649 -0.0040190355 -0.32165715 -0.00825652 -0.15826772 -0.6567176 -0.17586392 0.16599785 -0.50308186 -0.25046507 0.11873862 0.02746029 0.5626175 0.025935804 -0.064305894 0.32869244 0.60923 0.30197114 0.28518566 0.5669177 -0.26798284 0.22239035 0.5136174 -0.14063957 0.04242597 0.21949974 0.12869284 0.5429853 0.042921692 -0.50492007 -0.40518266 -0.27836236 -0.4130799 -0.05141197 0.054027487 0.12775177 -0.16392279 -0.14798458 -0.2637085 -0.24754451 -0.06513617 0.21221283 -0.32491577 0.2517122 -0.0905008 0.47970885 0.36169204 0.03878684 -0.3501725 -0.027919231 0.27047816 0.067116566 -0.3199085 -0.16776705 -0.18049742 0.13876109 0.32950824 -0.005699395 -0.09991819 -0.2423683 0.048108093
68 0.108637504 -0.61213577 0.20549385 0.22037098 0.13677025 -0.37281305 -0.13988449 -0.0016423599 -0.04495035 0.035473526 -0.11717334 -0.31273344 0.07368733 -0.39975852 0.5446543 0.04199653 0.11643839 0.43195876 -0.4106683 -0.064640105 0.385423 0.51959735 0.115903005 0.020392712 -0.06307921 -0.045185138 -0.14044145 0.29978618 0.22852434 -0.12049103 -0.44350657 0.070377834 -0.12907152 0.14815527 -0.3638703 0.35499018 0.61462796 -0.071409084 0.7221372 0.17553592 0.008257357 0.07074735 0.24265485 -0.16424023 -0.3278603 0.29579628 0.029890303 -0.30469674 -0.04838408 -0.3364998 0.39620224 -0.31364354 0.5575799 0.25672048 0.27413008 -0.019498697 0.3388293 -0.18998665 -0.23414016 0.054721616 0.38966733 -0.29195672 -0.014008 0.09912742 0.31102026 0.06482393 -0.103348866 0.060976546 -0.062020496 -0.3101677 0.004771734 -0.15858535 -0.63247937 -0.1896627 0.1356373 -0.51983047 -0.30028868 0.14318097 -0.0043177456 0.59687084 0.02155246 -0.08882359 0.30246338 0.60438067 0.32361224 0.29676554 0.6076777 -0.2702844 0.23389699 0.5380004 -0.11177015 0.0013055141 0.23612908 0.09510969 0.5120208 0.028303992 -0.47281957 -0.41343105 -0.27883577 -0.40236875 -0.032497715 0.026037278 0.087698184 -0.16847508 -0.091314174 -0.3234524 -0.26126376 -0.04545551 0.20872802 -0.34114578 0.24557947 -0.11560465 0.49979782 0.35538265 0.056300137 -0.38301882 -0.0225598 0.2974875 0.091211595 -0.35270956 -0.18387903 -0.19266684 0.12037261 0.31655768 0.0025709053 -0.11443733 -0.20556004 0.031878572
64 -0.26588076 -0.15213288 -0.21631679 0.17063797 0.098259866 0.31397083 0.24623407 0.053947855 -0.10045002 -0.030717224 -0.019323226 0.27947935 -0.009344042 -0.005736654 0.15987724 0.020017128 0.30096677 -0.023090731 -0.25358433 -0.008065348 -0.31408662 0.045840513 -5.1910058e-05 -0.43107766 0.05326791 0.2462364 0.23690864 0.10270952 0.35070553 -0.21786565 0.0637677 0.11523332 0.0008051442 0.04041073 -0.26196247 0.24412782 0.25533414 0.041129768 0.030031433 -0.009209415 0.09817111 -0.07603198 0.20893979 -0.09323457 0.29252207 -0.016442824 -0.39898527 -0.020627428 0.19269173 -0.31178945 0.20482098 0.011282495 0.25568438 0.39905456 0.15701619 0.11969942 0.21976762 -0.20492174 0.08945594 -0.18072721 -0.021315824 -0.24862781 0.020823032 0.050410658 -0.11986801 0.19251649 0.085583344 0.10257818 -0.49937272 0.119018964 0.23417018 -0.032565963 0.013118445 0.15058105 0.3330158 0.02802869 -0.087973915 0.026642803 0.36374748 0.008709377 -0.0067083533 -0.1646516 -0.10709001 0.18596286 0.0926703 -0.0849991 0.19117442 0.10636161 0.28948045 0.1579017 0.13398625 0.2892626 0.08963518 -0.052133594 0.13428102 0.19033599 -0.050972696 -0.025748923 -0.116559 0.1273633 0.00039845574 -0.016275128 0.0017597044 -0.1904217 0.41508806 0.06878661 -0.04810622 -0.1999305 0.07316037 0.12167157 0.35018295 0.2859548 0.0063334955 0.07204976 0.3450912 0.016771598 -0.0038389205 0.13113296 0.05965944 -0.21107003 0.44556746 0.19617441 0.3221756 0.107405216 -0.07734591 -0.2782792 0.2962881 -0.19289067
63 -0.085640855 -0.20654012 -0.06868777 0.14974007 0.0023593737 0.17778012 0.27622527 -0.17576653 -0.1333695 -0.06696575 -0.06041556 0.29557604 -0.0745026 -0.15537855 0.16177648 0.05408304 0.33674577 -0.027464008 -0.1893375 -0.11344927 -0.09886971 0.18392038 0.021200282 -0.43915236 0.033796 0.27002257 0.08371866 0.06997224 0.32612264 -0.38540316 0.15363595 0.067657396 0.0324307 0.0544457 -0.2503412 0.2194375 0.32302874 -0.040187243 0.08868118 0.07770419 0.040495213 -0.030525172 0.15505804 -0.13912065 0.22697073 0.0075511783 -0.32134673 -0.10819428 0.082154 -0.37500513 0.27687323 0.08656983 0.123094305 0.37096024 0.13399768 0.19254987 0.25327203 -0.25264707 0.0238127 -0.18267857 0.12137634 -0.26230353 -0.037305567 0.2113381 -0.15541591 0.15131938 0.25793934 0.06263977 -0.41677606 0.079677016 0.14695382 0.02482233 -0.0736377 0.20161256 0.33258095 0.11765967 -0.09191614 0.10869205 0.5055098 -0.06273936 0.051443372 -0.082877174 0.05755155 0.13698524 0.09155949 0.0023599972 0.06182138 -0.019836226 0.14816923 0.14906603 -0.035825364 0.3826764 0.10292357 -0.1314213 0.18525058 0.12259814 0.037976284 -0.08315417 -0.18905261 0.119167835 -0.0037237701 0.058233142 0.105221815 -0.14974934 0.42614424 -0.0034085484 -0.0388831 -0.28721237 0.15788339 -0.01271028 0.31584203 0.3393596 -0.047932364 -0.0013224005 0.34504354 -0.13371769 0.066547826 0.08076502 -0.015798323 -0.23573823 0.44136462 0.22486481 0.25887427 0.13175419 -0.10790941 -0.25439432 0.23119704 -0.22974302
67 0.07878402 -0.59704095 0.22586802 0.20278393 0.10727645 -0.37954572 -0.15677205 -0.029110303 -0.04667387 0.0515877 -0.14349253 -0.36517233 0.11141303 -0.4093221 0.5846198 0.038160402 0.06598315 0.43736744 -0.435596 -0.07096212 0.41804904 0.5690137 0.10011218 0.04856748 -0.074102625 -0.03133597 -0.16041419 0.29739895 0.225861 -0.08386152 -0.5060016 0.053556964 -0.18782926 0.09391147 -0.31280607 0.34417415 0.57435274 -0.0798024 0.7102771 0.13915986 0.011848456 0.06263869 0.22700068 -0.14559515 -0.35744217 0.3477404 0.04629022 -0.35988268 -0.050626744 -0.37170026 0.40809193 -0.2930754 0.54064757 0.20747781 0.2819431 -0.056209166 0.32002425 -0.11780584 -0.24330395 0.03219472 0.3541388 -0.32443327 0.012342285 0.100123234 0.33623397 0.08459976 -0.1249507 0.04371775 -0.014677512 -0.35321805 -0.021194596 -0.16015306 -0.68653166 -0.15691186 0.11300613 -0.54159087 -0.29976958 0.12633552 0.008874007 0.5820992 0.043944027 -0.053596854 0.3203888 0.6326269 0.31125575 0.285987 0.59900135 -0.2489835 0.24609692 0.50430036 -0.11765892 0.0046925936 0.2395968 0.13216318 0.5288502 0.011326163 -0.5115542 -0.39644867 -0.28860593 -0.42066413 -0.041685 0.057329632 0.11034958 -0.099479444 -0.12062727 -0.30645195 -0.2346843 -0.0765349 0.19185705 -0.3573264 0.25013685 -0.13849126 0.47655147 0.35791683 0.018626299 -0.3224227 -0.0032229666 0.29367977 0.086046934 -0.32267764 -0.19581032 -0.18808028 0.13574721 0.35173845 0.0039192913 -0.15508787 -0.25691405 0.040659364
69 0.101328045 -0.6212927 0.25353074 0.20036139 0.12854041 -0.39395046 -0.17569424 -0.005176311 -0.001962813 -0.015775906 -0.16282398 -0.3309641 0.11636892 -0.38959366 0.60617495 0.003348199 0.028592404 0.4151505 -0.4317333 -0.09371705 0.43777537 0.52273583 0.14792465 0.007117041 -0.051737227 -0.011996983 -0.12881093 0.34188294 0.24529447 -0.06517281 -0.48952556 0.0415405 -0.16003992 0.13237046 -0.34332418 0.33844224 0.56375915 -0.0593317 0.7442901 0.15370707 -0.016277958 0.09691649 0.2303255 -0.15838197 -0.33566645 0.33669782 0.07700449 -0.33444566 -0.01262847 -0.37239492 0.38182092 -0.32142496 0.5010356 0.24518524 0.31020156 -0.03699041 0.30061555 -0.14367436 -0.24467689 0.011983083 0.39379466 -0.32018784 -0.00260072 0.08108229 0.3386993 0.10999751 -0.11726478 0.048071787 -0.0023493906 -0.34257296 -0.02862781 -0.17659682 -0.6666532 -0.20223415 0.14443254 -0.52447253 -0.26149106 0.16381976 -0.009943806 0.5841391 0.038257614 -0.04500209 0.337527 0.6333923 0.32046282 0.24605966 0.6309235 -0.2930238 0.23827438 0.5166555 -0.1452376 0.012953722 0.24119417 0.09099594 0.5607441 0.011032534 -0.5297518 -0.41068122 -0.30569178 -0.45279688 -0.055850774 0.049816124 0.15272316 -0.13213973 -0.1493663 -0.3118348 -0.28675026 -0.07734472 0.2189062 -0.34420502 0.2334722 -0.112199254 0.4780388 0.36808258 0.021543648 -0.33022797 -0.020117335 0.28506666 0.106045164 -0.37055787 -0.23204884 -0.16351889 0.15682589 0.34906638 -0.007353606 -0.13729726 -0.25898919 0.009644735
62 -0.25571862 -0.2151107 -0.03966704 0.3501671 -0.006864561 0.23528445 0.2456398 -0.07288443 -0.22834173 -0.13098471 -0.014658089 0.28725863 -0.16583139 0.01813669 0.27823043 0.14298439 0.22572982 -0.05034953 -0.09130936 0.08672551 -0.14497419 0.22265635 0.070280895 -0.4907593 -0.047483895 0.42268226 0.095827565 0.3210983 0.28946346 -0.3548978 0.1511507 0.07422396 -0.021120563 -0.057804663 -0.2412556 0.004344873 0.37380004 0.19545563 0.062080007 0.0072078477 -0.023828063 -0.053007543 0.30562082 -0.094207734 0.39469746 0.082475215 -0.37042388 -0.0064715957 0.12611032 -0.12093206 0.029138785 0.04517868 0.19037887 0.460408 0.16401452 0.039275043 0.12239181 -0.24631982 0.040252052 -0.10802744 0.12733959 -0.32402784 0.02538093 0.0999111 -0.07584631 0.15902136 -0.020807784 -0.0042735096 -0.4290246 0.16015182 0.19170722 0.008169573 0.07940666 0.10678982 0.29015124 0.08155705 -0.18610252 0.08658436 0.36631146 0.061664216 -0.027946722 -0.064918235 -0.08189441 0.06570177 0.088021666 -0.20174263 0.13709831 0.10055581 0.2085716 0.18820408 -0.0859489 0.30353212 0.08211699 -0.035413083 0.0712073 0.16124181 0.03416897 0.08328443 -0.15576717 0.09553613 -0.030444503 0.02400751 0.04903601 -0.24899255 0.10779046 0.11001984 -0.020535223 -0.11021178 0.07934152 0.08850335 0.31270775 0.19764453 -0.0075972294 0.10868456 0.2206218 -0.053778056 -0.0010475727 0.11831908 0.09730138 -0.2464552 0.35386166 0.15071175 0.33046964 0.03981238 -0.15717159 -0.44861668 0.18987624 -0.27829143
61 -0.47327718 -0.28796875 -0.05810261 0.091004424 0.12550889 0.29294237 0.20774513 -0.13097937 -0.21598396 -0.1033762 -0.024351072 0.29258865 -0.21726027 -0.10503631 0.2929669 0.04903734 0.46972984 -0.1409761 0.017331852 -0.065449126 -0.23377673 0.3465585 -0.03811816 -0.48885366 0.090331055 0.40207982 0.22730531 0.21571526 0.25846437 -0.4561993 0.1559268 -0.15767425 0.078848295 0.09999438 -0.24206448 0.2756457 0.38682914 0.19987644 0.15739517 0.00682074 0.009393275 -0.14876786 0.17315394 -0.18849452 0.38217118 0.12658319 -0.36445317 -0.0775919 0.06708316 -0.34478104 0.16980499 0.27711248 0.2592911 0.39760643 0.22356787 0.06877492 0.2811909 -0.28147128 0.0229386 -0.2550461 -0.01039994 -0.38739946 0.109719455 -0.008226488 0.10385273 0.36891514 0.08643873 0.03754316 -0.47669083 0.08037467 0.22466841 -0.018987687 0.012526699 0.16643901 0.06467128 0.19416411 -0.19722289 0.252893 0.37393838 0.19689053 -0.25206143 0.082897924 -0.14558801 0.15703067 0.06467681 -0.2852098 0.21457672 0.014210766 0.13532573 0.07823032 -0.019761609 0.18982424 0.043067385 -0.12629957 0.22657564 0.18237342 -0.12545149 0.02766983 -0.079985015 0.019017765 -0.08417663 -0.08967067 0.10406825 -0.14258288 0.28567892 -0.06359954 -0.04961676 -0.26090938 0.10845562 0.02186676 0.21660213 0.36629233 0.008746616 0.09948452 0.19322112 -0.037691064 -0.086213246 0.11714495 0.001976346 -0.10626022 0.28088608 0.0867164 0.31947923 0.0038318522 -0.16399607 -0.35612902 0.3043496 -0.031545646
56 0.21586801 -0.36399877 -0.015118845 0.25972536 0.057949986 0.03184238 0.24924716 -0.06463948 -0.29262382 -0.34604236 0.14063947 0.17675851 -0.2989537 0.069956765 0.31024873 0.35620108 0.31785637 0.15036102 0.03495444 0.05149369 0.25091165 0.28112206 0.14759412 -0.40744442 0.16076744 0.31169373 0.01934282 0.3601395 0.20428102 -0.20522597 0.13039277 -0.050511245 0.2639235 -0.06065523 -0.102517396 -0.15793613 0.04948056 0.06998747 -0.05058756 -0.15467651 -0.18906707 0.032767534 0.03569148 -0.21390969 0.4134385 -0.0376021 -0.3275 0.03601417 0.0068190405 0.26415965 -0.070961855 0.06577876 0.33379862 0.30066404 0.030812746 -0.0022677225 0.5331453 -0.2205958 -0.028071506 -0.1296248 0.040420126 -0.08731801 -0.01539579 -0.047000695 -0.18377678 0.010815846 0.1905706 0.06564566 -0.20345485 0.3431919 0.17365846 0.055188134 -0.0042898823 0.01997081 0.063285396 0.036601737 -0.28499234 0.22611162 -0.091801696 -0.077111535 0.11984201 -0.2787792 -0.00031630608 0.6273065 0.2595649 -0.0811113 0.2914063 -0.354474 0.25124964 0.34645483 -0.012477575 -0.17994465 -0.03666881 -0.04374681 0.16756742 0.06246521 -0.010926049 0.03692809 -0.22925915 -0.12923542 0.0040834686 -0.13213196 -0.15790914 -0.07698417 0.2810546 -0.06021861 -0.11489968 -0.064601004 -0.1574686 -0.21379907 0.31247222 -0.059089832 -0.114092 -0.16962793 0.1920884 -0.14562792 0.15161179 0.016717745 0.015371015 -0.18932904 0.18310988 0.07605576 0.094092384 -0.07245823 -0.092473865 -0.19864422 -0.2246873 0.021258747
54 0.06976276 -0.36732316 -0.044670485 0.2906894 0.00866067 0.117554195 0.3197217 -0.13879104 -0.31688076 -0.28268063 0.04307492 0.20872338 -0.40952143 0.050843336 0.21310632 0.21508493 0.08431423 0.11718359 -0.018441217 0.06284505 0.09418883 0.3511 0.0042817383 -0.30397722 -0.07181969 0.15351167 0.09669012 0.31070602 0.083216436 -0.2580896 0.117914505 -0.10398424 0.2723159 0.040625595 -0.06571417 -0.0005019216 0.113462135 0.16403168 -0.0072848843 -0.031291056 -0.14025046 0.056169182 -0.124577016 -0.020396343 0.45678714 -0.03694073 -0.11459737 0.079477474 -0.04633972 0.23548976 -0.0015071571 0.047938887 0.3363853 0.28542534 0.055813476 0.12410277 0.37873062 -0.257494 0.09156159 -0.014172767 0.15077665 -0.15994498 0.1348273 -0.014848743 -0.35621902 -0.0052388515 0.13820907 0.113993086 -0.37406284 0.3106867 0.07539845 0.07199683 0.16725604 0.097244866 0.059208006 0.17805101 -0.19068605 0.11095884 0.08008869 -0.018007748 0.12507276 -0.30823326 -0.024709042 0.37507793 0.09671206 -0.21496162 0.36849478 -0.2985208 0.3058693 0.32306138 0.019064566 0.001987717 0.028177617 -0.16295226 0.07131982 0.13733536 -0.054571643 0.14562309 -0.2572846 -0.012310535 -0.04548993 -0.1184043 -0.094486766 -0.27376404 0.062374286 0.04529283 -0.03749258 0.09221918 -0.16580394 -0.15070742 0.27943736 -0.045760617 -0.13327003 -0.06834475 0.091320194 -0.21803102 0.16889873 0.082648076 -0.03552905 0.04250826 0.17625701 0.14747213 0.13439691 -0.07212391 0.009585235 -0.29663733 0.05617313 -0.06885639
52 0.18491106 -0.37915972 -0.010921389 0.416087 -0.02432134 0.20852092 0.18065193 -0.15367043 -0.20171572 -0.3822918 0.20714489 0.35208854 -0.28243253 0.077858955 0.3188319 0.28823888 0.32985198 0.112270355 0.096365795 -0.10026609 0.21548459 0.42368582 0.15823947 -0.56459475 -0.10247105 0.34020063 -0.030630097 0.25308895 0.20297402 -0.49960038 0.03325099 -0.011935594 0.15471995 -0.07660151 0.05220324 -0.077994324 0.09525987 -0.13059302 -0.25604877 -0.17252013 -0.12180956 0.098464295 0.102059044 -0.30016664 0.4948333 -0.1666456 -0.3533642 0.04863784 0.04886842 0.35944128 0.05821078 -0.006743192 0.22043166 0.3837801 0.04383103 0.042325698 0.41069794 -0.19159302 -0.108086996 -0.03416029 0.071819544 -0.027578223 0.0023988024 0.027953979 -0.18201527 -0.011729556 0.32681674 0.24677101 -0.2415636 0.26756924 0.09148712 0.0653576 -0.04253905 -0.08471137 0.17516813 0.18839164 -0.11733329 -0.00082939496 0.0679471 -0.12450271 0.060016673 -0.25692728 0.11358142 0.41880667 0.17525196 -0.16843002 0.3283927 -0.20989197 0.23205604 0.2412255 0.035527293 -0.16535842 0.16505758 -0.06176498 0.05281867 0.20427735 0.17752263 -0.012532081 -0.17622718 -0.081291266 0.012264908 -0.0932625 -0.07966125 -0.015379869 0.34137726 -0.06025099 0.086480685 -0.029088167 -0.09161356 -0.18358038 0.21361649 0.0050138906 -0.11433423 -0.011194272 0.01483614 -0.15258892 0.25419986 0.10767926 0.24314626 -0.1744553 0.2069525 0.11170396 0.06633829 -0.19015168 0.06952489 -0.15004289 -0.13867486 -0.1638675
55 0.21217026 -0.3854704 -0.1309522 0.3059705 0.024642555 0.24271117 0.30429143 -0.11306303 -0.25317198 -0.38372096 0.16979711 0.29952627 -0.2781932 0.117559664 0.27245882 0.28799427 0.24375321 0.07151549 -0.0617429 -0.034318674 0.08083163 0.36902422 0.06842408 -0.46744698 -0.06487931 0.2917343 0.051654052 0.279267 0.14915875 -0.24057923 0.08340181 -0.13366435 0.21578598 -0.040423345 -0.06242512 -0.08452396 0.036986373 0.0078051724 -0.11399004 -0.1140066 -0.10464249 0.05836983 -0.057893105 -0.15143983 0.542086 -0.16988121 -0.2994365 0.07866802 -0.03603109 0.23583242 0.019095713 -0.032308035 0.38556063 0.37427184 0.110246345 0.07359532 0.54882044 -0.22747976 -0.010220432 -0.018854428 -0.017383512 -0.0495085 -0.07783166 0.043538045 -0.24241985 -0.06625949 0.20658545 0.19990899 -0.4661939 0.27141294 0.1649884 0.021943511 0.11859618 0.005216687 0.079777606 0.1974878 -0.14255996 0.093854636 0.02462943 -0.09074749 0.058865596 -0.3576788 0.031158874 0.5174467 0.15446648 -0.16988501 0.3361626 -0.2750692 0.28263733 0.25428003 0.0067402464 -0.096066006 0.030481346 -0.07415235 0.07400373 0.089957744 0.004410202 0.06653519 -0.20656067 -0.07090017 0.026261698 -0.20175637 -0.1798615 -0.13148947 0.23862343 -0.044048704 -0.011712336 0.04882998 -0.15293564 -0.08842021 0.31860706 -0.0077860192 -0.11673598 -0.014006651 0.08115022 -0.07081224 0.13177006 0.10740045 0.14524952 -0.11628708 0.24715364 0.0789257 0.09704754 -0.109018594 0.005510088 -0.23224346 0.01865198 -0.12623593
51 -0.006832261 -0.29259214 -0.15982424 0.43944022 0.050809916 0.22653215 0.12867755 -0.008896251 -0.16602872 -0.27815574 0.3128168 0.22883508 -0.2229442 0.14320403 0.32881394 0.37257677 0.073071614 0.009452889 0.057655815 -0.01090482 0.035067905 0.2542705 0.058815524 -0.39045665 -0.08232388 0.25392407 0.02096608 0.36137465 0.12920427 -0.30509552 -0.023663115 -0.11904313 0.3145395 -0.11390343 0.048323445 -0.006248807 0.11903985 0.03846336 -0.11216803 -0.01561266 -0.049136177 0.095479146 0.09415826 -0.14521752 0.6315942 -0.08847245 -0.30294418 0.15125215 -0.014973366 0.34566182 -0.015579335 0.020720473 0.5031116 0.30836204 0.13144463 0.17824766 0.4257265 -0.16292568 0.010376788 0.1976396 -0.07447996 -0.085256934 0.16116022 0.019117396 -0.22266749 0.06805481 0.19253835 0.122243434 -0.34859172 0.3076961 0.16057082 -0.07578058 0.11672399 -0.19875868 0.20768125 -0.042495035 -0.01827506 0.14591233 0.01414348 0.0074051744 0.052219946 -0.38247278 -0.13564272 0.49717382 0.2169424 -0.27842852 0.41244364 -0.17260258 0.39972305 0.29106238 -0.009266247 -0.17894633 0.17129362 0.033303823 0.07082458 0.1931531 0.03617453 0.11382466 -0.22912198 -0.051728413 -0.07528414 -0.26336744 -0.108662456 -0.13310781 0.2187237 -0.0030490677 0.0079985745 0.0922613 -0.1970458 -0.1157766 0.31740144 -0.06899976 -0.04292855 -0.008126864 0.0915554 -0.08833536 0.1766038 0.05384724 0.16601261 -0.12698595 0.09204671 -0.028826676 0.09611059 -0.16697416 0.007677355 -0.25188825 -0.028199948 -0.34988055
59 0.24935448 -0.36482525 -0.053073693 0.3146494 -0.07854135 0.1793153 0.24855773 -0.21016133 -0.29814297 -0.32893002 0.20649187 0.31314713 -0.3830513 -0.047354862 0.2798809 0.26563495 0.20027946 0.10159124 0.02482752 -0.057013292 0.16231035 0.3928245 0.17381258 -0.3366562 -0.18997444 0.18911348 -0.051215813 0.19485089 0.052787434 -0.39208922 0.026528196 -0.105994895 0.1879308 -0.09266766 -0.0075550177 -0.09894652 0.11684075 -0.10217221 -0.0029658037 -0.0779159 0.07197491 0.1429176 -0.10337482 -0.18323217 0.502362 -0.15420148 -0.17070937 0.08775671 0.068643175 0.37809962 -0.029263273 -0.10768635 0.33022106 0.31882685 0.05996364 0.1521037 0.39949518 -0.18132026 -0.100500114 0.15442498 0.13329507 -0.0833645 -0.057929628 0.15673497 -0.26175037 -0.09090012 0.32493925 0.22426847 -0.2599066 0.15684511 0.14879553 -0.0076597636 0.17441909 -0.06469404 0.023048688 0.23849116 -0.09073588 -0.06274781 0.15272647 0.0623949 0.17364754 -0.30640668 0.03220198 0.44123393 0.07263779 -0.04695612 0.33546147 -0.2543989 0.28076616 0.27091512 -0.016903302 -0.053885482 0.2280218 -0.15048136 0.038539886 0.10622608 0.034480795 0.1428715 -0.1318174 -0.06743118 -0.018044824 -0.077324845 -0.09476414 -0.08541437 0.177585 -0.05881703 0.10482252 0.096245535 -0.11225215 -0.30395207 0.1919737 -0.098555885 -0.13430429 -0.016251933 -0.02912063 -0.24956037 0.23996672 0.0752606 0.16664723 -0.04638475 0.03929721 0.036803517 0.04386842 -0.20800684 0.027911354 -0.08821849 -0.0017727015 -0.22537416
53 0.020700913 -0.32262048 -0.16049126 0.3493101 0.019490032 0.20670266 0.13183782 0.029451992 -0.085177995 -0.2858135 0.21648866 0.268058 -0.19282606 0.11309762 0.26315385 0.3222871 0.14959705 0.03972656 -0.060691614 -0.063709445 0.02740927 0.18853506 0.07208881 -0.43016964 -0.008284274 0.20524892 0.0815236 0.2903507 0.21291526 -0.18633844 -0.019230856 -0.06733992 0.21579856 -0.13933638 -0.02500446 0.051926903 0.039826974 -0.0063228426 -0.06711948 -0.026060404 -0.016974922 0.01503399 0.071536265 -0.18682718 0.44199935 -0.0878379 -0.22349328 0.07757049 0.022678113 0.2074981 -0.020308802 -0.062134948 0.3684836 0.3214824 0.1359115 0.07974013 0.31505814 -0.13830718 -0.017780527 0.06967214 -0.07099964 -0.061753925 0.09648155 0.039762314 -0.2443997 0.07708384 0.21446891 0.15640774 -0.34634992 0.301523 0.18270877 -0.04072137 0.06149062 -0.07331014 0.25534758 -0.024739938 -0.09019084 0.13146615 0.024823762 -0.13846871 0.10279249 -0.3285215 -0.10257345 0.452552 0.22346318 -0.09621436 0.29359508 -0.14875151 0.30590767 0.31364977 0.018329885 0.0026532295 0.12467592 0.0115346 0.14760663 0.24205074 0.082580104 0.051470686 -0.10994746 -0.05158151 -0.0036901662 -0.14205515 -0.076185085 -0.15415989 0.2959915 -0.052827783 0.008630025 0.005050048 -0.15247102 -0.11075285 0.29348785 0.014475742 -0.11522112 0.038283877 0.21070656 -0.011557865 0.08886217 -0.0022064473 0.0575833 -0.12766054 0.19969207 0.036078937 0.1666746 -0.08564855 0.06108263 -0.18996754 0.027486542 -0.24899574
34 0.10805047 -0.5675567 0.23035051 0.17809148 0.12163699 -0.4052176 -0.15831159 0.008166089 -0.034030147 0.049631037 -0.117407344 -0.32893518 0.0902416 -0.39676076 0.518796 0.026348408 0.091230445 0.42562446 -0.4101749 -0.06480672 0.37184018 0.4862524 0.1028921 0.07313192 -0.06629795 -0.08077151 -0.13403459 0.2893066 0.19092546 -0.08623992 -0.45542413 0.060523827 -0.15936628 0.14065807 -0.35427982 0.35800132 0.5880087 -0.07619013 0.7224574 0.17051858 0.015439523 0.071977094 0.24272232 -0.14311272 -0.38244775 0.30533558 0.0790146 -0.31534043 -0.045084566 -0.34746647 0.4018499 -0.32302046 0.5379035 0.20478022 0.27326694 -0.049500495 0.32436106 -0.16534543 -0.23766322 0.048153248 0.40419167 -0.28181097 -0.037049957 0.07594771 0.3415861 0.055142812 -0.14346713 0.056331486 -0.036410898 -0.35009935 0.0045062555 -0.1769002 -0.66183686 -0.20786731 0.12247228 -0.54498595 -0.29981655 0.11961986 -0.024693359 0.6169391 0.0450914 -0.07724996 0.3244926 0.59842175 0.31805488 0.33079758 0.59888124 -0.28425747 0.21482065 0.5360621 -0.11894045 0.013565427 0.25301102 0.11482142 0.5098743 0.024615057 -0.49936956 -0.43366203 -0.2636507 -0.43351194 -0.034540676 0.036712233 0.09284756 -0.1577902 -0.11416045 -0.32716113 -0.26659563 -0.033879925 0.20839898 -0.3508413 0.22603132 -0.12560762 0.5162925 0.35501835 0.056951396 -0.38554448 -0.034993753 0.2974823 0.077911414 -0.36110798 -0.20391591 -0.19073893 0.10063537 0.3101304 0.005755017 -0.091139175 -0.20057704 0.045683455
28 0.06018555 -0.6064467 0.30167356 0.20918716 0.09853589 -0.338797 -0.10440751 -0.06776727 -0.10084613 0.111375056 -0.10404584 -0.39947957 0.1424095 -0.38738093 0.60568315 -0.004833908 0.1272324 0.51363313 -0.4052736 -0.02051979 0.41034076 0.5929253 -0.041033555 0.053518564 -0.17028593 -0.06293725 -0.23010598 0.298688 0.2645102 -0.09087999 -0.44908702 0.20320144 -0.15600121 0.11746348 -0.21637072 0.3009977 0.6200489 -0.027973175 0.61850315 0.17673293 -0.008893237 0.07117036 0.2452886 -0.109884895 -0.33110535 0.33817115 0.0052635144 -0.39824653 -0.025435748 -0.3807998 0.42979777 -0.2624302 0.48658544 0.24269177 0.27263257 -0.020070003 0.18783186 -0.09559288 -0.2772585 0.050672513 0.32715613 -0.3565282 0.035582185 0.19311552 0.3442099 0.07426272 -0.1613802 0.037414648 0.010005211 -0.36700758 -0.016472919 -0.11524045 -0.694385 -0.13118005 0.2079967 -0.44556046 -0.24075325 0.021767333 0.050966874 0.5166635 0.0009419864 -0.052914314 0.31861734 0.51677966 0.2839264 0.33087826 0.45192197 -0.2045629 0.17153177 0.46581313 -0.13395903 0.06102171 0.22505927 0.20411684 0.56582403 0.07653536 -0.5148104 -0.44606498 -0.19213377 -0.4078191 -0.06691831 0.0454622 0.1345927 -0.17595676 -0.18051732 -0.2051839 -0.17070052 -0.06730731 0.2509221 -0.3127857 0.26446307 -0.08755974 0.5156878 0.35054728 0.08473796 -0.3408942 0.006414479 0.26897833 0.029181648 -0.2382933 -0.030931698 -0.17791139 0.1381715 0.30191398 -0.015192497 -0.0907674 -0.1958825 0.07105634
24 -0.3000529 -0.18719319 -0.19533722 0.18544292 0.106455885 0.32697916 0.25311354 0.023888703 -0.1176234 -0.03855165 -0.025046999 0.3053223 -0.035718575 -0.010148959 0.18526271 0.025144856 0.34259394 -0.0076566697 -0.24920532 -0.018212223 -0.306375 0.102795705 0.03122287 -0.48985553 0.069952965 0.3059663 0.22753216 0.12260305 0.38668904 -0.29302937 0.08168294 0.118284784 0.011620886 0.06867378 -0.28283888 0.25516418 0.31225288 0.03689111 0.03901708 0.011354931 0.07602602 -0.06639387 0.24797396 -0.13470475 0.32782987 -0.0064744307 -0.45360762 -0.03171483 0.20040427 -0.35135424 0.23056589 0.050799437 0.27602056 0.4544937 0.15876459 0.15495872 0.2220694 -0.21754132 0.09809706 -0.19782661 0.0140823675 -0.29802653 0.035865173 0.0748744 -0.10083318 0.22988623 0.09832513 0.09887355 -0.5265644 0.113478996 0.23809765 -0.049312674 -0.0019043327 0.15497859 0.3639169 0.016808933 -0.10732966 0.059520435 0.4026545 0.03484486 -0.020148814 -0.15697864 -0.10152369 0.20855354 0.115702055 -0.11257433 0.21854372 0.096221395 0.28829268 0.19583885 0.10858949 0.31746346 0.105881274 -0.07502536 0.17915869 0.2043297 -0.046914574 -0.03570926 -0.1449717 0.11099182 -0.00569357 -0.02565616 0.021976572 -0.19776179 0.42324904 0.06778817 -0.07831597 -0.21840036 0.09673507 0.1096623 0.3767613 0.31767842 0.018503021 0.08924354 0.35224405 -0.016647864 0.0070209564 0.12328612 0.06949329 -0.24095155 0.44548473 0.19661416 0.34488696 0.114324026 -0.10439151 -0.30726823 0.28845888 -0.2176072
30 0.054795202 -0.6437892 0.30832547 0.2328842 0.1045891 -0.3385529 -0.10510139 -0.0723411 -0.099914275 0.092245854 -0.0950353 -0.4007894 0.15606083 -0.38859117 0.6174031 -0.011193608 0.114696644 0.52765626 -0.42488697 -0.03207682 0.43122575 0.60129416 -0.038241662 0.03715979 -0.17749773 -0.06747131 -0.23645592 0.30995044 0.27326497 -0.09743166 -0.45844966 0.21145698 -0.14814927 0.1190643 -0.21906874 0.3072145 0.6347111 -0.016783508 0.6417134 0.17680635 -0.008443371 0.08318895 0.2554329 -0.12586372 -0.34641865 0.35357744 0.0045168395 -0.41345146 -0.0048885187 -0.39174291 0.44504717 -0.2697192 0.49357727 0.26837128 0.27718866 -0.026090404 0.18627301 -0.10828274 -0.29392633 0.053261608 0.36026204 -0.37740403 0.032424267 0.19399218 0.34858274 0.083792314 -0.17641485 0.054629575 0.01443168 -0.37578654 -0.028518926 -0.1308858 -0.7181185 -0.14745755 0.2304646 -0.4618759 -0.24792491 0.029963428 0.04447892 0.5471919 0.0023490705 -0.05259794 0.34661797 0.5393379 0.3106821 0.339513 0.4731761 -0.22329615 0.16610056 0.4812605 -0.14848657 0.07486794 0.22781995 0.2127687 0.58956957 0.073335834 -0.525751 -0.4571481 -0.20801415 -0.43286052 -0.07607009 0.04322577 0.14444356 -0.1952531 -0.19539577 -0.21087591 -0.18226661 -0.05546386 0.27881405 -0.3298048 0.27699664 -0.07609207 0.5451031 0.3650641 0.102514796 -0.36223605 0.0026352052 0.2824237 0.0341327 -0.2563933 -0.033880062 -0.17060205 0.15612118 0.30435842 -0.012589264 -0.08180513 -0.18983571 0.05846205
27 0.09621321 -0.6409794 0.24780777 0.2110086 0.110268414 -0.3568188 -0.11443983 -0.04375363 -0.044820983 0.0066385427 -0.09774852 -0.29719916 0.10502653 -0.38542542 0.5829476 0.033535756 0.091599286 0.44985074 -0.42417774 -0.07174467 0.38927582 0.5439957 0.07634797 -0.023944851 -0.08516359 -0.041778114 -0.15155554 0.31092477 0.24236272 -0.09700201 -0.42836148 0.086519636 -0.1121986 0.1522678 -0.32206288 0.344738 0.6127033 -0.036681913 0.69227904 0.17289138 -0.0010242753 0.07381678 0.25940433 -0.15176652 -0.28659958 0.29175735 0.01932179 -0.33403373 0.00012866067 -0.3512636 0.3953259 -0.30336428 0.50060564 0.2626316 0.27622637 0.007635129 0.29131863 -0.17491591 -0.23798572 0.04662706 0.36471686 -0.3142147 -0.025119914 0.09859956 0.28828606 0.086858444 -0.11625091 0.04275815 -0.052998044 -0.30773726 0.00926656 -0.16815132 -0.6320837 -0.17533043 0.17512745 -0.47943023 -0.238037 0.10976528 0.039604753 0.5603852 0.032348815 -0.06590532 0.32331356 0.5982267 0.2908173 0.27887258 0.54335237 -0.26767847 0.22448704 0.49201587 -0.13769312 0.03877768 0.22205311 0.121075936 0.532467 0.048317757 -0.48052943 -0.382227 -0.27766347 -0.39815354 -0.05989938 0.032392323 0.12517126 -0.16532642 -0.12885341 -0.2569387 -0.2219421 -0.059792746 0.21183878 -0.32214397 0.24781021 -0.06669148 0.48008835 0.35150835 0.07071108 -0.36611196 -0.024357703 0.26185244 0.05965517 -0.3330861 -0.13428524 -0.15864174 0.13021566 0.31852552 -0.009661505 -0.101825446 -0.20581196 0.023950376
29 0.075675435 -0.57276976 0.21863976 0.18300992 0.120730855 -0.38874546 -0.16820142 -0.009976243 -0.04394107 0.056033395 -0.15070383 -0.36243978 0.10260772 -0.41332415 0.5714181 0.026042517 0.06441907 0.4249299 -0.4339061 -0.07281603 0.40299648 0.5435324 0.1089952 0.044828877 -0.057579234 -0.041888777 -0.15554202 0.29283768 0.20041749 -0.060925085 -0.5043161 0.038094223 -0.18055251 0.09888902 -0.32828468 0.3262488 0.55284053 -0.09482474 0.6924791 0.12808701 0.027246224 0.059007037 0.20828372 -0.13295971 -0.35072345 0.31450698 0.048207354 -0.33874053 -0.05753136 -0.36967587 0.40626246 -0.2718044 0.51749635 0.19560297 0.27931318 -0.052475575 0.3266024 -0.11348094 -0.20976791 0.044057414 0.3300981 -0.29919472 0.01557922 0.0749639 0.30632645 0.0816595 -0.12289759 0.03543831 -0.009850305 -0.33094707 -0.026777448 -0.15721694 -0.65203893 -0.15051423 0.08881951 -0.54107034 -0.28144544 0.12515855 -0.0053573498 0.55615234 0.042193983 -0.037008382 0.31424832 0.5916489 0.2940597 0.26385462 0.58846956 -0.22456379 0.22584614 0.48540735 -0.12535724 -0.0044381637 0.21413636 0.11013337 0.49839622 -0.009302672 -0.48662105 -0.37962118 -0.3000318 -0.40446246 -0.028132092 0.064478695 0.10683247 -0.07910624 -0.10415511 -0.30568314 -0.24344686 -0.08372586 0.18329662 -0.34350193 0.239336 -0.12595226 0.44914535 0.34937838 -0.006303963 -0.30506006 -0.0054039233 0.2727109 0.08495685 -0.31773263 -0.22973147 -0.1918188 0.14038028 0.35343832 0.01579897 -0.15342149 -0.25759453 0.05400017
21 -0.118867934 -0.22006655 -0.1219304 0.17398243 0.018958688 0.24771762 0.31344852 -0.15798917 -0.13324904 -0.10188239 -0.042010278 0.32133415 -0.07678484 -0.11789329 0.16038905 0.06188628 0.38087058 -0.0049758106 -0.1695627 -0.07779742 -0.13117652 0.17706198 0.023110125 -0.4897593 0.057312563 0.31259385 0.123450115 0.10660496 0.36765873 -0.40760213 0.20074086 0.07750668 0.04873637 0.03958137 -0.24483307 0.19413432 0.2711587 -0.02939634 0.024017315 0.038280636 0.020383827 -0.027187593 0.14542104 -0.17395964 0.31637847 -0.015001591 -0.37221584 -0.09200733 0.10300258 -0.30282232 0.23554517 0.10077938 0.15472227 0.4101112 0.11296162 0.17184593 0.27132487 -0.26122263 0.03884759 -0.22904125 0.11153419 -0.2752544 -0.03794092 0.17560264 -0.15158017 0.16087836 0.2410143 0.077529974 -0.44485942 0.12843008 0.17208898 0.019760046 -0.027566751 0.24119297 0.35090074 0.13522619 -0.11443974 0.10625167 0.47678095 -0.06998564 0.054379437 -0.13282606 -0.0066485913 0.17192777 0.12337667 -0.030247293 0.0848207 -0.033389743 0.19354922 0.14948218 0.00564071 0.352522 0.07666329 -0.13214086 0.17599414 0.14387758 0.036071032 -0.06339246 -0.20388222 0.12891649 8.504663e-05 0.0072513404 0.08495281 -0.16697088 0.43249965 0.011065947 -0.06224379 -0.2924735 0.13111791 0.018217064 0.32464832 0.3185931 -0.033945642 -0.0032389746 0.36003932 -0.0864282 0.059270322 0.053380217 -0.014875134 -0.2251973 0.45190397 0.24692994 0.26175055 0.10871154 -0.11371827 -0.27557117 0.2409979 -0.22389522
33 0.10646574 -0.43540505 -0.30038047 0.052322816 0.027571674 -0.05925365 0.27930743 -0.09858823 -0.3659351 0.12522607 0.27233914 0.3530195 -0.22746702 -0.0110717695 0.3066119 0.28043088 0.25401875 0.26118574 -0.31214434 0.05698975 -0.16423355 0.087096676 -0.11281474 -0.06410548 0.11574229 -0.23145597 0.116536066 -0.046611913 -0.076229975 -0.16406009 -0.05482082 -0.07856573 0.461068 0.26127997 -0.17490359 0.31410363 0.19233559 -0.2151615 0.24254006 0.12438958 0.20274942 0.12139841 -0.18112317 0.01883785 0.22652048 -0.036674093 -0.23382112 0.19002873 -0.0008243914 -0.04936991 0.15776588 -0.26211298 0.4912802 0.009537784 0.14453605 0.35200214 0.26782075 -0.20276392 0.07198917 0.27902305 -0.034553982 0.021837616 -0.140052 0.09925389 -0.30983138 0.034327243 0.09611997 0.060428157 -0.33492517 0.13206623 0.21742877 -0.13338518 0.064739816 -0.2121619 0.07418003 -0.089906745 -0.25496203 0.069115974 0.13599898 0.24014345 0.20449848 -0.37453365 -0.025074076 0.61672926 0.058983397 0.07487396 0.24233975 -0.24049664 0.3616715 0.360356 0.17614587 0.011376468 0.065359846 -0.07527986 0.20289432 0.03178167 -0.20548055 0.04573464 -0.109291226 0.082608595 -0.02377605 -0.08140836 -0.22378291 -0.25760695 0.24267307 0.05017702 0.07119226 0.14342645 -0.11207114 -0.38860434 0.11410346 8.126901e-05 0.119206935 -0.2644168 0.06135143 -0.454701 -0.019351434 0.25376946 -0.26145166 -0.17519072 0.050592206 0.030854443 -0.1665599 0.30862164 -0.088756636 0.19933996 0.2523208 0.010641349
13 -0.21350318 -0.22236635 0.09531782 0.026935419 0.14597051 0.16743775 0.20450675 -0.24071535 -0.22922036 -0.10806589 -0.05815392 0.024631219 -0.36642212 -0.136255 0.14699851 -0.024802526 0.27691782 -0.20231532 -0.03580848 -0.35861912 0.04118671 0.47780833 0.011837056 -0.55920434 -0.029004276 0.35806414 -0.17644963 0.18106611 0.32933134 -0.2516123 0.19223242 -0.024976376 -0.06898871 0.2264182 -0.24898729 0.1897605 0.55290604 0.29631466 0.27936283 0.1322085 -0.03779609 -0.07988946 0.31320497 -0.14353028 0.12874945 -0.057262328 -0.38459468 -0.20015374 -0.043339286 -0.6420551 0.5021761 0.23616853 0.12165594 0.43373784 0.31415886 0.24901259 0.40904883 -0.24488261 0.056237336 -0.15406632 0.1778674 -0.41340977 0.08728861 0.07859707 0.00192092 0.21104065 0.20460995 -0.0062426617 -0.45150483 -0.119679 -0.024425607 0.012850029 -0.1541392 0.12216546 0.10837365 -0.010702493 0.12197185 0.33076045 0.3785007 0.069224015 -0.23969409 0.1308317 0.046894226 0.016767006 0.15510963 -0.23594251 0.23095708 -0.012080846 -0.043876555 0.2163641 -0.29128155 0.22298867 -0.0004502902 -0.25929874 0.36046436 -0.050906383 0.033877365 -0.062024496 -0.431476 -0.048929222 -0.019306557 -0.042410888 0.13863462 -0.017365547 0.25066486 -0.14531352 -0.2396152 -0.29405442 0.18304104 0.057717334 0.3587669 0.38170743 -0.07115988 0.09974092 0.16600598 -0.010516916 0.05024417 0.08794045 0.14818032 -0.104114555 0.29000407 0.121953085 0.31373546 0.015078943 -0.13908751 -0.34797916 0.0700559 -0.134181
32 0.12307603 -0.44242007 -0.2766511 0.012005311 0.014293408 -0.06464162 0.2821441 -0.12669091 -0.39987367 0.10549849 0.2485807 0.3512245 -0.26845792 -0.0050496357 0.2807309 0.26308584 0.2683082 0.26059893 -0.2780068 0.042079788 -0.15338758 0.122650996 -0.10647735 -0.094794706 0.13395329 -0.21587043 0.10390184 -0.04894442 -0.08140961 -0.1666799 -0.014668681 -0.10150384 0.4303507 0.2794128 -0.17091417 0.27362183 0.17405543 -0.1964204 0.25441557 0.094902664 0.1884094 0.10263798 -0.19952364 0.007187671 0.23105589 -0.07363515 -0.23540601 0.17938423 -0.0026294554 -0.047230244 0.15434079 -0.24650428 0.4344462 0.016091492 0.14550982 0.33318254 0.27994415 -0.21919994 0.06288097 0.24294996 -0.024837974 0.032115802 -0.16245998 0.08193663 -0.2876102 0.043536313 0.10497272 0.08472687 -0.31175292 0.116810486 0.2196087 -0.11496039 0.081549056 -0.18769863 0.030305699 -0.021410024 -0.267644 0.075498305 0.13040774 0.23778082 0.16433576 -0.32210428 -0.0068265516 0.5886278 0.029690992 0.06823531 0.21757886 -0.26038742 0.30040878 0.33905318 0.1694185 -0.008437816 0.0354773 -0.116251364 0.20080118 0.013562488 -0.19923688 0.057260115 -0.09601456 0.07321421 -0.007570133 -0.075794704 -0.24083304 -0.23448771 0.23257974 0.06436921 0.061241947 0.120973594 -0.107249066 -0.37880698 0.09317823 0.012642276 0.093160406 -0.25154316 0.02621524 -0.4272083 -0.025622886 0.23487219 -0.23475134 -0.13837907 0.047855876 0.066186234 -0.18772356 0.2893248 -0.08312829 0.19745368 0.23201181 0.05709463
37 0.19166893 -0.46516323 -0.28612745 0.0705811 0.014805181 -0.08609276 0.27988416 -0.102637425 -0.39033982 0.055817746 0.27741012 0.33351418 -0.2672948 0.023070924 0.31416208 0.32115492 0.22639921 0.2990451 -0.292879 0.075314686 -0.09884884 0.12928529 -0.0876544 -0.050207753 0.11124729 -0.24875365 0.11463902 -0.009162496 -0.11949374 -0.14109169 -0.045336355 -0.12633403 0.4816983 0.24859186 -0.15789466 0.2452104 0.12658772 -0.19562815 0.2139936 0.082839064 0.14598024 0.13331063 -0.23129292 0.013173179 0.24983072 -0.0440162 -0.18082651 0.20205323 -0.033359222 0.07424898 0.09796642 -0.28103524 0.50204206 -0.008231202 0.11644179 0.3180675 0.32289276 -0.21200989 0.052697025 0.26755545 -0.023784017 0.059225406 -0.1502267 0.069100246 -0.3139888 -0.013024802 0.08907388 0.073367774 -0.30277878 0.16958447 0.21446368 -0.108299114 0.07616137 -0.21129705 0.018025229 -0.065709986 -0.303644 0.075311445 0.044995606 0.23310855 0.23321714 -0.393774 0.0015496887 0.68403226 0.057197906 0.09146781 0.2724111 -0.31353563 0.35763168 0.3850988 0.18906008 -0.075251654 0.04337602 -0.07145552 0.19177389 0.02616818 -0.21212648 0.05963667 -0.10828466 0.03247527 -0.016230095 -0.09437288 -0.26723495 -0.2638181 0.19088404 0.033265024 0.06726582 0.19388431 -0.17000209 -0.42912033 0.11028567 -0.06691406 0.10394403 -0.26339933 0.034103103 -0.4701885 -0.0026529394 0.24101855 -0.25384188 -0.14721648 0.015648568 0.015741585 -0.20764445 0.2841517 -0.051061466 0.20745291 0.18011813 0.068084605
20 -0.17991886 -0.23514225 0.03353051 -0.009023678 0.1336598 0.15378912 0.22964649 -0.24764143 -0.2591773 -0.072768606 0.003508495 0.06341472 -0.38514927 -0.117386706 0.1363389 0.01445969 0.27001923 -0.17003 -0.064128414 -0.34735286 0.004026926 0.42490965 -0.018947583 -0.52247113 -0.0042720973 0.30179396 -0.16517359 0.13957348 0.2994864 -0.2489663 0.1950168 -0.0412735 -0.007422623 0.24681911 -0.25381705 0.20618083 0.51501447 0.24181509 0.2803576 0.12882698 0.009160199 -0.07279956 0.2382184 -0.12646331 0.16199777 -0.09742396 -0.39238864 -0.15752491 -0.054132998 -0.60462815 0.48644468 0.19152515 0.14350565 0.3758934 0.2942548 0.3047684 0.40275615 -0.23565593 0.08701471 -0.08719183 0.14358008 -0.33998486 0.05813654 0.09002712 -0.06208341 0.19066074 0.21137588 -0.013066101 -0.43486404 -0.09972954 -0.00983245 0.0012598326 -0.12465615 0.07317041 0.09851764 -0.024568878 0.12150192 0.33827537 0.3626599 0.0656201 -0.19242342 0.067104846 0.04230587 0.056619134 0.15339476 -0.20883235 0.19412537 -0.037009686 -0.025528962 0.22618023 -0.25933984 0.20287743 -0.03140248 -0.25888503 0.33267933 -0.062583975 0.04330052 -0.033576924 -0.42170307 -0.0065548825 0.00075837254 -0.046216205 0.07981999 -0.028111063 0.2730137 -0.09977061 -0.2205755 -0.2607421 0.13627698 0.022034932 0.32191765 0.35764074 -0.063488424 0.031800687 0.15442358 -0.055417173 0.023020905 0.08543697 0.095045805 -0.10894258 0.25031444 0.11731728 0.21676193 0.04558094 -0.13563706 -0.25133225 0.08938726 -0.111800075
40 0.16748737 -0.48399 -0.27236843 0.03634055 0.010899641 -0.0844684 0.2725535 -0.1076253 -0.40900058 0.10728531 0.24971919 0.34302604 -0.2747968 -0.013947846 0.29615217 0.28354698 0.253726 0.29940397 -0.2988401 0.081388995 -0.13502884 0.12886722 -0.097915016 -0.059346933 0.115189 -0.2588925 0.11533182 -0.04291955 -0.117831856 -0.1352964 -0.049994707 -0.106082596 0.4365974 0.27980253 -0.17577915 0.27424383 0.16612948 -0.20573172 0.25895357 0.09320437 0.17091194 0.11299555 -0.22921175 0.030085886 0.2243625 -0.04982755 -0.20075212 0.18870701 -0.017718151 -0.0026351907 0.12695411 -0.2865904 0.47548026 0.0026194141 0.14571056 0.32419667 0.30027774 -0.22507526 0.07237555 0.2551639 -0.001060641 0.031122463 -0.16760783 0.070528604 -0.2990261 0.0076001827 0.08692768 0.09542454 -0.31940693 0.13527791 0.22592674 -0.12209203 0.076382086 -0.2123264 0.019321315 -0.043534625 -0.30799413 0.054695655 0.09441456 0.25212753 0.21106625 -0.3569903 0.0031167234 0.65365046 0.038236998 0.093723565 0.26349214 -0.29881632 0.3311943 0.36654854 0.181422 -0.025957061 0.048981864 -0.09667684 0.20153967 0.028307073 -0.22884464 0.056795966 -0.09567315 0.047900822 0.0006539838 -0.07946994 -0.2454457 -0.26911962 0.20498562 0.06724237 0.061701998 0.1570239 -0.12484865 -0.40870386 0.09027086 -0.020193685 0.11159524 -0.24492253 0.040436402 -0.44112295 -0.013581337 0.25321385 -0.2423706 -0.14238624 0.05110275 0.04772123 -0.17807329 0.29815975 -0.07840007 0.20037703 0.23590313 0.060503546
1 -0.24063906 -0.2360134 -0.057364374 0.13481641 0.03084598 0.19864279 0.14823127 -0.044301484 -0.1904591 -0.13454613 0.12924437 0.2584777 -0.3184121 0.014865562 0.18114597 0.17204563 0.21741676 0.03583914 0.014412338 0.07326078 -0.12932158 0.14531012 0.011165088 -0.4524543 -3.8962346e-05 0.25648788 0.03464104 0.22338028 0.29309556 -0.34765798 0.04909415 -0.0050533153 0.029633496 -0.044378947 -0.057614643 0.10995394 0.22254199 0.061724983 0.19836792 -0.039015573 0.06949811 -0.038981535 0.091386214 -0.1878983 0.52104735 -0.07484418 -0.3453347 0.03860499 0.14545238 0.019930484 0.08155006 0.09072554 0.21735007 0.41884652 0.13965844 0.14381681 0.36227837 -0.2489068 0.05699543 -0.015089411 0.04746137 -0.20296311 0.09923985 -0.0223518 -0.16744901 0.20788012 0.20287754 0.2375166 -0.28046697 0.20739707 0.24234247 -0.06511491 0.10485388 -0.04227171 0.23383768 0.11764604 -0.14293475 0.12220821 0.2298278 0.094660714 -0.09417871 -0.16370094 -0.06795789 0.32078722 0.12711236 -0.2197194 0.25425425 -0.10416497 0.31872284 0.28166217 0.0401913 -0.0052745114 0.02807784 -0.16421637 0.13225745 0.103924744 -0.056306392 0.16705818 -0.17321302 0.06375316 -0.062390894 -0.080642916 -0.13702968 -0.16843915 0.4044518 0.1851507 -0.036509927 -0.18372133 -0.037912138 -0.0720793 0.27173856 0.085491866 -0.053789675 -0.006963429 0.16430499 -0.02564306 0.10423379 0.030787136 0.1704324 -0.06519288 0.26231763 0.2557881 0.16120571 -0.03059761 -0.15279263 -0.26724163 0.10946789 -0.25225994
31 0.08999857 -0.5685946 0.24416813 0.17414787 0.10894323 -0.36740577 -0.15150131 -0.020144397 -0.013608778 0.027623143 -0.14108083 -0.3253926 0.11863658 -0.3736978 0.54457575 0.009328153 0.044024605 0.4050945 -0.38311616 -0.07128971 0.38657713 0.48402786 0.09590076 0.034122888 -0.058518015 -0.043340914 -0.13723497 0.28348026 0.21573158 -0.057976015 -0.42820093 0.07348121 -0.14905114 0.12583351 -0.29614702 0.3094788 0.5387031 -0.049976572 0.66451806 0.14485092 -0.00050593284 0.08044783 0.21963318 -0.12824892 -0.327895 0.3073899 0.056586865 -0.31441653 -0.011656042 -0.3415025 0.3661209 -0.28945816 0.45319334 0.21284445 0.26685813 -0.045457367 0.254798 -0.12317688 -0.21867456 0.028805515 0.34741655 -0.3001322 -0.013661553 0.094936 0.30934298 0.094520174 -0.124335386 0.040604427 -0.0017424885 -0.3169131 -0.023439482 -0.16022386 -0.61287475 -0.17512637 0.14447375 -0.46774513 -0.2418747 0.110277936 -0.001109557 0.5259553 0.030441921 -0.040177252 0.2966436 0.5617497 0.27259287 0.2621925 0.53934765 -0.24404672 0.19281356 0.47232658 -0.13524276 0.023066051 0.22526538 0.100305274 0.50113666 0.017742105 -0.47187814 -0.3793484 -0.25934377 -0.40301204 -0.03601558 0.05566366 0.13521226 -0.13110074 -0.13422221 -0.26662797 -0.23467736 -0.056882918 0.21002701 -0.3061359 0.21629022 -0.09764934 0.4570496 0.32794383 0.03690989 -0.31322077 -0.023101732 0.25137222 0.074954495 -0.31758407 -0.17937475 -0.15945083 0.13486628 0.31487015 -0.007016416 -0.10027215 -0.2281214 0.030452283
5 0.13267197 -0.44002825 -0.19739135 0.07099336 -0.0064905845 0.0009726841 0.2616666 -0.119576715 -0.38307518 -0.026775282 0.3374497 0.32073388 -0.37516212 0.019478643 0.26208922 0.29604322 0.17830436 0.2056707 -0.09114231 -0.029701538 -0.09100239 0.20345435 -0.06469055 -0.16990197 0.052451115 -0.11321095 0.061254706 0.012415461 -0.07623665 -0.25661552 -0.036737986 -0.18539856 0.4428263 0.22018452 -0.0891762 0.19242905 0.12410192 -0.18592767 0.09240512 -0.006086245 0.0847313 0.12730749 -0.22222506 -0.047042575 0.38385007 -0.15933326 -0.22618656 0.16880688 -0.025299706 0.13066833 0.13102852 -0.22062524 0.42173666 0.03655385 0.1533911 0.3385558 0.3565934 -0.22343329 0.07035084 0.2900071 -0.035083357 0.045927018 -0.10267208 0.054781564 -0.3117595 0.024961453 0.19936016 0.109340705 -0.3268628 0.18883553 0.14842159 -0.068155274 0.10720039 -0.22119477 -0.01775431 0.016140832 -0.17389134 0.1076158 0.05674176 0.19291915 0.08004127 -0.35512927 0.029128382 0.5839509 0.08466052 -0.096870914 0.29461727 -0.3030926 0.29301503 0.30497092 0.08264778 -0.1331474 0.058697812 -0.09020321 0.1288876 0.06077432 -0.08027892 0.12399232 -0.13090573 0.034697738 0.02292449 -0.14560607 -0.23884088 -0.1711124 0.21573113 0.058791682 0.03982583 0.16704409 -0.18730246 -0.3564937 0.13501848 -0.03256911 0.013952716 -0.15277566 -0.021273304 -0.31284964 0.04270505 0.13537464 -0.06411294 -0.012222804 -0.013183156 0.025955584 -0.1717833 0.07821597 -0.010071445 0.11139251 0.13861758 -0.040110357
0 0.052603427 -0.43382135 -0.21114558 0.05338113 -0.0020198736 0.020487627 0.2748138 -0.08287802 -0.4218503 0.034791354 0.3156656 0.35701102 -0.38951305 0.0083002765 0.25446522 0.27614522 0.21504511 0.21845265 -0.105987854 0.02208068 -0.18272413 0.13840939 -0.068542875 -0.17972101 0.077709995 -0.121672735 0.10986317 -0.0020693948 -0.06469363 -0.2499752 -0.016229002 -0.1591005 0.41849622 0.22328538 -0.13558382 0.23818229 0.16435865 -0.1654359 0.15077685 -0.006135561 0.1182209 0.092748374 -0.22014804 -0.01997126 0.3851657 -0.14373653 -0.25770605 0.1710457 0.0185478 0.06368269 0.12034403 -0.22027028 0.39377284 0.06387145 0.15881 0.319052 0.31262377 -0.2507763 0.10653118 0.26732692 -0.030655589 0.018955199 -0.102226965 0.056194473 -0.31347042 0.07325929 0.15836321 0.10183383 -0.33371586 0.1980799 0.20382912 -0.0824213 0.15891446 -0.2158796 0.020050077 0.030338587 -0.22781053 0.10012687 0.11451449 0.2224514 0.05288071 -0.33493057 0.003371338 0.56369025 0.050873745 -0.109454855 0.2682376 -0.2759986 0.3307919 0.31404096 0.10193904 -0.0647058 0.037490085 -0.10375331 0.14235546 0.084889084 -0.11738987 0.14942856 -0.09459083 0.0738409 0.024455674 -0.12282158 -0.2599595 -0.24205704 0.24319752 0.12616192 0.03618915 0.13365318 -0.1720505 -0.35409036 0.1452244 -0.0010675897 0.026008759 -0.16554052 0.03602291 -0.31290033 0.025840027 0.15736976 -0.07435099 -0.013460052 0.055558156 0.085891545 -0.14372772 0.13305663 -0.07122383 0.06326245 0.20937388 -0.04726622
18 -0.1971028 -0.24491882 0.09588617 0.07140679 0.12536442 0.18122843 0.18845783 -0.25961196 -0.23443097 -0.14918785 -0.0056490703 0.03386305 -0.40167338 -0.0928243 0.17902362 0.03235668 0.25969452 -0.2120926 0.0048722345 -0.34835127 0.06817091 0.50027066 0.021363119 -0.5874116 -0.059283216 0.40149722 -0.20425512 0.23057003 0.32149452 -0.28488797 0.18782464 -0.054407243 -0.04507619 0.18964314 -0.20813328 0.12559846 0.5320665 0.30536547 0.23792782 0.11345819 -0.065448955 -0.0732529 0.310838 -0.16930172 0.21127862 -0.07677341 -0.39834955 -0.1760177 -0.057487823 -0.54767114 0.46691212 0.22883423 0.14230642 0.43236005 0.29871702 0.25971922 0.4351364 -0.23504339 0.052968767 -0.10325079 0.15619141 -0.36090145 0.09298373 0.06122079 -0.024282675 0.1960776 0.20139636 -0.008164903 -0.42786387 -0.08951598 -0.021713696 0.022047052 -0.1418162 0.07347093 0.10613818 -0.012189902 0.13128671 0.36634663 0.33757263 0.048283778 -0.2413423 0.091421396 0.052590128 0.04086888 0.18194813 -0.2722982 0.23798864 -0.019604214 -0.033998366 0.21955 -0.30507168 0.15466979 -0.01565225 -0.24706532 0.3344034 -0.0493701 0.07854031 -0.028326636 -0.444364 -0.054888338 -0.022751981 -0.06831648 0.117259435 0.0069513037 0.24064393 -0.1403686 -0.22168955 -0.26313895 0.13028358 0.035882495 0.3551564 0.346936 -0.08561709 0.078936115 0.14058621 -0.024847781 0.066707954 0.08449161 0.15650108 -0.11490366 0.25253493 0.10537599 0.2733069 -0.028709548 -0.13492642 -0.34027296 0.02937016 -0.16698517
17 -0.20412596 -0.21809451 -0.09154645 0.11290766 0.06270385 0.21339281 0.24013488 -0.1388715 -0.18949549 -0.063337356 -0.010216656 0.23030454 -0.1783595 -0.045343656 0.16006528 0.043622702 0.27644813 -0.071799286 -0.13060048 -0.07549453 -0.13603121 0.22790778 -0.02026324 -0.40382257 0.02123492 0.2401961 0.08042342 0.12062555 0.22760692 -0.30285153 0.13442956 -0.024565289 0.080926016 0.10191892 -0.20027617 0.18337707 0.3082885 0.08670931 0.10612977 0.059100356 0.01284363 -0.045472424 0.13393538 -0.102014296 0.2889596 0.010661376 -0.3209971 -0.026583271 0.029225452 -0.30436724 0.26683897 0.11922214 0.19637729 0.32590598 0.15710293 0.19476452 0.27644098 -0.23839742 0.07582888 -0.10405466 0.04080267 -0.2481574 0.017204259 0.07491402 -0.10780791 0.1680575 0.13327865 0.05562543 -0.4432851 0.07847068 0.121107414 -0.0022003409 0.0045438427 0.12248368 0.16814588 0.097901374 -0.06866272 0.15943202 0.35339874 0.05271826 -0.076985545 -0.055502072 -0.029475704 0.12452512 0.07326123 -0.1422192 0.15690638 -0.0015537448 0.14358239 0.13403055 -0.03510504 0.21854529 0.026486846 -0.15576847 0.17167802 0.08145808 -0.021631826 0.0030624983 -0.20197897 0.07924678 -0.0443336 -0.022584759 0.036824383 -0.13604383 0.2782361 -0.010824341 -0.04835923 -0.17467286 0.061474346 0.009012144 0.27306527 0.27114117 -0.034284525 0.011208119 0.19706114 -0.100874096 0.012438414 0.12954186 0.001018815 -0.14315334 0.31960297 0.14472462 0.22591726 0.073424995 -0.10979169 -0.24243669 0.21664497 -0.14770879
39 0.109210335 -0.4164642 -0.29166198 0.037404172 0.011302168 -0.046155527 0.28425196 -0.10379511 -0.384484 0.11351688 0.24633297 0.36846036 -0.228983 -0.017423907 0.28661078 0.27723017 0.28068584 0.24987036 -0.28788504 0.062127277 -0.16746521 0.090721056 -0.09038195 -0.09507567 0.13386494 -0.19378765 0.106542274 -0.04568902 -0.06264494 -0.17972985 -0.008990717 -0.07544723 0.40738827 0.25169158 -0.18386504 0.27390948 0.1927177 -0.200741 0.24267425 0.09741087 0.19495739 0.10570517 -0.16614328 0.008670395 0.24280445 -0.05227868 -0.25360844 0.17584004 0.020779163 -0.056842037 0.13538252 -0.24192712 0.42684397 0.03869016 0.14573945 0.32013965 0.2666042 -0.21301122 0.063464835 0.23158465 -0.015085072 0.0035776387 -0.15864488 0.096177146 -0.2869428 0.030152984 0.099621184 0.06763264 -0.31734228 0.13049668 0.23303103 -0.12115934 0.08586372 -0.18104717 0.07253287 -0.043514792 -0.2659537 0.056433402 0.167473 0.23414513 0.19293109 -0.3320993 -0.016873546 0.5822848 0.037919488 0.08198749 0.19429444 -0.22882909 0.3299066 0.3385661 0.18138899 0.018641481 0.058384873 -0.09824146 0.17873046 0.028685119 -0.18329395 0.06527701 -0.09738668 0.09564487 -0.0022027877 -0.06299193 -0.22946613 -0.24459653 0.24903904 0.07630337 0.06315646 0.12425245 -0.100763366 -0.37132993 0.09399935 0.020403376 0.10763286 -0.2626403 0.06130172 -0.42978683 -0.023634749 0.23332234 -0.23205253 -0.17356306 0.074715905 0.06245308 -0.17477314 0.29895076 -0.09891534 0.19082229 0.2537485 0.020001223
41 0.11262566 -0.4408529 -0.22534728 0.1258338 -0.012577014 0.06261057 0.26321137 -0.080581285 -0.37896407 -0.03954031 0.3435492 0.36693358 -0.3603882 0.04369422 0.2800331 0.31886166 0.2076211 0.21984154 -0.086255126 0.0071399882 -0.1392356 0.15520848 -0.047291122 -0.22064021 0.051814165 -0.088728495 0.11666578 0.0418545 -0.049781818 -0.26240206 -0.04226616 -0.18127012 0.4155132 0.1499596 -0.08339572 0.1932959 0.09717721 -0.19263023 0.09465703 -0.028350022 0.10506639 0.10516796 -0.2197677 -0.066724 0.45277128 -0.16829696 -0.26118696 0.19422184 0.014756184 0.182468 0.07595826 -0.22304617 0.445582 0.093957774 0.15262014 0.30109656 0.3557503 -0.22838402 0.05687898 0.26593688 -0.061113603 0.053949926 -0.103157125 0.049004227 -0.3203507 0.032351602 0.20780277 0.15328816 -0.34384987 0.24195738 0.21079552 -0.082976714 0.1513714 -0.21533494 0.043554567 0.050453078 -0.21949968 0.07286718 0.082127735 0.17307454 0.08817433 -0.36879274 -0.0036096848 0.62101734 0.0798736 -0.1022898 0.3175178 -0.3071593 0.34682107 0.32517 0.12738973 -0.1156481 0.07975725 -0.07397185 0.12060962 0.120132245 -0.10610842 0.1494091 -0.09581271 0.04054237 0.02153456 -0.15954503 -0.262292 -0.2240132 0.29193628 0.102682196 0.055521287 0.14247191 -0.19997613 -0.35604703 0.17149267 -0.04890139 0.0013575897 -0.14683543 0.038668066 -0.27380234 0.052416492 0.13514656 -0.044280514 -0.02915011 0.07432199 0.0777446 -0.12146613 0.069544114 -0.024449958 0.055565957 0.17638457 -0.09212848
23 -0.22872753 -0.2420659 -0.008737878 0.2063718 0.05435297 0.24378979 0.1489751 -0.087446295 -0.16558535 -0.20915008 0.101832904 0.21032007 -0.3127283 0.0356911 0.20259257 0.1582996 0.2114844 -0.056656763 0.03323724 -0.036439784 -0.026114736 0.27213115 0.028868169 -0.51978457 -0.05183216 0.3432587 -0.011184895 0.29144114 0.30071726 -0.33535945 0.087439686 -0.033199053 0.008404656 -0.049752034 -0.05119465 0.0772824 0.25412554 0.15151608 0.105883814 -0.011662264 -0.018436054 -0.050062876 0.17404929 -0.19457479 0.46534777 -0.057106517 -0.33290982 -0.0046156677 0.0482837 -0.046174236 0.125984 0.16871616 0.19919069 0.4398955 0.16281828 0.112409055 0.3661451 -0.23302051 0.0488349 -0.051216222 0.04448306 -0.23072581 0.12877105 -0.009556984 -0.12053848 0.18879603 0.1888841 0.16189034 -0.34506562 0.18665421 0.14275102 -0.011016702 0.04711349 0.008051269 0.2127446 0.095548 -0.05738405 0.20556019 0.2223771 0.024839554 -0.13398732 -0.0968594 -0.058199286 0.21792747 0.16690494 -0.26495886 0.2558082 -0.070022196 0.1997552 0.23498568 -0.063732386 0.03641597 0.03608448 -0.13941857 0.14770645 0.10974405 0.019938525 0.09904922 -0.24174275 0.013369287 -0.07245067 -0.10264292 -0.036771446 -0.118628085 0.32050782 0.061153244 -0.06414542 -0.18638761 -0.017521637 0.003519221 0.28288385 0.13390355 -0.09316358 0.053382993 0.16245078 0.021910219 0.10774508 0.029110199 0.17667346 -0.07877527 0.27290797 0.18063805 0.22160801 -0.093822464 -0.10910434 -0.34515414 0.062134802 -0.24067783
22 -0.0869245 -0.2083977 0.00014839396 0.3249447 0.028909978 0.28223282 0.144521 -0.1148412 -0.18694074 -0.28235245 0.06673316 0.28220293 -0.30747873 -0.016511424 0.2637069 0.21949036 0.2347872 -0.12718616 0.06669705 -0.13480596 0.10723181 0.2979493 0.1060159 -0.4798528 -0.16908607 0.37061286 -0.06458366 0.2004266 0.19809498 -0.34744325 0.075959235 -0.062171042 0.087946214 -0.06731889 -0.046194863 0.050204042 0.2922834 0.11895802 -0.1453525 0.033316743 -0.028050844 -0.009511982 0.22232482 -0.09876144 0.35231647 0.006898354 -0.24334264 -0.0043779947 -0.006437175 -0.07886981 0.057940386 0.11183121 0.30300415 0.40310523 0.2176737 0.14529277 0.3034244 -0.14347346 -0.0022926496 -0.016025402 0.045540832 -0.2349383 0.1445719 0.11510922 -0.19376814 0.09244431 0.25191757 0.00079212815 -0.4133185 0.09808911 0.019664437 -0.0041156793 0.0005501532 -0.061113637 0.11810294 0.05877026 0.012202508 0.17097297 0.24000774 -0.12387194 -0.011187984 -0.13646829 0.007008765 0.21902193 0.14946146 -0.24011825 0.26584968 0.017398492 0.22577247 0.20429556 -0.17250712 0.10170392 0.14187498 -0.028315611 0.10950665 0.1380508 0.18450917 0.08557908 -0.22941887 0.038528867 -0.085855804 -0.041733395 0.06752632 -0.12798522 0.2621868 -0.07758838 0.026517238 -0.034422267 -0.013541664 -0.1263013 0.29358205 0.12918659 -0.17789984 -0.03651755 0.1528093 -0.10544922 0.18710816 0.11261431 0.1169369 -0.18627527 0.22878222 -0.02521698 0.2716 -0.16592576 -0.07768156 -0.33031806 0.039675992 -0.24977241
38 0.09617668 -0.63757086 0.25383097 0.2019495 0.1371845 -0.4106826 -0.19200903 -0.012803246 0.0086133415 -0.03782379 -0.17521016 -0.3203381 0.12599413 -0.40159336 0.6444154 -0.00043949485 0.0010675217 0.3846476 -0.4407959 -0.10345484 0.44881135 0.5301929 0.17496282 -0.008676643 -0.0120158205 0.0062062875 -0.12505102 0.35750994 0.2517719 -0.04237636 -0.51613885 0.015056685 -0.1615156 0.13482027 -0.34994492 0.34652716 0.55522156 -0.08166823 0.779647 0.1470405 -0.020983862 0.098410174 0.23279369 -0.16826838 -0.35459313 0.34300095 0.1005342 -0.3477148 -0.0079368 -0.39557192 0.39853784 -0.33994433 0.4818419 0.21719486 0.33364543 -0.06677078 0.30068126 -0.13816226 -0.23601939 -0.008396493 0.4152365 -0.3433911 -0.005437042 0.053903762 0.33096874 0.13964106 -0.1120886 0.05372067 0.02417617 -0.36251116 -0.043526046 -0.19663852 -0.6900783 -0.21111818 0.14513715 -0.5576792 -0.25446507 0.18582529 -0.021555455 0.59683526 0.030892516 -0.016923733 0.3524998 0.6686245 0.31552127 0.22484487 0.67137635 -0.29627007 0.25399527 0.541659 -0.1680921 0.015139607 0.25758016 0.07350578 0.60039854 -0.009564206 -0.5623712 -0.40814197 -0.32943526 -0.48386198 -0.045234725 0.07258807 0.16489269 -0.12723753 -0.1710914 -0.32418293 -0.31477994 -0.06848652 0.22933891 -0.355038 0.23137188 -0.10020051 0.48747814 0.3598696 -0.009466386 -0.3328428 -0.011829942 0.29368386 0.09559086 -0.40619838 -0.28681317 -0.15859693 0.15637426 0.37835956 -0.010784238 -0.13823862 -0.3024904 0.023568006
26 0.08835255 -0.5930433 0.23398484 0.1997076 0.115900435 -0.36828282 -0.14690998 -0.015188143 -0.03358809 0.008169136 -0.13154979 -0.32204214 0.10864405 -0.36770454 0.5661506 0.013514196 0.05643485 0.40678796 -0.3956086 -0.06598318 0.39197886 0.50189567 0.08946493 0.01707014 -0.0577393 -0.026094295 -0.14677806 0.2970988 0.21877481 -0.064238966 -0.44372275 0.0727704 -0.14679074 0.11845236 -0.30582017 0.3200289 0.54227877 -0.06059747 0.6689675 0.14709891 -0.0077127265 0.082851365 0.23095651 -0.13930127 -0.3189578 0.30830404 0.055539753 -0.32405716 -0.02086112 -0.34240454 0.38391265 -0.299555 0.48337752 0.21603063 0.27453575 -0.04216118 0.2770578 -0.13504954 -0.2266665 0.032023486 0.3618739 -0.31238344 -0.009651608 0.08739779 0.3096518 0.10077974 -0.12156816 0.051838506 -0.007078589 -0.323129 -0.024183188 -0.16380294 -0.6286491 -0.18425618 0.15112981 -0.484377 -0.24845864 0.1260348 0.0031753385 0.5312427 0.022463989 -0.04656551 0.30801445 0.5773447 0.2890849 0.25757968 0.56091917 -0.25583014 0.21511038 0.47912213 -0.1269457 0.014002899 0.22475536 0.109341644 0.5158045 0.028343119 -0.47774515 -0.39185736 -0.26396066 -0.41245317 -0.05010703 0.044449303 0.13449848 -0.13034463 -0.13712953 -0.27612954 -0.24556305 -0.057382822 0.21020497 -0.3220073 0.22992256 -0.105260246 0.45586124 0.3372201 0.030907491 -0.3182477 -0.01824494 0.25608444 0.07690477 -0.3198339 -0.18479824 -0.16349499 0.13654326 0.3171705 -0.0058378642 -0.104510464 -0.23343876 0.033868533
43 -0.099938005 -0.32659134 -0.11259591 0.34146306 0.08199584 0.21558473 0.06252222 -0.077083185 0.060792536 -0.2916387 0.2364431 0.16336244 -0.09700999 0.12643814 0.2991537 0.1913495 0.04405892 0.042739097 -0.09832251 0.00047770696 0.10117908 0.3747772 -0.07677772 -0.25249797 -0.14674924 0.12830901 0.046233013 0.27738184 0.11240551 -0.34756282 -0.161911 -0.15672775 0.23982123 -0.07981752 0.11949279 0.123464115 0.02509778 -0.061968274 -0.049973175 -0.007756735 -0.110622205 0.11043204 -0.014009088 -0.20277753 0.5022038 -0.014623989 -0.08332 0.11475037 -0.12468215 0.2917879 0.16820355 0.06257856 0.41674647 0.18373263 0.03828846 0.14832348 0.41331783 -0.14444228 -0.0010738557 0.17200966 -0.1370869 0.04067761 0.094041914 -0.011812371 -0.08714836 0.0862892 0.13458474 0.21465188 -0.3221194 0.24908149 -0.0017794647 -0.02358876 -0.08142457 -0.11992736 0.10931693 0.022150937 0.0069753923 0.2040605 -0.05695901 0.13227373 -0.07943348 -0.33590308 0.022739958 0.35657164 0.20222656 -0.23625661 0.39433694 -0.1648195 0.29749984 0.13792686 0.050094813 -0.28119287 0.04421271 -0.034018487 0.044966087 0.14326026 -0.03236407 0.0005991057 -0.20209374 -0.052499864 -0.12325997 -0.21228857 -0.084154196 0.025280457 0.09309502 -0.11778093 0.09969685 0.026942095 -0.24326104 -0.05014105 0.17633645 -0.08476322 0.040788796 0.111526355 -0.045980588 -0.15478441 0.06352872 0.10971563 0.079029165 -0.068300605 -0.0325101 -0.05683077 0.039896075 -0.14601128 0.12542078 -0.07046854 -0.009848811 -0.19790718
19 -0.3406538 -0.19675958 -0.044973105 0.33506754 0.04663227 0.24449801 0.196268 -0.07808928 -0.12169241 -0.11674189 0.013633519 0.23483911 -0.115745425 0.028651174 0.24590802 0.11903795 0.16853084 -0.0712347 -0.12182634 0.07195258 -0.12908341 0.23130144 0.040016882 -0.4990129 -0.06849653 0.41034716 0.04559199 0.3296621 0.33617878 -0.35113472 0.108760595 0.092978425 -0.050667226 -0.03240287 -0.21629125 0.060979493 0.40014312 0.20671508 0.11858794 0.021310393 -0.023899112 -0.049074713 0.3386851 -0.13839664 0.4026936 0.05754081 -0.36306918 -0.030474756 0.09070472 -0.17685415 0.14401795 0.07192237 0.17219813 0.46878704 0.17815956 0.067880444 0.1670719 -0.24023719 0.052058235 -0.07172619 0.08723275 -0.3066339 0.057222422 0.07054389 -0.057790034 0.21207501 -0.019292193 0.032648023 -0.43341306 0.16278422 0.1553709 -0.004998896 0.015956447 0.0880884 0.3257667 0.024806723 -0.09933066 0.14043008 0.35674757 0.112403445 -0.085325316 -0.069922276 -0.072101675 0.033487912 0.15118483 -0.24317135 0.1653304 0.11328071 0.19087632 0.18640989 -0.101629294 0.25955477 0.0581948 -0.07955553 0.10920414 0.13364072 0.039595436 0.06435458 -0.21358314 0.09245024 -0.04501 0.008293743 0.043316633 -0.20090985 0.10242109 0.096081145 -0.04467289 -0.1505691 0.062783405 0.1533545 0.30256414 0.20165752 0.019353582 0.15453866 0.18253095 -0.040268 -0.014778959 0.10853027 0.113623865 -0.2406122 0.31295997 0.15426318 0.33583656 0.026626581 -0.13697349 -0.4214657 0.16016848 -0.3043273
11 -0.006413602 -0.21995242 -0.105411164 0.26484686 0.004239033 0.2584307 0.21997955 -0.08748513 -0.274263 -0.20949711 0.10741125 0.3863228 -0.31734085 -0.016925467 0.24865128 0.25939164 0.2933687 -0.060002085 0.0011927604 -0.11165086 0.010858142 0.18578713 0.09083451 -0.44298753 -0.09240356 0.25893185 0.005679963 0.07926736 0.14516085 -0.31828675 0.112313256 -0.05751863 0.19096836 -0.0018477596 -0.09041812 0.09230063 0.23819762 0.027906595 -0.1685264 0.042290993 0.040033992 0.014505033 0.11916029 -0.04716755 0.33805326 -0.037257522 -0.2745276 0.049879894 0.023251979 -0.0778772 0.02213067 0.022824237 0.3414156 0.33801427 0.20493622 0.21383679 0.2852397 -0.16110724 0.032155275 0.020958621 0.01983684 -0.17782885 0.07466326 0.14646153 -0.30820498 0.06762209 0.2985683 -0.008508513 -0.43716258 0.12417221 0.0906221 -0.02069275 0.07214873 -0.07835322 0.11639625 0.06576862 -0.06387783 0.112463936 0.26340723 -0.15798359 0.10968282 -0.21580616 -0.008159052 0.33723497 0.09855554 -0.15324079 0.22180888 -0.023638284 0.27713692 0.22003523 -0.07237235 0.15620333 0.13551913 -0.026998952 0.1005049 0.1435934 0.16133784 0.098747976 -0.17624968 0.101212256 -0.059147663 -0.023144312 0.0020868029 -0.18745875 0.35367194 -0.024385607 0.06471934 0.008467632 -0.031724073 -0.20439965 0.2793069 0.13398145 -0.18676077 -0.15942492 0.20369092 -0.16994235 0.18100266 0.12001224 0.01639415 -0.19638285 0.26074553 0.0070796604 0.19522166 -0.07803784 -0.09093446 -0.21691161 0.13381186 -0.19765691
35 0.19735973 -0.512465 -0.29701823 0.06456569 0.019495293 -0.14016886 0.25613308 -0.10343732 -0.402817 0.1268887 0.29333493 0.33165938 -0.23602515 -0.008328928 0.34294534 0.324987 0.23262648 0.35432655 -0.34163705 0.08271007 -0.10628313 0.1262968 -0.11304964 -0.0031637307 0.12745228 -0.3097993 0.109111845 -0.04100558 -0.13945252 -0.15136954 -0.09124692 -0.10749915 0.51388 0.28775066 -0.1678583 0.30983904 0.15933694 -0.2519865 0.27019408 0.111791156 0.18571927 0.14808342 -0.24308045 0.020900749 0.20440349 -0.029483953 -0.18817814 0.20352073 -0.031982407 0.02703885 0.13232388 -0.31505793 0.5443536 -0.037935585 0.14578404 0.34990254 0.30195326 -0.21459652 0.05934166 0.3269947 -0.012452569 0.07289863 -0.16835482 0.09276611 -0.31351206 0.0069461875 0.09180768 0.075293556 -0.28766298 0.14501777 0.21986897 -0.13067754 0.046310816 -0.2639493 0.038619913 -0.10703639 -0.31006655 0.06580783 0.06669796 0.3010614 0.23540281 -0.41897807 0.010460208 0.73028666 0.06386486 0.112740204 0.29259026 -0.31721106 0.37805218 0.40415522 0.2045079 -0.07058955 0.075211495 -0.05963802 0.21459855 0.027831813 -0.2630282 0.03659998 -0.10855109 0.043087948 -0.025167001 -0.09631162 -0.2565186 -0.2651888 0.18268867 0.042645525 0.084278844 0.19849926 -0.15668608 -0.45732644 0.0743718 -0.06975292 0.1638083 -0.27695403 0.0073268567 -0.523346 -0.016683254 0.27501473 -0.2853303 -0.16813345 -0.019548677 -0.0016160342 -0.23759219 0.32932603 -0.061903346 0.2559885 0.20582859 0.06923952
4 0.19876833 -0.3803166 -0.052474674 0.39090705 -0.008967015 0.19315177 0.21851422 -0.1312022 -0.23658474 -0.350624 0.21869583 0.37651068 -0.2963044 0.08637189 0.31200767 0.29353303 0.3386278 0.124167405 0.06307892 -0.07517263 0.16543084 0.38289523 0.12062114 -0.5209287 -0.048252445 0.2770202 0.0041649602 0.22848919 0.15245883 -0.4627196 0.06499193 -0.029593209 0.23457235 -0.04224824 0.030269438 -0.06288151 0.1003737 -0.13204342 -0.23014422 -0.17013639 -0.10897144 0.10918398 0.052119 -0.27194577 0.49242118 -0.15576519 -0.36542028 0.10181228 0.04226536 0.32265314 0.0466569 -0.0022152157 0.2446989 0.34494916 0.06409026 0.07945463 0.44097137 -0.21681929 -0.06895415 -0.02655888 0.042191673 -0.012208341 -0.031233469 0.029522961 -0.21757728 0.00026687366 0.30575025 0.23047648 -0.28577977 0.29614443 0.11626238 0.051324535 -0.021229798 -0.082243845 0.15449323 0.19370645 -0.15288018 0.024190541 0.082664 -0.10979022 0.07589925 -0.26878202 0.100383945 0.45952728 0.15332694 -0.14812295 0.32917282 -0.20720117 0.2378042 0.25363925 0.0638274 -0.1619188 0.13745718 -0.07090057 0.0425835 0.1784603 0.15496115 0.0052168006 -0.16035107 -0.049169105 -0.008091893 -0.09072439 -0.1082924 -0.026761122 0.35637683 -0.025239209 0.09122348 -0.038729973 -0.105331905 -0.19880886 0.20972826 0.036742963 -0.12879482 -0.06595864 0.03688709 -0.18458468 0.23397292 0.11754452 0.17460555 -0.17025137 0.22407462 0.11439797 0.048658963 -0.13553637 0.024638776 -0.13007878 -0.09100255 -0.12928745
36 0.17690599 -0.44896075 -0.26773605 0.007385333 -0.009371466 -0.09790209 0.2641642 -0.1081563 -0.44503084 0.12622006 0.27529296 0.33950198 -0.28493884 -0.021101438 0.29760796 0.2963917 0.25876683 0.2905056 -0.2587003 0.032295726 -0.14628409 0.09656003 -0.07093063 -0.080088794 0.13164203 -0.24438012 0.07668369 -0.0629506 -0.10337954 -0.14235471 -0.02646244 -0.09992696 0.42157087 0.28575945 -0.19366533 0.26018485 0.20512344 -0.2032889 0.2672105 0.09928863 0.20770241 0.10649193 -0.18385366 0.029099721 0.19669817 -0.080487646 -0.2489474 0.16677381 0.015321304 -0.04701502 0.13486885 -0.30903724 0.45027685 0.005544019 0.17190734 0.34014893 0.27611646 -0.2194339 0.06184044 0.28240934 0.0016768116 0.023552446 -0.18670908 0.10706007 -0.3040542 0.00837067 0.109093204 0.059864003 -0.28237256 0.09220451 0.22897784 -0.1300125 0.08144043 -0.2421585 0.036291 -0.0776517 -0.27170166 0.056033492 0.12285735 0.25413847 0.20287716 -0.333709 0.0074239112 0.64136726 0.037593774 0.09458065 0.22291647 -0.27741143 0.31657213 0.37485352 0.14515303 -0.0072209463 0.0658973 -0.07540621 0.21884575 0.0020767571 -0.19855039 0.072000474 -0.09663521 0.058021773 0.01369736 -0.06803712 -0.25723177 -0.26038042 0.22013982 0.07734571 0.050787114 0.16256315 -0.10886758 -0.4265641 0.0928753 -0.013814751 0.108769365 -0.25345296 0.029160287 -0.43384102 -0.0039815377 0.24164787 -0.20991519 -0.15540983 0.036337536 0.047712717 -0.204841 0.30446255 -0.10057142 0.20724247 0.21706346 0.04525172
16 -0.40289298 -0.2659716 -0.04316808 0.11820331 0.09315189 0.25104123 0.20422253 -0.1578332 -0.18600394 -0.11071409 -0.009248395 0.27474535 -0.19796179 -0.084449165 0.26923618 0.072455384 0.38746426 -0.1552601 0.014523715 -0.041529775 -0.17983459 0.32819492 -0.055833716 -0.41561067 0.042960886 0.34270054 0.18003632 0.2035187 0.20276117 -0.4352134 0.15233739 -0.15249512 0.094624534 0.073970236 -0.17745006 0.23036331 0.32914644 0.16345519 0.1157378 0.05551624 0.0065368214 -0.10252927 0.14429212 -0.16270101 0.3630251 0.12766105 -0.30036572 -0.060252205 0.019094395 -0.28575468 0.13312 0.25044417 0.22186649 0.31371754 0.18324341 0.07700212 0.22177692 -0.25213107 0.010297495 -0.19383615 -0.013658253 -0.34163252 0.09449721 0.03583788 0.072957076 0.321968 0.07559787 0.007459881 -0.42416856 0.10018624 0.18100308 -0.007826974 0.008978465 0.13654096 0.06592507 0.1897173 -0.16065937 0.24866939 0.3616815 0.1781634 -0.20920412 0.06171696 -0.12385806 0.08863501 0.06563436 -0.2856429 0.15292773 0.03309619 0.11116673 0.06239195 -0.03226267 0.1683966 0.03532678 -0.11811703 0.18236399 0.1529638 -0.07805816 0.036698554 -0.07850569 0.04693911 -0.07283489 -0.07485471 0.09766029 -0.13500787 0.21945584 -0.0631185 -0.0032887699 -0.22618665 0.09797014 0.013758633 0.16959019 0.32539093 0.016571673 0.06724046 0.1600348 -0.06900005 -0.07637451 0.105319396 -0.024195703 -0.11571673 0.23468554 0.0656115 0.26709366 0.010337838 -0.14077978 -0.3033747 0.2935338 -0.073835455
9 0.2932874 -0.34891424 -0.015308982 0.2491757 0.05519426 -0.0019057575 0.24014111 -0.05034091 -0.30270216 -0.3547271 0.115794145 0.13780953 -0.3056434 0.081477575 0.28060722 0.3814031 0.27057338 0.17463773 0.03527253 0.078880794 0.29277244 0.24482 0.16328047 -0.36781257 0.18670583 0.29714224 -0.00406233 0.37827596 0.16040637 -0.12081105 0.153862 -0.055237178 0.29973853 -0.06360135 -0.09776087 -0.20976587 0.010037379 0.08024635 -0.039892405 -0.16341306 -0.22734737 0.039838064 -0.0013018143 -0.20184255 0.4077475 -0.04496726 -0.32888448 0.0374453 -0.025493054 0.3109437 -0.10664342 0.05410276 0.36422545 0.26870182 0.008360265 -0.029566728 0.5651679 -0.22248681 -0.020298565 -0.11345105 0.031960733 -0.07488835 -0.04917054 -0.035305586 -0.21457145 -0.011004624 0.15465742 0.04024922 -0.20251203 0.3514265 0.1681891 0.069323786 0.020292724 0.03553062 0.018882046 -0.012419349 -0.32174492 0.23899208 -0.14699444 -0.08313417 0.1627888 -0.328409 0.0067597358 0.70084596 0.27957898 -0.07830153 0.31826156 -0.39083493 0.26868892 0.3665835 -0.01263938 -0.20964245 -0.062477425 -0.038136177 0.1801968 0.01903259 -0.04303265 0.032800406 -0.2524084 -0.16940737 0.04038873 -0.14142795 -0.18653505 -0.08265938 0.22468124 -0.08042697 -0.16859643 -0.021209134 -0.19015852 -0.22182512 0.33137664 -0.10329854 -0.100422375 -0.19631867 0.20094968 -0.1523997 0.15280542 0.0030949565 -0.0051962757 -0.19402593 0.1630154 0.045128405 0.08725089 -0.07348833 -0.103089884 -0.19241004 -0.2626181 0.0592837
2 -0.26624146 -0.30221003 -0.13356179 0.4427817 0.1263643 0.28107357 0.015110433 -0.027587904 0.16184634 -0.30695668 0.29370794 0.18983528 -0.013824397 0.15225075 0.34999406 0.19719793 0.021097835 0.015141344 -0.10580872 0.04105788 0.042965546 0.37309095 -0.122715905 -0.2891045 -0.17950965 0.16430093 0.08713488 0.36377186 0.17419076 -0.43859088 -0.22870962 -0.14520279 0.22943434 -0.14108776 0.16952752 0.18418068 0.061409496 -0.056409348 -0.05868096 0.007122815 -0.09046949 0.10001699 0.046635576 -0.24171966 0.6274498 0.016756913 -0.12458767 0.1386773 -0.104759075 0.34827897 0.16727012 0.12686527 0.49011642 0.23389009 0.027926987 0.1653284 0.41118097 -0.13786106 -0.0013347814 0.21978633 -0.19860451 0.0193879 0.18843025 -0.03418878 -0.074969545 0.17988741 0.11616673 0.25551066 -0.37928715 0.30629903 0.029650984 -0.058238298 -0.10661861 -0.1774788 0.21555053 -0.02197144 0.044987082 0.23754351 -0.01200213 0.18738924 -0.13685514 -0.3916322 -0.036743477 0.35124972 0.24686188 -0.3198542 0.46426988 -0.0962139 0.38603887 0.14747193 0.07298171 -0.31520322 0.08103891 -0.0034806645 0.018314784 0.20976505 -0.031761993 0.00651207 -0.21487583 -0.015392053 -0.18462454 -0.2676138 -0.06501185 0.0290429 0.13605703 -0.094793916 0.14938809 -0.03502822 -0.2694701 0.02836997 0.2002554 -0.0654729 0.09689514 0.15133522 -0.035362486 -0.1501186 0.05022951 0.12837762 0.1154873 -0.1221496 -0.03680532 -0.066286236 0.10957314 -0.17613696 0.12814195 -0.13418366 0.03414003 -0.3141554
7 0.09004069 -0.37204814 -0.071843795 0.35368976 -0.012779461 0.1576237 0.28954062 -0.09646916 -0.26300108 -0.3146123 0.045126367 0.24098666 -0.34649387 0.10803232 0.22789733 0.2502699 0.12295598 0.12039747 -0.028329859 0.071780086 0.10784094 0.33500785 0.04696558 -0.35112765 -0.06539947 0.18539843 0.10628188 0.31280634 0.10300237 -0.25273314 0.13257195 -0.07157758 0.2509735 0.0011985138 -0.050797444 -0.029959548 0.08823347 0.11891558 -0.08093217 -0.07815937 -0.16271329 0.059795775 -0.066366546 -0.06968144 0.45313728 -0.03575186 -0.14482808 0.090618186 -0.018581273 0.2787042 -0.015329061 0.013936337 0.32060093 0.310893 0.045616757 0.07277483 0.38904396 -0.23367016 0.061908536 -0.033583887 0.11047585 -0.13100971 0.09745758 -0.015653709 -0.32921806 -0.012135993 0.14474384 0.12396155 -0.3809454 0.33794025 0.08049259 0.07988666 0.15123177 0.08670628 0.100748815 0.16955222 -0.19295922 0.07941339 0.037157476 -0.07686281 0.14829691 -0.3188003 -0.025828289 0.3996022 0.12194237 -0.18477276 0.361251 -0.27968195 0.30399466 0.3222985 0.044168696 -0.021852184 0.04071639 -0.13450283 0.06477088 0.16190016 -0.024402183 0.12529856 -0.22791034 -0.008869068 -0.037762422 -0.10149867 -0.09379408 -0.25812024 0.09086886 0.023218844 -0.03547132 0.12171057 -0.15868916 -0.14608571 0.2878855 -0.059609283 -0.14840962 -0.05087746 0.12099119 -0.17062661 0.16253987 0.087192185 -0.009959415 -0.015736364 0.21508795 0.13307841 0.1509371 -0.106624216 0.042633016 -0.28607917 0.018746495 -0.0856582
14 -0.1950429 -0.2952119 -0.16888997 0.21378794 0.01947759 0.3829972 0.2603209 -0.10956528 -0.22205956 -0.1670007 0.037820525 0.29695174 -0.23300706 0.13175835 0.23273546 0.12835181 0.25489384 -0.03181902 -0.13099204 -0.0019749654 -0.1816439 0.29927614 0.023930987 -0.488435 -0.04475643 0.33704838 0.16246168 0.20609482 0.1871221 -0.33248785 0.113884635 -0.10153281 0.14899458 0.010605906 -0.18809351 0.061651327 0.22937587 0.0868249 -0.009842547 -0.057527874 -0.056293573 -0.018440606 0.119195364 -0.16823025 0.50594145 -0.0017078577 -0.34144905 0.06433683 0.022008551 -0.08930025 0.23609427 0.03813106 0.2809717 0.37105483 0.1497922 0.16771865 0.40520784 -0.2647867 0.05706119 -0.095511 -0.057935264 -0.16325852 -0.039320998 0.01884245 -0.084690034 0.1312046 0.10534647 0.13472784 -0.5433592 0.18400711 0.16543731 0.019423809 0.12696975 0.12701593 0.12731396 0.22342035 -0.12010577 0.14539844 0.23254281 0.06654269 -0.109499015 -0.076930985 -0.06401035 0.17347355 0.068447016 -0.21470481 0.24446973 -0.046272818 0.22506207 0.11180414 0.027621288 0.11688663 0.018887553 -0.11514435 0.099491484 0.15340857 -0.03962389 0.07518006 -0.14285307 0.034079205 -0.043201726 -0.07282272 -0.06510617 -0.14508544 0.22166598 0.012742631 -0.00903808 -0.015824245 -0.069345124 0.020881029 0.3167361 0.1581824 -0.10496309 0.128774 0.17377387 -0.04144821 -0.0046926634 0.16115722 0.11777162 -0.07814986 0.34504113 0.13752092 0.19977416 -0.0475705 -0.017490037 -0.27550352 0.16827911 -0.16924776
25 -0.26383248 -0.26762778 -0.10401433 0.21696422 0.047870502 0.24097122 0.22285566 -0.10286294 -0.1808091 -0.11344145 0.046067655 0.3082776 -0.18532336 -0.023231175 0.2560079 0.12382829 0.2911196 -0.055731725 -0.091941506 -0.011705983 -0.1524001 0.23421358 -0.019753542 -0.43096793 -0.0054086335 0.28188565 0.13250396 0.19061258 0.23757713 -0.3744245 0.087263495 -0.045042355 0.095441185 0.014412305 -0.16110805 0.1796508 0.2826927 0.08305848 0.08249579 0.040343758 0.02776495 -0.044384886 0.15313575 -0.12960078 0.38715464 0.030484205 -0.31027213 0.010210651 0.07058879 -0.16648337 0.1431982 0.089916535 0.25879395 0.35362875 0.17070344 0.137998 0.23832373 -0.23701178 0.03669663 -0.07592395 0.014237644 -0.24759375 0.06579583 0.067317575 -0.09250221 0.21048877 0.124292426 0.0816049 -0.43344548 0.15383258 0.17736112 -0.015337308 0.042148188 0.07357232 0.20030138 0.11212512 -0.12893464 0.1454736 0.3395574 0.077025354 -0.07147176 -0.09461889 -0.079889074 0.18455237 0.08505679 -0.19797093 0.20294744 0.002758209 0.22812334 0.16410616 0.010436133 0.19060065 0.07988842 -0.095841914 0.1397179 0.17550261 -0.022860464 0.06430586 -0.1205114 0.07355933 -0.052414365 -0.053794008 0.025245706 -0.17744699 0.26445395 0.025882015 0.005992598 -0.14895087 0.02367415 -0.009232406 0.26201406 0.23266709 -0.02483265 0.05572919 0.20058952 -0.09499682 0.01673854 0.11128232 0.03296679 -0.14942928 0.29713395 0.1256983 0.2556149 0.012535772 -0.094530776 -0.28984067 0.2466354 -0.20845562
10 -0.19747517 -0.29560342 -0.13827787 0.1995462 0.004704815 0.34707475 0.24062423 -0.10548164 -0.26752976 -0.1550812 0.05463234 0.28133464 -0.2922613 0.12836777 0.23881382 0.15356345 0.26340955 -0.026475213 -0.098353766 -0.0026920424 -0.15902026 0.2686455 0.057729095 -0.4954868 -0.0501445 0.33426657 0.102837466 0.20095533 0.18245071 -0.2887371 0.10276053 -0.07658906 0.112801686 0.011992541 -0.18250085 0.039063994 0.2566195 0.11112193 0.030040251 -0.058551017 -0.03142958 -0.01992433 0.15248354 -0.14758568 0.48044425 -0.014218896 -0.35267678 0.057437144 0.05601852 -0.09054645 0.2081236 -0.0010866261 0.27031082 0.39416036 0.19610023 0.15149458 0.40574968 -0.25448143 0.04054612 -0.048273273 -0.017496238 -0.17861302 -0.029090181 -0.0036331299 -0.10399747 0.12318101 0.102601565 0.12383169 -0.48967543 0.16942018 0.18636742 -0.00031223608 0.14311925 0.047540393 0.12682822 0.17906365 -0.13360912 0.13472192 0.19699681 0.07037833 -0.10225206 -0.061101522 -0.06715931 0.21388893 0.079398535 -0.20306338 0.25113705 -0.050170276 0.23366943 0.17508042 -0.0057556075 0.10660381 0.037674326 -0.10955557 0.12382037 0.13561335 -0.026533557 0.11036194 -0.15723492 0.020294843 -0.05320977 -0.05746388 -0.08463054 -0.15341412 0.21728453 0.043480545 -0.032698344 0.0072710444 -0.04830041 -0.02639069 0.2968964 0.11913626 -0.120502286 0.100834616 0.14339577 -0.024432331 0.032756258 0.16387227 0.14289333 -0.073654234 0.3238362 0.1463113 0.17506528 -0.052521653 -0.057006795 -0.28179538 0.13178915 -0.17267935
42 -0.25325966 -0.26378447 -0.106797665 0.32388386 0.14475791 0.22907905 0.021473605 -0.0772701 0.13586968 -0.2462499 0.26458132 0.13714221 -0.060056224 0.12636705 0.28482512 0.14674242 -0.0010288949 -0.023958975 -0.106017925 -0.016194344 0.047471005 0.3677006 -0.14379282 -0.24651138 -0.16003774 0.12569022 0.04676424 0.2888488 0.1517811 -0.38295382 -0.19480194 -0.1424914 0.22995836 -0.06465839 0.15193084 0.20460214 0.07813876 -0.018259155 -0.011970191 0.045629382 -0.09919431 0.08521928 0.024733154 -0.19976765 0.53226215 -0.0028578825 -0.0993508 0.10398603 -0.13262922 0.22108679 0.24292766 0.15507455 0.43262264 0.17013723 0.037534 0.21932013 0.40786135 -0.13546437 0.037903167 0.21969953 -0.17445649 0.020936057 0.1633146 -0.046104122 -0.07465335 0.16543846 0.117197 0.21458752 -0.35044372 0.24530612 -0.023381839 -0.047882766 -0.12065881 -0.15750062 0.1524623 -0.02436518 0.08547972 0.28089 -0.011868343 0.20181073 -0.15911312 -0.32949674 -0.009832573 0.28730023 0.22323126 -0.31953418 0.41495994 -0.098300405 0.3043524 0.12442709 0.030797452 -0.3031393 0.038595654 -0.06738084 0.05826832 0.14781718 -0.022785272 0.0061440207 -0.24428917 -0.011448524 -0.17477491 -0.23542807 -0.060827274 0.058764122 0.112542495 -0.10670096 0.10484633 -0.04353406 -0.24882673 0.028358355 0.17680229 -0.031973056 0.08325349 0.12028287 -0.05078928 -0.15100418 0.03345335 0.11033327 0.07608789 -0.06290966 -0.058002062 -0.05731725 0.06780245 -0.15186226 0.11525918 -0.08074399 0.025893219 -0.25240377
15 -0.19275664 -0.22614624 0.04174593 -0.0035451024 0.13472323 0.1825925 0.22756547 -0.253615 -0.26392817 -0.106469125 -0.005326786 0.06454074 -0.41661918 -0.1102976 0.123096384 0.02060589 0.26641417 -0.19260982 -0.01819052 -0.3518004 0.0031235733 0.44686446 5.9998525e-05 -0.5497487 -0.014570428 0.33082572 -0.15970281 0.16819052 0.3102876 -0.2580662 0.22168796 -0.06304945 -0.00034440833 0.24058965 -0.23858483 0.19165137 0.5014124 0.28340235 0.2505719 0.12163827 -0.020943822 -0.07439393 0.25140226 -0.15067321 0.19337893 -0.0960343 -0.398026 -0.16140154 -0.048607655 -0.59623146 0.4774861 0.22424735 0.13726166 0.40033975 0.30584186 0.29118297 0.43784177 -0.24364448 0.07830183 -0.12854831 0.13666894 -0.36782187 0.08284355 0.063350685 -0.06923121 0.20640384 0.23159252 -0.0049819434 -0.45306954 -0.0734002 0.011417345 0.016967174 -0.10468779 0.09122495 0.09152902 0.008891087 0.120222986 0.35857967 0.3589642 0.05268123 -0.20739047 0.07829479 0.023252983 0.06568379 0.15736717 -0.25240272 0.21215129 -0.05021458 -0.022638787 0.23939909 -0.26717836 0.18683438 -0.02577364 -0.26422545 0.34925598 -0.051108558 0.047964223 -0.016310964 -0.4296029 -0.02146626 -0.010062186 -0.073460065 0.0921916 -0.028352244 0.2773636 -0.10787536 -0.22681616 -0.25445163 0.12638035 0.028674897 0.33479092 0.3631337 -0.094350204 0.032788016 0.16871634 -0.02919386 0.04917894 0.06502424 0.10437196 -0.071925424 0.26712406 0.118717596 0.24387585 0.005637785 -0.12714684 -0.29879504 0.078655735 -0.12379608
8 0.25621307 -0.39608318 -0.14850079 0.25829232 0.008247706 0.22405055 0.30434325 -0.12901677 -0.31510434 -0.35932332 0.22090837 0.29463977 -0.33159858 0.12385362 0.23658533 0.31165695 0.19740123 0.10500559 -0.041312575 -0.042692993 0.049009852 0.36319152 0.060223293 -0.4527584 -0.047644477 0.22915177 0.004113096 0.2705931 0.10379828 -0.19398835 0.110539354 -0.1635095 0.23880616 -0.01811908 -0.040089667 -0.09903682 0.04626829 0.008313889 -0.092535496 -0.10005613 -0.08143761 0.06376463 -0.098285705 -0.12733443 0.56447583 -0.21770464 -0.31430876 0.09302836 -0.061523877 0.25132126 0.03181153 -0.07013098 0.4131463 0.35884762 0.14895666 0.1281729 0.5923447 -0.2458888 0.013510965 0.05443322 -0.032681663 -0.01776719 -0.10276815 0.040081203 -0.26903358 -0.09880237 0.21707255 0.19878775 -0.48293677 0.27246737 0.1740924 -0.0048413826 0.16961099 -0.04168889 0.034302577 0.17632608 -0.13916406 0.10141226 -0.0066299224 -0.06895428 0.06652132 -0.38060006 0.02950348 0.5732803 0.15532693 -0.15984838 0.34191167 -0.31283206 0.26705685 0.26359925 0.00756994 -0.1356858 0.021356171 -0.06770694 0.08025783 0.03078255 -0.03559616 0.079128504 -0.24503921 -0.060581367 0.036982816 -0.2356734 -0.24416766 -0.14501467 0.23813194 -0.0061712624 -0.020540088 0.10291767 -0.19703826 -0.114933774 0.32799286 -0.06392134 -0.10433925 -0.031643357 0.05707968 -0.07024605 0.1587652 0.12981455 0.16570859 -0.09265873 0.22781105 0.08325666 0.012442231 -0.10271541 -0.003910733 -0.21357329 0.018318761 -0.12817828
