90 128
39 -0.33507305 -0.2889587 0.08916444 0.3209007 0.013118256 0.03177294 -0.11693677 0.041553672 -0.269221 0.11402299 0.1640062 0.22437455 0.10526406 -0.08097743 0.23007202 -0.030496845 0.19430876 0.13327883 -0.21306503 0.24011616 0.021476705 0.10427501 0.042501558 -0.23441084 -0.22470918 0.048884656 -0.057662588 0.25255567 0.27967992 -0.032148335 -0.26057994 0.027624952 -0.2275675 0.12061085 -0.14316717 0.19776714 0.08804709 -0.12896119 0.065621406 0.056856513 -0.18179278 0.081845894 0.010347346 -0.10077902 0.51056814 -0.004448205 -0.35193262 -0.119787954 -0.12278497 0.096040726 0.3873495 -0.18290544 0.3337571 0.18563804 0.13692781 -0.018640645 0.13693418 -0.15196474 0.19592987 0.15157858 -0.14204755 0.07603401 0.10911173 0.070275664 -0.031483226 0.15324079 0.09919652 0.2359791 0.16230822 -0.011108869 0.19914848 0.038563512 -0.4836933 -0.24301907 0.3581641 -0.15194908 -0.025022265 0.34966 0.011824109 0.1880977 -0.11519191 -0.15350017 0.19467033 0.49986073 0.21773961 0.023530316 0.4159368 -0.032822095 0.32770365 -0.011391754 0.28266302 -0.12808102 0.07070933 -0.2151895 0.27250358 0.006028807 -0.05292166 -0.18211831 -0.03900612 -0.032146737 -0.087452255 0.015168618 -0.024490079 0.052607056 0.07879797 0.15217653 -0.057958692 -0.08510857 -0.14596277 -0.13605765 0.2585935 -0.054162487 0.20489772 0.08794676 -0.027347723 -0.11919904 0.19755968 0.08592063 -0.113845244 -0.3165298 0.042129982 -0.030498048 0.05011284 0.17066891 -0.103454344 -0.061403334 0.075256005 -0.06913233
31 -0.28490224 -0.21641168 0.08935132 0.16037421 0.0058407714 0.008842826 -0.061941497 0.015330928 -0.17190018 0.058780584 0.09374966 0.18866216 0.06737184 -0.1102707 0.25015873 -0.019826962 0.052684616 0.09695245 -0.18213813 0.1929054 0.038916405 0.20288786 0.05101442 -0.13223708 -0.17289068 0.051835682 -0.05233493 0.19830194 0.26977864 -0.039230995 -0.21823864 -0.028270233 -0.15393063 0.14118299 -0.16865104 0.1410079 0.040169276 -0.20030329 0.08650473 -0.0068067187 -0.15639886 0.017565768 -0.055782903 -0.097244486 0.41265967 0.079419754 -0.16116102 -0.15408534 -0.12243816 0.1087803 0.36083713 -0.0964096 0.19749635 0.12555833 0.117010266 0.004963372 0.18223806 -0.06503338 0.14622217 0.109661244 -0.07852576 0.047563273 0.09627898 0.037062544 -0.05886762 0.14019738 0.09758044 0.22883455 0.10249908 -0.03573464 0.1597878 0.09245849 -0.42159978 -0.15142377 0.21695091 -0.12623967 -0.042125154 0.2713342 -0.009607488 0.24350165 -0.04188857 -0.12136433 0.19119123 0.37953916 0.24078715 0.0012422551 0.285802 -0.07601997 0.26804984 0.04516751 0.14061892 -0.16877648 0.07386855 -0.2664459 0.22904785 -0.07198142 -0.03317725 -0.14399385 -0.1054631 -0.037636053 -0.101352684 0.075007595 -0.04722913 0.026603706 -0.0012581084 0.14215788 -0.08716866 0.078278184 -0.08505848 -0.17033267 0.21154174 -0.015540068 0.14870968 0.08435115 -0.0959665 -0.17969666 0.14629756 0.101301506 -0.03849204 -0.26953885 -0.07648433 0.02063854 -0.028663874 0.20019053 -0.09619712 -0.09442002 0.017461466 0.017948005
33 0.44958767 -0.2141601 -0.08126192 0.11120173 0.17718993 -0.2464021 0.17196244 0.022678163 -0.06610148 0.05756539 0.14541426 0.13471073 -0.17656954 0.210829 0.40829712 0.51829225 0.061036434 -0.007505439 -0.13251485 -0.029964104 0.20420568 0.42997018 -0.13584073 -0.010833226 -0.08668371 -0.0338043 -0.07774595 0.22449785 0.10365992 -0.18796347 0.012614552 -0.09121712 0.53813964 0.168027 -0.16226952 0.20017736 0.068077266 -0.014951455 0.27132824 0.23424222 0.1347927 0.003174355 -0.07688712 0.010678521 0.12662326 0.23206851 0.07555952 0.14989145 -0.10166632 0.18383634 -0.16369608 0.3243208 0.19607449 0.08219108 -0.02237905 -0.013935317 0.38278085 0.15970777 -0.14146376 0.137957 0.03894917 0.007123344 0.028827157 0.344727 0.39895713 -0.20524621 0.09273773 -0.08766848 -0.34659994 0.18572779 0.24807663 0.02590013 0.08058983 -0.006378292 0.041302375 -0.11570364 -0.45906046 -0.1594243 -0.3198479 0.23868418 0.13963473 -0.34391686 -0.24770582 0.28203613 0.24960043 0.16190238 -0.03557637 -0.5197898 0.054691993 0.29714596 -0.19172734 -0.08403631 0.10988238 -0.027861238 -0.023446484 0.020618886 -0.03491679 -0.08379583 -0.21715789 -0.21736474 0.050775114 -0.16119754 -0.100145794 -0.1288986 -0.2749389 -0.19038878 0.005053953 0.08841517 0.053783607 0.07712563 -0.110978514 -0.046382293 -0.064070165 0.1061747 -0.10832356 0.035622317 -0.14997408 0.011746225 0.16556074 0.12905435 -0.09925397 0.013213029 -0.19783159 0.073359065 0.01036144 -0.15026003 0.012277324 -0.008875315
47 -0.27520666 -0.2210464 0.09174313 0.15956138 0.046486795 0.019916372 -0.18845066 0.09266207 -0.19068292 0.042293265 0.20187928 0.2538437 0.02610243 -0.20858139 0.34609327 0.058407035 0.06201795 0.20577988 -0.27163187 0.12931846 -0.11607422 0.2512335 0.00067317596 -0.221032 -0.2234533 0.050567042 -0.008532645 0.23894292 0.41095525 -0.12790099 -0.3195405 0.068961225 -0.2176354 0.12818123 -0.23199898 0.206981 0.16764858 -0.012506442 0.122770384 0.021110497 -0.08119695 0.034792334 0.082802355 -0.030438382 0.28011793 0.13373576 -0.24006146 -0.23004118 -0.09426131 0.07934314 0.20054662 -0.09162134 0.25446492 0.10043852 0.15299892 0.12822925 0.2048615 -0.107255585 0.15155694 -0.055808853 0.11890787 0.005944954 0.18431126 -0.008650368 -0.048200004 0.15103774 0.1477076 0.34743077 0.22365136 -0.14341128 0.27863067 0.03628089 -0.55314386 -0.24608272 0.27113813 -0.15474422 0.049449876 0.2677051 0.03754519 0.24463002 0.08027378 -0.05762884 0.26138157 0.39468494 0.13234664 0.0607343 0.29582533 -0.062461976 0.43359643 0.17184642 0.17463449 -0.04896195 0.14369962 -0.074146666 0.26676852 -0.094360396 -0.18427643 -0.20103185 0.030861646 -0.20604065 -0.17162834 0.08688962 -0.13523236 -0.01483939 0.038505152 0.2575067 0.0073555773 -0.11809707 -0.06872589 -0.17011508 0.27190697 -0.021848207 0.21093728 0.092855185 -0.021735 -0.33253047 0.1241788 -0.0098706065 0.06517659 -0.31464508 0.034741655 0.036021512 0.060381096 0.17574833 -0.16518788 -0.15136082 -0.10573216 -0.017426576
17 -0.20361432 -0.35692853 0.030143231 0.29544798 -0.07291199 0.027711827 -0.045017596 0.05209462 -0.26312542 0.04451581 0.13759586 0.21294473 0.08828899 -0.059406307 0.31200182 -0.04482151 0.22558416 0.07696117 -0.09366169 0.15238422 -0.004008862 0.14408275 0.01992918 -0.17257506 -0.20228979 0.019298675 -0.021103023 0.16015774 0.20727451 -0.017672071 -0.19888347 -0.08205294 -0.1920176 0.22644506 -0.1439566 0.17246807 0.19355945 -0.14583546 0.124903105 0.07354938 -0.16822416 0.06613196 0.00091170985 -0.0015349917 0.5597609 -0.024111096 -0.29468915 -0.078045815 -0.00052527036 0.036651324 0.45486507 -0.19987838 0.3027357 0.1773247 0.13339022 0.029005509 0.21550342 -0.12224085 0.116627775 0.17509292 -0.1734075 0.03765481 0.07136545 0.04486318 0.019386405 0.054298315 0.0626783 0.17783146 0.09223294 -0.078648806 0.18746506 -0.030460091 -0.4515962 -0.25293267 0.27778527 -0.11577583 -0.046063334 0.22870879 -0.006727291 0.17622155 -0.10802605 -0.17124385 0.26259875 0.48160788 0.22442971 0.008711957 0.36237663 -0.083708145 0.25359035 -0.07110411 0.22458513 -0.18150881 0.098427705 -0.2479163 0.25595415 0.029523714 -0.0019112497 -0.09297062 -0.04600872 -0.039088726 -0.07574945 0.02483403 -0.026253235 0.08315665 0.105976924 0.0641223 -0.12501654 0.04951025 -0.112154655 -0.20298171 0.27678624 0.009838048 0.16506395 0.1401089 -0.0018070036 -0.08249162 0.18359938 0.124544546 -0.09121335 -0.28039256 -0.0064701955 0.0064374846 -0.00570595 0.17055263 -0.056180738 -0.047457162 0.1883942 -0.091122024
25 0.4944636 -0.23473892 0.1334431 0.1927379 0.2542041 -0.15834917 0.058723517 0.08516201 -0.06547749 0.11389187 0.19115666 -0.084347196 -0.08664155 0.06354741 0.421905 0.3674936 -0.01106733 0.071739964 0.0034367414 -0.043952264 0.08354745 0.33875844 -0.029740773 -0.1292 -0.13276201 -0.18410869 0.14518888 0.1310466 -0.11370033 -0.22602051 0.084117115 -0.100677624 0.4210212 0.306522 -0.2489863 0.16736156 0.25463772 0.04182322 0.24205439 0.2028648 0.03758132 -0.06370822 -0.00094131986 0.16087383 0.13427407 0.29185805 0.017587932 0.20081915 -0.07151103 0.19508821 -0.038736224 0.30614027 0.1162978 0.015416393 -0.20258118 0.075863816 0.44589812 -0.015007154 -0.01759113 0.056838278 -0.025533302 -0.09159026 -0.12467351 0.15310302 0.37453818 -0.2910235 0.065380104 -0.05868173 -0.5053385 0.1691997 0.10029091 -0.19167468 -0.05835529 -0.079405315 0.035654463 -0.097721 -0.37392598 -0.390163 -0.29868492 0.3072908 0.067681305 -0.23188512 -0.051453862 0.36496818 0.13961641 -0.0006529029 0.2367673 -0.6291026 0.08740584 0.32795754 -0.26370433 -0.21302727 0.2486457 0.003410826 -0.009033552 0.2179887 -0.12676194 0.02218708 -0.25212133 -0.24000214 0.08025873 -0.06812993 -0.10693489 -0.25085425 -0.15109514 -0.19033782 -0.0055881096 0.0808689 -0.048196174 -0.01259785 -0.017146954 -0.14361304 0.10232819 0.03159901 0.048658855 0.124119565 -0.043567225 0.023669686 0.13058881 -0.031246196 0.0878559 -0.022779893 -0.047493722 0.040476628 -0.016101215 0.057181355 -0.036384236 0.07740163
87 -0.19902958 -0.20513934 0.30572584 0.4022373 0.23483574 0.008660424 -0.13983862 -0.022723183 -0.16864721 0.2558869 0.12969787 -0.042123325 0.22722173 -0.15640348 0.29348496 -0.0880359 0.0062102373 0.11991657 -0.1323128 0.25675303 0.097813554 0.024438862 0.16514285 -0.33760062 -0.2037521 -0.014287847 0.19274338 0.20823747 0.1870214 -0.183325 -0.2624176 -0.056719422 -0.22436613 0.2037866 -0.25076568 0.124491714 0.08228625 -0.096117795 0.06543936 0.058771197 -0.3496502 -0.030060068 0.041535843 -0.00046633068 0.46679676 0.15053287 -0.31705862 0.033889674 -0.18734393 0.2001813 0.31722638 -0.0077581685 0.22594325 0.14581954 -0.059579793 0.11907679 0.10146401 -0.16564788 0.24848366 0.0802243 -0.15990545 0.108317986 -0.080157116 -0.045854803 -0.042304322 0.031667836 0.10752361 0.28305805 -0.048383396 0.16166107 0.14830826 -0.09996457 -0.5511395 -0.20814687 0.37887257 -0.10358625 -0.12286384 0.080378324 0.07590902 0.29492843 -0.115935095 -0.0641735 0.17915377 0.50348353 0.055872254 -0.07124882 0.5695949 -0.11624197 0.24783196 -0.0016287535 0.13115244 -0.24709158 0.16914082 -0.2968484 0.23391764 0.18659508 -0.07355752 -0.14712052 -0.2606829 0.020266566 -0.09906943 0.14025426 0.0998709 -0.09788763 0.12691225 0.19214736 0.0127933705 -0.17372337 -0.21783364 -0.16628362 0.24494992 -0.16561961 0.30519414 -0.09739993 0.08379594 -0.05480895 0.13721754 0.052563775 -0.20395663 -0.4739036 0.10776561 0.023216927 0.16580367 0.23876595 -0.1397902 0.095680036 0.0058446014 -0.011516909
0 -0.101136744 -0.2048103 0.03274371 0.19393827 -0.001855253 0.0164734 -0.15965883 0.15084314 -0.25466827 0.01737084 0.153586 0.2534526 0.078624 -0.19780765 0.38193172 0.014709498 0.23934236 0.22009689 -0.18670382 0.12201776 -0.0664208 0.26276538 0.03287797 -0.22962236 -0.24445115 0.08330227 0.05896456 0.20380816 0.41806042 -0.08859873 -0.35047838 0.009957042 -0.21864544 0.1753703 -0.28337157 0.24057326 0.2570719 0.1258234 0.062899515 0.11698633 -0.096786164 0.03884544 0.12417662 0.06057996 0.26861057 0.0757872 -0.2809155 -0.22513187 -0.00057530444 -0.014295767 0.17645527 -0.164396 0.3760012 0.111438245 0.1370066 0.15276779 0.20691256 -0.1598562 0.18287975 -0.16179356 0.08104576 -0.039542265 0.11353288 0.08358195 0.1091258 0.07418264 0.22867262 0.20917116 0.11268434 -0.25579917 0.23080644 -0.01146308 -0.5100313 -0.26467502 0.25912368 -0.1160793 0.02360426 0.29459876 -0.01443712 0.13592714 0.08532266 -0.11527806 0.16745947 0.47438335 0.0977419 0.11305712 0.37206566 -0.16595848 0.45406365 0.03524945 0.15338217 -0.01754077 0.06547252 0.022076597 0.27228197 0.022923881 -0.21114582 -0.19472946 0.1042813 -0.17943694 -0.108724125 -0.00041119813 -0.025829751 0.015151555 0.046455886 0.18906467 0.06339473 -0.20340092 -0.15136419 -0.1337011 0.26713762 0.0024040844 0.1553221 0.08867866 0.124921486 -0.14776981 0.16387801 0.033150364 0.024834393 -0.26397136 0.08066321 -0.020492112 0.12416848 0.0977829 -0.085353106 -0.15193556 0.05492218 -0.037084162
20 -0.48573762 -0.2514703 0.076750405 0.20021789 0.08897081 0.09081891 -0.21112339 0.06574442 -0.22926554 0.22024544 0.29706198 0.35974103 0.018492462 -0.027965728 0.23869869 0.13953356 0.13599676 0.15446761 -0.38760525 0.24864258 -0.13677146 0.004907117 -0.036231462 -0.34528637 -0.2690163 0.024840157 -0.11180014 0.2670955 0.34900463 -0.059332784 -0.23973203 0.22641641 -0.20632832 0.09832086 -0.107270345 0.24750462 0.057715196 -0.11350626 0.14694178 -0.0021669394 -0.017888771 0.07102714 0.027249254 -0.13951819 0.5026762 0.03400015 -0.43947497 -0.16537254 -0.21349037 0.19782479 0.27590725 -0.024719996 0.29657105 0.20589292 0.1460243 -0.023015363 0.200865 -0.03555499 0.18936817 0.22445709 -0.14786218 0.18129522 0.1417746 0.018265368 -0.10703002 0.22084731 0.043496758 0.31729373 0.20418307 0.03427208 0.33361968 0.09963932 -0.4223641 -0.30064604 0.404177 -0.21746275 0.0055633616 0.25185025 0.06743502 0.30726612 0.015147435 -0.11046768 0.19119605 0.44716975 0.24941602 -0.023499997 0.31791988 0.053219676 0.38091677 0.16239859 0.29453096 -0.086331464 0.14107302 -0.18401796 0.15625198 -0.109132804 -0.109386116 -0.19508892 -0.020979663 -0.17363264 -0.14472304 0.051244695 -0.18995696 0.017122256 0.12564766 0.26697305 -0.025788428 -0.1797378 -0.08197991 -0.030162673 0.17364842 -0.046328437 0.25145045 0.08442553 -0.13846232 -0.27906826 0.13119765 0.0084139565 0.030678362 -0.288415 0.14404085 0.0055232476 0.05091739 0.18270864 -0.22124076 -0.1388025 -0.11104871 -0.08645371
55 -0.09359031 -0.23655224 0.1105409 0.35980847 0.056515634 0.10513202 -0.12505178 0.1569272 -0.3395767 0.02800052 0.036307745 0.2456061 0.0913304 -0.24317414 0.27516288 -0.033663213 0.22971433 0.2933678 -0.034089014 0.37196475 -0.05647174 0.25211465 0.18044275 -0.14101456 -0.34108424 -0.026287118 0.0107343495 0.24561007 0.15116006 0.0412609 -0.12596881 -0.07029851 -0.22152378 0.21591708 -0.26031774 0.23525137 0.26131952 -0.11055123 -0.029743556 0.08836902 -0.2710765 -0.029381681 0.014049329 0.075907 0.32023197 0.0384187 -0.17960097 -0.13272128 -0.006416998 -0.01340532 0.4598643 -0.23181924 0.2979791 0.15829149 0.038779598 0.0005649464 0.24033815 -0.30019465 0.32394174 -0.027202627 -0.111401916 -0.08971609 0.016413843 0.17425542 0.08714336 0.060797933 0.2173094 0.049602605 -0.03196614 -0.0051939776 0.07128424 0.09854153 -0.39232713 -0.16872111 0.27320743 -0.14311811 -0.09439328 0.36214763 -0.026242847 0.19502538 -0.076463945 -0.20877337 0.13063636 0.44894618 0.22232974 -0.011157244 0.3974831 -0.1286949 0.31246275 0.018647736 0.08929975 -0.082491055 0.03527966 -0.13697532 0.30463794 -0.028231366 -0.14264244 -0.10493629 0.013873384 0.068282284 -0.01400022 -0.041989602 -0.06281101 -0.17356645 -0.00464545 0.15359071 -0.0036670861 0.065079555 -0.19810092 -0.06878692 0.2492259 -0.08795616 0.19707812 0.017006285 0.18962105 -0.0026426385 0.30736205 0.2733023 -0.021216894 -0.28202277 0.16290723 -0.0013774335 0.09658818 0.12207895 -0.20213059 -0.19037749 0.16977103 0.07251768
71 -0.22250551 -0.30824068 -0.0069131795 0.22567518 -0.07960324 0.07383168 -0.104413904 0.12779576 -0.27980423 0.044081867 0.18915163 0.28235874 0.055687245 -0.077244304 0.31922618 0.00706059 0.3020935 0.14938034 -0.16226836 0.17681544 -0.08584439 0.1993278 0.012210886 -0.20322941 -0.26386005 0.03893128 -0.06239408 0.17204562 0.26066467 -0.009579524 -0.24575624 0.017632257 -0.2323472 0.17800692 -0.14581513 0.21213374 0.24119177 -0.06572459 0.09246431 0.059057552 -0.09152465 0.08600487 0.049446516 0.0029960424 0.43260154 -0.01731303 -0.32820553 -0.17507194 -0.021229569 0.033147212 0.36247528 -0.20130719 0.34250933 0.16109504 0.15349703 0.007297286 0.18852195 -0.122281276 0.1318261 0.06974467 -0.123084754 -0.028990576 0.123268805 0.08851272 0.06304268 0.09501349 0.09339505 0.2035153 0.1592962 -0.18499787 0.21714541 0.0075076506 -0.45477167 -0.26689547 0.25458208 -0.12481365 0.006781339 0.26559708 -0.016898535 0.17204544 -0.019591453 -0.14720617 0.20497665 0.4848487 0.20869057 0.05707226 0.37447923 -0.10048176 0.3573129 -0.022144172 0.23897658 -0.11871869 0.030012205 -0.1342664 0.28758654 -0.021406442 -0.08957422 -0.16444647 0.08305463 -0.12083839 -0.11058215 -0.016530668 -0.06229095 0.06647725 0.06460974 0.11444969 -0.023650007 -0.03614613 -0.11106656 -0.18668814 0.24946977 0.0050600455 0.16411947 0.1566523 -0.001986113 -0.11033178 0.19518483 0.12272858 -0.010827329 -0.25365335 0.052279286 -0.021226238 0.03770601 0.14057681 -0.086607374 -0.091671996 0.13074069 -0.048992645
16 0.5036487 -0.32250887 0.088672206 0.13229781 0.20348702 -0.17505173 0.034408137 0.14855799 -0.017437387 0.080000244 0.30873483 -0.023293123 -0.18974788 0.098372795 0.47648656 0.51681703 -0.016228367 0.075110085 -0.023169547 -0.1720358 -0.0045001446 0.4113104 -0.15414435 -0.11530495 -0.13000505 -0.23219319 0.08460223 0.11989118 -0.06291501 -0.27121568 0.107069016 -0.035890575 0.51747507 0.25944814 -0.19865674 0.2213572 0.35454372 0.053687647 0.29265982 0.17772698 0.1634146 -0.01697194 0.071908355 0.14289181 0.091946274 0.3121703 0.014570736 0.16767232 -0.06164218 0.22688876 -0.122492544 0.33939373 0.12055849 -0.0181126 -0.1557965 0.097654 0.49612248 0.07841629 -0.13346161 0.079059064 0.01733342 -0.13414773 -0.04355616 0.09372599 0.42233318 -0.282236 -0.027199421 -0.025443228 -0.43188977 0.1418775 0.18680331 -0.23981294 -0.05550072 -0.104869075 -0.018349651 -0.12610118 -0.38675174 -0.49478993 -0.31619272 0.3343523 0.14587888 -0.28032783 -0.0073501337 0.35971642 0.19609433 0.04493202 0.16776536 -0.67462534 0.12388579 0.44954368 -0.25466233 -0.17074968 0.31710187 0.07184709 -0.0013418025 0.15783298 -0.09727695 -0.0014890429 -0.16733316 -0.39984497 0.015428278 -0.049652323 -0.26347068 -0.299237 -0.19179474 -0.21119513 -0.03267831 0.13190207 0.020653918 -0.08313253 -0.0066984636 -0.15383674 0.09346699 0.127349 -0.033298556 -0.019280797 -0.08811767 -0.028737193 0.24060272 -0.00075328304 0.043972053 -0.046208646 -0.15516967 0.022704655 -0.038217466 0.064464845 -0.078544356 0.035351634
6 0.44781432 -0.18201359 -0.19716763 0.25208265 0.20908315 -0.39729294 0.23159942 -0.16121276 -0.12373813 -0.032787863 0.0462252 0.20040269 -0.0024977624 0.17290221 0.48277727 0.4646195 0.14460255 -0.054963056 -0.31601048 -0.12954484 0.44850618 0.53111964 -0.2435119 -0.044888932 0.031556264 0.28548318 -0.051618908 0.4374319 0.57944626 -0.20651263 -0.37078696 -0.16335788 0.44001994 0.07577836 -0.28142348 0.23776726 -0.10953626 0.32902527 0.31470585 0.43949157 0.08059191 0.061387263 0.006631977 -0.03698311 0.19049639 0.17299639 -0.053655315 0.113592006 -0.08907313 0.055421107 -0.47483277 0.22708623 0.5252866 0.17430489 0.15010424 0.15073209 0.25847808 0.18103303 -0.21943271 -0.04590083 0.3611299 0.217303 0.25076166 0.4843005 0.40566325 -0.27880108 0.2307864 -0.07930244 -0.1017641 0.14301285 0.39420715 0.0994407 -0.017887285 0.03634727 0.17769243 -0.13353175 -0.439274 0.30693334 -0.3595242 0.07744426 0.10272799 -0.34312892 -0.376811 0.34520397 0.140725 0.44090226 -0.12530228 -0.440266 0.16879706 0.16500425 -0.01791628 0.11238894 0.003598644 0.08245872 0.05200578 0.08447426 -0.07660431 -0.22673842 -0.2602689 -0.21546485 0.08876416 -0.3288665 0.104802616 0.15519731 -0.29077908 -0.12568486 0.033594612 -0.301823 -0.015006471 0.23093942 0.028169934 0.04747677 -0.13745253 0.13503268 -0.058984432 -0.06335981 -0.25677586 -0.21885845 -0.0014163081 0.1285081 -0.16551855 0.02439145 -0.12958649 0.09052486 0.18172167 -0.3764124 0.022487804 -0.20529488
5 -0.18622512 -0.28664568 -0.035211064 0.38165465 0.015899012 0.02441195 -0.07404211 0.05470397 -0.32936627 0.05141304 0.15688926 0.24306309 0.14008987 -0.008606029 0.2519155 0.05316244 0.32063788 0.136254 -0.2465424 0.17048214 0.096609816 0.13423227 -0.040145505 -0.2901244 -0.17019609 0.1164479 -0.04278056 0.27515504 0.41316926 -0.0066148597 -0.38333055 0.043441646 -0.18198122 0.088945694 -0.17346415 0.2909255 0.07509887 0.078355774 0.036603708 0.121504664 -0.058325514 0.12590955 0.10217171 -0.09170223 0.39849597 -0.087991044 -0.4669558 -0.143569 -0.05625064 -0.007417398 0.18332294 -0.19857371 0.48514885 0.17259765 0.11131337 -0.026585959 0.07519996 -0.13785285 0.153432 0.013159232 -0.06240676 0.056263495 0.15772216 0.19839013 0.05292968 0.09043889 0.16057639 0.14646144 0.16870938 -0.08349247 0.19062299 0.02987925 -0.4737959 -0.19427116 0.35554922 -0.17436762 -0.02296628 0.39672098 -0.034628153 0.08285122 -0.08287122 -0.16383158 0.050080497 0.47597173 0.1598968 0.08299811 0.36804593 -0.06821038 0.37899157 -0.06721921 0.2969511 -0.031379126 -0.017012125 0.008376204 0.25909835 0.06953387 -0.10552908 -0.1782157 0.00059310737 -0.06844192 0.03163124 -0.10830135 0.048118345 0.13718581 0.07461036 0.11746183 0.053676713 -0.29153964 -0.18437928 -0.022290027 0.2538504 -0.014853136 0.16575788 0.08980419 0.047870204 -0.035030592 0.17101683 0.0031896378 -0.12218582 -0.2306418 0.08477552 -0.08579829 0.13545942 0.07343988 0.013565275 -0.083594926 0.10161535 -0.121048465
9 0.28105116 -0.07862584 -0.057627663 0.09898257 0.23445883 -0.36571893 0.19305511 -0.18342768 -0.046997752 -0.03594981 -0.021968877 0.18896225 -0.010020165 0.045533627 0.47825024 0.37786508 -0.11837214 -0.05546023 -0.3637289 -0.028796019 0.4361016 0.5827628 -0.10546275 0.010809139 0.030829698 0.2844614 -0.018590283 0.40842783 0.60461515 -0.23463087 -0.37536642 -0.19977531 0.40400633 0.09271331 -0.36792424 0.18566173 -0.21840976 0.12128145 0.29961166 0.27636707 -0.020257605 -0.03017323 -0.11210547 -0.102552064 0.18186823 0.30594707 0.10914795 -0.004569199 -0.18085508 0.14612141 -0.31527072 0.2949464 0.29869586 0.10316946 0.13374566 0.1667315 0.298562 0.19447452 -0.11073943 -0.10056552 0.34208772 0.19920012 0.17914632 0.37576565 0.21628931 -0.10536772 0.2840367 0.056222375 -0.114327565 0.14774507 0.38367346 0.22811463 -0.12025291 0.09139599 0.15594889 -0.097517766 -0.36413345 0.29439956 -0.23194468 0.21206765 0.18218397 -0.23126411 -0.24332036 0.26144597 0.1356262 0.31236815 -0.13570227 -0.39019656 0.17252915 0.21827264 -0.14116389 0.034158446 0.07351225 -0.09613732 0.07574147 -0.02610554 -0.1303919 -0.22738764 -0.36266783 -0.17335957 0.012756751 -0.13292803 0.078721516 0.09954177 -0.3195573 0.015068976 0.031873398 -0.11366515 0.0007225551 0.16147211 0.011495564 0.07632189 -0.13421802 0.074781835 -0.14054433 -0.2082607 -0.22966783 -0.17690812 0.0370602 0.041874837 -0.2520413 0.100487 -0.12557203 0.20991789 0.11446022 -0.37628043 -0.114289984 -0.031552363
30 0.18809815 -0.1875462 -0.152008 -0.038219858 0.14218502 -0.18756843 0.15698104 -0.057501443 -0.051810216 0.24761742 0.21624413 0.23839793 -0.210208 0.4503111 0.2863312 0.62533283 0.13860741 -0.15350379 -0.31686506 0.073977515 0.2864366 0.24675018 -0.105523534 -0.11350794 -0.12112035 0.056381237 -0.28207156 0.19704828 0.10521158 -0.1228404 -0.08288637 0.02317192 0.5376934 0.13238412 -0.02895457 0.22870617 -0.16824634 -0.29756674 0.22338107 0.11099833 0.17007993 0.038698405 -0.22541134 -0.2661616 0.32570365 0.09812801 -0.075821884 0.043600496 -0.32603568 0.37439424 -0.10304815 0.36254495 0.30575418 0.22393073 0.00017447729 -0.21550451 0.31719908 0.38232228 -0.20054322 0.4350201 -0.2965749 0.18046051 0.072695866 0.41242388 0.33091205 -0.0392733 0.07992756 0.013806183 -0.27179572 0.09325914 0.3305052 0.13287444 0.031101018 -0.049258698 0.009536122 -0.19231115 -0.5347538 -0.19040217 -0.33983967 0.32137126 0.17907788 -0.38309103 -0.36358947 0.3480639 0.36465564 0.13273758 -0.0011018016 -0.42437917 0.04547536 0.20442693 -0.04989653 -0.23119926 -0.086345516 -0.19712609 -0.029747806 -0.17163563 0.10815766 -0.18324943 -0.24730027 -0.21999612 0.045710515 -0.19914068 -0.108479574 -0.0053557297 -0.2672667 -0.16911241 0.09017186 0.048902232 0.050893642 0.04641066 -0.28720492 -0.0806255 -0.043514483 0.138062 -0.3875244 0.09189607 -0.20498906 0.074106224 0.163576 0.120792076 -0.25754476 -0.07748586 -0.30703282 0.16513243 0.012270992 -0.11560976 -0.031200532 -0.021412775
49 0.4291497 -0.14131986 -0.08981641 0.087578006 0.13752016 -0.2835198 0.21679296 -0.04803851 -0.04804919 0.018132798 0.023946429 0.11352703 -0.053032253 0.16616556 0.40954453 0.32915607 0.062223453 -0.08610367 -0.10589565 -0.034177013 0.32667172 0.41969517 -0.07250074 0.035451613 -0.052845303 0.07989752 -0.020476451 0.2347349 0.1441102 -0.12050321 -0.067206755 -0.22568908 0.43603486 0.20595507 -0.20705521 0.12886338 -0.03527087 -0.021436473 0.24823447 0.2410521 0.0029608873 -0.025446238 -0.15531613 0.025668057 0.20870209 0.19652171 0.12793371 0.15314992 -0.058188558 0.14415206 -0.13064653 0.24792528 0.21555592 0.13732867 0.04926137 0.038951304 0.33394465 0.17354524 -0.15884916 0.11789073 0.027000178 0.0705844 0.023578063 0.34384838 0.3867154 -0.23227045 0.15408951 -0.10645529 -0.3349165 0.12560558 0.2211311 0.06636787 0.058603387 0.0068481294 0.040907018 -0.068668246 -0.42000028 -0.033166975 -0.3150315 0.18352821 0.097328596 -0.32404307 -0.2373873 0.30425772 0.21661799 0.18984044 -0.010827582 -0.49687415 0.016492007 0.13723901 -0.19462073 -0.09782391 0.047916364 -0.11947812 0.024108378 0.048504975 -0.011621868 -0.090499684 -0.26049504 -0.11510334 0.032239556 -0.20058095 0.052315306 -0.0034828587 -0.2675061 -0.1889005 -0.041083705 0.081560835 0.016336028 0.06451177 -0.08668288 0.013780462 -0.11779665 0.1004834 -0.09015645 0.10448617 -0.15716499 0.02962191 0.074661165 0.100770235 -0.17929663 0.053078722 -0.15634131 0.112412 0.08971834 -0.20888235 0.109462224 -0.029156327
10 0.31994966 -0.13486327 -0.11867676 0.14438747 0.15823856 -0.34583607 0.20986333 -0.15947919 -0.07139256 -0.07802148 0.016503602 0.1819863 -0.027379744 0.087612495 0.48511627 0.35473165 -0.014918447 -0.061935607 -0.3125504 -0.10794488 0.38288638 0.5619557 -0.18480429 0.028551934 0.034362845 0.27191424 -0.023474976 0.3921368 0.5601833 -0.21491392 -0.33115646 -0.18998949 0.3866477 0.05847592 -0.28959447 0.15662555 -0.12726003 0.20060107 0.31154254 0.31469977 0.036586452 0.016187556 -0.04479081 -0.04535996 0.17138907 0.23986578 0.06804127 0.05439502 -0.09143951 0.083052054 -0.35727835 0.23599872 0.34193972 0.10514103 0.15383998 0.16935119 0.26439047 0.18392538 -0.17777742 -0.068892784 0.36393094 0.15725751 0.2027068 0.3702909 0.28772825 -0.16189505 0.1899077 -0.0042175567 -0.07593682 0.11805388 0.37214142 0.14751722 -0.054675583 0.055434767 0.14388101 -0.08408174 -0.3487576 0.28681204 -0.2541243 0.13366757 0.13723773 -0.2665029 -0.23877104 0.25050202 0.1283382 0.3498448 -0.15798411 -0.356478 0.1528433 0.17863801 -0.08735378 0.07840287 0.06941099 -0.026918009 0.0547004 0.0104936445 -0.076653644 -0.19332129 -0.28416005 -0.19584216 0.0057474826 -0.18350156 0.06189722 0.13990842 -0.3021872 -0.06138377 -0.0024746542 -0.13016237 0.030675497 0.13287409 0.03790457 0.07697503 -0.15085582 0.1220342 -0.10844476 -0.17290428 -0.25047922 -0.18590167 0.03502488 0.08466384 -0.23544064 0.086307414 -0.14281893 0.15789942 0.139492 -0.34715158 -0.028839933 -0.115329914
89 0.4551556 -0.20338637 0.005616634 0.12304084 0.23881361 -0.23998177 0.14906083 -0.03633117 -0.018012835 0.10372538 0.138243 0.0009878697 -0.08701821 0.16495019 0.43521035 0.43596745 -0.043810904 -0.027279908 -0.12081967 -0.082550906 0.2367163 0.3994168 -0.10307335 -0.051174056 -0.026913414 -0.029560499 0.06351008 0.20765111 0.07037329 -0.2320151 -0.019120757 -0.13527966 0.540056 0.21352337 -0.23547107 0.14613833 0.060385153 0.027934456 0.30120957 0.22417352 0.076818384 -0.057693034 -0.071353294 0.02475019 0.17673405 0.29027477 0.07493327 0.19979574 -0.13636151 0.22928615 -0.18382962 0.3646169 0.19638038 0.07846177 -0.09536275 0.07716375 0.38404632 0.15201236 -0.13039832 0.12549429 0.027228612 0.061443932 -0.019906381 0.24801628 0.37224472 -0.23547553 0.056077108 -0.054192573 -0.4012647 0.19546986 0.21902181 -0.064800605 0.031397015 0.0067102564 0.022040758 -0.09128362 -0.44108814 -0.23133758 -0.29968935 0.29840583 0.10813716 -0.26410586 -0.19940624 0.30536923 0.16978808 0.12930451 0.043448083 -0.5429461 0.026427185 0.24663693 -0.22529076 -0.15849575 0.1734788 -0.06397573 -0.038285952 0.12772048 -0.045763962 -0.058857888 -0.31009394 -0.23465937 0.03553053 -0.12451599 -0.039892826 -0.11017812 -0.2625741 -0.19598803 -0.0020152393 0.0645947 -0.0062040593 0.03951004 -0.077838555 -0.075474165 -0.021531597 0.092002444 -0.083064705 0.020419508 -0.17983027 -0.043003168 0.08991316 0.060775634 -0.099707 -0.00015688702 -0.13857988 0.09246736 0.043700293 -0.07467406 -0.029899485 0.028960163
41 0.4580358 -0.17434081 -0.0995768 0.077758215 0.2259005 -0.32569242 0.209983 -0.04972774 -0.04988066 0.05754184 0.12705046 0.14257047 -0.13124028 0.23559025 0.46029818 0.54967207 0.03390242 -0.081364155 -0.21058595 -0.05892238 0.33157602 0.4609309 -0.15327308 -0.021501273 -0.019041082 0.08880625 -0.06570895 0.29001448 0.22765385 -0.19064052 -0.09733223 -0.13203579 0.5719965 0.1806332 -0.22476393 0.19461116 -0.058042675 0.037348982 0.30346078 0.2586289 0.117829785 -0.004072592 -0.11579868 -0.02397446 0.16579428 0.24296331 0.08530328 0.14011104 -0.14231782 0.20445509 -0.2748841 0.3676849 0.25841334 0.11657222 0.012560651 0.02514152 0.3856171 0.23672181 -0.1837084 0.09828511 0.10107379 0.09679729 0.08806268 0.3603803 0.39941204 -0.23108457 0.1505929 -0.08149031 -0.31969714 0.17434283 0.29656065 0.0599245 0.07107438 0.02578474 0.029031774 -0.12047929 -0.47365835 -0.08629225 -0.37607887 0.23822987 0.15014303 -0.33828446 -0.30502602 0.30521506 0.23370746 0.22733693 -0.080934584 -0.5575075 0.063280754 0.2753127 -0.20320767 -0.0754661 0.07122457 -0.035231702 -0.027567673 0.018128967 -0.04225782 -0.110179305 -0.28891996 -0.246856 0.061325926 -0.21962394 -0.050593253 -0.036719147 -0.3094014 -0.1884858 0.00817739 0.0077491333 0.037015073 0.11884823 -0.11482374 -0.01424634 -0.109984204 0.10417237 -0.1659502 0.016950553 -0.22085749 -0.07300024 0.13914151 0.14140792 -0.17771375 0.017129876 -0.19744042 0.09650655 0.07554685 -0.22491625 -0.038222045 -0.026510084
7 0.37363157 -0.17727816 -0.17814897 0.21712513 0.1819326 -0.31682852 0.2164494 -0.13431628 -0.15033059 -0.00036372402 0.0455006 0.21914108 -0.044776324 0.21247302 0.40450922 0.45143145 0.1374631 -0.056654196 -0.29046002 -0.04121962 0.39330384 0.4370617 -0.20177726 -0.06844972 -0.014362482 0.22908986 -0.088015564 0.4054603 0.43712136 -0.12466952 -0.2598462 -0.13018957 0.41471532 0.08557473 -0.20911601 0.19843711 -0.13030043 0.22166695 0.27621448 0.37087753 0.080137216 0.044189353 -0.043886945 -0.039166145 0.24764341 0.12938659 -0.052043136 0.11109011 -0.123226956 0.08723359 -0.3501306 0.21759218 0.46239766 0.18743923 0.12975582 0.0582616 0.27031 0.16256465 -0.16263558 0.046904523 0.2239861 0.21146871 0.21178019 0.44121355 0.33884576 -0.22652951 0.17682227 -0.08774369 -0.118895724 0.1602568 0.35725522 0.13067892 0.04238589 0.03058531 0.16474266 -0.13197966 -0.43555787 0.27030423 -0.3356809 0.094260514 0.090789735 -0.34958655 -0.36093217 0.3438057 0.20042631 0.36287048 -0.10385276 -0.39849618 0.1350159 0.13835949 -0.013089489 0.081218645 -0.005899882 0.029296374 0.019769939 0.05122154 -0.044750415 -0.18454157 -0.24901618 -0.19319482 0.0820828 -0.31502795 0.066912256 0.13161708 -0.2754876 -0.120207354 0.012435539 -0.22475341 -0.02840221 0.2305673 -0.006102139 0.043146774 -0.13368386 0.12843376 -0.09169094 -0.028066194 -0.19190833 -0.15012056 -0.0038623896 0.12813471 -0.13228166 0.030994087 -0.13153954 0.09419979 0.13404164 -0.35857463 0.0373866 -0.16983372
22 0.26954064 -0.20121141 -0.082820825 0.04620401 0.19376661 -0.20684943 0.15236695 -0.05195498 -0.055543553 0.23379858 0.2119031 0.16670655 -0.1771391 0.43097553 0.31709853 0.6079583 0.121233076 -0.11677276 -0.26742566 0.0555685 0.29652745 0.23267055 -0.1125128 -0.16108528 -0.09728502 0.018251538 -0.19385134 0.21164553 0.06175173 -0.14859965 -0.037185475 0.03289459 0.5319938 0.15203744 -0.043691285 0.20593365 -0.12497172 -0.19262683 0.22104773 0.1443201 0.1565242 0.038598616 -0.15760753 -0.17867416 0.2880478 0.115193635 -0.098772325 0.11276196 -0.27449006 0.33792382 -0.114548504 0.3689215 0.2553292 0.19064221 -0.058699932 -0.17808224 0.30139217 0.3016592 -0.16774674 0.3808649 -0.23167478 0.16707861 0.027047295 0.3637678 0.32681385 -0.11279758 0.053262647 -0.012349033 -0.30419582 0.18750657 0.28792477 0.07494236 0.04636355 -0.05625315 0.06871866 -0.17207593 -0.52039534 -0.22558808 -0.33845228 0.30487525 0.12819839 -0.3649842 -0.31130856 0.36199194 0.33408403 0.09873042 0.034682136 -0.46561435 0.03353301 0.21772969 -0.07582355 -0.21589035 -0.009201908 -0.146931 -0.04286354 -0.04986963 0.0758313 -0.14071602 -0.28226176 -0.22040904 0.073547944 -0.17845479 -0.080558024 -0.042739104 -0.23372684 -0.1860035 0.059624933 0.01681782 0.035675477 0.079715066 -0.23029028 -0.09707952 -0.014067016 0.104044124 -0.29657367 0.10568972 -0.18148713 0.029960373 0.13280573 0.09033063 -0.15398227 -0.0518097 -0.22753634 0.12279776 0.021171806 -0.0649301 -0.037963312 -0.02466148
3 0.25746045 -0.18901986 -0.07675018 0.026944527 0.17457786 -0.1967368 0.16124634 -0.06609058 -0.008393132 0.2200638 0.19984928 0.1198552 -0.14214222 0.39813823 0.33136982 0.5535554 0.09457855 -0.17547323 -0.24158753 -0.016027823 0.26333404 0.19153878 -0.13605733 -0.16695951 -0.071428284 0.026543532 -0.13018972 0.15401897 0.046052672 -0.15342724 -0.040657878 -0.018873405 0.49762076 0.17581289 -0.05383406 0.15270881 -0.09999533 -0.15651913 0.24158123 0.14405096 0.13031276 0.019295044 -0.1362364 -0.122910865 0.31578124 0.1093743 -0.09542657 0.14595199 -0.23477401 0.3078903 -0.13441491 0.3533201 0.25147703 0.18661976 -0.039638467 -0.113861665 0.31702206 0.30995557 -0.19695434 0.36187455 -0.23367546 0.17952058 -0.010956928 0.2874267 0.3044607 -0.15417512 0.022917518 0.0017123641 -0.32613558 0.1474413 0.28969193 0.0140319 0.03841091 -0.07352892 0.044041228 -0.14432234 -0.49294084 -0.28166664 -0.31430313 0.27729753 0.1191998 -0.33333686 -0.25448114 0.3650279 0.2656139 0.096736565 0.052043054 -0.44830593 0.017611478 0.20683332 -0.07697255 -0.2250246 0.028895445 -0.15996516 -0.062479213 -0.003719167 0.087092586 -0.09613244 -0.29557133 -0.23891176 0.06898204 -0.1680702 -0.07508198 -0.031925786 -0.18899828 -0.18994783 0.025744079 0.01602242 0.043710995 0.056050874 -0.20458542 -0.06877825 -0.01378403 0.110160835 -0.28231052 0.1079728 -0.21394429 -0.0031294182 0.11872837 0.0641274 -0.15910566 -0.05259927 -0.22461548 0.12232134 0.035543773 -0.029155338 -0.00728848 -0.05575936
13 0.5595236 -0.23676814 0.056363404 0.2815302 0.23937175 -0.18083256 0.11277563 0.17247023 -0.18216717 0.03097994 0.07560264 0.076889105 -0.1667311 0.06002769 0.39297098 0.49007437 0.07567059 0.15009402 0.061016813 0.16848041 0.12699169 0.49658033 0.030983422 -0.007145923 -0.21652569 -0.20823114 -0.008012374 0.23027287 -0.15520118 -0.12794082 0.18979041 -0.13340013 0.532581 0.3253217 -0.2734203 0.3143859 0.21145707 -0.10861501 0.15778013 0.22329433 -0.0021046107 -0.052334372 -0.12439884 0.15184082 0.089324735 0.28104234 0.14032787 0.1831536 -0.070691004 0.17049433 0.083148964 0.27103952 0.11370434 0.030185688 -0.21300659 -0.1040053 0.48403543 -0.072294444 0.087715074 0.04997284 -0.047021937 -0.1997198 -0.07500611 0.40265006 0.45971963 -0.23262711 0.17434487 -0.20769121 -0.54799676 0.2566335 0.046660386 -0.000633443 0.033558395 -0.012595779 0.067631304 -0.16010249 -0.49862978 -0.21210031 -0.3760887 0.31133255 0.027207222 -0.39469394 -0.17187357 0.36479142 0.30583584 -0.012198228 0.15297449 -0.67326707 0.118373185 0.36121964 -0.32054064 -0.16092019 0.1796364 0.026893506 0.049984675 0.095600456 -0.1331711 0.01112882 -0.20290133 -0.12690128 0.14167142 -0.20343255 -0.16296946 -0.3814814 -0.32004762 -0.21755801 0.0026510828 0.26206383 -0.050797716 0.11301789 -0.070887044 -0.14529401 0.056821566 0.028077206 0.046492845 0.19709145 0.09900782 0.17625566 0.19932097 0.07368647 0.07827223 -0.024976457 -0.10459537 0.04412033 -0.09829979 -0.14125173 0.078016005 0.1523678
28 -0.13518643 -0.35457766 -0.16806678 0.026157249 -0.033656247 -0.032179534 0.08355036 -0.04928664 -0.14664172 0.17618668 0.24706079 0.28853837 -0.19170514 0.4443171 0.28195828 0.43013227 0.22051169 -0.16755097 -0.3721875 0.13598423 0.18922964 0.109601066 -0.11665526 -0.15873833 -0.17367584 0.066500574 -0.3376631 0.16551739 0.12125628 -0.05782763 -0.0891636 0.097393155 0.28303796 0.076647036 0.076014735 0.14117382 -0.10596354 -0.36411545 0.21704492 0.035255294 0.17230318 0.14557807 -0.16148263 -0.3181258 0.54900956 -0.036431566 -0.21534279 -0.04076985 -0.32661635 0.3197653 0.17700426 0.103873946 0.3519309 0.25519034 0.09551834 -0.24732403 0.22570746 0.30390218 -0.16641009 0.582153 -0.4229373 0.20047814 0.13471651 0.27332476 0.1294544 0.16804779 -0.09839876 0.14924657 0.047898285 -0.009163381 0.36199602 0.100856595 -0.12385753 -0.17252034 0.10195188 -0.15213755 -0.3131968 -0.035495438 -0.17820892 0.2817079 0.0829355 -0.27033913 -0.094364785 0.33623633 0.38678792 0.07878945 0.08421071 -0.11110679 0.09332246 0.017156461 0.21890177 -0.27965623 -0.07414275 -0.3291526 0.034317914 -0.23299897 0.2021937 -0.18099338 -0.11895169 -0.20244649 -0.07373425 -0.067673214 -0.13352437 0.15489939 -0.13756761 -0.10267176 -0.017815545 0.11440817 0.06784025 -0.14286855 -0.14288706 -0.05545732 0.009446821 0.22836348 -0.4415295 -0.060314775 -0.0760008 0.08132083 0.04934198 -0.008359242 -0.2932164 -0.1091942 -0.27534822 0.22035779 -0.015395146 0.023385908 0.028352287 -0.07700642
19 0.20785303 -0.30583444 -0.19418639 0.028814096 0.038580414 -0.21934189 0.20663412 -0.069933444 -0.06980214 0.14968257 0.20355785 0.21676514 -0.16653259 0.43735778 0.40351808 0.47825524 0.17046207 -0.22527996 -0.25831136 0.016433168 0.35100982 0.30570215 -0.12766813 -0.054702617 -0.10840691 0.09564694 -0.23764552 0.1959606 0.13886781 -0.11148273 -0.10425534 -0.11498961 0.495181 0.16160773 -0.020227354 0.13422813 -0.1422484 -0.30513495 0.27045968 0.16467527 0.09980705 0.06541841 -0.23048928 -0.21982607 0.44309598 0.065516844 -0.0061160265 0.09085108 -0.2516717 0.32333702 -0.0071410146 0.2378236 0.3246101 0.23436691 0.09875285 -0.15267527 0.30322063 0.35919163 -0.2680354 0.4691724 -0.2845643 0.17573501 0.102089025 0.37143207 0.35081875 -0.051776838 0.057999104 0.050205622 -0.20715657 0.041369498 0.3575276 0.08203426 -0.012892283 -0.09721053 0.032256223 -0.117984734 -0.47933748 -0.11063647 -0.34080034 0.23848695 0.123812765 -0.38518593 -0.25877053 0.37356898 0.36638737 0.18805419 0.024802366 -0.39001596 0.014839309 0.05885656 0.00046238676 -0.25575635 -0.060406502 -0.3008346 0.033397835 -0.116924115 0.18071005 -0.17403221 -0.21370816 -0.20453003 -0.027152289 -0.17985074 -0.023310615 0.10192523 -0.2721291 -0.23001857 -0.016313514 0.15415744 0.06614592 -0.10567913 -0.17222889 -0.009240545 -0.103110865 0.2020175 -0.36343434 0.07707676 -0.19306745 0.060597852 0.053663976 0.083575495 -0.37954476 -0.042779963 -0.30544275 0.21309662 0.09733861 -0.06661421 0.116335295 -0.07249207
63 -0.302886 -0.2660386 0.14624026 0.08790193 0.06549615 -0.010406058 -0.2670144 0.16921847 -0.11263359 0.061171915 0.3847473 0.121183716 -0.034661613 -0.29057258 0.50107765 0.04221603 0.04876381 0.1781346 -0.22320095 -0.10875981 -0.25280795 0.31730404 -0.11223989 -0.18774478 -0.2716664 -0.038672425 0.1271492 0.15175991 0.41340223 -0.33984384 -0.36986163 0.039636247 -0.23147719 0.10371147 -0.28464523 0.22528881 0.3596028 0.0912674 0.19844037 0.035876628 -0.04686595 0.061420213 0.22071138 0.053530063 0.1692378 0.2730257 -0.15237091 -0.22736749 -0.076028585 0.14581533 0.099156424 -0.016378565 0.2592441 -0.014422629 0.14282224 0.27129716 0.289404 -0.07803662 0.022990499 -0.1302158 0.2685365 -0.054980677 0.20173188 -0.21201529 0.08632293 0.063039914 0.0702144 0.4787083 0.19287708 -0.28056264 0.35187948 -0.19772443 -0.6905121 -0.3586551 0.17943527 -0.11371917 0.057726126 -0.018919587 -0.011203747 0.27939126 0.17643587 -0.016309813 0.3637581 0.37829968 0.036656857 0.09827508 0.3884961 -0.24162923 0.48341498 0.28312647 0.16103849 -0.099026896 0.27027375 -0.019848816 0.25583017 0.0018328952 -0.1946467 -0.24115534 0.12258247 -0.4078128 -0.2598498 0.19914454 -0.22832909 -0.0968779 0.05102861 0.19759226 -0.009208211 -0.12571655 -0.016346592 -0.40349877 0.35198876 -0.09459611 0.30044287 0.118407115 -0.02235412 -0.44934624 0.04996704 -0.10373001 0.150252 -0.38853532 -0.008152302 0.009554501 -0.012637218 0.1705334 -0.14675492 0.019712355 -0.17256321 -0.022177715
79 -0.4495647 -0.18939818 0.13336454 0.12732767 0.104903534 0.06265742 -0.24787363 0.06802377 -0.19967392 0.23632915 0.3118374 0.3371149 0.025774127 -0.12972276 0.33430523 0.11053855 0.104911655 0.18210956 -0.35356888 0.19782193 -0.18466765 0.07171994 -0.05186346 -0.3070525 -0.29586235 0.03232257 -0.037217572 0.27818865 0.4107223 -0.11704987 -0.26887622 0.21561466 -0.2411455 0.119748496 -0.17848688 0.21491684 0.13650824 -0.029776158 0.15187337 0.03430743 -0.059201214 0.019647 0.07661853 -0.04580286 0.44833487 0.11045028 -0.36769247 -0.19357368 -0.20602274 0.17845765 0.22966851 -0.025824612 0.26816672 0.16227338 0.17866774 0.10903588 0.22564502 -0.06507629 0.1813004 0.097026065 -0.03028307 0.15968312 0.1628268 -0.060310833 -0.07804787 0.18507938 0.08544229 0.36017933 0.22004732 -0.064163476 0.3717368 0.06119011 -0.5054365 -0.32163832 0.38214117 -0.18201588 0.06013599 0.19923648 0.12421491 0.30056238 0.054537773 -0.06365513 0.22852643 0.41461065 0.15195957 0.0066523133 0.33677652 -0.0044294097 0.4279017 0.20668979 0.24497949 -0.060921412 0.19659582 -0.15496652 0.17696805 -0.06641723 -0.16624893 -0.21761589 0.04674112 -0.19525276 -0.21101233 0.12590608 -0.19581914 -0.042779908 0.09869261 0.3208801 -0.012779624 -0.19721434 -0.08438023 -0.077680916 0.21541956 -0.06110612 0.26434118 0.07094659 -0.10206507 -0.35052693 0.114298806 -0.0061912956 0.05541592 -0.34223902 0.1602561 0.010492364 0.03809203 0.20736955 -0.25692168 -0.14505148 -0.17225702 -0.045760635
4 -0.18243194 -0.34709874 -0.008814766 0.43142623 -0.069645084 0.0107659 -0.022952244 0.0184997 -0.3399212 -0.04638203 0.056422025 0.18928078 0.2259267 -0.05788356 0.28659862 -0.12907864 0.3145365 0.13903154 -0.1873635 0.14896122 0.16224325 0.21252318 0.011874822 -0.23822865 -0.10509987 0.15906687 0.016623702 0.23876311 0.4290776 0.0048285136 -0.43672276 -0.09048106 -0.24571429 0.16853073 -0.22081107 0.26907805 0.101309314 0.022732446 0.031953823 0.14096418 -0.18642613 0.14078039 0.07997882 -0.09156657 0.51693994 -0.10074072 -0.46252036 -0.15233287 0.034421824 -0.07251908 0.3031209 -0.27577752 0.5050708 0.18221709 0.13517804 0.048630513 0.0634729 -0.15570034 0.17846945 -0.0040159984 -0.04272411 0.037638914 0.14523758 0.17811298 0.008950566 0.09257226 0.17080857 0.16214707 0.17117634 -0.11478187 0.15459591 -0.0077188746 -0.55047345 -0.19314887 0.38722023 -0.13736033 0.006559345 0.49316084 -0.04128977 0.08084739 -0.15151632 -0.18262595 0.1768871 0.59071726 0.17789145 0.079515085 0.43983266 -0.07290326 0.37293008 -0.15888095 0.32068002 -0.10043879 0.030882465 -0.09607114 0.3569974 0.15182476 -0.094010405 -0.15527558 -0.07915784 -0.021925652 0.027850626 -0.09579588 0.14316937 0.23217249 0.11312474 0.100009285 -0.043416567 -0.18253534 -0.2209078 -0.109415464 0.37378892 0.0271142 0.15567456 0.12641585 0.091741525 -0.035750084 0.21859111 -0.0038624038 -0.21945506 -0.2887064 0.0066459924 -0.051597238 0.143774 0.09510769 0.08747453 -0.089314595 0.19174822 -0.15511969
1 -0.37657526 -0.35872063 0.04437886 0.21969679 0.02198068 0.097286716 -0.13849182 0.07719355 -0.28602692 0.122447886 0.24128164 0.15392898 -0.030385563 0.07107609 0.16963503 0.08143305 0.17344178 0.13003094 -0.27836156 0.31756157 0.09816572 0.13252136 0.039835338 -0.18362796 -0.27338538 0.0068268487 -0.20881318 0.19348192 0.22984526 -0.07550366 -0.3277016 0.113850035 -0.098176256 0.0058706403 -0.0804047 0.28905717 -0.02667846 -0.3374876 -0.06071084 -0.07653277 -0.07189458 0.16256864 -0.048456587 -0.33692014 0.30965218 -0.016682748 -0.2653217 -0.27633268 -0.2810117 0.20722954 0.33370528 -0.14672416 0.3641293 0.10971118 0.0038326653 -0.1943295 -0.00019136327 -0.061787732 0.16016845 0.19415925 -0.2175186 -0.05792041 0.18296742 0.18315905 0.0047449674 0.3420167 0.106915936 0.32586396 0.22173053 -0.15659538 0.1153084 0.025690082 -0.59531856 -0.20174195 0.20194376 -0.17978372 -0.08705339 0.2391432 -0.07155743 0.24811186 -0.038928192 -0.14303108 0.08757823 0.3950625 0.2544509 -0.03671538 0.41384825 -0.08626864 0.3799806 -0.043165423 0.28383768 -0.24722779 -0.10524516 -0.14043435 0.3301468 -0.14978758 -0.015636733 -0.2615466 0.025548503 -0.12727678 -0.06712299 0.021383269 -0.07520338 -0.0016667615 -0.11203273 0.1402198 0.1249956 -0.053862337 -0.1243439 -0.31838822 0.15530474 -0.16589016 0.24111831 0.08506883 -0.18232535 -0.11950777 0.18793908 0.07862492 -0.06628162 -0.26663187 -0.17082389 -0.18867838 -0.022769826 0.20564874 -0.07198063 0.11523791 -0.01213243 0.049362347
24 0.4088069 -0.21584012 0.28365186 0.2717323 0.27207375 -0.12133436 0.049713466 0.018046627 -0.04354377 0.15248814 0.09883781 -0.23392016 0.08456118 -0.042319976 0.42547765 0.14693029 -0.14468566 0.0808752 0.05031409 0.010804633 0.17029405 0.29538256 0.09710807 -0.17130694 -0.086525865 -0.19822201 0.31685844 0.10569926 -0.12778778 -0.23514168 0.028877635 -0.224951 0.29869005 0.38022208 -0.3581745 0.08870119 0.23545222 -0.011429597 0.22100745 0.18097772 -0.16849737 -0.1428563 0.00030870474 0.16405 0.26258627 0.33899114 0.013042326 0.23869465 -0.0781437 0.20370159 0.14113535 0.24209017 0.071046956 -0.0019960438 -0.28668284 0.19216724 0.402694 -0.1053859 0.09268723 0.03480298 -0.10880353 -0.034061916 -0.27126357 0.020712748 0.2579736 -0.28338385 0.052645568 -0.0052862847 -0.5530968 0.2097325 0.021894537 -0.25691178 -0.21333641 -0.06145128 0.08573344 -0.06395332 -0.33193216 -0.3789351 -0.19753063 0.3837086 -0.016354812 -0.14592455 0.08515851 0.4444345 0.075098895 -0.077023335 0.401806 -0.5988843 0.07144807 0.18042777 -0.2703336 -0.35969055 0.31649363 -0.14830476 0.053132802 0.36661348 -0.11773698 0.052278534 -0.40963423 -0.12937951 0.052368302 0.053148586 0.032057896 -0.2315239 -0.08335941 -0.13697958 -0.022195973 0.107254215 -0.17087165 -0.10487762 0.09176523 -0.1518494 0.17773911 -0.0050982563 0.15020312 0.12499675 0.011457327 0.043581516 -0.027157089 -0.20947793 0.08214451 0.0060307067 0.028581543 0.117717005 0.0024319421 0.1696346 -0.009641879 0.11612427
21 -0.2926307 -0.26020086 -0.11519237 -0.026585925 0.06433079 0.005207228 -0.0020156258 -0.023021504 -0.12901756 0.327894 0.30280447 0.3712129 -0.16380171 0.4405365 0.23359248 0.49029267 0.20498528 -0.111533634 -0.4743183 0.21293749 0.09446318 -0.022021787 -0.09638951 -0.31360334 -0.1891274 0.06951384 -0.3242588 0.20282625 0.16035627 -0.039195176 -0.12578443 0.23038658 0.21555068 0.09095235 0.074195586 0.18617813 -0.15548733 -0.36864176 0.21236147 -0.027524387 0.18447623 0.108406454 -0.17259946 -0.324258 0.5893353 -0.02289742 -0.38999665 -0.08769192 -0.3846829 0.3812981 0.16496962 0.21438959 0.33071208 0.32068032 0.10100213 -0.2729499 0.24758747 0.3098969 -0.064492404 0.6018144 -0.4776154 0.29695636 0.11830404 0.21412443 0.015781125 0.19393036 -0.07857064 0.21380554 0.038034517 0.058809675 0.41054597 0.16650821 -0.15955332 -0.21408176 0.20317365 -0.23296063 -0.29830396 -0.047715187 -0.12060949 0.36118954 0.107240826 -0.25349388 -0.084912345 0.41391158 0.42135462 0.013898722 0.15638267 -0.07395112 0.15532586 0.11691375 0.23022181 -0.26179075 -0.048848473 -0.31827775 0.0058858404 -0.23678519 0.12061255 -0.20457204 -0.17125341 -0.21802011 -0.06705961 -0.044584256 -0.17862806 0.11081506 -0.02156819 0.027082212 0.013769265 -0.03422255 0.02881803 -0.02359146 -0.15776977 -0.048992645 0.09139994 0.18260099 -0.44260854 -0.08853034 -0.05858581 0.06633395 0.097457446 -0.07791122 -0.13296762 -0.071650386 -0.19252425 0.22108509 -0.10108602 -0.066479586 -0.072024405 -0.074294716
73 0.39077774 -0.15333962 -0.12254543 0.038076397 0.1563579 -0.3262829 0.264569 -0.13266465 -0.030882215 0.09463687 0.0396827 0.13049072 -0.06426146 0.25309893 0.44234318 0.39830005 0.023928713 -0.16571948 -0.20273396 0.0049115606 0.45283708 0.4503547 -0.07545354 0.021660063 -0.02656581 0.14356843 -0.103536 0.24516088 0.23381202 -0.15867911 -0.14237742 -0.2529439 0.5337425 0.2108022 -0.21323511 0.12758532 -0.18725975 -0.17139678 0.27641436 0.23907283 -0.019138323 -0.034626618 -0.24692404 -0.11741813 0.30607077 0.21467972 0.15870097 0.124051206 -0.18754572 0.25094438 -0.11948052 0.32618594 0.2560277 0.17291367 0.07635833 0.007981962 0.34535426 0.29765633 -0.20074 0.21972083 -0.030412827 0.16623828 0.037778098 0.39411634 0.37014413 -0.1693525 0.2038263 -0.03135653 -0.34137702 0.110180855 0.2966288 0.13349517 0.018917643 0.04198696 0.03637179 -0.09101793 -0.4950865 -0.0142850205 -0.33775035 0.2509791 0.13561621 -0.35475162 -0.318223 0.33233184 0.2740976 0.23211305 -0.04348954 -0.49952 0.0036574167 0.10958408 -0.19122359 -0.17315601 -0.013737672 -0.24741872 0.03208486 -0.018111615 0.0535882 -0.15249497 -0.38037217 -0.11595956 0.016173184 -0.20009309 0.09693222 0.047943246 -0.32534742 -0.19214675 -0.01793916 0.11677155 0.028991025 0.03742903 -0.13959208 0.033173133 -0.1396015 0.104357086 -0.21997185 0.07768413 -0.2331356 0.017459616 0.029964834 0.10583721 -0.34164435 0.05455322 -0.24457859 0.19280593 0.11740267 -0.22506525 0.07676962 -0.012811501
15 0.5210905 -0.33329967 0.097290605 0.11673972 0.20938288 -0.19980496 0.03964456 0.18373327 0.0012795627 0.026134163 0.33868146 -0.025329394 -0.24067804 0.016494188 0.57581335 0.5239468 -0.026607392 0.10393075 -0.0015506856 -0.20264429 -0.056879245 0.541909 -0.16581099 -0.033917606 -0.15652901 -0.23420794 0.10384932 0.14364266 -0.026065484 -0.3309796 0.08278604 -0.056175772 0.53305167 0.27402788 -0.24663152 0.25031942 0.41136476 0.044030398 0.33247867 0.18123251 0.15541 0.00088532147 0.047012452 0.18636334 0.035894476 0.40662158 0.08772302 0.1510659 -0.04276286 0.22549734 -0.12191029 0.36053827 0.08509487 -0.049002755 -0.14840975 0.11074877 0.5437449 0.060449522 -0.15428534 -0.0018076177 0.12784624 -0.23467667 0.004941797 0.10011694 0.46888793 -0.30916 -0.008600879 0.0058332384 -0.4617379 0.13774277 0.1951568 -0.25058126 -0.090672836 -0.10979262 -0.042412236 -0.10476337 -0.40121672 -0.52820444 -0.35541907 0.34813696 0.17958617 -0.29544514 0.008258069 0.31928447 0.1970382 0.03694144 0.13631645 -0.74998266 0.15837741 0.5421525 -0.3177214 -0.15710506 0.35948542 0.093746655 0.024270756 0.11866973 -0.14116536 -0.0133156115 -0.1349852 -0.45246306 -0.011372924 -0.051987275 -0.30906707 -0.35202643 -0.25000733 -0.23740326 -0.03216807 0.20635195 0.085599214 -0.12461799 0.008914406 -0.15969838 0.08141527 0.12146276 -0.03441363 -0.063914895 -0.08868335 -0.014537542 0.3118222 0.021138523 0.026925769 -0.008564439 -0.16646034 0.05284175 -0.062936075 0.020394793 -0.09383211 0.06692428
12 0.53492343 -0.28452542 0.043674596 0.30939427 0.1954762 -0.14897493 0.08485563 0.26450184 -0.257155 -0.06470681 0.082152344 0.17222205 -0.2354587 -0.024308372 0.38639018 0.46450707 0.15241258 0.2309244 0.09803144 0.21714373 0.04640821 0.5862864 0.038470384 0.06775455 -0.2857998 -0.24618529 -0.078689605 0.2461198 -0.15941682 -0.075474806 0.24434614 -0.11503713 0.46734306 0.30684382 -0.26476836 0.3663999 0.30488327 -0.12894252 0.13394226 0.21766369 -0.008545582 -0.021361867 -0.116533875 0.18404187 0.03675884 0.26001748 0.1885497 0.111454435 -0.039090913 0.09809777 0.18094848 0.16251539 0.11182293 0.033462204 -0.14833114 -0.15002526 0.49594375 -0.16691536 0.13446571 0.005199624 0.012339878 -0.32017216 -0.0074771 0.44390985 0.47690582 -0.18003991 0.19059186 -0.2042728 -0.4727236 0.23092905 0.031364482 0.046554953 0.007374381 -0.031810287 0.07093422 -0.16457371 -0.47274077 -0.09477007 -0.39044052 0.2950336 0.0015862596 -0.43197984 -0.12538302 0.3552844 0.36860025 -0.0022264207 0.13391693 -0.65967625 0.17883869 0.39174807 -0.30628994 -0.10906894 0.1665271 0.0468056 0.12927699 0.0041603874 -0.14883491 0.0059585236 -0.08620836 -0.121949255 0.11726435 -0.22215994 -0.25340432 -0.43670598 -0.37506774 -0.22076616 -0.01276097 0.35048226 -0.029999766 0.064447686 -0.010431412 -0.15147755 0.05107656 0.06748956 0.07597658 0.15682657 0.19709113 0.25211543 0.25036666 0.092986956 0.10768023 -0.01835875 -0.10355852 0.03689592 -0.16664073 -0.20599134 0.13000137 0.18342789
18 0.034366906 -0.37732098 -0.26299924 0.044343926 -0.14725727 -0.14363329 0.217809 -0.09041012 -0.13419959 0.061217934 0.143121 0.30459288 -0.12613286 0.438481 0.39914235 0.32213816 0.24279195 -0.25269833 -0.27786568 0.030923167 0.2759982 0.24038047 -0.14614432 -0.04891843 -0.11156645 0.13722275 -0.27880856 0.16288693 0.15746619 0.00046427664 -0.07297815 -0.11410868 0.3068331 0.18703495 0.05445863 0.04252951 -0.08419491 -0.3158802 0.30864048 0.16092438 0.08191248 0.1126096 -0.20415494 -0.17504117 0.6436361 -0.05371108 -0.102044046 0.06502241 -0.17892228 0.21105486 0.22145651 0.042353846 0.33740053 0.27335456 0.21980397 -0.13281547 0.30470595 0.31308073 -0.26833797 0.5589245 -0.36798477 0.22516306 0.122138426 0.27188465 0.1908665 0.04629391 -0.067884795 0.06462165 -0.009780258 -0.03298297 0.37883013 0.10296129 -0.037423853 -0.16238156 0.0933055 -0.072933294 -0.31156412 0.06006639 -0.20991705 0.1674018 0.04728044 -0.32043073 -0.060034182 0.3578972 0.38338843 0.17426957 0.0036848905 -0.15347876 -0.009922192 -0.08392535 0.16510402 -0.23808296 -0.04339278 -0.4171833 0.055727024 -0.16647053 0.23683761 -0.13951494 -0.14671819 -0.13437147 -0.10697296 -0.117085725 -0.037200257 0.26254964 -0.13392974 -0.1876308 -0.15094723 0.22883637 0.090873055 -0.14523731 -0.07129805 0.08430822 -0.121139206 0.27097425 -0.37376422 -0.013036024 -0.102356985 0.10754243 -0.022086795 0.022892594 -0.3670685 0.005122053 -0.30958018 0.2488929 0.0840818 -0.076021776 0.20490584 -0.13187505
14 -0.10366025 -0.28542927 0.18654788 0.091481164 0.14118995 -0.026696749 -0.23770459 0.18670624 -0.034218952 0.00019004513 0.39575487 0.060498517 -0.116774395 -0.30693448 0.5087146 0.17264561 -0.088390514 0.2110169 -0.14067118 -0.170466 -0.28685457 0.40805453 -0.1112348 -0.15275511 -0.22915415 -0.15057006 0.15695143 0.138345 0.30949405 -0.38495657 -0.22997163 0.034922596 -0.07459075 0.12662865 -0.29091117 0.22851576 0.43141726 0.098590195 0.2121662 0.012980186 0.00795938 0.023448326 0.227676 0.102514766 0.049808357 0.3771813 -0.049642716 -0.15529032 -0.052915156 0.16800825 0.0065607773 0.08887845 0.1319144 -0.06083887 0.040559962 0.28727195 0.36021203 -0.09180131 -0.00010688024 -0.18314423 0.31477392 -0.17670499 0.17666107 -0.20538437 0.13060713 -0.0136303045 0.036652308 0.39994943 0.04935506 -0.13403894 0.27940342 -0.24531357 -0.58048534 -0.27007362 0.094821945 -0.11694267 -0.022574317 -0.18523344 -0.058799185 0.3233576 0.20028758 -0.029965173 0.35071987 0.32063472 0.04531001 0.049168713 0.30697033 -0.3376712 0.4335714 0.45155987 0.00110477 -0.106627695 0.36614352 0.050931916 0.21848916 -0.0009897628 -0.2011208 -0.15555853 0.05160017 -0.46329784 -0.2264895 0.21299247 -0.33346456 -0.25998175 -0.023433857 0.14237702 -0.015324214 -0.021824488 0.029042745 -0.36980695 0.30899012 -0.1382725 0.27361676 0.101206385 -0.0015752054 -0.45273283 0.021044925 -0.12439053 0.24402002 -0.32169393 0.02703138 0.023887953 -0.046239372 0.15184379 -0.16325413 0.03059477 -0.24891686 0.02862271
8 -0.25601357 -0.1500121 0.13358554 0.055166494 0.118224844 -0.09303803 -0.12110448 0.018383197 -0.125382 -0.064854994 0.07223968 0.12640248 0.005264258 -0.32255813 0.3973963 0.01313339 -0.19571203 0.17149328 -0.2782024 0.109767005 0.10980018 0.50061375 0.0283507 -0.02773746 -0.11639237 0.118884504 0.004215782 0.26676184 0.586551 -0.21161039 -0.44797537 -0.09946187 -0.11214073 0.04558021 -0.37026718 0.19516976 -0.045780107 -0.10248887 0.08270161 -0.035016943 -0.17041712 -0.034505222 -0.0155601 -0.13418454 0.089275114 0.29329818 0.08697461 -0.32191554 -0.17391947 0.1212447 0.09317257 -0.00028958742 0.16087438 -0.046521667 0.15202543 0.19966367 0.16944587 -0.03922394 0.1493927 -0.23006184 0.34128648 -0.031641982 0.2387427 0.0029523878 -0.074955754 0.22078794 0.29191038 0.38286978 0.1839259 -0.14986953 0.21647894 0.13385683 -0.62108356 -0.06534338 0.13229746 -0.13632247 0.0013875198 0.37041196 -0.025002545 0.27653682 0.15421697 -0.024665385 0.17258629 0.24909398 0.12297673 0.086198434 0.16521166 -0.1707754 0.4194404 0.20911236 -0.0005743796 -0.064279504 0.101229995 -0.14193277 0.33601812 -0.15509084 -0.20417234 -0.24785297 -0.15199488 -0.19259852 -0.13543193 0.15398325 -0.091211304 -0.03824604 -0.18915626 0.2889472 0.013894748 0.016437983 -0.05782576 -0.23852722 0.27067357 -0.004875735 0.11573893 0.048297845 -0.1226829 -0.4471742 0.031825226 -0.08915376 0.05376484 -0.283385 -0.25647643 0.06218236 -0.045318216 0.24668099 -0.04998416 -0.1711352 -0.203649 0.1334239
56 -0.061924107 -0.23238075 -0.016900167 0.30016714 0.0049094465 0.09247423 -0.13793363 0.18092704 -0.3801751 -0.026555708 0.063440666 0.40723428 0.05389872 -0.22184125 0.26245728 0.051846538 0.36411142 0.30153158 -0.11609911 0.30103087 -0.0957942 0.28958243 0.10390696 -0.17967205 -0.3320696 0.049752437 -0.051370982 0.28721324 0.30728367 0.07852769 -0.20978974 -0.0023974134 -0.24500348 0.17705958 -0.26589483 0.28711703 0.2594463 0.054164354 -0.009593736 0.13224001 -0.12580729 0.006046081 0.071475275 0.07661983 0.26680133 -0.016204411 -0.2524589 -0.2164758 0.023776969 -0.083933376 0.28189492 -0.25350103 0.40164155 0.16351257 0.13121307 0.009976176 0.24088213 -0.26374963 0.28694195 -0.12547605 0.027041467 -0.074329324 0.12461533 0.25254127 0.14940247 0.061390355 0.25731456 0.05975255 0.07649282 -0.1457183 0.17912713 0.12999956 -0.40841475 -0.2144597 0.2847567 -0.18806463 -0.058523692 0.49373013 -0.04789056 0.12561809 0.024111146 -0.21441701 0.069660075 0.48249444 0.23339956 0.12840544 0.322701 -0.14925116 0.4155944 0.036433365 0.13988201 0.051024396 -0.013482931 0.026791854 0.28949866 -0.07245684 -0.19289522 -0.17643262 0.11652171 -0.0394794 0.002472267 -0.11883322 -0.08643184 -0.07109917 -0.008086192 0.17485996 0.023505136 -0.101614885 -0.16235808 0.01787244 0.22084081 -0.0125221 0.13800865 0.07477052 0.17948967 -0.059959274 0.2606839 0.18883356 0.029224455 -0.21711685 0.16806892 -0.018791454 0.1064281 0.07617139 -0.17214815 -0.29934022 0.14833888 -5.6602294e-06
58 -0.055468187 -0.40044013 0.21034074 0.13165995 0.118081674 -0.006381582 -0.26821452 0.24125727 -0.037159234 0.049435876 0.49708155 0.032229625 -0.13223445 -0.26856074 0.620071 0.24887754 -0.04984593 0.23174123 -0.10496957 -0.22691466 -0.35264063 0.43315905 -0.17849764 -0.22714235 -0.22503892 -0.23058097 0.1892815 0.10931118 0.2576295 -0.43403512 -0.2120663 0.07957627 0.009024431 0.18546169 -0.2748739 0.24467991 0.56300604 0.10281933 0.28341565 0.025445769 0.08346053 0.031666167 0.2676513 0.14742303 0.11513492 0.42148364 -0.14445841 -0.12188721 -0.04017727 0.20715247 0.02407848 0.14970605 0.15046306 -0.07902332 0.012543601 0.31221542 0.44513297 -0.06250142 -0.05080738 -0.15054348 0.2437909 -0.24139012 0.15714666 -0.24942486 0.19266276 -0.046564143 -0.0066421316 0.44300237 -0.009869477 -0.15362412 0.31058165 -0.35564885 -0.6243853 -0.3491221 0.109709404 -0.111324646 -0.036871586 -0.35759082 -0.0938798 0.36639756 0.19389623 -0.051503744 0.40394148 0.39226964 0.06829993 -0.012964815 0.39603874 -0.437585 0.47211152 0.49848932 -0.025572576 -0.1893376 0.42950335 0.066417105 0.2167906 0.07508695 -0.21086536 -0.119706556 0.07882523 -0.56330806 -0.21367364 0.21408883 -0.381157 -0.28075498 0.00017909767 0.100684255 -0.006453231 0.0041677235 0.03869892 -0.426594 0.32131842 -0.16861612 0.31454644 0.15083326 -0.016138347 -0.41302487 0.023711182 -0.11634316 0.28876644 -0.32450122 0.07577655 0.0029251166 -0.025342453 0.1343682 -0.16943747 0.12030517 -0.2405725 0.00859287
82 0.055525288 -0.19188668 0.37564364 0.4713421 0.31296852 -0.064358346 -0.049430635 -0.095632814 -0.121104434 0.25609434 0.017138524 -0.20022728 0.2760175 -0.16363549 0.37511688 -0.053073805 -0.11657108 0.11300023 -0.040134028 0.20310302 0.20907657 0.096453875 0.18759888 -0.30255908 -0.11280951 -0.078851834 0.3393471 0.1872799 0.07992338 -0.20397966 -0.17853817 -0.15250114 -0.034384806 0.29128742 -0.33289602 0.07037305 0.0755535 -0.065363504 0.09520988 0.1300154 -0.3803157 -0.120998695 0.011416367 0.084739186 0.46236882 0.25234613 -0.23406157 0.1668829 -0.1432349 0.19352844 0.2975772 0.0866098 0.19782014 0.10800029 -0.1899456 0.1868894 0.18384162 -0.15353093 0.2675465 0.08627551 -0.19805802 0.13037251 -0.25003463 -0.014187654 0.015571353 -0.10309456 0.08882258 0.13391566 -0.29587686 0.3051404 0.03868215 -0.1475599 -0.43880922 -0.13644324 0.3460652 -0.061981425 -0.24330623 -0.056314357 1.0225107e-05 0.34141308 -0.13465014 -0.0982215 0.13201791 0.5391947 0.050355125 -0.113303535 0.57674915 -0.2461727 0.11936853 0.0039371904 -0.041429628 -0.34476388 0.27767012 -0.32833523 0.14684647 0.34788314 -0.053753268 -0.040108986 -0.4526884 0.045723043 0.018301534 0.12778418 0.19545291 -0.13456213 0.084135935 0.08172803 -0.0057983934 -0.08288992 -0.2650666 -0.11749382 0.23691115 -0.19984634 0.29471418 -0.12578787 0.15914647 0.05181492 0.110412955 0.050888434 -0.26121014 -0.43901753 0.09722641 0.029316114 0.18059646 0.22311006 -0.07173947 0.1589161 0.03358405 0.0017135128
42 -0.21078092 -0.10758969 0.106689416 0.027880086 0.10711381 -0.19192836 -0.0048920694 -0.07862567 -0.10799121 -0.056956794 -0.028105265 0.09886867 0.072318055 -0.25367016 0.40210742 -0.035267804 -0.21025077 0.06525451 -0.3177646 0.13851468 0.3042414 0.5251549 0.047841534 -7.265026e-05 -0.05594434 0.23041943 -0.0067477403 0.27880675 0.6430358 -0.20622365 -0.53384066 -0.204171 -0.057400033 0.096731566 -0.4008106 0.13836235 -0.21493669 -0.16416419 0.08358877 0.004371696 -0.26584446 -0.03836847 -0.11483956 -0.20389813 0.17936498 0.27808288 0.14649652 -0.29431185 -0.19593316 0.15985651 0.083043136 0.002363401 0.20480508 -0.011999231 0.1893947 0.20303524 0.16192614 0.021889193 0.111763924 -0.17541268 0.30109853 0.049862575 0.20484146 0.0755354 -0.0682782 0.20555685 0.37057856 0.370113 0.13343562 -0.14998211 0.23315434 0.22745566 -0.6067964 -0.000528967 0.11988901 -0.121425316 -0.06583285 0.4420478 -0.08152286 0.27128425 0.14376156 -0.06408947 0.09738968 0.30170456 0.1260599 0.14845237 0.14899884 -0.18840273 0.379173 0.08724838 0.015072241 -0.1348691 0.021555346 -0.24843119 0.33898604 -0.14569518 -0.17542838 -0.28111005 -0.2789229 -0.09621501 -0.12293671 0.10791503 0.063249275 0.08950771 -0.21391098 0.2545218 0.021606652 0.01744095 -0.08179621 -0.22649729 0.23083241 0.05175756 0.04486861 0.041138403 -0.17449932 -0.3655924 -0.037099913 -0.08548901 -0.046583906 -0.24973658 -0.3976029 0.08199514 -0.04787597 0.29825962 0.055009816 -0.18962634 -0.14189076 0.13181067
53 0.39039758 -0.30417943 0.06846171 0.4161028 0.14076471 -0.022546321 0.0021219002 0.29760236 -0.37913975 -0.097527504 0.0022047458 0.28057104 -0.14858547 -0.19916104 0.27388763 0.29125267 0.25155938 0.3888005 0.12393338 0.3968983 -0.04896871 0.5347119 0.1472881 0.07688827 -0.38972208 -0.23440033 -0.09912793 0.2945897 -0.12104934 0.042033818 0.22015761 -0.09797731 0.20978774 0.26561725 -0.2793142 0.41811422 0.34746823 -0.17846844 -0.028128643 0.18343209 -0.1303029 -0.045949124 -0.10480828 0.17056885 0.080985025 0.15712905 0.13257037 0.0043513603 0.027058305 -0.026184354 0.36962143 -0.084656484 0.1881946 0.09240096 -0.09234695 -0.17249137 0.42582905 -0.32037935 0.31161156 -0.05643086 -0.015035922 -0.3453488 0.034191858 0.49063247 0.40743485 -0.0721301 0.2542807 -0.22944322 -0.33107466 0.21222788 -0.0025403714 0.14145742 -0.11519752 -0.07217493 0.21049912 -0.21462795 -0.38375458 0.23169275 -0.3048933 0.24523766 -0.08005867 -0.47338328 -0.045384675 0.4322028 0.418775 0.024527073 0.20738688 -0.48724088 0.27052647 0.29678845 -0.19312641 -0.017806454 0.111640096 0.036291875 0.26849216 -0.022110604 -0.16260862 -0.030891266 0.0051490706 0.010607177 0.14104307 -0.24641626 -0.24398808 -0.4529941 -0.31780118 -0.08735025 -0.037873723 0.33353096 -0.13006724 0.051148925 0.10265734 -0.1674388 0.1259606 0.047387734 0.22655858 0.1330991 0.35555288 0.36314243 0.16838619 -0.01984574 0.19117312 -0.016499832 -0.050933708 0.044303447 -0.22954743 -0.29697937 0.24000603 0.16845167
67 -0.16733558 -0.54960036 -0.17716242 0.16652085 -0.3290643 0.0060077454 0.060996044 0.055488966 -0.22793655 0.016792228 0.25117657 0.35881594 -0.018006168 0.15511826 0.54757416 0.03725558 0.42321727 -0.1583638 -0.094835736 -0.07386853 -0.089829914 0.21981436 -0.14953092 -0.14592107 -0.24880646 0.062194016 -0.10869073 0.07103185 0.13505268 0.025000388 -0.0799284 -0.18399175 -0.1499152 0.3758227 -0.004807792 0.023638988 0.3816957 -0.18428703 0.37715366 0.15997392 -0.075591825 0.114766344 -0.010664443 0.08875811 0.8708236 -0.11331629 -0.3169822 -0.0008598051 0.10969002 0.02365737 0.5903546 -0.24141791 0.3472768 0.2950739 0.32375234 0.06778448 0.4301032 0.07253649 -0.17484924 0.4959623 -0.3629396 0.13123849 0.08959205 -0.053577635 0.11474426 -0.051465467 -0.1838796 0.16051054 0.1419868 -0.25692007 0.3766975 -0.09697783 -0.2805611 -0.39233407 0.17914341 -0.047200363 -0.037046492 0.05836941 -0.0488149 0.12722844 -0.06210171 -0.24826661 0.4117919 0.5389403 0.33238736 0.10530214 0.25904828 -0.05992127 0.088215075 -0.19944033 0.34721696 -0.28498086 0.13043539 -0.47397622 0.19807276 -0.041948713 0.20569263 -0.058268636 0.040105682 -0.15805876 -0.22968726 0.028310562 -0.081079975 0.3171813 0.19886495 -0.1401112 -0.3440209 0.29155234 0.056775745 -0.37169775 0.25524303 0.16910657 0.03863538 0.370127 -0.15482801 -0.09694687 0.09619338 0.19547579 -0.04298149 -0.22345904 -0.15575312 0.077194825 -0.21014665 0.2318033 -0.001202822 -0.015793137 0.38107604 -0.22984093
23 -0.04507877 -0.1693551 0.36368802 0.47433534 0.29792643 -0.01994694 -0.09598659 -0.059429098 -0.16388105 0.26210594 0.05066249 -0.16739878 0.28098047 -0.17122635 0.30522254 -0.086932875 -0.062264882 0.12795964 -0.068459176 0.24824457 0.18588896 0.05517597 0.2008491 -0.3440446 -0.13529758 -0.05350118 0.29359594 0.20819728 0.13235416 -0.2035795 -0.24585834 -0.11612073 -0.10282865 0.21970323 -0.3053997 0.09450012 0.043231566 -0.07844323 0.011401894 0.09535777 -0.385096 -0.10155486 0.037380192 0.030885184 0.42373073 0.21009256 -0.29014778 0.10569768 -0.18677402 0.19863069 0.2866042 0.05417691 0.21924078 0.09822695 -0.18059757 0.15289393 0.10874982 -0.19347544 0.28648007 0.035849117 -0.18001042 0.1013762 -0.17504394 -0.014410026 -0.015250816 -0.049089827 0.13161592 0.20076086 -0.19851743 0.2429911 0.06322552 -0.116871305 -0.5226542 -0.14801425 0.36109674 -0.08949383 -0.1998586 0.018456893 0.0401234 0.2911149 -0.1434108 -0.07289536 0.12019383 0.50206643 0.04074701 -0.10050907 0.5919841 -0.1914705 0.1889328 -0.022891361 0.014714676 -0.28025523 0.19820705 -0.26575077 0.1956194 0.30664763 -0.060607757 -0.09506639 -0.36465272 0.050160654 -0.0033204248 0.11343063 0.18310004 -0.1491202 0.08952179 0.12956813 0.052157246 -0.16704409 -0.27143565 -0.124748394 0.24527921 -0.19533648 0.30728576 -0.14172594 0.14087528 0.040866893 0.14516512 0.061135136 -0.26308012 -0.46488523 0.12190695 -0.0054662707 0.20594493 0.21866187 -0.098265566 0.15591374 0.012960247 0.009463009
66 -0.21439762 -0.4847302 -0.15573516 0.21877919 -0.27249822 0.0069505456 0.04336473 0.049603313 -0.2596567 -0.029063119 0.18965021 0.32723442 0.05225863 0.07015525 0.48316672 -0.011191619 0.39322013 -0.092760794 -0.13797121 -0.005182118 0.0027056546 0.23469901 -0.13260226 -0.1250071 -0.20276739 0.10373937 -0.1195736 0.11629236 0.2457896 0.017921938 -0.21014628 -0.15848133 -0.19544676 0.27237442 -0.04724684 0.0915015 0.27607355 -0.14606486 0.277862 0.1470014 -0.09701817 0.14255702 -0.0010727122 0.03407632 0.7296252 -0.097743705 -0.29695076 -0.05872071 0.0780221 -0.008116461 0.49710864 -0.2686901 0.37161148 0.2357496 0.30639786 0.040075384 0.30163297 0.026883513 -0.118627176 0.34084663 -0.25218874 0.06958168 0.15496895 0.004448889 0.087718934 0.0047667567 -0.07110957 0.17991593 0.2090968 -0.24493892 0.2978699 -0.06729774 -0.3844794 -0.33477974 0.20305906 -0.070619486 -0.0062456885 0.22139391 -0.039724253 0.103915304 -0.07685085 -0.20637575 0.3572367 0.5193785 0.2805312 0.12734574 0.2723218 -0.03972115 0.20208426 -0.19229372 0.36887375 -0.22557406 0.07041404 -0.3688512 0.24739799 -0.031742353 0.12741652 -0.10280983 0.035520438 -0.12163867 -0.18043703 0.003888807 -0.036411304 0.30595836 0.14408143 -0.06713603 -0.26060256 0.17677549 0.0010416465 -0.3373296 0.28448093 0.12820344 0.06712192 0.30975816 -0.1256748 -0.12051819 0.10167169 0.13890646 -0.08220864 -0.23770846 -0.15368162 0.01837935 -0.13448846 0.2148402 0.032580666 -0.026278157 0.33105108 -0.19598743
83 0.122636296 -0.15968575 0.39891103 0.50939614 0.38203567 -0.06641535 -0.007030185 -0.12534624 -0.111632735 0.35620746 0.045209263 -0.23054633 0.3030606 -0.070257545 0.39723954 0.014083113 -0.093024045 0.07870683 -0.061604124 0.21373297 0.25862715 0.037228264 0.18922038 -0.39964995 -0.096910305 -0.08558245 0.38124368 0.19692174 0.033871546 -0.23785892 -0.17496665 -0.14943239 0.059869003 0.32879564 -0.3284489 0.06843766 0.032039907 -0.08003117 0.10965934 0.15524377 -0.3797177 -0.155894 -0.010810684 0.0794331 0.5517552 0.24936448 -0.32490078 0.24346481 -0.18596861 0.2531869 0.26326582 0.19539814 0.22878437 0.1481677 -0.24176309 0.1885453 0.20730673 -0.102944784 0.2415634 0.14649089 -0.3003536 0.21435994 -0.31772918 0.0054955455 0.039398696 -0.17630954 0.08560489 0.10972174 -0.4055331 0.3863512 0.058697645 -0.14737906 -0.40326008 -0.12824497 0.37462854 -0.07880371 -0.32966182 -0.15327954 -0.0008765245 0.38761815 -0.15354961 -0.10913636 0.07946945 0.58862185 0.057888214 -0.14875543 0.6293796 -0.28966007 0.076071054 -0.015970916 -0.051562928 -0.40162253 0.279223 -0.35272262 0.087303065 0.44306597 -0.034947384 -0.024045957 -0.5477978 0.06825717 0.05297517 0.094508044 0.24975629 -0.13343804 0.12679607 0.06709079 0.016862951 -0.15914948 -0.3014294 -0.06517224 0.19076031 -0.2232856 0.3065322 -0.15567511 0.1622499 0.13598031 0.07926 0.053805463 -0.3066748 -0.44456783 0.15353869 0.03530749 0.20590806 0.21586688 -0.06255592 0.19681013 0.044917412 -0.016927429
75 -0.3768712 -0.17104098 0.06378214 0.097200036 0.197978 0.09566117 -0.16407183 0.05320085 -0.20014642 0.355724 0.28707168 0.44243497 -0.068241686 0.15595722 0.22846833 0.3768486 0.1267293 0.13303214 -0.46145627 0.35902333 -0.11606265 -0.079027556 0.018543959 -0.41402975 -0.26785186 -0.005451673 -0.1649726 0.29644415 0.2300593 -0.027710421 -0.09197766 0.33060881 -0.018918058 0.11500667 -0.048024908 0.2309806 -0.03701613 -0.20348704 0.18659101 -0.022050416 0.08516863 -0.001512497 -0.064069726 -0.15456297 0.53939754 0.06675938 -0.47785047 -0.09728405 -0.33072793 0.32277218 0.21425171 0.18541582 0.23262994 0.30428994 0.07105341 -0.14923097 0.26024646 0.076585636 0.19693992 0.3756118 -0.31217042 0.2915486 0.05715964 0.10360938 -0.10105069 0.19391237 -0.008752732 0.24961123 0.05350335 0.1901606 0.40075663 0.21303509 -0.22065769 -0.2565042 0.41250342 -0.25374678 -0.1723577 0.0930052 0.048280016 0.4248595 0.08158835 -0.15735252 0.017813621 0.43657368 0.35530263 -0.048715737 0.2339511 -0.00014634943 0.2732893 0.26308382 0.18578699 -0.11633128 0.12877187 -0.23587848 0.0076666134 -0.16352566 -0.07830752 -0.1757771 -0.1332719 -0.15072721 -0.10579175 0.023988219 -0.23450412 -0.08154867 0.0932431 0.25057054 0.014375949 -0.13802667 -0.044777263 0.1412634 -0.051190984 -0.079462126 0.21738054 0.060021453 -0.21158208 -0.19139491 0.08222381 0.086420074 0.12306991 -0.20674106 0.2189825 0.044344462 -0.005963994 0.19820796 -0.31661227 -0.22095889 -0.17878559 -0.03308928
51 0.28014418 -0.34367767 0.054171618 0.4023642 0.10109308 0.10288087 -0.06600901 0.32322475 -0.44469476 -0.095336504 0.021896685 0.38519242 -0.15433706 -0.19309571 0.22410378 0.29563278 0.33054474 0.45199108 0.109159835 0.4782446 -0.11911449 0.47727874 0.17654473 0.015057794 -0.4604017 -0.21956466 -0.15562679 0.32315624 -0.10583554 0.10895996 0.18751974 -0.017909668 0.106585935 0.24413337 -0.25248423 0.45302683 0.39473596 -0.21068117 -0.09560661 0.12148059 -0.081591375 -0.051472567 -0.054797687 0.119244955 0.09969345 0.09642617 0.03457715 -0.111570396 0.031754855 -0.052413285 0.42276266 -0.16425098 0.26294163 0.1124485 -0.07351109 -0.23314793 0.41489583 -0.37362552 0.38707903 -0.064134546 -0.088197045 -0.36878458 0.05575597 0.4998408 0.3553752 0.008423751 0.26941738 -0.21618228 -0.2714013 0.11328176 -0.035484165 0.17429774 -0.19398619 -0.09944278 0.19337812 -0.25676453 -0.31897035 0.32021916 -0.24398966 0.26244232 -0.053780064 -0.4476697 -0.032240853 0.46059453 0.47734553 -0.014095431 0.27391422 -0.421661 0.3376008 0.27435148 -0.1371918 -0.011782195 0.061298925 0.094348244 0.29006168 -0.1194258 -0.19230263 -0.03705374 0.07861687 0.029063504 0.14851934 -0.2238928 -0.29717624 -0.4758689 -0.26568237 0.0040544923 -0.01596952 0.31716818 -0.14240664 0.064006075 0.1052223 -0.19625115 0.15309279 0.05302003 0.23402926 0.11952367 0.4138915 0.42646933 0.18636863 -0.0648644 0.24680082 -0.07155826 -0.012035627 0.014021495 -0.29384443 -0.3344404 0.21765648 0.20377532
43 -0.0956785 -0.07669208 0.07726635 0.00028448203 0.14079086 -0.24865751 0.009968619 -0.061582204 -0.10652202 -0.16059008 -0.08791828 0.19369662 0.043735906 -0.3626323 0.5039197 0.010151421 -0.2831938 0.10426619 -0.32056215 0.12291975 0.30981666 0.7238137 0.06569195 0.106707655 -0.05430534 0.258692 -0.008606083 0.36231378 0.7434818 -0.19192071 -0.5218291 -0.29106706 0.005170285 0.107814744 -0.49323237 0.16264562 -0.18958893 -0.11939304 0.15313968 0.039575122 -0.25459203 -0.09563431 -0.13841298 -0.14393339 0.087651946 0.36854503 0.31965187 -0.31988114 -0.15461455 0.10216497 0.033722766 0.041966774 0.14069766 -0.044746403 0.2497728 0.24481612 0.25722563 0.026513908 0.111103095 -0.31985447 0.4868905 0.0148509145 0.2520878 0.10756178 -0.03823832 0.16499637 0.42757612 0.31284449 0.100863054 -0.13509049 0.2624586 0.29512456 -0.5221898 0.06263251 0.08715429 -0.122847185 -0.0825973 0.53197676 -0.11278864 0.29021934 0.2058092 -0.08022427 0.08111884 0.25682193 0.15839475 0.1951007 0.021727987 -0.262199 0.3886753 0.19926459 -0.13104759 -0.03700125 0.07814778 -0.23409949 0.34856823 -0.19991024 -0.23612653 -0.2629679 -0.30196643 -0.13216728 -0.12880044 0.09817502 2.1673786e-06 0.03045838 -0.32507065 0.25576305 -0.038480535 0.13740307 -0.036662143 -0.15257648 0.23137505 0.11287856 -0.041962948 0.037499905 -0.15461037 -0.4470898 -0.041402746 -0.080253296 0.03214041 -0.18945736 -0.42605764 0.16280149 -0.11588089 0.30266172 0.03728503 -0.37808797 -0.17569508 0.18054551
27 -0.32988474 -0.39143836 -0.05079973 0.07251398 0.0171442 0.010785326 -0.045446973 0.006672638 -0.18954545 0.20267396 0.33174253 0.056722272 -0.13606642 0.3445243 0.21530856 0.2559805 0.16844499 -0.042130634 -0.37983266 0.2355044 0.26971024 0.14466067 -0.055906694 -0.15122823 -0.20485365 0.050308276 -0.31272337 0.13486901 0.21285047 -0.16803363 -0.39385226 0.1317539 0.14827627 -0.0511932 -0.0042000418 0.27843913 -0.18612587 -0.47746047 -0.016703622 -0.092314884 0.049294792 0.2405336 -0.12364918 -0.51867014 0.32260093 -0.005210085 -0.20917313 -0.25600356 -0.46155974 0.3833658 0.19579102 -0.0031319077 0.43778506 0.09294013 -0.031500656 -0.28542677 -0.027056636 0.18282089 -0.03620966 0.37402436 -0.34939206 -0.005815331 0.20537694 0.25752333 0.11586414 0.39773214 0.04849389 0.3894376 0.19992232 -0.21775462 0.18181868 -0.016047617 -0.576723 -0.19367845 0.07549388 -0.16672906 -0.20551512 0.03655089 -0.17250203 0.284277 0.036135107 -0.1576609 -0.06727949 0.33065948 0.25455683 -0.02247913 0.37134606 -0.17661025 0.32390872 -0.07369336 0.29647303 -0.40770465 -0.22612053 -0.19615035 0.25823054 -0.20619163 0.09925606 -0.3416897 -0.006616349 -0.23687744 -0.08752469 0.015138337 -0.045150343 0.09109859 -0.24213275 0.025696918 0.20719656 -0.057131052 -0.057306245 -0.44093883 -0.014697822 -0.22528875 0.17838964 0.13891152 -0.44183457 -0.08201591 0.016465034 0.010089663 -0.048967905 -0.1747935 -0.44010195 -0.2931222 -0.16498616 0.27608952 0.027811406 0.2934561 -0.09386424 0.074120484
26 -0.36281654 -0.36662102 -0.01691614 0.16950564 0.045902334 0.061245285 -0.09035753 0.03388665 -0.24568205 0.23434766 0.30294675 0.11996618 -0.0631835 0.29267433 0.2077881 0.20128225 0.2367414 0.00035971365 -0.37801403 0.30223843 0.23208295 0.07248948 0.0017515235 -0.2479963 -0.23172295 0.054464176 -0.24257655 0.17368628 0.23852126 -0.12898716 -0.3906655 0.14158301 0.050283354 0.0013688083 -0.028152227 0.30069482 -0.1537383 -0.38631353 -0.004976491 -0.051687077 0.014327598 0.2198161 -0.08876324 -0.44406694 0.41509575 -0.033858977 -0.356305 -0.22379914 -0.42209098 0.32919544 0.24779253 -0.023480177 0.46077177 0.16176602 -0.020323014 -0.27621937 -0.015310658 0.0850697 0.077520184 0.3434983 -0.3760808 0.04868096 0.1653692 0.26992553 0.077290475 0.3614516 0.07513246 0.35703465 0.17837936 -0.1585075 0.19346581 0.019806787 -0.57765687 -0.21748064 0.18668488 -0.18716541 -0.18223253 0.11121546 -0.12900054 0.29316214 -0.0116950385 -0.16331016 -0.045151453 0.41129726 0.2626815 -0.058382124 0.44600454 -0.1248321 0.3511285 -0.09656135 0.32487285 -0.36202833 -0.19612712 -0.19103335 0.25043386 -0.13889948 0.041523725 -0.304127 -0.030555667 -0.16707473 -0.041893624 -0.00020641503 -0.012483083 0.08807089 -0.13441825 0.06340604 0.2043516 -0.14296886 -0.12996194 -0.3237962 0.02040742 -0.19898435 0.22249252 0.10231931 -0.3254242 -0.04141859 0.09987543 0.04438836 -0.08851743 -0.23336306 -0.26375806 -0.25342014 -0.051893577 0.23466481 -0.021471791 0.2257899 -0.043187045 0.03531736
77 -0.4404304 -0.1745508 0.05795063 0.093026765 0.23053898 0.08455623 -0.13770278 0.010149807 -0.17601095 0.3841837 0.29179323 0.4158737 -0.081006706 0.23898691 0.20312087 0.4441085 0.06234269 0.0709288 -0.54142725 0.39485905 -0.0398922 -0.11323156 0.032009713 -0.4548397 -0.23222023 0.014325098 -0.21588603 0.31224054 0.22675449 -0.052436158 -0.1009109 0.3560385 0.048262782 0.08699444 -0.026508212 0.21251705 -0.12810022 -0.2781271 0.18637536 -0.07617471 0.11037504 0.021760734 -0.09495868 -0.2464116 0.5898548 0.0638599 -0.50844234 -0.10539072 -0.41984722 0.38869604 0.21192834 0.22642839 0.22227153 0.31835803 0.057164833 -0.21172072 0.2282833 0.13843568 0.17239895 0.46708187 -0.37607878 0.33006012 0.05775499 0.11533644 -0.17462209 0.25600895 -0.046111617 0.27719682 0.04662548 0.24354114 0.42076513 0.23037377 -0.23099966 -0.22022451 0.40777603 -0.27883303 -0.21529102 0.055029042 0.04892884 0.4733418 0.09496781 -0.16167958 -0.01460436 0.42040873 0.39735553 -0.083258286 0.22565511 0.022059789 0.2577257 0.2753005 0.1862137 -0.1552752 0.1039608 -0.30576682 0.0071051274 -0.20266353 -0.022567973 -0.18092108 -0.22930698 -0.14904852 -0.078110605 0.050904196 -0.23848295 -0.063925244 0.051887352 0.2412379 0.022893602 -0.123821475 -0.040354475 0.1390415 -0.089255 -0.094642155 0.22121947 0.057600535 -0.31536058 -0.21920799 0.04844795 0.06948076 0.09703648 -0.23053218 0.14544436 0.025052719 -0.024745276 0.23259498 -0.30127266 -0.17551666 -0.21766461 -0.028611494
48 -0.2782719 -0.23754892 0.06400709 0.21606447 0.07579119 0.0420813 -0.24265565 0.14044206 -0.24979463 0.09295775 0.29157686 0.22419983 0.06668732 -0.19906957 0.4070811 0.071814336 0.2188981 0.22808032 -0.28097662 0.09564089 -0.09301223 0.23682389 -0.027201796 -0.30340952 -0.29062435 0.076694384 0.03777126 0.23972975 0.4965329 -0.17518216 -0.4457932 0.08094397 -0.267372 0.07992943 -0.2771486 0.28253135 0.21854681 0.12150624 0.059673622 0.070444815 -0.07222072 0.08113269 0.18559626 -0.034973964 0.2228905 0.09662444 -0.34172633 -0.2748831 -0.11452753 0.07544438 0.08490155 -0.12800619 0.42588803 0.087633766 0.12233224 0.13478681 0.14739403 -0.14813423 0.15275967 -0.13139658 0.12793377 -0.016690636 0.20433535 0.029602142 0.063553125 0.14262938 0.21032871 0.3394174 0.23605996 -0.26450807 0.28238097 -0.043350026 -0.65475345 -0.3062242 0.27801895 -0.17339212 0.054786943 0.2860825 0.009521434 0.17372364 0.10605761 -0.044611968 0.17279589 0.44950604 0.043789815 0.09653618 0.43046007 -0.13697907 0.5298506 0.09793423 0.2420282 -0.019954372 0.043678477 0.060359053 0.3051259 -0.025188189 -0.21913965 -0.28472608 0.12734865 -0.24643363 -0.1416327 0.052322075 -0.0983308 -0.017936446 0.04296907 0.25888598 0.13009985 -0.31017274 -0.13131401 -0.20277262 0.2940699 -0.081181 0.24873449 0.065915346 0.03316465 -0.2532613 0.13654742 -0.04511982 0.035559233 -0.34998384 0.06343034 -0.07203582 0.1176505 0.13520215 -0.12073074 -0.0671946 -0.10062843 -0.025637524
74 -0.43506858 -0.22427769 0.040468734 0.15991266 0.107287526 0.11257543 -0.15303002 0.026712319 -0.2417426 0.3284182 0.24315196 0.40771833 -0.008653715 0.16488609 0.1985123 0.26858443 0.19202828 0.106450625 -0.43815267 0.3856766 -0.06995914 -0.09712858 0.03865018 -0.4046439 -0.27207267 0.026716372 -0.16753517 0.2579608 0.2129716 0.009600992 -0.12664261 0.28649336 -0.0928298 0.13391553 -0.04036257 0.2212261 -0.04016826 -0.2352187 0.13513765 -0.025741285 0.02740871 0.038868885 -0.07194071 -0.18223363 0.6284506 -0.008014925 -0.5263836 -0.12652111 -0.3044566 0.25881872 0.3357447 0.05051492 0.30506042 0.32318956 0.10213764 -0.1602588 0.1976108 0.03757392 0.2162806 0.41348663 -0.38335624 0.2783334 0.051660646 0.113506354 -0.13682276 0.24723214 -0.003917392 0.2442265 0.11134887 0.11428138 0.35049447 0.18731937 -0.30019328 -0.27438807 0.4234047 -0.22105943 -0.11450483 0.16482916 0.07615717 0.37915447 0.006319438 -0.15894827 0.074172005 0.48339775 0.3503136 -0.077562116 0.3259036 0.066115454 0.28507534 0.11870653 0.27110535 -0.16478114 0.0811942 -0.2896077 0.07690328 -0.13325205 -0.03689179 -0.16384344 -0.112631135 -0.078640066 -0.1055691 0.031024734 -0.14054096 0.0098591205 0.11666073 0.23021227 0.009576028 -0.12203613 -0.09948596 0.055858787 0.012628381 -0.06642302 0.23700605 0.07030481 -0.20582405 -0.15587798 0.13913026 0.12002173 0.0074783214 -0.26241797 0.16510852 -0.0063444674 0.024050862 0.21117386 -0.25722414 -0.14218935 -0.07069822 -0.059492484
59 0.002034281 -0.38899866 0.18900283 0.09003293 0.11347961 -0.0009989601 -0.25670233 0.2564283 -0.015761029 0.038185984 0.52305806 0.064841926 -0.18410555 -0.2327171 0.600667 0.30329767 -0.05325009 0.23739836 -0.107776195 -0.24946903 -0.3830004 0.43695784 -0.188728 -0.2035712 -0.2307973 -0.24859345 0.1598077 0.10694701 0.21568978 -0.42405695 -0.14364453 0.115557306 0.065440506 0.17231731 -0.22885276 0.23253416 0.5733242 0.092477225 0.27081907 -0.0013780318 0.13456005 0.04505486 0.25652805 0.14121753 0.08480021 0.4164143 -0.12182653 -0.10264426 -0.04256201 0.21472336 -0.0050331475 0.18024468 0.122123495 -0.07009744 0.014697331 0.28663433 0.47707254 -0.037050374 -0.07485494 -0.12928286 0.23962213 -0.2419964 0.15730847 -0.22471657 0.22058783 -0.06847851 -0.045057088 0.40424645 -0.03557448 -0.118231125 0.30807844 -0.34058222 -0.54522353 -0.32515916 0.07599116 -0.110293224 -0.062148407 -0.40805477 -0.10312092 0.3718031 0.21970615 -0.07055536 0.38286293 0.34525105 0.08895343 0.0028600148 0.32965663 -0.4400801 0.42857057 0.54991686 -0.048175726 -0.16919728 0.4588213 0.09999311 0.16724733 0.039890897 -0.1890096 -0.12628993 0.09588907 -0.5938171 -0.234121 0.20166709 -0.43426687 -0.29593793 -0.0207813 0.0820736 -0.011922238 0.032971427 0.07548319 -0.40870282 0.27317297 -0.15481907 0.28071588 0.17245682 -0.040687602 -0.43857825 0.015665632 -0.095834106 0.34709817 -0.27417824 0.07552127 0.00462459 -0.08549478 0.13443519 -0.1855829 0.09356546 -0.2551788 0.011607564
72 -0.08514346 -0.26660177 -0.06501211 0.20133458 -0.06553408 0.08371948 -0.15241294 0.20075794 -0.3039376 0.011812098 0.20242015 0.326637 0.051000215 -0.0983007 0.34199542 0.08838587 0.38643506 0.21394297 -0.17439696 0.11329551 -0.13198684 0.20718922 0.0016451111 -0.2747975 -0.24949256 0.052163325 -0.0067581385 0.18255925 0.3296174 -0.009938234 -0.27227703 0.050175164 -0.20457812 0.17863433 -0.20251562 0.26050025 0.30395123 0.1293211 0.09029143 0.10403067 0.014213667 0.075082414 0.13853996 0.057625066 0.3009341 -0.027203998 -0.4052868 -0.22847222 0.032494307 -0.031944256 0.18344979 -0.18890212 0.43154034 0.14911425 0.13864942 0.0468433 0.23301807 -0.14542258 0.13906904 -0.077193886 -0.01928653 -0.06296808 0.12332115 0.14281957 0.12939699 0.048508443 0.1702547 0.16062695 0.13211264 -0.26865026 0.24269667 -0.0017489356 -0.44358426 -0.2730194 0.26243877 -0.15633675 0.024356397 0.2748585 -0.042050626 0.122947976 0.07969092 -0.14427459 0.12630408 0.48999944 0.14111207 0.10979001 0.36029595 -0.17400137 0.4423033 0.02954796 0.19685806 -0.0072227824 0.009659047 0.077690944 0.2682688 -0.017770445 -0.19762753 -0.17796804 0.15741524 -0.18680382 -0.060018253 -0.07568341 -0.087053776 0.04228682 0.07080608 0.13443157 0.066257104 -0.19291425 -0.12877715 -0.082033515 0.210277 0.017987734 0.14375505 0.1464293 0.092109464 -0.07791026 0.18188712 0.08822745 0.07350348 -0.2154548 0.13702235 -0.034903847 0.11821976 0.05544101 -0.07844238 -0.15106851 0.09472723 -0.053303726
29 -0.2449561 -0.32787696 -0.06336129 0.018641042 0.025063857 0.042644802 -0.018733967 0.027750522 -0.17741454 0.18980387 0.25543192 0.15885387 -0.19080295 0.35101214 0.14945231 0.3339112 0.16579074 -0.032189656 -0.3221476 0.29367146 0.20603308 0.13106337 0.0073646153 -0.111830406 -0.22484061 0.016336009 -0.32942513 0.15165728 0.09944992 -0.080940455 -0.20209579 0.1300899 0.22738567 -0.008766932 0.033638068 0.2603231 -0.17910077 -0.50356746 -0.011358451 -0.08230452 0.08735922 0.16827801 -0.1993262 -0.46403745 0.32928753 -0.0057820203 -0.16056061 -0.21896489 -0.43323314 0.36250082 0.21363157 0.05212522 0.349463 0.13406204 -0.037883066 -0.34986082 0.06493791 0.18044876 -0.007535816 0.4033316 -0.4156725 0.0007232656 0.1533675 0.33264142 0.12652013 0.3574556 0.040731516 0.243421 0.088744275 -0.108224615 0.18733327 0.09547324 -0.3852163 -0.14529046 0.050828077 -0.17487438 -0.27489996 0.03401707 -0.18620197 0.32043254 0.058380447 -0.21554236 -0.12814333 0.28920785 0.35144344 -0.048426453 0.24958847 -0.16423063 0.2312946 0.004051591 0.19640866 -0.35316956 -0.20485224 -0.21590085 0.18987167 -0.2678595 0.096216336 -0.27176908 -0.02653166 -0.17644994 -0.023349252 -0.036447406 -0.121816605 -0.0034251725 -0.2491939 -0.008616664 0.17057769 0.055288244 -0.027218077 -0.28557622 -0.11942963 -0.1817488 0.13714047 0.123679176 -0.4051503 -0.027310146 0.03188895 0.11233099 0.027560385 -0.09281255 -0.3478891 -0.23711811 -0.19846466 0.24458018 -0.04520262 0.16039051 -0.048204385 0.10453741
76 -0.3114462 -0.18295924 -0.007976837 0.027970675 0.22641987 0.034518752 -0.076400936 -0.020516595 -0.13388276 0.38540787 0.2807308 0.43029764 -0.1473976 0.3543616 0.2068029 0.5701597 0.06371384 0.006274191 -0.5504478 0.33924466 0.041328076 -0.08158196 -0.022611484 -0.41365498 -0.19272932 0.021353723 -0.2667471 0.29645914 0.18406904 -0.03689559 -0.044458598 0.33862263 0.23582014 0.081483915 0.019725423 0.2073145 -0.2058307 -0.32037687 0.22651927 -0.043348476 0.18455379 0.020018436 -0.15348142 -0.29713488 0.5839011 0.07390281 -0.43997964 -0.0579686 -0.46109176 0.4321453 0.1250775 0.31851614 0.24569263 0.32338265 0.041162536 -0.2584555 0.2888979 0.24096595 0.083722375 0.54713017 -0.4297045 0.36917636 0.05205514 0.1951616 -0.10099587 0.22584075 -0.05752424 0.21133433 -0.02620307 0.26016673 0.43542486 0.24768135 -0.11579812 -0.18012752 0.32410705 -0.28216258 -0.30868012 -0.012469676 -0.04162417 0.4571251 0.13190638 -0.22405891 -0.09568372 0.42426795 0.44870937 -0.046619255 0.14850183 -0.04178935 0.19849767 0.2892226 0.15037794 -0.1844712 0.08394129 -0.2958113 -0.057228528 -0.22247952 0.021420844 -0.17387475 -0.26429358 -0.2006514 -0.042090982 -0.0029598551 -0.24730632 -0.040215176 -0.0034738467 0.14313832 0.007394666 -0.07912093 -0.015210551 0.16927837 -0.17292139 -0.083844446 0.15356663 0.08097121 -0.369279 -0.17504874 -0.026294427 0.043902945 0.12384039 -0.1328825 0.06740101 -0.006959373 -0.11042572 0.21128035 -0.24506241 -0.17474556 -0.2160278 -0.030120846
40 -0.21824752 -0.3326399 0.011996175 0.32190946 -0.05111245 0.01921715 -0.046800576 0.04149528 -0.2636022 -0.009414593 0.13807493 0.15331289 0.13808563 -0.032800324 0.30849624 -0.054191746 0.239388 0.08884039 -0.18362385 0.08846625 0.10949491 0.2044383 -0.027682092 -0.22159076 -0.12070291 0.09243217 0.0016168026 0.19847003 0.3592964 -0.060253475 -0.38802576 -0.07357063 -0.19394715 0.1467827 -0.18159522 0.21832372 0.12398361 -0.03162623 0.06712064 0.063215755 -0.11609844 0.12051566 0.063121125 -0.097058475 0.44999367 -0.038900584 -0.37748763 -0.14720064 -0.014197143 0.015282584 0.28780365 -0.20429221 0.40528437 0.1338069 0.1057917 0.04384027 0.11325057 -0.09773919 0.10049376 0.036731493 -0.06750235 0.028783308 0.13309446 0.08190154 0.0017560895 0.0890201 0.10610986 0.20508304 0.14520076 -0.14058626 0.1529406 -0.02902785 -0.51507324 -0.19453663 0.2629606 -0.11683274 0.0053559286 0.3149871 -0.04647589 0.115824945 -0.093272105 -0.13072658 0.18992212 0.47695774 0.16851069 0.055038057 0.3883382 -0.088766254 0.33090612 -0.09325538 0.26459622 -0.15628669 0.03121624 -0.1033257 0.27976394 0.08327019 -0.05078733 -0.14024515 -0.06426212 -0.080407634 -0.006884399 -0.03625466 0.06752694 0.18317819 0.09780987 0.06798877 -0.018264087 -0.12753713 -0.16334634 -0.1795604 0.2972403 0.005094534 0.1564266 0.11890773 0.010272466 -0.08202381 0.16147594 0.010725716 -0.1300164 -0.2705028 -0.046225432 -0.054911815 0.07256774 0.102287434 0.06306128 -0.008269323 0.11066837 -0.09894587
52 0.37577185 -0.30105528 0.025526447 0.3741206 0.131514 -0.03071286 0.014295552 0.3121276 -0.35729754 -0.060372908 0.0265642 0.27124876 -0.18825191 -0.05808654 0.24204245 0.3574246 0.26413986 0.32837802 0.10235741 0.41212174 -0.014971077 0.46467906 0.1285516 0.056475464 -0.3725152 -0.24573904 -0.1378722 0.25914088 -0.18186714 0.038834367 0.2605505 -0.053031363 0.2812876 0.26690936 -0.22936767 0.4268899 0.29040113 -0.22112805 -0.0072261444 0.15119812 -0.063640565 -0.018203089 -0.1417358 0.11761835 0.08163277 0.14339827 0.11700224 0.016548153 -0.01664809 0.051276848 0.35110173 -0.0059889853 0.1717467 0.08737981 -0.14527838 -0.26980472 0.4135592 -0.27003205 0.28785175 0.0259276 -0.099233426 -0.33163023 0.008590986 0.5127133 0.42469028 -0.05861975 0.24610586 -0.23308443 -0.3957686 0.20067765 -0.029936563 0.14005797 -0.07128664 -0.05418637 0.16456024 -0.21123458 -0.4258328 0.110863216 -0.33663568 0.26942432 -0.048873432 -0.47762758 -0.113736846 0.41823357 0.44941503 -0.037057705 0.22705755 -0.5482581 0.24148597 0.31019816 -0.19246413 -0.080698565 0.06701117 0.035605144 0.2037937 -0.037841637 -0.16668782 -0.007676166 0.001315692 0.008733612 0.1564773 -0.24568693 -0.24604218 -0.46524665 -0.3338488 -0.13550027 -0.008226528 0.35153705 -0.10297954 0.0851002 0.017501922 -0.17998071 0.111436084 0.04916676 0.15193272 0.21911559 0.3204234 0.3621614 0.186104 0.04742885 0.18558815 -0.05732425 -0.052065507 0.0048213815 -0.21709014 -0.2535204 0.21804784 0.20705764
86 0.5972453 -0.22938402 0.23721652 0.29081947 0.34445465 -0.20251514 0.107609935 0.01986036 -0.0702911 0.18706672 0.092272244 -0.19747888 0.023234786 0.0753369 0.49226323 0.32893947 -0.13573901 0.054216526 0.01845678 -0.0043753795 0.25120676 0.36923736 0.05170525 -0.19678076 -0.06399728 -0.19118774 0.29834253 0.16705388 -0.1293662 -0.24508123 0.088331066 -0.23309433 0.49667376 0.43942368 -0.40456834 0.12810096 0.21373992 0.047013663 0.31761655 0.26621857 -0.088286184 -0.1644339 -0.030142855 0.18919261 0.29297876 0.38951758 0.008084277 0.33500645 -0.116545424 0.2335074 0.046914604 0.36263624 0.12313994 0.025952552 -0.30121246 0.17463206 0.5083937 -0.04008674 0.070537426 0.07221016 -0.11770745 0.016280234 -0.28617007 0.15087901 0.37007955 -0.37006432 0.074163035 -0.086634725 -0.6825733 0.29880723 0.06619351 -0.22269928 -0.070018314 -0.02804352 0.08894987 -0.09129305 -0.47011846 -0.41744485 -0.28776923 0.41727796 -0.00043984147 -0.21974394 -0.04346488 0.49550796 0.13651864 -0.044491027 0.35339847 -0.71504456 0.028902398 0.24182144 -0.33023658 -0.34836277 0.33444914 -0.12402684 -0.025217015 0.39633313 -0.12982747 0.068002604 -0.48002365 -0.16805822 0.12004498 -0.029050665 0.013303988 -0.25250104 -0.1475738 -0.21547094 -0.032443378 0.11372551 -0.17599656 0.02539199 0.020100664 -0.1478511 0.11291048 0.015596937 0.12536156 0.1898045 -0.050716467 0.028308904 0.012841161 -0.11123288 0.11011507 0.006121604 0.014495953 0.09321227 0.024556832 0.09590799 -0.0084016435 0.11368934
37 0.31216687 -0.24999686 -0.12328777 0.45611298 0.13168953 -0.24882168 0.08456712 -0.05188906 -0.3147709 -0.084913515 0.071958944 0.28627074 0.12392492 -0.017974589 0.43146855 0.30191508 0.30834427 0.13145374 -0.25356752 -0.022455743 0.29649115 0.43634868 -0.1856191 -0.23454359 -0.060457338 0.24888735 0.015379372 0.45148128 0.64000875 -0.09281028 -0.42899078 -0.10848541 0.09241233 0.107005775 -0.32531038 0.34810457 0.07775247 0.46543184 0.18073083 0.42493245 0.0018833298 0.08882597 0.2081256 0.047440793 0.22700232 0.012244563 -0.33851016 0.00058771414 0.05605415 -0.14549144 -0.25690204 -0.07685451 0.61336195 0.14966093 0.1632404 0.16758667 0.20148395 -0.10848781 0.028466744 -0.22219884 0.32436073 0.09654589 0.23249163 0.4051608 0.30658144 -0.2060115 0.3188409 -0.08562933 0.025272844 0.051127873 0.27887172 0.04489733 -0.25595894 -0.06949815 0.3485847 -0.19757092 -0.20720574 0.5359019 -0.22256428 -0.04448777 -0.011545298 -0.2795835 -0.17424498 0.51608306 0.09018861 0.3427292 0.13941662 -0.3179849 0.35169056 0.07346578 0.13012734 0.22329423 0.043748192 0.23975801 0.21378449 0.18906485 -0.19565526 -0.15747797 -0.10024563 -0.15532105 0.15488058 -0.32663554 0.10399201 0.13268583 -0.085923746 0.023335887 0.034175597 -0.45020816 -0.18707068 0.24474227 0.24569948 0.045038775 -0.004910227 0.08766814 0.19932553 -0.004696211 0.010850172 -0.19173753 -0.096349485 -0.050766736 0.115893304 -0.031524997 0.1072097 -0.037856556 0.1360624 -0.3474738 0.11364659 -0.25060445
69 -0.05784575 -0.5537166 -0.2734182 0.09305297 -0.3412367 -0.062426724 0.19097303 -0.016202804 -0.1969525 -0.014197212 0.18511169 0.33043092 -0.08139294 0.33297652 0.55360126 0.15407592 0.41116753 -0.28697103 -0.14586012 -0.075493485 0.10973778 0.2801696 -0.16476032 -0.06127835 -0.18580069 0.110399164 -0.21163034 0.05334353 0.105842456 0.01999771 -0.0751984 -0.24253003 0.06658945 0.33120558 0.0436988 0.0040124627 0.19457826 -0.31719908 0.37228614 0.16821344 -0.024294661 0.14324558 -0.12293555 -0.020094559 0.85420144 -0.10375482 -0.17119735 0.04106707 0.021932099 0.10376099 0.51300174 -0.1574484 0.3641678 0.29724172 0.31323576 -0.046807334 0.42800942 0.23219863 -0.31265286 0.6037262 -0.43708122 0.14523832 0.09605333 0.09498057 0.21662475 -0.043839335 -0.16304994 0.11446372 0.051042464 -0.2253937 0.3907757 -0.050120335 -0.18376009 -0.31541795 0.075691596 -0.035119988 -0.21626481 0.010077443 -0.18078095 0.1520487 -0.018684147 -0.31130207 0.2409154 0.50936526 0.39566374 0.17371964 0.14854008 -0.15932335 0.01768262 -0.21798183 0.28646833 -0.3500835 0.039405838 -0.5217876 0.1668559 -0.10033432 0.28547138 -0.09190698 -0.06630603 -0.17677677 -0.19283007 -0.03438625 -0.057901584 0.362302 0.026653867 -0.25363243 -0.31199965 0.384983 0.11182418 -0.37873912 0.10827987 0.1499206 -0.07282743 0.40186542 -0.3142312 -0.017079175 -0.015115989 0.20557496 -0.034214333 -0.09951551 -0.36327797 0.035528358 -0.3416337 0.26885405 0.10020624 0.01487678 0.40508425 -0.19814985
85 0.26367074 -0.15910019 0.39005727 0.45042634 0.40591624 -0.129027 0.033066534 -0.111272216 -0.056078207 0.30893725 0.053850472 -0.27305818 0.23403886 -0.03760774 0.42880946 0.093821965 -0.17419477 0.0553962 -0.032143924 0.14774181 0.27852872 0.14372395 0.16145161 -0.30579427 -0.08330234 -0.13128419 0.38209492 0.18079376 -0.035923705 -0.27814677 -0.08329665 -0.17108585 0.22125 0.341465 -0.34318438 0.06436348 0.067561455 -0.06670121 0.15584387 0.18789011 -0.3233895 -0.1729473 -0.025071872 0.121565476 0.449339 0.33582428 -0.1650574 0.29038572 -0.17981842 0.2728759 0.19191837 0.2849602 0.14460863 0.085044764 -0.30148762 0.19844766 0.28928924 -0.08479721 0.18937531 0.1357947 -0.2303223 0.14905585 -0.32935506 0.010096669 0.13316509 -0.24944523 0.0634341 0.06257156 -0.5198048 0.4055726 0.044319753 -0.19364217 -0.31294876 -0.090723865 0.28397247 -0.058958083 -0.38731194 -0.26885435 -0.09781807 0.4205904 -0.1098704 -0.15142022 0.042521216 0.52974033 0.08001802 -0.1323953 0.5373372 -0.43520314 0.05120367 0.08947922 -0.17620406 -0.41001344 0.32518846 -0.3163929 0.053080615 0.43596226 -0.04203385 0.011207756 -0.55650014 0.005475817 0.049621124 0.08683904 0.17296486 -0.20101558 0.008094471 -0.03331344 0.0076743816 -0.04220822 -0.25928962 -0.049220037 0.13079011 -0.22919732 0.26536718 -0.12332403 0.13700674 0.13810669 0.030824058 0.04536232 -0.20567271 -0.35877466 0.11345663 0.032667425 0.117812335 0.18849705 -0.04439298 0.1952789 -0.004340276 0.029074427
45 -0.032284968 -0.041606236 0.046106018 0.037126463 0.1793734 -0.29257405 0.06878549 -0.12302675 -0.10846505 -0.12445959 -0.09879908 0.15506902 0.038802117 -0.24875087 0.43769035 0.04933887 -0.25062668 0.045344774 -0.32166535 0.113577455 0.40581542 0.67304057 0.04903655 0.12352113 -0.021743221 0.28569847 -0.02445206 0.36808324 0.7239895 -0.2214996 -0.5237884 -0.29243657 0.11145346 0.07658726 -0.46570054 0.17577 -0.28746095 -0.08094013 0.14809811 0.10219193 -0.24246393 -0.046230786 -0.1735788 -0.19031222 0.09708272 0.3443806 0.2880412 -0.22601272 -0.20014276 0.13128783 -0.04995163 0.110411786 0.18027627 -0.01575385 0.20425484 0.2097226 0.1953902 0.09019533 0.054172397 -0.27412573 0.44617826 0.08635792 0.24200907 0.2108806 0.019601224 0.13174304 0.4128038 0.27030405 0.079909936 -0.056886658 0.28786552 0.30370215 -0.4458701 0.084576406 0.10233439 -0.08590237 -0.16245185 0.5039112 -0.13436991 0.2632617 0.1777677 -0.10958482 -0.04674318 0.21682812 0.12123745 0.2248496 -0.03604871 -0.27679083 0.30783886 0.14425041 -0.112921685 -0.056649838 0.022770444 -0.2267054 0.29134434 -0.15815002 -0.18141761 -0.29077324 -0.33012 -0.10611746 -0.102920435 0.025832817 0.085619226 0.08874781 -0.35913056 0.1870338 0.027721388 0.054437596 -0.043575563 -0.09261747 0.1625897 0.08835109 -0.07329503 0.01843763 -0.17772235 -0.38286516 -0.09398223 -0.11973764 -0.010057584 -0.10934287 -0.44528887 0.12102335 -0.115530215 0.3113486 0.08192732 -0.35683358 -0.1601404 0.13913858
50 0.07318953 -0.24586391 0.14760591 0.4472874 0.13245693 0.123793334 -0.12584177 0.20067301 -0.39641967 -0.02912221 0.0029732194 0.26704457 0.021776766 -0.28327233 0.13608447 0.08491225 0.21070313 0.43412843 0.054520592 0.4654561 -0.08685095 0.30681425 0.2144998 -0.10112584 -0.36914995 -0.15934207 -0.05530365 0.30271563 0.0052014515 0.08454066 0.049139917 -0.011264322 -0.1069282 0.17250611 -0.24397446 0.34463826 0.27871773 -0.14932695 -0.1472238 0.0842019 -0.19931148 -0.06576194 0.0038685594 0.06634876 0.1690424 0.05530919 -0.104479596 -0.12490442 -0.008990879 -0.04334833 0.4220578 -0.2116116 0.26472986 0.12443739 -0.05980843 -0.10923594 0.24824794 -0.39288598 0.43248227 -0.08233137 -0.080063194 -0.21622832 0.011693804 0.33367378 0.16608194 0.049349573 0.26866376 -0.09071221 -0.15404351 0.14129452 -0.040495947 0.12638412 -0.32041696 -0.106298015 0.28413692 -0.22271256 -0.19847238 0.40138748 -0.10265307 0.2246349 -0.11317933 -0.32057014 0.048114244 0.4736416 0.33575898 -0.02579382 0.37349692 -0.22769634 0.32840097 0.15141428 -0.02420403 -0.020965908 0.074663766 0.024356708 0.30826902 -0.029105568 -0.18611856 -0.072655074 -0.009849053 0.09613678 0.118429266 -0.14257063 -0.15850745 -0.35638508 -0.11499151 0.12902817 0.015991244 0.11776867 -0.23030202 0.048245843 0.21753927 -0.19126105 0.23201323 -0.018993625 0.26162362 0.059013322 0.4005935 0.3199366 0.03063985 -0.2227407 0.2541117 -0.04908776 0.080722384 0.042858332 -0.25569168 -0.2509262 0.16889532 0.12166154
