121 128
19 -0.31215808 0.3204857 -0.23757397 0.49133676 0.09505311 0.15419807 -0.25999802 0.5586032 -0.34552753 0.5442188 -0.44464627 -0.48212966 -0.46435603 -0.37235615 -0.09982779 0.19076736 -0.34236324 0.47034967 -0.01031555 0.29566172 0.2875111 -0.29301786 -0.050057277 -0.45205927 -0.50596213 -0.06852147 -0.13880631 0.29740745 0.29956093 -0.20058319 -0.29145387 0.15879348 -0.019722126 0.12711792 0.08148088 0.2167831 0.17391369 -0.085783884 -0.41377503 0.11045601 0.27517274 -0.1476687 -0.15624478 -0.3290939 -0.28629553 0.14081115 -0.22896916 0.106151514 0.043203827 -0.25586358 0.06957707 0.21462518 0.29236174 0.20882326 0.25906917 -0.33244348 0.26995888 0.30813915 -0.15597303 0.07137621 -0.016505396 0.10969427 0.058745123 0.14431265 0.25470296 0.051927324 0.5260131 0.086407766 -0.16734208 -0.10310421 -0.48280925 0.07538467 -0.4821185 -0.02821729 0.14500538 0.03767179 0.008468099 0.057126682 -0.017549917 -0.20586297 -0.27835038 -0.40093943 -0.0036089672 0.48432708 0.54671437 0.10343973 0.07679515 0.3615437 0.04775871 -0.27155545 0.49379346 0.25837708 0.04688897 0.36125743 0.07812365 0.22377731 -0.44662577 -0.07146384 -0.10137646 0.009010817 0.14825505 0.2870539 0.05855673 0.33972654 0.71044666 -0.5085288 0.03385035 -0.40870616 0.43717337 -0.10083773 0.016921308 -0.032488476 0.08554209 -0.0069345934 0.21526858 0.07668783 0.27946097 0.35729465 0.19013308 0.21865593 0.06498854 -0.10156425 0.6549879 -0.37867874 0.13486142 -0.016027788 0.64610445 -0.18995832
11 0.24985027 -0.492575 0.44817942 0.094212644 0.0072535393 0.095401786 -0.14222404 0.022242574 -0.104613714 0.24864998 0.08271661 0.10881168 -0.11638856 -0.24318726 0.5300536 0.47568008 -0.09468565 0.25025445 0.13521338 0.08538898 0.024026483 0.14498876 -0.2676418 -0.15696369 -0.37367392 -0.10596811 0.23996504 0.18259858 -0.002846772 -0.27883738 0.054905843 -0.09644918 0.086473 0.6185158 0.022835858 0.09455668 0.25703657 -0.12668476 0.08288798 -0.042573646 -0.07506153 0.09636683 -0.2663486 0.109567724 0.15362275 -0.16183263 -0.08212121 0.23880991 -0.13608754 0.060372364 0.10381917 0.0011028884 0.3297304 0.069772854 -0.14379314 0.15985088 0.27017394 0.07785338 0.1335702 -0.08711248 -0.046177775 0.10333323 0.057675418 0.19276147 0.4882443 -0.10258481 0.013578677 0.01662273 -0.08853682 -0.14081548 -0.0076300586 -0.073327385 -0.08216236 -0.08330693 -0.05525541 0.11305602 -0.1416306 0.02319789 -0.096994884 0.5434963 -0.19820246 -0.21072927 -0.18546268 0.57370156 0.090607256 0.37964818 0.28760326 -0.14516911 0.08483705 0.19512549 0.056272645 -0.38766104 0.18118086 -0.14389378 0.1838496 0.2790972 -0.25519255 0.016245002 -0.1610361 -0.10441684 0.025171328 -0.00024533615 0.0713049 0.028017959 0.1820625 -0.038101934 0.21358734 -0.004085982 0.2144902 -0.008610599 -0.19545218 -0.35895264 0.17309251 -0.08608544 -0.04355162 -0.0037194241 0.09101038 0.34771425 -0.14687748 -0.46401757 -0.25160882 -0.13477582 -0.27646437 -0.019482428 -0.46088165 0.34317106 0.005391374 -0.0002571815
6 0.24787939 -0.45597628 0.415064 0.113137685 0.17319083 0.11776198 -0.10875985 0.099861756 -0.13143028 0.41962773 0.13932541 0.08200751 -0.067338616 -0.22238003 0.5321099 0.47650248 -0.2697477 0.17450969 0.12368403 0.12082172 0.037136663 -0.014028083 -0.35397735 -0.0016051012 -0.36029315 -0.08297911 0.25605312 0.20515302 -0.014337275 -0.30023807 0.037803344 -0.059711967 0.14546025 0.5017309 0.0820613 0.23304221 0.26085716 -0.20359571 0.13105267 0.11931924 -0.20784028 0.23122849 -0.26936132 0.24036779 0.014979997 -0.16457085 -0.0261229 0.42051518 -0.10968695 0.053831972 -0.025295181 0.064988546 0.38445044 0.08922514 0.015422636 0.08934801 0.068414725 0.23407334 0.12990497 -0.050340008 -0.06301875 0.10786207 0.05686194 0.40839797 0.48596773 -0.108601674 0.12975478 0.0105269635 -0.1620922 -0.09550485 0.08888494 -0.053776216 0.16194354 -0.10319617 -0.03287846 0.023916371 -0.16127278 -0.23396762 -0.20603798 0.49558902 -0.11093808 -0.18516955 -0.35191312 0.5309834 -0.024034932 0.42462918 0.27015242 -0.19481982 0.024994923 0.08694938 0.11120906 -0.24574362 0.121035375 -0.13064842 0.2005417 0.2321145 -0.21366544 0.09955976 -0.16753031 -0.16965258 0.23012757 -0.07622009 0.056623302 -0.09737497 0.25916445 0.004004106 0.2500998 0.105382316 0.4132017 0.025597958 -0.14191301 -0.42864087 0.10719687 -0.27203268 0.021149397 0.10979824 -0.02547675 0.26738408 -0.29238558 -0.31277817 -0.12066812 -0.04325213 -0.23653094 -0.034813266 -0.5076144 0.33366668 0.11989348 -0.14226519
16 0.2048626 -0.52490956 0.45252174 0.22682984 0.07597253 0.006259346 -0.10531229 -0.018867154 -0.12304161 0.22126503 0.075280815 0.102284074 -0.103043474 -0.1922838 0.48803845 0.4421622 -0.11074259 0.07084869 0.14099406 0.030918462 0.0560699 0.18176027 -0.3406478 -0.037829373 -0.43659252 0.06875808 0.031193389 0.2531133 -0.056733828 -0.18304566 -0.02412487 -0.06897473 0.12269746 0.5799097 0.23612529 0.15257694 0.20958075 -0.09278263 0.14501093 0.1428782 -0.10076484 0.27430534 -0.16194046 0.14174822 -0.002100309 -0.2674763 -0.104950234 0.32825187 -0.12642382 -0.026062354 0.17957179 -0.09705255 0.31246257 0.2139259 0.043144464 0.06831925 0.041772295 0.099053584 -0.002366159 0.06186094 -0.03536842 0.12103246 0.13058162 0.2743391 0.49735144 -0.12115605 -0.023221403 -0.057545807 -0.11781315 -0.09471542 -0.07336715 -0.19046126 -0.032638934 -0.20008835 -0.022204554 0.076222524 -0.2041564 0.016228128 -0.1483778 0.5783685 -0.29362443 -0.21911466 -0.17647938 0.6682714 0.11392057 0.34832177 0.14310679 -0.09301543 -0.029405858 0.2053173 0.08255811 -0.19478138 0.21029231 -0.05649759 0.2562657 0.20359728 -0.40728617 -0.017298035 -0.20669258 -0.10148558 0.06469786 -0.09510092 0.084910326 0.063129954 0.15462066 -0.17574964 0.2295636 0.11698472 0.4311238 0.05677468 -0.14653167 -0.63466704 0.1529697 -0.20051682 -0.206999 0.028804403 0.058289573 0.30401087 -0.14567205 -0.48401415 -0.22739893 -0.11995267 -0.28717786 0.09617709 -0.54487747 0.2658263 0.06365289 -0.09789499
15 -0.32044148 -0.3954527 0.17948122 0.3191816 -0.1266915 0.22565563 -0.20836839 0.1338476 -0.05390528 0.12795827 -0.34964925 -0.30909717 -0.3827449 -0.44833 0.16376731 0.42009392 -0.20080842 0.331811 0.5726073 -0.21869245 -0.53587073 -0.07256154 -0.16899695 -0.13194244 -0.17535163 -0.3606708 0.4035484 0.13301776 -0.084609084 -0.32370642 -0.044576686 -0.3798697 0.3700997 0.527267 0.038811415 0.18278344 0.23953782 -0.0780519 0.03141921 -0.30213964 0.066997625 -0.1416136 -0.29393733 -0.063736066 0.1431652 0.056233205 -0.025400542 0.028842375 0.012141334 0.11290656 0.31191394 -0.21943113 0.25033262 0.024120938 -0.016646478 0.040862795 -0.0043852786 -0.014615328 0.3185597 0.08945515 -0.06866045 0.84722817 0.590919 0.18950519 -0.26968867 0.43508458 -0.08545118 0.27012497 0.37034792 0.102923505 -0.004089673 0.2999005 -0.09764296 -0.17093843 0.033335384 0.19524293 -0.3443367 -0.057743687 0.056486323 0.039368413 -0.008129773 -0.18345363 -0.19992648 0.3196916 0.17617086 0.056466803 0.116448164 -0.18051659 -0.22880903 -0.19597046 0.22311358 -0.0425136 0.24850795 0.029266017 -0.20977226 0.37083295 -0.26746345 0.24066871 -0.35528427 -0.1373332 0.2673937 -0.11935827 0.2005744 -0.052585453 0.33985496 -0.02350916 -0.17300121 -0.052966926 0.16263108 -0.12855218 0.097612865 -0.51286846 0.10244342 0.048234276 0.045560516 -0.42900503 0.48154363 0.09435388 0.024039686 0.040599838 -0.3706773 0.06778617 -0.16967587 -0.15625262 -0.17597307 0.20435062 0.35939613 -0.23970464
1 0.33188093 -0.51417494 0.5379159 0.05718424 0.21586129 0.148788 -0.12440929 0.05582188 -0.1397777 0.42511782 0.11414142 -0.05298948 -0.123345874 -0.2976666 0.65625745 0.4879081 -0.1466975 0.2764031 0.12602925 0.08517722 -0.0135897435 0.020410618 -0.1797436 -0.054509733 -0.38052857 -0.13475636 0.2483778 0.17628314 -0.12241415 -0.2008589 0.01186728 -0.076930866 0.060634766 0.49865443 0.029700262 0.1912185 0.25876334 -0.24541314 0.07534279 0.0859983 -0.11112243 0.063894674 -0.23818253 0.15932314 0.10359302 -0.16329227 -0.06142288 0.2476746 -0.111329965 0.018084653 -0.031706043 -0.04145904 0.3319708 0.026100032 -0.08144985 -0.010063119 0.16903743 0.23569204 0.08583158 -0.098181546 -0.07971317 0.0057691867 -0.04464818 0.19611414 0.56642914 -0.108158275 -0.020761408 -0.10427034 -0.0910546 -0.0002823656 -0.009836343 -0.06919494 0.08275482 -0.16790062 0.06603133 -0.017401334 -0.17525193 -0.013601683 -0.17391045 0.5610751 -0.18874343 -0.10859963 -0.23083623 0.5716509 0.0004922291 0.33088732 0.26919132 -0.16056682 0.046822824 0.25708914 0.073936895 -0.3258466 0.2473531 -0.06720333 0.09121079 0.305531 -0.3019082 0.06469512 -0.12989768 -0.20976186 0.30466765 -0.07037815 0.017530283 -0.06236671 0.17768233 0.026355365 0.14487766 0.12322136 0.3123643 -0.13915011 -0.27699676 -0.4259113 0.27136874 -0.21874821 0.08470602 0.11681554 0.017338792 0.23062152 -0.13734618 -0.35445678 -0.13250473 -0.009162983 -0.2559003 0.09344034 -0.35695726 0.40846384 -0.023859307 0.06815604
17 0.2364921 -0.48536682 0.23136152 0.26486695 -0.0011151093 0.05578535 -0.15711159 0.039193977 0.07275942 0.20717734 -0.10450471 0.20499632 0.028958661 -0.063559115 0.51352394 0.518978 0.00478014 -0.1369956 0.044669732 -0.007289063 0.06432931 0.23659278 -0.3482361 -0.05736312 -0.45804858 0.35290167 0.051935464 0.04302098 -0.11974551 -0.1915911 -0.13854071 -0.1756116 -0.09041934 0.30893785 0.09941318 0.25792664 0.023454724 -0.016418425 0.012147933 -0.075834595 -0.22270298 0.29752144 0.009500427 0.10626199 0.009719868 -0.16956523 -0.097789496 0.3046979 -0.05260575 -0.012540382 0.046690278 -0.06677658 0.32498488 0.3057451 0.13097312 0.044362843 0.17757104 0.22289585 -0.11504402 -0.12601246 -0.18121956 -0.118920326 0.13127907 0.17060417 0.5734337 -0.18951376 0.07431968 -0.1793089 -0.37238017 -0.14057435 -0.15814255 -0.17262384 -0.12409074 -0.12681495 -0.0980965 -0.0060219313 -0.18818955 0.18260522 -0.21842176 0.5864963 -0.28321728 -0.08260342 0.07519337 0.5773683 0.029994164 0.33128765 0.07108194 -0.018060641 0.176442 0.23576577 0.04350628 -0.18494038 0.23804544 -0.0249651 0.38055912 0.33590123 -0.2793171 0.043220393 -0.0172799 -0.13065523 0.046837717 -0.0013741232 0.05850318 0.20165673 0.1966284 -0.17493615 0.2996129 0.36864048 0.17690249 -0.036623374 -0.15648364 -0.45032048 0.089123994 -0.23367889 -0.0749498 0.112219326 -0.10877698 -0.015925208 -0.013341019 -0.35967496 -0.061443355 -0.20153543 -0.3057552 -0.0035790354 -0.26876667 0.11638116 0.062572874 -0.04638591
121 -0.0847176 0.322633 -0.37059596 0.4868891 -0.012088759 0.16219206 -0.18388736 0.34183878 0.0022043788 0.5636124 -0.7456281 -0.41257316 -0.3827353 -0.2839744 0.03418492 0.31479535 -0.25957498 0.112851486 -0.03675335 0.19721773 0.25448307 -0.18588598 -0.062212408 -0.48645884 -0.6003997 0.19381659 -0.10183995 0.10049687 0.13660967 -0.19697309 -0.1863667 0.03961971 -0.17224999 -0.02775801 0.055324286 0.1530374 -0.019695962 0.09296704 -0.48886427 0.030838562 0.16202329 -0.18650155 0.023565441 -0.25844002 -0.24835566 0.07528722 -0.2930397 0.17156915 0.2776086 -0.15732354 -0.110516384 0.16735323 0.344926 0.285272 0.18910824 -0.23159795 0.26569718 0.24892972 -0.28954455 -0.112327375 -0.12671733 -0.06648758 0.2079125 0.106577106 0.41037583 0.05542479 0.56299204 -0.02024578 -0.28942868 -0.05501916 -0.56541306 0.1460021 -0.29291117 0.05462385 -0.042450543 0.040753413 -0.0139679415 0.26139402 0.05516391 -0.0928167 -0.20229535 -0.23875076 0.022387829 0.39091605 0.4641609 0.037166417 -0.050104383 0.51171494 0.12504625 -0.109821856 0.39542595 0.20565075 0.19508593 0.19890583 0.023583915 0.33284938 -0.27047083 -0.10471591 0.2533388 -0.039715827 0.17585869 0.23300397 0.07332681 0.38452062 0.51748854 -0.4284988 0.10978566 -0.17119184 0.256268 -0.05176838 -0.06621433 0.049156886 0.0150786685 -0.15504625 0.23836638 0.1373202 0.18860888 0.055496905 0.22832854 0.027169257 0.10450411 -0.019987062 0.50702214 -0.39074108 0.09447718 -0.1202196 0.5118097 -0.085773006
96 -0.10353787 0.28426507 -0.35296777 0.47849002 0.056045853 0.22811177 -0.16733679 0.26878956 0.08133693 0.48540196 -0.69557226 -0.40923047 -0.34552497 -0.2141683 0.000338573 0.27736503 -0.28773627 0.061352946 -0.06812968 0.14918202 0.12836087 -0.11496045 -0.05131619 -0.3746819 -0.4877287 0.22203177 -0.15428653 0.103183314 0.053673837 -0.16161051 -0.081974484 -0.057464585 -0.12760916 -0.09468672 0.04695277 0.15347365 0.020038497 -0.014702917 -0.4194339 0.06892146 0.08615997 -0.24996315 0.12595922 -0.22970004 -0.15781878 0.18477647 -0.27689198 0.17290524 0.30650806 -0.10118874 -0.022136793 0.21419509 0.38279486 0.22377822 0.18522109 -0.17840831 0.39476663 0.21872012 -0.25445378 0.0009163021 -0.11535414 -0.023748282 0.26808214 0.17291698 0.34064105 0.046799704 0.53979206 0.047953583 -0.27354342 -0.05436064 -0.5716684 0.16522451 -0.36806774 0.034722403 -0.020344673 -0.16785048 -0.06048849 0.2853695 0.014724819 -0.060423627 -0.14592561 -0.1391564 0.077496275 0.3604072 0.45030776 0.0750937 -0.060824744 0.50694096 0.20261922 -0.1952643 0.5046231 0.2803106 0.22580716 0.16364259 0.103129 0.29699302 -0.2723414 -0.05605861 0.12458853 -0.023607355 0.2065443 0.24271399 -0.03536504 0.42972687 0.49089712 -0.51710486 -0.057692353 -0.052623335 0.2508402 -0.09032336 0.07522633 -0.07344787 -0.0012289213 -0.115793556 0.16949676 0.003169904 0.118577346 0.021205848 0.21307299 -0.023238495 0.19610469 0.055275843 0.40897912 -0.33438608 0.108464226 -0.18733512 0.649041 -0.13240895
18 -0.12685671 -0.18528247 -0.4503597 0.4726367 -0.22535048 0.18564689 -0.09451242 0.19450027 0.0027563453 0.34749827 -0.6333374 0.0872242 -0.20033039 -0.21460867 0.37992224 0.6343738 0.019456647 -0.0918375 0.15163468 -0.07384695 0.13543366 0.1680454 -0.28598446 -0.31689215 -0.62716913 0.3829568 -0.036285624 -0.0425778 -0.055895478 -0.13405828 -0.29733196 -0.22953545 -0.12922816 -0.0136326635 -0.03855547 0.27557915 -0.124810316 0.21948327 -0.36780578 -0.3566263 -0.08051348 0.11404416 0.05897924 -0.055169407 -0.2632343 -0.04248358 -0.10447857 0.28070313 0.083817795 -0.16661996 -0.09813622 -0.10431919 0.486496 0.4801052 0.43171152 -0.12740968 0.089898236 0.3602912 -0.34329748 -0.21220069 -0.37059936 -0.10872584 0.33280665 0.015536264 0.3403811 0.08904166 0.26947105 -0.24332911 -0.43460122 0.04714661 -0.36155912 0.061173152 -0.182123 -0.028840465 -0.32856876 0.24710435 -0.12891562 0.5368428 -0.032936446 0.07370931 -0.18783063 0.040296897 0.18289882 0.50593364 0.3754519 0.027917173 -0.012882639 0.19584574 0.15930851 0.26663852 0.1044778 -0.11500507 0.12813763 0.11043845 0.26248735 0.3191393 -0.06612324 0.0694795 0.39517823 -0.19429557 0.1178943 0.14068185 0.19204222 0.12691891 0.28439486 -0.18462165 0.2658122 0.4262028 -0.024783198 -0.31241694 0.030104583 -0.089898534 -0.14190036 -0.22322579 0.22959758 -0.011081197 -0.004130562 -0.21935606 0.18199 -0.08139888 -0.010497737 -0.2795182 0.21235202 -0.31531435 0.071500614 -0.13988134 -0.019153591 -0.05657528
51 -0.13693641 -0.2357095 -0.3247973 0.422607 -0.06926618 0.14382967 -0.039867565 0.26627824 -0.10245435 0.38003546 -0.46717796 0.18835084 -0.19246559 -0.28404766 0.4002158 0.5742415 0.0009771022 -0.04381172 0.17867114 -0.0764112 0.16084951 0.20368777 -0.20872034 -0.3336878 -0.65345705 0.37018737 -0.07905845 0.041257825 0.21774963 -0.34595528 -0.32186833 -0.13610347 -0.09864416 0.026035592 -0.008146514 0.3223112 0.04147932 0.13757098 -0.4149167 -0.30126303 0.043257385 0.05422501 0.11960694 0.04458636 -0.27197984 0.06488491 -0.17100193 0.22034469 0.039062764 -0.22106609 -0.17914675 0.050014663 0.61047655 0.4593647 0.5590438 -0.00275178 0.06488998 0.41704452 -0.22537374 -0.13226414 -0.31864426 -0.19206658 0.3938963 0.20817177 0.170247 0.06482969 0.3244632 -0.2973731 -0.39629513 -0.0071846913 -0.2505696 0.072216295 -0.4040282 -0.096709326 -0.31560922 0.152579 -0.042957917 0.4367759 -0.10120705 0.034176424 -0.0655145 -0.016716897 0.16207358 0.55960476 0.44256142 -0.002899048 0.07750757 0.19378877 0.1930653 0.3249341 -0.012884082 -0.051370025 0.059304137 0.18002988 0.44496745 0.09277966 -0.055135816 0.012020879 0.29943922 -0.08408355 0.11878512 0.11777135 0.1123076 -0.07701626 0.28599015 -0.07237129 0.2800259 0.43791518 -0.034946386 -0.22518443 0.08629799 -0.075614765 -0.11673903 -0.24515778 0.21641017 -0.11439234 0.06543679 -0.15548223 0.09892306 -0.05217997 -0.043703694 -0.30693942 0.25163692 -0.3919736 0.007317461 -0.24387148 -0.038845163 -0.18869358
2 0.33923653 -0.57070947 0.45541483 0.11507552 0.044846255 0.088730566 -0.10654097 -0.01719113 -0.045749832 0.3317537 0.114693075 0.04582134 -0.080139816 -0.23159415 0.6573219 0.61814725 -0.11042046 0.18415153 0.18236877 0.037364196 -0.014655572 0.13834381 -0.27705896 -0.13853525 -0.41017076 -0.027733227 0.18662623 0.1280869 -0.12365445 -0.18472044 -0.027160833 -0.11998438 0.095875524 0.5647841 0.028322045 0.2076307 0.25337476 -0.10258818 0.05204685 -0.04756332 -0.099118195 0.17691955 -0.18165448 0.16906956 0.13249448 -0.20328641 -0.104464166 0.24838701 -0.09684278 0.029176243 0.045790277 -0.09464419 0.36077988 0.13451634 -0.034914754 0.039465204 0.20042221 0.21296674 -0.02782197 -0.15901075 -0.16155975 -0.025943415 0.071924604 0.1132361 0.6189624 -0.13733196 0.031076739 -0.15556663 -0.18212683 -0.06999607 -0.0028491297 -0.10566504 0.022057401 -0.12417246 -0.034668617 0.063680895 -0.20586501 0.038836457 -0.17744271 0.6067531 -0.22929336 -0.18360682 -0.14064999 0.61667275 0.061775982 0.29154858 0.24584751 -0.20651968 0.08894698 0.31208766 -0.01046218 -0.32574573 0.2684806 -0.06689909 0.22855069 0.36219218 -0.3340203 0.023153676 -0.09212392 -0.19724381 0.16827834 -0.07282074 0.049467146 -0.011732415 0.19699015 -0.010353794 0.2614317 0.18985587 0.2541415 -0.085327715 -0.25935084 -0.44265068 0.23130567 -0.18140635 -0.005443249 0.10841683 0.030720789 0.23116378 -0.11313069 -0.3709422 -0.1486806 -0.12462314 -0.34790483 -0.003687804 -0.3602307 0.32920843 -0.018841894 0.031402543
70 -0.14410152 0.27183425 -0.38418862 0.53543645 0.10924071 0.18795629 -0.20169917 0.30255216 -0.061096672 0.47588998 -0.70849234 -0.37125564 -0.40929636 -0.3426817 0.03256875 0.28215435 -0.21918091 0.15979397 0.08774942 0.17606112 0.30913326 -0.13706984 -0.0131667545 -0.39455926 -0.63465583 0.19042422 -0.20191754 0.08301655 0.18748973 -0.2463565 -0.15614855 -0.05629647 -0.097174965 -0.05907396 0.002714858 0.17183332 0.061071273 -0.008099459 -0.49806082 0.07844975 0.11214991 -0.2647996 0.14895584 -0.23903547 -0.3041032 0.14969696 -0.2122581 0.15724057 0.26811656 -0.23926663 -0.096458994 0.16765188 0.39151558 0.2628717 0.25844175 -0.2154901 0.30018714 0.23452704 -0.28061634 -0.04487309 -0.07504076 -0.020946933 0.29604816 0.18063316 0.27836886 0.052383076 0.5790279 -0.03578232 -0.18798153 -0.072432466 -0.53206927 0.18322538 -0.45166644 -0.06843952 -0.1424025 -0.104847774 -0.030535119 0.4253028 0.046742074 -0.13130103 -0.16509111 -0.1330438 0.13479178 0.3964091 0.5294213 -0.022008449 0.025786828 0.48516402 0.18421973 -0.1325302 0.41203997 0.19233887 0.09225848 0.2505904 0.0923735 0.16125958 -0.19655208 -0.058675498 0.14559813 0.03602516 0.2475721 0.27617308 -0.0033508886 0.29358488 0.4535467 -0.41179737 -0.06874068 0.0023228643 0.26248673 -0.16264789 0.07148599 -0.01774361 -0.059952695 -0.15000546 0.18178712 -0.02843299 0.24618506 0.046758175 0.21863867 -0.008213228 0.07172549 -0.13826638 0.51080006 -0.4036029 0.11806523 -0.22356637 0.43285 -0.07174946
44 -0.07555984 0.18147399 -0.3334966 0.3748376 -0.038018893 0.19673496 -0.11161239 0.3206445 0.045226187 0.5186706 -0.5638751 -0.38307753 -0.26370782 -0.20350376 0.05532722 0.35431758 -0.249354 0.0791553 -0.17420955 0.13595372 0.007649727 -0.12679885 -0.09077225 -0.49655718 -0.38068107 0.17748587 -0.107944414 0.20396018 0.12612642 -0.081879675 -0.17540582 0.12051695 -0.18524013 -0.07213192 -0.008330027 0.18256107 0.046055242 0.09752691 -0.40477806 -0.0744034 0.24675131 -0.19701888 0.062728636 -0.17612283 -0.087451875 0.18528071 -0.30977497 0.13389954 0.21090314 -0.10893269 -0.0021934689 0.09039927 0.3957356 0.3021793 0.26946098 -0.21232976 0.35863563 0.23923323 -0.27844042 -0.004375395 -0.20951441 -0.1465031 0.21726008 0.019124 0.30520284 0.026380312 0.42348784 -0.023376398 -0.39346352 -0.0082497 -0.45253465 0.12209034 -0.31479433 0.130639 0.037116468 -0.09718397 -0.014569037 0.105974905 -0.047096454 -0.08068236 -0.1509829 -0.21215098 0.020496596 0.27984047 0.45721057 0.06699665 -0.082140565 0.46192494 0.20804854 -0.08813277 0.4044787 0.2802066 0.25102055 0.18107414 0.17034613 0.3130733 -0.2542042 -0.09778474 0.16358744 -0.06066331 0.1502529 0.20547396 -0.03627463 0.40136144 0.5601581 -0.456492 0.078120954 -0.118392795 0.20524567 -0.061748378 0.02125819 0.017366689 0.10293684 -0.05310808 0.24937044 0.06248281 0.068771936 0.05833754 0.2207147 0.08030567 0.2386222 0.07677042 0.39428255 -0.3325621 0.17969985 -0.1600358 0.65729755 -0.16650829
46 -0.20134139 -0.15747084 0.25267756 0.32857367 -0.11838227 0.39856082 -0.4002226 0.18871666 0.005909448 0.16967824 -0.5100794 -0.43746567 -0.2958618 -0.5266075 0.11509233 0.49804252 -0.60039854 0.54203206 0.49100512 -0.22971117 -0.3119763 -0.03013493 -0.04970589 -0.03263698 -0.10427053 -0.31523588 0.6710203 0.18602175 -0.10454358 -0.34878528 -0.28832644 -0.4743483 0.22667998 0.20253536 -0.14450571 0.40476638 0.24179791 0.003450579 0.052455276 -0.31845444 -0.107922815 -0.23410599 -0.38428912 -0.013895752 0.045452 0.4147262 0.3404786 -0.088472664 -0.1104392 0.14851937 0.023340585 0.019007973 0.30038726 0.047955636 -0.058323976 -0.016777223 0.06511614 0.1059692 0.07963207 -0.24332722 -0.05099771 0.5935359 0.73425776 0.28965536 -0.10487684 0.4068673 0.16882583 0.27780724 0.28098145 0.100494474 0.21770242 0.4585696 -0.0129831 0.036905117 -0.033402245 0.30005762 -0.48856187 -0.11660516 0.1575704 -0.16228501 0.26965937 -0.17842884 -0.13146007 0.17652467 0.09976566 0.22166134 0.16161315 -0.39730787 -0.09222783 -0.35647216 0.06895263 0.09543727 0.3048728 0.06700257 -0.22521393 0.5210295 -0.2113283 0.35964647 -0.18995371 -0.52241534 0.3846198 0.03675657 0.22546062 -0.087042995 0.41338977 -0.0024513616 -0.08355122 -0.099463426 0.22825122 -0.24604814 0.106730044 -0.47110456 0.045053814 -0.048414614 0.2812073 -0.20879154 0.23492827 -0.016243735 0.03016345 0.3101135 -0.039770413 0.12005957 0.052188564 -0.04997238 -0.014652575 0.0077374694 0.21787146 -0.24452417
71 -0.22158249 -0.14900012 0.2746792 0.35312414 -0.10795186 0.4352661 -0.44317988 0.21022315 0.00085172383 0.11971266 -0.6130205 -0.54293066 -0.30420887 -0.5645687 0.14201443 0.48860016 -0.5536917 0.58728606 0.5155324 -0.30764902 -0.34257206 0.043168403 0.093836695 -0.03584701 -0.083236404 -0.31049687 0.68546575 0.14400531 -0.12678948 -0.3340042 -0.4232143 -0.5520468 0.17276722 0.16998823 -0.13307321 0.44965887 0.21600823 0.0026442865 0.020713018 -0.38221496 -0.044370998 -0.3282755 -0.3246982 -0.101091415 0.03923354 0.48736325 0.29795063 -0.22333619 -0.10379279 0.12640905 0.034912348 0.0114156585 0.29941303 0.03565245 -0.08648912 -0.058695447 0.12064195 0.12050816 0.07866495 -0.2974872 -0.058274087 0.5366762 0.75005054 0.20236976 -0.09214388 0.45624796 0.12634388 0.20227095 0.32076988 0.11381402 0.1345489 0.4686981 -0.14040892 -5.270992e-05 0.02848172 0.28726688 -0.5433493 0.0312099 0.18107024 -0.11824595 0.24776366 -0.17322724 -0.017970672 0.23806268 0.14737651 0.1718847 0.13425915 -0.348364 -0.04482307 -0.2912783 0.012984831 0.104234025 0.41217497 0.16675241 -0.26872307 0.5687848 -0.3357166 0.378321 -0.20754358 -0.58228767 0.4101328 0.060645275 0.21534687 -0.05446798 0.38476387 -0.036680743 -0.092905216 -0.057573684 0.17268229 -0.31776094 0.043815136 -0.5260757 0.12414687 -0.05073118 0.30190343 -0.18899779 0.26977828 -0.048735097 0.15870145 0.3027381 -0.092730984 0.110528015 0.039845396 0.04463319 0.052417424 -0.009209787 0.16245294 -0.18333274
20 -0.21389145 -0.20292306 0.24682896 0.37500533 -0.070303954 0.37890962 -0.3613115 0.20689091 0.0022156427 0.15647651 -0.59897465 -0.5283397 -0.32916594 -0.5393352 0.17944552 0.5008418 -0.43247455 0.5304536 0.5493169 -0.29917276 -0.43718132 -0.037389107 0.08776951 -0.089918464 -0.13681366 -0.30081496 0.5802767 0.10401816 -0.15848573 -0.24360271 -0.38257504 -0.49670738 0.19909832 0.21434551 -0.10754813 0.34442675 0.17743453 0.0029292854 -0.027251799 -0.35484272 -0.018205184 -0.28375244 -0.27153644 -0.08716521 0.05107848 0.3947726 0.21327655 -0.20745589 -0.045652617 0.05688717 0.043024614 -0.13911115 0.31242535 0.018663907 0.016635869 -0.04655962 0.06594982 0.16864356 0.120300435 -0.21727034 -0.08355752 0.5986115 0.698801 0.13356474 -0.13615416 0.4235478 0.035645813 0.13310264 0.4069863 0.19312422 0.0581696 0.44708812 -0.12539947 -0.12529491 0.09262118 0.22457688 -0.5053754 0.07486497 0.10057819 -0.110104315 0.19780533 -0.17792486 -0.039490215 0.26951447 0.13590088 0.06249119 0.10571966 -0.3039864 -0.08975365 -0.22591674 0.07195843 0.09771401 0.38665435 0.22363096 -0.29583883 0.51584995 -0.32742217 0.33521676 -0.21463883 -0.5099037 0.44026902 -0.04792361 0.230966 -0.08866338 0.3143278 0.058987632 -0.16196153 -0.00631308 0.14432919 -0.32771948 0.04403652 -0.57524276 0.16038615 -0.024851464 0.31753778 -0.21396936 0.3341229 -0.09538264 0.21981728 0.31972203 -0.1858981 0.13453181 -6.570108e-05 0.01828886 0.058101416 0.06937458 0.19971694 -0.21931224
7 0.17915127 -0.5243532 0.3240069 0.18427466 0.15612277 0.08844474 -0.10267114 0.22300576 -0.17088242 0.27952722 0.04359467 0.22185497 -0.0052494896 -0.18374905 0.5162662 0.398793 -0.17530628 0.02013879 0.077974536 0.04082487 0.10662918 0.092166945 -0.39444894 0.021538319 -0.42624837 0.116863444 0.15598087 0.1650754 0.08023412 -0.33687252 -0.09064588 -0.07888208 0.04901699 0.38736054 0.16332838 0.21867338 0.11581007 -0.14937794 0.112380736 0.06424317 -0.23030414 0.3136708 -0.16748978 0.20889169 -0.101445444 -0.17433348 -0.05786812 0.43590647 -0.12524973 0.042284742 -0.016139172 0.049936775 0.37176123 0.19155146 0.149175 0.12827726 0.0045620366 0.24412139 0.12414355 -0.0102920905 -0.04778865 0.048051935 0.044136137 0.45291427 0.43773434 -0.11258526 0.0628696 -0.052830398 -0.23352924 -0.14853981 -0.020548698 -0.13230069 0.0117007205 -0.17415729 -0.054330062 0.079241976 -0.1610077 -0.015972668 -0.2318033 0.5050427 -0.15456846 -0.14477545 -0.15908624 0.6083079 0.049897294 0.43053737 0.18340887 -0.047535345 0.08572257 0.121709086 0.08161679 -0.23395562 0.089621976 -0.030312462 0.25472438 0.15859811 -0.22976643 0.09605585 -0.14480497 -0.16176198 0.13890575 -0.04253671 0.042797357 -0.03526261 0.22890867 -0.11338559 0.2524316 0.23777111 0.3716633 0.048746523 -0.086170316 -0.46563324 0.025305938 -0.27034098 -0.071122 0.073201776 -0.08668515 0.14324811 -0.15377799 -0.32965627 -0.1784651 -0.17486714 -0.1884322 0.00028938748 -0.46594694 0.25967014 0.055575784 -0.19630538
82 -0.33677462 -0.34151793 0.16498783 0.24878462 -0.14728871 0.29842353 -0.2725399 0.18257262 -0.04290158 -0.093937285 -0.4120357 -0.25313953 -0.359189 -0.45260498 0.18773466 0.34361944 -0.15037939 0.40494034 0.4980939 -0.30814922 -0.4882625 0.120084904 -0.07001621 -0.22056231 -0.0693036 -0.4226269 0.53492314 0.08445143 -0.064971 -0.44383216 -0.08273646 -0.4932308 0.34414998 0.54832804 -0.03662883 0.17444931 0.21936028 -0.10283037 -0.009853685 -0.5114647 0.09864256 -0.31055832 -0.30361217 -0.17866005 0.19141749 0.18125065 -0.018223563 -0.09636302 -0.019981267 0.23987192 0.27805027 -0.031498767 0.2235789 -0.020490227 -0.18244648 0.14185819 0.22364591 -0.103300504 0.38202506 -0.035195515 -0.04444667 0.7346816 0.5982978 0.14248824 -0.2535646 0.54131967 -0.03236992 0.35301384 0.30721015 0.013541693 -0.028145699 0.37198249 -0.33839405 -0.039802194 -0.018223584 0.2602869 -0.3814282 0.06147971 0.13823876 0.05566044 0.08088931 -0.16930015 -0.070904754 0.3750349 0.23466836 0.18560374 0.19480832 -0.1381918 -0.10789659 -0.1634173 0.17439981 -0.15818618 0.3475345 0.047314316 -0.23245806 0.46852538 -0.29920647 0.2704079 -0.36161262 -0.24761729 0.19961746 0.02154672 0.17218861 0.026615629 0.4066592 -0.10422615 -0.13292827 -0.107517466 0.015940238 -0.16900238 0.045900155 -0.3935293 0.09706516 0.0997535 0.0772181 -0.52121466 0.45952246 0.10143782 0.08866833 -0.09547118 -0.45362064 -0.026567757 -0.13599429 -0.17471713 -0.124765776 0.22055143 0.3024472 -0.0722462
54 0.19062427 -0.51974803 0.4066795 0.19586936 0.09169566 0.05036677 -0.100976236 0.08147364 -0.14449972 0.29315454 0.07407307 0.16165613 -0.06763261 -0.19002308 0.4989918 0.44741565 -0.15777896 0.06977512 0.10486302 0.09070507 0.07144746 0.11795839 -0.41094494 -0.0063888393 -0.4394506 0.08204435 0.11767967 0.26583847 0.03728836 -0.28903592 -0.002587506 -0.041329987 0.09964954 0.5091446 0.18417652 0.15750843 0.20392515 -0.09484889 0.11816306 0.119146064 -0.15284747 0.2952219 -0.20947476 0.18528283 0.0027017838 -0.22647558 -0.05175811 0.40352985 -0.12098361 0.026848478 0.090785034 0.006629624 0.36637083 0.20549536 0.062469635 0.1367338 0.052223053 0.15164723 0.069883965 0.039678667 -0.02919805 0.11956112 0.1047549 0.37930894 0.49938425 -0.15951459 0.04930022 -0.01991962 -0.19283685 -0.14965558 0.010380995 -0.162406 0.035546776 -0.13478096 -0.069275066 0.08580693 -0.16494346 -0.094823316 -0.1856601 0.56377894 -0.22851013 -0.21783362 -0.26403594 0.62142867 0.059585426 0.47017524 0.17981574 -0.11101708 0.021306857 0.12758105 0.11187204 -0.23596203 0.1514614 -0.11761356 0.28536615 0.22121194 -0.3053992 0.03949022 -0.18435873 -0.09822658 0.064746484 -0.06523816 0.085884124 0.049410794 0.21961302 -0.13865933 0.28218764 0.10081067 0.42572436 0.08792985 -0.11533601 -0.5462794 0.0923669 -0.2291737 -0.14793628 0.05064713 -0.011362958 0.28188497 -0.22386287 -0.42998213 -0.18606631 -0.13538747 -0.2579271 0.008227748 -0.57197464 0.2843057 0.090666495 -0.15545991
30 -0.13236459 -0.30874795 0.3141763 0.3133594 0.1440942 0.32518834 -0.19233312 0.20760962 -0.090425424 0.3124052 -0.37052965 -0.5162085 -0.37280452 -0.55524194 0.31293386 0.487386 -0.34655812 0.5346586 0.5372299 -0.18746842 -0.5172809 -0.18620425 0.05286184 -0.13518173 -0.1411555 -0.4807056 0.51322865 0.11097826 -0.20871654 -0.20444228 -0.16370587 -0.33917317 0.3043217 0.3871944 -0.07453011 0.2676423 0.22919928 -0.21481034 -0.016841825 -0.20534235 0.041206185 -0.23932712 -0.26565948 -0.0194238 0.07790399 0.18095271 0.020157153 -0.022450555 -0.016812984 0.05048742 0.053465128 -0.182106 0.2916175 -0.104703136 -0.008149372 -0.12530418 0.029395556 0.20420712 0.2938675 -0.07342203 -0.11039748 0.60472286 0.41859898 0.12919852 -0.13437349 0.4134777 -0.05472594 0.12035678 0.4271296 0.30461022 -0.030360175 0.375073 0.010263304 -0.2204812 0.20725907 0.03751001 -0.3925583 -0.060930245 -0.019172732 0.013739391 0.10356366 -0.14396578 -0.23610729 0.32856664 0.09892396 0.00044974557 0.18716276 -0.23299831 -0.1696418 -0.07873694 0.1582207 -0.0022178218 0.339215 0.1877848 -0.3947364 0.3625432 -0.2580366 0.31518173 -0.29632467 -0.3703284 0.57453436 -0.18220808 0.10860716 -0.2189416 0.2829127 0.16046825 -0.2160013 0.052989338 0.19256222 -0.2890762 -0.025930885 -0.5343889 0.2343505 -0.090506144 0.3279808 -0.22917648 0.40527242 -0.010323484 0.10220704 0.17894728 -0.26922366 0.22998025 -0.054267 0.0036070126 -0.051692504 0.2822805 0.26850417 -0.13061942
37 0.3948102 -0.52891594 0.3329975 0.22856402 -0.039490897 0.0343891 -0.09100215 -0.067387186 0.1277034 0.36795628 0.01193275 0.09270564 -0.025694102 -0.09481789 0.66306204 0.7024624 -0.016952462 -0.048095927 0.086495735 -0.020242628 -0.037331205 0.23497568 -0.2724435 -0.24214354 -0.43589914 0.22307725 0.12052817 0.08297524 -0.19373104 -0.14940588 -0.10275333 -0.12595423 -0.07434889 0.44346422 0.00740156 0.25340933 0.11618396 -0.029446075 -0.07358723 -0.17073213 -0.086842015 0.24270687 -0.06387222 0.09360381 0.12190986 -0.21696675 -0.24671361 0.25554052 -0.02835483 0.012994199 0.007345662 -0.08537888 0.38074955 0.2697941 0.01777936 -0.03313578 0.26625502 0.2859197 -0.21357927 -0.23395784 -0.29081348 -0.24412395 0.109480344 -0.003936152 0.7129885 -0.21589088 0.12111176 -0.28016117 -0.39246747 -0.06747862 -0.15836063 -0.13785666 -0.07684952 -0.053002458 -0.074120015 -0.014505783 -0.16986719 0.12697783 -0.26977545 0.6223754 -0.31618103 -0.1413287 -0.004304829 0.6020955 0.0693304 0.2035256 0.12815702 -0.092698686 0.103539094 0.42235798 -0.04126546 -0.24325933 0.3483695 -0.05461604 0.3718703 0.39493293 -0.31369677 -0.059350412 0.067979984 -0.18023106 0.12333888 -0.088526316 0.055734903 0.1278507 0.2429791 -0.09731035 0.39854652 0.33411014 0.14596152 -0.0773072 -0.28331622 -0.3249387 0.24615116 -0.21091737 0.0232738 0.22844276 -0.048136614 0.052573107 0.0014692874 -0.33155048 -0.040447604 -0.119452976 -0.32510427 -0.039389085 -0.18557663 0.14014658 0.011704685 0.0664797
63 0.19902149 -0.4996614 0.1962533 0.23820972 0.14026278 0.09891742 -0.15386508 0.19772893 -0.047020935 0.23262458 -0.129251 0.29049295 0.021749577 -0.1537082 0.5782776 0.43637234 -0.0069123055 -0.11508758 0.106662884 -0.018209128 0.17686197 0.1752164 -0.34985754 -0.0016356409 -0.5534146 0.30676028 0.1209581 -0.022098623 0.016859557 -0.32810885 -0.18367453 -0.22732481 -0.060293578 0.28130153 0.106390305 0.2667364 -0.030120295 -0.12746246 -0.005383122 -0.038166787 -0.3025364 0.2847468 -0.042656906 0.14069082 -0.16421796 -0.20876087 -0.08121731 0.36776686 -0.076696366 -0.022791896 -0.106535636 0.024996191 0.35741174 0.23597041 0.18134032 0.08468625 0.03525955 0.2958219 0.03181458 -0.15341383 -0.12726022 -0.05005452 0.036776885 0.3667182 0.48212403 -0.11274285 0.103381924 -0.16775844 -0.29105395 -0.17480649 -0.11931909 -0.11556099 -0.11745673 -0.22483209 -0.12031997 0.06465724 -0.1396161 0.21523048 -0.22686733 0.52476525 -0.1970641 -0.02534004 0.02723016 0.6372061 0.034669578 0.34038672 0.15553284 0.0007411366 0.14305961 0.24930641 0.013521996 -0.27589396 0.11704901 0.025055781 0.32103285 0.1953606 -0.19727716 0.09533703 0.0049931337 -0.15954576 0.18140876 -0.010036474 0.058384012 -0.0026705666 0.18687978 -0.09077722 0.29826716 0.42670092 0.2517253 -0.024707757 -0.14682129 -0.3996009 -0.0043229884 -0.32601333 -0.042412356 0.12056756 -0.096859 -0.03088899 -0.051159684 -0.38163394 -0.176548 -0.29051992 -0.19766958 -0.054850996 -0.37823886 0.19998726 -0.05838859 -0.08007081
25 0.048432793 -0.2585261 -0.2712595 0.32397544 -0.24421486 0.106005855 0.0087869195 0.097082116 0.075587496 0.3850084 -0.3609979 0.09579773 -0.13103066 -0.16210128 0.4933773 0.7010789 0.0061660614 -0.073928826 0.123825364 -0.09587464 -0.029395694 0.22754082 -0.19202054 -0.44273818 -0.47124332 0.2675931 0.08192321 0.020942211 -0.01943443 -0.19749211 -0.2350877 -0.14595912 -0.09774013 0.14118902 -0.103813566 0.24572408 0.017110234 0.19616666 -0.3552138 -0.43488872 0.09542479 0.07011041 0.006198868 0.033327103 -0.04590965 0.009083659 -0.24048826 0.17672172 0.06889827 -0.086206295 -0.14060117 -0.0060582636 0.5526838 0.39438686 0.31496796 -0.033922322 0.21507965 0.36423585 -0.2957289 -0.2472763 -0.4529493 -0.2972352 0.33518702 -0.04073032 0.35853362 0.029826786 0.28596976 -0.32180467 -0.48159167 0.016895626 -0.23964201 0.06190417 -0.24472314 0.05391394 -0.28065163 0.16046007 -0.044166088 0.31305563 -0.13050069 0.1642041 -0.12703724 -0.048281644 0.088759646 0.47482404 0.3340841 -0.034509204 0.08837821 0.100444436 0.1656405 0.44670781 -0.0650454 -0.16040045 0.24544099 0.050689895 0.40221757 0.3319198 -0.10517559 -0.040743284 0.3848764 -0.15196466 0.07018372 0.041242786 0.14748822 0.00999632 0.31262293 -0.03938576 0.4096494 0.3666663 -0.14118811 -0.19922967 -0.0844341 0.042619407 0.041120403 -0.18418299 0.2682211 0.075270385 0.04813131 -0.14378741 0.11499613 -0.054039285 -0.0074319653 -0.20578334 0.07818934 -0.34322432 0.08202408 -0.173697 -0.02350792 -0.04768023
80 0.30700928 -0.41791746 0.52340174 0.17028739 0.043930136 0.062780656 -0.20171341 -0.10049867 -0.026824692 0.27333188 0.049000077 0.064235434 -0.14731678 -0.19996248 0.50709367 0.4447494 -0.097883776 0.17761613 0.13754176 0.119778216 0.08637472 0.15831774 -0.26013094 -0.0428391 -0.46190798 0.0073445127 0.15952685 0.1737956 -0.08714768 -0.2759269 0.080335066 -0.102404274 0.074425116 0.5673367 0.051359016 0.1246054 0.2704314 -0.086111635 0.05950689 0.08647568 -0.121402055 0.1286023 -0.18870752 0.080387935 0.11314634 -0.22070423 -0.047085986 0.23773909 -0.11579643 0.02612358 0.077982515 -0.016242556 0.3066536 0.11466311 -0.17222308 0.14151429 0.22305588 0.05677329 -0.0013596434 -0.07935505 -0.03737163 0.08125175 0.079511456 0.2378341 0.6113435 -0.1841157 0.07645469 -0.058130898 -0.15976779 -0.18180966 -0.018438013 -0.08571198 -0.07955269 -0.11039244 -0.059584416 0.0468313 -0.16550577 0.001676952 -0.055223983 0.62675935 -0.24917035 -0.20927896 -0.18899468 0.58507425 -0.0075448216 0.39483866 0.24696153 -0.14562386 0.07015011 0.19987054 0.05922582 -0.29592896 0.28011057 -0.13115488 0.27327037 0.36289316 -0.36415213 -0.014407399 -0.17460114 -0.044583444 0.05105745 0.00186621 0.116328 0.13216303 0.18549487 -0.09249173 0.31857455 0.029541273 0.30848932 0.028581796 -0.26865458 -0.4926943 0.23389977 -0.17136624 -0.100147106 0.05453276 0.079990044 0.31703293 -0.16207497 -0.48456752 -0.13358657 -0.14450978 -0.29331008 0.01212401 -0.47294047 0.2784767 0.02653911 0.046679683
3 -0.056638896 -0.30263343 -0.28488547 0.32926852 -0.19608766 0.15770327 0.0034692208 0.22880757 -0.021460071 0.43875912 -0.362963 0.14700352 -0.19845638 -0.20969236 0.443798 0.7263452 -0.03915701 -0.012322432 0.048919775 -0.11991313 -0.06712523 0.22611101 -0.23494148 -0.4624362 -0.44012842 0.29035956 0.017892184 0.19359303 0.09657402 -0.18593821 -0.275907 -0.03175425 -0.10235979 0.049521104 -0.051180992 0.30147418 0.07757287 0.19142048 -0.36784503 -0.42968494 0.19268556 0.051440213 0.01593452 0.061259918 -0.08315744 0.0761597 -0.21710047 0.22376521 -0.008602781 -0.14290673 -0.112914264 -0.019713111 0.6056542 0.50793064 0.5246676 -0.05415923 0.174578 0.3793246 -0.28084296 -0.06725462 -0.43568203 -0.27384022 0.3820869 0.031171994 0.18737495 0.048727434 0.2530292 -0.25200588 -0.55403996 0.1240611 -0.20114475 0.06537001 -0.27702445 0.094298065 -0.27707648 0.108149916 -0.062014885 0.2181589 -0.13943782 0.037937265 -0.08357169 -0.06766359 0.056572773 0.45721567 0.42704815 0.027492799 0.01824695 0.12821563 0.16942862 0.38719147 -0.032367423 -0.009415717 0.18040963 0.07566113 0.46942762 0.19501907 -0.027054856 -0.01097216 0.3436686 -0.15005876 0.06330256 0.08722369 0.064611904 -0.0092230365 0.32913423 -0.088632464 0.37063336 0.35175404 -0.11893629 -0.2300979 0.047785334 -0.008519423 -0.032469694 -0.16239123 0.28589115 -0.07882011 -0.027052188 -0.1284625 0.072421804 -0.01864689 0.07020508 -0.15423602 0.1773698 -0.31358784 0.06286024 -0.22366953 0.05603982 -0.15805297
56 -0.29850572 -0.26513174 0.1821451 0.3581508 -0.15758763 0.30495557 -0.28919065 0.14954776 -0.032568455 0.24685507 -0.39090487 -0.33229065 -0.3926139 -0.47351512 0.068045676 0.51712394 -0.45669925 0.39706364 0.5429581 -0.1318581 -0.43264148 -0.14101416 -0.25440288 -0.0755392 -0.20953263 -0.33893952 0.48218378 0.20123072 -0.08726839 -0.33838892 -0.054876193 -0.3513772 0.35575715 0.4119277 -0.03847194 0.27657634 0.26489696 -0.0027105375 0.06166441 -0.22837488 -0.046664376 -0.11086221 -0.3679279 0.016205702 0.075260766 0.16917749 0.19472098 0.0921064 -0.05961984 0.1283685 0.20818384 -0.12161981 0.30345374 0.036277987 0.023120657 0.021663802 -0.018343324 0.032930415 0.20192759 -0.00027592602 -0.06481545 0.8547577 0.68275267 0.30872706 -0.20525761 0.3859051 0.06261386 0.34712148 0.3175833 0.042078227 0.1588355 0.38933665 0.029773993 -0.06253777 -0.06667269 0.24408 -0.39269584 -0.21333848 0.0788969 -0.08292012 0.14801295 -0.19640194 -0.29676312 0.19452314 0.136381 0.18376334 0.1523936 -0.31343552 -0.21020629 -0.36258122 0.24449807 0.049186394 0.21980616 -0.026817234 -0.18262514 0.4679246 -0.17521499 0.3242168 -0.2931748 -0.28115866 0.30008247 -0.06459447 0.21553491 -0.0638712 0.4177286 -0.020276878 -0.1342356 -0.104300104 0.24123581 -0.12488868 0.14247975 -0.48519665 0.029177662 0.003095475 0.13654205 -0.35369214 0.3487303 0.08243283 -0.09489588 0.20834492 -0.13552667 0.09282587 -0.0478388 -0.22625084 -0.13891506 0.106377386 0.40187556 -0.29813328
12 0.31194976 -0.33298337 0.46256265 0.15230167 0.02089539 0.10117292 -0.25314847 -0.14739783 0.011506976 0.29443413 -0.050030634 0.07576803 -0.15214713 -0.16852333 0.51283 0.4148228 -0.047167916 0.16077907 0.113489 0.1679948 0.13943619 0.15200128 -0.27721375 0.018007131 -0.4871846 0.054737195 0.1652121 0.106834225 -0.16079913 -0.2400217 0.1641394 -0.16222003 0.005051752 0.4646857 0.0067075375 0.08961855 0.20472547 -0.09631417 0.012736379 0.11806485 -0.24936941 0.05099355 -0.15361957 0.06582409 0.14259167 -0.21883576 0.01156275 0.25207013 -0.056244016 0.029683845 0.04292559 0.00436363 0.25426477 0.069311015 -0.22191559 0.14413702 0.29105562 0.026710408 -0.040021103 -0.1199805 -0.031510375 0.10159117 0.066051245 0.21588702 0.6654066 -0.20666848 0.10002551 -0.024627676 -0.16419627 -0.19871306 -0.06013795 -0.04496816 -0.07703712 -0.09048827 -0.10421403 0.006319411 -0.1582263 0.10688064 0.030091222 0.6005583 -0.27259764 -0.104163356 -0.13580504 0.5241439 -0.060305096 0.4295015 0.22360553 -0.09686192 0.13569583 0.113438055 0.15556991 -0.32359686 0.24114461 -0.17140104 0.22424562 0.44394264 -0.2749241 0.016682424 -0.084011585 -0.024958387 0.05056205 0.08918813 0.11562154 0.23780751 0.13657132 -0.094100624 0.2503527 0.02190208 0.23524144 -0.030733706 -0.25164008 -0.4266298 0.17347485 -0.17299679 -0.062447716 0.03107116 0.022097047 0.26166716 -0.17813157 -0.5542379 -0.06347574 -0.13487363 -0.29103702 -0.0016745792 -0.44813514 0.28195664 0.037176978 0.14813662
28 0.32450867 -0.564512 0.5514624 0.15563491 0.16433184 0.05377277 -0.045822132 -0.040148266 -0.10201696 0.331837 0.15006551 -0.012055231 -0.11822507 -0.25963148 0.64009583 0.5451991 -0.10125411 0.23488905 0.18872519 0.033697397 -0.04512803 0.13817586 -0.16230756 -0.14375834 -0.41372153 -0.058098674 0.15713094 0.22133948 -0.069307946 -0.22510156 -0.034427967 -0.060777135 0.12997364 0.649934 0.08320079 0.18919237 0.32301658 -0.17086157 0.051338892 0.056360856 -0.002710745 0.15362506 -0.16644756 0.11951876 0.097015806 -0.21280575 -0.16983657 0.22692701 -0.094471656 -0.03468162 0.06558402 -0.090182796 0.39583778 0.14148733 -0.05069146 0.01301654 0.14961264 0.20918207 0.026097344 -0.08373495 -0.10843763 -0.0094867665 0.07651607 0.16001724 0.5814945 -0.09118653 0.011541201 -0.16985089 -0.101348326 -0.014864324 -0.041232593 -0.11464293 -0.015440152 -0.19327492 0.063514896 0.01282763 -0.20491672 0.0027741485 -0.19457762 0.6147204 -0.24643704 -0.2560878 -0.22043082 0.69277865 0.10049862 0.2302447 0.24688499 -0.16976704 0.0041782637 0.36891276 -0.014076423 -0.2610385 0.3305408 -0.023240378 0.1934604 0.26137307 -0.42857146 -0.018587574 -0.17179225 -0.16890427 0.21645106 -0.14586551 0.050173417 -0.057354383 0.18038929 -7.12176e-05 0.23306787 0.15702124 0.36572707 -0.0430275 -0.2687572 -0.5475793 0.3068164 -0.20505652 -0.025651777 0.08973774 0.14726275 0.30737388 -0.09783963 -0.4315149 -0.23737854 -0.057445277 -0.30187786 0.081718266 -0.4549848 0.33345053 -0.0020625773 0.0040784166
9 -0.36734468 0.27586678 -0.29504755 0.51338977 0.121609904 0.16933325 -0.30121422 0.58392555 -0.4172881 0.5629774 -0.4756455 -0.44269675 -0.48145205 -0.44033667 -0.09533261 0.19277652 -0.29870483 0.50745374 0.03990685 0.34108293 0.3638789 -0.34043178 -0.07150503 -0.45860305 -0.6032541 -0.075892545 -0.20843726 0.28363597 0.4031462 -0.24290721 -0.33152336 0.18492372 -0.0049382984 0.11440426 0.056571636 0.23667175 0.17556153 -0.05663453 -0.44790748 0.10761841 0.2827553 -0.16381738 -0.12707397 -0.3250559 -0.34983703 0.1431424 -0.14608477 0.08650349 0.0009127012 -0.3207525 0.06395287 0.17301148 0.29623425 0.23345451 0.30179104 -0.31008735 0.20486876 0.320213 -0.16151349 0.06807442 -0.018080669 0.13289237 0.117077924 0.1570906 0.178422 0.08333631 0.51634705 0.049962044 -0.12040559 -0.11060414 -0.45198646 0.073236 -0.50968647 -0.08626156 0.08856981 0.06348537 0.0103581315 0.114954315 0.0009840244 -0.24535373 -0.27514756 -0.38260219 0.04078285 0.44823676 0.5982645 0.04231261 0.099203974 0.34997746 0.04360842 -0.26222214 0.42833716 0.20483918 -0.031372692 0.39605877 0.06396863 0.12901577 -0.33581665 -0.052477192 -0.08415019 0.015575868 0.14551403 0.27989972 0.053509396 0.2311845 0.63222194 -0.39277887 0.0015995252 -0.34024298 0.4037101 -0.14235337 0.035828877 -0.008057294 0.052654333 -0.01692628 0.2128884 -0.0071774325 0.29572937 0.32513708 0.17748782 0.23031077 0.00760525 -0.20329802 0.648546 -0.37458485 0.12758766 -0.018095924 0.48082864 -0.18571165
89 0.2815098 -0.33495933 0.34743297 0.2910901 -0.021456579 0.047482252 -0.27607468 -0.091247395 0.15117642 0.20795676 -0.1357646 0.14789307 -0.043924514 -0.047398977 0.4132928 0.42456362 -0.057869103 -0.09659083 0.062427394 0.051675692 0.10758827 0.22972032 -0.3610052 0.00041657145 -0.5004223 0.30398217 0.0880323 0.069802605 -0.17481387 -0.23374948 0.013287329 -0.21279617 -0.07461117 0.33229423 0.09766882 0.18585365 0.05944895 -0.016738422 -0.012861907 0.050347485 -0.29071808 0.20543438 -0.004446454 0.036086626 0.03041723 -0.19985788 -0.0960469 0.29199502 -0.008208097 0.040197976 0.070460275 0.018592585 0.25172433 0.21595982 -0.08226324 0.13084303 0.24416614 0.07196699 -0.12442788 -0.10786429 -0.08785842 0.020519288 0.14498933 0.24745846 0.6350259 -0.25157732 0.1415433 -0.07514044 -0.32393202 -0.2447481 -0.1629831 -0.13187802 -0.15963678 -0.08832006 -0.118523896 -0.06977345 -0.17811434 0.12253904 -0.10711855 0.6262992 -0.2937152 -0.07569724 0.020479683 0.53663296 -0.07385342 0.43221667 0.08468187 -0.023630053 0.13866024 0.07212023 0.12421121 -0.1513152 0.26433077 -0.09902041 0.35411114 0.4055041 -0.29154482 0.0049297954 -0.08069334 -0.04525529 0.0043317955 0.034991965 0.10180316 0.3395796 0.19599648 -0.24802254 0.3285817 0.18852955 0.2419489 0.06297357 -0.16036321 -0.46535635 0.115699075 -0.20083302 -0.15121336 0.09630127 -0.075226195 0.053141788 -0.08164014 -0.4561849 0.01583643 -0.16475673 -0.3062313 -0.005627117 -0.3601059 0.10776255 0.14965034 0.015245909
4 -0.21311711 0.26984593 -0.19323154 0.43982887 0.098322056 0.18075217 -0.24891464 0.5314951 -0.23789182 0.57812196 -0.49896717 -0.47974536 -0.41337964 -0.3387458 0.00034831243 0.28904805 -0.3537839 0.36089858 -0.066534236 0.22833593 0.14314644 -0.23264459 -0.08257527 -0.51125854 -0.47446764 0.06519485 -0.09596411 0.32430926 0.23988974 -0.14708129 -0.2861247 0.16755472 -0.1309249 0.039183263 0.10635053 0.19663306 0.118533194 -0.0864791 -0.39947844 0.06681994 0.3663537 -0.15708348 -0.058184534 -0.23429704 -0.19563304 0.17816426 -0.29258478 0.05238314 0.088239655 -0.24932201 0.09775837 0.20354925 0.28501046 0.24163286 0.26749092 -0.33165926 0.3557289 0.3092198 -0.14258327 0.10751923 -0.059929594 -0.04483101 0.07262234 0.10634545 0.21437788 -0.03879439 0.4588661 0.054047268 -0.25024676 -0.069597885 -0.43456584 0.07164299 -0.4820021 0.087441534 0.1413588 -0.13133177 0.0014254268 -0.03724131 -0.091015324 -0.14807731 -0.22629821 -0.32963553 0.03519894 0.3738266 0.4583002 0.10224915 -0.005800232 0.4115137 0.09733513 -0.23330392 0.42594972 0.33598393 0.106836945 0.31529683 0.13927948 0.19619863 -0.40887046 -0.06712903 -0.11303822 0.0059165033 0.17934133 0.26968262 -0.017087497 0.4103176 0.6750131 -0.49542853 0.07325462 -0.34039408 0.3496439 -0.053573538 0.036659904 0.0037456912 0.10502868 -0.009782214 0.18753335 0.1170828 0.20719203 0.21842246 0.17899074 0.18758802 0.14930113 -0.025968643 0.517015 -0.2864966 0.16444974 -0.083721265 0.6812245 -0.15952873
14 -0.29404968 0.3387747 -0.26226786 0.45011216 0.08087293 0.24972494 -0.29338443 0.4817833 -0.22703968 0.5377173 -0.50618356 -0.54157406 -0.45875448 -0.38363197 -0.08071296 0.22046806 -0.4781626 0.44850597 0.033210624 0.27488294 0.127645 -0.32430303 -0.10409156 -0.5279518 -0.5253789 -0.05479351 -0.12990364 0.29672918 0.29275072 -0.20316231 -0.19089013 0.08817365 0.032047205 0.1144008 0.07375847 0.23358484 0.18110101 -0.17478941 -0.43408927 0.21203801 0.19415407 -0.23802571 -0.09744027 -0.31428882 -0.27813965 0.261732 -0.29864648 0.0539304 0.071937576 -0.2550953 0.09463038 0.3211473 0.34781143 0.11358617 0.18774685 -0.2852655 0.32687214 0.3696643 -0.07731879 0.07419516 0.02652007 0.13793509 0.024408802 0.229591 0.2606697 0.06310913 0.61196846 0.12366549 -0.16690904 -0.15391296 -0.53244466 0.041565847 -0.45095953 0.0379948 0.2792475 -0.039057214 -0.04582902 -0.010418594 -0.07850956 -0.26146242 -0.21161163 -0.36587057 -0.04907326 0.43329564 0.50959325 0.18247335 0.022364717 0.35325727 0.07150978 -0.3511789 0.6019547 0.40340135 0.06091922 0.36247444 0.1305586 0.28373167 -0.47727484 0.0035246792 -0.17319584 -0.009050119 0.18774585 0.29315487 0.011474641 0.30982023 0.70425755 -0.634537 -0.047432333 -0.43340224 0.48485187 -0.064594395 0.095329836 -0.016736586 0.13411616 0.026596105 0.2328977 0.07485669 0.18048982 0.3299367 0.17745595 0.20247735 0.19340856 0.074418195 0.58435017 -0.3557132 0.11807713 -0.112774394 0.88384 -0.31314155
111 -0.11029755 -0.58386034 0.39689887 0.4584247 0.034966707 -0.06414293 -0.010339467 -0.06637154 -0.14334261 -0.01316124 -0.039354566 -0.043771088 -0.25480482 -0.23903248 0.22481832 0.42047697 -0.092812866 0.051984195 0.36886185 -0.12746224 -0.19877899 0.17692524 -0.32274717 -0.05039631 -0.34292504 -0.0073723225 -0.15190671 0.35713536 -0.023310382 -0.1645016 -0.08802305 -0.07821166 0.3992053 0.6900718 0.36154354 0.14624579 0.28691274 0.010791307 0.14749718 0.095626585 0.12602156 0.2718393 -0.060376376 -0.02829115 -0.030985674 -0.22108915 -0.14140703 0.2248579 -0.11856736 -0.046607215 0.4872226 -0.32102618 0.23598641 0.2919529 0.17884828 0.010542531 -0.1342266 -0.05622975 0.02793525 0.32297185 -0.012307898 0.5269012 0.44998038 0.22721864 0.06032404 0.11093201 -0.14216173 0.015523138 0.058001634 0.0151093155 -0.12863195 -0.1293182 -0.1623352 -0.2976928 0.04256143 0.09818857 -0.3436708 -0.023737745 -0.10292826 0.36417267 -0.27078462 -0.36098972 -0.15915422 0.607477 0.28220502 0.10117358 -0.024575481 -0.07243682 -0.2047013 0.055959553 0.1048667 0.09557386 0.27963504 0.0858587 0.118773624 0.09083018 -0.52222246 0.015263063 -0.48512077 -0.0072480836 0.039868493 -0.19962022 0.10377538 0.10447043 0.1834337 -0.28777406 0.033436976 0.115880825 0.5089196 0.15459336 0.028181234 -0.88005435 0.13424477 -0.08672478 -0.42726743 -0.28253135 0.31063855 0.29684258 -0.024920693 -0.31714553 -0.32741067 -0.091514915 -0.27611452 0.119973324 -0.4828112 0.14371735 0.29580224 -0.24162607
115 0.032791503 -0.58090764 0.47791287 0.35139662 0.073850095 -0.076614805 0.0019312482 -0.103205465 -0.15103969 0.060339775 0.07811872 -0.014839034 -0.2318757 -0.24182428 0.33105272 0.44313028 -0.07328503 0.09643703 0.3386955 -0.07904337 -0.13052624 0.18915199 -0.2771457 -0.08534668 -0.37581405 -0.037463203 -0.12802741 0.3315771 -0.025743626 -0.16605382 -0.03534472 -0.0535224 0.34426293 0.71865535 0.30887282 0.14083041 0.334805 -0.019613907 0.13694867 0.14238206 0.10996922 0.253262 -0.066118106 0.034486927 0.0017301572 -0.2551703 -0.14309789 0.2164565 -0.12657148 -0.06862127 0.3932528 -0.26670727 0.26719368 0.25246668 0.12526982 0.02689538 -0.07039285 -0.031004112 0.011918556 0.24630064 -0.016136216 0.38261816 0.34427732 0.21290593 0.21003434 0.041307606 -0.10221754 -0.051273648 0.04156498 -0.0009809418 -0.09233864 -0.1518942 -0.11463994 -0.28983054 0.044388667 0.08145693 -0.28695247 -0.02241297 -0.11977273 0.4564611 -0.29685614 -0.33526927 -0.19257115 0.6296845 0.22160517 0.116985895 0.054882508 -0.11828976 -0.17397691 0.15863603 0.047448907 -0.024979435 0.29194462 0.038730875 0.16787702 0.098860525 -0.5201765 -0.031714927 -0.42323816 -0.0023512202 0.0455854 -0.20162359 0.08631324 0.04412969 0.13296935 -0.20398293 0.09974328 0.09610995 0.4919987 0.13309349 -0.05598766 -0.8176134 0.19307265 -0.0990323 -0.38292083 -0.18659712 0.30734795 0.3536236 -0.058280602 -0.37223208 -0.3176026 -0.092429265 -0.3145864 0.1257964 -0.51904744 0.19667189 0.17670912 -0.16740419
117 -0.199412 -0.6010584 0.387919 0.52639675 -0.03054271 -0.03771301 -0.05037537 -0.0849372 -0.15455067 -0.03675312 -0.13058375 -0.10379351 -0.30429474 -0.28141958 0.17718975 0.4572518 -0.12194403 0.13166603 0.4281275 -0.15382282 -0.26103526 0.17689599 -0.30193833 -0.073477894 -0.35336897 -0.05964946 -0.12297047 0.381522 -0.029746603 -0.2041006 -0.123432934 -0.12326379 0.45024002 0.7247444 0.3487471 0.17531435 0.32088846 0.049447488 0.14879476 0.06311512 0.17438754 0.22960529 -0.062302202 -0.053781226 -0.005183764 -0.17931548 -0.06644821 0.18331462 -0.13317224 -0.06422103 0.5364481 -0.38323408 0.26656762 0.3289438 0.20656447 -0.0031661277 -0.16027853 -0.105606504 0.02847969 0.35218573 -0.019944724 0.6780305 0.6112439 0.23516987 -0.026221553 0.23593257 -0.14750576 0.05401877 0.16478738 0.049640194 -0.1083477 -0.054344196 -0.18086165 -0.33225122 0.07084558 0.17686465 -0.4048175 -0.0015052608 -0.035799384 0.317238 -0.26212046 -0.39150006 -0.16193224 0.59343725 0.3140486 0.07496426 -0.04613667 -0.12287932 -0.25501823 0.00048568496 0.11765656 0.13440324 0.3176015 0.10008349 0.057487335 0.17067945 -0.5715567 0.06878388 -0.5384592 -0.010919387 0.042307507 -0.19619638 0.15220492 0.09267902 0.18393904 -0.257946 0.00043112476 0.0753371 0.5212811 0.13062327 0.04462936 -0.9873664 0.149756 -0.05077106 -0.44169638 -0.39074853 0.41073883 0.31592304 -0.010975996 -0.2885537 -0.39579102 -0.07798037 -0.3068033 0.12640883 -0.4691985 0.14918552 0.3098272 -0.28195208
83 -0.22420272 -0.31650618 0.16299193 0.16312763 -0.16528158 0.28967646 -0.26626834 0.17116134 -0.04158268 -0.25859478 -0.3576342 -0.06974852 -0.39377347 -0.36057994 0.24145564 0.32236737 -0.08979289 0.38253823 0.3715214 -0.29590198 -0.34938696 0.27950355 -0.11540675 -0.36277214 -0.08925551 -0.39090684 0.5153458 0.05290899 0.007827991 -0.51971775 0.030200347 -0.4726981 0.28184885 0.64271384 -0.023982158 0.037767306 0.17662849 -0.10757408 -0.057902478 -0.55223614 0.11400671 -0.30524477 -0.26925963 -0.2020739 0.24605659 0.115486406 -0.1500539 -0.08708858 -0.02948606 0.30769658 0.28474507 0.11923738 0.2017413 -0.06788537 -0.31810227 0.33208337 0.46581545 -0.2137598 0.41439155 -0.09782671 0.012595964 0.581204 0.47087187 0.16807896 -0.13967755 0.46195257 0.03303482 0.41321257 0.14100987 -0.14671855 -0.10356982 0.2880537 -0.54565036 0.06353121 -0.11891962 0.26231045 -0.30225223 0.15607725 0.15617225 0.1886668 0.07387124 -0.18153818 0.02741372 0.4646033 0.28974256 0.31695065 0.26158693 0.018732492 0.045140453 -0.061864007 0.18723296 -0.33726156 0.32805035 -0.039427422 -0.10860878 0.40257624 -0.25124738 0.18193129 -0.3348993 -0.19722964 0.05118823 0.15710561 0.054337386 0.15168877 0.4269761 -0.1843928 -0.039266873 -0.19986492 -0.09246127 -0.08020631 0.03130431 -0.2241529 0.073015384 0.124601886 -3.139442e-05 -0.5594574 0.4008916 0.18296035 0.114086024 -0.37175038 -0.47015858 -0.11036726 -0.15923497 -0.18823943 -0.2140861 0.27379793 0.22734551 0.0715759
92 0.18826085 -0.37843028 0.33720994 -0.0013688332 -0.09099238 0.253196 -0.25995693 0.091879204 -0.06880411 -0.026747921 -0.18797447 0.08683644 -0.27434584 -0.29209718 0.56171 0.43417 -0.018947663 0.3585736 0.198504 -0.09640968 -0.08301123 0.35054177 -0.107011706 -0.41402802 -0.2551242 -0.24259008 0.5115137 -0.0038025023 0.055949576 -0.4639535 0.08556365 -0.3201839 0.08302898 0.6721358 -0.06685995 -0.06991804 0.19010773 -0.1396725 -0.058870684 -0.38296184 0.010480351 -0.27277225 -0.26494786 -0.004335969 0.26691243 -0.017106656 -0.27541026 -0.047131225 -0.05977707 0.2133457 0.1507788 0.22394267 0.32756805 -0.13347706 -0.42844367 0.45505363 0.63184327 -0.0891854 0.39941835 -0.2129382 -0.029404772 0.20817919 0.098408476 0.156956 0.3127915 0.0889253 0.077644095 0.23969375 -0.036277834 -0.26078486 -0.12643583 0.13227 -0.5009469 0.0481499 -0.113148406 0.2165843 -0.17084424 0.25312883 0.062134095 0.5276468 -0.0023951007 -0.19453861 -0.025415968 0.6295178 0.2113427 0.41388687 0.39222628 0.01372613 0.21859348 0.1749775 0.09020174 -0.5737336 0.33856866 -0.18062489 0.1500876 0.45151624 -0.28816792 0.049049474 -0.16590184 -0.15501955 0.017044222 0.20606464 0.0061867847 0.15488577 0.32309115 -0.097857684 0.18618433 -0.1647754 -0.101769544 -0.05223493 -0.2042766 -0.16537923 0.19227248 0.040653486 0.055821136 -0.23158117 0.25944483 0.35143128 0.060151864 -0.6338295 -0.38816968 -0.14978856 -0.25441116 -0.16881885 -0.38995764 0.41657117 0.04922303 0.17772856
86 0.23384285 -0.44332847 0.37612975 0.027279338 -0.10626246 0.28672183 -0.2952102 0.10048002 -0.08912013 -0.04034614 -0.19979465 0.15576378 -0.26633298 -0.31991646 0.6137706 0.48202947 -0.024195967 0.3666969 0.1902631 -0.087035 -0.038865525 0.42282036 -0.15131904 -0.44040743 -0.34773406 -0.19849277 0.5345287 0.023301637 0.07956352 -0.53317946 0.039556094 -0.3236262 0.078674294 0.75693226 -0.031485047 -0.06639959 0.22281273 -0.114466935 -0.0635938 -0.38900506 -0.015262594 -0.23552148 -0.2770199 0.029237429 0.25889775 -0.02408992 -0.28189215 0.0072857905 -0.09022204 0.23008145 0.17130345 0.23887642 0.4007173 -0.074268356 -0.42227307 0.5051564 0.69193417 -0.09599451 0.4002828 -0.23929007 -0.01726266 0.19099502 0.121355645 0.21215238 0.3951576 0.04625265 0.0948691 0.26953855 -0.121553965 -0.33157843 -0.113309726 0.11092674 -0.55418015 0.048686232 -0.16681454 0.28640875 -0.22118002 0.27039614 0.04989848 0.60000044 0.0012790535 -0.2521571 -0.016499076 0.7602676 0.25830072 0.52646613 0.42514202 0.015395661 0.29004556 0.1745034 0.09067418 -0.6288492 0.3565924 -0.18684529 0.2161307 0.48912326 -0.3464259 0.050741386 -0.17525078 -0.18101554 -0.01150609 0.23945212 0.035224933 0.20129827 0.3644962 -0.18018396 0.26835218 -0.15478522 -0.06546973 -0.032928526 -0.22290882 -0.24866256 0.19288935 0.0055643716 0.029932564 -0.23547277 0.24877031 0.42656142 0.038412172 -0.73871315 -0.39324784 -0.22941664 -0.25101998 -0.17937307 -0.48317373 0.43257853 0.056412563 0.12829861
45 -0.20447892 -0.12634408 0.23494676 0.40309575 -0.059343386 0.4466489 -0.42224976 0.22534095 -0.0034107652 0.2076795 -0.59833115 -0.5439222 -0.35351652 -0.57649904 0.1462769 0.53948945 -0.6179058 0.6199914 0.5225752 -0.25189945 -0.3425353 -0.04356721 0.02297717 -0.07492434 -0.110793926 -0.34174034 0.65818626 0.15010163 -0.16548756 -0.30118448 -0.3532355 -0.4842514 0.2018736 0.14667018 -0.16416506 0.4310126 0.21696804 -0.0059080184 -0.0070920335 -0.33114773 -0.05915646 -0.2902804 -0.32288703 -0.046610575 0.024278685 0.45602793 0.30633664 -0.13198404 -0.08066759 0.11328938 -0.011637759 -0.019992355 0.31912768 0.03527255 -0.020187274 -0.078553855 0.08710612 0.15946308 0.05656413 -0.26909047 -0.071601294 0.5485036 0.7368918 0.22619627 -0.10054178 0.4388072 0.1699056 0.21729645 0.3029847 0.15757471 0.13595374 0.46876135 -0.04973496 -0.022957804 0.021414 0.23917614 -0.51895005 -0.048664607 0.14839812 -0.17740738 0.2622669 -0.16742875 -0.0863289 0.20502721 0.1230412 0.1490724 0.15363526 -0.34926277 -0.03740932 -0.30760482 0.06716878 0.12907064 0.35290292 0.1665306 -0.289233 0.54238296 -0.2416516 0.40237677 -0.18103854 -0.5757553 0.48502228 0.023620978 0.19139655 -0.092184976 0.40808526 0.018367441 -0.108204514 -0.04258743 0.19882904 -0.32311848 0.08732032 -0.49834925 0.108768284 -0.08428491 0.35187453 -0.18376587 0.23580837 -0.08286656 0.12563737 0.35563135 -0.025872227 0.16091412 0.10004614 -0.018790249 0.05969956 0.008865793 0.22181736 -0.20496044
33 0.12600562 -0.35682636 0.42826742 0.23648317 0.38457036 0.27845195 -0.13806951 0.2826239 -0.12961668 0.49249464 -0.26110193 -0.5303934 -0.274812 -0.59169286 0.6069066 0.52253926 -0.24886759 0.5551981 0.4241118 -0.15079395 -0.42944047 -0.19738488 0.20509784 -0.16496487 -0.17138079 -0.46901605 0.49445686 0.037987605 -0.28452742 -0.12302719 -0.21539828 -0.2582392 0.14448391 0.3563344 -0.109756716 0.35077298 0.22198358 -0.40073758 -0.066346586 -0.14727065 0.06778043 -0.21645752 -0.1618744 0.004698706 -0.0037266617 0.12057562 -0.13761838 0.028936455 0.003051168 -0.038609046 -0.1101529 -0.17657672 0.3171744 -0.1228765 0.009773858 -0.288485 0.06778366 0.4291985 0.2627475 -0.14690502 -0.22288725 0.21703404 0.05599884 0.059565224 0.17984417 0.31769446 -0.07159128 -0.14791533 0.283008 0.41962373 -0.19358662 0.24562071 0.052571062 -0.32860276 0.3606297 -0.1434376 -0.330647 0.019021286 -0.15330645 0.22141609 -0.018298842 -0.07843621 -0.19624628 0.5236941 0.06258021 -0.016147904 0.23512602 -0.14435029 -0.11639033 0.21010326 0.058083247 -0.10420981 0.46004996 0.28609216 -0.395968 0.32487378 -0.33137536 0.2579829 -0.19260727 -0.41930875 0.7479692 -0.20680363 0.025842123 -0.2744778 0.28977162 0.19087917 -0.13788496 0.2666279 0.2449536 -0.4144462 -0.21619822 -0.5313938 0.39715526 -0.2534439 0.47641042 -0.00019502845 0.33371076 -0.04161347 0.18063399 0.023685083 -0.27539104 0.22922042 -0.059664942 0.13063084 -0.06649739 0.4237274 0.16750824 -0.0025165868
88 -0.1177527 -0.32212144 0.22422478 0.11724711 -0.19125092 0.30626363 -0.31935248 0.15430118 -0.013315109 -0.22923735 -0.38463837 -0.03701083 -0.38062233 -0.3626781 0.30918857 0.3625557 -0.092708275 0.4033148 0.3518552 -0.25517163 -0.30460465 0.3157965 -0.123629615 -0.38744292 -0.106841706 -0.3657453 0.5780887 0.0025813635 -0.0005812252 -0.53034675 0.05256307 -0.49191687 0.2270542 0.6565293 -0.050662577 -0.014271116 0.14325504 -0.13131021 -0.07303382 -0.55876815 0.032798965 -0.3405868 -0.29114553 -0.17289077 0.2753864 0.11105908 -0.1676336 -0.10898466 -0.023176342 0.32739016 0.24803923 0.1609265 0.21999925 -0.14112934 -0.394456 0.41373467 0.57172036 -0.21067742 0.45281175 -0.15889727 0.010253937 0.53643686 0.39206818 0.17013827 -0.04513483 0.3823967 0.06396108 0.43394673 0.115775466 -0.19450834 -0.116731174 0.30745173 -0.5694019 0.09043738 -0.14177616 0.2535461 -0.29731628 0.20014086 0.14851892 0.26836264 0.08807122 -0.18095584 0.03567307 0.51040095 0.2523708 0.3976651 0.30336598 0.010800856 0.110503644 -0.05681318 0.20160373 -0.427819 0.36134967 -0.09141817 -0.07090759 0.47712818 -0.25054395 0.17900981 -0.3100228 -0.20973979 0.05652759 0.18658467 0.056148544 0.20257628 0.4266522 -0.16435397 0.004124527 -0.20371659 -0.1250329 -0.092175126 -0.010902369 -0.19916369 0.09970674 0.122361064 0.029624127 -0.48272872 0.3526673 0.1938375 0.1103308 -0.43092242 -0.43793026 -0.11069691 -0.18035038 -0.19921851 -0.24363744 0.3149398 0.20791464 0.10270333
36 0.066864945 -0.36478648 0.37522286 0.28604832 0.34959567 0.28626686 -0.104006976 0.2769797 -0.1503255 0.4662423 -0.29507563 -0.54569525 -0.32800677 -0.6112961 0.55920774 0.545684 -0.19590996 0.55608433 0.46251273 -0.17269316 -0.52440095 -0.19594677 0.21244079 -0.21249226 -0.17154904 -0.49718127 0.4580694 0.019977883 -0.3189854 -0.092451096 -0.19771829 -0.2527695 0.20181522 0.38884196 -0.10897693 0.3185766 0.21359238 -0.3788037 -0.09083326 -0.18178703 0.111125425 -0.23221394 -0.14121945 -0.015704392 0.017572869 0.10143831 -0.17040971 0.014732902 0.0059033316 -0.064076774 -0.013995937 -0.25717214 0.3076887 -0.12497245 0.036924668 -0.27266017 0.06975061 0.37968442 0.29900825 -0.08407675 -0.24822035 0.32825267 0.10342898 0.031166667 0.07353415 0.36394435 -0.1218289 -0.12938294 0.3346904 0.45535895 -0.21830107 0.27443734 0.02957185 -0.35915777 0.36873487 -0.1385216 -0.35052168 0.048738353 -0.13707082 0.18969558 -0.021737441 -0.10329457 -0.18089457 0.51137745 0.102480136 -0.076365665 0.1889939 -0.12197484 -0.12440482 0.18968652 0.07821441 -0.07025556 0.4523232 0.30992523 -0.4270286 0.31975305 -0.31874734 0.26728517 -0.22284023 -0.38851708 0.73373544 -0.24284905 0.015678551 -0.2557018 0.27207315 0.18074149 -0.17786656 0.27489373 0.20376238 -0.4195558 -0.18312204 -0.5691631 0.3960024 -0.2169755 0.46355048 -0.08794712 0.3991979 -0.035740733 0.2214793 0.038392298 -0.2940966 0.23964287 -0.07340616 0.116530575 -0.05094934 0.42408288 0.2283234 -0.013829142
106 -0.4237034 -0.4401658 0.05215727 0.3037841 -0.31990045 0.2198682 -0.24406928 0.21176483 0.07404841 0.39225888 -0.5818726 -0.37070933 -0.35251445 -0.44162178 0.18323892 0.51270175 0.019399311 0.085110806 0.6441114 -0.1563307 -0.7476759 -0.2248573 -0.15027325 -0.17243212 -0.33198398 -0.17559245 0.310057 0.0144712785 0.049634814 -0.23254919 -0.11937238 -0.46603015 0.20225699 0.43638504 0.11927769 0.08820238 0.1263663 -0.00091607426 -0.06491702 -0.29198077 0.0043513686 -0.2692375 -0.2977953 -0.1402499 0.16317283 0.049322963 -0.12726063 -0.11852036 0.22050446 -0.025727564 0.3216879 -0.3336292 0.3114446 -0.07054146 0.09183171 0.095914215 0.0399833 0.22743039 0.37393922 0.06937008 -0.17736515 0.9894111 0.591334 0.052053243 -0.30877468 0.32943925 -0.17776549 0.16155025 0.60692865 0.0147316 -0.06387572 0.38949803 -0.20169227 -0.27841842 0.11398077 0.18100592 -0.25736222 0.16529448 -0.104689516 -0.031253997 -0.096596904 -0.09487313 -0.172276 0.302897 0.13755351 0.018608233 0.01306238 -0.048781823 -0.3704189 -0.1825991 0.4374607 -0.124834046 0.25181782 0.016901921 -0.105373144 0.5736182 -0.32458654 0.17386387 -0.2099109 -0.04279201 0.28969347 -0.17498682 0.42379302 -0.017726874 0.3651052 0.032008447 -0.25503746 0.0010265476 0.059376266 -0.23477036 0.03459301 -0.45832855 0.13531655 0.1742445 0.25226134 -0.26867893 0.58326983 -0.085089155 0.10976722 0.2934922 -0.49560416 0.040657677 -0.2253664 -0.36780727 0.033878237 0.24785419 0.40864176 -0.37923157
72 -0.23543073 -0.20328845 0.2914464 0.32827812 -0.101746686 0.39169887 -0.43889028 0.20769998 -0.014783119 -0.03348676 -0.60947585 -0.49983698 -0.2837861 -0.534777 0.18152602 0.39198634 -0.38187656 0.5410749 0.5100517 -0.35262078 -0.33698434 0.15859868 0.13441895 -0.08853811 -0.050339203 -0.31531104 0.6423558 0.12549093 -0.1187841 -0.3826663 -0.40008536 -0.5997365 0.18916023 0.25381392 -0.09012149 0.36481714 0.19773407 -0.04232503 -0.023588328 -0.46194226 -0.010036466 -0.37190282 -0.27723786 -0.1866304 0.08580097 0.4508561 0.19603917 -0.26858836 -0.09420584 0.1680108 0.119083285 0.037577774 0.24790424 0.04571782 -0.17318156 -0.0043610367 0.19606894 0.028657867 0.14673817 -0.2693366 -0.029058613 0.47868958 0.7197699 0.12355703 -0.10743063 0.47890016 0.07716397 0.20961006 0.28887543 0.10161564 0.054207787 0.41976565 -0.29493254 -0.011763518 0.04521506 0.28605184 -0.53623885 0.1282585 0.19204481 -0.05113909 0.1634507 -0.18584184 0.07917126 0.32346785 0.19495237 0.17895022 0.14295976 -0.26852044 -0.024429597 -0.21688007 -0.015893875 0.037319366 0.4375296 0.18067186 -0.25881517 0.55796117 -0.3818459 0.30743867 -0.25726533 -0.5109777 0.31612566 0.08477598 0.21886562 -0.011099732 0.35320976 -0.095555834 -0.08594053 -0.061799426 0.1038915 -0.30420554 0.016795656 -0.4950875 0.13819195 -0.014690538 0.2136564 -0.25022587 0.32095572 -0.011681195 0.21286772 0.11883655 -0.23276126 0.034581795 -0.013876557 0.06563279 0.021802891 0.038385883 0.1262391 -0.10378395
112 -0.08412184 -0.55789244 -0.23581289 0.40349463 -0.3335099 0.20511658 -0.16423076 0.09723733 -0.064061694 0.2907886 -0.45983645 0.2515414 -0.1060526 -0.19064482 0.56802005 0.8096902 0.20875558 -0.042607345 0.0559461 0.0006734499 0.088456176 0.259425 -0.51542515 -0.14306234 -0.5502001 0.35884413 -0.12911518 0.048940215 -0.26039112 0.026354404 -0.17538653 -0.2412527 -0.1712829 0.14556466 -0.056308907 0.3077114 -0.037871886 0.17314711 -0.13636605 -0.33187026 -0.22759403 0.22518094 -0.031544767 0.07247897 0.03802295 -0.10777688 0.119786955 0.39437318 -0.10346016 -0.117041565 0.16831468 -0.34782875 0.46210536 0.50046915 0.37365016 -0.110595435 0.22801211 0.30926245 -0.34639812 -0.0965242 -0.35204154 -0.009543335 0.305922 -0.09296568 0.5408031 -0.1145392 -0.0785623 -0.21245636 -0.48177075 0.024172641 -0.22860318 -0.17936125 -0.056834333 -0.094051085 -0.33051047 0.19005293 -0.29076397 0.5313678 -0.056280315 0.39718884 -0.37257177 0.08566859 0.23778534 0.61547774 0.26435667 0.31803316 0.028481241 -0.022274185 0.3032791 0.20702349 0.17438023 -0.35651538 0.13074553 -0.03579296 0.25150448 0.48035836 -0.045298316 0.17395209 0.17029369 -0.26532444 -0.0020271123 0.15682761 0.14985958 0.31736723 0.1748684 -0.19066843 0.16066426 0.5239669 0.014222037 -0.44952112 0.0019400795 -0.39029 -0.0444291 -0.10090257 0.046296757 -0.1581995 -0.20341988 -0.11809203 0.07391738 -0.3439767 0.0018986946 -0.35635972 -0.17692366 -0.10528684 -0.061143238 0.12989739 -0.08572385 0.03934754
39 0.22227865 -0.33223522 0.45807835 0.16813532 0.37757495 0.2579806 -0.107391775 0.22101454 -0.12823595 0.58600503 -0.13062884 -0.4695685 -0.23923464 -0.529468 0.6644793 0.5279347 -0.23358732 0.51368153 0.34832677 -0.05434888 -0.35210168 -0.22461261 0.14244716 -0.15411149 -0.20185451 -0.44713685 0.46404967 0.06005984 -0.28902787 -0.08884145 -0.115018785 -0.19653344 0.10798797 0.37706187 -0.10841928 0.3192199 0.22540997 -0.41835204 -0.050243765 -0.05078285 0.0038777725 -0.17949818 -0.20786445 0.04796783 0.040636435 0.026534148 -0.15504745 0.10449778 0.0057282574 -0.035254806 -0.13887468 -0.12931252 0.33397987 -0.14371434 -0.03010134 -0.2587382 0.10851039 0.44117424 0.20103763 -0.17349733 -0.2316572 0.1482551 -0.038086645 0.05452863 0.324616 0.18769264 -0.026430758 -0.16165026 0.19896401 0.36296713 -0.16477574 0.19728532 0.12358931 -0.26777223 0.31078586 -0.17333011 -0.27030253 -0.02312377 -0.17319818 0.302177 -0.07391514 -0.0555052 -0.2532475 0.51543665 0.02431905 0.032449495 0.27024934 -0.16104661 -0.106695384 0.24910806 0.09685789 -0.18399866 0.4106347 0.19288181 -0.3147036 0.32688108 -0.294259 0.20700619 -0.12893157 -0.36812574 0.7023073 -0.21505089 0.0047361185 -0.26069987 0.26644403 0.21510142 -0.07666213 0.22640052 0.26553914 -0.38403857 -0.26527378 -0.44727802 0.39073765 -0.27229792 0.46145698 0.12508593 0.24813205 0.01698546 0.06368961 -0.03863608 -0.1956744 0.24554464 -0.088585705 0.11313946 -0.11720279 0.45240057 0.13830309 0.062408216
40 0.21235263 -0.41994244 0.5282666 0.073514186 0.399928 0.24253121 -0.10974052 0.25487807 -0.18355216 0.5855885 -0.039286137 -0.41583684 -0.24176459 -0.49188545 0.69218224 0.47819307 -0.25258988 0.48537418 0.28956926 -0.0033342692 -0.29269037 -0.21934274 0.06650275 -0.107972205 -0.22614275 -0.43250987 0.43086132 0.17475699 -0.19057672 -0.1250846 -0.08858005 -0.16632248 0.116243705 0.41998506 -0.013416097 0.3196134 0.25105444 -0.46470922 0.034917068 0.042248283 0.013180664 -0.14113739 -0.26277447 0.050194424 0.0521103 -0.0074407742 -0.16427767 0.14502499 -0.010162638 0.0035150722 -0.118095845 -0.06828954 0.3167949 -0.14719303 -0.061041273 -0.26795474 0.08417883 0.41867033 0.23777099 -0.12646759 -0.16211316 0.14617367 -0.07485086 0.12540324 0.37628996 0.1788193 -0.071784735 -0.109975815 0.21532227 0.29023847 -0.121793516 0.13081968 0.14761418 -0.2740268 0.3242388 -0.15753353 -0.24109545 -0.032101993 -0.2219972 0.38459942 -0.12400846 -0.02842399 -0.30672178 0.540714 0.047381703 0.12663522 0.2759219 -0.14607769 -0.14727573 0.25583753 0.15018779 -0.23125337 0.3851665 0.12378022 -0.25971168 0.2953719 -0.35314244 0.15985745 -0.15544532 -0.3674014 0.67945176 -0.19277212 -0.022758015 -0.25711033 0.29243976 0.15337628 -0.081048064 0.16005985 0.38386005 -0.3213163 -0.3054999 -0.45351866 0.3749305 -0.2652265 0.35519215 0.13667525 0.22502445 0.092718065 -0.018801432 -0.107989065 -0.23024943 0.24315646 -0.13907932 0.14431916 -0.20879476 0.50629103 0.109557755 0.05285857
69 -0.21596614 0.054361373 -0.25438 0.53934145 0.21314995 0.17629263 -0.24891953 0.23109694 -0.117696285 0.35560828 -0.51985955 -0.07032452 -0.38086382 -0.39632055 0.14978905 0.31610715 -0.09414368 0.14716645 0.21487862 0.11316067 0.32488638 0.004745159 -0.0066076517 -0.23262048 -0.69526273 0.29573753 -0.30035308 0.091497175 0.34581226 -0.4281841 -0.183679 -0.15424304 -0.01936647 -0.06425037 -0.063101195 0.35733226 0.22914915 -0.07922733 -0.55407894 0.03379796 0.06258154 -0.29164428 0.32887757 -0.11707771 -0.29306284 0.2847117 -0.105458 0.12468279 0.14947928 -0.374781 -0.109925054 0.18234271 0.50717723 0.26981932 0.4437055 -0.05423049 0.30362108 0.28891045 -0.22080949 -0.018295009 -0.11810884 -0.08414445 0.42301467 0.2828722 0.11065759 0.049782872 0.55711263 -0.20767581 -0.21464467 -0.12935552 -0.337603 0.15875895 -0.70935154 -0.24833508 -0.23172231 -0.2744666 0.0052372343 0.46661726 -0.011199564 -0.1337358 -0.08059852 -0.014872337 0.23981994 0.4296136 0.4731263 -0.07881732 0.14086886 0.31597197 0.2403818 0.0054926435 0.18118869 0.18103811 0.020015027 0.319221 0.36413527 -0.08636425 -0.04608109 -0.009553939 0.01757225 0.12313323 0.23279043 0.25027123 -0.034561686 0.048718777 0.30138585 -0.1353866 -0.06391751 0.28338662 0.12852347 -0.22324407 0.18986759 -0.10060573 -0.10307052 -0.1836954 0.115690604 -0.22870453 0.22228208 -0.015933977 0.07911863 -0.01680919 0.086751215 -0.30294397 0.42966738 -0.39069864 0.062113415 -0.37256664 0.20760864 -0.1518673
34 0.28922802 -0.41924345 0.54358953 0.08449095 0.47869217 0.24171574 -0.119742736 0.27693024 -0.20753008 0.585685 -0.021100443 -0.38694206 -0.20404491 -0.4903351 0.7743144 0.48370573 -0.2784417 0.4807024 0.21516894 0.022695066 -0.16768564 -0.1800896 0.062156048 -0.10842149 -0.26174062 -0.3873986 0.40537128 0.1964774 -0.19431123 -0.13281848 -0.12090854 -0.16409793 0.08599636 0.43038094 -0.017994795 0.36828873 0.24376278 -0.5229566 0.031188 0.07692502 -0.028467635 -0.099263 -0.24246047 0.056281105 0.019066086 -0.027096251 -0.17668062 0.19898388 -0.04043407 -0.008718259 -0.16256918 -0.022790441 0.35039514 -0.13018075 -0.05218797 -0.30679187 0.12870508 0.46681702 0.19020107 -0.18595949 -0.14938557 -0.010410972 -0.16671093 0.14762908 0.50822955 0.13878345 -0.023271205 -0.16300142 0.11822032 0.27510542 -0.1709544 0.05877965 0.12838325 -0.26764598 0.33022976 -0.20453632 -0.23815331 0.008780261 -0.25800526 0.48418835 -0.16310921 -0.018936079 -0.26640835 0.6396226 0.06107628 0.16096939 0.3238767 -0.11885216 -0.057828356 0.32692385 0.11899554 -0.27129978 0.40271947 0.14028405 -0.21394743 0.26628953 -0.38809457 0.15659805 -0.14508528 -0.41792163 0.71866477 -0.15024799 -0.0884456 -0.24232559 0.28778434 0.11391321 -0.045083977 0.21764664 0.44443092 -0.33359334 -0.35618803 -0.4508339 0.386641 -0.35059556 0.3307716 0.20294617 0.14314872 0.11677727 -0.039086793 -0.22936362 -0.2196655 0.22151105 -0.13258152 0.21389177 -0.24940076 0.5474035 0.06338224 0.121403806
103 -0.12084278 -0.41279018 -0.34212258 0.48915064 -0.2921882 0.18803176 -0.17676678 0.11608082 -0.054267842 0.3161134 -0.57302743 0.13262431 -0.16882436 -0.21542501 0.49792987 0.7582437 0.18223372 -0.023893442 0.09247218 0.012886197 0.13237473 0.2162797 -0.41785353 -0.21333261 -0.6110691 0.39354524 -0.20161359 -0.00025047438 -0.21088272 0.01393647 -0.22883299 -0.2460651 -0.17865719 0.043684036 -0.095625505 0.3199535 -0.07046378 0.17172256 -0.2781839 -0.31681663 -0.18092814 0.1251973 0.08321389 -0.014817918 -0.062148795 -0.04249991 0.06854436 0.31684938 -0.026830208 -0.17764212 0.12142568 -0.30779076 0.47025183 0.47452557 0.39664748 -0.17405534 0.23587874 0.3242038 -0.39095238 -0.11997304 -0.34481207 -0.04506781 0.31069326 -0.12247117 0.48127905 -0.055728607 0.035550006 -0.24678488 -0.45045978 0.02431085 -0.30681303 -0.118805 -0.16716975 -0.11311758 -0.31711587 0.12688124 -0.2501257 0.5980089 -0.04065287 0.24371049 -0.34677604 0.10575877 0.2866341 0.5594925 0.3304045 0.1784359 0.019933112 0.060129236 0.2915175 0.16618428 0.18618935 -0.23526871 0.112558074 0.07454681 0.23362295 0.42174214 -0.039404366 0.12520859 0.21764481 -0.23255174 0.041299313 0.17598887 0.14641899 0.3148771 0.20193395 -0.20814298 0.11464624 0.50108695 0.0030091547 -0.46369302 0.04272238 -0.30482882 -0.06304723 -0.09397512 0.09289953 -0.13882992 -0.10957993 -0.16685775 0.1365026 -0.21557234 0.02776233 -0.34172788 -0.03184862 -0.18236016 0.059015512 0.015176864 -0.02976607 0.04278014
113 -0.38230854 -0.51487106 0.20567837 0.52883947 -0.07293661 0.0837324 -0.04582535 0.028505601 -0.149962 -0.033407036 -0.2825147 -0.21377759 -0.41110468 -0.37136427 0.07009415 0.44660562 -0.17295913 0.23414952 0.50716925 -0.20432866 -0.43115312 0.072371036 -0.22121249 -0.1757906 -0.2869014 -0.21543837 0.036981896 0.31711555 -0.0075550876 -0.30677 -0.14669295 -0.18393646 0.5395461 0.6750476 0.215321 0.19653611 0.31633615 0.02868715 0.07071246 -0.13634485 0.28377476 0.07217797 -0.099892035 -0.106588736 0.027439585 -0.024042064 -0.052326422 0.10272134 -0.09426108 -0.0337022 0.5052078 -0.351097 0.291496 0.26526222 0.22375242 -0.030729527 -0.14352147 -0.1276164 0.18906306 0.32779366 -0.053457938 0.8137733 0.712386 0.2455494 -0.27940795 0.43863732 -0.096369825 0.16389485 0.2747952 0.11994698 -0.11031086 0.15795298 -0.22917163 -0.27330792 0.056468252 0.22666469 -0.38621518 -0.036907464 0.023084633 0.1300347 -0.10989214 -0.36290148 -0.17543788 0.44720986 0.3742808 -0.05004539 -0.027282665 -0.10133989 -0.23338811 -0.09893966 0.13905323 0.16644345 0.28046188 0.13651387 -0.08844759 0.18511614 -0.4581939 0.18310331 -0.5212974 -0.029493982 0.1334245 -0.14953423 0.15619622 0.0023313675 0.2521565 -0.16302362 -0.09030437 0.040631086 0.3472671 0.061959065 0.10193385 -0.82316023 0.11423554 0.01616587 -0.2672491 -0.5536736 0.5189009 0.22257075 0.030591583 -0.098333955 -0.42837384 -0.024059437 -0.17911966 -0.029488634 -0.31512418 0.11931421 0.40807068 -0.32019618
116 -0.29466817 -0.6109434 0.35194606 0.52221256 -0.049145535 0.016627457 -0.036294434 -0.049932614 -0.17025593 0.006728847 -0.16605851 -0.17170972 -0.34055814 -0.33510545 0.15155223 0.49619222 -0.14674236 0.19079763 0.48374933 -0.15492019 -0.36475718 0.09952765 -0.251981 -0.08158027 -0.34714252 -0.12237593 -0.0482313 0.38175663 -0.032368686 -0.25011444 -0.15520297 -0.1385518 0.5104334 0.73950475 0.27425402 0.2164152 0.36452952 0.04845854 0.14377248 -0.02598565 0.23885901 0.18676664 -0.097228855 -0.074571535 0.02986477 -0.116799384 -0.031995744 0.13019767 -0.12510508 -0.07641279 0.54166144 -0.43464664 0.2812949 0.32849842 0.24262531 -0.07005194 -0.2170495 -0.09453487 0.09154818 0.34750223 -0.031189302 0.7523529 0.67717004 0.22312653 -0.13627912 0.3346283 -0.17520143 0.0490583 0.24837218 0.12127019 -0.06560044 0.04494509 -0.14852168 -0.34707594 0.104319595 0.22541407 -0.42167035 -0.027855288 -0.0047060535 0.2841772 -0.21055424 -0.3909064 -0.19501221 0.52990717 0.347371 -0.017173056 -0.058804363 -0.15634134 -0.2685999 -0.0053332057 0.08916138 0.17438215 0.3184134 0.11663899 -0.014607324 0.20116442 -0.5611231 0.1443764 -0.5474128 -0.027167615 0.11203503 -0.19181451 0.1870033 0.0005578514 0.18655892 -0.16842972 -0.04949986 0.09315041 0.48785797 0.089274175 0.027683726 -0.97660065 0.17043121 -0.03241994 -0.36286458 -0.45262283 0.4599458 0.27422675 -0.006037147 -0.16781206 -0.4232401 -0.040091727 -0.2659525 0.0865741 -0.39960277 0.14070517 0.32383192 -0.32120606
48 -0.20965455 -0.041685928 -0.21524526 0.5443344 0.20793132 0.1795864 -0.25904506 0.19744553 -0.1428064 0.34321934 -0.4890513 0.023013389 -0.38452175 -0.45101726 0.2634184 0.38942185 -0.07168067 0.156952 0.3335877 0.06323919 0.36113402 0.060730316 -0.02738111 -0.21381198 -0.7711301 0.30547765 -0.25852782 0.04506372 0.36338055 -0.50031906 -0.17639638 -0.22556828 0.008480807 -0.011341733 -0.09168763 0.38192597 0.2432762 -0.070093125 -0.5696577 -0.00960709 -0.0010771654 -0.25592768 0.31766963 -0.06492961 -0.3365443 0.24265492 -0.061032638 0.13293795 0.107479885 -0.40742606 -0.17330244 0.17185885 0.5533378 0.28710395 0.4681439 -0.011431758 0.25415465 0.31316185 -0.21117659 -0.067811616 -0.13538933 -0.08133609 0.47798586 0.314846 0.1086568 0.082865655 0.59377754 -0.28491634 -0.18645258 -0.13842604 -0.2758285 0.18631859 -0.7127984 -0.2943562 -0.3196689 -0.22767 -0.010945827 0.53664774 -0.013637818 -0.12609765 -0.05174073 0.020510785 0.24870759 0.50175565 0.45350155 -0.09966897 0.20073093 0.24056806 0.22289707 0.08702401 0.09955898 0.121341206 -0.02210614 0.321742 0.42010748 -0.116695814 -0.019434735 0.0020557044 0.03400504 0.11100397 0.24941567 0.24392965 0.0026041742 -0.06333812 0.27296445 -0.025776144 -0.006699215 0.37254372 0.109331146 -0.265438 0.19671479 -0.11423291 -0.12924536 -0.2387965 0.14668794 -0.2423058 0.25851896 -0.04162286 0.042630393 -0.051470164 0.0071105966 -0.38574684 0.40132928 -0.4132518 0.015830869 -0.37642103 0.05125025 -0.13495655
110 -0.33791584 -0.5354225 0.28339905 0.52820766 -0.04748309 0.053934816 -0.065242864 -0.0028802902 -0.16894636 -0.09941315 -0.24838163 -0.20027496 -0.3429785 -0.35033274 0.07746012 0.43504772 -0.1852225 0.24908194 0.4863461 -0.24313523 -0.3836827 0.12916493 -0.19148783 -0.09494198 -0.23430045 -0.18161564 0.03293231 0.33470595 -0.048444137 -0.2578849 -0.1979453 -0.19508183 0.5110821 0.6346049 0.22461513 0.23711492 0.3065022 0.05208311 0.10822324 -0.1260923 0.24600224 0.10976229 -0.09036181 -0.09565298 -0.0033159014 -0.0042102803 0.0074470844 0.07725977 -0.15275659 -0.036245137 0.48638952 -0.37427136 0.25667346 0.29902595 0.22554113 -0.04129707 -0.19081177 -0.12398586 0.109360985 0.30236512 -0.02140427 0.7336961 0.71689457 0.2175409 -0.2472109 0.42502752 -0.12627132 0.097882435 0.24453358 0.15889627 -0.062070496 0.10571838 -0.18097174 -0.28605828 0.07736226 0.24317561 -0.443731 -0.01832249 0.053275354 0.14119893 -0.11135637 -0.36367908 -0.12839451 0.4645081 0.35547993 -0.040593628 -0.04766081 -0.14652374 -0.23413187 -0.0649667 0.049327917 0.20872809 0.31317878 0.17540142 -0.100990176 0.15782547 -0.4912291 0.18337962 -0.5288922 -0.08972234 0.10319759 -0.17082024 0.15839434 -0.019830117 0.19181721 -0.1629929 -0.08694089 0.07749305 0.38754472 0.058349676 0.09682921 -0.89014727 0.12129997 -0.020993838 -0.31541234 -0.51694447 0.45221406 0.2072826 0.057562307 -0.09902368 -0.39213485 -0.03544774 -0.19316767 0.1012867 -0.31605566 0.07941567 0.31126356 -0.30152658
85 -0.021000734 -0.3983815 0.1977248 0.056660887 -0.17050944 0.30916384 -0.26021352 0.17381382 -0.053526286 -0.15026739 -0.31646484 0.057733394 -0.36736655 -0.3453838 0.4562435 0.43301216 0.0029723537 0.37558278 0.3228158 -0.22570789 -0.2930061 0.32068264 -0.12548603 -0.4680304 -0.15248725 -0.3674867 0.551466 -0.036119703 0.022530315 -0.49663806 0.10366672 -0.42931765 0.19620389 0.689107 -0.045450035 -0.078589566 0.14091401 -0.14923584 -0.09110487 -0.5611361 0.044480365 -0.31190673 -0.28538436 -0.11200276 0.29763606 0.030586962 -0.27081767 -0.061974395 -0.0052323914 0.28472716 0.21834858 0.15854685 0.26326987 -0.1659937 -0.37137547 0.44416353 0.6042467 -0.14363243 0.5029554 -0.17778176 -0.033858657 0.45697317 0.2531876 0.13277021 0.02249449 0.318818 0.014074072 0.37152925 0.09729509 -0.1888798 -0.13338427 0.2337372 -0.54782087 0.054736458 -0.12767804 0.26492918 -0.23214221 0.2503021 0.09248518 0.34344822 0.06303116 -0.14538357 0.018282348 0.5630202 0.25287637 0.37057495 0.36095184 0.05800266 0.1348501 0.08723695 0.19428249 -0.56883264 0.34021646 -0.13562718 -0.024094094 0.4469804 -0.2083497 0.12719469 -0.23347065 -0.19961897 0.056165457 0.18496644 0.024615016 0.15186386 0.4004955 -0.08305287 0.04236421 -0.17654483 -0.17594834 -0.12230068 -0.07421884 -0.13377771 0.11577011 0.12190424 0.06837263 -0.45607796 0.36900362 0.23746245 0.118178666 -0.5187937 -0.50150585 -0.13108055 -0.241561 -0.22496551 -0.29760563 0.42417938 0.12562104 0.13470687
90 0.24512063 -0.4916359 0.36603025 0.029548444 -0.07432434 0.24312699 -0.21521269 0.08978102 -0.13739453 0.01887421 -0.13272192 0.14215612 -0.23579974 -0.3051637 0.6622723 0.51998335 0.0046773995 0.3600315 0.19125114 -0.05783901 -0.026177377 0.36141253 -0.1500562 -0.4214234 -0.35246608 -0.20550466 0.45058376 0.037620515 0.059326924 -0.45874724 0.049508564 -0.27957535 0.0895476 0.7534241 -0.031112732 -0.042393643 0.23383825 -0.13190688 -0.04087806 -0.3297706 0.0028046235 -0.1783096 -0.25482422 0.056626406 0.23050556 -0.07804337 -0.2763267 0.043237343 -0.084975906 0.17608269 0.16105358 0.1483421 0.4133525 -0.057735614 -0.35356116 0.41341442 0.6118767 -0.040224735 0.3556452 -0.21234094 -0.045455433 0.1495815 0.06199249 0.17766473 0.4237401 0.03077776 0.05177448 0.17910947 -0.08673211 -0.2574126 -0.11846019 0.05862118 -0.44131595 -0.005493092 -0.111523926 0.26061267 -0.1989093 0.28420645 0.009304424 0.6290163 -0.048880324 -0.24301668 -0.041187864 0.7751164 0.25724253 0.4488881 0.4066747 -0.0136304125 0.2648851 0.24588038 0.065205775 -0.6312446 0.3320375 -0.15174212 0.18785536 0.42519197 -0.34523296 0.044627097 -0.15857434 -0.17626049 0.011220112 0.17363344 0.0071043163 0.12694731 0.30142745 -0.12058251 0.23533985 -0.07667213 -0.018563876 -0.06722459 -0.24541332 -0.27293608 0.20846102 -0.006341172 0.020946516 -0.19476618 0.24278368 0.42424464 0.043437783 -0.7151481 -0.4025097 -0.19422263 -0.2695299 -0.14182025 -0.46679863 0.4607843 -0.00023178101 0.15061073
38 0.29684392 -0.39890635 0.5394508 0.036803927 0.43538415 0.18797289 -0.087243624 0.20941567 -0.18543649 0.48327124 0.029136712 -0.30506107 -0.21098211 -0.43585932 0.70855737 0.4158847 -0.18880853 0.42240995 0.22239292 0.011433874 -0.13750961 -0.10728022 0.085828334 -0.13208619 -0.26620045 -0.34718972 0.35686377 0.15581939 -0.12136323 -0.19063705 -0.060092263 -0.1420355 0.10380186 0.45056623 -0.0045199557 0.27786982 0.25149497 -0.45807177 -0.020021196 0.074559756 0.024142263 -0.11850567 -0.20060089 0.03765281 0.038900863 -0.0519046 -0.2209977 0.127894 -0.025805293 -0.013382041 -0.17137226 0.015274875 0.30523095 -0.15948358 -0.09687075 -0.19791625 0.14091106 0.3734164 0.19562533 -0.16073032 -0.1285848 -0.033333007 -0.15543967 0.14803495 0.4542366 0.12504812 -0.0032577442 -0.17586607 0.11839056 0.2123421 -0.14081977 0.061060503 0.03217365 -0.25107455 0.26819527 -0.16591358 -0.17463967 0.026093408 -0.2107254 0.44440395 -0.13496372 -0.046625182 -0.2455288 0.5745775 0.06510276 0.10953485 0.28819802 -0.07063479 -0.067189835 0.33909693 0.076810196 -0.26181886 0.3490219 0.13001841 -0.14979494 0.20100832 -0.3499115 0.08701892 -0.12878801 -0.30318475 0.60440654 -0.14273164 -0.07100068 -0.245979 0.24228908 0.11727233 -0.004977868 0.14966324 0.3575993 -0.25930014 -0.3361976 -0.36147344 0.36253718 -0.28654835 0.28420624 0.14925455 0.17157029 0.14175308 -0.034188397 -0.23565379 -0.25111285 0.1479937 -0.1211498 0.15559295 -0.24968973 0.49172044 0.03819946 0.12282414
91 0.11850479 -0.36651662 0.2535949 0.011239086 -0.07260009 0.29964653 -0.2523513 0.17368253 -0.08747644 -0.04998901 -0.24365549 0.09404145 -0.32951808 -0.33318087 0.5314046 0.43732584 -0.040894605 0.38249022 0.22476257 -0.13452987 -0.14782698 0.3054164 -0.117741555 -0.47536415 -0.1999162 -0.32302514 0.5489457 -0.008269741 0.06172951 -0.50357157 0.12657435 -0.34752002 0.14563675 0.6802528 -0.056252826 -0.07777583 0.16007008 -0.20272726 -0.09663214 -0.45345235 0.016529916 -0.30063733 -0.28274992 -0.038541436 0.26494128 0.010161116 -0.32771578 -0.0047163633 -0.03948191 0.26967314 0.12948033 0.26567087 0.33892173 -0.17358832 -0.40744463 0.44826448 0.6598141 -0.09466501 0.48347446 -0.19994211 -0.043115932 0.28213313 0.10800863 0.2062655 0.18004653 0.20550525 0.08690089 0.32258412 -0.020911915 -0.22536682 -0.14023158 0.18923202 -0.52776 0.08165814 -0.14135441 0.19789585 -0.18224546 0.23242424 0.04981997 0.4339534 0.062221773 -0.16991073 -0.03252863 0.6404112 0.2579218 0.42102927 0.41462708 0.07618174 0.21427573 0.1412029 0.16407257 -0.60192627 0.32249385 -0.1661769 0.080129094 0.39499468 -0.21204135 0.08134517 -0.18810105 -0.18983644 0.08184791 0.2116797 -0.028088277 0.133333 0.39239952 -0.10791841 0.123665646 -0.16924678 -0.13650887 -0.073459126 -0.12854753 -0.092706576 0.14180182 0.03358262 0.10156701 -0.32754776 0.28693065 0.30323482 0.050064623 -0.61986864 -0.4177293 -0.13472368 -0.18152896 -0.22212474 -0.37796274 0.43114662 0.093902096 0.16212101
10 -0.22840893 -0.33304644 0.21985242 0.15060982 -0.07653538 0.33892044 -0.274795 0.24481384 -0.060606085 -0.13917822 -0.36670497 -0.2190522 -0.38475037 -0.43541685 0.29429957 0.32100785 -0.12445968 0.47143888 0.4474262 -0.30502927 -0.43659955 0.1652628 -0.036532354 -0.30838007 -0.057050396 -0.48975202 0.5995134 0.052237675 -0.040352326 -0.49592426 -0.04020228 -0.5044753 0.29586056 0.59222335 -0.05344056 0.10498071 0.20429373 -0.20500071 -0.050402332 -0.54591596 0.123827614 -0.35196313 -0.30206463 -0.18773879 0.22756833 0.15577877 -0.13639301 -0.100743406 -0.017647438 0.27699366 0.22878811 0.06077291 0.2258425 -0.11125389 -0.28016454 0.20600727 0.37760526 -0.08007025 0.44583175 -0.113162376 -0.031743668 0.61407965 0.46117038 0.15646647 -0.16874503 0.51853675 0.008771007 0.36015153 0.23793346 -0.0238678 -0.10358993 0.35851052 -0.43415713 -0.020998582 -0.005944979 0.20933066 -0.3170879 0.11020882 0.10565193 0.13820983 0.07007678 -0.15480189 -0.03830863 0.43866342 0.2624352 0.2435789 0.27700365 -0.048024595 -0.016828349 -0.055964947 0.17394333 -0.28943673 0.34498787 0.043250218 -0.23462167 0.43395013 -0.27435902 0.23904334 -0.34036732 -0.24740122 0.23727413 0.064419 0.0841092 0.04225226 0.4321792 -0.09235509 -0.09980102 -0.13903148 -0.046744667 -0.16343954 -0.017630069 -0.27707765 0.12526943 0.06545307 0.12287268 -0.4854644 0.43738735 0.13636756 0.12696835 -0.2374364 -0.4820802 -0.021647038 -0.13634673 -0.17352779 -0.14395353 0.31916913 0.24340035 0.036796197
81 -0.3016563 -0.25319213 0.2309041 0.30190778 -0.11126918 0.39861646 -0.40356517 0.2559311 -0.013833632 -0.06358143 -0.58582836 -0.4569733 -0.35094786 -0.5325071 0.22092658 0.38023674 -0.28717172 0.5548623 0.52929646 -0.34947544 -0.4377845 0.1494955 0.06163131 -0.17238648 -0.041116595 -0.44152227 0.679411 0.09511345 -0.11991489 -0.45643592 -0.2556919 -0.608084 0.2521566 0.4049494 -0.09028229 0.31798872 0.21245365 -0.11822757 -0.060812145 -0.5595399 0.04231974 -0.40286157 -0.3099623 -0.22329383 0.1554823 0.35848978 0.08443287 -0.21100424 -0.039344214 0.23923403 0.188882 0.040584054 0.23723796 -0.010378391 -0.2353989 0.03477206 0.28195125 -0.018134965 0.28896618 -0.21945575 -0.03413097 0.5838902 0.67709625 0.10680102 -0.17686558 0.56388485 0.050655793 0.294506 0.28442234 0.08417701 -0.033900388 0.45459977 -0.36299226 0.008666604 0.027371652 0.25847226 -0.47978154 0.10726467 0.17283504 -0.008075246 0.12929885 -0.18351617 0.03426814 0.36373556 0.23902042 0.19618486 0.20615281 -0.2062458 -0.037923355 -0.1800453 0.085649945 -0.08744672 0.40877372 0.13875113 -0.31785014 0.5591063 -0.34679022 0.32627046 -0.31246427 -0.40550715 0.3086452 0.071047045 0.18423487 0.005547016 0.39403498 -0.093252204 -0.13280429 -0.074680276 0.017708765 -0.2831603 0.021666465 -0.4025886 0.13325311 0.03144639 0.216637 -0.38060686 0.38785446 0.010520758 0.18310086 0.023006933 -0.3464338 0.027117802 -0.046095908 -0.06295102 0.02145318 0.12517181 0.207688 -0.027114704
102 -0.10152949 -0.3071018 -0.3813324 0.4678269 -0.24913187 0.17922184 -0.14710076 0.13605067 -0.037512768 0.34306756 -0.55806273 0.13108148 -0.17044288 -0.20761365 0.45571837 0.687057 0.12728207 -0.050699174 0.14403073 -0.015472864 0.16735156 0.20007451 -0.33106506 -0.24844374 -0.6293837 0.37729695 -0.13928998 -0.0400168 -0.13625064 -0.067558385 -0.23528376 -0.263587 -0.16000555 0.021414751 -0.09292184 0.30400527 -0.06652036 0.1736887 -0.3195793 -0.31313726 -0.14646319 0.10684253 0.08336022 -0.026666086 -0.14710775 -0.030103784 -0.0014584854 0.30402434 0.021180417 -0.19617568 -0.015185561 -0.18704154 0.48741275 0.44683206 0.4097468 -0.14320779 0.18357508 0.378508 -0.36979723 -0.19876689 -0.3609098 -0.11748319 0.2917242 -0.044358194 0.4627765 -0.038935088 0.16486399 -0.28201026 -0.4460535 -0.006780789 -0.3121832 -0.062025107 -0.1780767 -0.104994014 -0.3438415 0.1559575 -0.17313342 0.58432186 -0.04542469 0.1955867 -0.28380778 0.10865012 0.26424396 0.5556402 0.32896927 0.10034076 0.049981438 0.09523577 0.24467002 0.23954785 0.116564594 -0.22265704 0.09457472 0.109220915 0.2691714 0.3606862 -0.034675594 0.100085415 0.2993793 -0.19596025 0.084750116 0.1709194 0.16196725 0.18375136 0.21442008 -0.15429538 0.19106655 0.51349616 -0.03119154 -0.4114149 0.029126147 -0.16654754 -0.10564714 -0.15422869 0.16400026 -0.050150122 -0.077908084 -0.19578458 0.15224804 -0.1588591 0.017069403 -0.35783568 0.07553798 -0.2593553 0.08347324 -0.061085418 -0.09200086 0.022627307
68 -0.21131909 0.11143596 -0.27492055 0.5963172 0.24063358 0.19814111 -0.258902 0.18986624 -0.079360805 0.39436287 -0.6452458 -0.1620997 -0.4598924 -0.4461577 0.13513812 0.31139544 -0.14607139 0.16159786 0.25287777 0.13740881 0.35584605 -0.03236646 0.0038901863 -0.26135737 -0.7388897 0.28126588 -0.30897453 0.08036044 0.34047174 -0.47770044 -0.10126655 -0.19957513 0.0030273532 -0.06828437 -0.07475558 0.3167493 0.2453115 -0.092064984 -0.57963103 0.10564817 0.021666374 -0.4002577 0.35711426 -0.1450644 -0.30594864 0.29758665 -0.121894814 0.15416695 0.23554023 -0.36219394 -0.12119011 0.21747966 0.53238785 0.2357268 0.38037094 -0.042423308 0.35922018 0.23470825 -0.23158579 -0.017102016 -0.08565898 -0.004171065 0.5254809 0.33523017 0.15056837 0.09915056 0.6500636 -0.14548424 -0.15061314 -0.13282593 -0.4137842 0.24613133 -0.71445197 -0.2506748 -0.27864996 -0.31088838 -0.03120432 0.52852553 0.04555608 -0.16291231 -0.061314356 -0.0055294205 0.22082317 0.45033932 0.51744545 -0.08178588 0.1659293 0.37873885 0.2584927 -0.07088979 0.2959495 0.21701086 0.041859765 0.29139623 0.29587343 -0.03998114 -0.057890657 0.0017305068 0.033134624 0.12358648 0.3076118 0.28346786 -0.05014448 0.10656618 0.32696053 -0.190978 -0.15645424 0.24530266 0.17392087 -0.21958879 0.22273445 -0.12317611 -0.11739772 -0.19879465 0.1251472 -0.26963663 0.30388302 -0.0108137345 0.102112554 -0.066501476 0.0874523 -0.25189158 0.4859043 -0.46100208 0.043658186 -0.39418125 0.31953898 -0.15552148
118 0.0005219298 -0.6680859 -0.075890236 0.36126348 -0.21919964 0.17988226 -0.15846142 0.074924074 -0.10403822 0.25196287 -0.33617204 0.2308504 -0.07189317 -0.18103307 0.6613396 0.7830415 0.25840557 -0.008946706 0.061879497 0.009563723 0.07810237 0.25762224 -0.44962278 -0.10974434 -0.5327578 0.3331392 -0.15401404 0.029278722 -0.26372543 0.043232866 -0.18902071 -0.24881035 -0.15243645 0.20365252 -0.057397578 0.3303837 -0.017833274 0.06289568 -0.10004925 -0.2769482 -0.2473274 0.21710128 0.02399021 0.0745891 0.059405167 -0.118809216 0.09878983 0.36023238 -0.11914756 -0.12414007 0.19338898 -0.3791733 0.42971498 0.41576147 0.3321641 -0.13532971 0.24583937 0.32563716 -0.291462 -0.09636979 -0.30610776 -0.029542377 0.19246884 -0.106036685 0.59034485 -0.126613 -0.13494243 -0.26530427 -0.41325757 0.021911385 -0.18589479 -0.22455758 -0.06030045 -0.18735167 -0.222339 0.105282925 -0.3235718 0.525503 -0.13568297 0.49571893 -0.400861 0.094058 0.2513358 0.65971196 0.22900543 0.31090695 0.08461126 -0.07095799 0.30353424 0.25559396 0.11174371 -0.37553507 0.15960583 0.038656358 0.2346355 0.43001246 -0.12109434 0.16051762 0.06843955 -0.30291718 0.052842297 0.10413218 0.082258746 0.2744618 0.122191936 -0.13570827 0.10354628 0.5750269 0.08807554 -0.44123465 -0.06612341 -0.48792145 0.020705609 -0.096749336 -0.013344975 -0.115080036 -0.17281482 -0.07141424 0.07740948 -0.3689901 -0.05521984 -0.34049827 -0.29611853 -0.015185209 -0.09249991 0.22141577 -0.13064265 0.073502176
84 0.21387973 -0.50451094 0.38746887 0.05251481 -0.035122328 0.15581259 -0.1383392 0.015337682 -0.12674874 0.08379812 0.021397343 0.1983683 -0.18242006 -0.25426862 0.6164289 0.49184862 -0.030417645 0.26378566 0.15577754 -0.01154756 0.01860509 0.32102925 -0.23827197 -0.29072672 -0.3796426 -0.13608024 0.33607683 0.121605925 0.0742398 -0.42426217 0.06301317 -0.16551855 0.13630398 0.7106895 0.028310657 0.00080705463 0.27099794 -0.09010774 0.0059501263 -0.1950485 -0.023350438 -0.02268737 -0.25215742 0.11758528 0.19002274 -0.14813681 -0.18711288 0.15219502 -0.12228468 0.12616493 0.13798143 0.1034129 0.41144073 0.047856513 -0.22981149 0.36559904 0.4229279 -0.019177884 0.25170726 -0.10779415 -0.044385683 0.14312112 0.10290696 0.21295732 0.41992298 -0.025786726 0.0404468 0.11377233 -0.15425828 -0.21659093 -0.022939162 -0.008805732 -0.29015353 -0.028494759 -0.14648515 0.23860306 -0.16609603 0.13504595 -0.033787277 0.5983329 -0.097052336 -0.24562402 -0.14218178 0.6991514 0.20586501 0.42049432 0.361562 -0.07300054 0.1768343 0.25602564 0.04085138 -0.54208946 0.26786396 -0.1921034 0.2560688 0.3553219 -0.2981663 0.027252316 -0.1671842 -0.110366344 -0.0073164855 0.104375094 0.05096039 0.058975134 0.25670364 -0.079890236 0.28607485 -0.04667924 0.079750195 -0.0034366949 -0.19760366 -0.327556 0.17769398 -0.06693888 -0.034507763 -0.15824214 0.18661526 0.42037585 -0.09871628 -0.662015 -0.3467843 -0.2017106 -0.28615314 -0.12705249 -0.52226865 0.39279673 -0.026730774 0.06577673
50 -0.13099423 -0.1027351 -0.23397696 0.4924567 0.11942877 0.14881304 -0.18772301 0.1592814 -0.10204113 0.33833545 -0.4312138 0.08463875 -0.32923156 -0.40086138 0.3181003 0.47139272 -0.04384457 0.09133334 0.301889 0.014871966 0.28542507 0.13987851 -0.053391922 -0.26680422 -0.72653544 0.31169412 -0.21321137 0.025041014 0.3216423 -0.46298957 -0.19976464 -0.21471335 -0.004421459 0.03739086 -0.1030963 0.37300843 0.20619544 -0.0010199102 -0.5381888 -0.123742975 0.027314568 -0.16499817 0.2789693 -0.044352572 -0.2775946 0.18510745 -0.12062678 0.14163396 0.10432085 -0.34958467 -0.15848641 0.14284146 0.5706744 0.32352346 0.46011046 0.022541346 0.2506708 0.34138215 -0.2363511 -0.13772197 -0.22773513 -0.14633852 0.4461359 0.23893087 0.15591128 0.057903837 0.54370064 -0.31340897 -0.2654082 -0.12911047 -0.2424616 0.15814722 -0.66219795 -0.24255061 -0.33642736 -0.13380778 0.0035344216 0.5085567 -0.04393182 -0.0319773 -0.058363225 -0.0022125181 0.2364163 0.51182616 0.4424188 -0.11086893 0.18519108 0.19676387 0.21750553 0.21818669 0.012217374 0.023065351 0.03875107 0.2752488 0.47211123 -0.053955182 -0.022436718 -0.012290755 0.11188084 0.05720975 0.19871616 0.18163805 0.032779325 -0.064786986 0.26699814 -0.0027845155 0.11932655 0.4227369 0.022925839 -0.24545266 0.13262029 -0.07870988 -0.10626907 -0.24560823 0.15650418 -0.19904342 0.21994504 -0.07056231 0.052667126 -0.056358054 -0.012675861 -0.39945284 0.31633228 -0.43122077 0.022750482 -0.3554668 -0.002783162 -0.1320699
109 0.1542715 -0.6179132 0.5048773 0.33852813 0.14372453 -0.034651037 -0.005793663 -0.057842344 -0.19374195 0.14122248 0.1384424 0.04717213 -0.1791514 -0.23524162 0.45635885 0.492881 -0.12136424 0.11835785 0.23640637 -0.023885991 -0.022007508 0.20929861 -0.30499312 -0.08886186 -0.42074358 0.0017733129 -0.10464186 0.3677763 -0.013550462 -0.19357142 -0.049842604 -0.011353359 0.275554 0.6882266 0.30435812 0.16750897 0.3296765 -0.07336076 0.11833286 0.16469873 0.08273186 0.29550222 -0.088893294 0.07561648 -0.010862945 -0.27434513 -0.16629335 0.29360005 -0.151153 -0.059350654 0.298482 -0.19534692 0.3379059 0.28570697 0.13671441 0.017338809 -0.028732609 0.055908795 -0.023749676 0.18374632 -0.03288029 0.20346065 0.2428739 0.25948918 0.3845945 -0.040670816 -0.044250086 -0.10328319 -0.106585205 -0.018478323 -0.09103546 -0.21904047 -0.07799538 -0.2537149 0.022723459 0.06316084 -0.2622363 -0.01875739 -0.15791169 0.5402664 -0.30129644 -0.34665838 -0.19676286 0.7134025 0.2391122 0.2110023 0.09693436 -0.09303375 -0.09400018 0.23181242 0.03002312 -0.07461041 0.27815318 0.038936537 0.21688676 0.08169337 -0.5082617 -0.044877134 -0.36132672 -0.06461029 0.08770491 -0.17511165 0.03694444 0.029172258 0.16507612 -0.20235433 0.1869655 0.13610686 0.5175743 0.1141374 -0.10546758 -0.7733147 0.20771642 -0.18366076 -0.3254013 -0.088782065 0.1887737 0.3798348 -0.086079925 -0.471154 -0.2746912 -0.108432814 -0.2897289 0.14000578 -0.55737656 0.22615214 0.1329748 -0.13553937
