123 128
18 0.34137136 -0.3653038 -0.004244887 0.76125216 0.282305 -0.051696733 0.20664987 0.7487438 -0.41240177 0.10340652 -0.06783967 -0.5633352 -0.4197143 0.17840452 -0.012744542 -0.18534707 0.26592416 0.32037085 -0.54295325 -0.008216875 0.0049397075 0.28619558 0.12326949 0.02922923 0.03462408 0.0046659885 -0.318209 0.2978543 0.15023814 -0.5224215 -0.12365983 0.041328598 0.2565307 -0.12229749 -0.28165093 -0.022866026 0.36957255 -0.45158032 0.022119865 0.33484298 -0.5044201 -0.058653403 -0.0016080869 0.028605837 -0.07653092 0.18368235 -0.47001565 0.41175234 -0.034468446 0.4985721 -0.25352114 0.21024942 0.34486696 -0.36691535 -0.39940956 0.07426398 0.16081113 -0.3118364 0.10149817 -0.04417966 0.40296534 -0.050064936 0.092457265 0.3731594 0.24816984 -0.25538248 -0.0770251 0.16831623 -0.20271698 -0.18128863 -0.1836906 0.013230431 -0.37693363 -0.04955134 0.29856777 -0.09319211 -0.2473969 0.32105565 -0.10065371 0.075933196 -0.12295369 -0.417091 0.26250952 0.2722531 -0.039290708 0.17979847 0.33624193 -0.22695567 0.38169786 0.049842395 0.4387577 -0.06772005 0.016370494 0.15505373 -0.018873105 0.23153703 -0.17295979 -0.40559828 -0.06872393 0.0037541608 0.13303049 -0.19162066 -0.10977347 0.15262896 -0.19506319 -0.19833632 -0.024292618 0.30645168 0.02598685 0.04182174 0.12081977 -0.6031884 0.14178821 -0.009709735 -0.42959598 -0.15549254 0.11301615 0.29903576 0.079972394 -0.43844315 0.10388627 -0.106444746 -0.13944931 0.3629882 -0.09904977 0.43017933 0.04262709 0.30367824
90 0.008875447 -0.13083789 -0.07058428 0.1108912 0.13860936 -0.43698287 0.25696066 0.2952776 -0.087020226 -0.16309983 0.26261923 0.13509579 0.06420966 0.076764636 -0.035764087 0.24203394 -0.4281421 0.04553538 -0.028945154 0.0015691296 -0.018927744 -0.13901278 0.056306638 -0.04911996 0.056125764 0.07831787 -0.28246883 -0.045739748 -0.06436903 0.03140147 0.24182616 0.07758866 0.3977096 0.30908284 -0.45411134 0.13227446 0.36051944 -0.15100293 -0.042527203 0.032324053 0.05750944 0.38730904 0.35402426 0.035009 0.21311063 0.21381657 -0.11169361 -0.09034138 0.04176415 0.089988954 0.27421778 0.13173878 -0.12082264 -0.02111995 -0.2174567 -0.35010448 0.313125 -0.09029564 -0.11107576 -0.020250564 -0.280939 -0.40887955 -0.2708125 -0.15217234 0.06758229 -0.07175369 0.15167108 -0.027667573 -0.087803885 -0.06322458 -0.07387582 -0.23438688 -0.38416365 -0.05497474 -0.04410282 -0.30096135 -0.034768414 -0.31229752 -0.15487634 0.0230212 0.051974878 -0.16216074 0.20185812 0.14837725 0.08095888 0.17976882 0.0860566 -0.40067527 0.16399136 0.36352026 0.0823958 0.21864097 0.37068853 -0.33157212 0.22234996 -0.19288304 -0.071143016 -0.19090484 0.16041091 -0.011679282 -0.47332397 -0.084782556 -0.15142123 -0.30552182 0.054919243 -0.17870654 -0.028564597 0.30802682 -0.12532353 0.046771236 -0.010377427 0.14957732 0.11526245 0.21466848 -0.035896294 0.048873965 -0.010404309 -0.14152369 0.022559492 -0.013001153 -0.17463663 -0.097490884 -0.19105816 0.036090158 -0.29432207 -0.26614773 0.009989564 -0.052435223
122 0.27765277 -0.5178522 -0.09109904 0.7492858 0.31509948 0.23671784 0.19090633 0.58707404 -0.50531965 0.013452896 -0.07295636 -0.3515032 -0.3282668 0.12667483 0.11431742 -0.16593494 0.408157 0.288126 -0.45034075 -0.1255647 -0.16752544 0.333781 -0.17028713 -0.124463215 0.015811231 -0.06210112 -0.22748001 0.39544496 0.13911822 -0.66613555 -0.105181605 0.043591816 0.17511347 -0.00035884246 -0.13833755 0.1273401 0.30472377 -0.46220598 -0.06209102 0.17864142 -0.41106743 -0.111614995 -0.03771878 0.05945929 -0.0682699 0.116644815 -0.31767523 0.42603981 -0.13488212 0.45557308 -0.2833308 0.30530903 0.34518638 -0.2701354 -0.24695817 0.030269792 0.1683431 -0.30822974 0.14047553 -0.07702272 0.29026583 -0.09478594 0.15788996 0.44259325 0.020707784 -0.029655304 -0.01131868 0.26027387 -0.40315333 -0.11494428 -0.27744314 0.032303106 -0.27522424 -0.029342052 0.17072421 0.02651945 -0.014724239 0.14202021 -0.020122932 0.17047912 -0.09047699 -0.2692384 0.34569636 0.14388245 0.13510264 0.17935362 0.32270616 -0.25036287 0.3634176 0.024469998 0.355325 -0.13390242 0.078683235 0.14692406 -0.120301604 0.3530284 -0.08730266 -0.19155648 -0.14961042 -0.14271832 0.17966948 -0.17124332 -0.14297977 0.24066396 -0.105099276 -0.1933385 0.017150844 0.14205898 -0.041676078 0.024636012 -0.020109488 -0.49363953 0.051899947 -0.055408426 -0.4417716 -0.21976595 0.18322943 0.037493493 0.055753246 -0.48478147 0.07175797 -0.0871015 -0.089075886 0.2729523 -0.071250945 0.42676446 -0.06403609 0.24038503
10 -0.045384746 -0.15089945 -0.04526947 0.12074267 0.06892331 -0.5517121 0.3714483 0.36291227 -0.20528324 -0.059498798 0.32154405 0.22181472 0.039261382 0.212064 -0.10035226 0.07839519 -0.41264555 0.17209703 -0.039324414 0.17817786 -0.09897955 -0.13218561 0.047069512 -0.03741328 -0.12739989 0.2792873 -0.53737223 -0.03672875 -0.100042604 -0.057061158 0.13197261 -0.012110487 0.40689293 0.25601333 -0.3555056 -0.018492477 0.51689523 -0.13238226 -0.0034526505 0.12980786 -0.20954676 0.36418968 0.43015355 0.11713599 0.13881078 0.18559773 -0.19138192 0.005451878 0.2642945 0.1894339 0.27768978 0.18616499 0.10803074 0.057578836 0.044430338 -0.27585438 0.524734 -0.10480242 -0.124757946 -0.100322664 -0.17949635 -0.37565988 -0.3152855 -0.0751142 0.20783406 -0.12555504 0.17652948 -0.05399001 -0.025493816 -0.13412185 0.058508284 -0.13295132 -0.46346095 -0.15660633 -0.06877204 -0.16584662 0.051595837 -0.27027568 -0.09237011 0.10861915 0.04801553 -0.2226781 0.23719087 0.18148942 -0.012069746 0.26497838 0.09062589 -0.32074076 -0.06257804 0.283674 0.1807964 0.25700065 0.14400652 -0.30124134 0.3710318 -0.15799585 -0.12714343 -0.27823207 0.4012066 0.04788938 -0.48451343 -0.25942728 -0.12090258 -0.12925677 0.06024644 -0.09456144 0.033313166 0.2767592 0.0074904882 0.17869943 0.10442313 0.10981318 -0.0681387 0.27978465 -0.3201678 -0.0020569053 -0.1553324 -0.052599378 0.10748244 0.2810761 -0.24567859 -0.1249304 -0.1429133 -0.18385306 -0.31021264 -0.3627416 -0.11527842 -0.028955087
5 -0.02547285 -0.054204784 -0.06454322 0.25783506 0.19759914 -0.54318464 0.36506298 0.34995127 -0.20058495 -0.023771176 0.42779246 0.28794628 0.12344158 0.15599263 -0.08145837 0.1421508 -0.5619984 0.054383606 0.069786526 0.121704325 -0.047120277 -0.1316308 -0.04116899 -0.116809286 -0.13849802 0.27749336 -0.46258858 0.00097260595 -0.13292328 -0.22140619 0.12803937 0.026101649 0.433932 0.23282173 -0.33340046 0.0070919506 0.5208809 -0.10640478 -0.06895676 0.20352195 -0.1761769 0.46858904 0.39335343 0.10586111 0.2455408 0.1516141 -0.3199278 0.09319144 0.2874825 0.19851097 0.14825366 0.31226653 0.03573851 -0.023943689 0.1535971 -0.20997943 0.50649565 -0.087794 -0.1878765 -0.09102741 -0.08524315 -0.31048658 -0.3193563 0.05878916 0.17558876 -0.16237672 0.21661218 -0.02771621 -0.092943944 -0.13271117 0.036158703 -0.21720491 -0.49223152 -0.10577018 -0.12480728 -0.17779875 0.102589585 -0.2218101 -0.016870407 0.28590745 0.020846562 -0.18824826 0.19397372 0.15954398 -0.07092665 0.3163056 0.119223654 -0.21865061 -0.0066893357 0.26875326 0.13579118 0.2963705 0.23874313 -0.3272543 0.2741247 -0.105768256 -0.25848767 -0.28086045 0.3150287 0.08614844 -0.43298963 -0.1490285 -0.12776282 -0.12875769 0.061385628 -0.06908257 0.053282943 0.2014224 0.042983823 0.22589886 0.17272586 0.11651871 0.0005822798 0.17409553 -0.3424257 -0.058406543 -0.19781502 -0.11848015 0.052112103 0.31698596 -0.19380069 -0.13059306 -0.15506564 -0.19122234 -0.32342386 -0.3980883 -0.053799562 -0.07466129
2 -0.2177415 -0.40675703 -0.13302638 0.26143533 0.2555807 0.21398856 0.027855115 0.22665726 -0.3031769 -0.03420801 0.14022897 0.21971998 -0.13856098 -0.050385855 0.05524623 -0.07390119 0.14195761 0.3002752 0.12042045 -0.16137274 -0.4401263 -0.13516684 -0.23896666 -0.46281338 -0.30306348 0.06047073 -0.43360674 0.075831376 -0.18624741 -0.5854535 0.14251737 -0.17161681 0.10331639 0.16670407 0.15441923 -0.011470665 0.5965969 -0.21801326 -0.16764148 0.2528136 -0.5112186 -0.21143639 0.21861164 0.12188982 0.009802149 -0.117473416 -0.033473197 0.26469207 0.3297077 0.5949847 -0.3460058 0.25386062 0.5007861 0.33246878 0.2921444 -0.2695375 0.20942372 -0.20057438 0.023004966 0.12484986 0.118928924 0.07244178 0.16765141 0.17459293 0.037210055 0.25801334 -0.024625473 0.07188235 -0.32070866 -0.12634133 0.18255049 0.0022616065 -0.35222244 -0.27887538 0.06171129 0.066369295 0.0971353 0.07614185 0.04954721 0.32971662 0.102159366 -0.06670378 0.3155395 0.2683651 0.15183239 0.31628257 0.37065566 -0.22379749 -0.2451017 0.19673476 0.3532047 -0.12514336 0.25868177 0.008372031 0.051430028 0.16972683 -0.026848173 -0.061250173 -0.06447253 -0.19878705 0.15344144 -0.3027577 -0.035603248 0.2206162 0.05268094 0.1692974 0.08973916 -0.08373256 0.3485175 0.14086868 -0.14320454 -0.23962064 0.044098806 0.19389296 -0.90634197 -0.07872396 0.15961799 0.111434616 -0.04520055 0.19756739 -0.15645947 -0.11419698 0.068863526 -0.34039512 -0.29945612 0.17612574 -0.14400327 0.104255825
115 -0.021673108 -0.17877208 -0.2065862 0.18621276 0.19663638 -0.09541437 -0.00582849 0.2237139 -0.14504687 -0.06524018 0.28842694 0.42331493 0.09031617 0.09422468 0.007939674 0.14753996 -0.36475766 0.09320982 -0.16050369 0.23593667 -0.20049252 -0.17442775 -0.15608566 -0.23886365 -0.2400246 0.3317067 -0.4332872 -0.0069288122 -0.01620253 -0.36070824 0.05167919 0.1060255 0.16561046 0.2405767 -0.022291377 0.18541788 0.48389053 0.023728888 -0.052903675 0.17242639 -0.37931004 0.35237366 0.425192 0.15271525 0.19368002 0.09467299 -0.14582977 0.3138026 0.24440879 0.45140165 0.04017265 0.32228193 0.23309468 0.27512607 0.23428456 -0.2660837 0.5092374 0.11132945 -0.12902707 -0.098438665 -0.28676718 -0.32705855 -0.15764312 0.097167 0.18182464 0.103758454 0.24902648 0.2063202 -0.32220322 -0.24087887 0.14758654 -0.19464563 -0.37333784 -0.25464815 -0.05660689 -0.08367818 0.21674687 -0.30506197 -0.1145265 0.3790244 0.12924491 -0.15261208 0.2674981 0.24255578 0.026908597 0.35299134 0.18550573 -0.25367746 -0.05737907 0.21508771 0.29454997 0.09949737 0.23527043 -0.30860946 0.4478992 0.03176739 -0.110307604 -0.0121810455 0.2607918 -0.18944602 -0.42270094 -0.22041702 -0.23926677 0.18911365 0.18154801 -0.05418917 0.123004906 0.13696812 0.07370895 0.12974463 -0.050678004 -0.011673636 -0.05910661 0.12161722 -0.41442573 -0.09761539 -0.021941248 -0.16807112 0.20730127 0.27204627 -0.18074533 -0.19379656 -0.0033224265 -0.43090734 -0.17849071 -0.17880738 -0.16461436 -0.07263487
89 -0.24090585 -0.31979284 -0.19446795 0.05835837 0.078785695 -0.17466344 0.15185034 0.29626963 -0.085869625 -0.06437183 0.20626366 0.39814588 0.036658052 0.12279869 0.08872852 0.042977504 -0.27108434 0.18218745 -0.093054645 0.13108687 -0.1430001 -0.3344638 -0.19432585 -0.2217373 -0.42590514 0.27905583 -0.4387323 -0.09337947 -0.083628275 -0.36244196 0.070744924 -0.014077752 0.10815463 0.18577345 -0.0022165533 0.13005683 0.5259112 -0.09125838 -0.023583174 0.20956026 -0.24244909 0.23750807 0.41819447 0.2449992 0.06978432 0.16609788 -0.1076244 0.28964457 0.42051595 0.48536792 -0.11459319 0.33983085 0.38206488 0.4857515 0.275934 -0.39197668 0.39280638 0.022052927 -0.06957128 -0.026127433 -0.26510233 -0.31354362 -0.048501935 0.120714135 0.20446973 0.11161464 0.14910205 0.049373295 -0.17924748 -0.16865563 0.044790395 -0.058405276 -0.37749842 -0.2518435 -0.06673106 -0.13285136 0.1601671 -0.19689438 -0.068493746 0.29558268 0.09049803 -0.07531545 0.3342345 0.23641214 0.13315886 0.26153854 0.27844325 -0.2902234 -0.094610125 0.29474446 0.32547426 0.0743692 0.22015062 -0.20528564 0.31775013 0.01001045 -0.13729791 -0.031134412 0.32140034 -0.09243632 -0.30947062 -0.31036004 -0.08040847 -0.0066846604 0.15098792 -0.01473682 0.08868787 0.09797617 0.09933034 0.16367228 -0.07472497 -0.018799992 -0.10364638 0.21388885 -0.47509736 0.08255312 0.075698376 -0.16225347 0.1597374 0.3218419 -0.17242448 -0.16798742 0.031013612 -0.5150111 -0.29556108 -0.19074528 -0.08801707 -0.04155763
63 -0.05183068 -0.022181356 -0.27685186 0.2018118 0.28897923 -0.16107535 0.090189725 0.14579284 -0.20248659 -0.009991297 0.42611533 0.4694735 0.22810733 -0.024106394 -0.08263917 0.15474041 -0.3506955 -0.013573703 0.08535192 0.12324309 -0.40494078 -0.2130088 -0.16559856 -0.33666375 -0.21646282 0.30849466 -0.41484052 -0.083036676 -0.251996 -0.47855517 0.19784799 0.019455574 0.23392308 0.19067048 -0.060019065 0.015076522 0.50571686 0.0171334 -0.2019615 0.2688598 -0.54736197 0.31529358 0.32066092 0.1009901 0.21012162 -0.042248007 -0.12342936 0.24663939 0.40787446 0.5222625 -0.11560099 0.3525837 0.2301695 0.13558812 0.275962 -0.18477128 0.45633194 0.09612725 -0.1544568 -0.002961289 -0.049631752 -0.14225733 -0.27495393 0.10496491 0.0892948 0.1371103 0.19926879 0.09840222 -0.33400142 -0.22659126 0.29554746 -0.30525038 -0.26736563 -0.2616837 0.009804117 0.06087514 0.22733787 -0.2018498 -0.009278436 0.43841544 0.27697217 -0.16389929 0.17714007 0.19580126 -0.1700683 0.4326332 0.12578754 -0.17481145 -0.23074096 0.20702833 0.19883575 0.13823228 0.3413639 -0.28902215 0.26752415 0.10525076 -0.14884987 -0.08355326 0.26232904 -0.19777311 -0.32803112 -0.17656963 -0.15037882 0.25951135 0.09061866 0.0734287 0.112895586 0.05703417 0.3105473 0.20047976 -0.0047236276 0.0019083491 0.0033115544 0.101858385 -0.6916017 -0.19504948 -0.13391374 -0.15834573 -0.007864042 0.44041768 -0.26152506 -0.16115567 0.036258627 -0.4623853 -0.20227161 -0.11099606 -0.105075374 -0.06699393
15 0.065839045 -0.055140205 -0.045072414 0.20202245 0.19266263 -0.42815104 0.24549477 0.26065072 -0.17474176 -0.038921166 0.36489668 0.18951146 0.064640485 0.18883929 -0.08732213 0.14820066 -0.55265576 -0.023712212 -0.11002469 0.2463371 0.044998974 -0.15708344 0.12846123 -0.08371305 -0.06504768 0.2527391 -0.4610194 0.025027048 -0.02392061 -0.117655985 0.026084304 0.06436704 0.42273292 0.2583698 -0.31937298 -0.08062798 0.515677 -0.06921566 -0.020001398 0.18121895 -0.21447057 0.38140312 0.4939375 0.042487305 0.21826622 0.23404644 -0.2540751 0.13968965 0.19365516 0.2827222 0.23099165 0.21788622 0.0705454 0.025365815 0.07458502 -0.19412176 0.5528309 -0.0913198 -0.2221115 -0.09709174 -0.24879171 -0.37556848 -0.3251836 -0.10588187 0.24214633 -0.20206837 0.27224582 0.021726055 -0.14985335 -0.08758293 0.100991994 -0.15947528 -0.55628 -0.14751813 -0.12096421 -0.25413504 -0.04070592 -0.29558045 -0.15064996 0.21708512 0.06081333 -0.19734043 0.16852283 0.2108688 -0.032359265 0.31175607 0.082569085 -0.26079068 0.069401495 0.3165157 0.15880366 0.24883433 0.2181389 -0.33963487 0.30691513 -0.23748837 -0.15277447 -0.16930847 0.28540325 0.033721857 -0.52093565 -0.15449391 -0.21780707 -0.18404843 0.059241932 -0.075969994 0.056180157 0.2936965 -0.04999306 0.1298648 0.12561595 0.11606418 0.08833275 0.108937144 -0.15765475 -0.11085602 -0.18436415 0.07389614 0.15649232 0.1210913 -0.1869988 -0.17707333 -0.19241661 -0.11091068 -0.28529277 -0.35828006 -0.056235064 -0.115011014
37 -0.18713701 -0.28112942 -0.20211408 0.2043906 0.09488938 -0.34057513 0.23682117 0.28007743 -0.1513361 0.06870158 0.36202213 0.42709634 0.12745441 0.019466428 0.063686445 0.13135944 -0.18847261 0.11266392 0.18740898 -0.044374704 -0.3377863 -0.1305266 -0.33996108 -0.24684843 -0.31990072 0.27707306 -0.49385133 -0.13161741 -0.2698628 -0.4187119 0.19343384 -0.10306785 0.19471481 0.1930304 -0.045606058 0.008958692 0.567249 -0.14010294 -0.055544805 0.21617275 -0.38473597 0.23961267 0.31350413 0.13740815 0.15516774 -0.027561825 -0.20096073 0.13020152 0.39622587 0.47579375 -0.080251604 0.3352243 0.2735891 0.25030687 0.3143443 -0.27452415 0.39306912 0.07332706 -0.16386946 0.03727274 -0.040892724 -0.10048548 -0.13952054 0.13652867 0.058644798 0.065373965 0.095245786 0.021427736 -0.1254332 -0.20270647 0.16867572 -0.15239689 -0.34979415 -0.21881895 -0.089487486 -0.009132469 0.2280078 -0.17554699 0.01994798 0.3119051 0.15548724 -0.1238274 0.2893063 0.21030203 -0.032026142 0.36250553 0.26915228 -0.26119283 -0.2951015 0.28841457 0.17496514 0.11150617 0.23764062 -0.2640611 0.37674633 0.15682964 -0.08835596 -0.21230134 0.32146564 -0.16385527 -0.16092193 -0.27751568 -0.022803975 0.17397913 0.14167567 -0.038589377 0.1612 0.08551371 0.2569173 0.23916079 -0.016395293 0.07443292 -0.10249079 0.2835179 -0.69500977 -0.092039876 -0.05264506 -0.2835416 -0.09815038 0.49357814 -0.26310745 -0.11536788 -0.021216428 -0.54913336 -0.23504269 -0.13628362 0.009287833 -0.05399688
0 -0.023691194 -0.1714108 0.03760751 0.24682093 0.08669988 -0.6443386 0.42635748 0.41043088 -0.15132438 0.049203653 0.4032048 0.2724195 0.0886543 0.12416286 -0.042852864 0.16825916 -0.45871672 0.17356756 0.18942708 -0.016145715 -0.069283776 -0.04096079 -0.14663805 -0.12663977 -0.15588573 0.20652707 -0.5517667 -0.028421467 -0.15894313 -0.09320653 0.18175213 -0.005837864 0.4741406 0.2667486 -0.2760892 -0.03291844 0.60301924 -0.12153045 -0.050835676 0.15710914 -0.16879745 0.40675634 0.38120058 0.13971978 0.22384153 0.08178234 -0.3230213 -0.056100637 0.27195457 0.17023896 0.20470098 0.30563694 0.0062823454 -0.03388782 0.16901332 -0.22210039 0.49538094 -0.09336322 -0.22262165 -0.0563945 -0.05652154 -0.26343063 -0.28059956 -0.017894674 0.1397648 -0.18723331 0.14850985 -0.11686086 0.0058364854 -0.10293644 0.023079518 -0.17192663 -0.56213415 -0.07609668 -0.13838801 -0.20879991 0.066479854 -0.22899123 0.03467541 0.15739317 0.011775845 -0.1736822 0.23164915 0.18742256 -0.003463564 0.32108307 0.17174166 -0.29158854 -0.13895111 0.30860987 0.026057364 0.30029187 0.22861849 -0.3670726 0.36319485 -0.100522675 -0.14982076 -0.4500611 0.2854943 0.08855971 -0.3385174 -0.19350629 -0.053774416 -0.19963819 0.082803234 -0.09665181 0.06495238 0.21374267 0.06490956 0.24990539 0.21124044 0.22994637 -0.023739453 0.29574808 -0.4004811 -0.045770284 -0.18957196 -0.14854696 -0.117594995 0.42431015 -0.20409535 -0.11296205 -0.21981138 -0.21362977 -0.39441103 -0.41251773 0.018939257 -0.067135945
13 0.27049977 -0.41135472 -0.0780928 0.8232793 0.39324525 -0.016637644 0.13562697 0.76862985 -0.29506055 0.07775676 -0.113296926 -0.58410245 -0.41035357 0.16411877 0.050532192 -0.1217962 0.33175838 0.3457396 -0.5360473 -0.023167573 0.1107905 0.28637388 0.055240955 0.08614612 0.004943557 -0.111277744 -0.30478534 0.29229483 0.32568014 -0.51070565 -0.030766876 0.14610226 0.29964256 0.007451963 -0.3037241 0.108952425 0.42038152 -0.38882044 0.14599854 0.38957766 -0.29591152 -0.05522136 0.123622365 -0.029231101 -0.11307654 0.15636694 -0.55822885 0.42098662 -0.14350703 0.3149922 -0.11497074 0.06697125 0.35935485 -0.28810385 -0.43873096 0.042674314 0.138552 -0.3497518 0.046726827 -0.06482383 0.39281633 0.1042105 0.23151018 0.3729215 0.24332303 -0.20972812 -0.10571639 0.18077692 -0.068730086 -0.07090609 -0.22417048 0.0876855 -0.46034992 -0.064691134 0.29494038 -0.20412387 -0.20396076 0.358057 -0.12550588 0.12397576 -0.2279292 -0.3560577 0.20516136 0.17618786 0.08179742 0.1398277 0.37411737 -0.18295836 0.41656944 0.17721176 0.5798553 -0.12988535 -0.006381869 0.09154354 -0.052405287 0.17635831 -0.1828047 -0.47500098 -0.09828012 0.086230904 0.13352227 -0.2620727 -0.16219452 0.06065053 -0.27451918 -0.23350777 0.024170341 0.26584488 -0.048408244 0.12568785 0.032019507 -0.5169055 0.2707692 0.01732833 -0.31523457 -0.26783523 0.23818652 0.37256706 0.11550301 -0.549274 0.064168565 -0.16465011 -0.18636405 0.37736005 -0.12173304 0.36864382 0.038312297 0.2954365
96 0.124792024 -0.53747404 -0.06846699 0.7108545 0.33081433 0.14391485 0.2045127 0.60422814 -0.3598035 -0.012230011 -0.08051896 -0.3874174 -0.3127343 0.17006472 0.14741059 -0.14546101 0.37418664 0.24754454 -0.503697 -0.08333393 0.00042639748 0.25871843 -0.1963615 -0.031476963 -0.07941745 -0.1048021 -0.24352385 0.3725875 0.27918392 -0.61195284 -0.10305593 0.11369036 0.17056313 0.033655863 -0.16133988 0.1600676 0.33870125 -0.42334747 0.07044775 0.22068638 -0.23086776 -0.11338208 0.08894011 0.018674988 -0.07322068 0.13942918 -0.41209778 0.46409148 -0.12916751 0.39632997 -0.13777506 0.16324371 0.39614388 -0.1286579 -0.26263168 -0.033912104 0.19588362 -0.3240492 0.059706785 -0.077914886 0.23122506 0.0057566715 0.25625208 0.4104576 0.11146224 -0.06656012 -0.060210735 0.2750477 -0.23271258 -0.05189596 -0.2560283 0.16816072 -0.39411595 -0.055636175 0.18584742 -0.071987174 -0.027801957 0.1969654 -0.05135519 0.1607912 -0.19942737 -0.26015148 0.27800658 0.119088866 0.19199347 0.11038193 0.39586663 -0.2146204 0.41404003 0.1314284 0.49503848 -0.16058832 -0.036661312 0.13459206 -0.12541178 0.28597343 -0.14838636 -0.21749684 -0.1313711 -0.011286887 0.18628865 -0.28318346 -0.13595508 0.15981446 -0.14126804 -0.23691371 0.087274805 0.115091465 -0.107343525 0.15551907 -0.05761677 -0.4658101 0.13059747 0.011794682 -0.3525553 -0.22103083 0.26038808 0.18565618 0.14468698 -0.52514726 0.09235144 -0.1390407 -0.06649016 0.22076224 -0.055739406 0.40111881 -0.009421611 0.23534863
38 0.11347887 -0.19917993 0.05548277 0.16439435 0.112702675 -0.5460189 0.34530112 0.24060644 -0.18833716 -0.13655409 0.2865605 0.14634311 -0.088924974 0.015386654 -0.002831947 0.32354873 -0.29485077 0.1730292 0.20354779 -0.19403318 -0.17693529 0.13395905 -0.10136367 -0.11460289 0.15467189 0.07868417 -0.51689225 0.027191568 -0.043118816 0.03551353 0.3949778 0.09330882 0.59846485 0.41623428 -0.4478239 0.1427809 0.52296203 -0.15696566 -0.10314306 0.07486343 -0.025388882 0.40315187 0.29693484 0.011801845 0.23040307 0.09559538 -0.12485917 -0.29605275 -0.034513764 0.0379828 0.5272699 0.21727662 -0.18361576 -0.17322472 -0.2170614 -0.23888652 0.39155674 -0.10432555 -0.21153967 -0.05747709 -0.17927967 -0.429278 -0.32102937 -0.19098118 0.041868072 -0.054040905 0.22342622 -0.07350817 -0.105312444 -0.15389949 -0.0061060563 -0.37110698 -0.5295738 -0.018729983 -0.039550144 -0.22061391 -0.11498459 -0.42261446 -0.14023095 -0.15386824 0.06771144 -0.23136468 0.21040872 0.09304573 0.12318181 0.17928411 0.025724528 -0.48335555 -0.0062365555 0.3779668 -0.11574766 0.26145527 0.4111911 -0.4465964 0.44684306 -0.19961311 0.11047115 -0.4305981 0.18699387 -0.07156596 -0.45951453 -0.12137481 -0.10418448 -0.27427086 0.13954133 -0.23734616 0.011344848 0.26704293 0.003694577 0.10124801 0.0948594 0.24720898 0.060230352 0.31451002 -0.16311863 0.043970734 -0.12601665 -0.21620555 -0.1516735 0.1892457 -0.20343208 -0.05165248 -0.28750154 0.13114883 -0.46777174 -0.3684567 0.006086358 -0.07297579
3 0.33236185 -0.3811261 0.000912664 0.5873161 0.1591803 -0.14624742 0.1523001 0.7450686 -0.41642222 0.10133577 -0.10742923 -0.57993025 -0.30316007 -0.003077535 -0.16735734 -0.23967226 0.2516555 0.32161054 -0.36715406 -0.07328055 -0.07926946 0.11606062 0.26491135 -0.08159427 -0.05863549 -0.0007061438 -0.28617367 0.046275888 0.011713569 -0.5254689 -0.16587327 -0.107751176 0.22998905 -0.11993816 -0.33145162 -0.1536174 0.35885653 -0.56756914 -0.033989124 0.28421885 -0.5431628 -0.3410178 -0.07064411 -0.030054672 -0.10982787 0.22210528 -0.42811358 0.2628288 0.051492844 0.66852957 -0.44546142 0.15906332 0.44685495 -0.3275431 -0.35484347 0.07372395 0.13120447 -0.36417 0.21945779 0.08460193 0.38732624 -0.019646805 0.13433012 0.36216402 0.192778 -0.28459743 -0.037757196 0.1570956 -0.27766332 -0.21673554 -0.12634186 0.14507826 -0.39210963 -0.08339666 0.21762556 -0.15766656 -0.3936315 0.36397558 -0.0691198 0.049232606 0.03737782 -0.33947137 0.29685062 0.43331075 -0.034187626 0.26461515 0.34752735 -0.16395319 0.3506304 0.04089359 0.3789642 -0.056851275 0.07973657 0.22300299 -0.05432809 0.1935912 -0.20508409 -0.4072441 -0.1499482 0.092493646 0.1756301 -0.21850924 -0.08429297 0.0036428352 0.0025117008 -0.20597531 -0.17483848 0.34913155 0.12608512 -0.025202248 0.17147571 -0.67502 0.20892274 -0.058946166 -0.62516814 -0.11058609 0.12039564 0.32307854 0.00519476 -0.38106176 0.11909593 -0.16665998 -0.10942809 0.30064473 0.0023915458 0.5880806 0.16168638 0.36522445
77 -0.3497016 -0.6202726 -0.08233288 0.22150755 0.27074167 0.23408268 0.06817643 0.3019476 -0.24115269 -0.069135986 0.097269 0.23176312 -0.31401688 0.07441075 0.21519567 -0.099746294 0.17855248 0.45635703 0.025267836 -0.15562384 -0.29653248 -0.14506799 -0.27370992 -0.4180955 -0.43881834 0.021724643 -0.5163453 0.18792169 0.045989413 -0.5439873 0.099146545 -0.086150914 0.09380867 0.2346876 0.22538741 0.11245274 0.6402115 -0.22143564 -0.030131372 0.22880718 -0.27594963 -0.22856426 0.36183792 0.16951898 -0.004545804 -0.0031532156 -0.02055159 0.31559795 0.27745977 0.52804154 -0.15852378 0.21242191 0.58581704 0.54547334 0.2691178 -0.4076655 0.21351334 -0.23216109 0.024072504 0.12668791 -0.046857454 0.046421174 0.27451918 0.09043395 0.15993673 0.24687694 -0.11053553 0.08802422 -0.2018376 -0.07695247 0.11144584 0.15811399 -0.48166198 -0.37151372 0.035422176 -0.047000796 0.05681697 0.10299682 -0.047448624 0.32231465 -0.01561431 -0.03284539 0.36338955 0.2656947 0.40595388 0.17267694 0.45491225 -0.36285895 -0.17669366 0.24770136 0.45114425 -0.24106383 0.15700513 0.01978249 0.117628194 0.06542528 -0.010368005 -0.06741097 -0.07350944 -0.1451345 0.09814461 -0.40890676 -0.044847608 0.1435274 0.012379217 0.1438263 0.12519409 -0.109336086 0.18979716 0.15519698 -0.26528564 -0.22610287 0.033520073 0.33742687 -0.8144456 -0.039141443 0.30185267 0.24022 0.09394919 0.12277063 -0.1285062 -0.1404744 0.009534341 -0.34138706 -0.36896598 0.08122679 -0.23608148 0.044588797
8 0.28388557 -0.12703313 0.04107205 0.7700074 0.3755429 -0.07889125 0.26299036 0.67680097 -0.40180597 0.16442965 0.010827873 -0.5160975 -0.4373778 0.22200082 0.0038596077 -0.15452361 0.13776764 0.30225495 -0.4717124 0.065973446 -0.0941132 0.3211297 0.104868226 0.01031911 0.09165815 0.03961835 -0.39959446 0.40891433 0.033529703 -0.47236955 0.026041929 0.028803222 0.32021087 -0.16851313 -0.26666725 -0.0716181 0.46171787 -0.31831238 -0.053784907 0.44797006 -0.6659642 0.098822534 0.05237837 0.09571793 -0.014901811 0.076077335 -0.46164143 0.4093467 0.07087541 0.42871618 -0.22177918 0.2606749 0.33929294 -0.5170697 -0.44023272 0.1442772 0.1434288 -0.29724437 0.018415503 -0.10971335 0.5992035 -0.024178214 0.0075080534 0.3459075 0.31297958 -0.27486163 -0.10084054 0.025443304 -0.13352218 -0.20269345 -0.06639857 -0.2311185 -0.41432667 -0.014460257 0.43568897 -0.019035488 -0.27098626 0.38279077 0.006742181 0.16269597 -0.14964415 -0.5619809 0.18168996 0.24346438 -0.20806794 0.20717491 0.30426642 -0.23765776 0.30697158 -0.00033084425 0.47317597 0.0073926775 0.056629583 0.103834406 -0.021020286 0.24812008 -0.14799109 -0.46979502 -0.056262344 -0.03672799 0.14911604 -0.18094932 -0.0805257 0.22149916 -0.41794986 -0.013395859 0.08205889 0.2749489 0.13672413 0.15143624 0.23466478 -0.52558726 0.18397833 -0.012099897 -0.48895127 -0.2081164 -0.015595565 0.42038327 0.011597522 -0.3393861 0.0582845 -0.004099832 -0.21658193 0.46192035 -0.29313707 0.28735068 0.07578999 0.29973438
51 -0.07267866 -0.19397701 -0.26047254 0.3614493 0.41106611 0.32171324 -0.06315986 0.18732405 -0.36061528 -0.02630608 0.19334398 0.27120087 -0.114945695 -0.07838128 0.039271414 -0.016355343 0.14096618 0.31078714 0.109450415 -0.16042371 -0.61606425 0.031272393 -0.2397459 -0.48243156 -0.17861502 0.07896429 -0.4450159 0.18190715 -0.13513695 -0.5934062 0.24394783 -0.06332364 0.22516428 0.19089828 0.15853105 0.08599017 0.6451869 -0.014788109 -0.24924442 0.2853211 -0.6659606 -0.10162268 0.22420979 0.15031092 0.044526182 -0.22014642 -0.030562468 0.26172462 0.28580654 0.50474805 -0.25437576 0.308284 0.44073594 0.13695762 0.24031368 -0.16031803 0.22618806 -0.13569896 -0.008275388 0.04884356 0.2054959 0.12923789 0.06529354 0.09761225 0.0439653 0.3104058 -0.007422161 0.07352795 -0.392189 -0.17860404 0.27906057 -0.1962491 -0.2997005 -0.27973682 0.16508791 0.19711944 0.12510346 0.07198237 0.054883566 0.37513688 0.12466434 -0.14923327 0.23998734 0.20701016 0.048741892 0.3058255 0.26160446 -0.19630076 -0.29767627 0.07764229 0.32952663 -0.14496905 0.3105821 -0.059359305 0.11700235 0.22427167 0.04853025 -0.08328909 -0.06726082 -0.26742277 0.07855736 -0.26507753 -0.08282223 0.4285721 -0.06890515 0.21247506 0.10622464 -0.11966677 0.36538005 0.16960515 -0.11940407 -0.20701005 0.048911743 0.17082193 -0.9232135 -0.22170718 0.093883544 0.14143062 -0.07661066 0.22306478 -0.18773392 -0.099701084 0.010171589 -0.23749702 -0.3147124 0.09675086 -0.24810323 0.12084619
116 0.07965602 -0.14155586 0.093433924 0.1892204 0.21097425 -0.50594896 0.32710186 0.19043033 -0.13355237 -0.10547305 0.40503535 0.10275753 0.0130079035 0.07489594 -0.01804313 0.27241808 -0.4452913 -0.103678524 0.01600874 -0.015241147 0.17163223 -0.12944284 0.15254524 -0.0952871 0.08446859 0.056291927 -0.3959841 0.033137582 0.020979008 -0.073319584 0.20430075 0.17584515 0.4560852 0.36210272 -0.436475 -0.08753876 0.40621105 -0.1566143 -0.04661012 0.11732291 0.09731637 0.32690918 0.44949946 -0.061410412 0.26424125 0.29081854 -0.15009752 -0.02762386 0.03096821 0.21616228 0.37233946 0.073539145 -0.14091152 -0.042621605 -0.14900036 -0.25426266 0.36901408 -0.1524058 -0.31268173 -0.038079932 -0.1908257 -0.35291904 -0.30487368 -0.19867861 0.20468836 -0.26667532 0.15120354 -0.028149178 -0.103382 0.017127337 0.08492347 -0.23117909 -0.5346256 -0.08236138 -0.081620894 -0.28030533 -0.2129698 -0.39673707 -0.20026857 0.0704245 0.14967166 -0.11116552 0.10027752 0.21811508 0.068466485 0.3254394 0.02866959 -0.41532865 0.11811324 0.42735663 -0.061671313 0.23865639 0.41721103 -0.35555863 0.14197902 -0.29115757 -0.006702978 -0.3089428 0.17334223 -0.038155872 -0.49305472 -0.021281792 -0.17615354 -0.3931174 0.0007904137 -0.17996421 0.04787367 0.377422 -0.03504042 0.054063328 0.018140908 0.1201643 0.20701778 0.11374678 -0.020181814 -0.118049875 -0.08838991 0.15836498 -0.03885048 -0.118951626 -0.10608917 -0.14289765 -0.23827563 0.05188124 -0.36799785 -0.22253641 0.024119552 -0.17927605
70 0.34574446 -0.18622921 -0.11304105 0.80331045 0.45896477 0.23328388 0.14311762 0.5303682 -0.46868312 0.053900965 -0.009691532 -0.33817992 -0.32195708 0.09752468 0.016103175 -0.07445267 0.28785467 0.30794683 -0.3499212 -0.10801131 -0.2242615 0.35510725 -0.06581859 -0.1553172 0.08819161 -0.05458862 -0.3030246 0.41385671 0.095590994 -0.53664744 0.085683614 0.14730015 0.31784886 0.026724802 -0.1408335 0.11371033 0.43909696 -0.2389674 -0.16948071 0.3395388 -0.5782419 0.012590552 0.022714756 0.10798165 -0.019133663 -0.006140347 -0.36929935 0.3859763 -0.072752364 0.35684404 -0.21129921 0.280708 0.27020326 -0.45887443 -0.3279369 0.092425406 0.14155988 -0.28923285 0.029694367 -0.17894384 0.50795317 0.020535292 0.12131299 0.3470231 0.111055024 -0.054040037 -0.072815545 0.121477365 -0.3019944 -0.12493957 -0.11643959 -0.17843632 -0.2777941 0.018520514 0.35532746 0.10783097 -0.065185905 0.22781391 0.03172576 0.17271239 -0.06827578 -0.3509626 0.20481159 0.10926101 -0.02139934 0.19776653 0.23167232 -0.14195062 0.25107926 -0.05613497 0.37601545 -0.07559644 0.12450062 0.067397945 -0.13302368 0.3177924 -0.029296707 -0.34887072 -0.1045262 -0.16455872 0.20267002 -0.111121796 -0.14184842 0.30962715 -0.3382406 -0.047214802 0.041594166 0.12312189 0.09937054 0.09824299 0.08390123 -0.46579337 0.13780662 -0.10479873 -0.46204382 -0.2981849 0.10732858 0.25217378 -0.033123214 -0.4140257 0.0956745 -0.024831945 -0.13448238 0.43875304 -0.21205446 0.31234723 -0.10358314 0.28846118
98 0.26871863 -0.56893796 0.28144658 0.10731076 0.092035815 -0.046135623 -0.30122066 0.028741783 -0.394674 0.051285334 0.43986708 0.13687204 -0.37828237 -0.21978174 -0.0130398 0.41402334 0.30892384 0.10592697 -0.05209137 -0.60302067 0.059812047 -0.052157637 0.21710864 -0.33028945 0.18523669 0.13146065 -0.6033384 -0.09820977 0.13539213 -0.92666155 0.19631745 0.39328942 0.29302236 0.39725903 -0.12357279 0.17473404 0.31426114 -0.67481357 -0.44499257 0.0026114946 -0.020399261 -0.23867266 0.35591954 -0.47168565 0.18879996 -0.04894621 -0.030688707 0.051137116 -0.1928914 0.984847 0.48599643 -0.28253284 -0.032741256 -0.041761294 -0.6635414 -0.26103705 -0.16470355 -0.13957676 -0.43245724 0.24577022 0.14476356 -0.11595276 -0.105131574 -0.25265762 0.19640301 -0.34036046 0.16479747 0.2515007 -0.40166196 -0.29494673 0.44962052 -0.10635487 -0.2909861 -0.32753178 0.28582212 -0.12735264 -0.3165387 -0.6496782 -0.250657 -0.06539303 0.3880039 -0.3506535 0.270428 0.52760154 0.1690375 0.13273776 -0.14346159 -0.66621655 0.15265538 0.35693696 -0.0748909 0.14427158 0.717626 -0.20860024 0.30122676 0.21822394 0.5445458 -0.61595803 -0.11379434 -0.51955354 0.08319903 0.13271019 -0.17295066 0.19557565 0.08844395 -0.42996988 0.4022202 0.63056415 0.306438 -0.17032026 -0.729269 -0.23401852 0.42226437 0.10454225 -0.6084536 -0.36883518 0.15643899 0.6694153 -0.10869511 -0.7028048 0.18504845 -0.07173225 -0.28940567 -0.019129219 -0.08005029 0.8543755 0.030544423 -0.13730994
44 0.24227282 -0.46935028 0.012623769 0.53021604 0.19486904 0.056100834 0.20166376 0.5994006 -0.5246864 -0.01847665 -0.092326425 -0.39864692 -0.23534255 -0.045781493 -0.10359981 -0.25766265 0.34004724 0.29669443 -0.26630783 -0.13054273 -0.24239627 0.10243363 0.028023042 -0.28145075 -0.092607595 -0.017779663 -0.25728542 0.13614498 -0.04302438 -0.6395667 -0.16122401 -0.12671828 0.20406497 -0.018812757 -0.2083014 -0.115339786 0.31743723 -0.5631189 -0.1818968 0.13963598 -0.5484894 -0.38134772 -0.10489103 0.018719243 -0.062551536 0.14309892 -0.25612098 0.27620098 0.019281575 0.7043124 -0.46851477 0.24715859 0.4558408 -0.18041535 -0.16332774 0.019837296 0.1506638 -0.37674177 0.23465027 0.083056934 0.27088958 -0.07302764 0.14591366 0.34290388 -0.011296915 -0.09623884 0.033835586 0.22086036 -0.47615945 -0.1669308 -0.10763978 0.18072625 -0.30133832 -0.08742319 0.11965383 0.0091135735 -0.22309537 0.16634773 0.006596665 0.055537965 0.06287085 -0.23189892 0.35974476 0.334043 0.094268955 0.23902954 0.3381712 -0.16176473 0.2869815 -0.015901713 0.26132387 -0.10841816 0.06276613 0.24029814 -0.14526787 0.28251302 -0.09639063 -0.16669877 -0.22186205 -0.009711231 0.23211448 -0.22432417 -0.0681035 0.06999972 0.12814827 -0.13647585 -0.13488574 0.17327155 0.12955064 -0.0190944 0.08291736 -0.55166656 0.10053791 -0.098177224 -0.70421714 -0.10316684 0.124234475 0.12474798 -0.025375681 -0.3139696 0.10106666 -0.14727436 0.0123706525 0.17953259 0.017740093 0.5673474 0.08137227 0.3115199
64 -0.030837575 -0.0027656213 -0.016328705 0.2653062 0.27655202 -0.48599946 0.30858535 0.28152087 -0.0855686 -0.092843145 0.32793656 0.052304838 0.118381575 0.06612577 -0.06640645 0.22661202 -0.5380796 -0.11215903 0.07003529 -0.03968894 0.10297027 -0.19723083 0.076764025 -0.15320167 -0.024249872 0.020955333 -0.20119886 -0.032374788 -0.1995262 -0.13895775 0.25647277 0.02261506 0.46611184 0.28801623 -0.45695037 0.051064555 0.35472947 -0.14681984 -0.16624087 0.14195152 0.1340833 0.40069455 0.36416233 0.047455046 0.27364567 0.22209081 -0.23788658 -0.002378193 0.13001342 0.054106046 0.14078268 0.2413077 -0.15219782 -0.097166516 -0.13907616 -0.26572317 0.2916967 -0.186685 -0.17093806 0.05415826 -0.18336733 -0.2733893 -0.23316038 -0.12084111 0.127601 -0.18679455 0.14552794 -0.101847045 -0.09723506 0.027249394 -0.083508655 -0.2521329 -0.53834873 -0.03222829 -0.08133842 -0.4329505 -0.10636627 -0.26057267 -0.072462454 0.17712735 0.025622109 -0.11697461 0.12673466 0.18989563 0.012344157 0.22884978 0.14959131 -0.2588369 0.17634901 0.36930302 0.094786495 0.27289858 0.5542568 -0.33096004 0.016975908 -0.18664221 -0.25024468 -0.31938902 0.032177355 0.14457072 -0.4792273 -0.048573676 -0.09454012 -0.45167848 -0.012292956 -0.09503959 -0.033623148 0.29413447 -0.090923764 0.10953711 0.09836231 0.14727217 0.31462276 0.08763728 -0.08989702 0.03190059 -0.03134724 -0.016378913 -0.091580875 -0.03802376 -0.15461867 -0.12457194 -0.24375507 0.03456024 -0.39960396 -0.3845085 0.18663533 -0.051403575
107 0.26884764 -0.5546956 0.28232318 0.1287267 0.10191892 -0.07590617 -0.24859999 0.061831392 -0.39868623 0.04056964 0.442586 0.13806769 -0.38613734 -0.20848976 -0.0078724185 0.4130848 0.2716431 0.08012213 -0.05225807 -0.57928133 0.07684229 -0.06389416 0.22388001 -0.3053576 0.17603642 0.1250873 -0.6106755 -0.086614996 0.11452272 -0.9108208 0.21624629 0.37066287 0.3154787 0.38213196 -0.15236369 0.14492637 0.33701777 -0.67421764 -0.4166582 0.018652698 0.016957851 -0.2174222 0.3710624 -0.46473345 0.19757396 -0.032615386 -0.01884786 0.065890476 -0.18709196 0.9593936 0.4872986 -0.28010404 -0.014989172 -0.04599487 -0.6227898 -0.25858784 -0.13919346 -0.13418035 -0.43282425 0.2427356 0.14070776 -0.123030044 -0.12474322 -0.23841617 0.20855413 -0.37063265 0.16326693 0.2332065 -0.39485908 -0.2813623 0.45854816 -0.108848296 -0.27873424 -0.30430686 0.2552757 -0.13804339 -0.31527394 -0.6544422 -0.24026604 -0.04620044 0.3885469 -0.34776944 0.24327485 0.51349556 0.15457815 0.15421836 -0.13455383 -0.64798886 0.16612656 0.37076506 -0.09116614 0.16570768 0.7309549 -0.21970688 0.26916027 0.1927832 0.5239239 -0.60093194 -0.09515711 -0.49105704 0.051021505 0.13372019 -0.16834097 0.16079357 0.072335035 -0.421938 0.3949444 0.6511328 0.2956128 -0.16782713 -0.71316516 -0.2167187 0.40470415 0.11152491 -0.5695137 -0.36806795 0.15162987 0.6932324 -0.098544456 -0.6888756 0.17721793 -0.08565118 -0.29633287 -0.036193315 -0.10309805 0.8111082 0.053689655 -0.16963352
108 0.27654833 -0.5123642 0.29489833 0.14773281 0.1305077 -0.15465881 -0.17376928 0.017501242 -0.3558049 0.044231173 0.49757478 0.14412908 -0.35497436 -0.15459363 -0.05273435 0.3932648 0.12772349 0.0076462543 -0.07749241 -0.5174262 0.15864009 -0.112352684 0.2767328 -0.29784185 0.16323656 0.036103997 -0.55951554 -0.030186914 0.1386732 -0.75161237 0.16697556 0.43017563 0.35991657 0.4358291 -0.16014211 0.025736868 0.30759755 -0.57622176 -0.34142902 0.025609102 0.09675583 -0.19123457 0.36623675 -0.42882565 0.22910282 0.05338438 -0.01649971 0.08093973 -0.20179194 0.9124324 0.5163619 -0.27302814 -0.08384113 -0.031571828 -0.5561866 -0.24213316 -0.06289644 -0.15925561 -0.4729778 0.20026936 0.083882414 -0.12919264 -0.14569278 -0.26687405 0.23864697 -0.3866736 0.11545532 0.27073178 -0.40266162 -0.22034314 0.44249153 -0.12449673 -0.36089602 -0.3205436 0.18279697 -0.16497298 -0.4244521 -0.67368364 -0.2765214 -0.077031665 0.4364904 -0.2763609 0.21499023 0.48315772 0.19910099 0.25529438 -0.12676252 -0.64083517 0.10269071 0.40659878 -0.15488274 0.16928819 0.69754964 -0.25526857 0.2020455 0.064652465 0.52920747 -0.6128228 -0.020470666 -0.45187494 -0.034905743 0.1649913 -0.22567776 0.016414013 0.054550234 -0.37757647 0.36944708 0.64300144 0.22515577 -0.17724009 -0.6563374 -0.12709115 0.42043462 0.08072034 -0.40159202 -0.42046908 0.12017862 0.743135 -0.13098194 -0.7039573 0.1872872 -0.12570758 -0.29311505 0.06433578 -0.1537951 0.7072838 0.08326798 -0.2231684
14 0.29612848 -0.41515914 0.29429153 0.21206984 0.18414567 -0.21094802 -0.10641754 0.0074919523 -0.36177036 0.050202515 0.51699275 0.12013786 -0.3104128 -0.12153156 -0.0969215 0.36618358 0.016376063 -0.052035134 -0.108504705 -0.45148787 0.18184923 -0.111130275 0.27522436 -0.2866831 0.14363419 -0.05375438 -0.45819417 0.019038945 0.09515218 -0.6539145 0.14004806 0.4371845 0.3514926 0.43539923 -0.19252878 -0.040241167 0.27102253 -0.47108564 -0.30579758 0.030646576 0.13544528 -0.12996154 0.33107838 -0.36018133 0.22161616 0.102992825 -0.029425269 0.09436384 -0.22099617 0.79158396 0.48066834 -0.20271568 -0.124712154 -0.091585316 -0.48854142 -0.19509602 0.008784289 -0.17626202 -0.45213386 0.15168127 0.07445066 -0.11063939 -0.16825971 -0.25813407 0.23626709 -0.38281327 0.0644544 0.2887791 -0.41997075 -0.18548886 0.38443917 -0.16182633 -0.41803226 -0.29819256 0.107181475 -0.18079019 -0.47281283 -0.6486949 -0.27010742 -0.03874402 0.44628173 -0.21478926 0.19112141 0.4163766 0.1980092 0.34466586 -0.095570475 -0.59338367 0.06843448 0.40627277 -0.1819112 0.17545484 0.70689493 -0.2713745 0.10419832 0.007916371 0.45612648 -0.6017588 -0.0026973924 -0.3972489 -0.10963501 0.18284346 -0.25828552 -0.086346515 0.04335447 -0.3260639 0.30461907 0.59685034 0.1561267 -0.17481922 -0.54541826 -0.08272116 0.44630182 0.016120506 -0.25205985 -0.44913626 0.10204104 0.71528095 -0.16258384 -0.6913418 0.1859292 -0.14782886 -0.27943984 0.12711339 -0.1844933 0.5857883 0.12469745 -0.2275018
36 0.12414401 -0.5024956 0.22136551 0.43448 0.14981289 -0.48364353 0.1023849 0.34357563 -0.37963784 0.021690091 0.10724808 -0.1958457 -0.48383594 -0.036810335 0.20420717 0.33504942 0.07230951 0.28493872 0.32945588 -0.5874417 -0.38303453 0.6189485 -0.25644904 -0.21859159 0.374194 -0.08588834 -0.5997129 0.25525633 -0.11608191 -0.13382173 0.43445432 -0.3380039 0.7292317 0.5456274 -0.4699454 0.12516864 0.7016763 -0.4778983 -0.10474481 -0.023961136 -0.108304426 -0.03215603 0.0691894 -0.20323518 0.28395808 -0.14573462 -0.29325023 -0.45703492 -0.45969015 0.11885218 0.57905287 0.32784143 -0.016532738 -0.29598787 -0.43157357 -0.010140459 0.32621294 -0.23041229 -0.080591604 0.23543301 -0.2872828 -0.016295582 0.12203467 -0.3132546 -0.1456224 -0.05825737 0.34523728 0.002761068 -0.12156367 -0.14056113 -0.12488713 -0.17311352 -0.9422626 -0.022945622 -0.18580125 -0.5399839 -0.32753628 -0.29715937 -0.19198988 -0.30230403 -0.38865578 -0.417424 0.39031655 0.20723113 0.34780312 -0.044159304 0.37074852 -0.40488654 -0.051563825 0.38843763 0.05610959 -0.076149486 0.44894055 -0.41586623 0.6526855 -0.073277906 0.41178966 -0.437776 -0.30119503 -0.08257872 -0.1329356 -0.29331967 -0.074816 -0.0016362466 0.39732417 -0.32687837 0.084659845 0.06769627 -0.18613075 0.07815162 0.100916296 0.26196474 0.2579637 0.4043959 -0.3095989 0.029442368 0.019293725 -0.23890463 -0.23068868 -0.06390832 -0.40558675 0.019750861 -0.5049487 0.28293073 -0.4722208 -0.23872797 0.3316911 0.15207034
9 -0.13721736 -0.56618637 -0.4782195 -0.055458657 0.10536327 -0.29522026 0.33691224 0.6700272 -0.17915577 -0.40427694 0.012069697 -0.17635791 -0.045248706 -0.04629058 0.02345203 0.19244112 0.26766074 0.65535873 -0.3341588 -0.028492488 -0.53117615 -0.3177872 0.14074065 0.12808652 0.0875262 0.045729406 -0.30513653 -0.35492122 -0.17254458 0.045656204 0.43205115 0.07122523 0.4081544 0.24023269 -0.72142196 0.4667806 0.44698524 -0.5013122 -0.12269591 -0.02937089 -0.25189263 0.3097963 0.38651317 0.10522605 -0.096723326 0.06814701 0.0793746 -0.30479744 0.24743909 0.13466436 0.23154864 -0.26181605 0.11302505 -0.033621665 -1.0427623 -0.7528987 0.08303386 -0.12346284 0.13733089 0.023995804 -0.0023233271 -0.60256195 -0.28512093 -0.32665515 -0.022742871 0.38179484 -0.26365435 -0.07874708 0.014762301 -0.26557058 -0.044170193 -0.39387065 -0.10903651 -0.27870223 0.5830403 -0.19208911 0.010094674 -0.119883925 -0.17849894 -0.22512332 0.361055 -0.43318802 0.36890265 0.24652818 0.07733988 0.068823695 0.029061202 -0.8361389 0.30704153 0.4389854 0.3949569 0.20881614 0.4093487 -0.13191825 0.13444945 0.09992413 -0.074437924 -0.2797775 0.3117388 -0.3369769 -0.2846363 -0.19923379 -0.06474552 -0.18523404 -0.21884423 -0.24127065 -0.19462171 0.43338948 0.07595016 -0.2890211 -0.26517755 -0.13735949 0.17248316 0.36523482 -0.32349825 0.06226169 0.29816788 -0.23359253 -0.025090473 -0.2622291 -0.32433832 -0.0013210585 -0.096695594 0.33482268 -0.15613575 0.31267014 -0.19765419 0.2143676
111 0.22333717 -0.38468534 0.20270397 0.2881891 0.24900931 -0.32840246 0.17237519 0.044828743 -0.319395 -0.006126531 0.52501434 0.09308365 -0.20454006 0.024274975 -0.154787 0.27121586 -0.23688225 -0.08937102 -0.19649675 -0.26297256 0.23148392 -0.26372635 0.32553628 -0.23433903 0.046002693 -0.15831666 -0.41887957 0.053505983 0.078857094 -0.376186 0.13872716 0.49396846 0.442181 0.50528604 -0.3103391 -0.21319482 0.32854247 -0.29259226 -0.16802451 0.06052304 0.19237787 0.029261945 0.36395222 -0.17014015 0.24484372 0.31701458 -0.04676239 0.15618464 -0.10779568 0.6655917 0.40845123 -0.10208717 -0.15594207 -0.021597972 -0.4109016 -0.25217634 0.1880885 -0.23441859 -0.40767407 0.058042347 -0.039951187 -0.23031421 -0.23653613 -0.2359659 0.27377084 -0.31412938 -0.06796692 0.24471599 -0.3799455 -0.08528894 0.26041004 -0.20508799 -0.5368929 -0.28615257 0.019575726 -0.17397317 -0.5593274 -0.62383866 -0.2952556 -0.058535118 0.49214074 -0.09725591 0.18425679 0.33400184 0.2161586 0.486817 -0.022232417 -0.58049726 -0.010188727 0.44604394 -0.17473513 0.1761235 0.6037126 -0.3079835 -0.04316513 -0.23233806 0.34263897 -0.5306067 0.14202109 -0.25797865 -0.33224177 0.18609408 -0.29470295 -0.35620043 -0.026597455 -0.18311407 0.20377703 0.54650795 0.055062678 -0.13180198 -0.3903982 0.015204134 0.40676707 -0.00020677428 -0.03922249 -0.4296018 0.087936014 0.6674159 -0.18858546 -0.6332635 0.16375092 -0.2193546 -0.22308786 0.26942915 -0.3138575 0.37369367 0.09986267 -0.25987372
56 0.013134429 -0.24724975 -0.23868714 0.7735447 0.42301244 -0.10225406 -0.11759149 0.74225706 0.09113619 -0.18993874 0.40140668 -0.0056618303 0.25767085 -0.5199109 0.26633883 0.5492013 -0.40645084 -0.058882136 -0.08575724 -0.41285416 -0.10009486 -0.17413364 -0.085579865 -0.39480883 0.18883659 -0.14645553 -0.13558595 0.044182424 -0.4209858 -0.1945966 0.1550279 -0.2955263 0.41825888 0.2543236 -0.273764 0.34439605 0.5919565 -0.5058126 -0.089200325 0.14096741 -0.24132219 -0.017284596 0.44697407 0.0604685 0.21964632 -0.0860994 -0.16784962 -0.19206586 -0.23517556 -0.025769027 -0.49998444 0.13046467 -0.084116556 -0.30422708 -0.24582192 -0.39437503 -0.1431199 -0.17745641 -0.25633946 0.35596138 -0.05593035 -0.008204005 0.15251537 -0.38711065 -0.38595134 -0.25777766 0.06476103 -0.073718086 -0.114953205 0.2512505 -0.098722875 -0.34269506 -0.5937053 -0.12916656 0.11816976 -0.7418807 0.20345955 0.032399073 0.22842528 0.43568292 9.9786266e-05 -0.09211721 0.47791478 0.6185261 -0.06148058 0.29440486 0.32070938 -0.3961537 0.6695089 0.29704303 0.43083456 0.09847251 0.9019454 -0.17710038 -0.019009572 0.07842947 -0.44786444 -0.030811006 -0.55914986 -0.34485802 -0.10824599 -0.16340199 -0.20261106 -0.4595371 -0.17746896 -0.2954758 -0.0071408655 0.42113873 -0.068043314 -0.15094973 0.061829988 0.12315997 0.895243 0.047574762 -0.22451143 -0.47558558 0.29179195 0.0038735839 -0.26518434 -0.6706111 -0.1623241 -0.1786284 -0.49568447 0.05049281 -0.24048857 0.1357552 0.25862888 -0.16619368
20 0.16910845 -0.55749416 0.18247475 0.525327 0.14508489 -0.36041835 -0.15540491 0.42077658 -0.4717824 0.23326923 0.06702026 -0.2074352 -0.45572454 -0.0047661234 0.15246251 0.3051584 0.2710967 0.31992406 0.09423911 -0.674601 -0.5794912 0.6356437 -0.119261555 -0.3056842 0.37230113 -0.06323268 -0.47825107 0.18304853 -0.36760995 -0.32113317 0.3597418 -0.535896 0.6075713 0.5730488 -0.45157978 0.01035392 0.64674515 -0.55783963 -0.18928733 -0.2847118 -0.23292045 -0.24999356 -0.052963566 -0.25587928 0.26639628 -0.2820889 -0.31757122 -0.3600486 -0.5049533 0.41234863 0.48704422 0.33588076 0.15179114 -0.17226979 -0.59238636 -0.03490001 0.3574742 -0.17575102 0.04706965 0.4212579 -0.37724945 0.3381189 0.2983782 -0.347031 -0.27412382 -0.060690023 0.19277166 0.14393178 -0.22931077 -0.06314734 -0.077702165 0.045474097 -0.8562401 -0.13280351 -0.23385352 -0.5930561 -0.3754056 -0.3041287 -0.25698295 -0.22969483 -0.3417826 -0.5006 0.51719207 0.41315734 0.3408432 0.0045276596 0.57626325 -0.31001619 -0.28507558 0.31978023 0.20395353 -0.25964707 0.50973105 -0.37044853 0.5852852 0.12395621 0.6482609 -0.42658222 -0.43894055 -0.18440117 0.049949482 -0.3046045 -0.05993757 0.48589465 0.52249444 -0.3196088 0.21978244 0.09498348 -0.28755742 0.011062657 -0.09099502 0.22942539 0.20621404 0.39821976 -0.44460875 -0.11769651 0.18605913 -0.14999302 -0.22373506 -0.19424142 -0.5044985 0.02783846 -0.3923849 0.10180108 -0.19588494 -0.042574856 0.4506405 0.2554615
33 0.09804549 -0.46073157 0.19630785 0.35179627 0.12428367 -0.49623019 0.13135391 0.28427663 -0.30982938 -0.024665074 0.14085977 -0.14130184 -0.4279244 -0.034078885 0.15361679 0.32819772 -0.0060348543 0.25541693 0.29133156 -0.5142646 -0.30179963 0.51679647 -0.205359 -0.1908199 0.3429292 -0.05576225 -0.6214508 0.19970463 -0.07652328 -0.07788197 0.41735536 -0.26497903 0.7164042 0.5248048 -0.4774454 0.11773429 0.6498438 -0.4265463 -0.07948887 -0.013340082 -0.053061835 0.048267085 0.13557811 -0.20263363 0.2602952 -0.08044342 -0.24821158 -0.44399074 -0.41334137 0.095308125 0.62922186 0.2798129 -0.05368141 -0.22553079 -0.3896992 -0.055417087 0.33293828 -0.20364189 -0.12561803 0.18095964 -0.29363352 -0.09639086 0.035658788 -0.3290072 -0.088013574 -0.07777059 0.3466612 0.0036827645 -0.10934584 -0.13689537 -0.103469774 -0.2097868 -0.90612704 -0.020204466 -0.1890344 -0.5153318 -0.33158392 -0.34517774 -0.21733353 -0.31979373 -0.32410678 -0.3767654 0.34382904 0.18485475 0.34846842 -0.02345969 0.29897243 -0.43137652 -0.049279276 0.40820912 -0.0021489442 -0.006688148 0.40833253 -0.42947966 0.6542828 -0.16092695 0.4056085 -0.41158426 -0.23773785 -0.06722481 -0.22411989 -0.28889257 -0.07418487 -0.08588618 0.40102184 -0.33082753 0.08196635 0.08987417 -0.17441306 0.06182504 0.10357373 0.30389586 0.24678634 0.40965578 -0.21186107 0.059023432 -0.022933166 -0.22429183 -0.2012255 -0.031041427 -0.38191518 0.01533178 -0.48031408 0.2682718 -0.4856981 -0.31240502 0.3053237 0.06602078
40 0.10285735 -0.35092425 0.14298484 0.20591374 0.09042358 -0.5563396 0.3478356 0.22350897 -0.26947206 -0.119976014 0.20611429 0.003462272 -0.32812876 -0.0005808824 0.0769544 0.31429666 -0.11696855 0.24589801 0.31925875 -0.36382785 -0.26569292 0.34041038 -0.18459372 -0.10999096 0.2818749 -0.004045473 -0.68460816 0.14633483 0.015171005 0.061044354 0.46166438 -0.02017189 0.7323967 0.5207524 -0.470747 0.11898891 0.64964414 -0.28584987 -0.060594305 0.0733621 -0.021287069 0.24165638 0.22698124 -0.08109673 0.22289191 0.045464788 -0.1414661 -0.41031817 -0.24255052 0.04824245 0.67099524 0.23079097 -0.12860397 -0.21606702 -0.28841913 -0.18215832 0.38050047 -0.16025162 -0.17911324 0.012149344 -0.24953115 -0.3664225 -0.19922243 -0.29522973 -0.015930781 -0.05542472 0.2964108 -0.0788037 -0.099461325 -0.17174457 -0.037933663 -0.3466605 -0.72217804 -0.0077118524 -0.11434428 -0.30566972 -0.24744882 -0.45637712 -0.22497621 -0.35928607 -0.10206922 -0.31551164 0.2653546 0.06668057 0.27333686 0.035885617 0.11544622 -0.5354096 -0.027563183 0.415956 -0.11492959 0.13446419 0.34132722 -0.45214134 0.5904272 -0.2898494 0.30835858 -0.407635 0.03510741 -0.056979656 -0.39912432 -0.24298644 -0.08952923 -0.26529402 0.2796317 -0.2811278 0.02190203 0.19041738 -0.06166853 0.11221913 0.09791494 0.3089407 0.11281475 0.40598768 -0.17033722 0.10158667 -0.10749289 -0.2268895 -0.1937805 0.12127567 -0.2868931 -0.0235723 -0.40801632 0.28783283 -0.5853869 -0.38706857 0.111535124 -0.019610157
34 0.12888288 -0.19102557 0.12887213 0.16296813 0.08554728 -0.5641746 0.3498245 0.20175889 -0.22632144 -0.08815368 0.2725186 0.118267596 -0.16492362 0.026402118 0.0038133268 0.30188859 -0.21195102 0.14531311 0.2709841 -0.25312558 -0.17628221 0.23894227 -0.1153411 -0.12198828 0.20868428 0.050150856 -0.57757133 0.071025826 -0.0314189 0.06452501 0.3984922 0.06003866 0.60258573 0.4461626 -0.4120539 0.06467453 0.5276287 -0.1592038 -0.07044253 0.072945006 -0.03072687 0.3368127 0.2530632 -0.02619977 0.22300392 0.070673496 -0.12524912 -0.32161075 -0.11485425 0.05554588 0.5877895 0.22094528 -0.17845137 -0.18752605 -0.16630697 -0.17555618 0.4142634 -0.11339289 -0.21906468 -0.037392266 -0.17433983 -0.37601927 -0.3028373 -0.1971207 0.027726473 -0.10026887 0.2454217 -0.053955987 -0.10149776 -0.13419466 0.007178641 -0.33731306 -0.5541708 -0.0027473604 -0.09399753 -0.21670288 -0.175951 -0.448782 -0.17355996 -0.21117872 0.012582468 -0.23770884 0.18772271 0.086624816 0.1393717 0.15968919 0.052750643 -0.461289 -0.0618445 0.3582467 -0.16575892 0.18939336 0.35245153 -0.4493732 0.48984322 -0.23661128 0.21751246 -0.43077204 0.13495672 -0.056731395 -0.4380694 -0.1487531 -0.0914739 -0.22951867 0.18878782 -0.26021987 0.03919056 0.23822582 0.0011026057 0.13068056 0.12547953 0.26980013 0.029373396 0.33521438 -0.17518392 0.043116752 -0.14100364 -0.19463234 -0.16936527 0.20304208 -0.2224606 -0.029398607 -0.30039296 0.16374788 -0.49620953 -0.38717207 0.044803612 -0.069143586
109 0.3071891 -0.44359756 0.2539578 0.2509518 0.20201455 -0.18865153 -0.076946475 -0.014296048 -0.3609457 0.030745039 0.5147532 0.13167161 -0.29299605 -0.093884274 -0.10228228 0.34237006 -0.028789515 -0.04598858 -0.15802976 -0.42042497 0.1846249 -0.13292429 0.28851688 -0.3026116 0.13381691 -0.09376603 -0.44844243 0.043309323 0.11097621 -0.58957875 0.120891355 0.48010036 0.38615337 0.47466463 -0.18042338 -0.09174957 0.2866157 -0.42806286 -0.27144063 0.039040115 0.14610276 -0.12010987 0.31949225 -0.31382236 0.23795183 0.1284664 -0.020880494 0.13098995 -0.2214722 0.79444504 0.47166812 -0.20078553 -0.12980329 -0.067057036 -0.49348098 -0.1763049 0.035745498 -0.18649091 -0.45771465 0.14813022 0.032345194 -0.12223108 -0.16080329 -0.2594869 0.22521919 -0.33191964 0.019551722 0.3181524 -0.44320422 -0.18143585 0.3699496 -0.18658169 -0.45150262 -0.32958078 0.103506766 -0.1592246 -0.50907373 -0.64774805 -0.27291274 -0.07149589 0.4898835 -0.18883964 0.19577058 0.41890576 0.21065453 0.38945177 -0.07514788 -0.5926581 0.028763073 0.41083997 -0.18373325 0.15032578 0.67721725 -0.28859138 0.07420866 -0.05413212 0.4823636 -0.57797647 0.024133507 -0.38605314 -0.15039133 0.20432179 -0.28262186 -0.123114936 0.02582678 -0.27429336 0.2991936 0.5653129 0.13899253 -0.19428618 -0.53539973 -0.05632343 0.4355286 -0.010746158 -0.20059629 -0.48878628 0.11241242 0.74346167 -0.18554534 -0.72720474 0.19729587 -0.16374885 -0.25703305 0.20736328 -0.1862621 0.60360855 0.0991944 -0.25538632
117 0.18809707 -0.34043214 0.23360743 0.23926078 0.23066184 -0.35784337 0.23403628 -0.0017406956 -0.2791826 -0.024239833 0.5011908 0.1299754 -0.21167734 0.039447892 -0.13311017 0.2511017 -0.26134798 -0.084807314 -0.10712165 -0.25163618 0.21961431 -0.20655443 0.28670824 -0.24428347 0.018024135 -0.122365095 -0.44380814 0.06615573 0.10645687 -0.30852315 0.16566117 0.46807793 0.44269508 0.5202966 -0.2995916 -0.20635626 0.349454 -0.22109507 -0.15935643 0.08287539 0.22090963 0.078854606 0.37455422 -0.14657485 0.27035785 0.3205317 -0.040917788 0.121609144 -0.08254304 0.5925727 0.4584414 -0.06159462 -0.17677967 0.005926558 -0.31894293 -0.21239817 0.23636916 -0.23745827 -0.41239306 0.013693451 -0.060850188 -0.2556532 -0.24903286 -0.23904781 0.30133995 -0.3026188 -0.031633507 0.16471285 -0.31939384 -0.07402602 0.23694722 -0.1948218 -0.5526218 -0.23243818 -0.036412813 -0.15855218 -0.5095833 -0.56775063 -0.2653394 -0.06518168 0.40918273 -0.049864788 0.14550875 0.273008 0.21288922 0.43533438 -0.0089709 -0.5186184 -0.04803221 0.43700826 -0.21020219 0.15747225 0.5141663 -0.33069915 0.016786084 -0.28959867 0.324694 -0.5171271 0.15322493 -0.18213136 -0.354442 0.1608855 -0.24538277 -0.37179694 0.0045813373 -0.16138789 0.17566633 0.44434422 0.048733756 -0.07594734 -0.30198786 0.049753968 0.31942883 0.030693281 -0.03046573 -0.3312131 0.03604119 0.5934966 -0.18765368 -0.48195687 0.14332451 -0.19705464 -0.2193646 0.24141443 -0.3577598 0.22652075 0.05781556 -0.25637403
31 0.11233361 -0.56524193 0.19924982 0.43317318 0.13346997 -0.4146046 0.032708652 0.34230542 -0.38449955 0.030466214 0.08392803 -0.21511325 -0.507839 -0.060818296 0.22816694 0.3224026 0.13265045 0.3185541 0.28683916 -0.61381054 -0.4024776 0.64331263 -0.27774692 -0.24463439 0.3659039 -0.09092701 -0.5943875 0.24790853 -0.107649796 -0.17740583 0.4013316 -0.36080533 0.68245065 0.52598685 -0.43926919 0.13950008 0.6885824 -0.50018984 -0.092521094 -0.05596464 -0.13884507 -0.097746894 0.042686798 -0.21096952 0.25441867 -0.17441007 -0.29424027 -0.44049034 -0.46580005 0.17478909 0.5555278 0.32770252 0.030681098 -0.2591487 -0.45272082 0.009723618 0.29143003 -0.20645095 -0.059692923 0.2612294 -0.2704395 0.033933625 0.17729738 -0.30845097 -0.15763256 -0.020224534 0.32623246 0.048709486 -0.13553223 -0.16431296 -0.124879956 -0.15495268 -0.93795186 -0.055796526 -0.17072427 -0.5275622 -0.32129252 -0.25861877 -0.18828504 -0.27893376 -0.37503085 -0.417382 0.42454627 0.23874845 0.37884626 -0.039379835 0.3998655 -0.41086444 -0.078868225 0.3682306 0.07685204 -0.10789759 0.42479894 -0.39153808 0.6620374 -0.013231367 0.4550768 -0.41304368 -0.3344536 -0.15026553 -0.06601114 -0.2997043 -0.083305545 0.07454644 0.42961624 -0.33705384 0.09923219 0.044504896 -0.17610997 0.043404616 0.080454014 0.24731639 0.2541255 0.41305682 -0.342246 -0.0031676132 0.03721333 -0.23824222 -0.21608752 -0.092545606 -0.4195443 0.033389777 -0.49242514 0.24652395 -0.41304803 -0.15756047 0.34063688 0.16086397
114 0.3092432 -0.42050216 0.22574133 0.29192787 0.24496028 -0.26182887 0.08262053 0.012539443 -0.38053885 0.018339338 0.5354023 0.12809888 -0.26932368 -0.026781691 -0.16587976 0.28606245 -0.116281934 -0.058936242 -0.2133145 -0.30389118 0.16361803 -0.1797862 0.33616087 -0.27760193 0.09016552 -0.12396471 -0.45870486 0.060656447 0.108654134 -0.45785105 0.11506385 0.53658885 0.42508662 0.52183807 -0.26532823 -0.18894221 0.32379532 -0.34108105 -0.22539127 0.06311148 0.11027112 -0.038746938 0.3439331 -0.22360937 0.24816 0.24047332 -0.03343984 0.16636021 -0.17144057 0.7668695 0.47408074 -0.1540145 -0.14712241 -0.08337946 -0.46623942 -0.18879907 0.16932343 -0.22025229 -0.42446038 0.051457413 0.017778842 -0.20672143 -0.2557456 -0.25928572 0.2808458 -0.31601375 -0.045225497 0.3003183 -0.442669 -0.15704402 0.33708525 -0.21861345 -0.51166093 -0.32305306 0.061293274 -0.11911817 -0.54790777 -0.63378394 -0.28846434 -0.076571085 0.5278001 -0.14058556 0.189247 0.35577813 0.20073242 0.4779781 -0.049047604 -0.5919661 -0.019942284 0.41102543 -0.18723148 0.15023461 0.5951182 -0.31104854 0.026939588 -0.15126696 0.42461553 -0.569677 0.13493928 -0.33677617 -0.25579116 0.18956833 -0.30211732 -0.21381536 -0.005733216 -0.217966 0.23872124 0.5384613 0.1037709 -0.16187471 -0.4546689 -0.029370636 0.3982517 -0.008779807 -0.117066525 -0.479801 0.07445215 0.7289438 -0.1951216 -0.67231303 0.19172628 -0.20593809 -0.22102728 0.28314707 -0.2638871 0.5034006 0.0703863 -0.2600458
39 0.09188419 -0.37526008 0.18465012 0.264618 0.099134736 -0.5693658 0.22548069 0.23548815 -0.29317808 -0.06041594 0.18106937 -0.03338646 -0.3593137 0.011111477 0.10739144 0.33011678 -0.12860726 0.2472884 0.3185421 -0.37836772 -0.28030106 0.43129534 -0.18071356 -0.15194333 0.29219663 -0.006984281 -0.66108346 0.16420841 -0.039431363 -0.0031876126 0.41205198 -0.14110187 0.7177549 0.5154576 -0.46642214 0.08676169 0.66354823 -0.30990705 -0.06367481 0.033166006 -0.053458307 0.16739662 0.20801891 -0.12934321 0.26452732 -0.0024964055 -0.21824041 -0.41667134 -0.27232453 0.08975558 0.6656274 0.28873566 -0.094754025 -0.2114112 -0.3136968 -0.090798385 0.42275026 -0.17264333 -0.16537718 0.0822412 -0.28993645 -0.25089693 -0.09214279 -0.31435186 -0.027105747 -0.057781775 0.35323673 -0.021135433 -0.08469963 -0.17607552 -0.04975821 -0.27172402 -0.83069336 -0.03835337 -0.1635598 -0.41223025 -0.2882183 -0.411653 -0.22036336 -0.30183777 -0.21904401 -0.34329635 0.30024028 0.13360006 0.27618402 0.026685245 0.20344819 -0.43598768 -0.058224097 0.4101866 -0.056127142 0.062113274 0.35232392 -0.46292555 0.6384449 -0.22367708 0.34818354 -0.40146613 -0.0583316 -0.042275492 -0.32683018 -0.24515145 -0.09428984 -0.14555812 0.34068707 -0.27566156 0.0719056 0.13257453 -0.11646976 0.10187174 0.13055842 0.31094173 0.16116174 0.39621782 -0.20776606 0.07638455 -0.09794571 -0.2303838 -0.16124605 0.10145322 -0.35892394 0.0059430622 -0.4236572 0.24370301 -0.5232427 -0.37566522 0.19092633 0.026534852
118 0.18882641 -0.3060857 0.25061765 0.23874976 0.23125312 -0.4684916 0.3181069 0.042009037 -0.26335293 -0.03760618 0.48531368 0.13117635 -0.17099239 0.11728718 -0.10302088 0.26075667 -0.3955601 -0.109105654 -0.091428444 -0.14960237 0.2755082 -0.20308092 0.30045536 -0.18019146 0.04981369 -0.07768122 -0.4776142 0.09119506 0.124777526 -0.21249065 0.17732298 0.44158617 0.4649162 0.51489216 -0.36163777 -0.24051212 0.40792325 -0.1860077 -0.08551037 0.09731466 0.21082774 0.19889976 0.45893896 -0.102162905 0.2793593 0.40849042 -0.08791024 0.14612348 -0.03547199 0.5480496 0.4849564 -0.0013522713 -0.15027863 0.021425847 -0.23283699 -0.25774157 0.35097075 -0.22241049 -0.39175764 -0.026619313 -0.15923703 -0.33157265 -0.3270463 -0.21432747 0.33964148 -0.3335301 0.025312234 0.12336223 -0.27794337 -0.0124956705 0.19384274 -0.19060978 -0.5943973 -0.19641632 -0.08247334 -0.19523199 -0.4813735 -0.5879132 -0.3118027 -0.018869568 0.3341239 -0.06056953 0.12689874 0.26538664 0.18727922 0.45473313 0.014888819 -0.5032422 -0.02260998 0.47270408 -0.1792481 0.18391877 0.4912248 -0.37431616 0.047129974 -0.35336939 0.24735658 -0.45570692 0.20436838 -0.121093154 -0.47412112 0.117980964 -0.25324678 -0.41397905 0.0031737112 -0.16850042 0.13831124 0.4926843 -0.006888008 -0.0050933077 -0.20222203 0.06217547 0.26758382 0.06300476 0.014939759 -0.26675513 -0.024652801 0.5241022 -0.10132887 -0.40167472 0.06633749 -0.20920861 -0.2375275 0.20003922 -0.41895062 0.043637373 0.02854438 -0.25791794
43 0.01703131 -0.48680568 0.02840949 0.31724018 0.119731374 0.07486063 0.1857852 0.4397757 -0.554834 -0.048549335 0.003852365 -0.10758531 -0.14840697 -0.13858917 -0.1319235 -0.2816204 0.21329007 0.34057215 -0.05118809 -0.100309275 -0.48088855 -0.09018342 -0.036222227 -0.4882485 -0.19334942 0.054928508 -0.3743159 0.08413384 -0.24481729 -0.72605395 -0.09431538 -0.28748116 0.1586021 0.022274746 -0.06444795 -0.216298 0.43494126 -0.5553108 -0.3199602 0.09436431 -0.69350696 -0.44649127 -0.02868363 0.05379824 -0.016271584 0.078625716 -0.045730338 0.21792276 0.25636485 0.9065036 -0.5753021 0.2994668 0.56680745 0.06029857 0.11720511 -0.07551289 0.19639751 -0.38430834 0.23611693 0.2199502 0.18446293 -0.1293897 0.074755825 0.2404102 -0.07851077 0.02370008 0.13655034 0.17480567 -0.58542234 -0.18740197 0.07483293 0.1414495 -0.33789942 -0.1938018 0.039681807 0.066078 -0.1553643 0.07677534 0.06468683 0.1715154 0.20269957 -0.17704926 0.43099725 0.4309365 0.08951323 0.34411207 0.33759907 -0.23769954 0.058319982 0.017088983 0.25793326 -0.078195214 0.19106568 0.2057519 -0.04551002 0.25472856 -0.09051801 -0.03918478 -0.25104877 -0.055033606 0.20078053 -0.28154728 -0.022482686 0.078844465 0.25943232 0.0404665 -0.09733927 0.12172007 0.28856304 -0.01847795 0.063853204 -0.46675584 0.05951933 0.018916717 -1.0071195 -0.065176256 0.08331915 0.10393006 -0.0765712 -0.0012091715 -0.033090122 -0.13492745 0.069328874 -0.11894227 -0.06825383 0.52085096 0.06546369 0.24025789
82 -0.09521312 -0.6475665 -0.48759693 -0.042436752 0.100513324 -0.24793497 0.27180162 0.7030908 -0.21806993 -0.40097186 0.0050106556 -0.19805323 -0.07424581 -0.11382284 0.07555541 0.22984274 0.3886514 0.7448001 -0.3679573 -0.045426574 -0.61650914 -0.2811899 0.1284903 0.09277463 0.09683087 0.0064279623 -0.3207571 -0.33417577 -0.1882486 0.010794498 0.44637752 0.0658889 0.39376622 0.2538141 -0.7075099 0.5147968 0.49513537 -0.56170785 -0.13041893 -0.04946869 -0.32129624 0.23862953 0.35885975 0.09537108 -0.09741924 0.02107593 0.09639775 -0.33201754 0.21960333 0.19421092 0.2577405 -0.33436486 0.14186779 -0.06575429 -1.149503 -0.7759302 0.0775136 -0.1350819 0.14109606 0.06260851 0.008039237 -0.58713114 -0.24856412 -0.35278597 -0.06493127 0.43454045 -0.29562032 -0.059432905 0.022052933 -0.29526293 -0.02922481 -0.3942309 -0.08838875 -0.3314999 0.67164284 -0.20807725 0.01092653 -0.08871676 -0.1906926 -0.21525031 0.3897258 -0.47714177 0.42087075 0.29755387 0.09569247 0.09895279 0.018650113 -0.8830142 0.3238622 0.4355912 0.40192536 0.17188479 0.4247856 -0.10594607 0.16240911 0.18000136 -0.016940538 -0.30202055 0.2903099 -0.4388225 -0.19270203 -0.20668998 -0.08434671 -0.10267107 -0.24458739 -0.28277707 -0.1734518 0.44387165 0.09451061 -0.35756728 -0.31511897 -0.17962717 0.20689975 0.37616435 -0.37382564 0.0030588466 0.35370874 -0.18881634 -0.028892744 -0.3159792 -0.33896056 0.021443708 -0.108349375 0.36450565 -0.113855 0.45424 -0.20521481 0.24739856
29 0.1574032 -0.5588207 0.1630883 0.51879585 0.13300401 -0.3633192 -0.13816682 0.41927412 -0.45646963 0.19819844 0.062614396 -0.23294383 -0.43935516 0.008719248 0.16224468 0.30355293 0.2574554 0.30284554 0.097304076 -0.6658756 -0.56318 0.60821676 -0.12217556 -0.29101366 0.36426726 -0.065093584 -0.43918043 0.17227572 -0.34759265 -0.3108887 0.36793602 -0.5299465 0.58689535 0.5569012 -0.45671776 0.044171404 0.6346487 -0.5331649 -0.17907831 -0.25808135 -0.23878375 -0.23506165 -0.035608146 -0.2505529 0.27989665 -0.27741268 -0.32556322 -0.36040595 -0.46979877 0.36778086 0.4518416 0.3010977 0.13611181 -0.19602458 -0.6113835 -0.02651856 0.32250696 -0.19495744 0.06456673 0.40652984 -0.3502601 0.33206186 0.27717936 -0.347263 -0.26851302 -0.042941682 0.17784378 0.11830144 -0.20117962 -0.07131896 -0.09504901 0.03930605 -0.83744234 -0.12218365 -0.2001019 -0.58871824 -0.35231584 -0.25643203 -0.23346601 -0.23343807 -0.365793 -0.5019389 0.50372237 0.39499742 0.3344778 -0.013839415 0.5517635 -0.30938366 -0.26150706 0.30338952 0.22404745 -0.24752268 0.5171407 -0.3588091 0.5673267 0.13735422 0.60584146 -0.41635466 -0.4299569 -0.17310932 0.043265928 -0.2945986 -0.047674134 0.4380995 0.48023286 -0.31519273 0.18300372 0.0963895 -0.29058436 0.00027458702 -0.07653433 0.22348711 0.22224279 0.3759514 -0.40271115 -0.10718074 0.19150595 -0.15678252 -0.23523502 -0.2161267 -0.49286953 0.054139365 -0.41723973 0.118565135 -0.20138139 -0.023962839 0.45681152 0.2640938
42 0.064190276 -0.48434415 0.055405293 0.3835112 0.124959126 0.061961323 0.18725365 0.47698626 -0.55948097 -0.024345834 -0.032278597 -0.20546526 -0.14377674 -0.12792036 -0.14051166 -0.30974507 0.26233256 0.29801002 -0.07245103 -0.106113315 -0.40661564 -0.05703181 -0.009143478 -0.4479071 -0.17232373 0.021623738 -0.3226214 0.09713454 -0.22564274 -0.7285131 -0.1386281 -0.28702384 0.15796661 -0.019302253 -0.09311495 -0.23301561 0.3786822 -0.61075264 -0.29355195 0.10649655 -0.661554 -0.48755458 -0.07272541 0.024931703 -0.02865947 0.11713024 -0.128826 0.24550174 0.18147682 0.8888258 -0.5818437 0.30420607 0.54352754 0.0031982486 0.047920223 -0.03639221 0.16875957 -0.4068499 0.2435467 0.20974584 0.20952006 -0.09574303 0.11267457 0.29132065 -0.080009304 -0.03667619 0.10282117 0.20370051 -0.56404763 -0.15805173 0.023453 0.17521381 -0.34135586 -0.1673775 0.044047337 0.045548458 -0.19257994 0.11574608 0.08038534 0.13853694 0.15224731 -0.1731573 0.41153792 0.4223072 0.085795596 0.32180595 0.35952315 -0.19433814 0.11086293 -0.0045717284 0.23720856 -0.07141423 0.14445442 0.23527685 -0.09913492 0.28643957 -0.10676342 -0.08324938 -0.26668674 -0.018745195 0.23070988 -0.26179194 -0.011873389 0.045308728 0.24851152 -0.016189065 -0.10872806 0.12915751 0.25386882 -0.024346827 0.08558039 -0.5121148 0.07241196 -0.036299456 -0.9463117 -0.07201941 0.10688281 0.11271608 -0.08642236 -0.099176966 0.020778984 -0.14848547 0.07393562 -0.043620028 -0.025707161 0.5746562 0.09632832 0.2695863
55 0.01894813 -0.29131758 -0.29347414 0.8188746 0.4260856 0.015876355 -0.18456401 0.8006445 0.07524187 -0.1745145 0.39493552 0.012126822 0.26209992 -0.5932657 0.3241759 0.5738266 -0.28693986 -0.043794338 -0.13565777 -0.4461473 -0.16743803 -0.17916575 -0.10586598 -0.39655575 0.23792282 -0.14373268 -0.17059459 0.032768726 -0.41573903 -0.2388642 0.123628296 -0.29003537 0.40543708 0.27064383 -0.19475915 0.35875672 0.6320139 -0.58731246 -0.08050093 0.13406895 -0.34125006 -0.118209444 0.4331452 0.09076623 0.20388299 -0.107743405 -0.15380691 -0.17243534 -0.29183608 0.03091906 -0.57246256 0.124895304 -0.018041294 -0.33258113 -0.24622457 -0.41601074 -0.17537117 -0.11194846 -0.25200844 0.35969096 -0.031818856 0.009016186 0.21883106 -0.41044244 -0.42889228 -0.2678402 0.03290274 -0.04868773 -0.11557571 0.25004727 -0.069835186 -0.33187243 -0.55431944 -0.17225532 0.16263187 -0.7239797 0.2437279 0.04081229 0.24467967 0.43508467 0.026939655 -0.10949952 0.54008806 0.6690387 -0.07303276 0.2898744 0.3224639 -0.40517095 0.699251 0.26148137 0.51378924 0.029408209 0.8947398 -0.15594311 -0.04060695 0.11838165 -0.4080447 0.013957831 -0.61080426 -0.42517176 -0.010316809 -0.17151834 -0.22275347 -0.388769 -0.1945332 -0.31249642 -0.013751449 0.48185295 -0.019760642 -0.19846712 0.019301886 0.10595738 0.9346596 0.050473183 -0.29649186 -0.58700293 0.3177039 0.06562539 -0.25384316 -0.7554745 -0.14745235 -0.20888421 -0.49711123 0.05576333 -0.20337193 0.28331605 0.24654707 -0.18219192
22 -0.008428617 -0.4442156 0.00069934013 0.26046506 0.1482201 0.15446177 0.077893555 0.34128618 -0.511588 -0.032966565 0.037208695 -0.006815768 -0.12415322 -0.16984428 -0.07264758 -0.23156416 0.21720025 0.31832263 0.05905889 -0.18919574 -0.52310115 -0.096366785 -0.075520694 -0.5473756 -0.23325294 0.037111267 -0.32113585 0.06414669 -0.2608396 -0.7244889 -0.05628052 -0.30660912 0.1296062 0.075540826 0.007717894 -0.15442067 0.45382094 -0.48660445 -0.312244 0.08906835 -0.63501537 -0.49563012 -0.021454671 0.057539243 -0.002262946 0.022958523 -0.018125957 0.19691513 0.2387443 0.86294657 -0.55268013 0.32042196 0.57460344 0.14031519 0.18920647 -0.110357 0.18300904 -0.32276365 0.19636607 0.24272197 0.11912181 -0.042262018 0.09333297 0.19932911 -0.07980892 0.066588044 0.11490539 0.15944089 -0.59474194 -0.17783353 0.10815742 0.13302152 -0.34459534 -0.24623781 0.004157802 0.053551525 -0.13437912 0.056012984 0.056114092 0.23020487 0.20937987 -0.09367987 0.42650422 0.43193117 0.12821624 0.32069066 0.36185208 -0.23774812 -0.043460514 0.051721826 0.22966303 -0.12906973 0.25854775 0.17896858 -0.01608411 0.25796586 -0.057700556 -0.014434622 -0.27794197 -0.088384025 0.20130946 -0.29126555 -0.02230321 0.104199365 0.28906947 0.05526906 -0.09636163 0.06439298 0.30571973 -0.015506619 -0.011308345 -0.4360551 0.07556876 0.05273262 -1.0178607 -0.057881907 0.1008331 0.081552446 -0.10999292 0.06323053 -0.053636074 -0.13334547 0.06756431 -0.21048863 -0.085807495 0.47261053 0.026171139 0.21644926
76 -0.4260451 -0.73891366 -0.091122106 0.28827596 0.29356903 0.14808981 0.14141883 0.36425042 -0.1410622 -0.08787848 0.05728568 0.06779628 -0.35535505 0.19503519 0.31452978 -0.105535954 0.24925107 0.3652732 -0.15680763 -0.04040933 -0.06534574 -0.07135207 -0.33134946 -0.19214457 -0.42641717 -0.013966413 -0.4498503 0.23490843 0.22956654 -0.5196162 -0.017128509 -0.03900384 0.07726464 0.17149915 0.15495393 0.18246537 0.5447399 -0.29635078 0.1857504 0.26680458 -0.071896635 -0.15782501 0.4051701 0.0876316 -0.009492773 0.06596912 -0.16992095 0.4343914 0.14921917 0.41118908 -0.023606503 0.15419613 0.55145776 0.5766412 0.11050417 -0.44035676 0.2648666 -0.21803865 0.020786967 0.12737371 -0.13093442 0.08405212 0.330121 0.12931445 0.20363933 0.20560698 -0.1697912 0.19553281 -0.051271386 -0.0031104847 -0.020161394 0.27797633 -0.5616416 -0.37747505 0.044834595 -0.17935394 0.06800401 0.18728441 -0.12907499 0.31330228 -0.22321825 -0.11105296 0.3408014 0.21555667 0.4510622 0.08422373 0.5446895 -0.3899764 -0.0018093023 0.38595152 0.57429856 -0.27075803 0.01895611 0.046165437 0.06890392 0.05568723 -0.12216654 -0.052067243 -0.035679527 -0.06129631 0.048172053 -0.49806407 -0.07621311 0.12145372 -0.03482639 0.012673225 0.1868638 -0.09363999 -5.5715725e-05 0.20646964 -0.3159501 -0.25079173 0.07698767 0.37411317 -0.6242128 -0.062373474 0.40261662 0.20409688 0.22603858 -0.04091014 -0.15185386 -0.1840267 -0.01388136 -0.3128921 -0.28128088 0.07402336 -0.20171386 0.041748885
12 -0.40755764 -0.6847406 -0.08411251 0.23905663 0.2511927 0.1658459 0.08302526 0.2650418 -0.15041035 -0.06691005 0.07301075 0.15409054 -0.31524035 0.11199515 0.27204925 -0.06877717 0.24401008 0.35222718 -0.017203264 -0.10609703 -0.1769384 -0.085290566 -0.33281043 -0.26837555 -0.42126492 0.01813669 -0.47496158 0.17602034 0.113404416 -0.53313553 0.043018587 -0.11364419 0.07342972 0.20107655 0.18764272 0.12437472 0.5887535 -0.28009197 0.08965303 0.24187183 -0.16279875 -0.226526 0.37600473 0.085831255 -0.009569797 -0.0027717573 -0.0897463 0.34993717 0.2030444 0.45240435 -0.07224153 0.14979558 0.58149487 0.59520966 0.20791198 -0.43144825 0.2641584 -0.2020947 0.0011805976 0.15796329 -0.094934784 0.10187577 0.3093257 0.11018389 0.13966814 0.24327599 -0.13982418 0.14420557 -0.12634197 -0.039962366 0.07964085 0.22085702 -0.55398035 -0.39277664 0.012212783 -0.13078314 0.08861207 0.1409553 -0.08738491 0.31022996 -0.13615751 -0.09202631 0.3571754 0.25289905 0.41493183 0.13047802 0.5329137 -0.35789457 -0.13578528 0.3784728 0.49564162 -0.25722846 0.09039656 0.02702636 0.13145068 0.066111736 -0.031506784 -0.05031391 -0.044411 -0.09824096 0.099741496 -0.45993567 -0.044079844 0.16290353 0.026676394 0.060498416 0.18625863 -0.10038229 0.12171449 0.18558419 -0.30772176 -0.21424955 0.04536741 0.3775846 -0.7449112 -0.06322542 0.34960818 0.1910681 0.12630548 0.06450057 -0.18259402 -0.17925994 0.024352552 -0.39819536 -0.30929375 0.09201498 -0.19832745 0.039283387
4 0.008590312 -0.14976007 -0.22230253 0.7595406 0.45770365 -0.157777 -0.118980184 0.7181968 0.098720334 -0.19866861 0.3965156 -0.031767465 0.2842354 -0.46662754 0.21973686 0.5103049 -0.53335774 -0.11872302 -0.058613908 -0.3766585 -0.025387706 -0.1690044 -0.07064025 -0.41013116 0.13383958 -0.1250881 -0.07760327 0.053628474 -0.44202524 -0.22032544 0.15060106 -0.3056227 0.38310444 0.17914909 -0.32521927 0.3427413 0.51813066 -0.44958624 -0.11238993 0.15970074 -0.17737603 0.10631312 0.4210094 0.041022327 0.24260788 -0.071162514 -0.2131173 -0.15345998 -0.16953598 -0.069688156 -0.4940628 0.16616179 -0.13473548 -0.2888969 -0.19721135 -0.3746919 -0.12587172 -0.2224538 -0.24604851 0.33024496 -0.027123595 -0.017801786 0.12449737 -0.3007348 -0.34276298 -0.25434658 0.09918961 -0.06429078 -0.12650439 0.24160464 -0.17029619 -0.35654044 -0.6123039 -0.080648966 0.083211936 -0.74981487 0.18236256 0.095136836 0.22838135 0.49544522 -0.043917786 -0.074079715 0.42193857 0.587343 -0.06547316 0.30743548 0.35948157 -0.33960629 0.6642644 0.33555666 0.3937065 0.16574135 0.9380644 -0.19610702 -0.030689951 0.08767328 -0.5220874 -0.08064416 -0.527023 -0.27198255 -0.15090784 -0.14665854 -0.20700353 -0.5014108 -0.16808179 -0.29701862 -0.032421924 0.3866251 -0.092315026 -0.110202275 0.11149328 0.061492212 0.86944056 -0.023090577 -0.23953058 -0.37225705 0.2789426 -0.049972367 -0.27398014 -0.59906775 -0.17077371 -0.16254309 -0.47377294 0.017952183 -0.24769883 0.038109258 0.26911116 -0.11205677
83 -0.15595874 -0.5030341 -0.46191397 -0.014079699 0.09067636 -0.4234649 0.48392966 0.7120299 -0.19710934 -0.40896437 0.027344065 -0.19428694 -0.060028452 0.0042649102 -0.044873413 0.18201971 0.13393606 0.5743473 -0.2782011 -0.033238616 -0.4567924 -0.37365353 0.12648296 0.18190718 0.07246678 0.037401114 -0.3836308 -0.3261188 -0.18927735 0.07691918 0.45306325 0.057388455 0.5040644 0.24530229 -0.7833049 0.4064729 0.47629565 -0.48926878 -0.10584349 -0.004293074 -0.1658373 0.35480016 0.41179946 0.13954648 -0.068774834 0.1529153 0.07138024 -0.2869092 0.21189392 0.10556447 0.22161722 -0.20011178 0.060372308 -0.07809352 -0.9302638 -0.77515244 0.12354501 -0.18109326 0.14535198 0.004880661 -0.038389385 -0.62823695 -0.34268555 -0.3171254 -0.008148149 0.27690092 -0.21778584 -0.1498934 0.025252344 -0.20615771 -0.085146815 -0.36905113 -0.16933365 -0.21288659 0.46594587 -0.19051036 -0.013341038 -0.16559581 -0.16412896 -0.30111176 0.3009877 -0.4155962 0.37338492 0.1564005 0.07919612 0.032597844 0.0306676 -0.8148117 0.31641096 0.41676834 0.37129158 0.2452727 0.3728881 -0.15573794 0.07907931 -0.01418201 -0.108838394 -0.27453882 0.3256524 -0.18162039 -0.37810853 -0.20002854 -0.043875165 -0.32596177 -0.18538575 -0.20936732 -0.19121552 0.4447219 0.008948218 -0.20152587 -0.24962585 -0.05352067 0.145792 0.37508026 -0.2614528 0.12669872 0.24354216 -0.24864697 -0.060077097 -0.22125445 -0.29359877 -0.051505674 -0.16931854 0.3627672 -0.26531234 0.1752019 -0.1397597 0.20432264
74 -0.39007607 -0.76142156 -0.09564864 0.38177347 0.26997593 0.11530425 0.15388264 0.41706678 -0.13328147 -0.048178453 0.016714668 -0.069526926 -0.36044076 0.18856251 0.3168727 -0.12344965 0.37901878 0.27959928 -0.19065389 -0.05261581 -0.028836964 0.04555275 -0.3920438 -0.10528298 -0.33640465 -0.04470346 -0.40398908 0.2185793 0.2111343 -0.58149856 -0.05803517 -0.10898073 0.05264486 0.079592794 0.0936785 0.14052947 0.43967307 -0.39486492 0.26459867 0.29747835 -0.13225378 -0.16645426 0.32221752 -0.0103922 -0.033493876 0.029916007 -0.25743067 0.46483368 0.05289323 0.40791762 -0.051070087 0.0908286 0.5363632 0.44256023 0.009752317 -0.34181598 0.20702803 -0.21508302 0.02611445 0.1302776 -0.0067120376 0.19391102 0.379925 0.2635542 0.16637988 0.2001471 -0.20662643 0.25212952 -0.016200736 -0.009109122 -0.06590026 0.2995784 -0.5331669 -0.2972821 0.080230385 -0.1589233 0.05802823 0.26132563 -0.109783545 0.26080787 -0.2790886 -0.19838874 0.30674627 0.19493347 0.36610407 0.0731102 0.5891772 -0.36058065 0.06709043 0.35479513 0.58329624 -0.28372884 -0.07267751 0.10786439 0.009093271 0.15576524 -0.12762183 -0.07650892 -0.07992136 -0.069961 0.18766187 -0.48661423 -0.038682517 0.22043575 -0.10096176 -0.06875069 0.2242349 -0.06416322 -0.012598696 0.20494443 -0.28352597 -0.32811868 0.09154422 0.34800693 -0.61823916 -0.13714145 0.41544652 0.1545172 0.16839108 -0.14309351 -0.172148 -0.170361 0.016734222 -0.24928424 -0.16821381 0.24104424 -0.08221528 0.084414095
7 0.01520526 -0.13836008 -0.22523913 0.43847182 0.43372786 0.4265197 -0.098683156 0.1939176 -0.3873555 -0.0008525212 0.18361698 0.27151218 -0.15637836 -0.086589605 0.019846933 0.044803277 0.14913872 0.3772824 0.09877109 -0.2077375 -0.5927831 0.021394353 -0.17348754 -0.5582247 -0.121783204 0.0060028066 -0.45045373 0.23470415 -0.11895538 -0.55441564 0.30586517 0.02934901 0.21576707 0.24726342 0.20482987 0.10627984 0.68541324 0.007864764 -0.32515866 0.27273935 -0.6517426 -0.078532405 0.2543629 0.1843026 0.035634436 -0.24013811 -0.037800558 0.26096505 0.25318938 0.460449 -0.2425253 0.26427194 0.37576964 0.047700904 0.19254927 -0.15879814 0.13453004 -0.17961298 -0.029469993 -0.0270308 0.28750986 0.08842973 0.08740717 0.09415363 0.046330005 0.2949256 -0.028859306 0.02242558 -0.41549602 -0.14282554 0.25644594 -0.2615508 -0.26638982 -0.22995776 0.23847528 0.19347547 0.12686783 0.01984696 0.08763838 0.37912944 0.1671069 -0.09749254 0.24293385 0.1905435 0.08794522 0.31764188 0.19144323 -0.15339063 -0.2702538 0.025235413 0.31192103 -0.13155454 0.38603395 -0.076855 0.05443883 0.1967058 0.13742903 -0.14153114 -0.09479318 -0.32516733 0.15388936 -0.13331534 -0.11329908 0.36517897 -0.15115888 0.27178648 0.09414941 -0.08525495 0.40871182 0.10384537 -0.09569199 -0.20699783 0.07750404 0.078906015 -0.8429925 -0.24248415 0.11369114 0.272123 -0.1137933 0.061103698 -0.0893173 -0.04046385 -0.012063839 -0.09213306 -0.40335923 0.13592939 -0.2796756 0.09814027
75 0.18982735 -0.5479012 -0.08111375 0.80811834 0.34813067 0.06551215 0.15610811 0.71606785 -0.34219524 0.034628186 -0.11203375 -0.49711412 -0.39138296 0.17085585 0.1156151 -0.13543443 0.37621424 0.34878045 -0.5100873 -0.07408934 0.06433553 0.2803149 -0.060658436 0.029802512 -0.07304027 -0.108339675 -0.28413475 0.31107435 0.32489213 -0.5750241 -0.053837806 0.11191419 0.23562998 0.043474644 -0.22020386 0.13744792 0.40799823 -0.41031998 0.12662618 0.29221776 -0.23226921 -0.12042355 0.10483075 -0.00089460495 -0.10845472 0.18055435 -0.48699075 0.42738336 -0.14711095 0.3443385 -0.13265792 0.128117 0.38891956 -0.16722426 -0.32845324 0.005222982 0.16585016 -0.33618444 0.08130991 -0.048361916 0.285089 0.05921468 0.26944277 0.38872755 0.16296701 -0.12446695 -0.07969231 0.21477899 -0.12643911 -0.05381315 -0.2706965 0.16830914 -0.4312087 -0.0899327 0.21291435 -0.17054112 -0.11659214 0.30138874 -0.10406643 0.12066399 -0.2080389 -0.2651366 0.2622113 0.16117348 0.16416113 0.096723564 0.38336486 -0.18238015 0.40599906 0.16398013 0.5264261 -0.14916459 -0.04889308 0.11397325 -0.065508634 0.20399715 -0.16945983 -0.35149613 -0.113956906 0.079872526 0.12621374 -0.27006254 -0.14888506 0.075399965 -0.17199545 -0.24195749 0.038932778 0.18868934 -0.11340062 0.10964412 -0.013318416 -0.48445672 0.18278982 0.011342514 -0.30872875 -0.23497695 0.27337015 0.26019022 0.13576089 -0.5432986 0.0655203 -0.16410357 -0.12924957 0.27668947 -0.07791189 0.36136287 -0.0056162635 0.25807586
73 -0.110120885 -0.7326394 -0.054356743 0.6252857 0.31772777 0.16484967 0.1997367 0.5278464 -0.2681644 -0.03312482 -0.07871025 -0.25833407 -0.399266 0.25526297 0.28400856 -0.12815945 0.40923297 0.31090906 -0.4444704 -0.05564076 0.048458826 0.18452781 -0.33390895 -0.055941064 -0.20421264 -0.09180601 -0.31712437 0.35975888 0.31137908 -0.6042007 -0.09358923 0.06232674 0.11517065 0.09037261 -0.025063906 0.20986338 0.37569165 -0.42352638 0.17907761 0.22866105 -0.10144774 -0.122835994 0.2151007 0.030674582 -0.047170583 0.12793691 -0.37294906 0.5252867 -0.11844543 0.35503983 -0.042519107 0.15390638 0.47032216 0.17707455 -0.17290793 -0.18998699 0.21276711 -0.27579954 0.050317474 -0.008452809 0.064157516 0.053318992 0.3778666 0.350047 0.12715569 0.09379968 -0.12931839 0.2667699 -0.111042775 0.011279207 -0.23965216 0.29316482 -0.48087263 -0.16899696 0.13563287 -0.14380603 0.022888705 0.20424016 -0.07490088 0.1835961 -0.32053223 -0.22263722 0.3200818 0.12976025 0.3687646 0.03683765 0.5292573 -0.2932341 0.31310463 0.25485125 0.5537841 -0.2283881 -0.090402804 0.12744792 -0.08426827 0.22023088 -0.10972069 -0.107980035 -0.10493332 -0.029114101 0.16012725 -0.40134203 -0.08759171 0.16928205 -0.1398064 -0.16475326 0.19019362 0.0044489824 -0.17562571 0.19747101 -0.2054203 -0.36953953 0.092367515 0.13122343 -0.38162383 -0.18193416 0.3826388 0.17577834 0.19641916 -0.44240707 0.017331636 -0.16005966 -0.025365831 0.037895128 -0.12006894 0.28646806 -0.069893464 0.14550337
50 0.13054158 -0.051473 -0.2328563 0.556719 0.50914264 0.47600582 -0.13137205 0.2635835 -0.40683788 0.022297667 0.15449433 0.17080341 -0.20394635 -0.08670187 0.017635493 0.052995086 0.22329909 0.4101439 0.08549134 -0.25672498 -0.6153807 0.16429007 -0.17108737 -0.5200635 -0.0053965948 -0.046740916 -0.41080844 0.30102876 -0.098653644 -0.54108083 0.36202127 0.061213735 0.26800114 0.20638998 0.17035964 0.1481111 0.67089826 0.015098633 -0.35276625 0.31836686 -0.71190625 -0.025149498 0.19917028 0.16599482 0.020031316 -0.29360095 -0.11217422 0.26618323 0.17882939 0.36524743 -0.2343429 0.2671387 0.31325516 -0.16730286 0.05756073 -0.0783149 0.09409555 -0.20731151 -0.028636485 -0.089064516 0.45128185 0.17025092 0.085698605 0.12767424 0.06338786 0.28103936 -0.07580878 0.012564807 -0.3897175 -0.1532496 0.21765387 -0.35923427 -0.2745352 -0.17333363 0.3443876 0.23486747 0.10565988 0.10974303 0.10219055 0.35756463 0.10969813 -0.17213151 0.21889798 0.1669712 0.013449982 0.32120228 0.19462581 -0.1298286 -0.23965608 -0.021949416 0.36612344 -0.15681942 0.42179328 -0.05167551 -0.009069126 0.262668 0.13868883 -0.2682691 -0.12819824 -0.3548519 0.21506505 -0.094147965 -0.11189663 0.44993868 -0.27226692 0.2774383 0.09922769 -0.08801358 0.42529494 0.09500155 -0.05553523 -0.26666674 0.12802096 0.06206333 -0.8424231 -0.3073836 0.11961364 0.32171473 -0.1643992 -0.018398875 -0.07249352 -0.0038738502 -0.07736525 0.08920831 -0.43901044 0.17471848 -0.2937531 0.174741
72 -0.018868364 -0.6926062 -0.45577586 -0.04570756 0.08554692 -0.11895728 0.07852504 0.6455837 -0.22033265 -0.40652174 -0.033837322 -0.19155079 -0.048944026 -0.16225132 0.21794212 0.26132858 0.52323633 0.81240433 -0.38207248 -0.057185993 -0.7068146 -0.17726092 0.104610905 -0.023375286 0.14239216 -0.0658829 -0.21118622 -0.2923687 -0.1944414 -0.03404576 0.4849831 0.024771154 0.29474798 0.2894629 -0.63783956 0.591046 0.513304 -0.5619558 -0.14788449 -0.07420001 -0.36590236 0.14118525 0.29965472 0.091071926 -0.07605092 -0.04967136 0.07848538 -0.36754826 0.23465374 0.23216322 0.27007973 -0.36908177 0.18813905 -0.089089915 -1.2553035 -0.7300028 0.087754965 -0.12484615 0.14078642 0.1312102 -0.048496407 -0.5514635 -0.16707572 -0.35109332 -0.14799106 0.5013651 -0.27396974 0.005743198 0.021624634 -0.34476686 -0.06258158 -0.38597837 -0.091175005 -0.35147753 0.7671154 -0.29812 0.037808567 -0.056256413 -0.20967062 -0.10490819 0.4268525 -0.49747813 0.4562238 0.39976972 0.12640363 0.13716173 0.044862054 -0.89143705 0.3402109 0.43926805 0.42056933 0.10492854 0.49221954 -0.07078189 0.23234333 0.28051862 -0.0022456695 -0.2803732 0.19781607 -0.55483884 -0.118163496 -0.21127209 -0.1389517 0.015375848 -0.23664552 -0.34210595 -0.16432384 0.45797226 0.0900535 -0.41922027 -0.29680115 -0.23051208 0.28557032 0.4029539 -0.41996112 -0.032676622 0.4025288 -0.15852477 0.0004218403 -0.37241107 -0.36395735 0.09288001 -0.055749755 0.3464158 -0.026339667 0.54209995 -0.17610408 0.30924028
30 0.14985603 -0.5530411 0.18559517 0.44896933 0.13862915 -0.40937123 -0.0018355867 0.3677728 -0.43705308 0.084102646 0.08312267 -0.21823755 -0.48033342 -0.024719043 0.1782237 0.32549378 0.20548521 0.30117953 0.23768348 -0.6500972 -0.50694615 0.63435924 -0.19924171 -0.24931167 0.39811274 -0.09401796 -0.52417266 0.2189859 -0.22049002 -0.2182247 0.43728152 -0.41286117 0.6852685 0.57464755 -0.4698327 0.09506141 0.66402316 -0.5112167 -0.15766075 -0.14178866 -0.17126887 -0.1385626 -0.005687847 -0.23670317 0.27767035 -0.21350974 -0.2879643 -0.44011325 -0.48373762 0.25801346 0.52900803 0.30400178 0.0526214 -0.28333592 -0.5535629 -0.031750754 0.3105741 -0.20845377 -0.015853833 0.30937305 -0.31048515 0.124733865 0.17989172 -0.33328277 -0.20559661 -0.011890236 0.24354836 0.05155715 -0.16915457 -0.1168823 -0.08831309 -0.102763295 -0.8727248 -0.07779579 -0.17780364 -0.5183616 -0.35324246 -0.2868171 -0.22915569 -0.28050354 -0.33936468 -0.45013365 0.44516274 0.27781117 0.35669035 -0.032236706 0.42974305 -0.38808003 -0.17448118 0.3518615 0.11878206 -0.16987498 0.48962867 -0.3869681 0.6140904 0.040582627 0.53456384 -0.44287965 -0.34823242 -0.17028213 -0.028808447 -0.27905133 -0.078645065 0.21416906 0.4320951 -0.33776084 0.12820369 0.09360961 -0.19676897 0.022098962 -0.018583024 0.24003811 0.23931573 0.40938932 -0.3825915 -0.050388277 0.09240946 -0.20311731 -0.25317904 -0.1490333 -0.4518656 0.022234103 -0.46388066 0.2401297 -0.33944267 -0.07403253 0.37764603 0.21979125
104 0.4229109 -0.32195508 -0.31725842 0.36779448 0.056114793 0.0015446702 -0.15823627 0.49544442 -0.3114244 -0.05700768 0.22882956 0.4774276 0.16957498 0.114736974 0.12604664 0.24290374 -0.3162415 0.054067966 -0.54697055 0.20182924 -0.2231776 0.014822911 -0.26646835 -0.10623846 -0.0023375826 0.49985036 -0.26138002 0.01581317 0.0282267 -0.43660957 -0.075782895 0.16820909 0.030711321 0.14349377 -0.17487156 0.32186022 0.2569236 -0.16497728 -0.020985872 0.059360456 -0.52959687 0.48542678 0.22686724 0.20992786 0.14846592 0.23710379 -0.2728679 0.39933 -0.015325191 0.61359054 -0.10030121 0.4534691 0.14504841 -0.020480165 0.029116075 -0.19030505 0.5609433 0.24656832 -0.12037135 -0.23751187 -0.3323325 -0.6098692 -0.29411465 0.41893277 0.056585528 0.015280035 0.3602198 0.3572087 -0.5812809 -0.420529 -0.08259442 -0.31587696 -0.12712494 -0.102919 -0.05301846 -0.014578113 0.3547968 -0.4690071 -0.16540039 0.34372866 0.22054197 -0.23618446 0.46359083 0.3207109 -0.12647201 0.4740884 0.12242207 -0.32801822 0.2466271 0.11859141 0.22165601 0.18884677 0.32116073 -0.26156142 0.5862455 0.30992323 -0.07120327 0.043978162 0.34119275 -0.5077973 -0.38671803 -0.09893472 -0.35207143 0.40499848 0.26607454 -0.45676437 0.08475603 0.45452112 -0.029770698 0.0562438 -0.03477318 -0.23247774 -0.21794626 0.04114085 -0.2597311 -0.1616222 -0.08877092 -0.5980712 0.25655574 0.020322442 -0.038449477 -0.21780273 0.038117234 -0.38854998 0.035148486 0.13652286 -0.22356126 -0.04744111
94 -0.18935744 -0.7680619 -0.08844972 0.5579291 0.30176544 0.1692358 0.16256393 0.51077986 -0.18246096 -0.037112474 -0.026733547 -0.1930431 -0.4092445 0.26367572 0.36292312 -0.10027983 0.41829255 0.29562277 -0.3873036 -0.101120554 0.06629327 0.18976703 -0.3799614 -0.0120808445 -0.23672362 -0.083358414 -0.32513162 0.34329844 0.33061662 -0.5836682 -0.074996285 0.029995048 0.06405571 0.097803585 0.02130221 0.22097448 0.41213948 -0.4021942 0.2647856 0.25106055 -0.041204013 -0.10430618 0.24851942 0.018148918 -0.05306011 0.096076064 -0.34903035 0.5104198 -0.09813122 0.33847788 -0.008683902 0.11899632 0.45375487 0.2626593 -0.15141205 -0.25358173 0.21229967 -0.21153705 -0.0057519954 0.018914474 0.023621317 0.107182905 0.37702087 0.3244563 0.15302163 0.10728823 -0.19169559 0.26426125 -0.06012254 -0.0061835614 -0.22043133 0.26290888 -0.4827658 -0.21985291 0.110402934 -0.16211715 0.077423975 0.22227629 -0.13541384 0.2137835 -0.32119846 -0.19776954 0.32763618 0.11382548 0.36965853 0.049001317 0.54224825 -0.34911326 0.22835883 0.3321194 0.5543796 -0.27346206 -0.07284911 0.10507446 -0.025864398 0.19956097 -0.09696571 -0.1232878 -0.059042137 -0.08390737 0.16491336 -0.4287061 -0.098013595 0.21978809 -0.14340238 -0.19278978 0.20826952 -0.0033777836 -0.14074458 0.20097364 -0.2742876 -0.3623044 0.07783915 0.24927641 -0.4109018 -0.16609569 0.39759865 0.13799614 0.22163509 -0.37246722 -0.06224602 -0.15869947 -0.040136162 -0.08188025 -0.13346286 0.25915232 -0.12099604 0.105244845
81 -0.08309369 -0.6741862 -0.49202824 -0.027021054 0.100220285 -0.21498893 0.21923792 0.7011537 -0.21319458 -0.4241966 -0.014689328 -0.20182717 -0.05626599 -0.121664725 0.12415803 0.23752771 0.42858362 0.76851 -0.37509236 -0.0543378 -0.6561691 -0.25477803 0.11349698 0.053628206 0.12189751 -0.027269287 -0.26568213 -0.32680503 -0.1952772 -0.0014015654 0.48387954 0.048531152 0.35958153 0.2669186 -0.6978072 0.55605835 0.5023063 -0.5668301 -0.14209557 -0.06443898 -0.34557682 0.21161085 0.34147465 0.100147635 -0.093302734 0.0024369303 0.0998216 -0.3526122 0.24357182 0.21559262 0.24691679 -0.34768626 0.15958539 -0.07382472 -1.2165215 -0.7926081 0.072933406 -0.1369957 0.1536699 0.08704594 -0.0035489723 -0.58741826 -0.22181663 -0.36156464 -0.109989546 0.47347823 -0.29885447 -0.044956233 0.014471746 -0.30397862 -0.057619993 -0.39615107 -0.087408185 -0.32565212 0.72152376 -0.23807393 0.021038998 -0.07689409 -0.1976758 -0.1871553 0.42132095 -0.49781904 0.44195494 0.33403483 0.11291019 0.10464811 0.04190214 -0.91542006 0.33679065 0.4577672 0.4335203 0.15143095 0.46219862 -0.09725946 0.16614228 0.21850789 -0.035481926 -0.28610805 0.2525099 -0.4732095 -0.17415915 -0.20726362 -0.097856775 -0.0844378 -0.25205642 -0.2995316 -0.19074546 0.4656651 0.09985335 -0.37900484 -0.30438924 -0.20109591 0.24311624 0.39646673 -0.39315727 0.0037936957 0.3736334 -0.19881852 -0.03453287 -0.34149873 -0.35216412 0.04973994 -0.07853279 0.35595247 -0.07992307 0.47798404 -0.19373855 0.27912253
103 0.46884963 -0.33651698 -0.25293815 0.37272763 0.046779826 0.0032360835 -0.12478159 0.45468065 -0.32903987 -0.004974127 0.17214413 0.3453328 0.11438059 0.1614956 0.13208006 0.18942727 -0.26946035 0.0075996756 -0.56900483 0.19614792 -0.15825373 0.10975194 -0.22775275 -0.047012735 0.04035341 0.4307275 -0.20230082 0.070954 0.06917003 -0.424957 -0.11543325 0.17405105 0.022065325 0.12696284 -0.20061596 0.25304163 0.20800401 -0.19365531 0.01668674 0.054849323 -0.46357387 0.4226858 0.16887526 0.15639053 0.13194917 0.2703733 -0.28796026 0.415983 -0.079696655 0.5908624 -0.06797405 0.4244975 0.13420855 -0.077047296 -0.017826129 -0.10055193 0.53623587 0.21629715 -0.09015232 -0.24184275 -0.29871368 -0.577621 -0.26472884 0.44336298 0.075424306 -0.04892543 0.3330419 0.37781194 -0.55852497 -0.399864 -0.12871043 -0.27920872 -0.13148968 -0.06522189 -0.07509675 -0.024304625 0.27163717 -0.44077402 -0.19522014 0.3000449 0.1753273 -0.21654767 0.41359845 0.27495572 -0.11173806 0.43868166 0.13684708 -0.30418083 0.2739356 0.10575562 0.18284766 0.15398082 0.25527972 -0.21671459 0.5127448 0.3028024 -0.052568693 0.015028827 0.31012458 -0.45417425 -0.34688416 -0.06309851 -0.35053104 0.35860956 0.2441297 -0.4639624 0.07450486 0.4606511 -0.07988509 0.034333874 -0.013062728 -0.25857008 -0.2057982 0.028236061 -0.1847074 -0.16398403 -0.10210962 -0.5301584 0.25438878 -0.065348245 -0.0078044254 -0.19376062 0.011916027 -0.2668095 0.06906049 0.18516548 -0.16257377 -0.033139404
95 -0.27115262 -0.73137045 -0.07109356 0.5456884 0.3811622 0.18848519 0.17615892 0.46851712 -0.2078864 -0.04535558 -0.018895715 -0.18487988 -0.4567791 0.2235608 0.35515028 -0.10356942 0.440956 0.33426976 -0.3050062 -0.11994257 -0.00495217 0.1605032 -0.37977698 -0.0840945 -0.23046209 -0.110616915 -0.389994 0.37091824 0.29736733 -0.58504313 -0.0005993334 0.0057404195 0.112220064 0.099341825 0.05321023 0.20922488 0.46104765 -0.37108263 0.21805723 0.306486 -0.10020357 -0.13682616 0.30377766 0.020477861 -0.05017355 0.009816195 -0.31083322 0.48184872 -0.044001885 0.29744443 0.010194936 0.09227563 0.47823337 0.27255374 -0.13695416 -0.2902241 0.17133166 -0.2744098 -0.0026131205 0.05571131 0.086216524 0.18091014 0.40752178 0.25815812 0.17880666 0.16630733 -0.23305234 0.21297716 -0.017857404 0.024682734 -0.14658396 0.2450184 -0.5513778 -0.25279295 0.16738038 -0.15889433 0.035307314 0.28182918 -0.09279966 0.23767641 -0.33664632 -0.23069224 0.31375557 0.15270314 0.37739754 0.024971122 0.5638035 -0.3692045 0.15733463 0.34055683 0.6017734 -0.2789615 -0.021712383 0.10153671 -0.05367778 0.17307168 -0.092521474 -0.13380933 -0.115372136 -0.0891672 0.21248393 -0.4514135 -0.06698726 0.223065 -0.2197546 -0.06737987 0.22232096 -0.06547196 -0.06995017 0.22185959 -0.27798438 -0.33980837 0.14328387 0.29839194 -0.5218718 -0.17415681 0.43904924 0.24927296 0.17546538 -0.32457677 -0.093310185 -0.13990377 -0.040501915 -0.05449068 -0.23204613 0.23871289 -0.12576231 0.11432089
112 0.13992932 -0.19803418 0.25613916 0.24200322 0.21685244 -0.55638164 0.37878045 0.076170646 -0.22729701 -0.03638014 0.49753112 0.14698271 -0.09852869 0.12108167 -0.10870069 0.2783282 -0.45144457 -0.17887513 0.018339664 -0.13767116 0.2877797 -0.17306124 0.25478485 -0.17838444 0.050585717 -0.0009102231 -0.47656628 0.051825237 0.046752125 -0.18964128 0.2180205 0.3295317 0.48025012 0.43038315 -0.39659867 -0.22669366 0.37768632 -0.19005454 -0.10901989 0.14033549 0.19177547 0.26604488 0.47877225 -0.116125636 0.31517702 0.35222515 -0.1419524 0.07216717 0.017310392 0.40743408 0.46421927 0.031649802 -0.18989848 -0.042972047 -0.13360365 -0.22692168 0.35953635 -0.21243794 -0.4135998 -0.012144 -0.10621705 -0.29523447 -0.36697787 -0.20358837 0.32306165 -0.3980682 0.08261389 0.020548318 -0.19838363 0.01986304 0.19823557 -0.19798702 -0.57370424 -0.113505855 -0.09167123 -0.23608345 -0.38975713 -0.5128959 -0.23232567 0.036068037 0.23297843 -0.07264111 0.09551718 0.25129285 0.10205936 0.41641882 0.015051641 -0.4288965 0.021808535 0.44662312 -0.15931907 0.25414115 0.50750434 -0.36920205 0.08818038 -0.28412816 0.12313634 -0.4963968 0.17352468 -0.05834204 -0.47080767 0.07539877 -0.20378096 -0.40492883 -0.012374835 -0.1905218 0.11929163 0.48844555 0.03885144 0.07508958 -0.10312539 0.07960345 0.25055054 0.1093597 -0.10353107 -0.20094912 -0.07213282 0.423963 -0.13214529 -0.2583881 0.02309481 -0.16742796 -0.293962 0.10030632 -0.42769003 -0.07449327 0.084815025 -0.22674322
61 0.008609541 0.027760386 -0.35173973 0.23350687 0.42583713 0.17095913 0.006212471 0.1352592 -0.33739164 -0.15544283 0.27414578 0.38136208 0.111658104 -0.037003893 -0.04561732 0.03142305 -0.1935443 0.16173328 0.0017542777 0.09213626 -0.61558235 -0.039058972 -0.19023834 -0.37835005 -0.16205843 0.2679215 -0.38349146 0.14346497 -0.07734617 -0.52111137 0.17613824 0.057256892 0.3246694 0.19029635 0.02070699 0.17181103 0.5689768 0.119808294 -0.3136394 0.220156 -0.61955065 0.17587262 0.2667165 0.2098142 0.17607014 -0.11876943 -0.0034289162 0.23542498 0.29002798 0.3937987 -0.12648605 0.42842895 0.3150709 0.076355696 0.25823936 -0.16198449 0.46507552 -0.01576457 0.030586362 0.012196856 -0.051968705 -0.12624712 -0.19948098 0.018822249 -0.011510354 0.25681102 0.17126116 0.116982386 -0.48431703 -0.222742 0.23311292 -0.27652353 -0.26363766 -0.3021608 0.0812852 0.18666048 0.23904768 -0.058228616 -0.026677284 0.41788042 0.15644717 -0.20606498 0.2586285 0.11472255 -0.027169613 0.25540003 0.12149748 -0.16919658 -0.15073107 0.057073396 0.2651176 -0.066724904 0.26779696 -0.15055658 0.2075081 0.13832536 -0.114145644 0.102638446 -0.0075732293 -0.11824713 -0.27283025 -0.26601127 -0.15958278 0.4084263 0.06275097 0.13876393 0.03318902 -0.079014465 0.17037532 0.19057445 -0.050182592 -0.10994302 0.011114674 0.120151974 -0.7731349 -0.19704495 -0.022254763 -0.103996895 0.069377825 0.35289633 -0.24013855 -0.1860133 -0.03628076 -0.27741835 -0.18540029 -0.12958544 -0.34066942 0.058123644
52 -0.035377543 -0.022914557 -0.32056683 0.25533888 0.4722964 0.2719193 -0.019061496 0.14048097 -0.39531595 -0.1518875 0.253587 0.34410045 0.015058379 -0.113628745 -0.06158904 -0.005094702 -0.06831923 0.26166588 0.1105059 -0.029893573 -0.69791937 -0.033691216 -0.1813634 -0.4954204 -0.1843893 0.15510653 -0.43061295 0.18358797 -0.108116776 -0.56774 0.23411961 -0.0073340912 0.3394675 0.2248185 0.09083742 0.14158721 0.6203226 0.09550709 -0.3696886 0.22378457 -0.65301013 0.039579555 0.26073572 0.1795219 0.1356215 -0.21610834 0.027778491 0.21796478 0.31545192 0.405757 -0.165206 0.37357807 0.3469871 0.095087364 0.2762051 -0.16377093 0.3691103 -0.0889567 0.03191266 0.05475745 0.032301202 -0.000993427 -0.1072771 -0.029035093 -0.032453436 0.30733702 0.11555102 0.085140206 -0.46642834 -0.19121172 0.2908787 -0.22792993 -0.29747376 -0.33575663 0.12055178 0.19884531 0.19240661 0.008908582 0.031456146 0.42004466 0.1644943 -0.17322539 0.25827217 0.1617985 0.015853975 0.26335618 0.14670362 -0.17972577 -0.22721596 0.063931815 0.2685356 -0.11905623 0.30224067 -0.09148846 0.12953337 0.15065712 -0.06270593 0.04009587 -0.101746336 -0.1483923 -0.13829899 -0.28799036 -0.1171812 0.40274492 0.014691909 0.20734946 0.0449013 -0.11035133 0.24476008 0.17475122 -0.08653565 -0.12671486 0.060577586 0.1345983 -0.8878056 -0.23778851 0.050346542 0.023747502 -0.0061278986 0.3278897 -0.23303919 -0.17595384 -0.041943744 -0.24246559 -0.22756831 -0.059546173 -0.33769116 0.0742612
24 -0.12291386 -0.49253735 -0.039895702 0.21313362 0.18394193 0.20848829 0.057103336 0.25716853 -0.43040833 -0.074065864 0.06162179 0.09881 -0.16356893 -0.14326209 -0.029212676 -0.19648872 0.2038996 0.35538396 0.10851792 -0.19518574 -0.4876886 -0.14710966 -0.08612303 -0.5355514 -0.28822318 0.008518497 -0.39046714 0.08870292 -0.20699263 -0.62787455 0.026200647 -0.25112283 0.1071111 0.11656829 0.11300319 -0.12768354 0.5249569 -0.38457122 -0.28081092 0.13620096 -0.5291493 -0.46988612 0.09774181 0.08666075 -0.013854681 -0.0049867043 0.04459888 0.19032876 0.28935477 0.7698052 -0.47785205 0.25885433 0.5831003 0.3048258 0.24932012 -0.21916942 0.1703481 -0.3331387 0.15483306 0.22774968 0.101661816 -0.0070840986 0.15204212 0.14354937 -0.016792294 0.15095952 0.023204386 0.109699406 -0.5011758 -0.13759576 0.17277429 0.096515514 -0.36734685 -0.29881173 0.009720917 0.059687566 -0.066253275 0.08754556 0.04906444 0.271511 0.18663569 -0.061278846 0.392898 0.39830506 0.21681531 0.31464761 0.36722243 -0.24617958 -0.14041626 0.10807571 0.27304426 -0.15483119 0.26881135 0.14103356 -0.013694901 0.16153729 -0.021751525 -0.045483645 -0.2153786 -0.12966774 0.18955654 -0.2890566 -0.036726087 0.10313599 0.19227825 0.13570932 -0.02778295 -0.01278259 0.323815 0.025811959 -0.090945296 -0.37534076 0.07438707 0.13091342 -0.99383324 -0.048847787 0.1735946 0.18964022 -0.056593888 0.07894228 -0.06853544 -0.14305952 0.060097527 -0.24438916 -0.20895022 0.36042532 -0.081449375 0.1614066
