95 128
37 -0.27006415 -0.24354017 0.36364245 0.093616575 0.19564852 0.16926128 -0.014535068 0.21469992 0.046378095 -0.38626912 0.164357 -0.23797703 -0.39125642 0.11489356 0.23054124 0.045788303 -0.100869 0.0019737382 0.111123666 -0.20389552 0.087228805 0.42980173 -0.19718651 -0.18575335 -0.1289089 -0.17174003 0.034484047 0.47605625 0.077569015 -0.43471995 -0.01170389 -0.23846549 0.13400249 0.12878127 -0.0978486 -0.03131565 0.27051666 -0.024520857 -0.081727356 -0.14897199 -0.08436064 0.16516507 -0.024549548 -0.3471132 0.3278028 0.18278162 -0.051356714 -0.17073475 -0.06885991 0.45719406 -0.21361154 0.08970073 0.20376664 0.08120479 0.022410277 0.1611487 0.27517322 0.030070577 -0.36267567 0.03217379 -0.056643263 -0.09467047 0.2834727 -0.0077636964 0.28621715 0.4007757 -0.05255555 0.12569058 -0.19050834 -0.12719123 0.1509015 0.118325025 -0.39820302 -0.24311411 -0.101388305 -0.24933378 -0.012165421 0.031364366 -0.34436294 0.25375104 0.046807267 0.056553543 0.0004015402 0.006231986 0.14803648 -0.018808907 0.22520436 -0.068753675 0.03996363 0.32764837 0.06799531 -0.44245175 0.12793884 0.025573969 0.18334779 0.1952689 -0.14885366 -0.25353268 -0.225871 -0.11250352 0.015532618 -0.024092365 -0.09498098 0.120631665 0.121692896 -0.19448689 0.06731569 -0.10058738 0.19738685 -0.31424493 -0.02305292 -0.30052722 0.14924252 0.34309775 -0.16155164 0.068227954 -0.07118368 0.078051284 0.21903057 -0.005780909 -0.36200964 -0.17146757 0.13231689 0.038765322 0.35707065 -0.0065492354 -0.06456202 0.18307287
94 -0.07038011 -0.05155736 0.106846586 0.07595216 0.34139356 0.23876303 0.099774934 -0.18233636 0.0062440485 -0.11906161 0.20489031 -0.033800166 -0.24584687 -0.11122117 0.18396431 0.0017778494 -0.055357926 0.13633715 -0.07492708 0.2357303 0.3044034 0.08521281 0.05585618 0.020639798 -0.3321347 0.123965085 -0.3933031 0.054875117 0.077177204 0.015068218 0.07089981 0.21453916 0.06998175 -0.19189872 -0.07875954 -0.3693536 0.058662485 0.03173535 -0.029283024 0.21718352 -0.04508316 0.06096616 0.07126237 -0.011112757 -0.056678195 0.22656174 0.18511221 -0.18222101 -0.076558046 0.268294 0.046373717 0.3324863 0.3676984 0.3949129 -0.29172415 0.17683144 0.14187013 -0.15716037 -0.18852851 0.22419907 0.080305465 -0.22496341 0.26252776 0.22679256 0.026144197 -0.044179853 0.2022993 0.0897127 0.01745297 -0.060118664 -0.04340971 -0.2693965 -0.016410977 -0.0072639924 -0.17862502 -0.3338153 -0.31644535 -0.1251004 -0.18299358 0.3888331 0.22960159 -0.11173985 -0.12200992 0.35615996 0.13451716 -0.116014555 0.21078771 0.06721586 0.45873982 -0.031602662 -0.09767549 -0.2820067 -0.16057068 -0.12493679 0.16557682 -0.15879846 0.18470842 -0.06569745 -0.19867028 -0.12579873 -0.29342616 0.05796163 -0.20322521 -0.10487906 -0.22592707 -0.14898363 0.14625654 0.0023716046 0.12572427 -0.084716685 0.43019307 -0.32179904 -0.06141097 0.0076378416 -0.045591556 0.015702592 0.24154174 -0.059962563 0.22598405 0.005298274 -0.17944092 -0.20385346 -0.051320463 0.07759226 -0.33689737 -0.3380131 -0.17648014 -0.0695194
52 0.20251426 -0.20122081 0.034577284 0.25038955 0.321037 0.041086495 0.36806625 -0.14331476 -0.22262622 -0.058737714 0.30488712 0.23755524 -0.1464317 0.019046789 0.2787017 -0.0048020044 -0.03920355 -0.029664595 -0.19955657 0.41264898 0.49541646 0.20011401 -0.024539916 0.048572853 -0.27604473 0.014216944 -0.5401233 -0.03839722 0.0953788 0.14333242 0.13158928 0.17917044 0.32266426 -0.06721693 0.012458111 -0.41290984 0.27956793 -0.15824275 0.09308015 0.32174093 -0.0030257693 0.03382743 0.15185641 0.17013448 -0.040413212 0.29043144 0.13120578 0.04797641 -0.024411919 0.15421191 0.3136917 0.538458 0.23787467 0.27290958 -0.092230044 0.13090445 0.2692838 -0.33648887 0.083287425 0.42838567 -0.1640274 -0.20262447 -0.01557353 0.32794508 0.09499449 -0.100707084 0.2839377 0.18695217 -0.11572959 0.061806906 0.07583822 -0.12943752 -0.12768511 -0.039813064 -0.10075478 -0.26953575 -0.42892575 -0.24744622 -0.12958877 0.27956742 0.23645231 -0.25536832 -0.19799696 0.6822912 0.3443597 0.10606783 0.35988513 0.06248656 0.33789912 -0.13068129 -0.039102104 -0.18371612 -0.04862031 -0.32725653 0.19082817 -0.24732362 0.23707789 -0.047979567 -0.2923423 0.005817879 -0.27874872 0.22206125 -0.09544289 -0.14617184 -0.19236563 -0.1908202 0.08988817 0.07420338 0.01506444 -0.021088332 0.5035645 -0.16707212 -0.17906211 -0.17483483 0.032185372 0.17165792 0.4422417 0.17405348 0.013089816 -0.2224685 -0.12689485 -0.1630152 -0.16060238 0.053209312 -0.44141948 -0.09826587 0.007804163 -0.07773754
30 -0.04347912 -0.06176977 0.45662507 0.17739572 0.035211824 0.12279598 0.10213651 -0.012162746 7.201602e-05 -0.25797215 0.06695294 -0.19103855 -0.23252046 -0.37501281 0.34288582 0.13205768 -0.008027828 0.062203676 -0.060288496 -0.12355462 0.16798125 0.5158318 -0.14890069 -0.047810335 -0.3980775 0.11378673 -0.09911575 0.26227787 -0.03221834 -0.0054876897 -0.02718592 -0.24478446 -0.12265378 -0.062009756 -0.47080976 -0.20957683 0.31497708 0.12397543 -0.04604647 -0.1665635 -0.24905267 -0.017363766 0.17245644 -0.03850236 0.027812593 0.11724333 0.017021952 -0.3087821 -0.10037978 -0.05501071 0.0075468183 -0.15629528 0.31258276 0.32085687 0.06834643 0.044523615 0.26595688 -0.17401688 -0.24430124 -0.016318517 -0.018718747 -0.2899078 0.008323758 0.0032323354 0.14024302 -0.08421973 -0.009659728 -0.24374701 -0.3840742 -0.10126148 -0.013737048 0.07015896 -0.40450156 0.07224401 -0.18386145 -0.3651589 -0.2620157 0.1357745 -0.07898037 0.27931195 0.093785085 0.01258194 0.21211074 0.3296751 -0.004949262 -0.006861417 0.24221595 0.08338116 0.40519089 0.13101946 -0.16521871 -0.0081354035 0.0024738973 0.26475412 0.14191332 0.011458835 0.04758323 -0.07837762 -0.39140302 -0.09545748 -0.064289436 -0.18785077 -0.0118675055 0.103535116 -0.09204645 -0.10101256 0.33505985 -0.07313072 -0.019112075 -0.23672569 0.29266122 -0.1301138 0.058994457 0.39428505 0.05200875 -0.032217428 0.034358945 0.25653055 0.15692088 -0.19561252 -0.17336819 -0.29325494 0.054857917 0.16464716 -0.05218868 -0.4687904 0.108636916 -0.092696846
18 0.1195953 -0.4640994 0.18600893 0.19796433 0.3803851 0.21771543 -0.22847813 -0.16623202 -0.15485737 -0.41449466 0.32431063 0.019132396 -0.35783106 0.289548 0.20822196 0.25525993 -0.05467587 -0.04328809 0.18103927 -0.14731483 0.046192765 0.23813201 -0.09971737 -0.34892732 0.009396356 -0.12065923 -0.20681074 0.24174803 0.21941432 -0.6053666 -0.11574518 -0.27961117 0.26589128 0.3478111 0.38053927 0.19637384 0.094637945 -0.1375372 0.0042046206 0.24080737 0.057626136 0.054698497 -0.0966568 -0.2285785 0.6441243 0.033037037 -0.19881666 -0.12723473 -0.19532497 0.36529347 -0.1115747 0.34135234 0.28000116 -0.1216028 -0.040700033 0.4324706 0.48598146 0.32709035 -0.3414034 -0.09401548 -0.05224081 0.029179532 0.31879446 0.35479632 0.28507134 0.30820632 0.26242283 0.35462403 0.104040675 -0.24307618 0.27862072 -0.11264665 -0.3027323 -0.48632532 0.037165303 -0.22847767 0.07934427 -0.027177934 -0.17635144 0.3111418 -0.10898155 -0.15257147 0.080048405 0.24253273 0.17707291 0.006308984 0.08226183 -0.21569535 0.08584369 0.23331985 -0.045924015 -0.6186676 0.20038688 -0.10520815 0.37325278 0.1079958 -0.22222123 0.043505456 -0.1749598 -0.2156436 0.013635874 -0.11158417 -0.3687709 0.13862944 0.11188003 -0.16615951 -0.115774594 -0.052024085 0.12183823 -0.19050993 -0.16666985 -0.3502957 0.20559339 -0.112766385 -0.2878138 0.0064364118 0.20179331 -0.1261159 0.18123366 0.072179854 -0.21683367 -0.10768287 -0.12664582 0.0014628185 0.15790392 0.31676215 -0.13248917 0.14495179
19 -0.056244727 -0.44200498 0.20280236 0.12591878 0.32567042 0.17298216 -0.28473118 0.0049739243 -0.037908494 -0.34660414 0.3763529 -0.029238591 -0.30194733 0.13457665 0.20801271 0.24707398 -0.12667017 -0.11675587 0.15496786 -0.21972512 -0.09041641 0.22442749 -0.15525463 -0.38987395 -0.058574893 -0.15988769 -0.11313454 0.20573573 0.20125306 -0.60788023 -0.1551584 -0.21663737 0.14568713 0.30537915 0.22119957 0.23460506 0.17113526 -0.1184489 -0.06275567 0.07472418 -0.024743019 0.014998912 -0.027188798 -0.20554341 0.53016526 0.011730254 -0.10982583 -0.16450329 -0.13159077 0.4345539 -0.17055807 0.15151954 0.1961515 -0.19321398 0.040720437 0.3323637 0.4048117 0.21467847 -0.3128739 -0.0040212353 0.03740499 0.016289765 0.32987502 0.10862276 0.3057712 0.31830606 0.16309232 0.3079065 0.0629257 -0.24653095 0.3071857 -0.05200373 -0.36460498 -0.47670397 0.083599165 -0.30559525 0.05261471 0.053069253 -0.26153365 0.26219758 -0.08630437 -0.10802038 0.08721267 0.21952844 0.07210608 0.07935402 0.08422098 -0.050319217 0.037937354 0.31328848 0.048189074 -0.50933605 0.2885214 -0.04886487 0.3090559 0.12272499 -0.18194784 -0.18001446 -0.20762981 -0.2358878 0.11556218 -0.046828646 -0.3346419 0.07709896 0.19014238 -0.07646083 -0.14507408 -0.0019081254 0.2722616 -0.21568872 -0.13374391 -0.27512828 0.33207196 0.106611595 -0.2997017 -0.030932942 -0.04173229 -0.086673364 0.23911723 0.11098602 -0.23590887 -0.11298319 -0.07518128 0.084571294 0.23561467 0.25856715 -0.16642773 0.17369649
1 0.023207365 -0.3050454 0.250926 0.20774832 0.39278024 0.22189242 -0.15766482 -0.05623793 -0.09024895 -0.37102696 0.21106258 -0.05014218 -0.34570628 0.25897583 0.23977098 0.23487557 -0.007980592 0.08716019 0.12298014 -0.052083444 0.17058308 0.36192596 -0.17092393 -0.27639124 -0.048301797 -0.07259489 -0.15524898 0.3650435 0.23733863 -0.5609559 -0.11083884 -0.23134239 0.14617482 0.3366523 0.26231658 0.12231258 0.102282345 0.01952849 0.031501293 0.1475405 0.033684086 0.13577764 -0.123426646 -0.25204027 0.5298161 0.13909234 -0.04014048 -0.06436046 -0.2915982 0.3586127 -0.26469487 0.31397504 0.23550709 -0.039515957 0.082922354 0.34303325 0.409534 0.3397841 -0.36413833 -0.1668662 -0.0038439848 -0.025075532 0.2970859 0.35612097 0.30915493 0.44677323 0.21111713 0.2722359 -0.068854734 -0.15728267 0.17892055 -0.06285301 -0.24133821 -0.32394344 -0.02053237 -0.113901086 0.17621136 -0.13446707 -0.18077688 0.3033274 -0.07930445 -0.09615753 -0.024669887 -0.03886229 0.1333815 -0.0070682876 0.035900347 -0.14256378 0.05034003 0.21078433 -0.071698345 -0.5600063 0.18002106 -0.1949948 0.3369982 0.16641074 -0.24242516 -0.051487807 -0.19478151 -0.101551294 -0.14568664 -0.044026725 -0.26549295 0.18007368 0.04446222 -0.14956772 -0.046539746 -0.14201987 0.0736061 -0.21633334 -0.13714002 -0.3205282 0.11468752 -0.040875897 -0.2039294 0.021482944 0.10332385 -0.10139163 0.19637777 0.027783735 -0.3208163 -0.10819178 0.026958955 -0.00504454 0.17627162 0.19228567 -0.058316097 0.23616226
14 -0.10320186 -0.02439717 0.28089172 0.049483605 0.16530263 0.21224126 0.116303615 -0.069541745 0.02509586 -0.16261758 0.1336387 -0.096355 -0.28093976 -0.29676485 0.25885716 0.0041206204 -0.05685571 0.15525639 -0.040121917 0.11081542 0.24953467 0.24056666 0.012986525 0.039180476 -0.46758568 0.11910532 -0.31080315 0.19897047 -0.008378974 0.078450255 0.08007275 0.05218647 0.015364648 -0.23508519 -0.31079915 -0.3841498 0.27383032 0.08980264 -0.055725243 0.07639047 -0.13490339 0.049340513 0.119645655 -0.0025443328 -0.09127997 0.20712249 0.19544815 -0.25457853 -0.023175512 0.21181801 0.045975596 0.091875575 0.33555123 0.48147762 -0.16459104 0.11318662 0.16957268 -0.23336716 -0.24877293 0.22947392 0.04497069 -0.26253793 0.20810854 0.063934326 0.025556456 -0.03030085 0.10319103 -0.08956048 -0.13498606 -0.056386106 0.022941627 -0.1322923 -0.13103025 0.021562908 -0.19023697 -0.37014365 -0.33443508 -0.025982628 -0.14420903 0.39090583 0.24290632 -0.07298691 -0.013628982 0.33890805 0.08217218 -0.05814735 0.2444671 0.10221197 0.44159582 0.05967784 -0.16631359 -0.08149479 -0.08183782 0.0406338 0.14951311 -0.093766615 0.16859505 -0.16399305 -0.27258268 -0.14511636 -0.28797477 0.053237315 -0.0894752 -0.07535836 -0.2126055 -0.12334427 0.30889305 -0.028964417 0.09548073 -0.16784658 0.4110548 -0.26535168 -0.095242575 0.24573897 0.0037581795 -0.04100984 0.1939779 0.13051488 0.28898862 -0.044397477 -0.23118922 -0.26114222 -0.031669814 0.10104422 -0.21056134 -0.53431547 -0.104825124 -0.037960146
3 -0.2600795 -0.2707956 0.071184024 0.065205425 0.45216733 0.24528793 -0.056970056 0.01659442 0.19759157 -0.20380773 0.2622677 -0.12218529 -0.31096828 0.2058363 0.20540626 0.057542752 -0.08921739 -0.024518741 -0.0065917936 0.14583783 0.18037526 0.11458866 -0.09339748 -0.15683594 -0.06823161 -0.10942696 -0.2125967 0.26474294 0.20472038 -0.30543652 0.0154473875 0.10124377 0.1612527 -0.025517697 0.15533176 -0.105777085 0.0274197 -0.110427834 -0.012896084 0.11523254 -0.095172 0.21216938 -0.026906183 -0.25079757 0.26799956 0.2532793 0.1569484 -0.07875446 -0.12737885 0.56327987 -0.12943494 0.45548734 0.2859959 0.11883659 -0.30393854 0.23008126 0.16568649 0.07582226 -0.26032242 0.20393667 -0.0018577338 -0.1517915 0.41281188 0.08986076 0.29263142 0.32947043 0.09326933 0.22641279 0.034790095 -0.045376986 0.019837948 -0.27976257 -0.15038182 -0.20827033 -0.1256584 -0.31879854 -0.11209964 -0.019726207 -0.49567825 0.38866803 0.037020106 -0.09243695 -0.17191814 0.13424239 0.2619615 -0.13801949 0.18358232 -0.005514917 0.12225191 0.14470951 0.11084433 -0.62895906 -0.07226075 -0.24268673 0.22131586 -0.036484644 0.11486632 -0.3567363 -0.10918897 -0.19622867 -0.10233058 0.15857065 -0.27917153 -0.05978773 -0.0096404385 -0.1771621 -0.04291568 -0.06858581 0.29946244 -0.20056066 0.14740743 -0.3661123 0.10720732 0.107870124 -0.18123865 0.07062906 -0.06350667 -0.13570583 0.2155172 0.11809442 -0.39314437 -0.10339255 0.045097537 0.011229865 0.04271842 0.070867606 -0.30175006 0.040372685
13 -0.019953005 0.03984185 0.24373466 0.11976816 0.1273305 0.2232166 0.17040221 -0.07236538 -0.115433075 -0.19125606 0.09926304 -0.058633998 -0.2588497 -0.2865388 0.30491978 0.021889776 -0.044666577 0.12292149 -0.078658156 0.12271988 0.26415893 0.35992086 -0.052272957 0.07003478 -0.42776033 0.110974066 -0.22556226 0.14822482 -0.055785045 0.07800727 0.091620825 -0.04229947 -0.010565992 -0.20105429 -0.36509314 -0.41414997 0.25931165 0.11428037 -0.08839287 0.014313882 -0.15511543 0.01591244 0.165885 0.07596728 -0.06271989 0.2022953 0.119267024 -0.19415362 -0.082528755 0.14833517 0.08802127 0.07701755 0.36831126 0.44337082 -0.059808444 0.114793696 0.23712215 -0.27346388 -0.19829315 0.21345358 -0.06654065 -0.24682362 0.04080457 0.07656363 0.065222226 -0.08943171 0.10512137 -0.10897487 -0.33874208 -0.024419717 0.03071415 -0.024411881 -0.18516903 0.07576212 -0.25399154 -0.24813238 -0.38979855 -0.055056732 -0.09914091 0.3524007 0.26445663 -0.03222695 -0.0048539974 0.37651104 0.04144108 -0.022767564 0.28605703 0.10215665 0.44327754 -0.015376206 -0.13834853 -0.07509653 -0.04177602 0.081701025 0.089054145 -0.08211537 0.11597163 -0.038854416 -0.3626575 -0.10177989 -0.23139414 -0.04316145 -0.0271936 0.050053276 -0.19532855 -0.12185914 0.40479115 -0.02316878 -0.02512069 -0.17505097 0.4215078 -0.26945925 -0.08088289 0.2446949 0.02309517 -0.013666928 0.17812906 0.21751253 0.22222988 -0.14889511 -0.16896199 -0.2717198 0.012254238 0.10068638 -0.19535397 -0.48985302 0.021342317 -0.05354553
53 -0.050198063 -0.2841059 0.3589602 0.167237 0.28969902 0.21015418 -0.12979046 -0.0012539863 -0.076737136 -0.37989163 0.18465468 -0.12240428 -0.3722809 0.22771767 0.21830264 0.15777774 -0.058457695 0.06451539 0.16367656 -0.11882177 0.12227048 0.36758304 -0.1651012 -0.22002994 -0.09118408 -0.093944974 -0.12383541 0.38883194 0.13620396 -0.5016357 -0.07792287 -0.25164875 0.15011391 0.24723254 0.1698682 0.052781932 0.19126384 0.017984215 -0.043529775 0.059399042 0.002110492 0.12646137 -0.07377837 -0.263036 0.48265725 0.15660712 -0.051626645 -0.13217935 -0.23489544 0.37953073 -0.20270094 0.20321184 0.24666978 -0.025014134 0.06074929 0.31012 0.34535277 0.23968089 -0.34870318 -0.104461364 -0.024218868 -0.039028365 0.30795756 0.25075155 0.27430972 0.37269443 0.09226258 0.19738702 -0.10932515 -0.13025452 0.19863614 0.0076547367 -0.3114357 -0.2816664 -0.061542295 -0.174006 0.06753645 -0.07503516 -0.23639795 0.25207067 -0.018725388 -0.033861484 -0.00037600542 0.019442717 0.13557836 -0.0046907775 0.10953026 -0.12017507 0.07323281 0.21729915 -0.038862213 -0.48215494 0.122445285 -0.073359445 0.27073523 0.204372 -0.22870621 -0.0709088 -0.19290237 -0.11441122 -0.064193375 -0.06792016 -0.17488372 0.16835883 0.06840035 -0.17944264 0.01412987 -0.10790224 0.08740786 -0.25178385 -0.07270446 -0.32537937 0.116369575 0.066678055 -0.1780874 0.040741786 0.059515096 -0.025655726 0.19984236 0.012872099 -0.2805852 -0.12091887 0.027556434 0.021459434 0.24923158 0.112895906 -0.06595312 0.22580805
28 0.44034803 -0.50535196 0.6405865 0.4028271 -0.04375433 0.06399922 -0.08493775 -0.28492275 0.21714745 -0.359931 0.042294923 -0.1424619 -0.055666827 -0.35810363 0.5837615 0.3771262 -0.015959678 -0.09026601 -0.02513851 -0.09866278 0.23650502 0.77747434 0.09260568 -0.15823443 -0.41002747 0.19989821 -0.43641007 0.3945162 0.05707974 0.3255914 -0.15147862 -0.49943328 0.081497096 -0.07562526 -0.20951925 -0.019491512 0.6057129 -0.0953461 0.2504321 0.07922495 -0.33580437 -0.15622109 0.17082894 -0.042793978 0.44733635 -0.03521708 0.026343973 -0.49479002 -0.077152476 -0.43691772 0.45703673 -0.0880299 0.09038192 0.22097212 -0.06989588 0.1558476 0.50902647 0.02269381 -0.12647675 -0.04890924 -0.07882845 -0.32548538 -0.004441261 0.14818564 0.14875817 -0.1535983 -0.010328532 -0.47144753 0.04368011 -0.019701324 0.23895924 0.011500636 -0.5013425 -0.007869931 0.2352133 -0.70457757 -0.102604836 0.66191024 0.111933894 0.23907675 -0.37100476 -0.234653 0.4727654 0.56232667 0.31268218 0.1605257 0.1770191 -0.059248306 0.27006367 0.24043745 -0.5272212 0.14392161 -0.0057973024 0.15819247 0.53874403 -0.018964464 0.23539859 -0.18902436 -0.43967775 -0.1582643 0.057192393 -0.002120981 -0.11865041 -0.037617385 -0.27384588 -0.23383543 0.094325215 0.007062301 -0.16477029 -0.13639808 0.2597089 0.024792496 -0.14504947 0.1551535 0.10436297 -0.000661981 0.5150881 0.4570852 0.0012519634 -0.3121748 -0.23012641 -0.2732823 -0.51236886 0.18206407 -0.23041165 -0.119640514 -0.21799791 -0.08567282
23 -0.25348866 -0.29912928 -0.019593602 0.10761791 0.4206525 0.17335673 0.13109103 -0.041100334 0.1410218 -0.13276719 0.12224239 -0.083105884 -0.22817492 0.15620472 0.23650086 -0.06924425 0.024719749 -0.15176216 -0.07245709 0.26120588 0.33371097 0.038620513 -0.10205862 -0.0064401655 -0.14431253 -0.01456312 -0.24778524 0.1211646 0.19754891 -0.111317076 0.010880365 0.17642234 0.2675892 -0.12539858 0.019883139 -0.2120505 -0.03151752 -0.21637931 -0.023204176 0.21031758 -0.07319591 0.13480876 0.049827162 -0.15716232 0.072258964 0.20019 0.112553895 -0.04523995 -0.06734188 0.41195565 -0.011204276 0.4718195 0.2530384 0.2862906 -0.43594965 0.030965054 0.12328216 -0.14886086 -0.12505099 0.32391635 -0.058165345 -0.09595932 0.29758602 -0.008997966 0.23013219 0.12162021 0.05701127 0.1758492 0.18388064 -0.09962647 -0.046270505 -0.18305747 -0.17293994 -0.17164126 -0.14566791 -0.26828653 -0.35267547 0.032429583 -0.45580754 0.29905745 0.021736166 -0.044803537 -0.13196865 0.18123995 0.31297415 -0.09559732 0.25679782 -0.069521524 0.21804833 0.042832408 0.12544258 -0.47316918 -0.20052233 -0.16949762 0.050529335 -0.16376068 0.24708012 -0.1748933 -0.11114616 -0.08903859 -0.10498 0.07621929 -0.1393925 -0.14861873 -0.11742236 -0.14138246 -0.024986425 -0.050014976 0.29586047 -0.099086955 0.1492114 -0.35170808 0.06777745 0.10545765 -0.1488752 0.1587347 0.1364825 -0.14099191 0.14069396 0.025776802 -0.36188328 -0.20946482 -0.10261686 0.024383044 -0.12373023 -0.044285048 -0.28960332 -0.02794138
9 -0.23827949 -0.16910914 0.35573396 0.17386958 0.1531194 0.096167125 0.060271066 0.23618488 -0.062176198 -0.35861823 0.19821638 -0.20801532 -0.28099185 -0.230473 0.34086856 0.1198874 -0.112825476 0.039116353 0.053713266 -0.20755349 0.03463834 0.5750141 -0.31460917 -0.2149223 -0.26701027 -0.15387112 0.0678246 0.3501319 0.109366946 -0.39020094 -0.06646979 -0.22741441 -0.04816257 0.1826151 -0.36136273 -0.05036852 0.34155917 0.085063785 -0.09233999 -0.27679774 -0.06481741 0.07579997 0.13878231 -0.1818417 0.15888694 0.21647984 -0.03808987 -0.24714196 0.016695967 0.30203426 -0.14131461 -0.08742399 0.23826334 0.081564635 0.24771626 0.096064225 0.36671823 -0.14140016 -0.30828318 0.043017596 -0.018847866 -0.1820362 0.11580755 -0.037307 0.23445565 0.3212873 0.0153323375 0.08613895 -0.3741334 -0.2002106 0.13410304 0.18761565 -0.551183 -0.15645145 -0.08935391 -0.27548644 -0.063674375 -0.03470558 -0.20796607 0.3139298 0.12565786 0.045747325 0.07319703 0.15560076 0.017982751 0.08680892 0.26013795 0.15720516 0.20073403 0.27366525 0.049629103 -0.30028918 0.32355058 0.11339502 0.118925564 0.15860978 -0.13390248 -0.22059132 -0.3794251 -0.11137068 -0.01570889 -0.01900724 -0.04962294 0.20315263 0.15175068 -0.10070048 0.15873955 -0.08651908 0.15436624 -0.29582214 0.1527309 -0.14773737 0.24368437 0.40474683 -0.16523904 -0.081282906 -0.11059642 0.14723144 0.2312344 -0.12474851 -0.34499264 -0.25290772 0.22601588 0.17281814 0.27244848 -0.13910034 0.151679 0.16075066
27 0.45973596 -0.55609155 0.593638 0.46652976 -0.017290432 0.039881613 -0.063413955 -0.31064183 0.21005516 -0.32616922 0.047956493 -0.051518813 -0.0391831 -0.32835257 0.57664174 0.3978475 0.016696027 -0.16837186 -0.041329116 -0.049648914 0.2627497 0.7855964 0.110573284 -0.22317652 -0.37983978 0.17488673 -0.50612956 0.38897073 0.097164415 0.31201717 -0.15566692 -0.49523577 0.13763447 -0.018822584 -0.113786265 -0.0024237405 0.64902186 -0.18828093 0.2880771 0.1500591 -0.3330689 -0.16709398 0.144594 -0.02660756 0.49898297 0.0016197821 0.00394459 -0.4341122 -0.11404646 -0.4220632 0.5219043 0.050003417 0.058392003 0.20819159 -0.11021557 0.16172738 0.5420722 0.014895704 -0.08540198 0.019462343 -0.16114362 -0.34825957 0.019873582 0.18218608 0.16378425 -0.15338907 0.016366117 -0.40797102 0.058161963 -0.00879393 0.29544818 -0.00626091 -0.53551567 -0.07464773 0.25861704 -0.69800586 -0.1226684 0.63734555 0.09352332 0.1989672 -0.4222867 -0.25097156 0.4413027 0.6405278 0.38273394 0.19811909 0.21475078 -0.051772952 0.23163272 0.25329182 -0.49720836 0.108643055 0.027512733 0.034622587 0.5710879 -0.04377965 0.30456188 -0.2251899 -0.42938188 -0.1482352 0.07376473 0.08623734 -0.10501652 -0.07237939 -0.20891069 -0.2707819 0.046146616 0.013454084 -0.11954574 -0.11553183 0.24995232 0.055976495 -0.14762369 0.057899874 0.08132698 0.06036088 0.5622624 0.45744443 -0.03445466 -0.3594175 -0.21446256 -0.29023182 -0.51918 0.18897301 -0.25597104 -0.018025806 -0.25298017 -0.09734846
45 0.42461303 -0.34629613 0.3086496 0.38164005 0.4002709 0.059241027 0.23669265 -0.43301818 -0.09891272 -0.050638042 0.11829889 0.19221646 -0.16585632 -0.22645292 0.43407974 0.41648844 0.2900503 -0.41984433 -0.35862774 0.050811436 0.38065434 0.29778385 -0.45139378 -0.30416876 -0.2703016 0.28703728 -0.263398 -0.21326536 0.30300054 -0.07659165 -0.31206536 -0.2675839 -0.13855548 0.20944123 -0.22103299 0.08626057 -0.10756219 -0.13942374 0.09086904 0.103567086 -0.44767603 -0.11522801 0.14343545 0.12041204 0.20330225 -0.121103 -0.39243507 -0.12223143 -0.5750949 -0.3360352 -0.12768564 0.21988095 0.5342713 0.10233411 -0.034048077 0.046259087 0.5230789 0.089222625 -0.13465917 -0.3018504 -0.31663173 -0.2764444 -0.22815767 0.2615923 0.4467721 -0.4756294 0.34424636 -0.11707572 -0.39492175 -0.33446908 -0.27989948 0.011504959 -0.608516 -0.019612432 -0.3082326 -0.42350546 -0.55587167 0.13065578 -0.23190947 0.2361815 -0.18523897 -0.1115063 0.46171638 0.8811553 0.014552209 -0.12303205 0.3731142 -0.1531791 0.63003224 -0.0045326836 -0.071884446 -0.28059042 -0.09143424 0.17004451 0.23029889 -0.2868682 0.1123354 0.37845927 -0.3758546 -0.106690496 0.16608645 -0.6123924 -0.31312475 0.03036253 0.0276623 0.0055873245 0.08401361 -0.08441373 0.005179202 -0.10156154 0.06363277 -0.10973855 0.2935915 0.12838282 0.056431234 0.3010998 0.23198156 0.01628189 0.019789975 -0.14869574 0.09352128 -0.44526583 -0.122264415 0.14111608 -0.37340945 -0.31033117 0.27338016 -0.5252158
36 -0.1325254 -0.3833234 0.59256065 0.13924558 0.1897024 0.17713095 0.01583405 0.1316035 0.061117057 -0.50633156 0.038582966 -0.30082878 -0.52198863 0.4332217 0.18909949 0.01927427 -0.113640405 -0.07851152 0.19194838 -0.28038236 0.17707866 0.4846224 -0.19058725 -0.19266355 0.012338534 -0.22599952 0.021907927 0.63983196 0.035760548 -0.3944263 0.033287514 -0.4283237 0.26927844 0.20929375 0.07976452 -0.031226752 0.29953748 -0.10870911 -0.030136367 -0.110311 -0.09282664 0.23419984 -0.09943427 -0.46732676 0.5338318 0.19091511 -0.20767674 -0.14895518 -0.18730672 0.37751755 -0.15351062 0.16576137 0.1801154 0.012528789 -0.019233722 0.23009978 0.25854298 0.17189974 -0.34050226 -0.100931935 -0.25385985 -0.07501823 0.26041391 0.10320976 0.34327862 0.38656476 -0.1392148 0.093038484 -0.26711425 -0.043114737 0.11959195 0.1982511 -0.48032507 -0.2273021 -0.14750822 -0.22275859 -0.014410885 0.08089498 -0.4224649 0.108738266 -0.055725735 0.10748743 0.015809204 -0.021561584 0.32194766 -0.08373305 0.28853524 -0.28457794 -0.07168778 0.34770292 0.063774526 -0.5318369 -0.027989715 0.04689812 0.18922102 0.2309346 -0.1853135 -0.11915586 -0.2050725 -0.056962132 0.14574903 -0.13430533 0.0031768463 0.16041128 0.15418985 -0.33732983 0.029471105 -0.16623919 0.0760417 -0.31872478 -0.15400797 -0.35166487 0.07212476 0.1985515 -0.105921745 0.2887375 0.030411279 0.16773568 0.11155501 -0.10672376 -0.3270981 -0.1577778 0.06708774 0.010369632 0.42846656 0.13014852 -0.0364122 0.11366798
11 -0.10879808 0.018527882 0.43150592 0.12597452 0.059443742 0.15644608 0.15383714 0.08537917 -0.08352982 -0.2659928 0.10844215 -0.18188733 -0.35629362 -0.21175593 0.27088407 0.032934744 -0.048333906 0.114415616 -0.029371254 -0.11599555 0.1902924 0.4551691 -0.1182729 -0.017540928 -0.39180937 0.053615533 -0.10132765 0.3338143 -0.075252794 -0.10952163 0.08582288 -0.19962929 -0.030826382 -0.088225484 -0.428163 -0.31970733 0.39410606 0.1554981 -0.059698556 -0.14551543 -0.18791063 0.056454174 0.14827135 -0.09407512 0.013205653 0.20051016 0.010953837 -0.22857496 -0.08787488 0.14271675 -0.06805033 -0.027810723 0.36418968 0.36843365 0.060524102 0.10206365 0.20552222 -0.2191954 -0.27694803 0.07557518 -0.024583658 -0.2690972 0.07764071 0.06935243 0.12100339 0.014544546 -0.010755449 -0.12746695 -0.43377107 -0.079199694 0.038282428 0.09656606 -0.31974903 0.018233003 -0.2376747 -0.3020583 -0.26101318 0.006957273 -0.11533508 0.30156884 0.22521895 0.025773985 0.060096778 0.26048577 0.018176032 -0.052363466 0.29166645 0.059926093 0.37988028 0.14411348 -0.12170704 -0.08353313 -0.039965328 0.16927294 0.11772951 0.051827464 0.0070971167 -0.1181717 -0.3647536 -0.05663999 -0.16854322 -0.10248323 -0.014969098 0.070682295 -0.09943264 -0.16787502 0.38823947 -0.06924404 0.018569946 -0.2540269 0.3317055 -0.21815446 -0.018371617 0.3468809 0.043270506 0.021089524 0.053609632 0.26770598 0.21469808 -0.17390361 -0.19128703 -0.26817542 0.12415653 0.10710712 -0.0076407674 -0.49666768 0.104887724 -0.05333407
10 -0.11346593 -0.049401406 0.44049445 0.13217133 0.040228933 0.1080787 0.107971 0.13780454 -0.087995596 -0.31461674 0.11260308 -0.195868 -0.30589017 -0.20511207 0.30137306 0.07448768 -0.03654154 0.096347146 0.007259464 -0.20415986 0.13870914 0.54237133 -0.19604725 -0.059151802 -0.3198235 -0.009764858 -0.0025243359 0.36322483 -0.044995293 -0.19413626 0.024726454 -0.29555926 -0.027528433 0.026416324 -0.43023717 -0.1853324 0.39533693 0.15719105 -0.05839822 -0.23827386 -0.156712 0.043020807 0.12931673 -0.13966149 0.087181844 0.18018599 -0.01507578 -0.24035135 -0.0729384 0.11922826 -0.10915039 -0.12544529 0.28895694 0.25762504 0.2037799 0.067368016 0.27043572 -0.15389477 -0.2845732 -0.012948772 -0.03241923 -0.21032673 0.044256024 0.009413122 0.17421359 0.110118404 -0.033912234 -0.11700717 -0.45796642 -0.10747951 0.08167839 0.1819979 -0.40953174 -0.0049890988 -0.1880277 -0.2612444 -0.15265489 0.025822239 -0.107994854 0.2652746 0.14839983 0.044095963 0.11020451 0.20550548 -0.0014150469 0.027804349 0.25433168 0.04174368 0.27799267 0.17775166 -0.09927731 -0.0801492 0.10672857 0.1995513 0.12492417 0.13579637 -0.09211849 -0.12268047 -0.36214012 -0.06320819 -0.104372874 -0.13117743 0.008984278 0.16346958 -0.019437617 -0.14947696 0.31510183 -0.07826963 -0.0033218956 -0.28478107 0.20592186 -0.13973449 0.035090398 0.4086017 -0.0076734126 -0.025026973 -0.0038466875 0.2724497 0.17695603 -0.16379148 -0.22596943 -0.2429677 0.14338927 0.0930184 0.14532894 -0.368003 0.1739496 0.04811087
24 -0.007483541 -0.26754895 -0.190785 0.3362148 0.45413288 0.06585951 0.25791565 -0.17709981 -0.07986795 -0.2427591 0.23573366 -0.059192616 -0.015139914 0.10929811 0.42361593 0.019605966 -0.022932416 -0.09814879 -0.24565311 0.5345619 0.57187015 0.16484776 -0.010064743 0.13793612 -0.082554236 0.09921157 -0.41922733 -0.12346163 0.2252944 0.052512508 -0.022687707 0.31886938 0.36889505 -0.15989837 0.043087456 -0.37510073 -0.11441217 -0.14739713 0.013742598 0.28921425 0.050875917 0.054422267 0.26485392 0.0681251 0.038863618 0.37509498 0.28589094 -0.052940372 0.018297624 0.14344788 0.32470992 0.60055655 0.35350963 0.30870754 -0.39798087 0.049027264 0.31154385 -0.32148075 0.12951279 0.43864608 -0.021115376 -0.19340318 0.14110339 0.21113066 0.19237256 0.023250109 0.2043061 0.19249797 0.17519072 -0.013285045 -0.077124566 -0.33820102 -0.20102759 -0.062037062 -0.070608415 -0.24000551 -0.42435077 -0.051291548 -0.3442858 0.37859422 0.08452913 -0.26117676 -0.15981449 0.48274714 0.45004153 0.018444054 0.21666211 0.049378056 0.39199555 -0.31919038 0.00209681 -0.53306955 -0.14164951 -0.28904322 0.083106786 -0.2612961 0.34307414 0.0051612426 -0.30591324 -0.102376826 -0.3033306 0.18649882 -0.16140008 0.05832808 -0.32305408 -0.260596 0.027040303 0.048026994 0.030687831 -0.09308185 0.5390068 -0.3125007 -0.035774436 -0.14776117 -0.13599713 0.00088968547 0.41406727 -0.07938595 -0.029578673 -0.21019895 -0.40895388 -0.22636142 -0.19049606 0.075276874 -0.46041495 0.13248724 -0.22286631 -0.041841816
31 0.033502076 -0.027324876 0.248501 0.15730448 0.12737231 0.16539596 0.17665324 -0.092068136 -0.12784539 -0.223905 0.09742317 -0.05319293 -0.223764 -0.22583695 0.2768989 0.048849963 -0.0349047 0.1101827 -0.07044579 0.08739501 0.27818236 0.370803 -0.06599172 0.024095615 -0.3538387 0.08038957 -0.2372471 0.1669965 -0.010672814 0.031373546 0.062121417 -0.06461519 0.03093831 -0.12507805 -0.27061754 -0.3340777 0.23821075 0.105204806 -0.06545136 0.033791393 -0.10604447 0.014755626 0.13620919 0.05551974 0.013090723 0.21504016 0.10559954 -0.17483033 -0.08486022 0.10671688 0.068978615 0.09623168 0.31874338 0.35556552 0.0013751436 0.09977413 0.2661736 -0.21976285 -0.17259897 0.15286714 -0.039729275 -0.22503375 0.0541107 0.12532961 0.07361842 -0.059183784 0.10012476 -0.0687714 -0.27883416 -0.020671139 0.04096312 -0.02484136 -0.19222914 0.047506396 -0.18257688 -0.2154576 -0.2836669 -0.046325505 -0.067141965 0.30051893 0.17739104 -0.06304893 0.009301491 0.3458767 0.075172275 0.011745165 0.23995446 0.07597185 0.398787 -0.0095669655 -0.13798341 -0.07590015 0.011130486 0.05603625 0.123853765 -0.05105213 0.081483655 -0.03235518 -0.35002762 -0.08076 -0.20875776 -0.038307413 -0.040035333 0.068283655 -0.16675526 -0.12338204 0.29518026 -0.029022994 -0.04881498 -0.14302209 0.33381116 -0.20317236 -0.06572482 0.17487219 -0.006245912 -0.033163957 0.19804029 0.19839613 0.16246057 -0.13848802 -0.14711069 -0.21700321 -0.0054270416 0.081321105 -0.15996194 -0.36130586 0.0371158 -0.017685214
20 -0.19990306 -0.31262672 0.092860386 0.04639555 0.3409249 0.22211838 -0.1351589 0.024784345 0.09860862 -0.23167786 0.30837196 -0.056350335 -0.3151755 0.10479852 0.19550653 0.073784366 -0.109185316 -0.07851855 0.058506295 -0.0031223672 0.04230613 0.10376378 -0.047077764 -0.21556416 -0.15302946 -0.10019738 -0.18973434 0.16620864 0.14025371 -0.33890033 -0.0077899154 0.00986027 0.14509778 0.005964371 0.08976954 -0.02969 0.11014742 -0.14115849 -0.08021492 0.099959545 -0.08699546 0.08111324 0.030419216 -0.19054736 0.27484632 0.12039414 0.036566366 -0.1501751 -0.04772001 0.52435905 -0.07767448 0.27933666 0.24757838 0.080009386 -0.2349065 0.22680072 0.20724195 0.026045023 -0.27231598 0.21093671 0.032384053 -0.07150678 0.36526147 0.010718003 0.23736852 0.21926144 0.095937535 0.23091057 0.12926279 -0.14617245 0.17723632 -0.1726809 -0.19142894 -0.31820214 -0.040949896 -0.34579107 -0.17095295 0.039726026 -0.35892603 0.32557085 0.0668765 -0.09390151 -0.047876768 0.2697434 0.16712643 -0.047590237 0.18914713 -0.0017522514 0.15352215 0.18870077 0.09106754 -0.4694232 0.028998803 -0.0992817 0.22182928 -0.014639139 0.08999671 -0.30297074 -0.14804915 -0.23309372 0.005126306 0.09582581 -0.2617697 -0.08840776 0.014141718 -0.122193895 -0.03196585 0.030471247 0.3147343 -0.16963151 0.101949215 -0.32824948 0.16767101 0.15764077 -0.21023701 0.023003006 -0.004577077 -0.092152245 0.25693288 0.110898934 -0.27169013 -0.12048998 -0.05110753 0.0460489 0.0569193 0.029585507 -0.29169968 0.055082817
46 0.34153506 -0.21857859 0.3346047 0.28204668 0.2786406 0.0060754805 0.2654366 -0.35261598 -0.123557724 -0.051440254 0.10824294 0.17988837 -0.17120181 -0.29418132 0.35135213 0.36691406 0.27608266 -0.31104872 -0.3199925 -0.020224314 0.34538707 0.282763 -0.44970116 -0.26866162 -0.31392476 0.2732095 -0.25459227 -0.16462512 0.22955713 -0.05636413 -0.22294694 -0.27842814 -0.1728876 0.19190226 -0.32380754 0.022159606 -0.017936585 -0.043119036 0.07067983 0.051787924 -0.4120138 -0.08602095 0.15844099 0.122811824 0.11348581 -0.09779028 -0.36114177 -0.12919478 -0.52294934 -0.323876 -0.1819136 0.07924111 0.53668743 0.19080466 0.09585218 0.00468716 0.48737776 0.011047289 -0.19128747 -0.28315958 -0.269 -0.28917557 -0.2350148 0.2558406 0.39219624 -0.47472268 0.3213027 -0.13805296 -0.50625163 -0.30019268 -0.25492218 0.047648963 -0.56965286 0.030498598 -0.32661003 -0.36830804 -0.51432884 0.060365293 -0.17300862 0.19788423 -0.12178629 -0.10837798 0.43131742 0.8339514 -0.07168451 -0.11542245 0.3561818 -0.11544915 0.6522344 0.043103848 -0.10054166 -0.13599038 -0.069264196 0.2250364 0.20277555 -0.277864 0.069245346 0.35143104 -0.40121335 -0.07541808 0.09049731 -0.6306108 -0.2704865 0.01665869 0.013782235 0.022150252 0.17994608 -0.09730319 0.0015842129 -0.11461517 0.14624476 -0.06627027 0.2716053 0.21495391 0.0631046 0.25244507 0.16389401 0.08317584 0.085697256 -0.17076413 0.10906894 -0.4424529 -0.03240723 0.13960466 -0.33528194 -0.49781716 0.3642196 -0.48548764
22 -0.18474841 -0.34335405 -0.09516833 0.05893662 0.4639179 0.28907025 -0.021903982 -0.09993026 0.05474499 -0.08911298 0.28613514 0.12844157 -0.2974185 0.08001613 0.22078976 -0.0070128273 -0.016676798 -0.1495182 -0.015736226 0.24262322 0.15393235 -0.05666512 -0.05592615 -0.1705839 -0.2958336 -0.03467109 -0.37297228 0.058612894 0.18126458 -0.21461941 0.024129203 0.16155836 0.21763322 -0.10507305 0.12995572 -0.13388737 0.013093302 -0.2446539 -0.09002767 0.31986576 -0.08410084 0.07659009 -0.00060174754 -0.05529589 0.14452265 0.095045604 0.07174472 -0.043119103 -0.06936597 0.60817975 -0.04017955 0.49126464 0.2842932 0.23557965 -0.41037354 0.17565227 0.2036597 -0.072799355 -0.24183029 0.4213641 -0.044280283 -0.05481967 0.38558078 0.014375059 0.2139052 0.12132852 0.1960166 0.2848088 0.26330218 -0.19727571 0.15678136 -0.25513288 -0.06603837 -0.3492478 -0.07617806 -0.31762442 -0.34123895 -0.04442685 -0.370271 0.35008785 0.1034328 -0.106407546 -0.11806208 0.3620255 0.17731346 -0.054856885 0.28353646 -0.018834673 0.24203792 0.12870255 0.13158049 -0.42022932 -0.03957702 -0.19552468 0.14984003 -0.17341985 0.21189626 -0.27026725 -0.08416302 -0.20381136 -0.1122788 0.119027555 -0.26919377 -0.25703445 -0.05753449 -0.040186092 -0.054155204 0.034583677 0.42362818 -0.048229776 0.10827464 -0.394497 0.12360332 0.0994652 -0.25224015 0.1283231 0.14953841 -0.19868603 0.32215533 0.17768253 -0.26996338 -0.18218593 -0.15138456 0.017110012 -0.11968078 -0.088734865 -0.38853803 0.008819818
32 0.086339764 0.030552749 0.3026911 0.17567468 0.07660307 0.2195473 0.21236712 -0.106030755 -0.2062082 -0.25102183 0.049203373 -0.01014471 -0.2468982 -0.2901527 0.31815317 0.0234655 -0.018789364 0.07259676 -0.0987139 0.11006526 0.29435116 0.4461185 -0.067408554 0.0538858 -0.38917994 0.083318815 -0.22451678 0.14798877 -0.06346733 0.095922284 0.11883929 -0.124885604 -0.028474692 -0.1934467 -0.354001 -0.43290013 0.280531 0.12347731 -0.088869184 0.000796568 -0.13374658 -0.010648678 0.16832484 0.124589525 0.018813537 0.19546922 0.046535257 -0.17193915 -0.12443579 0.06363755 0.1388813 0.05613918 0.35915086 0.43415087 0.050574157 0.11734194 0.28592047 -0.2577912 -0.16624235 0.20638078 -0.16540173 -0.23564768 -0.061806533 0.12683138 0.09108145 -0.15531278 0.10234581 -0.12548874 -0.4691586 -0.003972041 0.071667045 0.04261098 -0.21519092 0.09865251 -0.27553532 -0.1831772 -0.4013274 -0.08266991 -0.032183636 0.32155198 0.22291662 -0.028667152 0.007973663 0.46143928 0.059161153 0.044990372 0.33552045 0.09857698 0.4344732 -0.021211192 -0.14866629 -0.051866945 0.05386294 0.10337007 0.089375824 -0.06140669 0.09956732 0.044586085 -0.460717 -0.063416965 -0.20258841 -0.06637426 0.020398721 0.1304474 -0.18376397 -0.14964104 0.46688506 -0.021362003 -0.11892608 -0.16170394 0.4009332 -0.2520107 -0.11677853 0.23451246 0.0080698775 0.0015952492 0.28448188 0.3582543 0.20360248 -0.23173994 -0.12487513 -0.2962505 0.006371694 0.051698707 -0.18659326 -0.45104405 0.11573581 -0.069121204
38 -0.37262216 -0.34697413 0.0905945 0.049702976 0.3842535 0.20710032 0.052441154 0.17488386 0.15955725 -0.22641373 0.1870664 -0.11215529 -0.35704154 0.18887137 0.24737361 -0.05526408 -0.06993633 -0.10615884 0.035386343 0.09821321 0.19154131 0.16366336 -0.17731775 -0.13199568 -0.14655882 -0.15504321 -0.11608943 0.32743916 0.188756 -0.2926436 0.03289502 0.0503227 0.24555252 -0.020054609 0.0059515247 -0.12707044 0.10987005 -0.19105178 -0.050925903 0.038436584 -0.06071033 0.18876408 -0.016149022 -0.26824045 0.17004775 0.22022286 0.09792399 -0.048039056 -0.01902949 0.6041776 -0.14063282 0.35318813 0.16964233 0.19073327 -0.24483338 0.06705835 0.15370022 -0.075771 -0.24061212 0.3113799 -0.072528005 -0.06523364 0.35555804 -0.07299079 0.26806897 0.40459782 -0.010855723 0.24914107 0.078545004 -0.113579266 0.080399506 -0.046591613 -0.2263875 -0.26460978 -0.09656681 -0.24156243 -0.15976842 -0.008320765 -0.4718501 0.26971734 0.07392147 0.005482355 -0.1588959 0.024050772 0.268874 -0.036200054 0.25169948 -0.025612898 0.026420549 0.2212636 0.17470354 -0.4769406 -0.0053461324 -0.18776135 0.08138742 0.015661448 0.10329288 -0.3597192 -0.08106691 -0.11138916 -0.051056128 0.17370425 -0.09975635 -0.090547815 0.00819484 -0.13182852 -0.060039 -0.06651999 0.3496459 -0.20649883 0.022684805 -0.32790524 0.091462255 0.25320208 -0.19458337 0.13856529 -0.035825774 -0.12301947 0.22656488 0.08761369 -0.4459799 -0.15200657 0.052562308 0.016717985 0.16480646 0.019235 -0.2601595 0.12930214
60 -0.19821477 -0.19080743 0.47276974 0.108175546 0.049010053 0.11416516 0.035152223 0.22465232 -0.030640097 -0.3993544 0.119337864 -0.2533211 -0.3778518 -0.027258279 0.26459357 0.054526437 -0.10701461 0.0072041308 0.09846848 -0.2664166 0.04377738 0.5321724 -0.21316741 -0.12712754 -0.2042898 -0.15024619 0.081966214 0.4832979 -0.029043522 -0.3066192 0.03415491 -0.34945023 0.048921563 0.067422345 -0.30019036 -0.08377922 0.39911053 0.05436954 -0.08471444 -0.26475045 -0.12997127 0.10903555 0.09974824 -0.26259613 0.23852348 0.17208917 -0.071296655 -0.23840633 -0.02600457 0.25112444 -0.10000274 -0.12224414 0.21034218 0.113935366 0.17356923 0.08583292 0.27678126 -0.08324208 -0.2959077 0.007156057 -0.07487254 -0.12945347 0.11261623 -0.06608732 0.25349212 0.25674564 -0.13718699 -0.030318419 -0.3599537 -0.107089356 0.15472302 0.21852846 -0.46300367 -0.1316637 -0.118673004 -0.24548976 -0.08457184 0.099584125 -0.23607345 0.20099665 0.08115498 0.08015698 0.08999788 0.08056954 0.08823445 0.045416944 0.25493744 -0.020007314 0.08126667 0.295515 0.01579935 -0.19950712 0.14617504 0.19913332 0.101690784 0.19251648 -0.1310825 -0.21403693 -0.29055563 -0.09019658 0.047313467 -0.07726583 0.011386989 0.14922091 0.07909298 -0.16914587 0.18452355 -0.07130756 0.08109913 -0.310235 0.07295335 -0.1991939 0.112807564 0.42781907 -0.07170893 0.01909236 -0.07143316 0.25870737 0.1804219 -0.12677151 -0.28875086 -0.19822147 0.12415743 0.07899831 0.32874402 -0.17162248 0.08298702 0.099857025
0 0.11395 -0.34064132 0.41351262 0.3008492 0.40107977 0.1844349 -0.09322819 -0.076735914 -0.19150183 -0.419533 0.21473257 -0.038422443 -0.36635956 0.24296272 0.3278306 0.29233924 0.013046121 0.08587876 0.14946692 -0.082021 0.23159762 0.5382779 -0.29449502 -0.30283865 -0.066829465 -0.073676705 -0.16535404 0.43288273 0.27068186 -0.6345362 -0.16670972 -0.33229372 0.16242103 0.47089282 0.25076646 0.13860092 0.18455884 0.02252606 0.029571565 0.13283184 0.041328542 0.123075224 -0.12443497 -0.24524494 0.62038565 0.15362585 -0.10219087 -0.08130905 -0.36095303 0.30129448 -0.25986615 0.29174143 0.2345635 -0.11485876 0.21636735 0.38057396 0.5208503 0.35913336 -0.37729922 -0.24627109 -0.067115135 -0.035444625 0.23607084 0.46030748 0.3659076 0.4694624 0.24683 0.25139356 -0.2085379 -0.18579336 0.19587414 0.05608858 -0.40759262 -0.31908116 -0.020939486 -0.11863273 0.18160582 -0.18271086 -0.14057039 0.27371314 -0.114672385 -0.09543767 0.018779162 -0.0064221174 0.12075441 0.059366725 0.056246378 -0.13530435 0.05057862 0.2243541 -0.104682624 -0.5402153 0.2732999 -0.18465494 0.34629166 0.249862 -0.35052815 0.029417323 -0.23594761 -0.053838935 -0.11682933 -0.10147943 -0.23419283 0.26724362 0.09759476 -0.16125768 -0.048361473 -0.19399011 0.009212813 -0.2328877 -0.1729012 -0.28863445 0.1454334 -0.074781984 -0.21127023 0.03207572 0.1175958 -0.051846296 0.14953308 -0.042468827 -0.3089308 -0.14599326 0.034330353 0.036241513 0.21909148 0.26095393 0.056160178 0.3081848
59 -0.1560191 -0.10572935 0.062194046 0.11872821 0.39036003 0.3027063 0.086038426 -0.14897107 0.0925262 -0.2706243 0.10378045 -0.20068775 -0.29398453 0.017119838 0.23031737 -0.04649579 -0.095192544 0.12731765 -0.09114927 0.29430607 0.33498156 0.15545936 0.08154414 0.07263826 -0.1910971 0.081764564 -0.34515977 0.08047365 0.044024244 0.04463941 0.07612976 0.20369521 0.120699085 -0.24046573 -0.02018052 -0.38063326 -0.061945148 -0.012073232 -0.05866784 0.17041701 -0.019068155 0.12820174 0.09422386 -0.11667463 -0.005631664 0.2845966 0.21076235 -0.18951297 -0.025656346 0.2989193 0.07978998 0.37333107 0.38257846 0.383263 -0.39633036 0.1526018 0.12976626 -0.13490498 -0.16934633 0.24128278 0.06900721 -0.2539108 0.3255839 0.21354027 0.07529152 0.13787077 0.09650355 0.10689819 0.025965042 -0.034663457 -0.05580169 -0.31616202 -0.04433821 0.018215919 -0.16352698 -0.33160537 -0.31529978 -0.078552864 -0.3048684 0.35383153 0.18941405 -0.09103269 -0.17750464 0.25137007 0.21868712 -0.16859342 0.20667669 0.08374928 0.3696121 -0.040418077 -0.0055587767 -0.42942452 -0.17522235 -0.12740034 0.15019248 -0.09904349 0.18115468 -0.1273702 -0.20260611 -0.17471398 -0.19656867 0.084384434 -0.16125156 0.009247092 -0.20817052 -0.24286206 0.102007896 -0.0017477633 0.12173225 -0.12873815 0.42266452 -0.3544991 -0.041415863 0.03818516 -0.11065643 0.0049555874 0.20557204 -0.09070454 0.20214443 0.0034649507 -0.28849745 -0.18839733 -0.0010417923 0.07428863 -0.21577968 -0.14494084 -0.24323006 0.027469696
73 -0.16019025 -0.20587397 -0.03529101 0.1662693 0.39669272 0.18220147 0.15159374 -0.15957625 0.075224176 -0.1309296 0.14153008 -0.13344377 -0.12132377 -0.006442898 0.33373052 -0.008947212 0.017243112 -0.06765133 -0.17751876 0.3640917 0.44407773 0.07695605 -0.0411699 0.09153451 -0.25493976 0.13881202 -0.31251758 0.012494506 0.19680312 0.0048844963 -0.03792159 0.24136817 0.21033399 -0.2191464 -0.09596504 -0.32431737 -0.07646191 -0.09562223 -0.024173457 0.20756142 -0.074730985 0.04915986 0.13882917 -0.03945493 -0.027519265 0.249267 0.24281439 -0.14584713 -0.0417774 0.21274686 0.09931265 0.43178207 0.33467624 0.40845853 -0.4546422 0.023851356 0.17036642 -0.2146512 -0.06814241 0.30777898 0.04996278 -0.17622937 0.24514735 0.060802475 0.13735159 -0.00049727806 0.10000158 0.076418854 0.19995461 -0.08641101 -0.11706935 -0.2660542 -0.13697445 -0.04811018 -0.13466708 -0.29702973 -0.39609516 0.027165249 -0.32920745 0.4004691 0.082698196 -0.11917416 -0.05048755 0.27865455 0.27640167 -0.0868855 0.1740603 0.008509651 0.39555773 -0.15660931 -0.028168825 -0.3886656 -0.23246312 -0.1232434 0.05703424 -0.19833939 0.30705407 -0.045542974 -0.1988055 -0.11475442 -0.24010874 0.06197341 -0.16271237 -0.064654656 -0.29212254 -0.1177759 0.08135875 -0.01341033 0.1518002 -0.114675954 0.33430403 -0.30624217 0.008687036 0.06305898 -0.06665509 0.007904779 0.23854025 -0.1433402 0.10665951 -0.036886953 -0.32823482 -0.23513198 -0.13349925 0.069154486 -0.31692722 -0.14760436 -0.25839582 -0.09078517
49 -0.07813492 -0.016282668 0.18937771 0.07355589 0.19051398 0.19162989 0.17422321 -0.11781773 -0.0135386 -0.09566419 0.15532802 -0.034462504 -0.20834278 -0.3004438 0.2697839 0.023041151 0.0058578835 0.09012013 -0.11947182 0.16614614 0.29972386 0.1981094 -0.049879923 0.04640931 -0.45676187 0.14356318 -0.28927523 0.09501533 0.032819234 0.060763117 0.051549222 0.07474916 0.013086358 -0.19721232 -0.3452594 -0.37686375 0.19191071 0.062131383 -0.06988841 0.09899372 -0.18463865 0.0039672945 0.15973917 0.04773453 -0.08715597 0.19923374 0.19068332 -0.20310332 -0.089988664 0.1813662 0.03846711 0.14881061 0.38378617 0.4726296 -0.17993161 0.09034221 0.20210841 -0.2616339 -0.1971755 0.21780853 0.008796621 -0.24470548 0.120613754 0.047523145 0.07059626 -0.14071323 0.12653187 -0.08499561 -0.17702185 -0.060228962 -0.03152599 -0.14749782 -0.1661256 0.045553725 -0.2325811 -0.33946458 -0.3937897 -0.046724442 -0.17398176 0.41271934 0.24258703 -0.07526043 0.03763119 0.41396376 0.073692665 -0.060561683 0.25124085 0.06661059 0.5281544 -0.046048462 -0.13182297 -0.1458385 -0.12387362 0.041709956 0.1083876 -0.13864574 0.19789901 -0.056491643 -0.30637175 -0.13399284 -0.26879528 -0.039814044 -0.10437506 -0.04482706 -0.22025974 -0.08119016 0.3134796 -0.025967821 0.068840146 -0.16848862 0.40137762 -0.25450236 -0.029622056 0.25224233 0.03159469 -0.024449302 0.17338313 0.06913498 0.21655339 -0.09535231 -0.18363251 -0.2793643 -0.04156914 0.12011538 -0.28164294 -0.52689505 -0.059504926 -0.14210533
50 -0.1445215 0.029165568 0.13574937 0.05269897 0.23828694 0.22114031 0.15549192 -0.10153277 0.013880058 -0.088496 0.097414955 -0.11630855 -0.24131438 -0.19316006 0.24758284 -0.025458792 0.0014596052 0.07944517 -0.13072854 0.23230033 0.34302753 0.12926087 -0.008635125 0.09696757 -0.39315563 0.15866265 -0.2711381 0.08003984 0.034877162 0.042838037 0.06060123 0.12894365 0.03479473 -0.25223482 -0.28985864 -0.44156548 0.09299273 0.050602745 -0.08632119 0.106924236 -0.14737242 0.04774282 0.12600729 0.01507191 -0.10349093 0.23680514 0.21703503 -0.18314382 -0.11244499 0.22420397 0.0245981 0.25653267 0.41007733 0.48630533 -0.2781244 0.08358343 0.15423587 -0.22949696 -0.17428106 0.23492427 0.008154325 -0.24193597 0.2018272 0.060028836 0.060608122 -0.08965503 0.116655014 -0.03520003 -0.10924575 -0.03304846 -0.07420038 -0.1795333 -0.09914344 0.06455384 -0.2841447 -0.2974511 -0.4183454 -0.080454186 -0.24570991 0.40493208 0.2528461 -0.05446451 -0.03811957 0.31430092 0.10820002 -0.13684773 0.23362423 0.07011643 0.49690205 -0.09924581 -0.0874021 -0.23691757 -0.22454515 -0.016736856 0.056679524 -0.14348021 0.21598153 -0.032801148 -0.25059068 -0.12257617 -0.27111852 -0.004556855 -0.10642412 -0.020847512 -0.22826976 -0.11811806 0.29546487 -0.04379861 0.06973299 -0.15549798 0.4038802 -0.29593995 -0.06844285 0.18457587 0.011213703 0.0109513 0.16310057 -0.014166423 0.21820235 -0.046867352 -0.21741731 -0.27100974 -0.00082361675 0.081454895 -0.26836205 -0.4775892 -0.118870564 -0.122709155
47 0.01986475 -0.071656115 0.3634796 0.13306367 0.046316445 0.10385195 0.087536104 -0.18628402 0.05271421 -0.16598101 0.061840974 -0.10879777 -0.17388825 -0.44921407 0.3217833 0.22065163 0.09360437 0.007806381 -0.11895691 -0.08983242 0.20958199 0.38084644 -0.16659121 -0.10036399 -0.43177783 0.20763355 -0.22922824 0.12725745 0.062133573 0.030168684 -0.06856451 -0.21569589 -0.16439503 -0.0801439 -0.44528902 -0.14353262 0.22428432 0.10528566 -0.0190916 -0.04399918 -0.29530087 -0.049511425 0.18304195 -0.0060048224 0.025933107 0.06349431 -0.008894457 -0.33500275 -0.19154891 -0.14812091 -0.039470833 -0.13221402 0.39302427 0.3867268 0.016557949 0.02280704 0.3112215 -0.13173796 -0.27179784 -0.061795026 0.0027118467 -0.31655988 0.014506332 0.060118865 0.17418972 -0.23075366 0.08894244 -0.2731669 -0.31465888 -0.16897869 -0.07636222 -0.033595003 -0.3936587 0.08153263 -0.17398109 -0.41541228 -0.31710204 0.19598985 -0.08581708 0.28750798 -0.007749489 -0.05900463 0.29729998 0.4602987 -0.040120855 -0.03991449 0.18717003 0.03956678 0.51255435 0.10294618 -0.22229424 0.053103574 -0.052324634 0.2662523 0.19452494 -0.10343982 0.12156261 -0.0011749002 -0.37967053 -0.117580585 -0.078980476 -0.28462568 -0.1187749 0.017659174 -0.1200351 -0.03952777 0.28504547 -0.07768284 0.021340363 -0.19014652 0.28802648 -0.08981128 0.11505796 0.36509284 0.04366904 -0.02611897 0.08102345 0.156443 0.1820177 -0.14203665 -0.0867094 -0.3311866 -0.04093653 0.1651455 -0.1819112 -0.5744123 0.07839978 -0.2273261
66 0.06906256 -0.06612476 0.25347945 0.09190007 0.22007479 0.15504318 0.19022036 -0.1657163 0.009187628 -0.057867404 0.15108854 0.015315413 -0.23202237 -0.18987831 0.1737405 0.012158588 -0.027104866 0.13266946 -0.058776297 0.1322701 0.26661196 0.18390527 0.034115475 0.026313344 -0.34410065 0.07664428 -0.38107318 0.1345908 -0.008670365 0.2020194 0.11154954 0.09064135 0.06980061 -0.1604833 -0.1266794 -0.33733568 0.23658568 0.0010315431 0.06948447 0.17030817 -0.088082135 0.051340587 0.025762562 0.038962092 -0.110112675 0.1501654 0.10159862 -0.13697712 -0.052566398 0.10984166 0.12974192 0.2191811 0.25582278 0.3750533 -0.18229899 0.12953942 0.11268094 -0.15231264 -0.17377108 0.19960797 -0.035300292 -0.26172283 0.15197034 0.20337182 0.0144129265 -0.12913218 0.14768177 -0.04575708 -0.14977926 0.015843228 -0.02067243 -0.18107648 -0.06325631 0.06093833 -0.17279838 -0.3803636 -0.3316729 -0.09493427 -0.09665152 0.30876094 0.20712991 -0.108451374 -0.08182431 0.44412565 0.17216279 -0.0747366 0.27963126 0.020603202 0.35925388 0.07837455 -0.1608121 -0.05660487 -0.12014793 -0.07839621 0.23391227 -0.17237689 0.1729635 -0.11868966 -0.22504053 -0.089814894 -0.22137527 0.052979168 -0.15227811 -0.19036914 -0.1520774 -0.14814478 0.17828281 0.008128932 0.09608549 -0.055247474 0.41225508 -0.20800497 -0.15170854 0.028370894 0.041129645 0.10436814 0.2785759 0.16010687 0.16529694 -0.050217427 -0.07326022 -0.18470787 -0.08059869 0.0797822 -0.30373034 -0.3856851 -0.042656276 -0.09177569
15 0.21908607 -0.16768329 0.16358413 0.16124812 0.2822287 0.083704926 0.36277628 -0.12854859 -0.23957728 -0.03774403 0.33130866 0.3393386 -0.28670508 0.018358253 0.15915301 -0.041626506 -0.049350444 0.049144655 -0.070696376 0.2542547 0.39173946 0.2034218 -0.01867242 -0.032669954 -0.33851278 -0.09841682 -0.59183204 0.13596614 0.0010984747 0.1690781 0.26209992 0.097590365 0.32551414 -0.040021647 0.07724655 -0.41333508 0.44872996 -0.16454525 0.11953984 0.37506574 -0.013105838 0.08454534 0.016217759 0.15526097 -0.019525483 0.2213031 0.037205104 0.08405557 -0.074932806 0.30388847 0.25899532 0.5189156 0.18547122 0.3159498 -0.04571807 0.2094541 0.21185741 -0.27008644 -0.07684366 0.45897704 -0.2492505 -0.18907271 0.0592267 0.3571264 0.08679096 -0.10372914 0.30090865 0.20827544 -0.23125392 0.0978286 0.13834238 -0.12212692 -0.035213567 -0.077533305 -0.15139577 -0.2660269 -0.4033215 -0.3426169 -0.09541036 0.2567936 0.2895934 -0.20441955 -0.27100304 0.6864173 0.3314615 0.08831523 0.43863523 -0.030608881 0.2372681 0.059869964 -0.052725207 -0.09556491 0.0009990924 -0.35044786 0.26027122 -0.25408405 0.18303372 -0.1366206 -0.24571225 0.0046097157 -0.3015816 0.23263445 -0.1373907 -0.30580372 -0.11914351 -0.20248507 0.12293095 0.062254366 0.1106603 0.018984731 0.47432664 -0.24780637 -0.25611556 -0.16214654 0.002471538 0.30047536 0.47632167 0.26506555 0.12900788 -0.13173713 -0.031078724 -0.12396864 -0.14411522 0.0049118428 -0.37981388 -0.22567166 0.022627376 -0.051072877
34 0.24779685 -0.16515122 0.06805864 0.23912248 0.23084967 0.12548278 0.3412874 -0.17373915 -0.31262344 -0.1377815 0.281282 0.32322073 -0.2084737 -0.0076025836 0.27482036 -0.031375088 -0.06436927 0.04542433 -0.14181688 0.3557826 0.44609874 0.2783152 -0.010133247 0.03017204 -0.33147487 -0.06085682 -0.58481 0.08131095 0.0137304105 0.19109708 0.24952564 0.095484935 0.3335285 -0.12198938 0.05311171 -0.48028564 0.37823445 -0.14325966 0.04948564 0.38561597 0.020376999 0.03694501 0.10153516 0.23858279 0.05301535 0.26327094 0.093537785 0.077971764 -0.06552657 0.27088597 0.35417077 0.49985296 0.23511854 0.3760243 -0.025744429 0.19687957 0.3162839 -0.3242752 -0.041902676 0.55055964 -0.2950232 -0.1521665 -0.0012561863 0.33580735 0.104182996 -0.091582246 0.2863018 0.17750913 -0.26238227 0.09481436 0.19478354 -0.12703086 -0.06770789 -0.072920986 -0.1251428 -0.18078358 -0.43640986 -0.29088378 -0.06660882 0.2635651 0.2667909 -0.23643553 -0.23395133 0.7050049 0.34714296 0.16615315 0.4310343 0.026013402 0.27657923 -0.046942886 -0.061875112 -0.11943454 0.062467575 -0.31604195 0.21411282 -0.24033514 0.20935196 -0.07872194 -0.3590518 -0.010013558 -0.330614 0.22419326 -0.101553336 -0.14642416 -0.2048681 -0.21257606 0.21052979 0.073638126 -0.009895923 -0.012419122 0.5129188 -0.29558933 -0.24823529 -0.11391516 -0.055179756 0.20927015 0.5415296 0.31946054 0.11968435 -0.23583326 -0.10808915 -0.165132 -0.203506 -0.00030980678 -0.3781274 -0.17197785 0.0041926857 -0.009711072
4 -0.24415314 -0.1902069 0.0005775122 0.03209148 0.43970126 0.2749311 0.04968884 -0.07025535 0.16239251 -0.15533857 0.14046222 -0.0896469 -0.32009506 0.15415752 0.18980534 -0.022348443 0.013113528 -0.056639113 -0.070980266 0.20633426 0.25741518 0.01733687 -0.0687648 -0.058716286 -0.14012663 -0.019428777 -0.23820913 0.16502473 0.16617528 -0.15574408 0.056116696 0.13947287 0.16161594 -0.13434339 0.059482682 -0.19751124 -0.06280524 -0.11597989 -0.028665476 0.19558436 -0.10957849 0.17680538 -0.023289599 -0.17864452 0.14035092 0.20521963 0.13200726 -0.059106354 -0.17026709 0.48188254 -0.1312981 0.4651775 0.32749033 0.31125015 -0.40789384 0.13396573 0.13004729 0.009580307 -0.25801182 0.21237423 -0.030020043 -0.14184697 0.3677377 0.07061823 0.25774807 0.1697877 0.08300414 0.177863 0.062826194 -0.08015792 -0.03785253 -0.28400233 -0.05480239 -0.13824211 -0.22045854 -0.2576263 -0.27887902 -0.056294814 -0.44363892 0.35253707 0.08515413 -0.04643851 -0.1504401 0.16737388 0.24054915 -0.17070952 0.21632993 -0.08160984 0.22007036 0.078387104 0.09294626 -0.52254355 -0.19287364 -0.18919416 0.14231983 -0.1295288 0.17745596 -0.19196743 -0.08708731 -0.15774722 -0.13901125 0.067926414 -0.23935705 -0.1402483 -0.10198164 -0.13999107 0.015486589 -0.05599359 0.27304196 -0.14401318 0.15492491 -0.39331287 0.033610813 0.1089547 -0.11852226 0.12783965 0.07251859 -0.16891345 0.21730508 0.11559544 -0.288865 -0.14882123 -0.010025158 -0.02536517 -0.06780197 -0.10364826 -0.28778738 -0.03495103
40 -0.36897457 -0.42818615 0.07861075 0.09571845 0.41499242 0.17736436 0.102893665 0.12706907 0.15810893 -0.25703904 0.18305548 -0.14729083 -0.34346554 0.25797868 0.26523322 -0.067605205 -0.076821774 -0.19204837 0.030595765 0.10293309 0.24984565 0.18433034 -0.19080837 -0.11969396 -0.09127262 -0.17922543 -0.14032304 0.3009226 0.20751373 -0.27346045 0.034792323 0.040990967 0.3343271 -0.014762434 0.041355543 -0.12813672 0.118454665 -0.27890664 -0.026047839 0.076172486 -0.042994525 0.18617336 0.0076336227 -0.28376684 0.21850663 0.23715694 0.039147884 -0.06315412 -0.0010611166 0.5782574 -0.03057095 0.47320408 0.17289828 0.18093182 -0.36131752 0.08062066 0.17691639 -0.10169733 -0.18348347 0.3540968 -0.1270878 -0.06965496 0.36367673 -0.07027904 0.28808638 0.3718077 -0.013802296 0.26669455 0.14714426 -0.12308655 0.05656551 -0.075034186 -0.31015134 -0.2940862 -0.08933853 -0.29883835 -0.22769213 0.052127812 -0.5125789 0.28617278 0.021070369 0.001027352 -0.156748 0.10269499 0.36052793 -0.04831062 0.28668416 -0.06549612 0.030600227 0.20405535 0.19317432 -0.5338996 -0.053072445 -0.20256138 0.077279896 -0.023581516 0.16745092 -0.31072542 -0.11279325 -0.10375492 -0.010032907 0.18267862 -0.10570293 -0.112522274 0.016734807 -0.17409636 -0.09716758 -0.065186605 0.3520676 -0.17994972 0.057645682 -0.33719742 0.095922664 0.17610162 -0.20669843 0.1794274 0.050207272 -0.10636411 0.16737413 0.020060066 -0.46258152 -0.18119785 -0.045306023 0.018733406 0.10697876 0.11061578 -0.28469744 0.098979
91 0.5902729 -0.4701392 0.36665517 0.53700036 0.58375174 0.19938155 0.21692301 -0.4443869 -0.14415419 -0.037337117 0.11866796 0.29040787 -0.21184449 -0.12175078 0.5184759 0.41166434 0.37115562 -0.49713692 -0.35693303 0.10421733 0.3099904 0.33697608 -0.4836987 -0.41068727 -0.18923034 0.23454249 -0.14587048 -0.19882098 0.31388584 -0.11708027 -0.38194627 -0.26137805 -0.1104554 0.36044067 -0.098643504 0.14823316 -0.21542855 -0.29833472 0.07982164 0.13199675 -0.5523083 -0.1459001 0.020378103 0.1713002 0.4059241 -0.21059176 -0.48722896 -0.015971815 -0.7402468 -0.27796677 -0.034478813 0.41958505 0.51008475 -0.0665697 -0.13943696 0.2016565 0.5514311 0.28870383 -0.05860197 -0.44663644 -0.49199635 -0.22623643 -0.3324791 0.29040262 0.5570771 -0.5025511 0.35800064 -0.036914095 -0.5011839 -0.33077285 -0.31354547 0.0081938105 -0.68736595 -0.102513365 -0.34692904 -0.42258772 -0.612212 0.0814535 -0.28533858 0.27142987 -0.15748526 -0.032689176 0.48714596 0.9200714 0.14205964 -0.15392295 0.5264252 -0.2960781 0.58778375 -0.019440249 -0.04705332 -0.5734817 -0.13847265 0.06636017 0.26589414 -0.19963239 0.1322709 0.48486504 -0.35342804 -0.18201344 0.35906652 -0.6831098 -0.32102236 0.043549545 0.13620466 -0.004372191 0.0026592878 -0.117029406 -0.02552063 -0.102609664 -0.10425253 -0.20914364 0.3092286 -0.01799536 0.13679229 0.45367944 0.2922632 -0.031640142 -0.12603353 -0.18902566 0.16740897 -0.44065267 -0.14321196 0.1751902 -0.43303308 -0.0012479986 0.31157207 -0.59735525
5 -0.23513797 -0.30955836 0.018340653 0.057459917 0.4669802 0.34794247 -0.028229367 -0.10873698 0.16941471 -0.19311187 0.12700874 -0.07531114 -0.38881677 0.18864389 0.20057733 -0.042276077 -0.02452986 -0.065105036 -0.0067191273 0.24371582 0.23808737 -0.005137056 -0.0041479915 -0.07620757 -0.19119346 0.011729577 -0.33233333 0.16700056 0.13152872 -0.14428334 0.032887544 0.1427415 0.21724151 -0.19386205 0.12636879 -0.21538524 -0.07152986 -0.19064136 -0.065413944 0.26328987 -0.0870491 0.12647174 -0.017305214 -0.19350311 0.1405603 0.16810967 0.1255155 -0.11117 -0.118696965 0.513254 -0.0563906 0.49245661 0.31779426 0.30031756 -0.5162073 0.15046303 0.11958231 -0.016067212 -0.24410117 0.2738763 -0.0046822927 -0.1263281 0.43189195 0.067557134 0.18131696 0.18474999 0.091750056 0.2033174 0.2537015 -0.12910822 0.026619961 -0.28547364 -0.022880701 -0.2021198 -0.15715626 -0.2989887 -0.321471 0.016490111 -0.42072275 0.30533156 0.07864888 -0.041920282 -0.13273259 0.16422763 0.23163576 -0.18272269 0.22667038 -0.06806375 0.26815727 0.07123657 0.07700634 -0.49228776 -0.25402814 -0.16291682 0.12871982 -0.13264832 0.21369298 -0.19785988 -0.04508305 -0.19919303 -0.10038705 0.07186248 -0.21552564 -0.16233489 -0.15457761 -0.15467156 -0.0046565034 -0.024009334 0.31188804 -0.104100086 0.15254077 -0.44581258 0.02601733 0.0832479 -0.1695676 0.13885224 0.13991436 -0.22510958 0.2618891 0.16304083 -0.30867344 -0.18448609 -0.088178255 0.010254576 -0.13804685 -0.0959186 -0.42562193 -0.00966362
63 -0.2466303 -0.33073118 0.37635645 0.24317212 0.12927885 -0.07695831 0.13670756 0.32074445 -0.010609526 -0.3200854 0.2174127 -0.14682879 -0.17456731 -0.37825817 0.4246695 0.20472547 -0.18660522 -0.05966638 0.04758617 -0.15169926 0.04047938 0.6828333 -0.46685228 -0.30625165 -0.22503465 -0.24561512 0.09625656 0.25775844 0.23792978 -0.37886512 -0.1415137 -0.19494575 -0.06631808 0.3516907 -0.42071584 0.03499947 0.43793237 -0.036419977 -0.05484496 -0.37683812 -0.08241372 0.09830769 0.2057274 -0.11867487 0.13583118 0.29719305 -0.045713715 -0.21420321 0.13786294 0.3018922 -0.07745082 -0.10746664 0.12480949 -0.062122352 0.35597128 0.030618481 0.47099283 -0.25792912 -0.16349201 0.19108362 -0.113228634 -0.22768547 -0.013150786 -0.08154225 0.29418847 0.41700038 0.047163952 0.11934171 -0.44057173 -0.23054633 0.121295825 0.2854982 -0.86890084 -0.22656278 0.02326573 -0.35856965 -0.109998256 0.005286941 -0.3285893 0.29581144 0.056113053 0.0012768557 0.12060087 0.36763474 0.06484921 0.2618433 0.36240155 0.3421118 0.1265349 0.37520117 0.12432115 -0.37498674 0.56241995 0.013182689 0.11757463 0.09842285 -0.056891706 -0.3395568 -0.5091988 -0.08719312 0.10378 0.13306315 0.030943118 0.2261716 0.29688317 -0.04446609 0.022135561 -0.075278245 0.23725688 -0.3441378 0.18675335 -0.056351736 0.41442594 0.4506274 -0.24306144 -0.081156194 -0.19117115 0.16582301 0.17306732 -0.24600695 -0.49839205 -0.34599102 0.2617081 0.30550143 0.283736 0.01334729 0.19520332 0.16890149
62 -0.27537662 -0.28590864 0.4099974 0.22206944 0.13493243 0.00084184704 0.13136894 0.3202686 -0.044148043 -0.39788458 0.22899021 -0.19194007 -0.27179134 -0.30160064 0.42194292 0.16219519 -0.14748792 -0.028748697 0.057404805 -0.2103596 0.055724155 0.71481866 -0.42682 -0.28568828 -0.26902497 -0.21664427 0.08410798 0.3601861 0.18517263 -0.44053006 -0.10300613 -0.26834822 -0.013586521 0.30511004 -0.43296018 -0.020846339 0.44783098 -0.010955805 -0.07982108 -0.35897565 -0.08476883 0.085582495 0.17423394 -0.20116305 0.17768677 0.26730332 -0.052872207 -0.24728636 0.091455996 0.3284002 -0.117489025 -0.091673546 0.17300184 0.031875536 0.3371057 0.06695316 0.47489485 -0.24372815 -0.26457584 0.13564406 -0.08548701 -0.22791518 0.057826467 -0.08420768 0.2778571 0.4129322 0.03892315 0.111722626 -0.43168825 -0.23868488 0.16679117 0.30671853 -0.7898705 -0.21082607 -0.041310243 -0.35609573 -0.08010055 0.0029454676 -0.27180365 0.3178609 0.0879927 0.028431576 0.12276018 0.2635467 0.07620707 0.20534825 0.32889482 0.2478369 0.15733124 0.37427542 0.0925825 -0.3384106 0.4704094 0.064143606 0.13654473 0.15230289 -0.098237604 -0.3105189 -0.47668976 -0.08240322 0.037397213 0.058529366 -0.0060475552 0.22624141 0.24323493 -0.09342827 0.096672855 -0.08836653 0.20761302 -0.36026743 0.15392913 -0.0760288 0.3231774 0.48027846 -0.23173213 -0.07760548 -0.13299605 0.1879436 0.20250076 -0.21169895 -0.47983566 -0.3291431 0.24359004 0.24036084 0.334492 -0.056477044 0.19666044 0.20258737
78 0.29389423 -0.24713649 0.48408136 0.26473388 -0.040783927 0.08644055 0.030627277 -0.18696864 0.06995161 -0.23354408 0.054316264 -0.10137394 -0.06850392 -0.44103798 0.44853383 0.23543699 -0.015344432 0.047260318 -0.05684872 -0.036480304 0.18275753 0.6042931 0.03565744 -0.0319867 -0.45043573 0.17420118 -0.3169134 0.2640305 -0.026289234 0.30654582 -0.056019288 -0.3089216 -0.017060995 -0.14300351 -0.35462093 -0.14822814 0.4730613 0.0107062375 0.12016977 0.019202424 -0.27020928 -0.123033814 0.1887951 0.060892247 0.17383438 0.02493745 0.07785577 -0.39317137 -0.03457721 -0.32731038 0.3395317 -0.17188898 0.17447717 0.29896155 0.0066834968 0.09990268 0.38573462 -0.12592381 -0.118740685 0.02764583 -0.03343706 -0.29243672 -0.069130026 0.12385569 0.106826775 -0.19060439 0.017245421 -0.40938088 -0.13093872 -0.013509669 0.11670316 0.015763234 -0.35551286 0.06495225 0.08285178 -0.5324834 -0.21851762 0.40413392 0.07363033 0.26899624 -0.11143155 -0.17444712 0.3104283 0.5117867 0.16610691 0.12613991 0.20092751 0.036742575 0.35481676 0.13086225 -0.4107487 0.18296237 0.004916805 0.21195634 0.355481 -0.060821947 0.1989137 -0.13158898 -0.41034624 -0.125467 -0.03808638 -0.074242845 -0.07218115 -0.017277602 -0.28182653 -0.13577439 0.2329028 0.00699654 -0.14326568 -0.136704 0.34349746 -0.046027064 -0.10571281 0.23979937 0.12981339 -0.040718503 0.38263178 0.42660037 0.08214677 -0.26077938 -0.16295657 -0.23722477 -0.33592522 0.18727309 -0.2674861 -0.3407941 -0.044894814 -0.1058931
74 0.4544357 -0.5036402 0.5882649 0.35365394 -0.078986704 0.059479125 -0.04765923 -0.2653852 0.20052394 -0.33325243 0.06858536 -0.10857641 -0.038505305 -0.34730482 0.5833973 0.3016886 -0.072282046 -0.05257787 0.0027951968 -0.034449648 0.23195267 0.7821672 0.14651465 -0.08639368 -0.45420882 0.17842355 -0.47990957 0.4298853 0.027056037 0.42438117 -0.08657733 -0.46535888 0.14066748 -0.14166972 -0.20720279 -0.08947307 0.68060106 -0.12100171 0.2867794 0.12241431 -0.29014748 -0.14532508 0.1850893 -0.02656994 0.41117123 -0.019841129 0.095225014 -0.48418504 0.033590145 -0.4043729 0.5609738 -0.11807882 0.02627594 0.25361183 -0.06216602 0.16602488 0.5068718 -0.04915973 -0.078454524 0.08404488 -0.06716708 -0.27055523 -0.028328424 0.16100064 0.09672464 -0.112178035 -0.018074377 -0.46201712 0.12304296 0.039619226 0.3075153 0.034156732 -0.42387587 -0.006870945 0.31206158 -0.7009587 -0.100488305 0.64537865 0.113034904 0.24247502 -0.32039776 -0.28585133 0.3841798 0.5710118 0.38265973 0.22444446 0.20632198 -0.03257379 0.18517742 0.22361034 -0.5403291 0.20984152 0.03898964 0.105535164 0.5508057 -0.053730875 0.26818818 -0.26499102 -0.4263543 -0.14717342 0.01607008 0.097944036 -0.07374794 -0.073464535 -0.34636915 -0.24895644 0.07146834 0.048940223 -0.1624836 -0.115114346 0.3187693 0.017461587 -0.23616615 0.15828009 0.12233682 0.0024023037 0.61863655 0.5356225 0.014715193 -0.32290617 -0.28655198 -0.19484714 -0.6052824 0.17846628 -0.25124946 -0.13816367 -0.23474719 -0.03768103
77 0.44661558 -0.65685236 0.5774568 0.635321 0.0010151188 0.06205586 -0.23300676 -0.39660078 0.2589624 -0.32975766 -0.015170757 -0.020106334 -0.018787814 -0.2883158 0.5593751 0.5358881 0.1706687 -0.3080361 -0.03302503 -0.08103656 0.24423212 0.7895535 0.17610294 -0.43549016 -0.27067196 0.16980033 -0.59638304 0.39120775 0.1367474 0.2267177 -0.24611327 -0.5713927 0.1332843 0.08501263 0.1297861 0.12792397 0.6063626 -0.27999344 0.26197103 0.24738497 -0.3870198 -0.25335366 0.06483699 -0.025452 0.71576756 -0.018875204 -0.10128643 -0.3782336 -0.2853561 -0.48425233 0.54088575 0.23888402 0.04007535 0.17180556 -0.2524125 0.17108385 0.5418075 0.15287024 -0.09662413 -0.009507982 -0.24780625 -0.43863243 0.17544629 0.13761368 0.22468777 -0.211602 -0.030349938 -0.38034108 0.09941375 -0.07636345 0.36123753 -0.15422657 -0.6105404 -0.2463092 0.25704393 -0.7312428 -0.0725813 0.76159745 0.11931558 0.12849765 -0.7039894 -0.23541859 0.5382512 0.6616326 0.43633315 0.17096968 0.17026682 -0.0666529 0.25655138 0.31674904 -0.5348897 0.034842383 -0.03817049 -0.0412016 0.66885793 0.0019393045 0.4501023 -0.23107573 -0.4485406 -0.1790988 0.1394967 0.10795147 -0.15012327 -0.10346478 -0.09172952 -0.34064117 0.042195868 -0.032499257 -0.092249446 -0.13359441 0.13464956 0.07131872 -0.05104723 -0.118597664 -0.02810585 0.0913503 0.54862034 0.40590942 -0.08973928 -0.42279276 -0.160887 -0.4109425 -0.49839404 0.1873211 -0.29753298 0.21899875 -0.42484704 -0.13200799
76 0.44399863 -0.59321696 0.60261434 0.5248453 -0.055522572 0.03840351 -0.15761282 -0.33245665 0.2714769 -0.32490605 -0.011478177 -0.05465929 -0.005403953 -0.35719034 0.5800151 0.49190488 0.11130905 -0.2501183 -0.037968844 -0.12297579 0.2050984 0.79899734 0.11161538 -0.32082918 -0.31324375 0.17336857 -0.501148 0.38855356 0.1004647 0.2924489 -0.21732518 -0.5695404 0.07561665 0.04068172 -0.043007415 0.11383935 0.6369418 -0.21259631 0.29532543 0.14241064 -0.38497272 -0.20643061 0.103078745 -0.037715517 0.6181631 -0.049702633 -0.067966186 -0.4378826 -0.19870758 -0.51399356 0.50764686 0.04954267 0.030146742 0.17017289 -0.1397282 0.13170084 0.5373965 0.11362839 -0.11309464 -0.045037996 -0.2062539 -0.39393738 0.07246073 0.10914471 0.20155878 -0.19974224 -0.047342375 -0.4609116 0.062616296 -0.06168483 0.30212924 -0.055440728 -0.6162326 -0.14175414 0.25209904 -0.74399763 -0.08049959 0.76057637 0.102764174 0.1674408 -0.5923602 -0.2218247 0.55155474 0.6421313 0.38528463 0.17581356 0.18370983 -0.065590024 0.25903487 0.32338595 -0.5226473 0.09395744 0.00030443052 0.05860978 0.6143803 -0.011900804 0.36244655 -0.21662007 -0.46464458 -0.16263628 0.15242085 0.045964684 -0.1309373 -0.06271196 -0.13697526 -0.29955882 0.045436796 -0.009984064 -0.119927764 -0.15075812 0.16637044 0.080167845 -0.059224386 0.031936098 0.04125814 0.059804585 0.52448833 0.45481566 -0.057322823 -0.40574586 -0.20376092 -0.37331077 -0.52488214 0.20459345 -0.24215345 0.07371682 -0.30578005 -0.12743367
90 0.5513804 -0.396821 0.34713823 0.48754892 0.5190617 0.12559392 0.26450756 -0.45336226 -0.16375993 -0.030840527 0.12183618 0.27726713 -0.18495381 -0.17015633 0.50008684 0.42444134 0.34715793 -0.45229772 -0.35405055 0.07921054 0.34567288 0.30424985 -0.49509323 -0.37761864 -0.20921555 0.25877154 -0.17961422 -0.2390349 0.3105259 -0.10785305 -0.34979236 -0.27338135 -0.13360356 0.3228202 -0.1526406 0.14310585 -0.2074697 -0.23270102 0.08404363 0.12170706 -0.5140739 -0.14087252 0.068256505 0.169006 0.31272605 -0.19637562 -0.4708949 -0.03653405 -0.6872029 -0.3212263 -0.081488445 0.35157984 0.5316688 -0.0059039234 -0.055647895 0.13560869 0.5364665 0.21554342 -0.091351844 -0.39586905 -0.44589671 -0.2310507 -0.32414705 0.30000323 0.5026106 -0.52128774 0.39299724 -0.07147063 -0.5038671 -0.31908843 -0.32129547 0.028833743 -0.65116346 -0.0568173 -0.33864596 -0.40601417 -0.6084412 0.063025296 -0.25301003 0.25060046 -0.17032762 -0.06831324 0.4870133 0.94634634 0.07843751 -0.15703684 0.484604 -0.25711438 0.61909306 -0.01716413 -0.054329954 -0.45469216 -0.11026572 0.121044286 0.2385756 -0.24220921 0.11030223 0.49220484 -0.38394907 -0.12832285 0.2846834 -0.6927223 -0.3178903 0.026511984 0.11536562 0.02138877 0.033256106 -0.09328498 -0.022060713 -0.089589335 -0.03180681 -0.1672658 0.3031033 0.013829326 0.112251155 0.41464674 0.2759374 -0.021959335 -0.08228295 -0.16954927 0.15918651 -0.42657366 -0.1254499 0.1420415 -0.40894866 -0.121836945 0.33482462 -0.572725
41 -0.22699225 -0.49027288 -0.025664112 0.023197033 0.380874 0.22739646 0.0093222195 0.053082008 0.035158228 -0.060448896 0.2737678 0.21182798 -0.32639667 0.17405555 0.2526985 -0.055920247 0.026900832 -0.3120388 0.020671511 0.17500974 0.13815883 -0.046316262 -0.15753925 -0.20074967 -0.3071088 -0.106152244 -0.29223084 0.16101907 0.20632261 -0.27533367 0.017231604 0.047470797 0.35302734 -0.043421663 0.10588277 -0.06392947 0.1954149 -0.3886668 -0.0898987 0.30272588 -0.1489471 0.057385188 -0.0014318777 -0.086052425 0.2436173 0.05236795 0.015224986 0.042176027 -0.09342274 0.6707369 -0.060250852 0.485828 0.16743368 0.19284746 -0.33813167 0.07166887 0.2479507 -0.12236164 -0.18504265 0.47760153 -0.17054585 0.06076565 0.3181752 -0.17098504 0.29818255 0.15532342 0.08592357 0.31440842 0.33738747 -0.18276507 0.2766947 -0.04188862 -0.15903443 -0.4664409 -0.044862803 -0.24528174 -0.36387214 0.047352064 -0.42036542 0.23900607 0.019039791 -0.071474664 -0.06026014 0.31462252 0.24630426 0.06843648 0.31905073 -0.12517919 0.07952856 0.18492968 0.21776515 -0.33992714 -0.024966585 -0.19308025 0.07502209 -0.14811295 0.19468412 -0.31699002 -0.035528388 -0.14702252 -0.024428096 0.14794126 -0.16012233 -0.31395665 0.0038333717 0.01701302 -0.11849448 0.02488755 0.45753795 -0.07665665 -0.10519121 -0.36268184 0.11334264 0.2134727 -0.21372126 0.22786161 0.1319497 -0.15008798 0.27231002 0.15186484 -0.28558156 -0.17358015 -0.23197663 -0.02623152 -0.01587052 -0.03697186 -0.41675335 0.042536113
29 0.22980598 -0.2138796 0.45724058 0.25540417 -0.01514681 0.084136724 0.0678932 -0.16488312 0.08049308 -0.2153473 0.039260752 -0.104587875 -0.08671651 -0.38733086 0.4120241 0.1963952 -0.018815614 0.045287047 -0.052742574 -0.019050563 0.21362673 0.5524635 0.023125857 -0.0051975613 -0.43334144 0.17250456 -0.2923543 0.26629627 -0.026880808 0.27512842 -0.034279145 -0.26784867 -0.013805879 -0.15523352 -0.3463766 -0.1742871 0.44815195 0.018933482 0.10660758 0.0010002495 -0.24208856 -0.101804845 0.19018361 0.039984718 0.10479213 0.0560109 0.09389031 -0.34584683 -0.00790942 -0.2733886 0.2758225 -0.13526864 0.18182102 0.309848 -0.004660339 0.07084128 0.31556496 -0.14922062 -0.115557246 0.05211145 -0.011709188 -0.2879596 -0.042999435 0.10854901 0.072269335 -0.16950566 -0.0026370394 -0.3761831 -0.14705974 -0.0022036717 0.07867364 0.018578332 -0.33113715 0.081213884 0.0494777 -0.49376288 -0.20451255 0.35374892 0.06375741 0.2450531 -0.07194051 -0.14796783 0.25230324 0.44371307 0.1638136 0.09354836 0.2168742 0.05376318 0.32438335 0.13215317 -0.36188126 0.16516739 -0.010845867 0.18777232 0.31013444 -0.06925438 0.1954611 -0.14092924 -0.37924853 -0.078712866 -0.057855263 -0.038104493 -0.03823324 -0.04768525 -0.25926262 -0.13102746 0.21170466 0.017212909 -0.1051973 -0.12648122 0.33751488 -0.042572834 -0.115354456 0.2258175 0.11936555 -0.028315254 0.31971452 0.4037288 0.0625837 -0.24952099 -0.15802914 -0.22337197 -0.24956253 0.15972254 -0.23471464 -0.35962355 -0.036643945 -0.0923065
75 0.5035062 -0.5826409 0.6225842 0.45427442 -0.052647628 0.04328147 -0.10017863 -0.32444024 0.22602311 -0.3539121 0.041287124 -0.06688091 -0.015074348 -0.3579727 0.61568296 0.40496254 -0.0068748305 -0.16313463 -0.026359912 -0.06980408 0.23995093 0.81878835 0.12788954 -0.20638205 -0.39218074 0.17139581 -0.51474065 0.4165094 0.083327375 0.3697434 -0.15947045 -0.53764415 0.13076013 -0.047939457 -0.1309241 0.009241246 0.6592158 -0.18545343 0.30129507 0.14473844 -0.32978946 -0.17320392 0.15118553 -0.035055537 0.52444917 -0.035973124 0.011229882 -0.47491816 -0.08662166 -0.44839284 0.5470222 -0.02878669 0.025459245 0.19361481 -0.07576696 0.15297744 0.5487531 0.032139815 -0.08956628 0.010096602 -0.14379592 -0.3202236 -0.0029239063 0.15640296 0.15057394 -0.145173 0.004638682 -0.44673797 0.09960663 -0.01142882 0.31917533 0.0025556288 -0.53287864 -0.06875298 0.29604506 -0.7302806 -0.098447256 0.6974844 0.10295499 0.2190279 -0.4539661 -0.25944695 0.4705081 0.64200777 0.38678885 0.21119523 0.21518597 -0.062413186 0.2191463 0.28048503 -0.55119216 0.16356386 0.05239983 0.08346932 0.60168195 -0.045034744 0.28588375 -0.23016798 -0.45488778 -0.16419333 0.09072048 0.07520958 -0.11597689 -0.068254545 -0.2567187 -0.26187968 0.045859043 0.029834632 -0.15280026 -0.11369424 0.23512055 0.060014334 -0.15872672 0.08991709 0.0704947 0.031787153 0.6077809 0.5091259 -0.020247765 -0.36462826 -0.25342864 -0.27443936 -0.5995432 0.18983501 -0.24188237 -0.029047837 -0.27085766 -0.06588467
6 -0.06871068 -0.22004302 -0.09055849 0.3416145 0.4818057 0.17268051 0.14727603 -0.14701042 -0.019290006 -0.38533956 0.16182818 -0.24492104 -0.15533777 0.15947033 0.38262352 0.038828257 -0.09868359 0.060381576 -0.18746114 0.4389602 0.5038565 0.25618827 0.014796207 0.09512726 -0.01849778 0.09982736 -0.36543456 -0.0258455 0.1594767 -0.03389205 -0.037227333 0.26310977 0.2572523 -0.12720512 0.06714489 -0.3349266 -0.17699423 -0.051704492 -0.013774967 0.15940775 0.084538296 0.11236476 0.21242727 -0.09265541 0.07515217 0.40233684 0.27211294 -0.14616354 -0.012214606 0.1717683 0.2164873 0.50499165 0.38994715 0.23368932 -0.35931545 0.11246666 0.27677998 -0.18858148 0.02760232 0.26240748 0.08081466 -0.2419079 0.22105294 0.3159898 0.12351205 0.24543627 0.1289512 0.21529904 0.11210784 -0.034706652 -0.10890446 -0.33136666 -0.1849286 -0.0177082 -0.06004528 -0.2748161 -0.24647884 -0.069364466 -0.30913052 0.3358651 0.092140414 -0.18007445 -0.1713205 0.26432613 0.36986685 -0.08458224 0.16261618 0.111416645 0.40361145 -0.25149792 0.00037601305 -0.6523749 -0.13968255 -0.25571835 0.14407231 -0.09817373 0.21673466 -0.025797807 -0.28820854 -0.13732165 -0.26402193 0.1486651 -0.16360287 0.1978733 -0.28852567 -0.3538379 -0.012838391 0.012843495 -0.0045609362 -0.17196347 0.5226044 -0.35183716 -0.011304774 -0.14374192 -0.15394276 -0.045309544 0.30969462 -0.1614318 0.013698743 -0.15997459 -0.4372427 -0.21090403 -0.042321503 0.11666086 -0.315774 0.18942095 -0.22306345 0.07099876
7 0.01804674 -0.2891503 -0.16409613 0.40614325 0.46610987 0.107257076 0.23302506 -0.17941375 -0.06854747 -0.35905555 0.19333127 -0.14266142 -0.07368544 0.22262284 0.42252964 0.02701744 -0.08170861 -0.04236328 -0.24185765 0.5311418 0.6103758 0.26274577 0.022173652 0.1356364 0.0017631014 0.06916855 -0.43366784 -0.09138433 0.19502234 0.045550276 -0.017267937 0.29059324 0.39681843 -0.123845704 0.13924932 -0.3605544 -0.13946435 -0.13579455 0.052911337 0.26697394 0.11159424 0.103587545 0.25561166 0.0017420033 0.10021522 0.42166093 0.28408948 -0.039344363 0.010150953 0.10638253 0.3643207 0.61458075 0.31248555 0.22922026 -0.34671757 0.070979044 0.29630798 -0.2705427 0.15685268 0.36633202 -0.013222571 -0.20090066 0.14431256 0.32731676 0.17210966 0.15020227 0.16839617 0.23550786 0.13394427 0.016645145 -0.08947144 -0.32661808 -0.19519718 -0.01334762 -0.027473925 -0.20693043 -0.30153623 -0.07042766 -0.30580628 0.30709386 0.043446444 -0.25816298 -0.19358926 0.36348253 0.4648814 -0.015731134 0.1756943 0.07372463 0.33371207 -0.3289656 0.008285249 -0.5842652 -0.12982954 -0.31307575 0.11749917 -0.17850342 0.26691765 0.022753876 -0.31074244 -0.08545532 -0.25735307 0.20575461 -0.13055202 0.16198333 -0.32406747 -0.34902382 -0.014692627 0.05053833 -0.066461936 -0.102079526 0.534179 -0.29430827 -0.05435725 -0.21965763 -0.1389918 -0.009817141 0.42767057 -0.06278086 -0.089135386 -0.2474553 -0.41777885 -0.18327422 -0.14987025 0.0772707 -0.40476698 0.28834054 -0.18123776 0.025345074
64 -0.059475943 -0.055572767 0.4900077 0.19547912 0.06504775 0.13626091 0.15440309 0.09060283 -0.09069176 -0.29463685 0.09300864 -0.17726877 -0.3222576 -0.21814859 0.32480904 0.10065287 -0.050019607 0.06630201 -0.032810934 -0.13576488 0.17797078 0.56251335 -0.17895047 -0.07174775 -0.36003518 0.031124346 -0.04578387 0.36093795 -0.04064168 -0.13986161 0.034659687 -0.292938 -0.06245939 0.010564931 -0.4482248 -0.2404458 0.40873498 0.14443658 -0.053237665 -0.22023757 -0.20892096 0.039071232 0.15331261 -0.09415789 0.09502277 0.154389 -0.048618525 -0.24092965 -0.12232497 0.05573583 -0.051169127 -0.11137471 0.29932317 0.2612292 0.16775851 0.08423664 0.2597546 -0.16290782 -0.25004002 -0.0045652613 -0.072234154 -0.24264653 0.0009640239 0.04668018 0.15383516 0.048933808 -0.040533714 -0.1543469 -0.48184812 -0.0645049 0.04836411 0.17293018 -0.39892474 0.025364455 -0.198857 -0.2888444 -0.20686299 0.034099292 -0.09293014 0.2504106 0.1649525 0.046484698 0.11789208 0.24104746 0.024675706 -0.011057936 0.27928698 0.06537796 0.31997317 0.16103564 -0.10817353 -0.06627786 0.029979551 0.18707241 0.12896113 0.080071636 -0.033505414 -0.08145231 -0.3899179 -0.036661945 -0.055433154 -0.13056177 -0.0042853937 0.119598895 -0.042020347 -0.1356953 0.32075584 -0.06808428 -0.022069994 -0.24876642 0.2626236 -0.15945493 0.019379832 0.35279834 0.045520023 0.024876341 0.019799242 0.28587282 0.15249427 -0.21117075 -0.16968146 -0.23929031 0.1419366 0.1234516 0.058546297 -0.37614927 0.1614421 -0.030095074
12 -0.09157577 -0.028378863 0.3396012 0.14881787 0.10304841 0.16218416 0.1328272 -0.0064461557 -0.038930822 -0.19864847 0.038360614 -0.16350046 -0.26055938 -0.30581212 0.33183572 0.07884304 0.014391181 0.000720644 -0.084679835 -0.017604968 0.22048196 0.36983925 -0.13504028 0.00044278067 -0.40209326 0.14504564 -0.09352225 0.15178928 -0.015965572 -0.038200747 -0.0022560088 -0.15789026 -0.08423113 -0.12405602 -0.46520194 -0.28448874 0.23573472 0.1072012 -0.09977355 -0.1187042 -0.2518298 -0.005512796 0.18996447 -0.00879737 -0.025986198 0.1389466 0.021331135 -0.25057545 -0.13379025 0.04717611 -0.038487334 -0.028729483 0.38788775 0.37246054 -0.049402356 0.029888915 0.23419712 -0.23211378 -0.21352 0.0785034 -0.04942534 -0.26570308 0.04850066 -0.01872125 0.12671457 -0.10065614 0.027041199 -0.19172958 -0.31891194 -0.12377785 -0.029378446 0.06285033 -0.3371968 0.03544678 -0.26516598 -0.31338 -0.38781247 0.092450336 -0.14383562 0.2867882 0.16719829 0.027021095 0.1460958 0.35146052 -0.011668889 -0.06491191 0.2839853 0.07495527 0.46503532 0.045044664 -0.10490126 -0.066341266 -0.08676534 0.22019616 0.066973746 -0.0479416 0.11000755 -0.03789036 -0.37208328 -0.08673909 -0.11215779 -0.15646172 -0.030986076 0.058790978 -0.122961864 -0.09480262 0.38219315 -0.045156986 0.025851564 -0.21938957 0.32533753 -0.21513753 0.031173043 0.3484733 0.03467413 0.0062410017 0.08178774 0.19124025 0.19216268 -0.16606772 -0.18853006 -0.33184445 0.05431707 0.13173959 -0.11762084 -0.49816105 0.04376738 -0.11389796
17 0.3387605 -0.39335257 0.26779637 0.29068696 0.3610991 0.2552355 -0.17188178 -0.31467694 -0.2864587 -0.46668082 0.21560323 0.06097355 -0.3731588 0.2752775 0.23351412 0.3198812 0.0129463235 0.09859649 0.16487853 -0.10984517 0.20040762 0.4081966 -0.06091317 -0.32036656 -0.091722466 -0.025287747 -0.28691772 0.32736486 0.19959074 -0.54883695 -0.111375466 -0.3786591 0.3030794 0.4452629 0.39705485 0.1510087 0.08262367 -0.074658126 0.044520866 0.37400246 0.12673847 0.02488716 -0.17727248 -0.22743326 0.6969647 0.041965906 -0.2453837 -0.11835524 -0.2872878 0.25946632 -0.123999156 0.38534364 0.26028118 -0.01478206 0.03127185 0.4835717 0.61226964 0.4189972 -0.40509742 -0.21878274 -0.11082002 0.040002216 0.250987 0.56797546 0.24095426 0.32644513 0.40685144 0.28553867 0.038438335 -0.25040603 0.2665394 0.00075794244 -0.24321651 -0.46752107 0.07225509 -0.11323164 0.19541396 -0.11766439 0.023906248 0.3212216 -0.10334823 -0.17275798 0.113453105 0.1264433 0.16759525 0.031865086 0.026336681 -0.301001 0.064016916 0.23781025 -0.23122007 -0.54007035 0.2778142 -0.13050535 0.4037251 0.1724776 -0.3390524 0.25793394 -0.23147814 -0.15080404 -0.11703248 -0.24126224 -0.3104924 0.26806638 0.018742371 -0.21101017 -0.031236934 -0.118708655 -0.06268484 -0.15210214 -0.3101621 -0.35705513 0.10588685 -0.24368906 -0.28416178 0.009065894 0.38915482 -0.07875233 0.16736844 -0.010509049 -0.21216612 -0.15959822 -0.11590648 -0.010033896 0.17224713 0.29827577 0.0162756 0.23470579
61 -0.22192013 -0.19688019 0.42785686 0.18082209 0.12353701 0.09184996 0.03432194 0.26664984 -0.05704942 -0.41014832 0.19460998 -0.20325147 -0.32565883 -0.1505586 0.34535336 0.13900934 -0.105433196 0.038082693 0.10635142 -0.26690772 0.03293752 0.64760286 -0.3370575 -0.2443279 -0.2242912 -0.18094862 0.0884608 0.4357792 0.10083239 -0.4563195 -0.05167704 -0.32263747 -0.010497742 0.23933575 -0.3103246 -0.016163837 0.39802945 0.074907936 -0.087719485 -0.3062325 -0.075383835 0.10968853 0.10238368 -0.24679141 0.25256407 0.20073047 -0.07155492 -0.21777149 -0.015728502 0.30492064 -0.17944174 -0.099829026 0.18457557 0.045650404 0.30750158 0.12002411 0.37901506 -0.087050796 -0.33265042 -0.0017787715 -0.048338797 -0.16073509 0.10954145 -0.02113716 0.27420762 0.39117008 -0.010399254 0.07328823 -0.41765314 -0.17723592 0.1732339 0.24091981 -0.59943223 -0.18274994 -0.07616285 -0.24438225 -0.0009161151 -0.005689529 -0.20581263 0.26950404 0.068184294 0.06544362 0.0876056 0.087106675 0.027489983 0.113157876 0.24370408 0.12931477 0.11035421 0.34085596 0.037012335 -0.29684448 0.3478399 0.10842347 0.14609733 0.21753694 -0.16630913 -0.25241312 -0.3747797 -0.084782414 0.0018130061 -0.023823675 -0.028455896 0.23833042 0.18121395 -0.11331703 0.16360122 -0.124375656 0.1300158 -0.33381236 0.061263435 -0.12581067 0.22141019 0.4174034 -0.17481256 -0.06542743 -0.12854248 0.19673325 0.21387026 -0.14404099 -0.37716797 -0.22904904 0.21155442 0.1523842 0.35502976 -0.07915094 0.15928549 0.20615137
70 0.38448992 -0.4506517 0.18231007 0.28215468 0.35907584 0.25047952 -0.20537424 -0.35331497 -0.32443628 -0.43779033 0.2959296 0.15692833 -0.32157558 0.22187848 0.25240695 0.3543429 0.016374981 0.038268346 0.16738804 -0.10882713 0.13090052 0.31992003 -0.04318946 -0.36602134 -0.08712027 -0.03605657 -0.3195327 0.1972129 0.22409031 -0.55074465 -0.13212873 -0.3575732 0.28660482 0.45880133 0.42831805 0.19152343 0.09373632 -0.121100426 0.05167266 0.4177138 0.13229635 -0.038335703 -0.13125888 -0.13776876 0.6822212 -0.018885065 -0.26927474 -0.1172693 -0.23703538 0.24976802 -0.064544894 0.37131688 0.2684708 -0.08321337 0.02019778 0.50238734 0.6664814 0.38778245 -0.37451923 -0.17270985 -0.11946367 0.045398157 0.22155352 0.56404734 0.2313084 0.23605824 0.45873624 0.3496292 0.110319875 -0.30216813 0.3064121 -0.04700437 -0.26425716 -0.5119357 0.10973735 -0.16339281 0.15203495 -0.10305662 0.048860863 0.33051834 -0.09604142 -0.22333844 0.15446779 0.29052237 0.13189332 0.08492119 0.030714422 -0.2755099 0.12035416 0.20673065 -0.21565025 -0.52589935 0.32124487 -0.12326281 0.4281639 0.09115172 -0.29697165 0.2766236 -0.23060618 -0.1941175 -0.08444835 -0.22886029 -0.3876535 0.22745498 0.03607398 -0.16430415 -0.06312371 -0.0585222 -0.030034596 -0.12323273 -0.26966092 -0.3288767 0.15317976 -0.25491276 -0.31162462 -0.019485304 0.41478962 -0.08845682 0.1859978 -0.0046527004 -0.16628645 -0.1564138 -0.1743644 0.016038429 0.0863562 0.31366172 0.0031563852 0.19238174
83 -0.093458995 -0.4390923 0.83680737 0.20073064 0.17478448 0.19922753 0.16592962 0.014385788 0.16855901 -0.59478086 -0.10811829 -0.41181144 -0.6179845 0.5676043 0.21596019 -0.027403839 -0.07393717 -0.16227035 0.22379625 -0.25023583 0.3784405 0.6395239 -0.2060289 -0.07864759 0.043190476 -0.18894513 -0.0523678 0.8024653 -0.021118574 -0.2119156 0.09540434 -0.5474937 0.37816188 0.14718778 0.11803009 -0.15847264 0.33991316 -0.18830976 -0.006495706 -0.07101985 -0.1475931 0.3059159 -0.1298808 -0.5807532 0.6093267 0.22360657 -0.26038003 -0.17965664 -0.302117 0.28063196 -0.040599167 0.24088864 0.17546083 0.0901854 -0.18374865 0.18627308 0.22187948 0.16126283 -0.33760914 -0.1437796 -0.44626963 -0.179631 0.23573963 0.14947309 0.3730475 0.3305882 -0.24203172 -0.066512935 -0.39167082 0.10725167 0.029955124 0.23653843 -0.582031 -0.08189234 -0.25424135 -0.2871784 -0.15038078 0.16358368 -0.5285159 0.022861151 -0.15199283 0.17122349 -0.016958626 -0.036520958 0.49630028 -0.17864712 0.36449835 -0.3959823 -0.07160062 0.37015164 0.025218714 -0.5558012 -0.24355893 0.07342706 0.19964571 0.22267278 -0.09282479 -0.032821495 -0.23967846 0.021477982 0.23670906 -0.2282182 0.11395868 0.14717107 0.13299997 -0.5245272 0.11188494 -0.24786519 -0.023600815 -0.34040576 -0.12836501 -0.39571506 -0.024212178 0.13495798 0.007358759 0.5048674 0.15032677 0.31109688 -0.003707691 -0.2671797 -0.3622032 -0.24667227 -0.034632944 0.029540576 0.3926828 0.12598811 -0.02964173 0.06600658
58 -0.14041059 -0.1989139 -0.05273102 0.23241778 0.4988479 0.31676894 0.021330446 -0.18868504 0.10704426 -0.36485836 0.10882922 -0.24928477 -0.25736025 0.09526047 0.30539984 0.03254669 -0.09063343 0.07512166 -0.11775322 0.35652778 0.38611117 0.17235287 0.060675986 0.035847723 -0.08787699 0.107778326 -0.35938734 0.01991882 0.12171161 -0.029578488 -0.012745647 0.23600838 0.17053755 -0.21163125 0.07797923 -0.31269792 -0.23799132 -0.04936735 -0.04749685 0.17813718 0.037777483 0.1148812 0.1259554 -0.14974192 0.08147627 0.3131857 0.2179618 -0.20183216 -0.04073839 0.27784795 0.10231255 0.45463762 0.41482827 0.31284487 -0.46865276 0.13682073 0.22555363 -0.10411556 -0.13341387 0.2329234 0.10011916 -0.23519592 0.34961408 0.2754441 0.115357585 0.23804419 0.117939144 0.17885728 0.15809248 -0.09243779 -0.080584176 -0.37052098 -0.09802738 -0.031955134 -0.10788345 -0.3464609 -0.28150263 -0.012181842 -0.3358503 0.37345627 0.09496156 -0.13410765 -0.14923745 0.22608195 0.28398374 -0.1729527 0.16535786 0.10570724 0.41829306 -0.109682955 -0.0031943405 -0.61182916 -0.1597982 -0.16694678 0.1745812 -0.103514425 0.20335126 -0.092434265 -0.24477701 -0.22468182 -0.18317793 0.0826271 -0.2314524 0.119468875 -0.256066 -0.309472 0.015171496 -0.0055356896 0.10287226 -0.14456266 0.4374301 -0.4065889 0.025952267 -0.036772735 -0.18519467 -0.05234647 0.25294948 -0.19521718 0.16124423 -0.021585604 -0.37916237 -0.22969802 -0.027243685 0.09298454 -0.26809362 0.03113111 -0.30744857 0.06507865
84 -0.052510664 -0.48020998 0.8736203 0.22638778 0.1836247 0.20750183 0.15459596 -0.061279576 0.19183818 -0.6253673 -0.11690487 -0.4245512 -0.62316585 0.6538525 0.20041813 -0.03498163 -0.064839825 -0.22616595 0.26092616 -0.28030184 0.39100346 0.6176561 -0.2010518 -0.08177515 0.09797099 -0.2017829 -0.07795374 0.7870826 -0.03798662 -0.20669818 0.07438261 -0.60607415 0.41650525 0.16439795 0.20650376 -0.12988426 0.3069696 -0.24779856 -0.01121681 -0.049939796 -0.12817179 0.29302493 -0.13849963 -0.6068411 0.6758885 0.16057673 -0.33696315 -0.17326225 -0.32838535 0.23212716 0.018558325 0.2444105 0.15242542 0.04691588 -0.24708085 0.20983064 0.20149985 0.21107884 -0.3214109 -0.18309993 -0.49038783 -0.1462683 0.23656668 0.15421489 0.35005563 0.27279225 -0.24725838 -0.06717294 -0.36354575 0.12109409 0.02489635 0.242342 -0.6024286 -0.084448494 -0.23976274 -0.30440217 -0.16234319 0.20385538 -0.52781785 -0.06427714 -0.22640464 0.17738779 0.003390157 -0.037904948 0.5190312 -0.19586933 0.35787505 -0.45904005 -0.078562565 0.3682372 0.015349124 -0.56342745 -0.31224814 0.12453001 0.18145636 0.20895703 -0.069802545 0.045200676 -0.23435926 0.040646162 0.3094741 -0.31225 0.12761354 0.16320224 0.15980823 -0.5473202 0.10430683 -0.25829828 -0.06876289 -0.30229786 -0.17862643 -0.38864598 -0.018591708 0.043720435 0.00816007 0.5470368 0.19579245 0.3289113 -0.04305112 -0.3011233 -0.32921162 -0.23795855 -0.1112003 0.027049372 0.38505745 0.19070913 -0.038983576 0.03935315
82 -0.11109035 -0.39093712 0.7160462 0.16564277 0.12925015 0.20458661 0.009622336 0.13458031 0.111970626 -0.56897455 -0.053655162 -0.39424166 -0.560467 0.44724575 0.21660724 0.025764115 -0.0831073 -0.023316178 0.18436362 -0.29342178 0.24931818 0.6046908 -0.14009708 -0.14003783 -0.015117728 -0.176822 0.022066213 0.7735937 -0.008291537 -0.3263838 0.06487635 -0.48170498 0.27962428 0.13512346 0.045691684 -0.07125838 0.35119286 -0.068353154 -0.011739447 -0.12965643 -0.15581279 0.2381418 -0.12346794 -0.5227486 0.5630465 0.21419956 -0.16021506 -0.20987482 -0.22402951 0.33212447 -0.14175609 0.13947189 0.19502087 0.104853995 -0.07556925 0.20001289 0.26264325 0.1954035 -0.36977923 -0.16565412 -0.23517998 -0.12096687 0.29379618 0.11395659 0.3525005 0.38185352 -0.21775763 -0.023269288 -0.28872707 0.0018680771 0.08882551 0.20751145 -0.45624566 -0.1523962 -0.16531548 -0.23646669 -0.0045630075 0.16033375 -0.41958117 0.110427774 -0.07659938 0.1186632 0.051019743 -0.079889245 0.36435136 -0.11533849 0.29135093 -0.35390657 -0.06415944 0.37018842 -0.008569647 -0.49657723 -0.113367595 0.067747734 0.22570048 0.28951275 -0.18838699 -0.12792477 -0.20509447 -0.0478342 0.13192989 -0.13836846 0.024522359 0.14268257 0.0668533 -0.4008998 0.06646078 -0.16484049 0.020270836 -0.3573872 -0.12271271 -0.38149092 -0.025687616 0.25927427 -0.027176403 0.30934116 0.07402576 0.21719159 0.092568874 -0.10924677 -0.32315403 -0.16257429 0.060030546 -0.03635783 0.46102905 0.06370011 -0.091052026 0.1221932
81 -0.14612971 -0.38271183 0.62057275 0.1068243 0.15285374 0.22587644 -0.029611055 0.19643085 0.07439166 -0.5169419 0.010378038 -0.345356 -0.5734615 0.37458166 0.22331652 0.026074123 -0.10542928 -0.022484804 0.1650714 -0.29555738 0.17781596 0.5544326 -0.14338084 -0.18765563 -0.07508715 -0.18405841 0.011193775 0.7209535 -0.005724206 -0.35361448 0.06550655 -0.44658858 0.25266364 0.09830142 -0.033381186 -0.07468869 0.37259093 -0.06400154 -0.02365897 -0.13188523 -0.16475503 0.19707772 -0.08146415 -0.47651273 0.5116758 0.20790222 -0.13664344 -0.19474514 -0.20397566 0.3905306 -0.163202 0.1199696 0.22735336 0.106790215 -0.043168664 0.2095279 0.2784269 0.14806451 -0.35979012 -0.09718181 -0.18615866 -0.09730196 0.29869345 0.06243899 0.36755377 0.37085393 -0.19768137 0.039659526 -0.25122625 -0.06547042 0.14369866 0.1696658 -0.42031315 -0.20702882 -0.16544579 -0.26318568 -0.04587322 0.14928938 -0.41077572 0.16519378 -0.029046005 0.11276145 0.04989961 0.0034369063 0.312753 -0.06944061 0.31368345 -0.2899554 -0.029290508 0.35327718 0.029940529 -0.473725 -0.061996028 0.06707694 0.22132602 0.2542254 -0.1640036 -0.204916 -0.20001334 -0.10824381 0.11733346 -0.07957131 -0.028779594 0.08888259 0.06571601 -0.32647565 0.051570028 -0.11123506 0.09325277 -0.35595468 -0.08349323 -0.3792051 -0.006047743 0.33825418 -0.055095542 0.24650002 0.02823863 0.17214054 0.16912375 -0.04459064 -0.30953673 -0.15600249 0.0676188 -0.03109793 0.43116903 0.02832019 -0.13851008 0.122294225
89 0.39675108 -0.34879726 0.35137758 0.37148777 0.4083983 0.028569836 0.26347092 -0.43032238 -0.119063355 -0.06695144 0.1273116 0.19194335 -0.19942023 -0.25314516 0.44182548 0.4201685 0.294812 -0.39699495 -0.3512694 0.037289772 0.40240747 0.29683968 -0.49046817 -0.3266196 -0.28972533 0.29672447 -0.28967893 -0.18758506 0.3154927 -0.1166997 -0.29849154 -0.28704798 -0.14837092 0.22642595 -0.24756438 0.064732015 -0.09296599 -0.11689259 0.09906307 0.10575296 -0.4629007 -0.10748185 0.16769978 0.11385033 0.1924252 -0.13027671 -0.4131311 -0.12044247 -0.59058505 -0.33860123 -0.16898637 0.19780064 0.57593524 0.12334885 0.0149421105 0.046541482 0.55695945 0.06675463 -0.17452414 -0.3122209 -0.31325096 -0.29398423 -0.21434115 0.29151088 0.4644709 -0.4735189 0.37599045 -0.1075432 -0.42538923 -0.33955982 -0.2937203 0.038162068 -0.64007616 -0.027748793 -0.33203024 -0.4421368 -0.55980575 0.11055786 -0.23733476 0.23093235 -0.18855909 -0.11786233 0.4841958 0.91280377 -0.015635263 -0.14398155 0.41131875 -0.1521695 0.6806673 0.03192608 -0.06707871 -0.27940467 -0.08917406 0.19103643 0.244653 -0.301121 0.09328165 0.4026399 -0.41092452 -0.10402785 0.16519473 -0.6733869 -0.33589837 0.026510403 0.027317448 0.022863995 0.09804215 -0.10268994 0.009653456 -0.11751872 0.10076923 -0.10055646 0.32345966 0.16296299 0.04963841 0.29586992 0.23450941 0.015356493 0.058175266 -0.1547759 0.07797624 -0.4746375 -0.0807468 0.13314621 -0.3625382 -0.36864412 0.3116795 -0.5274242
80 0.19570924 0.028315678 0.21505149 0.19108085 0.050935656 0.20299764 0.32205617 -0.15638287 -0.38630998 -0.24464397 0.16369985 0.21598668 -0.21538255 -0.27192023 0.3149694 -0.020995745 -0.03732666 0.11407889 -0.1269152 0.22612348 0.3548237 0.48198673 -0.057136007 0.0715842 -0.44813088 0.0060718535 -0.40820277 0.14297363 -0.08582474 0.21773636 0.25554878 -0.069428615 0.076378666 -0.23573498 -0.24927019 -0.5460424 0.40280896 0.095006354 -0.08097397 0.16212781 -0.050205942 -0.0054324456 0.1819744 0.29105264 0.037147366 0.26980934 0.07189651 -0.06550825 -0.07085539 0.15110385 0.291185 0.16927114 0.30798557 0.485514 0.19371215 0.15535106 0.36218652 -0.3609088 -0.14149241 0.4393495 -0.27432525 -0.18728302 -0.13584979 0.22510642 0.10635714 -0.18902907 0.20436628 -0.021712912 -0.56764305 0.0926759 0.21168005 0.0110960305 -0.12673452 0.04788047 -0.23578829 -0.100826785 -0.46620718 -0.24562557 0.026806694 0.3364634 0.28451222 -0.12182927 -0.13437194 0.6662912 0.15174563 0.19398901 0.40757433 0.10875207 0.3832687 -0.04413014 -0.14730376 0.046952926 0.18501696 -0.015473796 0.12736991 -0.14249913 0.10971785 0.01206541 -0.5274085 -0.026202958 -0.33390334 0.06942651 0.006987805 0.06845085 -0.22541207 -0.14699756 0.48803148 0.02514155 -0.14327836 -0.07897102 0.5095059 -0.28670847 -0.22804417 0.1462714 -0.033897284 0.05261883 0.43423888 0.50899374 0.21290845 -0.27836713 -0.060315944 -0.21920761 -0.07433062 -0.0075403787 -0.2626849 -0.44578084 0.18073478 -0.014493718
72 -0.10576999 -0.19512764 -0.09477215 0.1800918 0.39500648 0.12109547 0.16323854 -0.1385253 -0.00821907 -0.15569776 0.2296883 -0.062260754 -0.10195358 0.11298985 0.28918275 -0.0069912286 -0.03693494 -0.052586146 -0.1548626 0.36073616 0.43786296 0.07031832 -0.008528274 0.08656115 -0.15600802 0.057114806 -0.31984922 -0.0053946236 0.19944552 -0.07059761 0.010615039 0.26687834 0.3019618 -0.15405425 0.04083627 -0.31543797 -0.035083976 -0.09894847 -0.013309925 0.271544 0.0038143534 0.071280554 0.14919901 0.0022855415 0.04135742 0.29480532 0.2446252 -0.05981792 -0.013974585 0.2745037 0.14504053 0.5111115 0.30877072 0.29685414 -0.36979848 0.100797065 0.2005852 -0.21808423 -0.007643913 0.34352684 0.020307457 -0.12694141 0.22186042 0.12202549 0.14415242 0.017025959 0.16052586 0.17470223 0.15505673 -0.02206873 -0.05257716 -0.28695202 -0.1157367 -0.10009684 -0.10811765 -0.21122597 -0.3180726 -0.05032903 -0.3273515 0.3912611 0.10864733 -0.17784232 -0.13907525 0.30257586 0.32441017 -0.060149264 0.17146719 -0.0044002878 0.32487333 -0.17395933 0.0096562905 -0.46879256 -0.15300128 -0.23086834 0.0913124 -0.17890301 0.24999586 -0.038662285 -0.19266517 -0.08779774 -0.26513603 0.13877195 -0.1791513 -0.035434768 -0.23442763 -0.15833488 0.058422957 0.01435242 0.09000156 -0.08115615 0.33921298 -0.29760042 -0.008234818 -0.050170694 -0.096093774 0.0077259806 0.24724986 -0.09476961 0.063014425 -0.07398296 -0.31423822 -0.15335038 -0.14393377 0.020173466 -0.28102115 -0.012233378 -0.21144412 -0.05192891
69 0.1981498 -0.3947004 0.12791833 0.1866761 0.35638404 0.21700364 -0.22582085 -0.22335196 -0.18757953 -0.38298792 0.31008318 0.056205217 -0.32658732 0.20959541 0.19236964 0.2774685 -0.046388183 -0.0110241715 0.15992221 -0.12129724 0.047935266 0.22414327 -0.044403378 -0.3280707 -0.04122392 -0.0836953 -0.24526851 0.18210109 0.20888317 -0.5362017 -0.09716841 -0.25753692 0.24218307 0.32788545 0.35199413 0.17887439 0.06797422 -0.10796665 0.0043915003 0.2900109 0.056724045 0.020446919 -0.08126948 -0.18727933 0.5836314 0.010763636 -0.19550961 -0.12632045 -0.18511257 0.30322284 -0.095172994 0.33958304 0.27138868 -0.0789936 -0.029048484 0.43532372 0.49658749 0.33456424 -0.34257486 -0.11518372 -0.046798553 0.020687912 0.28253293 0.37468806 0.23412502 0.24648331 0.33495498 0.32363126 0.13593404 -0.25097948 0.28054956 -0.109749995 -0.24990287 -0.47688624 0.051385894 -0.21399388 0.09101543 -0.03891367 -0.0990979 0.33205453 -0.07823529 -0.17815524 0.10065939 0.26720634 0.14230072 0.0069520553 0.04367586 -0.21228549 0.10461672 0.22106512 -0.11190489 -0.5651762 0.2186466 -0.08689701 0.38589728 0.070519425 -0.2157962 0.105319194 -0.1810969 -0.22028111 -0.033270024 -0.15094769 -0.3770733 0.14523277 0.051855437 -0.13433738 -0.0826304 -0.018593328 0.07722742 -0.1489462 -0.17176788 -0.3190487 0.17701925 -0.15634541 -0.27299213 -0.03542571 0.2639103 -0.13682137 0.17951077 0.081440814 -0.18330172 -0.13021496 -0.14040515 -0.00786695 0.09862214 0.24764349 -0.10401052 0.11416348
79 0.2126636 -0.049075857 0.14735226 0.21373387 0.13211226 0.18102145 0.3768518 -0.11478127 -0.42849764 -0.24166435 0.25287384 0.29030925 -0.24591564 -0.107696086 0.28447086 -0.0674113 -0.09351127 0.10150682 -0.09762142 0.30397564 0.42784303 0.44005582 -0.051215746 0.088182405 -0.38375533 -0.08720971 -0.499144 0.15306251 -0.062879115 0.1678095 0.32348022 -0.0050656684 0.25499192 -0.18365006 -0.09560405 -0.5779599 0.4646975 -0.009153643 -0.05758094 0.26809442 0.039701354 0.032583136 0.15333773 0.26594326 0.056780353 0.32927418 0.08943431 0.032761365 -0.045539066 0.28868315 0.33401868 0.3729201 0.2760843 0.44984502 0.14901309 0.19058347 0.3566682 -0.41669786 -0.064158686 0.56525445 -0.32558617 -0.1540392 -0.10118897 0.30317238 0.110139646 -0.106961966 0.24569559 0.12456857 -0.4886804 0.1411781 0.2526127 -0.0070492653 -0.0870124 -0.0045449533 -0.22142696 -0.073358715 -0.45448592 -0.34737572 -0.006342183 0.30642325 0.34131947 -0.1872699 -0.26105618 0.68260455 0.28059983 0.22633892 0.44544703 0.08712689 0.2938869 -0.083526455 -0.06634127 -0.049816996 0.17379786 -0.19873172 0.13020633 -0.17663601 0.12415026 -0.033753358 -0.48116508 0.02561168 -0.35541514 0.19185427 0.012503102 0.0015962976 -0.21321231 -0.1991427 0.40160936 0.055171207 -0.13710347 -0.043990836 0.5395195 -0.30025506 -0.2723957 0.0054453933 -0.042093564 0.124620505 0.4975714 0.47824943 0.1667427 -0.3069378 -0.078912355 -0.17446245 -0.10328628 -0.041733243 -0.29044366 -0.29532617 0.14147107 0.04708433
