125 128
73 -0.37761658 -0.21968688 0.041152466 0.14617169 -0.4307411 0.074121155 -0.32277286 0.18528634 0.04252957 0.20726056 0.29093137 0.13957404 -0.5619967 0.3380915 -0.39789814 -0.10992224 -0.18535627 0.21446429 0.0046933154 -0.5198364 0.3979677 0.21035206 0.17195247 -0.34269464 -0.16082385 0.50269645 0.14277376 0.13370042 0.03918045 -0.53095365 -0.1812027 -0.1879715 0.030874394 0.06691275 -0.020226954 0.002208184 0.119305216 -0.19343643 -0.40096742 -0.2756579 0.08892268 0.01972495 -0.04996443 0.1111645 0.13885252 0.30784076 -0.36343995 0.21497566 -0.42619753 -0.13556986 -0.027670676 0.36760056 -0.05710119 0.19173911 0.039847136 -0.36369926 0.034090064 -0.038129263 -0.19082658 0.42287153 -0.2915599 0.06961531 0.47625434 0.1556909 0.1167596 0.048195183 0.013914574 0.41255632 -0.10815398 -0.14055489 -0.33025697 0.13887374 -0.18684587 -0.3290484 -0.3489455 -0.07258286 0.046856087 -0.19455981 -0.122312695 -0.22834392 -0.13820672 -0.021070497 0.20005073 0.47466266 0.13728239 0.22185774 0.2785179 -0.2649435 -0.04495429 -0.3830348 0.19686353 0.43683624 0.22088581 -0.21795473 0.51746494 -0.022710353 0.01362934 -0.10878588 -0.011716168 -0.083295755 -0.26271254 0.31809407 0.21376133 0.33552337 0.12005619 -0.32020843 0.32200864 0.21552423 -0.021107677 -0.15917353 0.32578444 -0.43652663 -0.16909617 -0.01763196 -0.45532155 0.03653841 0.13477764 0.16786997 0.02364523 -0.29501718 0.12624085 0.14930342 0.10062122 -0.22818601 -0.030357067 -0.18783347 -0.19591373 -0.14354287
124 -0.35998943 -0.19926299 0.04641585 0.15064344 -0.51780075 0.034028042 -0.25451702 0.08969024 0.05878915 0.25457516 0.35409343 0.22861266 -0.5508285 0.4001885 -0.33207113 -0.032047227 -0.17626594 0.21156693 -0.06497741 -0.531525 0.4347756 0.2503482 0.08389455 -0.43023607 -0.14337665 0.51700795 0.1347932 0.23176406 0.06975224 -0.50034446 -0.11070552 -0.16911122 0.0061996705 0.082331434 -0.05057809 0.0052336007 0.11850046 -0.1109406 -0.35535583 -0.31691408 0.14371262 -0.020417904 -0.11435387 0.10740612 0.20804848 0.26790154 -0.29465 0.15179962 -0.35202545 -0.17901023 -0.032246247 0.2836272 -0.015313893 0.18253295 -0.011434686 -0.3384322 0.06356465 0.018430872 -0.31010818 0.4916214 -0.2871325 0.07134143 0.36683083 0.2031671 0.1365363 0.11176495 0.067458525 0.37447768 -0.05503095 -0.19102052 -0.39630255 0.091322064 -0.11602739 -0.3675074 -0.27160558 -0.027528845 0.027216671 -0.10191549 -0.15223609 -0.271924 -0.15137137 -0.06225213 0.2360222 0.4862074 0.12895215 0.25926396 0.18665236 -0.31508854 -0.05812634 -0.36117768 0.27135417 0.4575015 0.23073223 -0.23303539 0.5193086 -0.0014564311 0.038952284 -0.012690335 0.10155611 -0.08022277 -0.25328013 0.3543977 0.21663369 0.33658114 -0.03087811 -0.20039324 0.29667893 0.2217249 0.004048068 -0.12901644 0.36242023 -0.30465272 -0.17211753 -0.013431223 -0.32054687 0.017682785 0.11616109 0.19749148 0.057851944 -0.30615443 0.06552205 0.25834885 0.08091317 -0.18851054 -0.044972245 -0.29313666 -0.18240939 -0.14224681
91 -0.07492875 -0.08688425 -0.062070083 0.50916743 0.11068042 0.1649902 -0.09417464 -0.0037029001 -0.046680585 0.71642005 -0.29007328 -0.10065422 0.3516325 -0.010225061 0.26905954 0.30022955 0.032778263 -0.04766644 -0.07658665 0.034973294 -0.023342045 0.35683206 -0.36198124 -0.21861379 0.06364922 0.030093491 0.066081844 0.08911207 -0.105525054 -0.16659479 -0.17608541 7.4583513e-06 0.21160786 0.006337036 -0.38393933 0.28641537 -0.02467604 0.07968779 -0.19776283 0.13273567 0.033159044 -0.18152183 -0.18913262 0.21936187 0.13327147 0.30257127 -0.32675862 0.08137653 -0.03727196 -0.18552463 -0.2855612 0.6353551 0.47929585 -0.14635359 0.08065665 0.017149918 0.07830821 0.22874032 -0.15669134 -0.12349986 -0.018304983 0.2132726 0.53045666 0.4251774 0.35288367 -0.24874367 0.1355046 0.017254133 -0.11141159 -0.15307885 0.0763161 -0.016638149 -0.2977218 0.20794097 -0.03933042 -0.07531274 -0.12275747 0.24093044 0.12036054 0.31976753 -0.19145097 0.10438017 -0.53810465 0.37202105 0.22414242 0.3224985 0.37513623 -0.34333268 0.27119094 -0.13356182 0.15636556 0.229716 0.15348265 -0.011500616 0.14213054 0.5011419 -0.16521057 -0.16178066 0.027141517 -0.1674461 0.038296606 -0.2050911 0.17111208 0.21965411 -0.17310186 0.17012186 0.021169517 -0.10114665 0.22697118 0.40693688 -0.089357555 -0.14108081 0.29726198 -0.19810864 -0.24327673 0.11131252 -0.24316432 0.06671159 -0.23162171 0.18183798 0.07465203 0.21826504 0.044693228 -0.26811337 -0.1544722 -0.12611032 0.553517 0.10559001
22 -0.2636207 -0.4267501 0.11175597 0.10945853 -0.44750553 -0.057311483 -0.3878748 0.10496276 0.031534623 0.07546741 0.48369145 0.22241801 -0.5438903 0.40614843 -0.24661812 -0.018110668 -0.25543088 0.19932942 -0.1190752 -0.6174191 0.4746465 0.3524464 0.08095716 -0.629476 -0.3122979 0.39266977 -0.13954203 0.18669873 0.099441834 -0.5151315 -0.17849906 -0.010033467 -0.0454475 0.023056453 -0.04511652 0.056950312 0.26976562 -0.15777189 -0.30218822 -0.26694074 0.16292685 0.21484998 -0.0055499505 0.09271616 0.13136004 0.18656844 -0.26195118 0.11864552 -0.1773698 0.027425284 0.19183047 0.14731976 -0.124873705 0.15557867 -0.046260618 -0.26700252 -0.1786549 -0.023129752 -0.4684283 0.64639413 -0.34037322 -0.1503562 0.44701007 0.13189866 0.19620879 0.19159834 0.096198075 0.46237776 0.1141786 -0.419684 -0.38755092 0.051996835 -0.4116949 -0.48183987 -0.13932694 -0.2697563 -0.15363978 -0.15975288 -0.16603616 -0.23346356 -0.072095744 -0.12403815 0.35939184 0.6951836 0.37014988 0.32695806 0.19069359 -0.2542917 -0.028274227 -0.2873959 0.10833749 0.38721287 0.18707713 -0.12715496 0.7073639 -0.043886166 0.1764609 -0.13104066 0.072066754 -0.16559815 -0.34143993 0.2660303 0.23921537 0.19463131 0.039558444 -0.3076816 0.15612312 0.35967705 0.08870397 -0.18962003 0.4614328 -0.37636316 -0.03195198 0.04639172 -0.41205895 -0.044123683 -0.03417998 0.15481043 0.09884545 -0.3931026 0.09676964 0.13973317 0.048074156 -0.18067811 -0.1163331 -0.09213294 -0.3278366 -0.11973256
98 -0.38329747 -0.32905638 -0.107392706 0.07037549 -0.48859015 0.11746565 -0.3122045 0.091819234 -0.006547338 0.21658607 0.32863647 0.20119147 -0.54229724 0.36036938 -0.3818981 -0.027329147 -0.1542578 0.2660992 -0.026957545 -0.62118775 0.36039978 0.1642201 0.22659221 -0.3804612 -0.21347253 0.49950203 0.0834986 0.08011033 0.07407072 -0.5398112 -0.16616948 -0.17916349 -0.011643703 0.06603447 0.08764394 0.024450881 0.21686032 -0.22478871 -0.31084546 -0.24442698 0.090924814 0.106467664 -0.017866839 0.12977687 0.20681956 0.24370769 -0.38879973 0.15547119 -0.30753365 -0.11481413 -0.04502541 0.40689838 0.0021069692 0.23085602 0.04948423 -0.39697182 0.06422236 -0.03384287 -0.26889744 0.4214626 -0.14860749 0.053394213 0.4234356 0.2222084 0.11798436 0.12561752 0.07983059 0.38476208 -0.05367579 -0.3005314 -0.31290537 0.029880242 -0.15942024 -0.38342732 -0.36897898 -0.083819196 0.070075646 -0.20217898 -0.078663535 -0.13334547 -0.11029667 0.025954328 0.2836237 0.5154616 0.17464384 0.33241138 0.27455506 -0.3115461 -0.067191556 -0.42365465 0.1788091 0.46859753 0.26706418 -0.24370064 0.541558 -0.056958545 0.039295234 -0.14856355 0.07370816 -0.18482783 -0.2846329 0.41825688 0.1270194 0.3446904 0.066006266 -0.27532235 0.23341212 0.17241679 0.03254214 -0.25454688 0.3484255 -0.4184712 -0.23396148 -0.011726769 -0.46981815 -0.017310705 0.14237767 0.16114506 -0.054955844 -0.31968215 0.10251602 0.22425425 0.02674247 -0.28493658 -0.0069028223 -0.1449243 -0.27927548 -0.24600485
3 -0.1195364 -0.15902211 -0.17035702 0.21903753 -0.09875551 0.16398488 -0.3432369 -0.024260094 -0.10509907 0.42696923 -0.16047682 -0.13650194 -0.4504094 0.41136676 -0.49284118 0.07688901 -0.16139974 0.19979759 0.03826773 -0.21374471 0.09739747 0.17625268 -0.014088971 -0.031195482 -0.017349483 0.22299775 0.043824602 0.14146037 -0.07149612 -0.48362967 0.031613942 -0.26367962 0.08635289 0.29664657 -0.1903505 0.11447706 0.10115664 -0.057251796 -0.23608236 0.25654152 -0.038895853 -0.16881458 0.008209493 0.0463622 -0.027223585 0.19133748 -0.547022 0.33523464 -0.38765576 -0.22112174 -0.26705095 0.6539196 0.4139343 -0.16068663 0.23535295 -0.21334073 0.1869866 0.05507349 -0.13255872 -0.13696994 0.1156875 0.24369717 0.45695442 0.4165223 0.22822444 -0.13011985 -0.049207326 0.13015783 -0.28213167 -0.31185713 -0.12187539 0.029639764 -0.14139305 0.1258342 -0.35022908 -0.14901164 0.26157504 -0.24568915 0.2803364 0.2706127 -0.11185263 0.21584016 -0.26963744 0.27701655 0.0056626257 0.4221157 0.40591696 -0.14323467 -0.08866596 -0.32517102 0.3080956 0.34506193 0.22760598 -0.009624618 0.047830846 0.24437328 -0.07266943 -0.21772364 -0.04505098 -0.002291365 0.03642488 -0.21364208 0.3381072 0.49713293 -0.053567104 -0.2584323 0.17175815 -0.037719037 0.016398143 0.293359 -0.13259995 -0.2840765 -0.09632545 -0.21774495 -0.6141238 0.18019335 -0.042005066 0.274784 -0.07081267 0.07283217 0.20283484 0.07425299 0.10826863 -0.29504213 -0.049471438 -0.11878749 0.018373653 -0.07211555
47 -0.3351192 -0.153129 0.16823818 0.13255681 -0.43872178 -0.030536737 -0.35827842 0.1758249 0.076241836 0.11464808 0.3329903 0.13138497 -0.7697311 0.4641899 -0.4523018 -0.17065944 -0.25493863 0.22570656 0.019341169 -0.44802564 0.44049415 0.2249672 0.087387875 -0.33764175 -0.16231324 0.50378644 0.11037926 0.28906238 0.062910624 -0.5242378 -0.09085462 -0.20477362 0.004745683 0.14601904 -0.11757891 0.039609354 0.115617976 -0.11636694 -0.41819593 -0.24579248 0.14998454 -0.05695735 -0.028774148 0.031459484 0.09672097 0.27618927 -0.31660143 0.24416615 -0.4744042 -0.17669827 0.077286795 0.2623044 -0.055222727 0.071103275 -0.0017793709 -0.34449697 -0.010815841 -0.033177845 -0.2606272 0.4735625 -0.42247373 0.024239035 0.41863316 0.12861362 0.15688714 0.09724981 -0.020528177 0.42176986 -0.16525991 -0.15787934 -0.4598293 0.11481194 -0.26157913 -0.32265404 -0.31740728 -0.09500959 0.0025710382 -0.20875406 -0.113213785 -0.31053615 -0.15648648 -0.07848045 0.187669 0.520161 0.08174873 0.17245919 0.18542413 -0.27157292 -0.045377374 -0.38525048 0.35463014 0.48069754 0.22321802 -0.18490341 0.4820529 0.013863451 0.022035675 -0.02914281 -0.0142650595 0.046521824 -0.2566286 0.18653701 0.35380724 0.38115898 0.09658531 -0.34041408 0.41282552 0.26371986 -0.10830417 -0.049847573 0.30595794 -0.39162204 -0.13455777 -0.08677599 -0.42166167 0.097491205 0.08044601 0.22302999 0.18413274 -0.30062786 0.16025978 0.14681402 0.14324972 -0.14131631 -0.09610258 -0.30193707 -0.21455847 -0.06984582
23 -0.034901023 0.101030156 0.054523744 0.24204448 -0.023562722 0.016920537 -0.73407394 -0.095972925 0.09375023 0.3675416 -0.04137543 0.21397468 -0.40344802 0.34896874 0.123702615 0.5818539 -0.68081075 0.1960804 -0.3186708 0.3635592 -0.121863104 0.22976549 -0.03666851 -0.23188683 -0.38140723 -0.2506022 -0.25409746 0.20599785 -0.090192586 -0.04148118 0.0014565444 0.1278149 -0.0513593 0.30598423 0.030126603 0.21233135 0.45294625 0.5163766 -0.2087659 0.12242892 -0.082413614 0.08515706 0.14099586 -0.25961208 0.014648435 0.5173794 -0.10514313 -0.045075703 -0.35073495 0.035611823 -0.026039591 0.5165611 0.20206301 0.08496828 -0.14272007 0.7315789 0.40712863 0.3853682 -0.12751506 -0.20463237 -0.49875587 -0.16018236 0.46240944 0.10248247 0.31025264 0.2894241 0.28230795 0.00086165394 -0.5005251 -0.16396013 -0.1736383 -0.4615806 -0.76170135 0.10372029 -0.13387956 -0.13982634 -0.12190132 -0.22145599 -0.14952232 0.13615964 0.087948084 0.012220257 -0.09887338 0.32879478 -0.111506954 0.30151775 0.17899942 -0.05444977 -0.0053211134 0.14408222 -0.058499254 0.079999544 0.37228167 -0.38198176 0.42210248 -0.056127544 -0.039369695 0.088696435 0.17317386 -0.41905433 -0.68494356 0.23104274 -0.13678299 -0.22593094 0.23371358 -0.05745604 0.33519503 0.054931007 -0.31925514 -0.36023718 0.52058935 -0.13115537 0.27748838 -0.23930304 0.3467903 -0.49668118 -0.08879826 -0.017754301 0.04293216 0.11943653 0.36352715 -0.08239278 0.1060294 -0.050719365 -0.091745436 -0.04327917 0.18907528 -0.22374415
99 -0.008897696 -0.03251124 0.016491095 0.16181366 0.0030766185 0.0136065995 -0.6786962 -0.08983094 0.13569714 0.43866658 0.077015445 0.26899055 -0.403738 0.46532494 0.07205016 0.58106047 -0.6790655 0.18667392 -0.39693156 0.29553944 -0.13905346 0.26376137 0.01828361 -0.3389185 -0.36133116 -0.35100302 -0.17466152 0.2610267 -0.14466223 -0.1252556 0.014086373 0.057505824 -0.0135464715 0.3677409 -0.06965891 0.24251068 0.479056 0.5216455 -0.2930087 0.09470068 -0.083231375 0.11775171 0.08942178 -0.2660556 -0.028854664 0.534279 -0.14824454 0.06809706 -0.41746643 0.13947977 -0.15075277 0.55447227 0.23665154 -0.024634734 -0.16431674 0.7720482 0.38678864 0.3855351 -0.04818217 -0.104465105 -0.5526938 -0.076860055 0.3996624 0.13932452 0.27575114 0.3959808 0.16372944 0.0027572599 -0.53030574 0.018449463 -0.1775054 -0.52921724 -0.67738587 0.09431368 -0.1264821 -0.14741 -0.06306086 -0.2751722 -0.21265708 0.20594099 0.15180874 0.054803837 -0.15940884 0.33936894 -0.15979806 0.2885366 0.1780925 -0.018080365 -0.072505616 0.14315058 -0.06953651 -0.006778003 0.47935462 -0.44795072 0.36018115 -0.088009335 0.010608683 0.04555367 0.18197912 -0.50192636 -0.62891144 0.27641773 -0.12703253 -0.2487043 0.16669592 -0.067051016 0.20839617 0.08408525 -0.35524416 -0.36633915 0.54720896 -0.18416087 0.22840334 -0.19130275 0.3850157 -0.5264901 -0.22460504 -0.16768062 0.16251594 0.04519964 0.32788715 -0.018504675 0.13133393 -0.037628908 -0.054216933 0.013536402 0.088686444 -0.22367448
49 -0.042147942 0.14366886 -0.06387496 0.16326477 -0.034276497 0.041928113 -0.6903216 -0.058544315 0.07019861 0.32323593 0.07211899 0.20006241 -0.46120858 0.45668545 0.013844872 0.58440876 -0.7098833 0.19807355 -0.41039574 0.35414594 -0.11293664 0.32060835 0.032016847 -0.3839806 -0.2897517 -0.32340539 -0.17651398 0.26476252 -0.15340208 -0.0685318 0.088731304 0.08182803 -0.011445608 0.40752858 -0.059266664 0.18565382 0.49340189 0.59772146 -0.24048127 0.038868345 -0.20602879 0.069324814 0.16278122 -0.28639948 -0.043878466 0.47155547 -0.17980903 -0.039832726 -0.38657102 0.0874678 -0.03865296 0.54562193 0.26619387 0.16219844 -0.14325157 0.7508972 0.45011595 0.34501177 -0.083336376 -0.12200713 -0.56435204 -0.1016795 0.45951468 0.094694324 0.22172928 0.41078478 0.22360905 0.013409054 -0.58263546 -0.07483954 -0.23632765 -0.45409706 -0.67597365 0.15014547 -0.16958012 -0.17532052 -0.029929705 -0.26221645 -0.17780781 0.20113738 0.122504905 0.012937769 -0.09907478 0.36528167 -0.093057856 0.31527856 0.3388264 -0.019273909 -0.082272924 0.09858972 0.02029878 -0.046692017 0.38999256 -0.4421504 0.37923047 -0.095198035 0.03941977 0.14545621 0.14428872 -0.5277396 -0.6441278 0.20728841 -0.1680185 -0.1563006 0.16692998 -0.018370017 0.3464297 0.07610016 -0.3713158 -0.37366235 0.62589973 -0.049615964 0.22729528 -0.19099925 0.31111073 -0.5451021 -0.10154794 -0.042854972 0.14904673 0.11758249 0.35016534 -0.021012466 0.15973267 -0.017856237 -0.04917371 -0.08203994 0.07268121 -0.25184134
1 -0.1196343 -0.41059262 -0.17987187 0.55778134 -0.07054128 0.21737567 -0.21504499 0.060777903 0.13638693 0.4403623 -0.24642059 -0.07434973 0.36951408 -0.122617155 0.40193173 0.2522885 0.05794059 0.24510153 -0.021952666 0.051648628 -0.0022946536 0.46686462 -0.39591742 -0.36453035 -0.06439944 -0.12270451 -0.24892515 -0.10449174 0.12790245 -0.15211171 -0.3053723 0.15600544 0.00579593 -0.005935835 -0.24384259 0.40063244 0.1343612 0.018151721 -0.14341715 0.18927826 0.26949948 -0.07021285 -0.12475517 0.30764163 0.23355882 0.36865187 -0.3327725 -0.075434774 -0.0035260592 -0.25004238 -0.03432609 0.62125653 0.3239885 -0.32798958 0.16051675 -0.0039673075 0.038551435 0.29152107 -0.36041093 -0.24059454 0.0723297 -0.09043182 0.48203284 0.281931 0.493858 -0.19009413 0.08445086 0.026793996 0.051376272 -0.40664992 -0.03977229 -0.2425738 -0.62635577 0.16265532 0.070038706 -0.18088582 -0.14648184 0.23250255 0.122967966 0.38005546 -0.12954946 0.26846778 -0.1867433 0.4156126 0.49763593 0.33602235 0.30236858 -0.3283248 0.36154625 -0.073737085 0.027623206 0.20670943 0.029029934 -0.048301566 0.3924532 0.5333459 -0.20183448 -0.14646952 -0.009111506 -0.3034641 0.12541178 -0.16059498 0.28538278 0.092535265 -0.1143652 0.08615117 -0.19358706 -0.034684155 0.24950662 0.28788108 0.08297636 0.008961498 0.44745916 0.028977536 -0.32338688 0.06855665 -0.32111967 -0.05720713 -0.18697768 0.2070717 0.22219549 0.19908471 -0.016142303 -0.16281894 -0.08230615 0.06783082 0.4289006 0.11547587
13 -0.07057441 -0.339348 -0.13205165 0.4853157 0.06564288 0.22528484 -0.22282359 0.14300002 0.030336427 0.52051944 -0.2528804 -0.06978602 0.26695058 -0.008044918 0.36065337 0.12173359 0.16348986 0.11851742 -0.17301477 0.10536883 0.011877406 0.4201771 -0.29188403 -0.457097 0.07828856 -0.1022094 -0.09177995 0.0032748014 0.015443869 -0.042320967 -0.36589006 0.0984164 0.038961787 0.06341517 -0.3524779 0.38668987 -0.020350507 -0.071824215 -0.22693564 0.120492555 0.06357679 -0.16899872 -0.13081886 0.22605179 0.18841696 0.24689 -0.41304854 -0.04093561 -0.08073135 -0.23538549 -0.06940877 0.6219879 0.38988066 -0.34017318 0.097510315 -0.057977572 0.04871808 0.31854692 -0.21536335 -0.23665279 -0.01727364 0.03875519 0.4685889 0.18720767 0.46022135 -0.10350234 -0.035259373 0.063574456 0.061442044 -0.29686344 -0.10252706 -0.12708949 -0.50885254 0.14151016 0.06748756 -0.3272338 -0.16298427 0.27910537 0.06626279 0.37622997 -0.2418447 0.29939795 -0.21386452 0.4980707 0.44220132 0.32932845 0.46185207 -0.33044213 0.34517398 -0.110473275 0.15793912 0.14958847 0.09340471 0.0033480395 0.24674015 0.59725654 -0.16666898 -0.18073682 0.036900662 -0.37755212 0.16996166 -0.2267506 0.22149369 0.16392207 -0.1708062 0.12993896 -0.2859197 -0.021904292 0.19424212 0.3102991 0.009114177 -0.030023439 0.40505403 -0.040533297 -0.29407978 0.09007882 -0.23362145 -0.07443094 -0.09855913 0.15869713 0.16492389 0.2139121 0.020095192 -0.11638544 -0.10773984 0.05682626 0.33604643 0.22216308
2 -0.08563119 -0.40530103 -0.13559297 0.5889664 0.058087453 0.19895798 -0.33358672 0.18048158 0.037448853 0.45479274 -0.36523262 -0.14089294 0.19205111 -0.03217739 0.30672628 0.109047644 0.09233477 0.25064677 -0.08690243 0.12900764 0.01340438 0.4911051 -0.360046 -0.43564215 0.08055723 -0.1846783 -0.1758175 0.010688858 0.04228699 -0.0749784 -0.3376378 0.14497931 0.057709213 0.15181546 -0.38334456 0.40204325 -0.012319027 -0.077535436 -0.24028271 0.16812108 0.23340896 -0.22609782 -0.12020995 0.16822988 0.1720023 0.33484253 -0.45086485 -0.058949206 -0.16174975 -0.317801 0.013007538 0.62440455 0.36768198 -0.35463968 0.1821754 0.013328461 0.025604285 0.32272738 -0.2259327 -0.30128974 0.009177617 -0.014351123 0.5099347 0.18618934 0.4493136 -0.19009067 -0.016080316 0.05479966 0.022875667 -0.3345764 -0.12974745 -0.14793178 -0.6788666 0.18406491 0.04734155 -0.3352 -0.1639913 0.26992184 0.099446744 0.37595072 -0.28706527 0.31829175 -0.19439074 0.46466395 0.48266545 0.30744064 0.41520214 -0.2980326 0.3762996 -0.041379247 0.1194536 0.17595379 0.029898955 0.05505024 0.28330386 0.57031673 -0.20221296 -0.15120642 -0.09351451 -0.25870958 0.1849886 -0.31180307 0.2692145 0.12279917 -0.07557438 0.054490924 -0.20930861 0.0055228313 0.16656992 0.41195658 -0.011777852 0.01807001 0.50621253 -0.023185665 -0.381135 0.07421275 -0.24986717 -0.033262618 -0.098368235 0.22089426 0.24936824 0.12926814 0.033070188 -0.08372236 -0.099033594 0.066135846 0.42840102 0.23200276
14 -0.109494515 -0.30323812 -0.12629263 0.5766903 0.067495525 0.2088029 -0.19470711 0.040778622 -0.017840538 0.5704371 -0.30483973 -0.071377814 0.31766507 -0.035446987 0.41085774 0.24765736 0.07631588 0.12459223 -0.10834765 0.12149188 -0.04443597 0.34374243 -0.3597665 -0.3541762 0.03847534 -0.053611703 -0.115387306 0.025245916 0.012509595 0.0031726777 -0.26636443 0.13090678 0.010555449 0.0056181205 -0.28414857 0.33996025 -0.016871942 0.0009398524 -0.13028517 0.16812055 0.08429562 -0.14343706 -0.12706934 0.21626303 0.18575592 0.24772869 -0.3327391 -0.030213175 0.01885626 -0.21307606 -0.07617357 0.53643703 0.36564407 -0.3128385 0.06044614 -0.053244017 0.038766056 0.24941388 -0.23662382 -0.2247639 0.006279897 0.009868538 0.41695422 0.22505479 0.46667022 -0.15940267 0.05261536 0.02964216 0.03890914 -0.3500576 -0.06835287 -0.17902958 -0.5203777 0.14409581 0.07778692 -0.26448542 -0.179 0.265302 0.05658523 0.32458183 -0.21091688 0.24110547 -0.2975516 0.44616735 0.36120808 0.2999592 0.33165026 -0.33821273 0.3416815 -0.13700601 0.1992436 0.21357189 0.105297476 -0.04033856 0.31340894 0.5091293 -0.1713874 -0.18016568 0.053799696 -0.2901664 0.06777827 -0.2272066 0.15761413 0.1436025 -0.12040839 0.14637668 -0.21355307 -0.088964015 0.2556175 0.31209645 0.007066142 -0.06729606 0.44113502 -0.06512312 -0.23133639 0.15871175 -0.23295934 -0.012105257 -0.16324192 0.18487899 0.1433725 0.261558 -0.004095963 -0.13639948 -0.16474676 0.059095126 0.44075218 0.13272007
40 0.026443329 -0.29225567 -0.0019263545 0.47302952 0.147335 0.17008507 -0.23391777 0.16236049 0.047625102 0.48716345 -0.34609485 -0.18362679 0.11335389 0.06768298 0.14876242 0.11690424 -0.016256155 0.14552057 -0.037113376 0.045668796 -0.04693763 0.44395262 -0.2933045 -0.27887535 0.0709467 -0.15756519 0.01793074 0.14464797 -0.03105216 -0.18564723 -0.22634865 0.009064589 0.20853183 0.18921128 -0.50125015 0.3722756 0.02649894 -0.021310067 -0.32397318 0.12353653 0.2685139 -0.24462534 -0.15674528 0.13167082 0.10053022 0.31195915 -0.4098756 0.046484187 -0.24648526 -0.33525342 -0.07382049 0.6650111 0.42408326 -0.35149676 0.16651374 0.11942806 0.08236964 0.26702043 -0.12245641 -0.27220982 -0.056304283 0.12580733 0.5398763 0.2711253 0.3078049 -0.17909263 -0.035785228 0.00823542 -0.119639814 -0.10216913 -0.0044138758 -0.017184312 -0.5059397 0.26436695 -0.044322763 -0.15251239 -0.14602807 0.19843438 0.19359791 0.3283915 -0.20665911 0.27258083 -0.32674947 0.29664743 0.3427777 0.27222052 0.35528925 -0.312738 0.2911723 -0.02692384 0.029297708 0.18211468 0.12827437 0.096596256 0.053367417 0.5396215 -0.21263699 -0.16489442 -0.11863563 -0.14652318 0.1968048 -0.34457976 0.35935226 0.117180906 -0.09424655 0.03786302 -0.09957368 0.007213526 0.011022388 0.4882313 -0.13369302 -0.033207227 0.33543813 -0.15243644 -0.27430555 0.02485092 -0.2731103 -0.012305671 -0.10099546 0.22353978 0.27600482 0.013956715 0.033068523 -0.10530627 -0.04012292 -0.06091803 0.4096488 0.24005248
79 -0.14134404 -0.25921032 -0.35161456 0.23107691 -0.14764436 0.3131659 -0.22865061 -0.1555702 -0.103190914 0.6631927 -0.1505308 -0.13637128 -0.12904334 0.29007834 -0.32885057 0.340255 -0.10521794 0.22074907 -0.0040825875 -0.20562363 0.079514906 0.1687064 -0.017010022 -0.028914807 -0.108640626 0.20144346 -0.042934336 -0.033544753 0.028567845 -0.48665255 -0.029737143 -0.25826913 0.012006746 0.14481315 -0.054327298 0.1365928 0.24225971 -0.028086165 -0.088580355 0.29517373 -0.0896958 0.010981216 -0.008352489 0.2007498 0.059028324 0.24836217 -0.56402904 0.3579441 -0.25753257 -0.20164105 -0.40574273 0.7660509 0.54211545 -0.12493218 0.2421791 -0.24923341 0.2686066 0.038529117 -0.26177186 -0.16631338 0.2794222 0.26326203 0.4778112 0.5266669 0.29173136 -0.123034425 0.017208332 0.093456216 -0.21111012 -0.41063935 0.0027491634 -0.018464413 -0.07628155 0.15986884 -0.29855764 -0.15243994 0.24433453 -0.24784106 0.29643562 0.41587618 -0.03149639 0.24308474 -0.32577488 0.29068935 0.122494146 0.53299564 0.42665312 -0.18865314 -0.14590919 -0.4254357 0.25627136 0.30681536 0.3302368 -0.09864666 0.19525294 0.25308496 -0.078883536 -0.33505973 0.099944815 -0.21802999 -0.04400138 -0.08138272 0.2735678 0.49863404 -0.16563761 -0.18323115 0.006611432 -0.108015075 0.1521559 0.10442375 -0.078622326 -0.36753634 -0.1416818 -0.17623188 -0.57133543 0.13145785 -0.012779227 0.32985744 -0.2610388 0.056395732 0.12097567 0.17157544 -0.025291292 -0.39734507 -0.018648239 -0.051798187 0.023402154 -0.22846097
20 -0.01176104 -0.046633 0.057510227 0.35029355 0.22111422 -0.046728104 0.11006 0.029578496 -0.120078795 0.36226925 -0.20311564 0.061246913 0.07061244 0.16975349 0.12445481 0.15604727 -0.020994265 -0.17460442 -0.06360202 -0.20884712 -0.13233835 0.2851045 -0.25422665 -0.33408612 0.028983627 0.025068216 0.13475811 0.31515545 -0.31067145 -0.25557262 0.10868639 0.029014679 0.3800929 0.07572584 -0.5534768 0.23665708 0.14383122 0.109943375 -0.41227138 -0.056193188 0.11305489 -0.13804546 -0.17686702 0.20406808 0.06993567 0.08567174 -0.226275 0.08557963 0.18556716 0.011584739 -0.33075944 0.5343216 0.47308534 -0.071112946 0.07938481 0.21974196 -0.14078248 0.11962484 -0.06843133 0.13632317 -0.18780929 0.1753316 0.53584427 0.49683002 0.24201359 -0.1364302 0.25202784 -0.017919289 -0.10609683 -0.11819516 0.0493125 -0.017944895 -0.3132839 0.15684243 -0.24708095 -0.014124963 -0.20359844 0.24734889 0.22830166 0.35131645 -0.080167085 0.087907895 -0.5970354 0.33796248 0.065272965 0.356652 0.2943793 -0.31738058 0.4661175 -0.04047455 0.10968665 0.43017063 0.21128297 -0.07440126 0.015839942 0.24147102 -0.04782625 -0.08612951 -0.055659935 0.13247228 -0.123914376 -0.11652854 0.017380783 -0.008079537 -0.089334995 0.16662452 0.0710075 0.008638927 0.10918036 0.5621429 0.1096622 -0.22692452 0.13889241 -0.1820775 -0.15319477 0.013090815 -0.39673036 -0.058990136 0.054634195 0.11844889 0.07243722 0.19314781 0.078439675 -0.40035054 -0.25398514 -0.2654071 0.59892815 0.18681982
7 -0.04366037 0.013356781 0.04387679 0.39797184 0.21013609 -0.10304621 0.13700591 0.015078205 -0.15714908 0.39991862 -0.1443035 0.06204085 0.13532415 0.18287733 0.14830174 0.21356702 -0.008761493 -0.25905022 -0.15907386 -0.23892748 -0.09850244 0.36270675 -0.30360797 -0.42957735 0.089335464 0.021296151 0.16298606 0.3297701 -0.35792193 -0.27555776 0.10614691 0.08068313 0.42642534 0.07244334 -0.58026284 0.22059017 0.18170944 0.19951509 -0.39337653 -0.08557628 0.049479235 -0.1328808 -0.15474151 0.21632177 0.047439802 0.11124778 -0.22170012 0.051102176 0.25103837 0.09251841 -0.40944192 0.5534026 0.51802415 0.061893206 0.071155705 0.25811434 -0.2036129 0.1534893 -0.056503985 0.23306327 -0.2369849 0.14822596 0.5337195 0.5270602 0.18217084 -0.12287196 0.25055 -0.03868895 -0.12898973 -0.079934694 0.08786924 -0.02844107 -0.29609877 0.16771354 -0.21698764 -0.045428995 -0.19528809 0.23422188 0.17858718 0.3289468 -0.1028955 -0.016017476 -0.63205147 0.38705143 0.042317286 0.3898848 0.37737525 -0.25916487 0.48164314 0.0028810133 0.09733088 0.39320737 0.17999887 -0.076481976 0.02599035 0.23078577 0.011951971 -0.045431327 -0.0673288 0.13952118 -0.16126454 -0.09164074 -0.06428299 -0.005243976 -0.0892309 0.2045019 0.1511509 0.015492064 0.14181837 0.57636946 0.22165962 -0.17381473 0.19825384 -0.17733179 -0.13597147 -0.0061735944 -0.43566278 -0.07620579 0.026117083 0.09408154 0.050046764 0.21318729 0.15932466 -0.4038402 -0.29283318 -0.25879428 0.64651084 0.13463926
117 -0.065023564 -0.039596476 -0.016929917 0.45992678 0.033941634 0.055995546 -0.026058273 -0.020279123 0.026722915 0.5670215 -0.18209893 -0.0046157264 0.2938549 0.08186977 0.24575424 0.2055186 0.040246606 -0.108676516 -0.08731838 -0.14775415 -0.021915596 0.40266275 -0.38394165 -0.24256991 0.07416996 0.09471437 0.1883513 0.22797829 -0.11427162 -0.2746803 -0.07133954 -0.04281664 0.28949836 0.025650414 -0.49784556 0.28547734 -0.04294415 0.15405615 -0.31261718 0.021657122 0.105777554 -0.28242415 -0.27508727 0.22562486 0.16251633 0.24175565 -0.21191497 0.07642382 0.032414798 -0.13479865 -0.32598773 0.5191619 0.41156393 -0.12663446 0.030074866 0.09654593 0.035800748 0.23373246 -0.21388437 0.0704371 -0.106256485 0.25604573 0.4483524 0.45819628 0.32621258 -0.17759082 0.18368383 0.024791295 -0.13190296 -0.04420723 0.036801755 -0.03641978 -0.2108241 0.09922251 -0.06383758 0.15166117 -0.14167748 0.3001549 0.11310971 0.21480745 -0.17007905 0.034847174 -0.5099264 0.33987376 0.10482774 0.32285002 0.19602923 -0.4207912 0.30836463 -0.09755821 0.16130112 0.37328827 0.2269887 -0.04471225 0.08451675 0.46907368 -0.11047178 -0.023407787 0.026454117 -0.030932283 -0.007682524 -0.08478836 0.1702104 0.16825591 -0.22853017 0.17949285 0.12290569 -0.00039480417 0.14977136 0.5057645 0.0010200276 -0.14943226 0.20773605 -0.1682039 -0.15179338 0.04728152 -0.40145653 -0.048939746 -0.055813 0.0760086 0.07255398 0.25439122 0.09105863 -0.27815142 -0.097393975 -0.28266126 0.5533709 0.18996935
8 -0.018945672 -0.10853817 0.00053454185 0.4275044 0.29864645 -0.027948204 0.015994558 0.0667365 -0.12545255 0.4301735 -0.2494324 0.044913627 0.14407732 0.15171103 0.21724586 0.10507224 -0.0056876983 -0.22391903 -0.082694486 -0.055174854 -0.1198458 0.29330882 -0.30796832 -0.33052036 0.01969172 -0.00956827 0.08467502 0.25864163 -0.3571162 -0.21678565 -0.048412275 0.029036311 0.3366344 -0.008594022 -0.5629448 0.18979834 -0.008723993 0.084036134 -0.4588381 0.031829365 0.020647636 -0.10160831 -0.20699008 0.21656455 0.036442913 0.11379971 -0.28127912 0.14570495 0.16990562 0.03566729 -0.35386923 0.6004592 0.48060158 -0.1788872 0.06723925 0.17879534 -0.18754517 0.13880111 -0.038912885 0.027097465 -0.14635128 0.20810333 0.59467965 0.53198725 0.37333825 -0.16312455 0.18515967 0.045330655 -0.0073694033 -0.1573354 0.0052967267 -0.08476438 -0.36716944 0.17002754 -0.20681489 -0.050444506 -0.24149516 0.26884115 0.20470534 0.4400334 -0.14457186 0.111287475 -0.71484286 0.4317362 0.08301973 0.3691411 0.36779448 -0.2991083 0.5088485 -0.14289843 0.13339114 0.40139765 0.18813388 -0.042518783 -0.0059273224 0.37570527 -0.029141698 -0.0980384 0.015411815 0.044989243 -0.107940726 -0.19935565 0.042921763 0.052635893 -0.105832316 0.15462357 -0.014549425 -0.020837883 0.23501827 0.58547854 0.12304643 -0.2922721 0.19524585 -0.19219092 -0.18514845 0.086264625 -0.41288957 -0.13769522 0.10738688 0.17085879 0.026674956 0.23452984 0.101530194 -0.398509 -0.30465788 -0.18762372 0.6517027 0.23029484
54 -0.17336556 -0.10821908 -0.10716654 0.31733733 0.015993705 0.07664297 -0.3198496 0.104360536 -0.10357582 0.4572245 -0.212745 -0.020752627 -0.33635905 0.3024766 -0.38355443 -0.050681934 -0.20602643 -0.057714187 0.06524977 0.003956407 0.13611594 0.15598969 -0.02058842 -0.010790178 -0.028233664 0.22776346 0.1415814 0.033649474 -0.24838954 -0.41433737 -0.12711044 -0.24100254 0.11427801 0.11923448 -0.23389456 -0.057600077 -0.13564909 -0.062908195 -0.40427688 0.16081002 -0.17771102 -0.050106235 -0.05850545 0.10889737 -0.08289513 0.32766268 -0.5567415 0.4583902 -0.41246065 -0.065274894 -0.41214806 0.6543393 0.3414123 -0.058289926 0.26424566 -0.17217112 0.017864408 0.021946356 0.0921834 -0.17760257 0.00082305184 0.30527443 0.6652443 0.45397654 0.27851853 -0.25571877 -0.1146616 0.26392376 -0.12642288 -0.15054859 -0.09974402 0.13271572 -0.1886601 0.13069975 -0.39644456 -0.2033409 0.19775377 -0.257949 0.1155195 0.24244323 -0.18411213 0.09855059 -0.48991737 0.35513645 -0.09259971 0.25081268 0.5741285 0.064452805 0.019773485 -0.36297014 0.26181823 0.2701673 0.13913444 -0.049997464 0.12933034 0.22565947 -0.020210342 -0.2658198 0.032895036 0.06719794 -0.11387359 -0.1738148 0.24344371 0.44233087 0.053865794 -0.29101044 0.18690439 -0.023374196 0.1597069 0.34482658 -0.004476838 -0.46452466 -0.059617944 -0.098064534 -0.61115307 0.23924246 0.048278302 0.14048032 0.06489799 0.1546743 0.049838077 0.0501878 0.20395547 -0.32269913 -0.1656726 -0.13781716 0.14358595 -0.07138958
10 -0.25202715 -0.34778857 0.12939645 -0.007361858 -0.41375396 -0.09633091 -0.49536625 0.16222909 0.09591465 0.042597897 0.48657182 0.23467019 -0.5720453 0.40361187 -0.39691943 -0.09445952 -0.28294867 0.19158721 0.041510444 -0.69122946 0.40239105 0.35718554 0.17466743 -0.5433036 -0.26260257 0.5137028 -0.024586232 0.07326907 0.11784571 -0.546547 -0.22008462 0.05735677 -0.112311214 0.10477298 -0.11795353 0.14098695 0.1710526 -0.13284658 -0.37629458 -0.17800575 0.079831965 0.16494246 0.1028132 0.07462088 0.007153844 0.21227624 -0.37943953 0.090276755 -0.24716938 0.050403066 0.1824891 0.18169829 -0.24625158 0.0855487 -0.06969455 -0.27430713 -0.26660487 0.014040249 -0.32400933 0.4304454 -0.32077974 -0.09949462 0.43722293 0.039786782 0.26836702 0.039948132 0.018279327 0.4382621 0.0652248 -0.38419482 -0.37305734 0.09709865 -0.46308264 -0.49183258 -0.22502135 -0.2501768 -0.093172625 -0.19845164 -0.22208558 -0.21921267 -0.08918294 -0.11435442 0.2267415 0.6980218 0.30541092 0.23538682 0.28504086 -0.3104564 -0.035840508 -0.2625623 0.0880439 0.3501509 0.18927561 -0.119079635 0.6842345 -0.013505002 0.1896113 -0.20961514 0.05233358 -0.13664985 -0.31936023 0.20598434 0.32129648 0.22200638 0.12506616 -0.42371085 0.25875914 0.27987543 0.040655468 -0.027576659 0.3495059 -0.5258046 0.106815085 -0.047909714 -0.5813174 0.027430123 -0.16433412 0.06736834 0.13972457 -0.36972612 0.27718762 0.12582843 0.07142724 -0.23343314 -0.075209714 -0.06547664 -0.38476536 -0.08908379
19 0.058056988 -0.1374898 0.05443271 0.37232688 0.343711 -0.02668351 0.14083423 0.07209707 -0.06624575 0.43482712 -0.19322914 0.12947027 0.10132389 0.22802705 0.2506985 0.13627388 0.023369756 -0.24742782 -0.15350506 -0.13209493 -0.15058504 0.28184682 -0.2645539 -0.39945334 -0.054393042 -0.044432685 0.11015466 0.33860585 -0.36811176 -0.2337679 -0.0117095485 0.039644636 0.3687975 0.016422268 -0.6118982 0.25262034 0.1314637 0.097090624 -0.5304863 -0.05384247 0.06486259 -0.03285361 -0.22450541 0.23126343 0.029923638 0.022527782 -0.21683936 0.13163361 0.19616221 0.029188612 -0.36125743 0.5768759 0.4971761 -0.22313643 0.00031466284 0.27888802 -0.17871177 0.13301502 -0.07219908 0.103637785 -0.22674525 0.1938655 0.5490399 0.5070505 0.34020704 -0.05224749 0.16489972 0.018708512 -0.046398707 -0.07670108 -0.013979463 -0.0899776 -0.33324885 0.14097755 -0.20093587 -0.00065170025 -0.34219122 0.30107215 0.2077196 0.41742924 -0.06297876 0.11206502 -0.6346528 0.38430777 0.056218702 0.34519973 0.24610598 -0.32903522 0.5253674 -0.07261407 0.073509626 0.40388545 0.28613248 -0.109745316 -0.0425694 0.29865378 -0.009626312 -0.09464373 0.07398013 -0.018120771 -0.14380543 -0.0977849 0.03810086 -0.11622001 -0.16518448 0.21595226 -0.108219534 0.04563102 0.12392097 0.5028134 0.17338699 -0.29010972 0.15020436 -0.22013159 0.03327259 -0.054831687 -0.46448517 -0.18641698 0.17402121 0.082916714 0.057884194 0.20154782 0.023455765 -0.35458505 -0.24391593 -0.2271338 0.5845735 0.27420133
66 -0.108497865 -0.054930236 -0.10503773 0.52463865 0.15920912 0.029170774 -0.049693022 0.005916164 -0.14424726 0.5805075 -0.28191182 0.008256735 0.26368374 0.07846827 0.20663105 0.18892488 0.002820677 -0.22334212 -0.08108286 0.040768545 -0.03027275 0.29097408 -0.3240365 -0.26563263 0.061389912 0.090559065 0.10417308 0.12695831 -0.29477322 -0.1818898 -0.110964224 -0.0035201241 0.23788325 -0.03876192 -0.40967184 0.13251063 -0.12958093 0.08845082 -0.3078253 0.08793508 -0.14147998 -0.10820838 -0.18588893 0.23681846 0.061344735 0.20160595 -0.3336078 0.17243262 0.10320806 0.030769505 -0.41618532 0.5807312 0.44995293 -0.06596717 0.08890609 0.025500547 -0.095100544 0.15342793 -0.034620665 -0.04210166 -0.055812307 0.25118408 0.57126826 0.4988203 0.35670704 -0.23273085 0.14060599 0.07497417 0.009515729 -0.17724912 0.030635832 -0.016830714 -0.25425908 0.14488947 -0.123890564 -0.10693881 -0.07446032 0.17330901 0.0899134 0.35039836 -0.20588686 0.043494478 -0.6480155 0.41687357 0.0357677 0.28694943 0.43941647 -0.17539509 0.31338724 -0.20180966 0.2113216 0.2635232 0.13561448 -0.047003414 0.108828366 0.36382604 -0.0294148 -0.1405406 0.087592475 -0.009833291 -0.11882689 -0.17570959 0.012957478 0.20342703 -0.10806502 0.14058985 0.03226338 -0.09215915 0.33976683 0.50582606 0.052277472 -0.24931395 0.21409716 -0.120559804 -0.2839871 0.1910792 -0.21508467 -0.035853613 -0.018793734 0.18980484 -0.05336015 0.26022714 0.12716341 -0.34253353 -0.25854698 -0.14492743 0.56008667 0.084499635
4 -0.18760845 -0.35112375 0.2195826 0.11804018 -0.35766813 -0.07255814 -0.40067965 0.08428112 -0.021928828 0.040236164 0.4009941 0.10836567 -0.74013484 0.47766265 -0.33137143 -0.05704447 -0.28703293 0.19834468 -0.10459089 -0.47130966 0.4802367 0.30629772 0.027569033 -0.5343878 -0.29689503 0.31834215 -0.21162573 0.2832192 0.07809032 -0.5143797 -0.08173042 -0.057775587 -0.061190113 0.063233025 -0.12600374 0.028721666 0.25679284 -0.10240083 -0.28025383 -0.1923829 0.18647836 0.17332499 0.027208399 0.008517402 0.027310017 0.15939063 -0.27028126 0.25668484 -0.26744843 0.010971362 0.2280753 0.09502397 -0.022970276 -0.0028939357 -0.06014835 -0.21028629 -0.19383271 -0.0011046901 -0.45813784 0.5932468 -0.40370247 -0.14395821 0.4029331 0.14833187 0.19551224 0.17079149 0.012554359 0.42670745 0.035774376 -0.41641352 -0.42542398 0.08406437 -0.38472554 -0.34531614 -0.11846728 -0.33224258 -0.13056311 -0.2651861 -0.08646988 -0.21047385 -0.06209361 -0.124395475 0.25509897 0.64151657 0.26368886 0.2912215 0.15982959 -0.15186484 -0.06487897 -0.30592713 0.24310891 0.3820361 0.2137456 -0.08177406 0.58953243 -0.0052277762 0.16718821 -0.097206265 0.00651219 -0.041707005 -0.2992925 0.07830294 0.3860339 0.2808605 0.049098093 -0.39970255 0.22178088 0.40931997 0.04167196 -0.101493225 0.41719416 -0.38552743 -0.049243048 -0.026457772 -0.4395911 0.01654685 0.02099776 0.2924478 0.24923913 -0.34633222 0.09157178 0.06224052 0.090119526 -0.13736957 -0.19503143 -0.11525158 -0.3209599 -0.083304934
16 -0.27093115 -0.5501132 -0.04881676 0.062083606 -0.48907438 -0.018912982 -0.4016644 0.09507433 0.010774924 0.071374476 0.51482654 0.2952402 -0.53302157 0.42159685 -0.23962104 0.04712393 -0.21606657 0.20623161 -0.10532319 -0.68982214 0.4537973 0.27140495 0.15934904 -0.623883 -0.35214123 0.35772344 -0.15788111 0.124594115 0.11865506 -0.52487594 -0.17797686 -0.04867915 -0.032284543 -0.02393702 0.04677834 0.0238899 0.29806417 -0.22960465 -0.24358824 -0.26507455 0.17562155 0.27599975 -0.029087381 0.07592823 0.23433939 0.14189912 -0.27678102 0.05365511 -0.11038232 0.084464826 0.14119901 0.18970689 -0.095560275 0.23824315 0.061469026 -0.3279014 -0.122242175 -0.046406046 -0.47529897 0.63075954 -0.22592299 -0.14014435 0.43852127 0.2021079 0.1732496 0.23550163 0.12259001 0.44818696 0.13056912 -0.49759448 -0.30786923 -0.0063956818 -0.341374 -0.51429576 -0.19696505 -0.28771552 -0.12389687 -0.17304206 -0.12038945 -0.2094893 -0.015864242 -0.08502396 0.4199976 0.6838484 0.44962692 0.41329658 0.23057412 -0.2670624 -0.029959569 -0.3427447 0.022222692 0.44549704 0.20545578 -0.1681591 0.73070514 -0.06637045 0.23160341 -0.18913637 0.1450657 -0.24563427 -0.36864224 0.38168353 0.12046449 0.1902772 0.04704551 -0.28445262 0.04603689 0.40183222 0.14240263 -0.30990016 0.48831332 -0.34029147 -0.13513994 0.10548831 -0.44013953 -0.094078355 0.016677363 0.101612955 -0.012677994 -0.3380723 0.065960675 0.1522015 0.020195771 -0.24013823 -0.09372109 -0.044929918 -0.31053144 -0.203168
32 -0.10087107 0.09855384 0.15287603 0.3443209 -0.03664723 0.026215116 -0.846999 -0.13570221 0.09409142 0.47069886 -0.11998539 0.19982037 -0.47200075 0.32288 0.14493626 0.583979 -0.6517759 0.1980738 -0.25679573 0.4129197 -0.0717456 0.20398708 -0.10523542 -0.10733253 -0.50495803 -0.15928827 -0.32009983 0.21691531 -0.06128563 -0.016758973 -0.097677566 0.1071888 -0.14443329 0.26025438 0.14592604 0.21119027 0.3948672 0.43938512 -0.19354105 0.16822869 -0.11857377 0.09505461 0.18639793 -0.31232205 0.040211722 0.5696838 -0.07540588 -0.06364936 -0.4194393 -0.07594285 0.021005187 0.5382381 0.17226116 0.0659457 -0.13255893 0.62693185 0.4766187 0.424497 -0.20020318 -0.28958097 -0.43687692 -0.18040596 0.49848923 0.046110217 0.4170266 0.19964892 0.25913167 0.028834183 -0.52656364 -0.27345994 -0.19155447 -0.44023368 -0.9149581 0.05772793 -0.11378718 -0.22095259 -0.16462946 -0.2263424 -0.17734595 0.10080112 0.028639521 -0.013963515 -0.045514945 0.36083484 -0.12553048 0.3615131 0.16758747 -0.09436993 -0.028651953 0.13488953 -0.018928068 0.1802324 0.42081574 -0.3505903 0.5187722 -0.00505213 -0.10042049 0.029683141 0.23616825 -0.41087997 -0.74718773 0.2301792 -0.13324076 -0.19988635 0.27345693 -0.10898503 0.3314781 0.07921082 -0.2544549 -0.4388658 0.4625825 -0.203924 0.33133557 -0.29390866 0.31520382 -0.4870662 -0.002503035 0.099929854 -0.062477 0.09622717 0.40164483 -0.11503148 0.0734169 -0.055301 -0.111080006 -0.06191272 0.23805681 -0.22820282
33 -0.14882714 0.13732845 0.18964827 0.37878525 -0.09963563 0.0010724239 -0.8920048 -0.18733986 0.037217982 0.4735886 -0.13805306 0.20186813 -0.49399027 0.31715637 0.11623973 0.6118774 -0.70716316 0.20212917 -0.21054827 0.38161653 -0.028396556 0.2165851 -0.15840225 -0.09902419 -0.47317398 -0.07736535 -0.3301779 0.24734908 -0.01825154 -0.00064586266 -0.037946463 0.12895526 -0.13684487 0.30757764 0.20651536 0.18589321 0.39100745 0.4535346 -0.13668227 0.18233487 -0.1263651 0.054605443 0.2090894 -0.36128008 0.10499511 0.5946644 -0.09396356 -0.088074304 -0.4359007 -0.08797342 0.049960524 0.49857017 0.10022432 0.1643967 -0.121546656 0.6130166 0.4860175 0.4269494 -0.2118932 -0.25821316 -0.45457008 -0.22783071 0.47310376 0.02491963 0.39069584 0.14317848 0.36235923 0.013734575 -0.57198817 -0.32876307 -0.17410944 -0.4175437 -0.98286355 0.032716215 -0.09179542 -0.2385337 -0.102706105 -0.24749658 -0.17537583 -0.0110616665 -0.042538766 -0.07117602 -0.017356755 0.4023066 -0.1640608 0.34916475 0.13925654 -0.104946055 -0.059055727 0.15317883 0.030301582 0.24248333 0.3867918 -0.3282441 0.6202917 -0.020823993 -0.13791588 0.0072131944 0.17905022 -0.31047985 -0.7972928 0.23625197 -0.16424635 -0.13333331 0.33546484 -0.11186478 0.46623197 0.030412873 -0.22997378 -0.40290445 0.41670838 -0.19588943 0.3599342 -0.30003315 0.21577485 -0.44083327 0.054618087 0.19398887 -0.17300439 0.09875797 0.41142833 -0.12999533 0.1029842 -0.058948215 -0.15494801 -0.04312069 0.2677876 -0.28351635
12 -0.061500765 -0.48736748 -0.10727987 0.48679328 0.2109587 0.314404 -0.40276554 0.23591222 -0.16641898 0.5713847 -0.29487392 -0.10029541 0.014532161 0.13766797 0.32808778 0.066695705 0.1605787 0.2666588 -0.36230648 0.1847423 -0.027473615 0.4220524 -0.16315913 -0.69530094 0.20707874 -0.2522467 -0.15346128 0.10548814 -0.08823918 0.14886393 -0.47590354 0.15489972 0.011369389 0.20419356 -0.30964318 0.34190404 -0.104101256 -0.3016918 -0.25178736 0.080958895 -0.00862278 -0.2645255 -0.08243575 0.04323174 0.14513095 0.17622691 -0.5586117 -0.053154238 -0.27104214 -0.2538255 0.10036837 0.6378291 0.37941247 -0.39943218 -0.030861095 -0.05802687 0.04875765 0.37047338 -0.03999412 -0.22590898 -0.13138507 0.015868695 0.47196302 -0.020394305 0.32332385 0.08916671 -0.19748841 0.17527229 0.10993377 -0.26815227 -0.28329775 -0.15986869 -0.57459664 0.10940132 0.11549772 -0.64895415 -0.26350707 0.24700652 -0.07448411 0.3585905 -0.366463 0.45502388 -0.035644095 0.61149156 0.490796 0.2627993 0.5779138 -0.29283673 0.32536185 -0.09867268 0.23071058 0.012894175 0.14012231 0.040507097 0.1995754 0.513213 -0.09802213 -0.1472185 -0.04020092 -0.56563026 0.24752699 -0.33610255 0.053458385 0.117483005 -0.10506037 0.1281325 -0.4773089 0.08057541 0.06575561 0.12934896 0.06645451 -0.04798995 0.4328408 -0.079179786 -0.22929446 0.032643903 -0.012768928 -0.09082191 -0.047061916 0.08656538 0.20639637 0.25065783 -0.004173246 0.016366607 -0.14540222 0.2778876 0.19405109 0.2673057
83 -0.16172637 -0.49217367 -0.095337585 0.51591307 0.025373368 -0.046201423 -0.3150176 -0.19861342 -0.34721684 0.77941054 0.06969046 -0.38234484 0.028809907 0.8677974 -0.233689 0.30592868 -0.6665022 0.18868904 -0.45535225 -0.13839595 0.5147007 0.335988 -0.63778394 -0.68810517 0.09549516 -0.42736962 -0.46454155 0.5835149 -0.07664008 0.0023422525 -0.19803452 0.272145 0.47570866 0.1885893 0.40620956 -0.6352319 0.010325885 0.1549515 -0.3154704 0.047789447 0.19989297 0.03368726 -0.22339189 -0.105525665 -0.23421033 0.19112289 -0.3456552 -0.05635118 -0.1631906 -0.38518372 0.15756904 0.65449 0.18390194 0.03412815 -0.2205667 0.38305056 -0.20512563 0.34421453 -0.47170535 0.60778356 -0.08562351 0.048525464 0.6323494 0.39695975 -0.32313627 0.3000334 -0.3544366 0.45284718 0.13742262 -0.15197173 -0.57274085 -0.5140011 -0.6755789 0.15441 0.42641452 -0.23299402 -0.25136808 -0.29188523 -0.22729036 -0.23786487 -0.3687145 -0.25504047 0.031300597 0.47860426 0.42916974 0.3752731 -0.109597065 -0.40013498 -0.4473242 -0.62283057 0.11562018 0.3412899 0.31350872 0.12624004 0.35012728 0.014939678 0.29785374 0.11292759 -0.19530429 -0.29130968 -0.2604496 -0.017832747 -0.09236179 -0.09408312 -0.29703024 0.19830932 -0.08549269 0.34764436 0.33687502 -0.2019216 0.7979054 -0.11801495 0.07913131 -0.26901 0.07937313 -0.25739983 0.17670634 0.3848974 -0.36711338 -0.035677567 0.2305845 0.5595508 -0.02059068 0.13686606 -0.020781938 0.5830181 0.6151892 -0.35707688
100 0.043495838 -0.17197011 0.054387875 0.08144833 -0.025378725 -0.030815892 -0.6137935 -0.118787676 0.16815569 0.40153027 0.14507894 0.29358938 -0.35648057 0.48740825 0.08133391 0.5880732 -0.67000765 0.19937567 -0.3949444 0.20066056 -0.13777782 0.2454355 0.076876715 -0.3315009 -0.31615978 -0.42808858 -0.08390379 0.3050515 -0.1341009 -0.11124216 0.05621157 0.018655164 -0.01894884 0.38124856 -0.102668494 0.2627408 0.49774513 0.50252074 -0.24470666 0.08032273 0.03099646 0.14188032 0.05006115 -0.26182866 -0.03153546 0.52825046 -0.14691651 0.13026795 -0.39621964 0.21283206 -0.22626135 0.4543949 0.18729362 -0.091316 -0.20584413 0.7476692 0.27567345 0.33383718 -0.04025183 0.03629945 -0.5721917 -0.041556135 0.35601005 0.1791023 0.23035142 0.4352091 0.08013178 0.013586803 -0.46771446 0.12003644 -0.15863256 -0.5879887 -0.64961135 0.035938263 -0.12148377 -0.12010647 -0.074542634 -0.29171878 -0.24611574 0.227928 0.17004374 0.12391814 -0.20779987 0.38054946 -0.15445042 0.31230664 0.09557743 -0.1018458 -0.064493954 0.14941728 -0.10563749 0.032865748 0.59338045 -0.46265396 0.38479528 -0.080665365 0.04571402 0.007654576 0.12075791 -0.5037457 -0.5744341 0.34110352 -0.10389134 -0.28140354 0.15594397 -0.0825999 0.15377714 0.10367319 -0.34523126 -0.3350019 0.5012724 -0.25965688 0.21436517 -0.15186988 0.4281635 -0.50250256 -0.32759643 -0.29683334 0.18447149 -0.07394857 0.27722618 0.026615018 0.0789075 -0.039260834 -0.043100048 0.093022026 0.028941385 -0.21823631
72 -0.38495433 -0.21228358 0.13484755 0.23291644 -0.1047119 0.11885813 -0.4897938 0.4327118 -0.010271783 0.4328971 0.078598954 -0.052414823 -0.36772737 0.12248124 -0.40780392 -0.19583781 -0.35859087 -0.00942878 0.049440205 -0.17159408 0.3230224 0.16214792 0.10238557 -0.15837109 -0.120970815 0.26524198 0.15875866 -0.037757304 -0.24366736 -0.46318895 -0.41352558 -0.14970875 0.2112906 -0.07022789 0.02168905 -0.2837476 -0.13681221 -0.30342278 -0.53378385 -0.2291537 -0.014302817 0.1234668 -0.08987315 0.12766969 -0.09137283 0.5217673 -0.45576087 0.42998776 -0.7373338 -0.033914372 -0.13815269 0.5669395 -0.053798847 0.30049306 0.15275669 -0.21433724 -0.08581207 -0.018582389 0.2286517 0.25828755 -0.36153674 0.12751956 0.9828808 0.29239562 0.060701296 -0.21103676 -0.20351009 0.5780651 -0.09681683 0.13459331 -0.21243848 0.23824957 -0.32021904 -0.028829683 -0.4776186 -0.2711295 0.03808912 -0.4815947 -0.23912603 -0.18066195 -0.22593968 -0.13015942 -0.16446888 0.4304763 0.110708594 0.06862912 0.62172174 0.07366673 0.0011677225 -0.4599025 -0.012058809 0.23784888 0.07139356 -0.20713422 0.42109123 -0.067179665 0.038376022 -0.17999065 -0.22162838 -0.028212074 -0.2565865 0.16717026 0.09530863 0.30977064 0.3442445 -0.4835553 0.3546688 0.22474855 0.09613706 -0.12969224 0.37652743 -0.6831676 -0.115129106 0.06576914 -0.637793 0.107190646 0.32348543 0.09749392 -0.0010159469 -0.069617495 0.009298057 -0.13509755 0.2639406 -0.20471445 -0.108623974 -0.036581516 0.017824044 -0.26040974
31 -0.19182737 -0.50960994 -0.15202302 0.66397005 -0.21727233 0.20176932 -0.38754675 0.002068301 0.15286931 0.35298437 -0.30134848 -0.04160974 0.3490184 -0.22177424 0.44100603 0.31593877 -0.06788569 0.40969053 0.06471092 0.00084423245 -0.0003174082 0.47497922 -0.4126112 -0.3007054 -0.10953911 -0.06578612 -0.33001408 -0.18106234 0.20495011 -0.16824271 -0.25998646 0.19951992 -0.05353043 -0.031743642 -0.12010691 0.37213832 0.09098475 -0.027833385 -0.036833968 0.25694224 0.42040783 -0.12231541 -0.15608588 0.25405338 0.32117546 0.52751905 -0.25274926 -0.09171789 -0.03573803 -0.22983454 0.028125605 0.48750332 0.12638368 -0.28788093 0.14745322 -0.014504345 0.05585201 0.29446858 -0.39011642 -0.2843759 0.13208477 -0.21209963 0.4314357 0.2642039 0.53705513 -0.28531244 0.2135557 0.07320927 0.07807292 -0.5170628 -0.018368507 -0.35135293 -0.7966606 0.067787014 0.066774406 -0.14867747 -0.1335552 0.2058666 0.054321144 0.2522015 -0.15338968 0.25308764 -0.11476828 0.42312267 0.51412344 0.32782164 0.19625193 -0.37572867 0.40086827 0.0077229263 -0.012623987 0.33736023 -0.036873043 -0.11169791 0.65989846 0.4493826 -0.2375669 -0.114412725 -0.12556703 -0.19844703 0.07568573 -0.09554231 0.21933454 0.052616674 0.044567313 -0.008441173 -0.042547487 -0.0481752 0.30321252 0.29663584 0.114046805 -0.033410676 0.5558814 0.13248911 -0.39808348 0.1601091 -0.34791136 -0.07810118 -0.24310891 0.19256738 0.23588602 0.20396724 -0.0012384026 -0.14923309 -0.14939739 0.14564562 0.45506114 0.0026825657
51 -0.3209655 -0.263851 0.071135014 0.28951198 0.008929764 0.11195397 -0.50606525 0.39977738 -0.06345782 0.51036584 0.013645061 -0.0845455 -0.29892057 0.1402757 -0.36971328 -0.14839405 -0.35227388 -0.084370054 0.03531114 -0.120779224 0.28638878 0.17780083 0.03591274 -0.13553312 -0.1323767 0.19994852 0.100364454 -0.052931376 -0.284386 -0.47332665 -0.41903436 -0.14087443 0.24021581 -0.067385465 -0.03896358 -0.26012054 -0.1534112 -0.28367382 -0.502801 -0.10162855 -0.07847726 0.1690448 -0.08693068 0.1263012 -0.13357063 0.49140632 -0.5280047 0.4874307 -0.66469914 0.03822567 -0.20631757 0.6053505 0.04925359 0.2389339 0.23023121 -0.20274031 -0.1424364 -0.007955993 0.20839664 0.16653597 -0.26853552 0.15520063 1.0300571 0.38318205 0.12574051 -0.26195312 -0.23347683 0.55314285 -0.058764942 0.04165116 -0.14361882 0.21543328 -0.33888918 0.037885334 -0.464165 -0.36111253 0.055563964 -0.5040252 -0.16031766 -0.04979597 -0.21391228 -0.10492761 -0.29879394 0.46413916 0.1421952 0.12729304 0.70181954 0.12732108 0.022291044 -0.46433568 -0.022856286 0.22486195 0.05929665 -0.12574293 0.36186403 -0.00536069 0.067651175 -0.27102777 -0.18909003 -0.031583972 -0.23422681 0.031155638 0.098486505 0.3263851 0.31351885 -0.5004795 0.23694377 0.23861319 0.20320573 -0.043107774 0.3084337 -0.6988002 -0.095204175 0.05063352 -0.7081383 0.13934861 0.27984503 0.10352383 -0.010931547 0.0056739985 -0.015846318 -0.16892956 0.2706376 -0.25361946 -0.17785 0.03223755 0.07194365 -0.2490896
62 -0.25955966 -0.028473154 -0.09803828 0.2352293 0.0060210647 -0.10940231 -0.121938415 -0.042357016 -0.5144233 0.022001205 0.20800732 0.26906246 -0.5412998 0.54232496 -0.13923638 0.5588054 -0.5253051 0.11373647 -0.26854238 -0.19482368 -0.11120916 0.58360374 -0.24023892 -1.0151293 0.28765002 -0.32209367 -0.1388643 0.48979336 -0.2329014 -0.14710827 0.630395 0.18371823 0.30599627 0.5750415 -0.26672027 0.16596189 0.59222835 0.29727033 -0.26285744 -0.22859757 -0.09443589 -0.236086 0.23716867 -0.011815328 0.030247146 0.08130246 -0.40651673 -0.17916082 0.010627864 0.2509547 0.078754194 0.47441447 0.29959366 0.365866 0.12616865 0.58338463 0.20890333 0.07144888 0.19652316 0.5189865 -0.49068213 -0.21232517 0.35694626 0.1338555 -0.2940834 0.30269364 0.48021686 0.11373161 -0.53025025 0.00576045 -0.24362956 -0.2697181 -0.5164378 0.25376138 -0.2129178 -0.43121618 0.09081357 -0.124436215 -0.03402017 0.26154414 -0.0034845364 -0.024913114 -0.15671615 0.42129022 0.16983815 0.34066954 0.486834 -0.14746599 0.20023608 0.17398147 0.20465755 0.1668757 0.3385348 -0.362013 0.39236742 -0.37819907 0.23699687 0.25514647 -0.46576172 0.0032457646 -0.35596976 0.10187986 -0.6699747 -0.13718456 0.11614102 0.27720088 0.26392117 0.15819848 -0.17220472 0.1774115 0.78686374 0.045087446 0.09929505 0.15456876 -0.33977875 -0.34264776 -0.08874685 0.13437371 0.2011457 0.03530556 0.19722977 0.4989581 0.26416138 -0.3248386 -0.3338567 -0.12139564 0.4027653 -0.105139524
84 -0.12285454 -0.5139438 -0.089757904 0.527581 0.08133485 -0.026614793 -0.3242879 -0.15697779 -0.36715388 0.7848922 -0.001501792 -0.37951118 0.023341369 0.7990683 -0.12969212 0.28665432 -0.566744 0.2034959 -0.4710507 -0.062494773 0.45979398 0.32567334 -0.6042314 -0.7155448 0.151579 -0.4226415 -0.45341247 0.5658034 -0.09474525 0.082923755 -0.2615701 0.2603343 0.42975667 0.17000444 0.361709 -0.5773199 -0.06911449 0.07446647 -0.2841581 0.07041803 0.15187423 -0.015227144 -0.19588804 -0.10729734 -0.19125982 0.15443087 -0.3811009 -0.03298349 -0.2078883 -0.38428888 0.18045555 0.6259552 0.21931647 -0.058872502 -0.23383303 0.3299489 -0.15659891 0.34871477 -0.40545982 0.51790965 -0.12040441 0.09307706 0.6063567 0.33529076 -0.26170045 0.31338698 -0.37666658 0.43087536 0.17552538 -0.14780633 -0.55655944 -0.46421582 -0.66871 0.13041255 0.3949797 -0.3176203 -0.28743988 -0.17934787 -0.23074266 -0.19138092 -0.4018546 -0.16443518 0.017206553 0.52931297 0.4425178 0.35568812 -0.014725983 -0.40514898 -0.34598887 -0.58361137 0.1616853 0.28117 0.29700798 0.11802853 0.32213956 0.092140876 0.26617765 0.077353835 -0.15876897 -0.37061256 -0.19382004 -0.08373324 -0.08172817 -0.03845059 -0.2787303 0.1891987 -0.17114708 0.30047828 0.2813672 -0.18480664 0.71932894 -0.13732098 0.108385384 -0.27612442 0.06754509 -0.22371803 0.19348173 0.29869422 -0.3271576 -0.029636757 0.2070591 0.54676276 -0.04920282 0.12653837 -0.043977 0.5728829 0.54779375 -0.2584061
48 -0.086942725 0.12476143 -0.026793223 0.23814139 -0.05326344 0.034896247 -0.7186595 -0.0709074 0.056763258 0.32660273 0.021091234 0.19120246 -0.4438677 0.39354828 0.044915173 0.5896949 -0.6913587 0.21801557 -0.36221823 0.33592632 -0.11755614 0.31615156 -0.020943968 -0.35534802 -0.30201858 -0.2922062 -0.21876806 0.22735304 -0.11179376 -0.06711264 0.077312596 0.10946025 -0.044935063 0.38377276 -0.019940738 0.2054971 0.46130103 0.54866266 -0.20272367 0.070680566 -0.1460346 0.04391933 0.1647371 -0.27211896 0.005412088 0.50717795 -0.14742771 -0.06982974 -0.3765477 0.0582983 -0.009078489 0.5318571 0.22376381 0.15648101 -0.12501192 0.713421 0.46075493 0.3678834 -0.10846542 -0.17263742 -0.5151915 -0.15909785 0.4655245 0.07130826 0.2584872 0.32489035 0.25624642 0.002064033 -0.55694485 -0.14489105 -0.19854602 -0.4478068 -0.74280417 0.14196804 -0.14360309 -0.20651951 -0.046563353 -0.24793956 -0.16916326 0.16410899 0.099663235 0.0059193135 -0.05411082 0.35229284 -0.07740113 0.3210086 0.29800203 -0.02640003 -0.04906676 0.14564346 0.012005697 -0.012777821 0.35069305 -0.40999463 0.43166783 -0.09552155 0.0010869108 0.13202678 0.11759323 -0.46214244 -0.6542593 0.20828909 -0.19929905 -0.18202962 0.21390799 -0.03961465 0.35096976 0.069909394 -0.3274962 -0.3402599 0.59745485 -0.05508314 0.28800294 -0.18182145 0.24714522 -0.51123637 -0.07530439 0.004526669 0.08048612 0.12755595 0.3819768 -0.009972625 0.15628853 -0.045149874 -0.094036095 -0.06885697 0.16173655 -0.245142
68 -0.21775018 -0.017936507 -0.060216665 0.21221654 0.051902313 -0.15819094 -0.03528517 -0.07735106 -0.50732 0.048349865 0.1393969 0.20646118 -0.43626493 0.49920347 -0.12635334 0.5308735 -0.42012268 0.03551247 -0.26536125 -0.29648322 -0.1300865 0.48936844 -0.24775046 -0.91528374 0.28041458 -0.2611288 -0.08434153 0.46241966 -0.29562607 -0.13944033 0.6098672 0.20820458 0.3691852 0.49215806 -0.3306589 0.20273773 0.6172807 0.27477035 -0.22066343 -0.22328681 0.0065191104 -0.2350005 0.19137825 0.02301653 0.027073566 0.06394475 -0.36483738 -0.19213262 0.14780776 0.2627594 -0.016864562 0.4940784 0.37123895 0.35876742 0.101508416 0.53373605 0.05823156 0.11905234 0.14371215 0.51489973 -0.47127098 -0.20206738 0.36947823 0.19170788 -0.29239738 0.23006228 0.48921767 0.021062369 -0.43282244 -0.087523274 -0.13505419 -0.24057904 -0.514488 0.25778088 -0.24339277 -0.43143538 0.041315574 -0.072501026 0.043293152 0.26221296 -0.0022251618 -0.016705047 -0.23755926 0.38812482 0.1167565 0.40900886 0.47735497 -0.15058002 0.28942496 0.2124064 0.17133054 0.27965307 0.2802408 -0.29967085 0.33853525 -0.3195369 0.21367358 0.19293834 -0.42947397 0.102108866 -0.32206136 0.0749368 -0.61283845 -0.16585056 0.14569044 0.2661616 0.24363889 0.11966122 -0.14593163 0.260685 0.69032985 0.060482092 0.11966898 0.07614355 -0.26169184 -0.2983437 -0.19832267 0.09573866 0.09925434 0.05663892 0.18217558 0.4223654 0.23403811 -0.3982206 -0.35277346 -0.09512899 0.47671232 -0.073496304
86 -0.0856137 -0.5479368 -0.09541315 0.53602993 0.19120647 0.32901084 -0.49226242 0.21928926 -0.23106353 0.63609004 -0.2633534 -0.10611949 -0.0029181135 0.1474697 0.37012163 0.111356944 0.118136466 0.30494803 -0.4260309 0.21329331 0.00781426 0.41898197 -0.18280844 -0.7923045 0.19954425 -0.2890244 -0.22866489 0.13114053 -0.095233455 0.22245689 -0.538618 0.19576205 -0.012257493 0.1790891 -0.20553093 0.28155622 -0.14155485 -0.3350642 -0.21919383 0.05703652 -0.027943475 -0.2676293 -0.08956838 0.007106111 0.16991475 0.19607279 -0.5662302 -0.081159025 -0.3290183 -0.24705482 0.19791672 0.6174221 0.31567785 -0.4119267 -0.12025988 -0.0587925 0.06833979 0.40188688 -0.05630868 -0.17196879 -0.17344022 0.0067375386 0.47263533 -0.080400236 0.3013665 0.15034458 -0.21755148 0.24684286 0.16893116 -0.28840494 -0.3621423 -0.19971268 -0.650136 0.05052608 0.17494231 -0.7211335 -0.33226585 0.2638687 -0.15541632 0.30053306 -0.42458922 0.46491823 0.056058504 0.6871759 0.5576242 0.27534676 0.5645359 -0.34768742 0.28108132 -0.16077211 0.24315947 -0.0070169484 0.15584086 0.03271346 0.26981542 0.4882126 -0.05288953 -0.11765777 -0.033166524 -0.67261934 0.21624923 -0.2976138 -0.02242232 0.1004368 -0.10621304 0.15026096 -0.49708977 0.10649405 0.07714731 -0.010473007 0.13168685 -0.07306956 0.44653633 -0.10273008 -0.17288634 -0.005756733 0.07462709 -0.0677964 -0.095337525 0.050449543 0.20420454 0.30488005 -0.037560046 0.06353256 -0.162652 0.39660925 0.18368945 0.23703429
0 -0.18719755 -0.54418117 -0.054705545 0.7003297 -0.21493198 0.14163598 -0.46930134 0.044028934 0.16572183 0.26748106 -0.3394649 -0.07136587 0.23524053 -0.19903861 0.3880143 0.32884258 -0.19460087 0.48213643 0.132176 -0.027785063 -0.041397758 0.560128 -0.46340072 -0.32713625 -0.11162494 -0.15099192 -0.35343334 -0.10815637 0.2011385 -0.21424732 -0.20758726 0.24033588 0.022751875 0.049001437 -0.18637176 0.4128699 0.16503125 0.0102003375 -0.08274491 0.2487276 0.59817076 -0.19568421 -0.13755201 0.20887841 0.31851724 0.6017911 -0.25517532 -0.12951083 -0.07846533 -0.25745812 0.10493462 0.5155694 0.090131976 -0.30581287 0.18384303 0.11108612 0.04957692 0.31757587 -0.37357157 -0.29181397 0.06473172 -0.27841753 0.49233207 0.25301793 0.48675174 -0.29951465 0.25406873 0.07306147 0.015186429 -0.49747825 0.0032414524 -0.36741996 -0.9492351 0.09813744 0.02039283 -0.12693834 -0.16136764 0.1867062 0.09168106 0.23038693 -0.15625368 0.26257017 -0.10965951 0.4009388 0.52024364 0.29968715 0.17628033 -0.37452757 0.47118217 0.12833352 -0.095088646 0.36537153 -0.07784203 -0.08964902 0.66193026 0.41416296 -0.2728459 -0.066853456 -0.25048116 -0.08212015 0.09228534 -0.12824337 0.2469621 -0.031541143 0.13269714 -0.03473778 0.07715012 -0.008253715 0.20834345 0.40700606 0.12231466 -0.0025675115 0.61138403 0.1264618 -0.44337595 0.12025565 -0.41583952 -0.09012743 -0.22988234 0.25468445 0.33719534 0.127832 0.032759346 -0.14649667 -0.1694973 0.14120317 0.5122098 0.03174129
109 0.07265961 -0.25788677 0.04805517 0.060322773 -0.00036751787 -0.030730698 -0.61841303 -0.10137801 0.18814552 0.45636958 0.18242891 0.34265107 -0.39402676 0.55938745 0.10026613 0.5906038 -0.6764774 0.18698004 -0.42862222 0.17350198 -0.14896065 0.22845115 0.114779726 -0.34828386 -0.33555484 -0.45737413 -0.061775766 0.30638507 -0.13386989 -0.16673793 0.01213727 0.0044296905 -0.005884853 0.3862162 -0.13307743 0.2771593 0.5169666 0.47590405 -0.30641738 0.06467737 0.06623947 0.17962559 0.010086355 -0.22080582 -0.057002544 0.54981387 -0.17742746 0.20854703 -0.4398418 0.22491133 -0.27865258 0.49048495 0.21178383 -0.17223492 -0.20415427 0.7691455 0.26383632 0.3726266 -0.010987832 0.05508938 -0.5952585 -0.013167809 0.37139112 0.22786087 0.25141826 0.47989392 0.030303068 0.05950587 -0.44552392 0.17940095 -0.18955536 -0.60708344 -0.6237081 0.0099804085 -0.1288775 -0.09405934 -0.1135909 -0.307981 -0.28196698 0.22116223 0.17317356 0.15246029 -0.24826919 0.39616227 -0.16389897 0.3219003 0.08025682 -0.10928168 -0.0817952 0.14706479 -0.12686177 0.052674204 0.67352164 -0.50477535 0.36580205 -0.09285497 0.07112259 -0.024303295 0.16348337 -0.5518149 -0.58037174 0.40312535 -0.07763883 -0.3183732 0.13436149 -0.10065061 0.07636952 0.1533265 -0.38015386 -0.3758139 0.5503958 -0.35743788 0.17658806 -0.17907609 0.47531304 -0.5373797 -0.37718424 -0.35714567 0.25491938 -0.12195431 0.27826563 0.048431117 0.08684809 -0.048529465 -0.03506555 0.11751005 -0.0057920986 -0.20137112
65 -0.21673818 0.011549007 -0.09017486 0.19872794 0.017302666 -0.09544277 -0.18987623 -0.050313957 -0.4097473 0.06302654 0.18317188 0.2720851 -0.5237073 0.53464794 -0.12501709 0.5739224 -0.58382386 0.10133866 -0.31287697 -0.06256667 -0.13976413 0.5365136 -0.19199719 -0.9116567 0.19419922 -0.33890522 -0.12229848 0.48144317 -0.24516484 -0.15764512 0.56870466 0.16313316 0.27308208 0.5557504 -0.26554638 0.15613085 0.5845339 0.36321267 -0.30248755 -0.20811203 -0.14804557 -0.17944607 0.21286555 -0.07162237 0.0097659 0.13009419 -0.35303372 -0.14886512 -0.022416664 0.26802167 0.00865864 0.49189407 0.32553062 0.33699703 0.088442646 0.65478325 0.24854583 0.10202572 0.18539362 0.42232314 -0.51894397 -0.17691807 0.38387072 0.13899912 -0.22887036 0.3469306 0.4504264 0.07922034 -0.5724933 0.018018914 -0.225314 -0.29460123 -0.5377701 0.27241096 -0.22882837 -0.38375804 0.0871721 -0.15060325 -0.038621422 0.2836059 0.055973135 -0.040455684 -0.1871703 0.39767045 0.10856223 0.3564269 0.47819167 -0.08920689 0.16747995 0.18504716 0.18053424 0.111670814 0.36401927 -0.38555038 0.3417112 -0.34407097 0.21710943 0.25015923 -0.3656327 -0.067632735 -0.4195224 0.12302994 -0.61518854 -0.16195047 0.13361733 0.26269078 0.2814926 0.14110926 -0.2147065 0.09907551 0.7858951 0.040944297 0.12352565 0.09339941 -0.21670772 -0.40559664 -0.12141334 0.08686816 0.20824645 0.059292037 0.20003453 0.4095594 0.25497732 -0.30145594 -0.29356003 -0.13431408 0.37900946 -0.13076468
93 -0.0900845 -0.5450322 -0.046240166 0.48180956 0.20927106 0.20480737 -0.495521 0.11774649 -0.42366162 0.73740333 -0.11026922 -0.19629681 -0.1887146 0.47737902 0.19239305 0.17473403 -0.16669662 0.31385627 -0.55837125 0.181621 0.15761875 0.31082243 -0.23821977 -0.8890441 0.19568858 -0.36641762 -0.33945894 0.37595132 -0.1972609 0.28566742 -0.47147942 0.20012942 0.120468624 0.15237722 0.056326486 -0.09331112 -0.207088 -0.29667613 -0.25506622 -0.007907202 -0.10264373 -0.20790893 -0.11220097 -0.1744743 0.019330017 0.10017945 -0.5241104 -0.0537092 -0.3904435 -0.2557973 0.31078872 0.5281067 0.23282339 -0.31299672 -0.3243427 0.043865178 0.035162166 0.36881736 -0.07373358 0.16183285 -0.27394727 0.08205819 0.46943566 -0.01779881 0.026046028 0.38424432 -0.3501641 0.37826917 0.25354213 -0.16700828 -0.5618211 -0.27079988 -0.578155 -0.0074199103 0.31505358 -0.73407334 -0.4032087 0.13292913 -0.3219912 0.059792798 -0.50617087 0.25164333 0.15801436 0.6936984 0.5041229 0.24516304 0.34090105 -0.362977 0.026345376 -0.384811 0.27235776 0.02857508 0.2422384 0.074393235 0.25481904 0.27407032 0.16175309 -0.00019162701 -0.034771938 -0.7151389 0.034586344 -0.22096223 -0.1885623 0.04369475 -0.17720996 0.16640203 -0.45008403 0.22945508 0.062433463 -0.2712297 0.42335358 -0.1832135 0.25922674 -0.20896372 0.05102516 -0.12797558 0.296404 0.028689643 -0.09083705 -0.02505232 0.16489823 0.483586 -0.09826873 0.13046071 -0.147076 0.5659485 0.20066863 0.077213556
11 -0.1268556 -0.55728185 -0.06927255 0.5410427 0.09929274 -0.007896458 -0.35543224 -0.12077332 -0.41272274 0.7824977 -0.020063343 -0.37681136 -0.06957666 0.78149045 -0.07436629 0.2873377 -0.5098557 0.21834625 -0.46852553 -0.030802852 0.40642223 0.31367645 -0.5688466 -0.78516483 0.17073072 -0.403466 -0.46432647 0.57320756 -0.13557567 0.13175826 -0.27491426 0.23532422 0.38693857 0.16639832 0.32458362 -0.53491896 -0.10353579 0.0056849695 -0.2882039 0.034743447 0.08455966 -0.06753112 -0.16857283 -0.16430873 -0.15215284 0.106637985 -0.43721652 -0.05001612 -0.24710071 -0.38080364 0.2584104 0.5876016 0.22083078 -0.11839152 -0.28639013 0.293406 -0.11458941 0.34609222 -0.3236543 0.5127938 -0.16991425 0.109953895 0.5758698 0.26421538 -0.25382805 0.3606174 -0.40254658 0.43865603 0.2260502 -0.14104787 -0.60030603 -0.41589916 -0.65433323 0.11193847 0.40137082 -0.44232002 -0.33252952 -0.10659867 -0.26417542 -0.20364311 -0.46376637 -0.113074034 0.08032098 0.5694802 0.47998163 0.31199172 0.021073995 -0.39848697 -0.3065568 -0.60910594 0.21042433 0.21436258 0.27351975 0.1336246 0.2961793 0.0898484 0.2996995 0.0879755 -0.17289893 -0.44451597 -0.13700756 -0.12887378 -0.115278706 -0.010549475 -0.2689568 0.18360157 -0.26490507 0.29676434 0.230193 -0.24411437 0.7235959 -0.13195474 0.106801465 -0.26834926 0.11610744 -0.21171966 0.2779004 0.24523917 -0.29994497 -0.029156774 0.18040271 0.5712779 -0.072354 0.14404172 -0.06969357 0.63690466 0.5026139 -0.21829356
71 -0.435319 -0.17612886 0.11710197 0.23783666 -0.18156883 0.11738978 -0.4423291 0.44324067 0.005163832 0.41585702 0.10877493 -0.0020907964 -0.40413672 0.16103771 -0.4017079 -0.2181489 -0.32514036 0.010943096 0.040283453 -0.18729526 0.34125063 0.1337062 0.13320908 -0.1877704 -0.08019593 0.29660186 0.21007916 0.013648356 -0.21507621 -0.45095897 -0.40348652 -0.18897311 0.2243417 -0.055973593 0.036171135 -0.25723308 -0.12820144 -0.30555427 -0.5634118 -0.2945391 0.014945435 0.066382214 -0.11003458 0.117181 -0.014959982 0.5346463 -0.4380987 0.38696188 -0.7385724 -0.081876524 -0.12126156 0.5750908 -0.07183293 0.31954652 0.12563883 -0.25278473 -0.052279416 -0.04271638 0.22147126 0.29809654 -0.40173522 0.12280399 0.91675127 0.2618965 0.030814206 -0.15277882 -0.18153152 0.57096636 -0.13606396 0.1666291 -0.25245845 0.19915394 -0.2919023 -0.06541478 -0.49049854 -0.20601632 0.02789178 -0.42306688 -0.24212845 -0.24472313 -0.24886075 -0.104753666 -0.10350142 0.41811255 0.09395 0.05736908 0.5704323 0.01347097 0.026973233 -0.48700458 0.019525412 0.2996177 0.09460336 -0.26727524 0.42643937 -0.063529655 0.01645518 -0.14529532 -0.18788075 -0.041013014 -0.27567682 0.2516867 0.090483986 0.27510113 0.32892752 -0.43657446 0.3697719 0.22024247 0.039846167 -0.1897766 0.40520012 -0.60360295 -0.15446125 0.05774901 -0.54639566 0.08481691 0.34884614 0.084861465 -0.016187916 -0.105035186 0.020704169 -0.07716127 0.25174606 -0.16283433 -0.10680396 -0.08909595 0.019101627 -0.26348776
82 -0.06541094 -0.40592033 -0.14995493 0.50158376 0.10284239 0.3210605 -0.28707433 0.17816927 -0.014695556 0.5886448 -0.28705862 -0.11617258 0.20872356 0.050005034 0.34540755 0.113169886 0.20418379 0.19681987 -0.27482197 0.110495746 0.026160646 0.47037396 -0.28765002 -0.5657241 0.1650015 -0.18399201 -0.115857415 0.073013924 0.010931498 0.041969106 -0.43348986 0.11983686 0.030471133 0.14750147 -0.3345437 0.38571063 -0.059538256 -0.1676589 -0.23924147 0.093378015 0.066908926 -0.24366806 -0.14452074 0.16305138 0.19440109 0.20820127 -0.4736313 -0.073317215 -0.19756435 -0.34179696 0.030957185 0.65305996 0.39908537 -0.3725014 0.039906822 -0.054861978 0.093656145 0.38062006 -0.21160801 -0.2023019 -0.06732827 0.043531198 0.46915558 0.079533786 0.3628362 -0.008932105 -0.1287307 0.09388522 0.0400727 -0.24440186 -0.21290758 -0.14102164 -0.51055783 0.1361414 0.11505878 -0.40092042 -0.20226796 0.29397932 0.033180676 0.3458377 -0.30293706 0.36580014 -0.07864542 0.5148517 0.50810134 0.31056777 0.46212146 -0.3554379 0.30598366 -0.11649471 0.20348836 0.07392043 0.14519331 0.03377776 0.17387365 0.6102815 -0.14197831 -0.11623127 -0.021171903 -0.49347612 0.26425108 -0.2659234 0.20236386 0.1709921 -0.1956702 0.14927782 -0.38158128 0.047881253 0.10631579 0.21152224 0.0030795187 0.026114982 0.4233459 -0.09319104 -0.23232701 0.00031185785 -0.14464386 -0.031880718 -0.11752103 0.08328743 0.2162964 0.21607006 -0.005148829 -0.012129023 -0.039887406 0.13167523 0.28590724 0.24993472
94 -0.10053314 -0.50855064 -0.04120713 0.510264 0.20372084 0.2185318 -0.4982338 0.115442686 -0.41200683 0.7455681 -0.12910299 -0.16633463 -0.16500734 0.41694862 0.25335386 0.19324912 -0.13569109 0.3018653 -0.5171877 0.18783736 0.11856236 0.3111763 -0.22414921 -0.87001175 0.19157323 -0.33704135 -0.30126175 0.34154806 -0.20011702 0.26394117 -0.47753504 0.16661453 0.093849204 0.14443131 0.011719927 -0.021350045 -0.20994228 -0.29448876 -0.24036312 -0.008129271 -0.13067114 -0.2298585 -0.10225746 -0.15992607 0.047527734 0.12361271 -0.53502226 -0.044680372 -0.3881074 -0.20860976 0.26747507 0.54379153 0.25918463 -0.32701367 -0.29331112 0.019845635 0.049802825 0.37299824 -0.059836276 0.10782518 -0.2836243 0.10605901 0.46112207 -0.03437957 0.07213531 0.34499007 -0.28875154 0.35878497 0.22128394 -0.17235728 -0.5337251 -0.231587 -0.57189524 -0.004302192 0.27873936 -0.73516 -0.3957531 0.14710492 -0.30390754 0.10214996 -0.4962821 0.29742205 0.121663965 0.7072062 0.48609802 0.22451492 0.40677157 -0.3656752 0.05700772 -0.35238364 0.28791073 -0.017436024 0.22945611 0.08386208 0.23753493 0.30454046 0.119492464 -0.004415564 -0.02608212 -0.7123202 0.054946568 -0.24400929 -0.18716964 0.058711804 -0.15904652 0.1956434 -0.46811724 0.19897312 0.07942287 -0.24959086 0.36118296 -0.18230586 0.28487635 -0.21156015 0.023023805 -0.076373965 0.28446248 0.00497372 -0.113177784 0.0043272856 0.14385381 0.48690605 -0.09322625 0.121069275 -0.1515253 0.5594822 0.1827731 0.117960036
88 -0.10564324 -0.50614923 -0.037246224 0.51688105 0.20318298 0.25640574 -0.5419371 0.17245959 -0.39553463 0.71019703 -0.19818656 -0.1765655 -0.18369853 0.34128487 0.2613767 0.14610739 -0.07318338 0.33941057 -0.4605144 0.21595976 0.06679962 0.33393806 -0.20069617 -0.8099984 0.19935517 -0.29577821 -0.2661823 0.30936965 -0.17449945 0.24554871 -0.48689455 0.14750183 0.06180629 0.15385668 -0.0720513 0.08867739 -0.24346018 -0.34061205 -0.22430792 0.032997258 -0.09109353 -0.29853514 -0.096797094 -0.14807764 0.08473876 0.16015986 -0.5672019 -0.028775591 -0.4247523 -0.22689359 0.27332765 0.5584467 0.25648156 -0.3684236 -0.25759643 -0.061194908 0.08578081 0.3544571 -0.011386818 -0.005530562 -0.2510304 0.11068341 0.45481533 -0.056066096 0.15387608 0.26734722 -0.27094433 0.34154886 0.21243505 -0.20290105 -0.47689062 -0.17606424 -0.56549215 -0.009263649 0.23305045 -0.7319612 -0.36954373 0.20269544 -0.25804028 0.16136593 -0.5143856 0.36752203 0.08712324 0.698236 0.4925484 0.22686818 0.43811965 -0.3695077 0.11127769 -0.30452123 0.29519618 -0.00058959855 0.191989 0.103299074 0.2136879 0.35952175 0.05438991 -0.043516517 -0.037700463 -0.67678946 0.106458254 -0.311171 -0.12749892 0.114971764 -0.11826148 0.15047383 -0.41599035 0.16017228 0.05929293 -0.13676111 0.22191921 -0.18098886 0.31411996 -0.18717875 -0.0846578 -0.0039895624 0.2600897 -0.005845018 -0.072857656 0.047248777 0.17427891 0.43083805 -0.08899836 0.096115425 -0.17766362 0.46985397 0.1366641 0.17170823
34 -0.1819752 -0.0027826717 0.2619579 0.49254972 -0.12668645 -0.0057549844 -0.9480708 -0.21757194 0.07298211 0.42975768 -0.17964476 0.22158673 -0.44746566 0.22675268 0.21596248 0.6496838 -0.7020237 0.25974298 -0.14137797 0.34684867 -0.03375426 0.22510985 -0.20965357 -0.065035075 -0.5377357 -0.088093765 -0.4080366 0.19868778 0.056201167 0.030083168 -0.07247126 0.17189425 -0.20612271 0.26163992 0.27607325 0.2506523 0.39774773 0.38587475 -0.06501423 0.19146945 0.034598213 0.05995339 0.22933726 -0.34928253 0.14425614 0.6564689 -0.04374879 -0.11996225 -0.37038112 -0.10944345 0.11409506 0.41868594 0.026951598 0.12011944 -0.09838456 0.58580315 0.46162534 0.4302515 -0.24612227 -0.26331466 -0.39430386 -0.32288796 0.42775393 -0.017397074 0.39799327 0.07432309 0.3577605 0.019578628 -0.5214363 -0.34126452 -0.16613616 -0.45674467 -1.0831299 0.0031267307 -0.055003494 -0.26907104 -0.1465882 -0.19311847 -0.19677602 -0.022352098 -0.050024822 -0.034065504 0.028888222 0.40221792 -0.08271656 0.33984837 0.06061184 -0.14014578 -0.014489315 0.23486698 -0.030074388 0.32133463 0.38422227 -0.31749183 0.7128478 -0.042107195 -0.14867488 -0.012922795 0.115897715 -0.24599896 -0.73937964 0.23867327 -0.16234596 -0.19842887 0.39684585 -0.12711595 0.3990271 0.06672677 -0.18062885 -0.416295 0.3605018 -0.19189847 0.4106017 -0.24481 0.2068009 -0.4069348 0.018195841 0.18643273 -0.22330649 0.054058716 0.40201658 -0.13648613 0.08323236 -0.042219978 -0.1623504 0.011979916 0.2933105 -0.26054373
92 -0.10076338 -0.52747715 -0.044617247 0.54309225 0.22404449 0.27831802 -0.54532707 0.22616933 -0.30279145 0.6574582 -0.2213807 -0.09149432 -0.080821 0.24047953 0.37988707 0.09150448 0.026894227 0.28335735 -0.5002268 0.2369411 0.03617945 0.3924242 -0.16147399 -0.8591015 0.22334974 -0.30114496 -0.2353624 0.22999957 -0.1682005 0.28588468 -0.5623725 0.18804282 0.018326214 0.16526976 -0.17137238 0.1873685 -0.2318793 -0.36550492 -0.24261732 0.008236896 -0.09831582 -0.2894034 -0.108194694 -0.09251679 0.12589687 0.17437147 -0.54128045 -0.07755034 -0.37286413 -0.20081693 0.24511544 0.5516798 0.25562277 -0.39291093 -0.20892061 -0.04770643 0.035229288 0.406788 0.0024219225 -0.0898779 -0.25945258 0.025699107 0.47788727 -0.11496423 0.23522744 0.23244166 -0.24002586 0.3128685 0.20898946 -0.23975329 -0.44340152 -0.21891676 -0.6407054 0.0014691027 0.21567245 -0.77223635 -0.38013032 0.25758556 -0.26976076 0.2209711 -0.4843337 0.42664889 0.08334851 0.7460745 0.5226461 0.21777532 0.5554431 -0.35768068 0.27329987 -0.19745937 0.2725522 -0.014489896 0.1778109 0.038342897 0.28508687 0.43071747 0.0066187377 -0.057236623 -0.037995767 -0.71457595 0.1620286 -0.2879442 -0.1286631 0.06884441 -0.10648508 0.17378451 -0.50502676 0.1749711 0.07316462 -0.06982942 0.21518922 -0.119439766 0.43531173 -0.13720119 -0.11375008 -0.0074425186 0.15184139 -0.10103784 -0.040204022 0.019578906 0.16396877 0.39040497 -0.042320054 0.10123813 -0.19826952 0.45724192 0.16813068 0.2513849
87 -0.1052755 -0.56451744 -0.050627813 0.50935906 0.18124464 0.15466586 -0.46126392 0.090304084 -0.41379797 0.71661794 -0.08569253 -0.22620355 -0.14618659 0.5204643 0.18822664 0.17998604 -0.20001224 0.29180735 -0.5477548 0.13822712 0.21455917 0.32139271 -0.31445557 -0.89417326 0.21851999 -0.35454413 -0.35762206 0.40690523 -0.17552651 0.26361442 -0.45198333 0.21449557 0.15852016 0.14108346 0.07731628 -0.1503904 -0.2052916 -0.2456621 -0.27692622 -0.028078668 -0.074344814 -0.19566663 -0.11430379 -0.16162905 -0.006414451 0.096650735 -0.5012334 -0.07911011 -0.36068916 -0.26359728 0.31926215 0.5308405 0.23075555 -0.29522613 -0.33153468 0.07703083 -0.0012263381 0.37427974 -0.123951025 0.24515334 -0.28028747 0.079388864 0.48128676 -0.0056674634 -0.015214671 0.39802763 -0.35539198 0.40102667 0.25892916 -0.15715578 -0.5925438 -0.2873336 -0.60802406 -0.0033952193 0.3324415 -0.694104 -0.41357297 0.12303476 -0.31630486 -0.010733009 -0.50225 0.20177217 0.16682675 0.6947693 0.52027524 0.23848097 0.3083909 -0.3871792 -0.006234552 -0.41492307 0.27973562 0.017645797 0.22770914 0.09777356 0.25111926 0.2627446 0.18482098 0.024818545 -0.06678368 -0.6896517 0.034353316 -0.21205583 -0.16267647 0.042326808 -0.20593771 0.19707726 -0.46165022 0.23821197 0.09520474 -0.26473033 0.47043836 -0.14852673 0.2528042 -0.19733472 0.058675475 -0.13252321 0.2795348 0.021875985 -0.12473968 -0.027044939 0.15383035 0.49258438 -0.079094395 0.15403995 -0.12767857 0.57870096 0.22219713 0.0690249
50 -0.43033683 -0.25272006 0.046858326 0.18401045 -0.27688932 0.13156432 -0.42911345 0.37418032 0.024858799 0.3218074 0.18352881 0.05606725 -0.48625088 0.21505581 -0.42204636 -0.19527556 -0.27953088 0.082520284 0.039873224 -0.35759965 0.36757052 0.15586801 0.18756635 -0.22752255 -0.15204436 0.37033373 0.17331867 -0.0025489393 -0.1286597 -0.5226106 -0.3611631 -0.19760518 0.16351868 -0.02607154 0.0476144 -0.15480913 -0.035013713 -0.31742904 -0.50212854 -0.28293812 0.06814731 0.104289025 -0.0678143 0.12064119 0.053921286 0.4663221 -0.41572472 0.33746427 -0.64163333 -0.08367512 -0.085853875 0.52015394 -0.07290816 0.3085514 0.14082602 -0.33431873 -0.031763606 -0.06895242 0.099931575 0.33310732 -0.33509785 0.10755756 0.81528246 0.26955998 0.07735911 -0.08343948 -0.10760615 0.53694177 -0.10806746 0.026303401 -0.27737242 0.18396117 -0.2770257 -0.1681662 -0.5074271 -0.18109494 0.040806253 -0.3794448 -0.19574545 -0.21430479 -0.21504146 -0.068957776 0.017864639 0.4542227 0.13375914 0.12682058 0.5085717 -0.073274285 0.023172822 -0.485752 0.05082504 0.36109284 0.123810336 -0.25774083 0.46716762 -0.069287315 0.015663272 -0.16064528 -0.13760084 -0.056122273 -0.27065787 0.3031634 0.11259803 0.31496316 0.270745 -0.43856165 0.34002513 0.23438361 0.02175672 -0.20390783 0.37145406 -0.5950588 -0.18643093 0.062749565 -0.573281 0.059250277 0.29204282 0.09321444 -0.022293482 -0.17221303 0.042706404 -0.031383157 0.1903458 -0.21503213 -0.07353014 -0.09847215 -0.07531902 -0.24495843
60 -0.16801289 0.046613045 -0.10852925 0.17159365 0.010933969 -0.061704524 -0.32321292 -0.060131222 -0.29746792 0.089355074 0.20805973 0.28542256 -0.55922115 0.5589617 -0.14091161 0.61549616 -0.6607044 0.15080029 -0.36087647 0.03929234 -0.16075909 0.48635656 -0.07062879 -0.8177292 0.07687655 -0.38556638 -0.13426259 0.46273232 -0.23448603 -0.14646748 0.5213007 0.14933243 0.1957819 0.5701063 -0.21234688 0.17118327 0.64486104 0.46810648 -0.2850876 -0.16186573 -0.17007375 -0.094858505 0.23709746 -0.15922087 -0.0028841994 0.20513321 -0.33689147 -0.113435104 -0.12884422 0.2568195 -0.006514627 0.504609 0.3026483 0.32467467 0.04542351 0.69691753 0.3074431 0.15278013 0.14303587 0.2991615 -0.54771405 -0.15838295 0.37847778 0.117370114 -0.1571816 0.41884977 0.36689988 0.041463148 -0.62891465 0.041011058 -0.21922316 -0.36675707 -0.5487585 0.24531405 -0.21312037 -0.34741953 0.095479645 -0.2329315 -0.059655145 0.29481182 0.11577878 -0.00628172 -0.15445262 0.3700203 0.05033095 0.33283934 0.46064007 -0.028930625 0.056131165 0.21494201 0.11746691 0.017099988 0.3961203 -0.43796977 0.3312022 -0.33693948 0.20187666 0.23534766 -0.25647876 -0.19477329 -0.48483396 0.17459865 -0.5495814 -0.20116858 0.15276988 0.19232357 0.29985318 0.123467654 -0.29629683 -0.04852244 0.77065814 0.039810978 0.1327559 0.039418284 -0.070160925 -0.48157832 -0.11012567 0.05110229 0.2223473 0.055149235 0.25230515 0.30402198 0.24017249 -0.21787718 -0.2347315 -0.12231653 0.23530522 -0.2044631
75 -0.38246664 -0.3260396 -0.26434836 0.10635592 -0.49830607 0.2433441 -0.24179178 -0.03561907 -0.0479197 0.29550084 0.23594323 0.16832963 -0.3663624 0.26746404 -0.29947266 0.12639074 -0.055118993 0.2814576 -0.091002196 -0.6996895 0.30894697 0.15505262 0.24439737 -0.3489831 -0.28129873 0.50213915 0.038750574 -0.005005187 0.07863421 -0.567336 -0.10842162 -0.22393575 -0.01102202 0.041943014 0.18492952 0.034077987 0.27672738 -0.21894486 -0.23735042 -0.17647089 -0.016420612 0.097645365 -0.01868331 0.17105497 0.2895654 0.2180776 -0.36331728 0.13843438 -0.21993771 -0.08192059 -0.21728952 0.46679977 0.09737387 0.29726174 0.072887056 -0.42272595 0.21316929 -0.0067011854 -0.34725645 0.3732803 0.035894316 0.13575463 0.39435375 0.30230555 0.11167349 0.14290766 0.20794798 0.3173248 -0.042549968 -0.34385163 -0.19848126 0.023600664 -0.05222812 -0.39033148 -0.367341 -0.021671854 0.13025683 -0.15831491 0.017539967 0.0033353218 -0.061671637 0.11499719 0.29168087 0.4716812 0.16467883 0.4779171 0.27349424 -0.35960877 -0.09695708 -0.42000708 0.168339 0.52549434 0.32817182 -0.25553057 0.5077448 -0.043462727 0.014787829 -0.1680594 0.055638146 -0.2793989 -0.2769716 0.50304765 -0.024121962 0.37347606 -0.010253095 -0.19463351 0.17076688 0.14362483 0.12780644 -0.31853178 0.31246427 -0.43398094 -0.31717196 -0.029883077 -0.45058045 -0.10668627 0.16606747 0.17892027 -0.17813866 -0.359295 0.027863985 0.28017056 -0.033044163 -0.40019715 0.07988836 -0.04441399 -0.21349098 -0.25945947
29 -0.06759857 -0.29695573 -0.10467117 0.39598903 -0.05504522 0.2395 -0.4618243 0.11189251 -0.03904583 0.4604146 -0.3851332 -0.28259215 -0.2957654 0.21482538 -0.33255756 0.039632972 -0.11769967 0.3446417 0.062160265 -0.16222247 0.04898352 0.3661901 -0.13713212 -0.089614995 0.0072542015 0.040881626 0.03651559 0.15433279 -0.019047232 -0.42682102 -0.11237496 -0.20469606 0.17977646 0.34709805 -0.32478192 0.25259012 -0.0022918792 -0.14049199 -0.3046972 0.18655889 0.21896352 -0.30453116 -0.0930748 -0.014259131 0.08798145 0.29701844 -0.56817555 0.22893305 -0.5178758 -0.43008548 -0.11222377 0.6906616 0.4099498 -0.22632885 0.27069858 -0.08818308 0.24661179 0.17376202 -0.13103804 -0.28076145 0.12152699 0.2674403 0.54105914 0.32839277 0.21069284 -0.18967193 -0.027008658 0.09388967 -0.25341567 -0.21373713 -0.07250347 0.107381344 -0.3085677 0.15233469 -0.25822827 -0.08936874 0.12845185 -0.05103528 0.33958688 0.30281597 -0.23725206 0.28634825 -0.15713248 0.25609732 0.21190342 0.34527782 0.37448037 -0.2430632 0.028172072 -0.16050953 0.13420813 0.30693567 0.17192274 0.13710222 0.010573297 0.40855548 -0.21481986 -0.15008059 -0.22384982 -0.047529276 0.15914208 -0.31001562 0.41957232 0.39071208 -0.033897057 -0.19886334 0.16214181 0.0123208575 -0.07275718 0.42600706 -0.26217338 -0.14189646 0.07306118 -0.22612782 -0.59620047 0.023695895 -0.050675422 0.23281054 -0.15538816 0.12102758 0.29118338 -0.08221797 0.0513027 -0.17272066 0.061275855 -0.09411986 0.16737887 0.08811985
59 -0.13637379 0.17124666 -0.12652619 0.16714408 -0.03175636 0.01179955 -0.50634867 -0.03427631 -0.17236361 0.16711064 0.18056318 0.24711975 -0.59672916 0.56273985 -0.14971177 0.59853697 -0.7187979 0.17880036 -0.3923618 0.19604 -0.11464445 0.47247243 -0.02311185 -0.6853041 -0.043930583 -0.35580838 -0.13001968 0.42148042 -0.21245103 -0.13401319 0.39594406 0.0967351 0.10462357 0.5481576 -0.12055491 0.13039255 0.58199775 0.56526226 -0.30616477 -0.12365018 -0.3144089 -0.040910583 0.24286473 -0.2570315 -0.03573976 0.29227793 -0.30313227 -0.097474106 -0.27249014 0.17352152 0.0010315219 0.5648297 0.30824515 0.35524794 -0.009867116 0.728376 0.45761433 0.21789919 0.06698139 0.11333912 -0.5739897 -0.11195327 0.44654644 0.08299317 -0.025339931 0.45531124 0.32163268 0.05377402 -0.70460165 -0.005047982 -0.2853021 -0.38531393 -0.59681994 0.24119408 -0.2128238 -0.28430483 0.110022 -0.29335594 -0.109754026 0.25061044 0.13048775 -0.041135255 -0.08261168 0.37651774 -0.028669046 0.34329712 0.51438147 0.025003485 -0.073084004 0.14828919 0.15112485 -0.09224313 0.41357857 -0.46197438 0.33322123 -0.26140678 0.16147864 0.23677479 -0.07832001 -0.38614783 -0.62402064 0.19260962 -0.43926585 -0.12685034 0.16357052 0.13398704 0.40938348 0.09854482 -0.34804642 -0.23109186 0.7895072 0.043674257 0.15582955 -0.06400058 0.032249883 -0.56219035 -0.018841421 0.09054699 0.21802229 0.10536904 0.31416297 0.18789467 0.23116948 -0.12632702 -0.15256955 -0.1740613 0.14063399 -0.2647912
69 -0.221254 -0.043474797 -0.031806365 0.26329452 0.03976379 -0.15628824 -0.042531278 -0.074988246 -0.5503085 0.07867481 0.11100308 0.1767266 -0.35288852 0.47904512 -0.09021341 0.5181935 -0.34544104 0.016672045 -0.27915782 -0.37791803 -0.11226463 0.50469875 -0.29168096 -0.9781358 0.33254394 -0.23319055 -0.063045256 0.47946864 -0.33437425 -0.12400057 0.5670838 0.24512625 0.4204894 0.45976523 -0.3504243 0.21136498 0.57928604 0.23052584 -0.21255915 -0.23004663 0.06582865 -0.286464 0.17832203 0.052267358 0.047684766 0.06550071 -0.36879352 -0.24387872 0.21781933 0.25782067 -0.0045384015 0.48957157 0.39069703 0.37744302 0.07421789 0.4622456 -0.016575735 0.15672855 0.0932395 0.5724114 -0.5118773 -0.22862785 0.40488875 0.22635642 -0.30770934 0.16803867 0.5013671 0.047335945 -0.3240461 -0.1425096 -0.11975347 -0.20612076 -0.54825866 0.23518734 -0.2126806 -0.48205128 -0.015951406 -0.01738105 0.017739262 0.22509047 -0.06685636 -0.027636841 -0.23625335 0.47330686 0.15552019 0.4554462 0.5048333 -0.21460582 0.39276892 0.20154934 0.19848001 0.33134723 0.24031763 -0.21663757 0.36536714 -0.28567892 0.20075375 0.20165513 -0.46627915 0.14635465 -0.27984667 0.038864493 -0.6249791 -0.14951 0.14329077 0.26484984 0.25571424 0.15808456 -0.096541926 0.3216452 0.6755355 0.0442252 0.17970316 0.059267122 -0.2880193 -0.24122572 -0.18859664 0.102124214 0.033662695 0.036564622 0.1779504 0.44818628 0.24323882 -0.40374976 -0.3816457 -0.058840647 0.54334044 -0.020280624
110 0.09417608 -0.31656578 0.088008605 0.05789232 0.015559838 -0.015006231 -0.5680119 -0.09398294 0.2106917 0.47509825 0.1841594 0.3527026 -0.33956298 0.52785295 0.14782447 0.5268203 -0.59079987 0.14999463 -0.3881993 0.12737493 -0.13857286 0.20779057 0.09974566 -0.28454626 -0.3765276 -0.4017315 -0.04978767 0.28594506 -0.09974976 -0.20374097 -0.06801156 -0.02536856 0.000337852 0.29828748 -0.12013235 0.27040252 0.4535628 0.38346207 -0.33656317 0.07991099 0.13433628 0.20030351 -0.038666762 -0.1901609 -0.02356611 0.53938174 -0.15450694 0.23913768 -0.44000795 0.19263008 -0.29969767 0.4598649 0.1776432 -0.26200277 -0.20749345 0.7258359 0.22635728 0.351738 -0.05422709 0.038271606 -0.5451855 -0.0031686777 0.39362013 0.25137594 0.31203806 0.4286363 -0.007633655 0.083281584 -0.37386137 0.1902305 -0.15889986 -0.58616835 -0.61925626 -0.022832245 -0.1259741 -0.047610126 -0.16663809 -0.2655008 -0.2767388 0.20726207 0.15140407 0.1755816 -0.25153902 0.3633681 -0.13932876 0.29715616 -0.010226006 -0.14536381 -0.053389467 0.12842318 -0.15090707 0.109906234 0.69000554 -0.47764018 0.384379 -0.05062371 0.047080766 -0.07713169 0.20162784 -0.5309536 -0.54637516 0.4094066 -0.047351427 -0.34625039 0.11079736 -0.12524056 0.009934107 0.16582017 -0.3357155 -0.37947497 0.4875497 -0.41623095 0.15203978 -0.16900405 0.4918205 -0.49755895 -0.3937252 -0.38747635 0.24150254 -0.1551066 0.2568402 0.025760077 0.029871758 -0.049261086 -0.0113066165 0.13009998 -0.0018379273 -0.15611507
90 -0.10027665 -0.561959 -0.038525805 0.51807153 0.18122134 0.07501409 -0.42870334 -0.016516704 -0.46470574 0.77593607 -0.060777854 -0.29636762 -0.15820149 0.68617374 0.056126174 0.2390296 -0.3730274 0.26112422 -0.546631 0.07717028 0.31364983 0.27438152 -0.42383882 -0.87950355 0.20634243 -0.39596558 -0.43020317 0.5343363 -0.20609377 0.24161653 -0.36824477 0.22585076 0.29710305 0.13139142 0.23646717 -0.3925011 -0.20251685 -0.15710977 -0.28235993 -0.011800819 -0.034967065 -0.13343264 -0.14387065 -0.21180211 -0.08714691 0.06948378 -0.47841597 -0.043711852 -0.33017948 -0.2936564 0.3060884 0.5368045 0.21380712 -0.21882215 -0.37008685 0.17735447 -0.051590916 0.34681988 -0.18337329 0.39807314 -0.2659452 0.12692344 0.5091864 0.12648077 -0.16161549 0.43258563 -0.4020922 0.44270387 0.27596572 -0.118548706 -0.6210926 -0.3356447 -0.60225314 0.035603557 0.3683491 -0.6113323 -0.4234769 0.029146226 -0.32480815 -0.12287619 -0.50164837 0.04367979 0.13665663 0.65697634 0.4880312 0.25080442 0.15556252 -0.384154 -0.15226355 -0.5291309 0.25647947 0.09798576 0.2546878 0.12762526 0.24176805 0.14524132 0.27159223 0.06560271 -0.10622159 -0.60756755 -0.056047734 -0.1735509 -0.19394839 0.010180037 -0.23155685 0.186258 -0.3884982 0.27157056 0.13531135 -0.29278755 0.61527115 -0.18159904 0.15971501 -0.26651636 0.1433291 -0.18759005 0.32910332 0.108845845 -0.18361978 -0.049581345 0.15340438 0.5498111 -0.08836438 0.14294738 -0.12400067 0.6387549 0.33234718 -0.055119846
38 -0.037905518 -0.25056887 -0.0030929754 0.4194282 -0.012711438 0.2351435 -0.43443528 0.18434791 0.025054734 0.47515643 -0.37929592 -0.3131336 -0.23898381 0.21006125 -0.24508621 0.030822828 -0.10126974 0.34412947 0.06323965 -0.09472858 0.058926295 0.48300833 -0.23091729 -0.19240597 0.10039338 -0.03445593 0.06705989 0.2243851 0.011299602 -0.3585048 -0.14029472 -0.14015181 0.1929849 0.40059784 -0.47327173 0.34913507 0.01624606 -0.08675307 -0.35414782 0.138811 0.31765014 -0.3983412 -0.11541669 0.0005984299 0.09672137 0.32567337 -0.5649547 0.13193306 -0.5399947 -0.50830483 -0.016959539 0.69545037 0.42841947 -0.29531756 0.24604116 -0.008547401 0.2434986 0.24121544 -0.1472477 -0.29534203 -0.005797128 0.22126856 0.5575079 0.25252524 0.21606049 -0.20902085 -0.05991257 0.048801698 -0.3130128 -0.15102339 -0.105706185 0.11617965 -0.43393138 0.2295769 -0.20080824 -0.13588129 0.058392916 0.060326096 0.29270187 0.2571159 -0.27992836 0.29408932 -0.20651917 0.2647449 0.30490443 0.3186572 0.41052312 -0.31461263 0.10740478 -0.07466681 0.13920802 0.24030869 0.13524653 0.1678298 -0.0035482396 0.5135364 -0.24231674 -0.12870856 -0.2564046 -0.04697232 0.25048813 -0.41375023 0.5094505 0.3553077 -0.052831523 -0.14026369 0.14674217 0.011071905 -0.14769883 0.5219843 -0.2879213 -0.044136155 0.21539676 -0.2516498 -0.5422497 0.035025716 -0.13762443 0.23399316 -0.14028557 0.17096052 0.36754355 -0.07971258 0.06350572 -0.11287531 0.06717254 -0.15838285 0.22694413 0.19155057
58 -0.11099838 0.11318868 -0.07074981 0.16454855 -0.053479794 -0.010149495 -0.5923768 -0.07072535 -0.06587632 0.20471112 0.13715908 0.24645576 -0.5348919 0.51653075 -0.06236894 0.63352454 -0.73069215 0.19749857 -0.4021298 0.24721952 -0.12589386 0.40383068 -0.008362204 -0.56099474 -0.1463231 -0.37853503 -0.15093398 0.36403224 -0.16128133 -0.08710839 0.30783206 0.10942299 0.037333585 0.51373744 -0.07680906 0.20405212 0.5864018 0.5848887 -0.23659852 -0.05187578 -0.2265165 0.006785621 0.22392495 -0.2715086 -0.02818433 0.39492333 -0.22073299 -0.0995305 -0.29837674 0.18395777 -0.017211918 0.5250201 0.2737464 0.27355534 -0.0803424 0.74528044 0.43939668 0.28716367 0.019406112 0.04531223 -0.58141774 -0.15833728 0.40886927 0.061647642 0.039117724 0.43976492 0.29485518 0.0040094648 -0.6570989 -0.009803683 -0.24390887 -0.43596354 -0.6555945 0.19760282 -0.17077133 -0.2706667 0.051690146 -0.2941273 -0.16993995 0.20962253 0.14379548 -0.03271895 -0.06821394 0.3773385 -0.047529973 0.33022246 0.3993578 -0.016949235 -0.07053078 0.18723045 0.07245666 -0.05738052 0.40916854 -0.4570862 0.3932891 -0.22018756 0.09475942 0.19746935 -0.022126043 -0.4008392 -0.6146801 0.22385779 -0.35527894 -0.193918 0.18308313 0.04413268 0.34720975 0.11319206 -0.3454687 -0.2934197 0.71317875 -0.016911242 0.20985322 -0.1052622 0.15694249 -0.53993136 -0.08070237 0.018619064 0.14661142 0.083488084 0.33253855 0.11681421 0.20979694 -0.10270173 -0.11050978 -0.1104722 0.11963753 -0.26353863
28 -0.10050364 -0.2673371 -0.14242336 0.33065534 -0.100933835 0.18832368 -0.46167496 0.065858796 -0.08196605 0.40179795 -0.3190685 -0.17326628 -0.4531634 0.34207004 -0.42999926 0.049847722 -0.19373704 0.32401302 0.08405975 -0.15995069 0.06924534 0.30995125 -0.06970718 -0.08539041 0.0023922713 0.10159699 0.02253006 0.15098916 -0.047345795 -0.4636068 -0.0099014435 -0.24485065 0.09693594 0.36580193 -0.27411127 0.18364328 0.056317333 -0.10377495 -0.28839225 0.22958888 0.13946396 -0.27153018 -0.027465772 -0.02413656 0.055101316 0.2988042 -0.59913296 0.30774802 -0.49288094 -0.32087347 -0.18504146 0.6655563 0.4022744 -0.23077272 0.2931912 -0.113080844 0.23385474 0.115488455 -0.09646199 -0.27982846 0.11534026 0.24277684 0.48890573 0.3695445 0.24439356 -0.17269576 -0.023013815 0.13675988 -0.26867265 -0.30267462 -0.1179864 0.040453635 -0.29526109 0.1350243 -0.34363306 -0.1548702 0.22567196 -0.16409703 0.31902206 0.31088766 -0.19495018 0.29781035 -0.20985657 0.28107488 0.09553213 0.38519377 0.4294455 -0.15734564 -0.0016722617 -0.21472228 0.24061953 0.32654086 0.18072796 0.060561575 0.08132613 0.32331574 -0.14127806 -0.18342912 -0.1449326 0.009809805 0.095618464 -0.2561378 0.37294298 0.43766227 0.00592338 -0.26853 0.18669257 -0.0050623147 -0.06316295 0.39181256 -0.1652383 -0.21832374 -0.0021092203 -0.17388414 -0.63666284 0.11033515 -0.052691087 0.2423298 -0.058713842 0.11488385 0.26325294 0.0017248561 0.09894705 -0.24817024 -0.0079676695 -0.09614546 0.08104929 0.018569108
85 -0.1312179 -0.5550986 -0.047571264 0.52602 0.1432685 0.039161444 -0.40960425 -0.057009883 -0.46034047 0.7922261 -0.027494557 -0.31237215 -0.14627275 0.7277583 0.008463179 0.25520527 -0.41959196 0.24676345 -0.5399734 0.04045258 0.3602893 0.30125624 -0.4709119 -0.86141163 0.2041464 -0.38688308 -0.4343786 0.55427784 -0.16901596 0.19498749 -0.341348 0.22834115 0.30907556 0.14845435 0.2672489 -0.43510452 -0.17057739 -0.09497599 -0.27990595 0.0026858281 -0.016895186 -0.12305929 -0.1409901 -0.1954753 -0.11942548 0.08212203 -0.46804005 -0.04632014 -0.30942848 -0.32576382 0.29554656 0.5562793 0.2121046 -0.17115918 -0.34403753 0.20825043 -0.0643741 0.3535461 -0.24558578 0.45172223 -0.2548485 0.115612835 0.5551646 0.170427 -0.1751288 0.41959798 -0.38258237 0.45189944 0.24011797 -0.12737511 -0.63710046 -0.35939476 -0.63131076 0.04364668 0.36678907 -0.56361026 -0.3833826 -0.027076088 -0.31232393 -0.14933802 -0.49607334 -0.002840436 0.12690863 0.652945 0.47724116 0.2858896 0.13800852 -0.40376788 -0.21683949 -0.5523971 0.26527363 0.14633529 0.27745944 0.116349965 0.28242084 0.13035549 0.28019574 0.08847277 -0.11477878 -0.56227106 -0.10221602 -0.14670537 -0.17322154 0.01674377 -0.25309643 0.1984586 -0.31747934 0.28005868 0.15826069 -0.2842541 0.6652378 -0.16755264 0.14467537 -0.26262015 0.11140739 -0.2058986 0.31372884 0.16560036 -0.21054846 -0.04991819 0.16757625 0.56559044 -0.06464298 0.1370275 -0.101599656 0.61464745 0.37809762 -0.12435781
96 -0.33244267 -0.3442404 -0.34365487 0.0879604 -0.46806344 0.30398855 -0.18544577 -0.15792716 -0.10521429 0.39619964 0.20467117 0.124199875 -0.2667646 0.2625144 -0.29418567 0.24451101 -0.011077364 0.2372695 -0.15883793 -0.7180182 0.27529347 0.12969895 0.22613539 -0.33110198 -0.3038227 0.4699342 -0.019311799 -0.03619422 0.057129115 -0.57596046 -0.09003194 -0.23998372 -0.0074787457 -0.005301852 0.24529892 0.007788115 0.31792325 -0.19406506 -0.15132262 -0.11655084 -0.086290546 0.1775381 -0.008237216 0.21536732 0.27142864 0.17400199 -0.3701111 0.19722004 -0.13532053 -0.026766004 -0.31166723 0.49186316 0.19453776 0.31103808 0.06675726 -0.4173896 0.22255503 0.014933295 -0.40808862 0.36649814 0.14801425 0.18179177 0.3737583 0.38620117 0.109606616 0.13212547 0.2210605 0.28933933 -0.02335162 -0.38519835 -0.11786045 0.027640808 0.052613776 -0.34051612 -0.32022575 -0.028699648 0.16015032 -0.22085828 0.06840743 0.12093081 -0.027294667 0.10568151 0.22104457 0.45079163 0.17651606 0.5853576 0.2954607 -0.31445113 -0.17058982 -0.44578847 0.15600032 0.4939855 0.39364594 -0.24604744 0.48324892 -0.033264905 0.03646122 -0.20927997 0.08364213 -0.35338646 -0.27649793 0.49070215 -0.04630832 0.42682105 -0.08985122 -0.20409425 0.113704205 0.11514078 0.21857776 -0.34602517 0.30365127 -0.46369693 -0.36746484 -0.03164395 -0.48966032 -0.13380767 0.18229447 0.26613 -0.23716624 -0.36321372 -0.033098303 0.29903683 -0.07329273 -0.47042203 0.09597816 0.0031309268 -0.21788673 -0.3392059
21 -0.26261285 0.19974835 0.13358511 0.5076376 -0.37065968 0.021391261 -0.13900138 -0.0783313 0.17790587 0.6637799 0.1392055 0.19059324 0.1438809 0.2622901 0.2111268 0.19847253 -0.10074689 -0.12680766 -0.24601872 -0.28833008 0.31466272 0.55409217 -0.44351095 -0.42022127 0.09224419 0.4782605 0.3964819 0.4653495 -0.018727085 -0.3184991 -0.1251201 -0.074291706 0.26141477 -0.009744006 -0.37073022 0.12882596 -0.25884488 0.27140737 -0.476798 -0.22186989 -0.05543814 -0.4833334 -0.40710843 0.20642708 0.2848176 0.33062068 -0.07454656 -0.028417435 -0.19161451 -0.21424721 -0.26668617 0.35750884 0.14710255 0.09997398 -0.3191485 0.0020557914 0.20004097 0.31407264 -0.37032968 0.5104212 -0.45341322 0.36387643 0.3831454 0.3535776 0.2474529 -0.013944149 0.24551123 0.24175929 -0.21970971 0.2029597 -0.30325854 0.007691977 -0.07673592 -0.23660673 0.05229805 0.42485276 -0.15975583 0.3951156 -0.242667 -0.26953542 -0.28141156 -0.27935523 -0.21962492 0.4901888 0.027724681 0.21197897 0.038060673 -0.6234622 0.10715827 -0.20114811 0.41551945 0.41763344 0.33020234 -0.23051038 0.3296792 0.4364953 0.00818283 0.33447242 0.123161286 -0.14925736 -0.16717526 0.26549298 0.11665484 0.31586552 -0.34452677 0.28413466 0.53582275 0.12154715 0.07973595 0.3111055 0.30003098 -0.164851 0.2121369 -0.19588321 0.019103892 -0.032698806 -0.2588349 0.029690722 0.041852623 -0.20290194 0.08743551 0.5515433 0.16056144 -0.12737033 0.0083960965 -0.53501385 0.41399157 0.12792543
44 0.0054997536 -0.25306234 -0.000907263 0.43492967 0.05802263 0.22726934 -0.37043342 0.18924677 0.06372947 0.48072255 -0.41640827 -0.270653 -0.1167664 0.0965693 -0.10905064 0.06681926 -0.12266468 0.28263947 0.09859156 -0.019828502 -0.023727976 0.46342912 -0.2624951 -0.1309183 0.04354398 -0.10773441 0.05340816 0.17675635 -0.013911235 -0.3252946 -0.13529584 -0.11029424 0.23531556 0.30818868 -0.49159506 0.33936545 0.0015950636 -0.050531283 -0.39385933 0.15178607 0.33086973 -0.3381451 -0.1517224 0.05016028 0.07704922 0.32875937 -0.48169512 0.13661158 -0.45673677 -0.47640324 -0.06132082 0.70290834 0.42447525 -0.33325872 0.25319508 0.09156756 0.21438448 0.2304112 -0.10495011 -0.33686003 -0.0053318203 0.21502566 0.5943981 0.29846865 0.26173556 -0.24484214 -0.01231454 0.033288658 -0.27777275 -0.080787875 -0.02857212 0.08076911 -0.4384494 0.27031907 -0.20416242 -0.041489422 -0.025655534 0.10960509 0.31253847 0.32245085 -0.20493202 0.26700258 -0.3134557 0.22144969 0.281961 0.2507533 0.34994662 -0.3032159 0.19091342 -0.029947486 0.038243957 0.21622874 0.13253017 0.1340927 -0.019263439 0.5023439 -0.2610259 -0.10584055 -0.24283879 -0.06440788 0.22128242 -0.38893476 0.46514913 0.23252836 -0.060409546 -0.072637364 0.11508935 0.018300986 -0.103876635 0.543619 -0.24098483 -0.07102758 0.24782556 -0.2132362 -0.44890967 -0.008777213 -0.19654365 0.13502562 -0.11486166 0.24162522 0.33898064 -0.105404995 0.04967429 -0.14058799 0.038727153 -0.17913504 0.3580435 0.19869256
5 -0.16353321 0.11533816 -0.14775145 0.16700791 -0.03151403 -0.022667922 -0.38611096 -0.05745612 -0.28715572 0.10132738 0.22823587 0.25870165 -0.57413745 0.5784617 -0.17416145 0.62616354 -0.6930582 0.17340727 -0.39045876 0.086348265 -0.121224135 0.5273418 -0.07228765 -0.8372714 0.09429823 -0.38465652 -0.1383453 0.4814022 -0.22853045 -0.1353516 0.50835854 0.12740923 0.1834766 0.5771574 -0.17706393 0.1427956 0.62675714 0.5188038 -0.30329266 -0.16462266 -0.24865097 -0.11142946 0.250111 -0.18735635 -0.01792872 0.21863236 -0.35186628 -0.14894886 -0.17767036 0.23215891 0.0047387294 0.55209506 0.3566927 0.38999808 0.027302196 0.7166729 0.38718462 0.18408434 0.10854109 0.28459108 -0.6010074 -0.14863516 0.4078307 0.112384036 -0.14725432 0.45732427 0.3774392 0.046105634 -0.6837855 0.023685224 -0.26834536 -0.37260655 -0.55596256 0.26311067 -0.21791948 -0.35374764 0.120808825 -0.25209257 -0.08881803 0.27152944 0.11232566 -0.0652829 -0.10745028 0.4195552 0.05958531 0.35937527 0.5217465 -0.019377645 -0.004921951 0.15230177 0.1647262 -0.04941661 0.39341536 -0.41791752 0.3404632 -0.3227316 0.19593206 0.25563008 -0.22038607 -0.28075528 -0.5248459 0.15625569 -0.52631843 -0.13821505 0.1382287 0.18748862 0.37478796 0.12164762 -0.32054877 -0.101185426 0.82261574 0.06622669 0.1523802 0.009066674 -0.06998202 -0.50775975 -0.041310895 0.10582112 0.21679567 0.07125583 0.268402 0.2857134 0.24492387 -0.18609673 -0.20103215 -0.1535826 0.20529345 -0.23661242
